{"version": "0.5.2", "metadata": {"date": {"year": 2024, "month": 4, "day": 19, "hour": 15, "minute": 44, "second": 25}, "loudness": -18.096343994140625, "gain": 0.7953187703632376}, "architecture": "WaveNet", "config": {"layers": [{"input_size": 1, "condition_size": 1, "head_size": 8, "channels": 16, "kernel_size": 3, "dilations": [1, 2, 4, 8, 16, 32, 64, 128, 256, 512], "activation": "Tanh", "gated": false, "head_bias": false}, {"input_size": 16, "condition_size": 1, "head_size": 1, "channels": 8, "kernel_size": 3, "dilations": [1, 2, 4, 8, 16, 32, 64, 128, 256, 512], "activation": "Tanh", "gated": false, "head_bias": true}], "head": null, "head_scale": 0.02}, "weights": [-0.06207198649644852, 0.41673240065574646, -0.8521472811698914, -0.7539663314819336, -0.3965539336204529, 0.290504515171051, -0.061681896448135376, 0.8303197026252747, -0.13799697160720825, 0.29256248474121094, -0.36882373690605164, -0.19220207631587982, -1.0037349462509155, -0.6926411986351013, -0.45347604155540466, 0.016727574169635773, 0.08259817212820053, 0.09170730412006378, -0.11230317503213882, -0.10100370645523071, 0.03278510645031929, 0.11929012089967728, 0.007844990119338036, 0.12654586136341095, -0.02408766560256481, 0.05258667841553688, 0.14892913401126862, -0.1350347250699997, -0.05310957506299019, -0.017723774537444115, -0.05675886943936348, 0.08820080757141113, -0.11078745871782303, -0.06425057351589203, -0.07022469490766525, -0.12492386251688004, -0.0932762548327446, 0.08672940731048584, 0.0461268313229084, 0.07105220854282379, 0.042529214173555374, -0.05890265852212906, 0.019919846206903458, -0.17138522863388062, -0.12166963517665863, -0.0723687931895256, 0.127768874168396, 0.10200349986553192, -0.06612939387559891, 0.03135821968317032, 0.10985943675041199, 0.14177075028419495, 0.09467045217752457, 0.03782917931675911, 0.09572898596525192, -0.04762580618262291, 0.04515412077307701, -0.11303777247667313, -0.06273405998945236, -0.05636275187134743, 0.06411897391080856, 0.023494547232985497, -0.10131233930587769, 0.045885082334280014, 0.09866010397672653, 0.0371355265378952, 0.10413265973329544, 0.0007636049413122237, 0.024639295414090157, 0.03440353646874428, -0.08010664582252502, 0.011741962283849716, 0.16200673580169678, 0.15095658600330353, 0.19023990631103516, 0.23245181143283844, 0.05954617261886597, -0.06094277277588844, 0.11930859833955765, -0.1213669702410698, -0.19884569942951202, 0.02280653826892376, 0.13310691714286804, -0.08547142148017883, 0.1283457726240158, -0.055604349821805954, -0.08843239396810532, -0.1712495982646942, 0.08495597541332245, -0.021849580109119415, 0.1588602364063263, 0.04236064851284027, 0.03903327137231827, -0.051848042756319046, -0.11236010491847992, -0.029238414019346237, 0.17824488878250122, 0.06100625917315483, -0.048677876591682434, 0.02183738350868225, 0.1670217514038086, 0.16192500293254852, 0.04216410592198372, -0.0051516760140657425, -0.07286391407251358, 0.10277947783470154, -0.0780930146574974, -0.0469181053340435, 0.09795161336660385, -0.010852480307221413, -0.12099096179008484, -0.012136341072618961, -0.10735225677490234, 0.09887821972370148, 0.05594181269407272, -0.07552092522382736, 0.017998311668634415, 0.06656163185834885, -0.021901853382587433, -0.017721129581332207, -0.002556342165917158, -0.034589335322380066, -0.12242401391267776, 0.009241605177521706, -0.18034106492996216, -0.13670191168785095, -0.09479881823062897, -0.028017228469252586, 0.0003995379665866494, -0.06048140302300453, -0.055949866771698, -0.005008955951780081, -0.13944017887115479, 0.03569947928190231, 0.15528467297554016, 0.044228482991456985, -0.0333213284611702, -0.05916740000247955, -0.025207040831446648, 0.13321051001548767, 0.18715901672840118, 0.14934028685092926, 0.09587448090314865, -0.06088271737098694, -0.18759748339653015, -0.11082496494054794, 0.04750030115246773, -0.058437712490558624, -0.11486341804265976, -0.16266083717346191, -0.19430696964263916, -0.16461573541164398, -0.08100622892379761, 0.02021849900484085, 0.03629175201058388, -0.19018758833408356, 0.03158543258905411, -0.0761716440320015, 0.010757056064903736, -0.013020736165344715, -0.027999896556138992, -0.0006394679076038301, -0.06920310109853745, -0.13241122663021088, -0.05295630916953087, -0.05431954562664032, -0.05948939546942711, 0.08451046794652939, -0.07213086634874344, -0.003140184795483947, 0.15738993883132935, -0.0010221974225714803, 0.13520652055740356, 0.08147040754556656, -0.07302790880203247, 0.08485481142997742, -0.0469067320227623, -0.12200098484754562, 0.11300909519195557, -0.093023382127285, 0.06982209533452988, -0.036747295409440994, 0.0726085975766182, -0.017645055428147316, 0.07378294318914413, 0.08014605194330215, 0.02305394783616066, -0.03591013327240944, -0.14863799512386322, 0.020766455680131912, 0.12030194699764252, 0.12891919910907745, -0.043523408472537994, 0.011861301027238369, -0.07270259410142899, -0.0233146995306015, -0.07757892459630966, 0.07986388355493546, -0.027915650978684425, 0.0030828199815005064, 0.03632530942559242, 0.15090058743953705, -0.1038723960518837, -0.06952378153800964, -0.02624984085559845, 0.10328672081232071, -0.06945137679576874, 0.08088754862546921, 0.051832426339387894, 0.027705326676368713, 0.015026633627712727, -0.0036509204655885696, 0.034392666071653366, -0.02378198690712452, -0.022969447076320648, 0.0053752087987959385, -0.11867943406105042, -0.0975739061832428, 0.10356850177049637, -0.12289074063301086, -0.031485263258218765, 0.13059107959270477, 0.047175534069538116, 0.024688929319381714, -0.11352809518575668, 0.07587705552577972, -0.10412876307964325, -0.03240058571100235, -0.03344724327325821, 0.0006707357242703438, 0.014699759893119335, 0.12491200119256973, 0.0023899462539702654, 0.12303070724010468, 0.0891462042927742, -0.07081929594278336, 0.07612614333629608, -0.0978691428899765, -0.08135387301445007, 0.031356893479824066, 0.04384726658463478, 0.08742701262235641, -0.058318402618169785, -0.004514985717833042, 0.0521840900182724, -0.15279130637645721, 0.09841989725828171, -0.14099735021591187, -0.010698219761252403, -0.029980964958667755, -0.09695576131343842, 0.007123630493879318, 0.11466334760189056, -0.03409901633858681, -0.08674421161413193, -0.059786342084407806, -0.16123592853546143, 0.032046444714069366, -0.11699321866035461, -0.049223702400922775, -0.02768932469189167, 0.14660558104515076, 0.032589904963970184, 0.05698741599917412, -0.011019709520041943, -0.092253178358078, -0.09404969960451126, -0.02043876424431801, 0.07587180286645889, -0.013834089040756226, -0.13127772510051727, -0.02478966861963272, -0.08390580862760544, 0.09299473464488983, -0.10554414987564087, -0.16554762423038483, 0.07685954123735428, -0.049783285707235336, 0.037312738597393036, 0.10451072454452515, -0.03333224356174469, -0.1456276774406433, -0.17549362778663635, 0.15726085007190704, 0.07571829110383987, 0.18159602582454681, -0.09032522886991501, -0.00977496337145567, -0.09524761885404587, -0.04951731488108635, -0.1402411311864853, -0.012544014491140842, 0.0016856275033205748, -0.05679994449019432, -0.09579125046730042, -0.1325988471508026, 0.04630753770470619, -0.1705041080713272, 0.016475860029459, -0.10146703571081161, -0.132439523935318, 0.06266484409570694, -0.03345388174057007, 0.08086702227592468, 0.003701751120388508, -0.12182604521512985, 0.023511065170168877, 0.1081816703081131, 0.09420496225357056, 0.004933086223900318, -0.1633642315864563, -0.057597655802965164, 0.02907642535865307, -0.09756739437580109, 0.01966063305735588, 0.07526163011789322, -0.11972033232450485, -0.03325419872999191, 0.03931770473718643, 0.0548245906829834, 0.045644428580999374, 0.037399087101221085, -0.14326776564121246, -0.007915960624814034, 0.09461397677659988, 0.17492951452732086, 0.11996691673994064, 0.040189582854509354, 0.02810712531208992, -0.09941507875919342, -0.1345670372247696, -0.08102448284626007, 0.17726002633571625, 0.11061740666627884, -0.14308711886405945, 0.02297307178378105, 0.0898687019944191, 0.10106799006462097, 0.09297512471675873, 0.09272448718547821, -0.07807818800210953, -0.08592424541711807, 0.0975474938750267, 0.03617611527442932, -0.12181796133518219, 0.10909557342529297, 0.025651641190052032, 0.044300906360149384, -0.11054608225822449, 0.0750950276851654, -0.028253521770238876, 0.12261737138032913, -0.05380730703473091, 0.01790037751197815, -0.02234639599919319, 0.11067651212215424, 0.008055195212364197, 0.1345892697572708, -0.14725004136562347, -0.022417264059185982, -0.1604863554239273, -0.1891292780637741, -0.17113149166107178, 0.050996407866477966, 0.032550375908613205, 0.08117455244064331, 0.05344569310545921, -0.08279980719089508, -0.04393493011593819, 0.038956575095653534, -0.12440869957208633, 0.05987671762704849, -0.15859369933605194, -0.023764479905366898, -0.08426414430141449, -0.019018474966287613, 0.07658068090677261, 0.06707680225372314, 0.044011473655700684, 0.15691038966178894, 0.18244831264019012, 0.025009946897625923, 0.018398035317659378, 0.07469578832387924, -0.014151482842862606, 0.09802215546369553, 0.02023458294570446, 0.027506427839398384, -0.09716708958148956, 0.01405175868421793, -0.04640430957078934, -0.0808265432715416, -0.13629108667373657, -0.14372718334197998, -0.15655924379825592, 0.04267975315451622, 0.04045446217060089, 0.024340180680155754, -0.036143574863672256, 0.16518855094909668, 0.07547695189714432, -0.012588170357048512, -0.09758258610963821, 0.1761692464351654, 0.10651049762964249, -0.059014540165662766, 0.0976046621799469, 0.06427999585866928, -0.10181078314781189, 0.04043879732489586, -0.12732374668121338, -0.0716497078537941, 0.08287446945905685, -0.03866850957274437, -0.1507585644721985, -0.00868095364421606, 0.004826834890991449, 0.01974387839436531, -0.009657511487603188, 0.10465575009584427, -0.02626982517540455, -0.04849882051348686, 0.05269952490925789, 0.11827227473258972, 0.03679447993636131, -0.17155905067920685, -0.0695386752486229, -0.06836409866809845, -0.01796574890613556, 0.09944839775562286, -0.1412457674741745, 0.009988600388169289, 0.07483220100402832, -0.030045559629797935, -0.13998134434223175, -0.0989273339509964, -0.009140945971012115, -0.1554277241230011, 0.02249787002801895, -0.17138871550559998, -0.18382954597473145, -0.18915368616580963, -0.06864053010940552, 0.05277108773589134, -0.18492387235164642, 0.15432019531726837, -0.022324711084365845, 0.0788874626159668, -0.046929240226745605, -0.18427841365337372, 0.06367962807416916, 0.14555512368679047, 0.21254439651966095, 0.1431208699941635, -0.163002610206604, 0.05128878355026245, -0.06276830285787582, 0.0009477437706664205, -0.18458478152751923, -0.11167672276496887, -0.20933155715465546, -0.12531954050064087, -0.03936370834708214, -0.04664774611592293, 0.11385315656661987, 0.14653673768043518, -0.038395825773477554, -0.15543340146541595, -0.17250441014766693, 0.023033084347844124, 0.13230213522911072, 0.21262085437774658, 0.01808641478419304, -0.08216780424118042, -0.016569936648011208, -0.07490935921669006, -0.05530376732349396, 0.13658741116523743, -0.14869199693202972, 0.0011426976416260004, -0.17153142392635345, -0.13775025308132172, -0.1862316131591797, 0.006791610736399889, -0.08232822269201279, 0.04204542189836502, 0.01895873248577118, 0.012338274158537388, -0.06427991390228271, -0.11488264054059982, -0.09881594032049179, -0.04968586564064026, 0.001315559260547161, -0.040609557181596756, 0.18024204671382904, 0.043536096811294556, -0.17507635056972504, -0.14274640381336212, 0.060902055352926254, 0.16356222331523895, -0.09001932293176651, 0.15103496611118317, 0.03696134686470032, 0.037965480238199234, 0.06976436078548431, -0.11273237317800522, -0.0015126022044569254, 0.006917970255017281, -0.07905768603086472, -6.679308717139065e-05, -0.09465059638023376, 0.12455996870994568, 0.00731923570856452, -0.001453124568797648, -0.007519976235926151, -0.0032960143871605396, -0.12764421105384827, 0.047877900302410126, 0.13088664412498474, 0.03790035471320152, 0.0048751551657915115, -0.08559263497591019, -0.0045255022123456, -0.06849844753742218, -0.036909524351358414, -0.020521288737654686, 0.09580012410879135, -0.08770667761564255, -0.053998809307813644, -0.10484182834625244, 0.09725703299045563, 0.08919500559568405, -0.144074484705925, -0.16436390578746796, -0.16177374124526978, -0.03602997586131096, -0.08422694355249405, -0.14687283337116241, -0.08812210708856583, -0.021051205694675446, -0.12847469747066498, 0.06232738122344017, 0.008530651219189167, -0.02307073213160038, 0.05962185189127922, 0.15178999304771423, -0.07518938183784485, -0.049409668892621994, -0.10397157073020935, 0.10022640228271484, -0.08210862427949905, -0.08905906230211258, 0.18183816969394684, -0.03652236983180046, 0.0769134908914566, 0.027108849957585335, 0.023745210841298103, 0.01635311357676983, 0.13057540357112885, -0.046871334314346313, -0.1885969638824463, -0.12352710217237473, -0.008821670897305012, 0.10631559044122696, -0.07001803815364838, 0.08127336204051971, -0.08142832666635513, -0.0654989629983902, 0.16336886584758759, 0.11678355187177658, 0.15659673511981964, 0.029887355864048004, -0.09170036762952805, -0.13386432826519012, 0.04293287917971611, 0.1674523949623108, -0.010321618989109993, -0.08013324439525604, 0.10713837295770645, 0.1787264198064804, 0.013869090005755424, -0.07008647173643112, -0.09119541198015213, 0.09078481048345566, 0.03812287375330925, -0.03354434669017792, 0.08326157182455063, 0.10330870002508163, 0.1535017490386963, 0.07089447230100632, -0.05593248829245567, -0.1525980681180954, -0.11696530878543854, 0.1697300523519516, 0.13188716769218445, 0.031465329229831696, -0.17623271048069, 0.05274620279669762, 0.16603843867778778, 0.1800777018070221, -0.04134320095181465, -0.02497309446334839, -0.04938915744423866, 0.21711158752441406, -0.03351890295743942, -0.016864873468875885, 0.1554705798625946, -0.09569542109966278, -0.12040452659130096, -0.0925208032131195, 0.0016917942557483912, -0.07602375745773315, 0.18908005952835083, -0.09320041537284851, 0.001230410416610539, 0.04498341307044029, 0.09852560609579086, 0.06692086905241013, 0.2006535679101944, -0.009270702488720417, -0.11599556356668472, 0.05651773884892464, 0.06251103430986404, -0.09183988720178604, 0.03888466954231262, -0.06936749070882797, 0.17578934133052826, 0.055813658982515335, -0.10203510522842407, 0.04091665893793106, 0.17126339673995972, 0.06674277782440186, 0.09534215182065964, 0.09376855939626694, 0.08237878978252411, 0.01396156195551157, 0.02257283590734005, -0.1571142077445984, -0.1494291126728058, -0.00641225092113018, -0.09075545519590378, 0.03287205100059509, 0.08387785404920578, -0.008233322761952877, -0.12614479660987854, 0.08628261089324951, -0.06900808215141296, 0.14884626865386963, -0.06372053176164627, -0.019450519233942032, 0.1088254302740097, -0.007944658398628235, 0.13518276810646057, -0.07001522183418274, -0.07059573382139206, -0.07949507981538773, -0.006009791512042284, 0.08295537531375885, -0.07008535414934158, 0.06661534309387207, 0.0025235938373953104, -0.046470604836940765, 0.07584818452596664, -0.16295166313648224, 0.025273730978369713, 0.161235973238945, 0.027455322444438934, 0.09852759540081024, -0.0732082799077034, 0.06638599187135696, -0.12631778419017792, 0.007973351515829563, 0.024857791140675545, 0.0610039085149765, 0.08559758961200714, 0.16013184189796448, -0.006353865377604961, 0.02460150606930256, 0.15006834268569946, -0.024221889674663544, 0.15653204917907715, -0.04517422243952751, -0.0019315804820507765, 0.021313505247235298, 0.11476852744817734, 0.08709929883480072, -0.04564214125275612, -0.1583002209663391, 0.09310842305421829, 0.0610983669757843, 0.06633936613798141, -0.08318081498146057, 0.09935509413480759, 0.14678379893302917, 0.01118750125169754, -0.13750390708446503, 0.09372572600841522, -0.10890719294548035, 0.0300812479108572, 0.013174565508961678, -0.06740685552358627, 0.04891322925686836, -0.13560710847377777, 0.03401308134198189, -0.08925840258598328, -0.008766516111791134, 0.03586048632860184, 0.1378469467163086, -0.06147265434265137, 0.09417322278022766, -0.015352671965956688, -0.06078142300248146, -0.1214679554104805, -0.12980671226978302, 0.13804179430007935, -0.03623911738395691, 0.008317722007632256, 0.04518495127558708, 0.09871020913124084, 0.12226125597953796, 0.11087123304605484, -0.10782498121261597, -0.024938713759183884, -0.09159359335899353, -0.08409810811281204, 0.03128253296017647, 0.12767033278942108, -0.11687766760587692, 0.08479005843400955, -0.08226612955331802, -0.02790888026356697, 0.11329082399606705, -0.039094679057598114, 0.010983654297888279, -0.10490904748439789, 0.12002106010913849, 0.010883418843150139, -0.06913770735263824, 0.08549962192773819, -0.15157152712345123, -0.16843122243881226, -0.049747176468372345, 0.16153021156787872, 0.01185736246407032, 0.12590859830379486, 0.1712140589952469, 0.14839531481266022, -0.01787823997437954, 0.030414503067731857, 0.006547397002577782, -0.05868622288107872, -0.046118222177028656, 0.057096756994724274, 0.06504609435796738, 0.04492513835430145, 0.07030699402093887, -0.018536631017923355, 0.06177040934562683, -0.11276125907897949, -0.1581430733203888, 0.06451556831598282, 0.1344047337770462, -0.07685098052024841, 0.08466997742652893, 0.0005864484119229019, -0.15766122937202454, 0.014702538959681988, 0.17671272158622742, -0.0538971945643425, 0.003862162819132209, 0.09856389462947845, -0.07032158225774765, 0.1264071762561798, 0.1279880553483963, 0.14759878814220428, -0.04510927200317383, 0.19624042510986328, -0.027828989550471306, 0.19027498364448547, -0.08664343506097794, -0.07136700302362442, 0.053067710250616074, -0.023081526160240173, -0.033217642456293106, -0.06554591655731201, -0.07985368371009827, -0.04841442033648491, -0.1377001255750656, 0.019469844177365303, 0.024037819355726242, -0.012379090301692486, 0.030857404693961143, 0.12125661224126816, 0.05245286226272583, -0.04563361033797264, -0.06156878545880318, -0.10587182641029358, -0.08671443164348602, -0.025825578719377518, -0.02852625399827957, 0.4453778564929962, -0.5325453877449036, 0.8570805191993713, -0.7597771286964417, 0.009661919437348843, 0.9628441333770752, 1.016254186630249, -0.5158756375312805, 0.22811326384544373, 0.18891063332557678, -0.4169537425041199, -0.38594213128089905, 0.19005565345287323, -0.7471480965614319, 0.17356708645820618, 0.3740457594394684, -0.13164283335208893, 0.25460904836654663, -0.07256114482879639, 0.135882169008255, 0.18972544372081757, -0.1570281684398651, 0.07944416254758835, -0.06047787517309189, -0.07032981514930725, -0.09303047508001328, 0.04747375100851059, -0.038893625140190125, 0.06402654945850372, 0.05629836022853851, 0.11758574098348618, -0.03938060253858566, 0.005491532385349274, -0.05480186268687248, -0.270521879196167, 0.11361238360404968, -0.007786755915731192, -0.16174238920211792, -0.1477193534374237, 0.11029820144176483, -0.06959778070449829, 0.11601870507001877, 0.04017358645796776, 0.10899524390697479, 0.1019040122628212, -0.027066681534051895, 0.07827410101890564, 0.19944757223129272, 0.01063530147075653, 0.09224999696016312, -0.03522191569209099, 0.19609694182872772, -0.1524231880903244, -0.20674286782741547, 0.053275711834430695, -0.17374630272388458, -0.031173422932624817, -0.16411958634853363, 0.21234188973903656, -0.1804458647966385, 0.16920003294944763, 0.29049670696258545, 0.049566514790058136, 0.0038774125277996063, 0.2161072939634323, -0.11059973388910294, -0.0353260301053524, -0.12066783010959625, -0.04053744301199913, 0.060360878705978394, 0.022035645321011543, 0.005481399595737457, -0.24121707677841187, 0.011195844039320946, -0.002457620110362768, -0.005154661368578672, 0.15552270412445068, 0.2407207190990448, -0.16619960963726044, -0.02090614102780819, -0.1389385312795639, -0.2294231802225113, -0.21186292171478271, 0.20184949040412903, 0.1356770396232605, 0.10174768418073654, 0.11834728717803955, -0.16972310841083527, 0.03674605116248131, 0.2252715826034546, -0.13082364201545715, 0.2478499561548233, 0.04153034836053848, 0.17566847801208496, -0.128590390086174, 0.100770965218544, -0.19327248632907867, -0.038276784121990204, 0.11668004840612411, 0.06648406386375427, 0.23326575756072998, 0.2711474597454071, 0.2585279941558838, 0.10954515635967255, 0.19662216305732727, -0.009565561078488827, -0.22509759664535522, -0.0878836140036583, -0.002947630826383829, -0.16046281158924103, 0.14963623881340027, 0.08297883719205856, 0.07096385955810547, 0.13050198554992676, 0.16348963975906372, 0.14262241125106812, -0.2920687794685364, -0.26238611340522766, 0.03867084160447121, 0.03512869402766228, 0.057663269340991974, -0.32626405358314514, -0.15943072736263275, 0.2286047339439392, 0.21013464033603668, -0.15667738020420074, 0.07564414292573929, -0.12715889513492584, 0.21796518564224243, 0.06106345355510712, 0.2922641932964325, -0.24654819071292877, -0.21153385937213898, 0.19427624344825745, 0.2638574242591858, 0.10128766298294067, 0.17523768544197083, -0.1828901469707489, 0.16894769668579102, -0.22635957598686218, 0.07015805691480637, -0.17962175607681274, -0.0687343180179596, 0.03168788179755211, -0.12417389452457428, 0.002880560467019677, -0.2963428497314453, -0.21373799443244934, 0.04850420728325844, -0.16342495381832123, -0.21460306644439697, -0.052178654819726944, -0.23700910806655884, -0.24908515810966492, 0.1822916567325592, 0.14718618988990784, 0.026496702805161476, -0.09689117223024368, 0.0411999337375164, 0.03739653527736664, -0.23637279868125916, 0.04711117967963219, 0.21352970600128174, -0.25142642855644226, -0.24619100987911224, 0.03271903842687607, 0.17841359972953796, -0.06034087762236595, 0.059252429753541946, 0.17775683104991913, 0.08591904491186142, 0.03280584514141083, 0.1967836171388626, 0.15889501571655273, -0.15395715832710266, -0.005100800655782223, 0.10005177557468414, 0.2649289667606354, -0.3074726164340973, 0.16174426674842834, -0.11911307275295258, -0.3070793151855469, -0.005303526762872934, -0.08082570880651474, -0.001971348188817501, -0.21164613962173462, -0.14916227757930756, 0.006697096396237612, -0.09739045798778534, 0.18943320214748383, -0.015613041818141937, 0.2184799164533615, 0.03145407885313034, -0.08088456839323044, 0.1465345174074173, 0.0035836505703628063, 0.02478868141770363, -0.09590578824281693, -0.012827454134821892, -0.05322626605629921, -0.014772001653909683, -0.19699358940124512, -0.010191062465310097, -0.20181715488433838, -0.05074852332472801, 0.1421380639076233, -0.19561225175857544, -0.1477080136537552, -0.07097865641117096, -0.021303849294781685, -0.01478904951363802, 0.07274022698402405, 0.07444602996110916, -0.22822582721710205, -0.07742908596992493, 0.1672087460756302, 0.1807340383529663, -0.06900238990783691, -0.10710860043764114, 0.09196387976408005, 0.15314047038555145, -0.11103781312704086, -0.1829378604888916, 0.1412324458360672, -0.02287258766591549, -0.21302680671215057, -0.17871657013893127, 0.11105291545391083, -0.11141499131917953, 0.14351192116737366, 0.16077715158462524, 0.06903805583715439, -0.04678909480571747, -0.10631575435400009, 0.013572928495705128, 0.06856861710548401, -0.18630443513393402, -0.037261538207530975, -0.2219337522983551, 0.1754056215286255, -0.17009849846363068, 0.26841020584106445, -0.12261337041854858, -0.13140669465065002, 0.0677267387509346, -0.04301919415593147, 0.11192247271537781, 0.1443888545036316, -0.27024054527282715, 0.11035550385713577, -0.005679254420101643, -0.05064476653933525, 0.17381726205348969, 0.22107259929180145, -0.22517094016075134, -0.0013361218152567744, 0.18111060559749603, 0.09391587227582932, 0.20914870500564575, -0.080295629799366, -0.1376875638961792, 0.20912788808345795, 0.10474518686532974, 0.23115447163581848, -0.09998735040426254, -0.15629622340202332, -0.03506001830101013, -0.24233394861221313, 0.0874103382229805, 0.1826973408460617, 0.04455816373229027, -0.043492548167705536, 0.1392914056777954, -0.15313148498535156, 0.22326971590518951, -0.22299431264400482, -0.19178886711597443, -0.06072581186890602, 0.1656472384929657, 0.014759447425603867, 0.0951913371682167, -0.177374929189682, 0.09128592908382416, -0.017724985256791115, 0.08892616629600525, 0.16562166810035706, 0.10433859378099442, -0.013049159198999405, 0.011103430762887001, -0.07556434720754623, -0.03208461031317711, 0.07829000800848007, -0.07708615064620972, 0.07356435805559158, -0.07203863561153412, -0.04971699416637421, 0.006302675697952509, -0.16772621870040894, -0.03761914372444153, -0.044973570853471756, -0.040890034288167953, -0.05890284478664398, 0.08516308665275574, 0.14627695083618164, -0.050884753465652466, 0.0895167663693428, -0.07763654738664627, -0.09132461249828339, 0.07991744577884674, 0.04861186444759369, -0.016811346635222435, -0.11177819967269897, -0.08007505536079407, 0.020862987264990807, -0.13956424593925476, -0.14210498332977295, 0.017525874078273773, -0.10828514397144318, -0.16316723823547363, -0.1022268757224083, -0.043941229581832886, -0.1734122484922409, -0.13467669486999512, -0.03017469495534897, -0.15863341093063354, -0.04141006991267204, -0.09526494890451431, -0.08886135369539261, 0.06805844604969025, -0.09407667070627213, -0.1147773265838623, 0.07408888638019562, 0.0358639732003212, 0.12603135406970978, -0.04207872971892357, -0.09023943543434143, -0.013996976427733898, -0.009514384903013706, 0.06637739390134811, -0.13351298868656158, -0.007130448240786791, 0.051678817719221115, -0.025380205363035202, -0.045576464384794235, 0.038802288472652435, -0.10718145966529846, 0.04536912217736244, -0.12577387690544128, 0.07356400787830353, -0.12573720514774323, 0.07327818125486374, -0.2183082550764084, -0.17383603751659393, 0.012512206099927425, 0.10244095325469971, -0.1363312304019928, -0.1037040427327156, 0.05315063148736954, -0.07132349908351898, 0.07168149203062057, -0.0753365084528923, -0.00860225223004818, -0.09595118463039398, 0.10532079637050629, 0.04705814644694328, -0.10267148166894913, 0.10247886180877686, 0.04777903109788895, -0.07584883272647858, -0.10667868703603745, -0.06939481198787689, 0.08086620271205902, -0.054502539336681366, -0.07548588514328003, -0.06954466551542282, 0.02894989401102066, 0.054670922458171844, -0.004438166972249746, 0.012097472324967384, -0.06681766360998154, -0.06463368237018585, -0.1088881641626358, 0.0920957550406456, -0.10779004544019699, -0.09641940146684647, -0.13019214570522308, -0.04343272000551224, 0.1354135125875473, 0.14400850236415863, -0.10847968608140945, -0.03743696212768555, 0.043501608073711395, 0.02179773338139057, 0.10220752656459808, -0.02134074829518795, -0.11221633851528168, 0.10574682801961899, -0.035272855311632156, 0.08849288523197174, -0.0039021577686071396, 0.10959027707576752, 0.17704321444034576, 0.15347342193126678, -0.11908404529094696, -0.08668938279151917, -0.02275298722088337, -0.04194236174225807, 0.1893249750137329, -0.04539596289396286, -0.14183765649795532, -0.11071553081274033, -0.054391104727983475, 0.08759529143571854, -0.09668611735105515, -0.16126738488674164, -0.19231517612934113, 0.010670307092368603, 0.0593712292611599, -0.09570175409317017, 0.027440104633569717, 0.06964979320764542, -0.02260199375450611, -0.07441212236881256, -0.015856556594371796, -0.043428003787994385, 0.04566469416022301, -0.11926322430372238, 0.040873121470212936, 0.04656195640563965, -0.06786251813173294, 0.14686225354671478, 0.17142035067081451, -0.09450995922088623, -0.0759183019399643, 0.04080803319811821, -0.08096889406442642, 0.09030644595623016, 0.06739725917577744, 0.04692169651389122, -0.16499315202236176, -0.15421752631664276, 0.08870712667703629, 0.08456756174564362, -0.09965036809444427, -0.047255225479602814, -0.0960434079170227, -0.06593472510576248, -0.0314420722424984, 0.14502009749412537, -0.018487436696887016, 0.05333428829908371, 0.10884907096624374, 0.0332464724779129, -0.10874570161104202, 0.08607669919729233, 0.05046899616718292, 0.06849861890077591, -0.18129746615886688, 0.05471733957529068, 0.1520105004310608, -0.10061724483966827, 0.047262080013751984, 0.07664819061756134, -0.14313547313213348, 0.017376750707626343, 0.08216061443090439, 0.057823296636343, 0.17588314414024353, 0.07744460552930832, 0.0858258455991745, -0.05122899264097214, 0.08343209326267242, -0.17112059891223907, -0.11321450769901276, -0.07762423157691956, -0.08500894159078598, 0.09747626632452011, 0.11605841666460037, 0.13650168478488922, 0.1363118290901184, -0.11791872978210449, -0.03177332878112793, 0.00408216705545783, 0.06229497119784355, 0.09558907896280289, -0.03533802926540375, -0.0736316591501236, 0.08649040013551712, -0.06893835961818695, -0.1253921091556549, 0.07336887717247009, 0.07795169949531555, -0.04137647524476051, -0.026707874611020088, -0.10477627068758011, -0.0871521383523941, 0.09637577831745148, -0.028250833973288536, 0.137345552444458, -0.09843652695417404, -0.005879165604710579, 0.04081055149435997, 0.11805739253759384, 0.1548221856355667, 0.06478486210107803, 0.02430952712893486, -0.10012823343276978, -0.0771292895078659, -0.10143239796161652, 0.034556422382593155, 0.1111011877655983, -0.07038918137550354, -0.04252588748931885, -0.1253487467765808, 0.02862360142171383, 0.07432086020708084, -0.1782783418893814, -0.1393498331308365, 0.07322433590888977, 0.008262019604444504, -0.03496536239981651, 0.001939096488058567, -0.04292973875999451, -0.1271178126335144, -0.159193217754364, 0.11477742344141006, 0.006606714800000191, -0.03375563398003578, -0.06090330332517624, -0.09908773005008698, -0.05787375569343567, -0.11582836508750916, 0.11846365034580231, 0.06983231753110886, -0.0776168704032898, -0.05323219299316406, 0.06101495772600174, -0.037201523780822754, 0.05247661843895912, 0.05259782075881958, -0.07813941687345505, 0.050070587545633316, 0.023887647315859795, 0.11494879424571991, -0.0665612742304802, -0.051424235105514526, 0.09568771719932556, -0.13680106401443481, -0.004049378912895918, 0.12041184306144714, -0.08513718843460083, 0.11571521311998367, 0.1284022033214569, 0.13639366626739502, -0.013096754439175129, 0.13395273685455322, -0.05927317589521408, -0.04514279589056969, 0.05987488850951195, 0.04164129123091698, 0.09300442039966583, 0.15602925419807434, -0.07467970252037048, 0.09619466960430145, 0.05073276534676552, 0.0776454359292984, 0.06962722539901733, -0.06206681951880455, -0.12309250980615616, 0.10512318462133408, -0.09593694657087326, 0.08061105757951736, -0.14605025947093964, -0.011577066034078598, 0.014091972261667252, 0.03758036345243454, 0.01087978295981884, 0.038108836859464645, -0.03302115947008133, 0.05577528849244118, 0.15960794687271118, -0.07934089750051498, -0.044839099049568176, -0.09931116551160812, 0.07174640148878098, 0.11145932227373123, -0.01763424649834633, -0.06594277918338776, -0.08821337670087814, 0.1017901673913002, -0.014353182166814804, 0.17645597457885742, 0.133564755320549, 0.1913217455148697, 0.1266375333070755, -0.08813928812742233, 0.03901807218790054, -0.01886649988591671, 0.12317384034395218, 0.050699230283498764, -0.027022533118724823, -0.1472771167755127, -0.18660710752010345, 0.07990562915802002, 0.060786228626966476, 0.041457727551460266, 0.055657949298620224, -0.1146128699183464, -0.018098095431923866, -0.07173644751310349, 0.03988996893167496, -0.02725960873067379, 0.062102217227220535, 0.08168444782495499, 0.07114274799823761, -0.023222019895911217, 0.054072245955467224, -0.1774590015411377, -0.11558863520622253, -0.013192200101912022, -0.050401557236909866, -0.07785037904977798, -0.021236294880509377, -0.014003349468111992, -0.14642567932605743, 0.008341771550476551, 0.09712676703929901, 0.0644637867808342, -0.0645279511809349, -0.1255974918603897, -0.14622129499912262, -0.027075525373220444, 0.08257348835468292, -0.078345388174057, -0.09789722412824631, -0.0913751944899559, -0.01876632124185562, -0.14435070753097534, -0.1335163414478302, 0.19028550386428833, -0.019860487431287766, -0.0022851270623505116, -0.02121747098863125, -0.11120962351560593, -0.006705443374812603, 0.0940331220626831, -0.009703072719275951, 0.02098507434129715, -0.03543705865740776, -0.17952480912208557, 0.08408260345458984, 0.13688935339450836, 0.11936648935079575, -0.028949756175279617, 0.027897097170352936, -0.18629103899002075, -0.06188936531543732, -0.0574907511472702, -0.0761285051703453, 0.03403791785240173, -0.10198229551315308, -0.0513574481010437, -0.06403544545173645, -0.14968305826187134, -0.03720578923821449, -0.1313602179288864, 0.05943778157234192, 0.05186576396226883, 0.12198606878519058, -0.03063272498548031, 0.025070030242204666, 0.033596016466617584, 0.15018321573734283, 0.14186188578605652, -0.05283629894256592, -0.13176794350147247, -0.13655933737754822, -0.06933549046516418, 0.137763112783432, 0.08058536052703857, 0.2069740891456604, 0.11066646128892899, 0.012618495151400566, -0.06691223382949829, 0.13118477165699005, 0.10744423419237137, 0.05832181125879288, -0.12978579103946686, 0.038976624608039856, -0.11160163581371307, 0.09306440502405167, 0.06038862094283104, 0.08588986843824387, -0.17029181122779846, -0.14554311335086823, -0.027591342106461525, -0.005820912774652243, -0.07739163935184479, 0.20972010493278503, -0.013911131769418716, 0.10056686401367188, -0.14133086800575256, 0.08558664470911026, 0.004869113676249981, 0.049493130296468735, -0.018792858347296715, -0.041966743767261505, 0.09397819638252258, -0.0037755880039185286, 0.14704632759094238, 0.10389871150255203, -0.01430248562246561, -0.06189974769949913, -0.10058274120092392, -0.030689310282468796, -0.10809402167797089, 0.03459727019071579, -0.008150641806423664, -0.04233332723379135, -0.13326747715473175, 0.09063098579645157, 0.07937277853488922, -0.03145819157361984, -0.06271903216838837, 0.08967258036136627, 0.12727487087249756, -0.1247473880648613, -0.01044947374612093, 0.017486555501818657, -0.053226079791784286, 0.12731008231639862, -0.013486561365425587, 0.10798206925392151, -0.01090078055858612, -0.025061901658773422, -0.08008743077516556, -0.0647611916065216, 0.01393004972487688, 0.0543731190264225, -0.008659246377646923, 0.13840937614440918, -0.09966294467449188, 0.03648441284894943, 0.09690698981285095, -0.012950193136930466, 0.14194346964359283, 0.04050038009881973, -0.11914462596178055, -0.09491968899965286, 0.03503720834851265, -0.06380705535411835, 0.055861946195364, 0.17994439601898193, 0.05216928571462631, -0.011742985807359219, 0.03935326635837555, -0.06889041513204575, -0.0951574519276619, -0.07355732470750809, -0.11445202678442001, 0.040605854243040085, 0.042194709181785583, -0.06238759681582451, -0.12860503792762756, 0.1014578640460968, -0.07426322996616364, -0.029927290976047516, -0.13732707500457764, -0.02510976418852806, 0.10428719222545624, -0.11904225498437881, -0.10196790844202042, 0.08031172305345535, -0.12282542139291763, 0.011795805767178535, -0.005924855824559927, 0.03523396700620651, -0.0927634984254837, -0.0031311761122196913, 0.009914146736264229, -0.019681401550769806, 0.01311303861439228, -0.13417744636535645, -0.004453962203115225, 0.02866552025079727, 0.027766341343522072, -0.07906801253557205, 0.08790861815214157, 0.09832605719566345, -0.09139420092105865, 0.04662314057350159, 0.10275430977344513, 0.01334843784570694, 0.020373933017253876, 0.10916215181350708, -0.04672687500715256, -0.1550905555486679, -0.0360298752784729, 0.14609374105930328, -0.01632705144584179, -0.11484502255916595, 0.10973048210144043, 0.06388550251722336, -0.03099992126226425, 0.07737158238887787, 0.01658659428358078, 0.005638922099024057, 0.056430935859680176, -0.054378777742385864, 0.02987057715654373, 0.07396250218153, 0.04515625536441803, -0.07761058211326599, -0.029066776856780052, -0.14646875858306885, 0.07049389183521271, 0.08976901322603226, -0.004091507289558649, -0.09778402000665665, -0.03042854741215706, -0.028865154832601547, -0.15348117053508759, -0.09217710793018341, 0.14378072321414948, 0.11971896141767502, 0.06675917655229568, 0.08705957978963852, 0.04321231693029404, 0.06739860028028488, 0.08200854063034058, -0.0465250201523304, 0.01060060691088438, 0.1314675658941269, 0.032393280416727066, -0.0958247035741806, -0.11339005082845688, 0.08083713054656982, 0.14328745007514954, 0.13561458885669708, 0.04858566075563431, 0.10766799747943878, -0.12356074899435043, -0.0946429893374443, -0.16487173736095428, 0.09019399434328079, -0.02751656249165535, -0.076896071434021, 0.039889149367809296, -0.06493990123271942, -0.07581639289855957, 0.07027322053909302, 0.04307308793067932, -0.08560018241405487, -0.07733989506959915, 0.0868816077709198, 0.1289885938167572, 0.03094509057700634, -0.053163520991802216, 0.07788246870040894, 0.03362026810646057, -0.11560536921024323, -0.09459466487169266, 0.030150635167956352, 0.08713839948177338, -0.04726552218198776, 0.07062017917633057, -0.09316740930080414, 0.12004587054252625, 0.08679471909999847, 0.007472642231732607, 0.09670061618089676, 0.08008142560720444, -0.07237546145915985, 0.01440504565834999, 0.050851669162511826, -0.02879422716796398, 0.13298988342285156, -0.060386430472135544, -0.13527852296829224, -0.10396794974803925, -0.16643266379833221, 0.1149621456861496, -0.0797850713133812, -0.11338022351264954, -0.029217511415481567, -0.13741788268089294, -0.1113106906414032, 0.06299398839473724, -0.07321487367153168, 0.10229494422674179, 0.12040646374225616, -0.025621918961405754, 0.03877699375152588, -0.10265561938285828, 0.14479297399520874, 0.17404110729694366, 0.03902846947312355, 0.1435161978006363, -0.13851401209831238, -0.012272641062736511, 0.06525880098342896, -0.09327566623687744, 0.08661410957574844, -0.030784795060753822, -0.030214477330446243, -0.09868630021810532, 0.08232642710208893, -0.08342406898736954, -0.024339944124221802, 0.04378589987754822, 0.09133575856685638, 0.031444668769836426, -0.07583592087030411, -0.07486780732870102, 0.08405312150716782, 0.019013352692127228, 0.11962517350912094, 0.05811603367328644, 0.10044380277395248, -0.11492524296045303, 0.14294736087322235, -0.052549682557582855, -0.018633238971233368, 0.028609443455934525, -0.01999194733798504, 0.03943459689617157, 0.14440980553627014, -0.08166783303022385, 0.023381546139717102, -0.18108224868774414, -0.010853612795472145, 0.09225780516862869, 0.0804840698838234, 0.11956769227981567, 0.04959128797054291, -0.08346565067768097, 0.024295058101415634, -0.05405823141336441, 0.15577402710914612, 0.07192005217075348, -0.11128499358892441, 0.1129361018538475, -0.02166876755654812, 0.0030531270895153284, 0.01785128563642502, -0.004557416774332523, 0.03848591074347496, -0.03427625820040703, -0.13942138850688934, -0.06449674069881439, 0.0043359980918467045, 0.10349884629249573, 0.10609278082847595, -0.07949178665876389, -0.02851356938481331, -0.047163087874650955, -0.055123284459114075, -0.0014659601729363203, -0.04340142011642456, 0.06263856589794159, -0.15292464196681976, -0.0505794882774353, -0.14374616742134094, 0.0076218293979763985, 0.16875354945659637, -0.006668620742857456, -0.0771578773856163, 0.08945565670728683, 0.02955576963722706, -0.035044264048337936, -0.04005485400557518, 0.0077425711788237095, -0.002382212318480015, 0.10739552229642868, 0.016397634521126747, 0.15539094805717468, -0.07487516850233078, -0.07689974457025528, -0.019204342737793922, 0.04967067763209343, 0.08316390961408615, 0.04033317044377327, -0.00441263522952795, -0.10693894326686859, 0.017657360062003136, -0.12510479986667633, -0.045796576887369156, -0.04906202852725983, -0.07188703119754791, 0.1422673463821411, -0.04185767099261284, 0.09062153846025467, 0.12875685095787048, 0.10043274611234665, 0.08772657811641693, -0.01284838654100895, 0.009604834951460361, 0.024682214483618736, 0.032628536224365234, -0.07285317778587341, -0.037052467465400696, -0.04443040117621422, -0.17665469646453857, -0.019258566200733185, -0.13293975591659546, 0.13933640718460083, -0.03568818047642708, -0.023767294362187386, -0.0796598345041275, 0.11002696305513382, -0.10009071230888367, 0.06762079149484634, 0.07106930762529373, 0.10252182930707932, 0.04104248806834221, 0.09540902823209763, 0.13783583045005798, 0.04759448021650314, 0.07203862071037292, -0.08819371461868286, -0.03701969236135483, 0.022534651681780815, 0.028924187645316124, -0.06919391453266144, -0.18256689608097076, -0.08850808441638947, 0.026601985096931458, 0.10122984647750854, -0.14967060089111328, 0.042436838150024414, -0.18133682012557983, -0.1929158866405487, -0.08163444697856903, 0.00405896594747901, 0.07066132128238678, -0.11899765580892563, 0.09842034429311752, 0.11593650281429291, 0.017897091805934906, 0.151479110121727, -0.017776280641555786, -0.023808607831597328, 0.011728441342711449, 0.04839898273348808, -0.08684137463569641, -0.09230774641036987, 0.08609088510274887, 0.044828299432992935, 0.14746834337711334, -0.05109183117747307, 0.04928288608789444, -0.04765309765934944, 0.09002776443958282, -0.0007011935813352466, 0.10254079103469849, 0.0686766728758812, 0.14136995375156403, 0.07539553940296173, -0.010486298240721226, 0.08932412415742874, -0.10280804336071014, 0.12062949687242508, 0.13893091678619385, 0.13638582825660706, -0.060144905000925064, -0.07724344730377197, 0.04132366552948952, 0.06269653141498566, 0.07732919603586197, 0.04484224319458008, 0.06769900768995285, -0.03969657048583031, -0.29650503396987915, 0.3527102768421173, 0.34839722514152527, -0.5806999206542969, 0.15327441692352295, -0.8005532622337341, -0.2139536291360855, -0.3517386019229889, 0.7484157085418701, -0.9510992169380188, -0.541433572769165, -0.9715821146965027, 0.23131337761878967, -0.8697112202644348, 0.29843127727508545, -0.769579291343689, -0.12136228382587433, -0.10315221548080444, 0.0348467081785202, 0.23305758833885193, 0.2199697196483612, -0.0044876872561872005, -0.21766476333141327, -0.04967525228857994, -0.08110781013965607, -0.05154656618833542, 0.09405777603387833, 0.13178960978984833, 0.05053027719259262, 0.08607567846775055, -0.05798083543777466, -0.01998424157500267, 0.0338047631084919, -0.16338013112545013, -0.047309085726737976, -0.04099484533071518, -0.25230711698532104, 0.20025500655174255, -0.022884441539645195, -0.20363162457942963, 0.1262253373861313, -0.12144362181425095, 0.11237949132919312, 0.2899024784564972, 0.011606465093791485, 0.10439472645521164, 0.10076954215765, 0.2195768505334854, -0.05991789698600769, -0.19665740430355072, -0.03995710238814354, 0.1518048495054245, 0.026469504460692406, 0.20975975692272186, -0.035694465041160583, 0.07450832426548004, -0.08178608864545822, 0.0650784820318222, -0.23101338744163513, -0.13140343129634857, 0.018898868933320045, 0.19189871847629547, 0.15169481933116913, 0.052411969751119614, 0.07389960438013077, 0.08072740584611893, -0.21998362243175507, -0.19809532165527344, -0.1983492523431778, 0.0070750173181295395, -0.11532054096460342, -0.08915400505065918, -0.07861562818288803, 0.08247197419404984, 0.07949221134185791, 0.24541984498500824, 0.2676866352558136, -0.17536379396915436, 0.01221523154526949, 0.05498160421848297, 0.2611998915672302, -0.043779999017715454, -0.11474697291851044, -0.13488216698169708, 0.1675034463405609, -0.040865447372198105, -0.09650476276874542, 0.20879381895065308, 0.23418782651424408, -0.015671726316213608, -0.16795167326927185, 0.22114939987659454, -0.12733329832553864, -0.07774504274129868, -0.15967991948127747, -0.14526358246803284, -0.17483770847320557, -0.11185190081596375, -0.22260171175003052, -0.06325982511043549, 0.10572126507759094, -0.2034570723772049, -0.04370246082544327, -0.08251283317804337, 0.19000883400440216, 0.20935462415218353, -0.05385180190205574, -0.15958315134048462, -0.2077510803937912, -0.14627768099308014, 0.061747245490550995, 0.04052836820483208, 0.09113489091396332, -0.11172188818454742, 0.09588439762592316, -0.2376241385936737, 0.05680962651968002, 0.27207693457603455, -0.30434221029281616, -0.17422983050346375, 0.12862896919250488, 0.024966644123196602, -0.12948815524578094, 0.1991519033908844, 0.06723461300134659, 0.06607937812805176, -0.10554289817810059, 0.260198712348938, 0.1630585491657257, 0.07064203172922134, 0.05515706539154053, 0.13395091891288757, 0.17392085492610931, -0.11614957451820374, -0.04382310435175896, 0.11737433075904846, -0.08830196410417557, 0.23606356978416443, -0.18803519010543823, 0.08367275446653366, -0.21236158907413483, 0.0737605020403862, 0.16793061792850494, 0.0009257496567443013, -0.03790285810828209, 0.11705324798822403, -0.2190495878458023, -0.179300457239151, -0.24053482711315155, -0.11225380003452301, -0.007633020635694265, -0.12419892847537994, -0.008560799062252045, 0.04455561190843582, 0.23978447914123535, -0.0620395690202713, -0.03474615141749382, 0.21050876379013062, -0.0635700523853302, 0.29193446040153503, -0.05620332434773445, -0.005693297833204269, 0.0009530444513075054, 0.15081854164600372, 0.14079873263835907, -0.19243182241916656, 0.20184257626533508, -0.0038748453371226788, -0.07392655313014984, -0.04070628434419632, 0.1615411639213562, 0.20884419977664948, 0.07427890598773956, -0.051481299102306366, 0.11834999918937683, -0.15722249448299408, -0.14066943526268005, -0.11874015629291534, -0.20057649910449982, 0.08792503923177719, -0.0058848802000284195, -0.034297745674848557, -0.03148355334997177, -0.013085740618407726, 0.12491690367460251, 0.2705804407596588, -0.1625891774892807, 0.14469020068645477, 0.10349306464195251, 0.1596415936946869, -0.03148910775780678, 0.11336753517389297, 0.03765574470162392, 0.2532796859741211, -0.24915845692157745, -0.09410851448774338, -0.1823495328426361, -0.10460148751735687, 0.0448068231344223, 0.15181230008602142, -0.1435706615447998, 0.16475063562393188, 0.19981509447097778, -0.13924960792064667, 0.03351600095629692, -0.08620957285165787, 0.07052271068096161, -0.12270300090312958, -0.13507361710071564, -0.21689842641353607, -0.2398242950439453, 0.17584237456321716, -0.04854053258895874, 0.024287156760692596, -0.1326606422662735, 0.14510920643806458, -0.178325355052948, -0.06532487273216248, -0.18350008130073547, -0.1599767804145813, 0.25831887125968933, -0.14693643152713776, -0.024026891216635704, -0.014980284497141838, 0.0782364159822464, 0.0455901101231575, -0.21192708611488342, 0.20640964806079865, -0.26329368352890015, 0.047312214970588684, -0.03586895018815994, -0.07193971425294876, 0.12672650814056396, 0.224929079413414, 0.05226021260023117, -0.06108926236629486, 0.21388807892799377, 0.17376038432121277, 0.02746804803609848, -0.04366668686270714, 0.06119798496365547, 0.18901237845420837, 0.008419559337198734, -0.08173754066228867, -0.21229040622711182, -0.09666246175765991, 0.15525414049625397, 0.031681135296821594, -0.10105524957180023, 0.12942548096179962, -0.15108884871006012, 0.05728553235530853, -0.10027064383029938, 0.19262602925300598, 0.20291341841220856, 0.17770333588123322, 0.22050078213214874, -0.2102264016866684, -0.0957852154970169, 0.04193279147148132, -0.2231266349554062, 0.07718231528997421, -0.14739574491977692, 0.12676411867141724, 0.21482880413532257, -0.20187492668628693, 0.21251128613948822, 0.12915225327014923, -0.18996410071849823, 0.26068490743637085, -0.18971507251262665, -0.1714523881673813, -0.10378744453191757, -0.006506222765892744, 0.008876755833625793, -0.05875946208834648, -0.22304342687129974, -0.03795141354203224, 0.1529684066772461, 0.1829075664281845, 0.12557001411914825, 0.02357357181608677, 0.059764210134744644, -0.18824586272239685, 0.08799295872449875, -0.2586609721183777, -0.11903902143239975, -0.058235008269548416, 0.09213028103113174, -0.02905605547130108, -0.06026399880647659, -0.0017956759547814727, -0.1441018283367157, -0.015225454233586788, 0.01515022199600935, -0.0249327402561903, 0.031617261469364166, 0.06956088542938232, -0.12546472251415253, -0.05583852529525757, 0.13608574867248535, 0.025222714990377426, -0.02973790094256401, 0.11016905307769775, 0.1057499423623085, -0.061639152467250824, -0.09387802332639694, -0.06013932079076767, 0.049583837389945984, -0.0005145284230820835, 0.1026892140507698, -0.14342942833900452, -0.09732607752084732, 0.08609842509031296, 0.03696739673614502, 0.04194134101271629, 0.06798021495342255, -0.0334106869995594, -0.10619156807661057, -0.005814352072775364, -0.015452850610017776, -0.06615700572729111, 0.01295461319386959, 0.0238224845379591, -0.023005133494734764, -0.10685700178146362, 0.006402074825018644, -0.12219538539648056, 0.03183587267994881, -0.06946437060832977, 0.08068615198135376, 0.03976630046963692, -0.04725459963083267, 0.10729701071977615, -0.1403714120388031, -0.027916500344872475, -0.055917538702487946, -0.08531194925308228, 0.04548758640885353, -0.055123984813690186, 0.11382085829973221, -0.11983535438776016, 0.12724986672401428, 0.08780030161142349, 0.09764228016138077, -0.022483058273792267, -0.07379455864429474, -0.09141736477613449, 0.11717405170202255, -0.07353045791387558, -0.018299661576747894, -0.04913224279880524, -0.002984615508466959, -0.11425364762544632, 0.1171494796872139, -0.10917361825704575, 0.12419063597917557, -0.08110535144805908, -0.08591372519731522, -0.02882409654557705, 0.05526464805006981, -0.011443105526268482, -0.15252478420734406, 0.09683593362569809, 0.13448068499565125, 0.06766820698976517, 0.1779436469078064, 0.06407825648784637, -0.028863418847322464, -0.09419140219688416, -0.10774683952331543, -0.0773278996348381, -0.028622925281524658, 0.08975932747125626, -0.06240260973572731, 0.026150498539209366, 0.018970539793372154, -0.10660376399755478, 0.0067858612164855, 0.14299769699573517, 0.06604544073343277, 0.12477999925613403, 0.009031332097947598, 0.03479138761758804, 0.05431932210922241, -0.07420679181814194, -0.09047030657529831, 0.11780525743961334, 0.012244919314980507, -0.0961855947971344, 0.13467572629451752, 0.03800477832555771, 0.08834168314933777, -0.13930639624595642, 0.020800527185201645, 0.08000132441520691, -0.027896501123905182, -0.09583478420972824, 0.09891249984502792, 0.08374379575252533, 0.0569525770843029, 0.043313443660736084, 0.030484529212117195, 0.1148015633225441, -0.007991903461515903, -0.06656913459300995, 0.06622274219989777, 0.061169397085905075, 0.05766807124018669, -0.0035282433964312077, -0.008758154697716236, -0.025069840252399445, 0.029933949932456017, -0.10059784352779388, -0.1533084660768509, 0.041791483759880066, -0.08512191474437714, -0.019486315548419952, 0.028394369408488274, 0.0006898358114995062, 0.09838168323040009, 0.027459261938929558, 0.04073818400502205, -0.04494381695985794, 0.0007525021210312843, 0.041507020592689514, 0.1001279279589653, -0.13064298033714294, -0.04843774065375328, -0.1327505260705948, -0.08622921258211136, 0.054173070937395096, -0.07922884821891785, -0.0687846913933754, 0.11396333575248718, -0.04402132332324982, 0.1374812126159668, 0.03387786075472832, 0.10072417557239532, 0.16056452691555023, -0.15752935409545898, 0.1431061029434204, 0.07412012666463852, -0.10459620505571365, 0.01726550981402397, -0.056701209396123886, -0.07046561688184738, -0.08338255435228348, -0.11595384776592255, 0.1334257572889328, 0.13383948802947998, -0.007488230708986521, -0.1443554311990738, -0.05710604414343834, -0.03116505965590477, 0.09653797745704651, 0.06039660423994064, 0.08800176531076431, 0.03932564705610275, -0.12387384474277496, -0.13010850548744202, -0.1464729905128479, 0.08055715262889862, 0.10783011466264725, -0.02223403938114643, 0.12107543647289276, -0.049361079931259155, -0.10859346389770508, 0.07151374220848083, -0.00013496579776983708, -0.011699671857059002, 0.20991453528404236, 0.05143497511744499, 0.11448077112436295, 0.09358667582273483, -0.01001602504402399, 0.06292006373405457, -0.10075431317090988, -0.00541055528447032, 0.04949570074677467, 0.09433533996343613, -0.10130827128887177, 0.059055253863334656, -0.03753915801644325, 0.08843572437763214, 0.07265747338533401, 0.030099956318736076, 0.06727349758148193, -0.0164799764752388, 0.004049263428896666, 0.125196635723114, -0.08072200417518616, -0.09235639870166779, 0.019590260460972786, -0.04767230153083801, -0.008795793168246746, 0.101542167365551, -0.07731073349714279, -0.15567535161972046, -0.10467470437288284, 0.10949304699897766, -0.05054990202188492, -0.08531155437231064, 0.023380262777209282, 0.018175886943936348, -0.13141357898712158, 0.14045044779777527, 0.08923891186714172, 0.12984895706176758, 0.04655446857213974, -0.04875917732715607, -0.03675699979066849, 0.11118746548891068, 0.004400086123496294, 0.05849636346101761, -0.10824105888605118, -0.08061892539262772, 0.050766244530677795, 0.007844003848731518, -0.06159164756536484, -0.11692839115858078, 0.12584662437438965, -0.05020182952284813, -0.15361955761909485, 0.17498868703842163, 0.11402823030948639, -0.04136093333363533, -0.0717247948050499, 0.1924344152212143, 0.03646596148610115, -0.13466456532478333, 0.12982040643692017, -0.01185601670295, -0.05871141329407692, 0.00805534515529871, -0.08195674419403076, -0.16605639457702637, 0.014653824269771576, -0.10140915215015411, 0.06112206354737282, -0.023425286635756493, -0.07626843452453613, 0.04449094086885452, -0.22148358821868896, -0.09801986068487167, 0.17446491122245789, -0.06862428039312363, 0.1098654642701149, -0.019693773239850998, -0.16584505140781403, -0.1577826887369156, 0.12067899107933044, 0.14890120923519135, 0.012546837329864502, -0.1937938928604126, -0.13662847876548767, -0.02200395241379738, 0.03458495810627937, 0.12738166749477386, 0.07394527643918991, -0.08256469666957855, 0.0361209437251091, 0.08818382769823074, 0.08241485804319382, 0.19083233177661896, -0.013902402482926846, -0.10091777890920639, 0.0638059675693512, 0.08546207845211029, -0.018032534047961235, 0.07140494138002396, -0.06453992426395416, -0.20628884434700012, 0.0845954418182373, -0.0771980956196785, -0.013563459739089012, -0.12654687464237213, -0.11777905374765396, 0.016475282609462738, 0.025004977360367775, -0.0818595439195633, -0.04363636299967766, 0.07480732351541519, -0.09680954366922379, -0.06913957744836807, -0.06328537315130234, 0.10849206149578094, 0.03186993673443794, 0.016918281093239784, -0.023866495117545128, 0.08038415014743805, -0.01281298790127039, 0.1379922777414322, 0.020886069163680077, 0.033963318914175034, 0.043002285063266754, -0.0438508465886116, 0.14941099286079407, 0.1093364879488945, -0.11226934939622879, -0.17716415226459503, -0.06631390750408173, 0.109095998108387, -0.04505445808172226, 0.15398845076560974, -0.0720694288611412, -0.1814933866262436, 0.030156467109918594, -0.05689150094985962, -0.01923094131052494, -0.03314446285367012, -0.0068380823358893394, -0.15970726311206818, -0.1574186235666275, 0.06837799400091171, -0.05612120032310486, -0.11083702743053436, 0.027324611321091652, -0.17875702679157257, 0.018216269090771675, 0.12327340990304947, 0.15821810066699982, -0.1173924133181572, -0.040708787739276886, 0.14877821505069733, 0.1974124312400818, -0.14999321103096008, 0.13284935057163239, 0.09339246153831482, 0.011459379456937313, 0.014658346772193909, 0.17449019849300385, -0.12181881070137024, -0.045703694224357605, 0.04180440306663513, 0.039392538368701935, -0.14117968082427979, 0.027483176440000534, -0.05704396963119507, -0.06694608181715012, 0.06185070797801018, 0.1407093107700348, -0.03833354264497757, 0.029156628996133804, 0.02603604458272457, -0.19124700129032135, -0.010828057304024696, 0.004109272733330727, 0.07689443230628967, 0.12869428098201752, -0.15980243682861328, -0.19061759114265442, -0.020879847928881645, -0.14445392787456512, 0.21099844574928284, -0.03828000649809837, -0.06905529648065567, -0.01621757447719574, -0.005110814236104488, -0.13816076517105103, 0.11408228427171707, 0.1365555077791214, 0.09652038663625717, -0.009548845700919628, -0.004391114693135023, -0.02252074144780636, 0.10501329600811005, -0.04631289839744568, -0.21509388089179993, -0.19678562879562378, -0.17042236030101776, -0.0768752172589302, -0.07565043121576309, -0.10446778684854507, 0.02938491478562355, 0.10045385360717773, -0.060559410601854324, 0.014965767972171307, 0.018710782751441002, 0.07850203663110733, -0.09596911817789078, 0.02170424908399582, 0.14257681369781494, 0.10508299618959427, -0.16108334064483643, -0.0387284941971302, -0.01348846685141325, -0.0948360413312912, -0.1352132111787796, -0.1342112421989441, 0.08609869331121445, -0.06161411479115486, -0.02731809951364994, 0.0139775350689888, -0.10897474735975266, -0.0007788712973706424, 0.12464754283428192, -0.05400179699063301, 0.06417986750602722, -0.026159582659602165, 0.06558240950107574, 0.0856359452009201, 0.06663231551647186, 0.020179597660899162, -0.11782405525445938, 0.02279570698738098, 0.051056019961833954, -0.08673295378684998, -0.11322017014026642, 0.14127875864505768, -0.015704980120062828, 0.05456358194351196, -0.026298295706510544, 0.09554850310087204, 0.1653616726398468, 0.1032961905002594, -0.039878398180007935, 0.08517862111330032, 0.058420855551958084, 0.01052742451429367, -0.09389791637659073, -0.0434260219335556, -0.10670168697834015, 0.08726813644170761, 0.11904577910900116, 0.08225008100271225, 0.0072164698503911495, -0.0077111925929784775, 0.1364019364118576, -0.06773610413074493, -0.05382436513900757, -0.11832857131958008, -0.005511941853910685, 0.023589182645082474, 0.055595751851797104, -0.09355110675096512, -0.018179187551140785, -0.15142183005809784, -0.15107928216457367, -0.027456892654299736, -0.16805696487426758, 0.026189353317022324, -0.13061566650867462, -0.11708348244428635, -0.04319777339696884, -0.1650179773569107, 0.11391431093215942, 0.12490595132112503, -0.05954422429203987, 0.019847460091114044, 0.056776322424411774, 0.010888920165598392, -0.018636561930179596, -0.10110040009021759, 0.14285023510456085, -0.08660265058279037, -0.03552171215415001, -0.006051180884242058, -0.04543672502040863, -0.06588774174451828, -0.15699532628059387, 0.001437923638150096, -0.07054342329502106, 0.07531248033046722, -0.0424073189496994, 0.1389075666666031, 0.05513054132461548, -0.021024636924266815, -0.04974764958024025, -0.030113600194454193, -0.04548409953713417, -0.006663186009973288, 0.06378543376922607, 0.1033221036195755, 0.024548852816224098, 0.04904109612107277, 0.03012348711490631, 0.03905847668647766, 0.07788710296154022, 0.05507996305823326, 0.16228927671909332, -0.1066262498497963, 0.07234597951173782, 0.014892012812197208, 0.00457934383302927, 0.023779308423399925, 0.08756290376186371, 0.13581275939941406, -0.14416971802711487, 0.07649824768304825, 0.09307471662759781, 0.053931623697280884, -0.012587163597345352, 0.09892154484987259, -0.04494723677635193, -0.030032958835363388, -0.0096648670732975, 0.07496044784784317, 0.02743665687739849, -0.016143636777997017, -0.013054556213319302, 0.05904168263077736, -0.09749367833137512, 0.05473896488547325, 0.07015487551689148, -0.000889296701643616, -0.06024274602532387, 0.10431824624538422, -0.12868788838386536, -0.11261579394340515, -0.04491807147860527, 0.14017263054847717, -0.19546858966350555, -0.007898018695414066, -0.16991063952445984, -0.01912800408899784, 0.0031454991549253464, -0.08947836607694626, 0.12477800995111465, -0.045842017978429794, -0.11266912519931793, 0.05577143654227257, 0.03846593201160431, -0.013210132718086243, 0.19687384366989136, -0.13450902700424194, 0.026290258392691612, 0.09341347962617874, 0.06658963114023209, -0.003513691481202841, 0.03474235162138939, -0.07050948590040207, -0.10026198625564575, -0.07441181689500809, -0.03441182151436806, 0.09143991768360138, 0.12896719574928284, 0.14407335221767426, -0.02514992281794548, -0.12697385251522064, -0.16310147941112518, 0.03393472731113434, -0.0873488262295723, -0.13017095625400543, -0.059699151664972305, -0.14536349475383759, -0.1137966439127922, -0.12482523918151855, -0.014606091193854809, 0.1106509268283844, -0.04888036847114563, 0.09057971090078354, -0.011111162602901459, -0.025995157659053802, -0.0036830513272434473, -0.15163271129131317, -0.14843852818012238, 0.15340359508991241, -0.0867689698934555, -0.14561736583709717, 0.22986941039562225, -0.015929996967315674, -0.11219526827335358, -0.16153691709041595, -0.06026677042245865, -0.06293471902608871, 0.169546976685524, 0.1437186300754547, 0.0480257086455822, -0.11812800914049149, -0.0002826404816005379, -0.1216471716761589, 0.010528421960771084, 0.00894519966095686, 0.008285575546324253, -0.031195856630802155, 0.08081948012113571, 0.0916285365819931, 0.048958275467157364, -0.07613900303840637, -0.05281545966863632, 0.013526509515941143, -0.12139730155467987, 0.12345492094755173, -0.0987975224852562, 0.031982455402612686, -0.12587571144104004, -0.012746897526085377, 0.09266854077577591, -0.1022096797823906, 0.04232262074947357, -0.14797408878803253, -0.008218993432819843, -0.023883692920207977, 0.14347748458385468, 0.188306987285614, 0.030942441895604134, 0.009379280731081963, -0.06187868118286133, 0.06935477256774902, -0.037453144788742065, 0.07925016433000565, -0.07355538755655289, 0.15171267092227936, 0.15574336051940918, 0.08764014393091202, 0.05466775223612785, 0.09011226892471313, -0.18934015929698944, 0.1323762834072113, -0.02108926698565483, 0.0859338566660881, 0.024975156411528587, -8.863319817464799e-05, -0.04193680360913277, 0.12658320367336273, -0.05397540330886841, -0.041192784905433655, 0.08565230667591095, 0.009875377640128136, -0.17805811762809753, -0.10838520526885986, -0.04303569719195366, 0.12966452538967133, -0.0920030027627945, 0.08993833512067795, 0.11676190793514252, -0.07560752332210541, -0.0563090443611145, -0.0519944466650486, 0.012501115910708904, -0.03165528550744057, -0.027596071362495422, 0.024451756849884987, 0.02949550747871399, -0.0405440516769886, 0.01767558790743351, 0.0331496000289917, -0.035567641258239746, 0.01829456351697445, -0.06948527693748474, 0.12770290672779083, 0.016487671062350273, -0.011035523377358913, -0.1972501128911972, -0.0759110227227211, 0.028326697647571564, 0.007854708470404148, -0.06842128187417984, 0.07384427636861801, -0.0398433692753315, 0.08022808283567429, 0.13059775531291962, -0.13377507030963898, -0.05277829244732857, -0.045012734830379486, -0.10206574946641922, -0.05266812443733215, -0.013493452221155167, 0.042354367673397064, 0.0579875223338604, 0.12598706781864166, 0.120815709233284, 0.00838102400302887, -0.0068863071501255035, 0.06713227182626724, -0.03287356719374657, -0.033496614545583725, 0.08627001196146011, -0.12602083384990692, -0.12243378162384033, 0.030839936807751656, -0.0339868888258934, -0.0636836364865303, -0.13120579719543457, 0.13251620531082153, 0.011123999953269958, -0.12070523202419281, -0.07396760582923889, 0.02402452565729618, -0.0982089564204216, 0.01649194397032261, -0.003988280426710844, 0.012052192352712154, 0.02563459239900112, -0.11417145282030106, 0.08517034351825714, 0.12375981360673904, 0.01943211629986763, 0.062876395881176, -0.09448560327291489, 0.0005472739576362073, 0.07273026555776596, -0.051185548305511475, 0.1032562106847763, -0.12880945205688477, -0.0734134316444397, -0.09647872298955917, -0.06796014308929443, -0.11281473189592361, -0.14983685314655304, 0.06841152906417847, -0.05486016348004341, -0.12407370656728745, 0.0726839229464531, -0.010606878437101841, 0.06847132742404938, -0.12429091334342957, 0.008322947658598423, 0.08324684947729111, 0.12307818233966827, 0.040414612740278244, 0.06674406677484512, 0.17862486839294434, -0.05059194564819336, 0.10373323410749435, 0.14878450334072113, -0.09305712580680847, 0.06665946543216705, 0.11579184234142303, -0.01520674116909504, 0.09030448645353317, 0.018256133422255516, 0.08535479754209518, -0.02431953325867653, -0.12528353929519653, 0.08927488327026367, 0.023021776229143143, 0.11339480429887772, -0.006169572472572327, 0.03751291334629059, 0.04633534699678421, 0.037015482783317566, -0.017128461971879005, 0.053136397153139114, -0.10848793387413025, -0.005435623228549957, -0.07606934756040573, 0.04014485329389572, -0.08476933091878891, 0.1345295011997223, -0.11872792989015579, 0.07753156125545502, 0.11339972168207169, -0.12670177221298218, 0.13501696288585663, -0.09304602444171906, 0.00253425189293921, 0.09930397570133209, -0.009357951581478119, 0.13882875442504883, -0.040844161063432693, 0.031304679811000824, -0.09673123806715012, -0.05923265218734741, 0.14514775574207306, 0.11210954934358597, 0.009502731263637543, 0.02563430927693844, -0.12103530764579773, 0.09580938518047333, -0.0010305242612957954, -0.048673003911972046, -0.07905365526676178, 0.1327633261680603, 0.056313008069992065, 0.07291440665721893, 0.022637082263827324, -0.11888889968395233, 0.04797619953751564, 0.008097238838672638, 0.03140752762556076, -0.29665666818618774, -0.47795966267585754, 0.8659780025482178, 0.35488733649253845, -0.49243250489234924, 0.207387313246727, -0.23306962847709656, 0.034071020781993866, 0.521381139755249, -0.8770856857299805, 1.003127098083496, 0.5843327045440674, 0.002565743401646614, -0.32765206694602966, 0.15143118798732758, -0.7364687323570251, 0.19384345412254333, -0.1690978705883026, 0.06402807682752609, -0.3090675175189972, 0.13144434988498688, 0.08204608410596848, 0.24349652230739594, -0.024196889251470566, 0.1018664687871933, 0.05981026589870453, 0.14488208293914795, 0.19094716012477875, -0.24120168387889862, 0.05614090338349342, -0.025464225560426712, -0.12567859888076782, 0.19880758225917816, -0.06888560205698013, 0.03251393511891365, 0.11976388096809387, 0.17399470508098602, 0.08012712001800537, -0.020883651450276375, -0.24583283066749573, -0.2566688358783722, 0.08469683676958084, -0.00799151137471199, -0.10301763564348221, 0.0792003944516182, 0.21272850036621094, 0.18266019225120544, -0.038309503346681595, 0.0677182599902153, -0.20095239579677582, 0.047405291348695755, -0.2584898769855499, 0.22622562944889069, -0.20068314671516418, -0.026989206671714783, -0.244533970952034, -0.11538398265838623, 0.025581911206245422, -0.2035835087299347, 0.22803521156311035, 0.12475646287202835, -0.20080389082431793, 0.029109975323081017, 0.10308470577001572, 0.21089643239974976, 0.0034540153574198484, 0.1427760273218155, 0.05753336846828461, -0.12233980745077133, 0.2674354314804077, -0.27554699778556824, 0.27457016706466675, 0.2771705687046051, -0.06286769360303879, 0.1506011188030243, 0.15989086031913757, 0.09354352205991745, 0.13081054389476776, 0.021227112039923668, -0.11456020921468735, 0.09098298102617264, -0.1492062360048294, 0.2119339406490326, -0.18329237401485443, 0.11079134047031403, -0.15469741821289062, 0.1501181572675705, -0.04783207178115845, 0.13330034911632538, -0.07671002298593521, -0.1778772622346878, 0.15508754551410675, -0.17671984434127808, -0.18037886917591095, 0.16325950622558594, -0.10430675745010376, -0.0836910754442215, -0.10620467364788055, 0.02687831223011017, -0.12572047114372253, -0.062333330512046814, -0.1333363801240921, 0.20367281138896942, 0.038350243121385574, -0.1379510462284088, -0.1729382574558258, -0.06519882380962372, 0.14523030817508698, 0.0005318437470123172, 0.12687379121780396, 0.2471235990524292, 0.1045224666595459, 0.05525956675410271, 0.14111052453517914, -0.1309061050415039, 0.07929489761590958, 0.1993682086467743, -0.07625116407871246, 0.010312316007912159, -0.051598843187093735, -0.18180765211582184, 0.17581912875175476, 0.17197628319263458, -0.13831450045108795, 0.11628816276788712, 0.07393578439950943, 0.060380466282367706, 0.14769023656845093, 0.2520906329154968, 0.14882001280784607, -0.224904865026474, -0.17235678434371948, 0.16156789660453796, -0.2312980592250824, 0.10809068381786346, -0.14874492585659027, -0.0026280453894287348, 0.12507909536361694, 0.012234225869178772, 0.24617774784564972, -0.04856371507048607, 0.15418784320354462, 0.13390140235424042, -0.06231771782040596, -0.18868227303028107, 0.2487242966890335, -0.10596286505460739, 0.21634094417095184, 0.14675389230251312, 0.04748134687542915, -0.22910764813423157, 0.06181889399886131, -0.1123206689953804, 0.09359849989414215, -0.09130804240703583, 0.1588643193244934, -0.21525748074054718, -0.06777222454547882, -0.005372209008783102, 0.026111239567399025, 0.15854087471961975, -0.06312260776758194, -0.1624755710363388, 0.20233139395713806, 0.011757376603782177, 0.24875608086585999, -0.1778130680322647, -0.11124222725629807, -0.08700103312730789, -0.017349423840641975, 0.13821424543857574, -0.21786269545555115, -0.004093464929610491, -0.004178705625236034, 0.17348431050777435, -0.12134488672018051, 0.2444271594285965, -0.1200215145945549, -0.16427171230316162, -0.19127987325191498, 0.22338999807834625, -0.17726700007915497, 0.09284115582704544, -0.06392078101634979, 0.23003564774990082, 0.09050684422254562, -0.2679024040699005, 0.00820908509194851, 0.033363208174705505, -0.19687271118164062, 0.03864222764968872, 0.2698683440685272, 0.07544100284576416, 0.009210084564983845, -0.04358012229204178, 0.059617262333631516, -0.0634768009185791, 0.19845832884311676, 0.21285322308540344, 0.08853111416101456, -0.08749659359455109, -0.1937364786863327, -0.16810797154903412, 0.2388738989830017, -0.2330547273159027, -0.21732762455940247, 0.00754084438085556, 0.1017690896987915, -0.28020113706588745, -0.20284831523895264, -0.03152386471629143, -0.05073167011141777, 0.17292897403240204, 0.10689464211463928, -0.2327665090560913, -0.19432641565799713, 0.17566700279712677, 0.00427844375371933, -0.09844917058944702, 0.015838442370295525, -0.03230540454387665, 0.18006832897663116, 0.038955558091402054, -0.1316075176000595, -0.21094249188899994, 0.16608920693397522, -0.16212411224842072, 0.006812524050474167, -0.0003179284976795316, -0.05682691931724548, 0.11658957600593567, -0.12230381369590759, 0.08350193500518799, 0.018117697909474373, 0.1314147561788559, -0.29011526703834534, 0.028857307508587837, 0.1276998668909073, -0.2066144198179245, 0.04350005090236664, 0.08501526713371277, 0.12364901602268219, -0.0796060860157013, -0.12042158097028732, -0.07740914821624756, -0.22624848783016205, 0.1707248091697693, -0.3230160176753998, 0.12586688995361328, 0.18827196955680847, 0.0639089047908783, 0.3262135088443756, -0.14039061963558197, 0.05949486419558525, 0.12198670208454132, -0.15965116024017334, -0.06129935756325722, -0.07894035428762436, -0.07451298832893372, -0.25956103205680847, -0.11504828929901123, -0.11635079234838486, -0.022440370172262192, -0.25949281454086304, 0.02268361672759056, 0.17825675010681152, 0.13399732112884521, 0.25034916400909424, -0.19685249030590057, -0.058715689927339554, -0.08197120577096939, 0.07302068173885345, 0.06562922894954681, 0.06065846607089043, 0.09498851001262665, 0.1418289691209793, -0.12292470037937164, 0.15917064249515533, 0.1514921486377716, 0.026846306398510933, -0.2134372740983963, -0.15450818836688995, 0.06652669608592987, 0.08185764402151108, 0.21686138212680817, 0.12408921867609024, 0.08397207409143448, 0.0016276601236313581, 0.09646537154912949, -0.1351531744003296, 0.04602580890059471, -0.05282863602042198, -0.06672900170087814, 0.09205647557973862, 0.12377622723579407, -0.07918401062488556, 0.04268325865268707, -0.11520427465438843, 0.07683995366096497, 0.09573985636234283, 0.07029671967029572, -0.16471581161022186, -0.10223554819822311, 0.13329361379146576, -0.014023431576788425, 0.08214277774095535, 0.13906243443489075, -0.04490415379405022, -0.06041589379310608, -0.11062409728765488, 0.055089764297008514, 0.09266816079616547, -0.027434175834059715, -0.17238278687000275, -0.08161611109972, -0.04004143550992012, 0.093889020383358, -0.04779353365302086, -0.05563074350357056, -0.16029101610183716, 0.16842739284038544, 0.046125613152980804, -0.1252346783876419, -0.09757524728775024, -0.11804375052452087, 0.023388219997286797, -0.04320565238595009, 0.01081586629152298, -0.025569941848516464, -0.09167418628931046, -0.07581492513418198, -0.1853189766407013, -0.008742463774979115, 0.06724654883146286, -0.09930665045976639, 0.01559137087315321, -0.10781584680080414, 0.1457437425851822, -0.038885731250047684, 0.1415622979402542, -0.06841153651475906, -0.13951970636844635, -0.027474697679281235, -0.08406127244234085, -0.004156654234975576, 0.015870144590735435, 0.1255267709493637, 0.11109094321727753, -0.06318581104278564, 0.039622317999601364, 0.14106453955173492, -0.022192541509866714, -0.15435504913330078, 0.02385624125599861, -0.133505716919899, 0.10111546516418457, -0.0796494260430336, -0.0854213684797287, -0.11316762119531631, -0.08539324998855591, 0.09372692555189133, 0.1477697789669037, -0.11905723810195923, 0.0550873763859272, 0.1357090026140213, 0.15745273232460022, -0.030703555792570114, 0.1633157581090927, -0.012607807293534279, 0.052376966923475266, -0.03432179614901543, -0.1443718820810318, -0.02670000120997429, 0.03447951748967171, 0.04194697365164757, -0.05867685005068779, 0.1329186111688614, -0.17857643961906433, -0.013333532027900219, 0.158091202378273, -0.01894315518438816, -0.14469029009342194, 0.05577642098069191, -0.045703187584877014, -0.057500362396240234, -0.1348050981760025, 0.016546890139579773, 0.10894186794757843, 0.006946222390979528, -0.1016705185174942, -0.10486150532960892, -0.025802064687013626, 0.11798323690891266, -0.15723618865013123, 0.0373348593711853, -0.05200304836034775, 0.16551785171031952, -0.031197182834148407, -0.03329581394791603, -0.04399288073182106, -0.11449473351240158, -0.011370949447154999, 0.021145325154066086, 0.09020499885082245, -0.09561146050691605, 0.07704661041498184, -0.006946347653865814, 0.08408301323652267, -0.1328590214252472, 0.024694250896573067, 0.08448721468448639, 0.06419997662305832, -0.04500313475728035, 0.04015052691102028, -0.052469100803136826, 0.03240840882062912, -0.04022255539894104, -0.08819147199392319, -0.11780037730932236, -0.10907959192991257, -0.08700550347566605, 0.014546387828886509, -0.023180989548563957, -0.1447073519229889, -0.005893620662391186, -0.004487345460802317, 0.16615155339241028, -0.10284232348203659, -0.0036869223695248365, -0.006225130055099726, 0.023953167721629143, -0.016916437074542046, -0.06793702393770218, 0.17758876085281372, -0.06258753687143326, -0.028874052688479424, 0.09886419773101807, 0.08498261868953705, 0.07000062614679337, 0.07489190995693207, -0.11925317347049713, 0.13368560373783112, 0.10714831948280334, -0.020905008539557457, 0.02265198715031147, 0.11057144403457642, -0.09545233845710754, -0.11466895788908005, -0.171452134847641, 0.04580378159880638, 0.10261435061693192, -0.007469726260751486, -0.00550237949937582, -0.0050982036627829075, -0.002343364991247654, 0.12452345341444016, 0.07507879287004471, -0.08208352327346802, -0.1404772847890854, -0.12501727044582367, -0.01878926157951355, 0.09267209470272064, -0.016438966616988182, 0.2079523354768753, -0.07742439955472946, 0.0008049984462559223, 0.11557545512914658, 0.07084614038467407, 0.020307013764977455, 0.16151337325572968, -0.09197402745485306, 0.10650185495615005, 0.13593509793281555, -0.12171490490436554, -0.18386498093605042, 0.12226550281047821, -0.12881556153297424, -0.16166669130325317, 0.03225044906139374, -0.11900737881660461, 0.08714182674884796, 0.05763143673539162, -0.04941067844629288, 0.09642800688743591, 0.10988285392522812, -0.017756713554263115, -0.12230541557073593, 0.20834709703922272, -0.10394886881113052, 0.19014868140220642, -0.018733292818069458, 0.054668866097927094, 0.0398654043674469, -0.08835845440626144, -0.11192045360803604, -0.2173950970172882, 0.08049465715885162, 0.1433911919593811, -0.06995979696512222, -0.048179276287555695, -0.005254192743450403, 0.028949685394763947, 0.04792863130569458, -0.026727546006441116, -0.05363161861896515, 0.18053561449050903, -0.11643462628126144, -0.10244813561439514, -0.09965670853853226, 0.036013852804899216, 0.041174132376909256, 0.14128948748111725, -0.13749480247497559, -0.06785596907138824, -0.06392087042331696, -0.05911172181367874, -0.097398541867733, 0.048857130110263824, -0.05228215456008911, -0.10061758011579514, -0.047737378627061844, -0.1279270350933075, -0.11375535279512405, 0.010235999710857868, -0.0913931205868721, -0.0342479832470417, -0.08853282779455185, -0.0316070094704628, -0.06472273916006088, -0.03618273138999939, -0.03479423746466637, -0.037991542369127274, 0.09136321395635605, -0.12263871729373932, 0.004792353138327599, 0.20437100529670715, 0.051981184631586075, 0.007339938543736935, 0.08390074968338013, -0.13318893313407898, 0.06708915531635284, -0.14413078129291534, -0.1399858146905899, -0.19444426894187927, -0.18096400797367096, 0.023809313774108887, -0.04945109039545059, 0.05509971082210541, -0.05094233900308609, -0.058958496898412704, -0.07925239205360413, -0.09564977884292603, -0.07319927960634232, 0.1403740793466568, -0.08762771636247635, -0.019127333536744118, 0.03173765167593956, -0.02361615188419819, -0.017035065218806267, -0.008565369062125683, -0.16719543933868408, 0.017853550612926483, -0.07564693689346313, 0.06911575049161911, 0.033738747239112854, 0.024545928463339806, -0.1460084319114685, 0.05398568511009216, 0.024854212999343872, -0.10481970012187958, -0.05870925262570381, 0.09509087353944778, -0.1862746626138687, -0.05896277725696564, 0.07537899911403656, -0.010054312646389008, 0.19031402468681335, 0.10552729666233063, -0.10458923876285553, -0.0536639541387558, -0.03276921063661575, -0.014070027507841587, 0.02882305160164833, 0.1728104203939438, 0.001989574870094657, -0.1459902971982956, -0.10583899915218353, -0.18460634350776672, -0.06040084362030029, 0.05062850937247276, -0.015123233199119568, -0.1261703372001648, -0.10412261635065079, 0.12123432755470276, -0.10368508100509644, -0.07594923675060272, -0.07075443863868713, 0.1807096153497696, 0.006865386851131916, -0.003908584360033274, -0.08807039260864258, 0.10102936625480652, -0.06397002190351486, -0.010545441880822182, -0.012072591111063957, 0.025273390114307404, 0.11081944406032562, 0.029686186462640762, -0.03274308145046234, -0.026478497311472893, -0.13903042674064636, -0.04695954546332359, 0.16318242251873016, -0.0699370801448822, -0.07512827217578888, -0.1401548683643341, 0.01669815368950367, -0.17333362996578217, -0.0014502460835501552, 0.21859365701675415, 0.05193081870675087, 0.06688874214887619, 0.011426597833633423, -0.12367019057273865, -0.16081595420837402, -0.16287295520305634, -0.11563515663146973, 0.06569088250398636, -0.01372741349041462, 0.08061501383781433, -0.15347494184970856, -0.13894641399383545, 0.053150590509176254, 0.014352013356983662, 0.20901191234588623, 0.044988106936216354, -0.14408481121063232, 0.14458322525024414, -0.005260295234620571, -0.1569850593805313, -0.16028128564357758, -0.08442904055118561, 0.015325192362070084, -0.16530293226242065, -0.0015225084498524666, -0.1315305382013321, 0.009420063346624374, -0.03279094770550728, 0.11377963423728943, 0.025317464023828506, -0.02222518064081669, -0.014706588350236416, -0.06718145310878754, 0.06587692350149155, -0.07326555997133255, -0.07381829619407654, -0.22487393021583557, -0.07859862595796585, -0.09715907275676727, 0.1543194055557251, 0.097080759704113, 0.016632789745926857, 0.0736585333943367, 0.1280609667301178, -0.11478547751903534, -0.08489306271076202, -0.1242508813738823, -0.11996323615312576, -0.061014868319034576, -0.11667095869779587, -0.0810762345790863, 0.023330003023147583, -0.015039170160889626, 0.11565960198640823, 0.11257633566856384, 0.10772458463907242, -0.104595847427845, 0.0892123356461525, 0.02041843719780445, -0.17715950310230255, 0.12477949261665344, -0.20115162432193756, -0.06744961440563202, -0.012031267397105694, -0.07284778356552124, 0.0031290154438465834, 0.02920130454003811, 0.09556448459625244, 0.16075091063976288, -0.03412400186061859, -0.03075443021953106, -0.0936976969242096, -0.05053373798727989, 0.04539347440004349, -0.08505208790302277, -0.11907444149255753, -0.09360610693693161, -0.08710987120866776, -0.034708887338638306, 0.04825221374630928, 0.13953019678592682, -0.11914166063070297, 0.04555945098400116, -0.13920074701309204, 0.06786738336086273, 0.2118598371744156, 0.07611314207315445, -0.12122483551502228, 0.10820240527391434, -0.01987420581281185, -0.054282769560813904, -0.153418630361557, 0.07512377947568893, 0.06340602040290833, 0.113503597676754, 0.020476985722780228, 0.0015183540526777506, 0.1451498568058014, -0.05481395497918129, 0.15374235808849335, -0.022881807759404182, 0.01967163197696209, 0.015159618109464645, 0.10431169718503952, -0.16173087060451508, 0.02440226636826992, 0.13604693114757538, -0.048443783074617386, 0.06628400832414627, -0.015030213631689548, -0.09846621006727219, -0.00646130321547389, 0.11971338093280792, 0.050480715930461884, 0.1277858167886734, 0.04894940182566643, 0.04735333472490311, -0.09712406247854233, 0.007721913047134876, -0.06428998708724976, 0.15475749969482422, 0.061056505888700485, 0.052082035690546036, 0.07688455283641815, -0.0026435377076268196, -0.01055407989770174, 0.023105377331376076, -0.16400077939033508, 0.04451966658234596, -0.0485730916261673, -0.10243383795022964, 0.07198811322450638, 0.047674860805273056, -0.04064922779798508, -0.1325315237045288, -0.13851363956928253, 0.04330739006400108, -0.06725943088531494, -0.03686381131410599, -0.11859048157930374, 0.10578903555870056, 0.015332888811826706, 0.16413208842277527, 0.04315393045544624, -0.048363495618104935, 0.2122797667980194, -0.054548271000385284, 0.1429722011089325, 0.0011620479635894299, -0.1327243149280548, 0.007964246906340122, 0.044505227357149124, -0.004498867783695459, 0.051157377660274506, -0.1657886803150177, -0.001012869761325419, 0.07089707255363464, 0.20268793404102325, 0.07512889057397842, -0.12635304033756256, -0.1638011485338211, -0.11759497970342636, -0.03875366970896721, 0.022834302857518196, 0.024166960269212723, 0.036405764520168304, 0.12327516824007034, 0.12555083632469177, -0.09860359132289886, -0.10053974390029907, 0.005185379181057215, 0.05263912305235863, 0.04299791529774666, 0.1061580628156662, 0.04240953177213669, 0.0032058421056717634, 0.06785772740840912, 0.0472724474966526, 0.050016772001981735, 0.1219717413187027, -0.11907781660556793, -0.08390984684228897, 0.05327710509300232, -0.08669430017471313, 0.08944374322891235, -0.0803447887301445, 0.08257360011339188, 0.09504173696041107, -0.0013043940998613834, 0.028014983981847763, -0.0999818667769432, 0.09010574221611023, -0.02975357137620449, -0.059334851801395416, 0.03134685009717941, 0.0022860465105623007, -0.025128981098532677, 0.0031694441568106413, 0.02755211479961872, 0.06699913740158081, 0.03973909094929695, -0.053915854543447495, 0.01077513862401247, -0.058221399784088135, 0.16705450415611267, -0.17631235718727112, -0.08065860718488693, -0.02190791442990303, -0.07515375316143036, -0.11793915927410126, 0.10841529071331024, 0.06123208999633789, -0.10677345097064972, -0.045846372842788696, 0.015794964507222176, -0.05510566756129265, -0.08755256980657578, 0.12029062956571579, -0.015440228395164013, 0.14715361595153809, -0.13063393533229828, -0.1032639667391777, 0.023390574380755424, -0.12224077433347702, 0.13635767996311188, 0.11169499158859253, 0.1511458456516266, -0.15666042268276215, 0.15220710635185242, 0.1269514262676239, -0.04040384292602539, 0.02554737962782383, 0.04983948543667793, 0.08799170702695847, -0.12709704041481018, 0.12172680348157883, -0.04786119610071182, 0.09638098627328873, -0.046059269458055496, -0.1891474723815918, -0.05283765122294426, 0.1541982889175415, -0.08919929713010788, 0.0967889353632927, -0.015728961676359177, 0.04998009279370308, -0.04603663831949234, 0.012389641255140305, 0.019730597734451294, -0.1028570607304573, 0.12795403599739075, 0.05646426975727081, -0.1191716268658638, -0.02135087363421917, 0.0790344700217247, -0.1309584230184555, -0.06127989664673805, 0.07782794535160065, -0.09489379078149796, -0.024649035185575485, -0.12331350892782211, -0.11254757642745972, -0.12947702407836914, 0.10050676017999649, -0.13930471241474152, -0.018419159576296806, -0.03365126997232437, 0.0556865930557251, -0.017012692987918854, 0.21131949126720428, -0.15576843917369843, -0.11557263880968094, 0.04502079263329506, 0.014267241582274437, -0.025535982102155685, 0.05759231746196747, -0.16881249845027924, -0.19648179411888123, -0.08516646921634674, 0.10068923234939575, 0.08209366351366043, 0.062458448112010956, -0.04542330279946327, 0.2232048213481903, 0.07504069060087204, 0.02588125504553318, -0.031328748911619186, 0.0767698734998703, -0.03453351557254791, -0.005918733309954405, 0.018583405762910843, -0.039038460701704025, -0.022098494693636894, -0.04418549686670303, 0.1197354719042778, 0.06779853999614716, 0.13254690170288086, -0.0036580944433808327, -0.14446480572223663, 0.018725715577602386, 0.04880821704864502, 0.19824761152267456, 0.07452314347028732, 0.047152552753686905, 0.06017681211233139, -0.06633100658655167, 0.1357611119747162, -0.03325841948390007, 0.05577079579234123, 0.09641793370246887, -0.11422348022460938, 0.0570780448615551, 0.11534962803125381, -0.16823630034923553, -0.039570316672325134, -0.10001712292432785, 0.04220486059784889, 0.047268424183130264, 0.0763600766658783, -0.03830572962760925, -0.14146175980567932, 0.07237650454044342, 0.11037340015172958, -0.01631244271993637, 0.11188675463199615, 0.049780234694480896, -0.05783257633447647, -0.008563806302845478, 0.05418660491704941, -0.02051239274442196, -0.04538020119071007, 0.010504296980798244, -0.06188017874956131, 0.05905287712812424, -0.11574818193912506, -0.092453233897686, 0.11304742097854614, -0.07455001026391983, 0.0777067095041275, 0.12753650546073914, -0.06751243770122528, 0.08144040405750275, 0.18124760687351227, -0.11134088039398193, -0.011449907906353474, -0.00194288301281631, -0.08049711585044861, 0.04362865909934044, 0.02243059128522873, 0.012135108932852745, -0.003245983738452196, 0.09844565391540527, -0.12418362498283386, -0.07297762483358383, -0.09137334674596786, 0.010345407761633396, -0.13760234415531158, -0.034563954919576645, 0.07087592780590057, -0.11014560610055923, 0.072385273873806, -0.1193685308098793, 0.026317201554775238, 0.021643739193677902, 0.036857642233371735, 0.09537607431411743, 0.07979708909988403, -0.04726420342922211, 0.07854614406824112, 0.050598084926605225, -0.025946620851755142, -0.0894593745470047, -0.0238285381346941, 0.08411945402622223, -0.1203264370560646, -0.11642374098300934, -0.1389448642730713, 0.020426366478204727, -0.07103312760591507, -0.014368506148457527, 0.11735068261623383, -0.10513358563184738, -0.17617766559123993, 0.04740062728524208, -0.11357954144477844, -0.12817895412445068, 0.09283419698476791, 0.04843130707740784, -0.03106493502855301, 0.17584654688835144, 0.16283895075321198, -0.16452622413635254, -0.04202900826931, 0.05511762201786041, -0.09520578384399414, -0.17083312571048737, -0.056933414191007614, -0.01879238151013851, -0.024768352508544922, 0.07286759465932846, 0.011601749807596207, 0.1369599848985672, 0.035604193806648254, -0.022443491965532303, 0.044289011508226395, 0.08143632113933563, -0.0006623086519539356, -0.06636563688516617, -0.06922975927591324, -0.00586361950263381, 0.17658883333206177, -0.0693848580121994, 0.0177657101303339, -0.14071770012378693, 0.013283994048833847, -0.16063615679740906, -0.03972671553492546, 0.09414546936750412, -0.17690570652484894, -0.02878739684820175, -0.061475347727537155, 0.10549099743366241, -0.044118817895650864, -0.05096687003970146, -0.15163815021514893, -0.08063499629497528, 0.03794539347290993, -0.18893864750862122, -0.04643590748310089, 0.0990525335073471, 0.1431778371334076, 0.060854677110910416, 0.16768638789653778, 0.06355003267526627, 0.055573947727680206, 0.19004985690116882, 0.07478177547454834, -0.045284803956747055, 0.10649392753839493, -0.11792667210102081, 0.13533718883991241, 0.07412144541740417, -0.06925609707832336, -0.1546304076910019, 0.11364531517028809, 0.14769913256168365, 0.010393109172582626, -0.060375459492206573, 0.07403938472270966, 0.05913202092051506, -0.02483931928873062, 0.12041020393371582, 0.6438109278678894, 0.2714080512523651, 0.537298858165741, -0.8768641352653503, -0.42206448316574097, 0.15371479094028473, 0.351729154586792, -0.044237591326236725, 0.2893432676792145, 0.2611429989337921, -0.797823429107666, 0.29047611355781555, -0.03759263455867767, -0.7369970083236694, 0.046022918075323105, -0.28540876507759094, -0.06275580823421478, -0.2777407765388489, 0.25938576459884644, -0.2104351669549942, -0.03080848790705204, 0.15578725934028625, -0.02841711975634098, -0.17981816828250885, -0.19496354460716248, 0.08254516124725342, -0.16769258677959442, 0.06245026737451553, 0.09108168631792068, -0.10272160917520523, 0.10839880257844925, -0.026562906801700592, -0.09370502829551697, -0.21104860305786133, 0.03613480180501938, -0.18899081647396088, -0.014559374190866947, -0.10595183074474335, 0.11576274782419205, -0.11102146655321121, -0.0985938310623169, -0.014586159959435463, -0.17066316306591034, 0.115000881254673, -0.16825813055038452, 0.11961252242326736, 0.1295977383852005, 0.18360421061515808, 0.04851173236966133, 0.07004682719707489, -0.13101127743721008, -0.3516386151313782, -0.13692927360534668, -0.27077609300613403, -0.2260606735944748, 0.08087964355945587, 0.2918899655342102, -0.03334422782063484, -0.07118254154920578, -0.09939824789762497, 0.0060425871051847935, 0.06022600829601288, -0.08544542640447617, 0.22926907241344452, -0.2676911950111389, 0.005317121744155884, -0.13713234663009644, 0.2955664098262787, 0.3099544644355774, 0.3274802565574646, 0.27150917053222656, 0.12678132951259613, -0.24093329906463623, -0.21418562531471252, 0.10383586585521698, -0.2742965519428253, 0.18192489445209503, 0.1107276976108551, 0.09440085291862488, -0.2047465294599533, 0.2451016753911972, -0.056901950389146805, -0.10446188598871231, 0.06707784533500671, -0.03470071777701378, -0.13543838262557983, 0.005095416214317083, -0.19353926181793213, 0.2650373578071594, 0.2574518918991089, 0.10476533323526382, 0.17804279923439026, -0.2259243279695511, -0.14622433483600616, -0.2422848790884018, -0.16402556002140045, -0.1723344624042511, 0.18878474831581116, 0.10303662717342377, 0.11236055195331573, -0.16520433127880096, 0.12789541482925415, -0.1016250029206276, -0.06974338740110397, 0.12980970740318298, 0.16799432039260864, -0.19840580224990845, 0.23456542193889618, -0.05013129487633705, 0.11848479509353638, -0.2547115683555603, -0.002900193678215146, -0.15672877430915833, -0.11461345106363297, -0.16729426383972168, 0.03260894864797592, -0.0724988728761673, -0.1660241335630417, 0.1549709588289261, 0.09760954231023788, -0.28151223063468933, -0.005425985902547836, 0.07041285187005997, -0.04601544141769409, 0.04236451908946037, 0.03490472584962845, 0.14065949618816376, -0.1876479536294937, -0.0495498962700367, 0.15441715717315674, -0.1835789978504181, 0.09276474267244339, 0.1671581268310547, -0.27359384298324585, -0.16183339059352875, 0.257266640663147, 0.010083413682878017, 0.056019414216279984, 0.02770025096833706, 0.13846491277217865, -0.1111040785908699, 0.05054394528269768, 0.15175379812717438, -0.024925876408815384, -0.30643460154533386, 0.11977630108594894, -0.1115647479891777, 0.01259010098874569, 0.2063436210155487, 0.08480602502822876, -0.12846605479717255, -0.10257740318775177, -0.08986251056194305, -0.11488673835992813, -0.018992537632584572, -0.23138795793056488, 0.1855829656124115, 0.15473239123821259, 0.08748888224363327, 0.06986845284700394, -0.10805271565914154, 0.2640626132488251, -0.04677652567625046, 0.1750546544790268, -0.0027807489968836308, 0.20801901817321777, -0.2068275660276413, 0.15567392110824585, -0.3328426778316498, -0.21663326025009155, 0.2182294875383377, -0.2571544051170349, 0.24928027391433716, -0.0830068364739418, 0.33736521005630493, 0.036086998879909515, -0.13639333844184875, 0.14967499673366547, -0.24838684499263763, -0.13528454303741455, -0.13687816262245178, 0.002581338630989194, 0.010094616562128067, -0.1743922382593155, 0.23354919254779816, -0.02579755336046219, -0.10940138250589371, -0.0067947059869766235, -0.16052061319351196, 0.08530288189649582, 0.09995383769273758, -0.017245467752218246, 0.020757894963026047, 0.14142899215221405, -0.17296470701694489, -0.059224311262369156, -0.04380142316222191, -0.12926849722862244, -0.026435572654008865, 0.02572568692266941, -0.1950656622648239, 0.043606847524642944, 0.2707911729812622, 0.14055685698986053, -0.12943479418754578, 0.2389441579580307, -0.14005176723003387, -0.16310828924179077, 0.0370110422372818, 0.22654713690280914, 0.16063238680362701, 0.29201534390449524, -0.06452496349811554, 0.11569949984550476, -0.1597018986940384, 0.07486262917518616, 0.14481455087661743, 0.05002732574939728, -0.16301146149635315, -0.1712576150894165, -0.2433679848909378, 0.16786311566829681, 0.031854189932346344, -0.1590859293937683, -0.10478892922401428, 0.09046803414821625, 0.03401118144392967, 0.25810012221336365, 0.04531756788492203, 0.09356264024972916, -0.02057616412639618, 0.02551095001399517, 0.00022634972992818803, 0.1987539678812027, 0.10295446217060089, -0.15797744691371918, -0.21540601551532745, -0.2482277750968933, -0.09750893712043762, 0.06330610811710358, 0.2819676101207733, -0.058089617639780045, 0.06689396500587463, 0.09013716131448746, -0.25864163041114807, -0.23918262124061584, 0.015693265944719315, 0.1240951344370842, -0.08986359089612961, 0.04998784139752388, -0.25286561250686646, 0.040259700268507004, 0.06253179162740707, 0.015287145972251892, -0.04409341141581535, 0.07452242821455002, -0.036525335162878036, 0.15266810357570648, -0.181645467877388, -0.15959762036800385, -0.22792091965675354, -0.24580736458301544, 0.18006457388401031, -0.06430922448635101, -0.16737952828407288, 0.08283600956201553, -0.19672928750514984, 0.04757698252797127, 0.13017381727695465, -0.07906642556190491, 0.09168203175067902, 0.058403078466653824, -0.20272687077522278, 0.04940357431769371, 0.13767071068286896, -0.038499318063259125, 0.032519854605197906, 0.019447553902864456, 0.008331654593348503, 0.05222300812602043, -0.22816027700901031, 0.17573823034763336, 0.1042441725730896, 0.02773549035191536, 0.03189028799533844, -0.19827373325824738, -0.0706290453672409, -0.000860200438182801, -0.11114625632762909, -0.06132928654551506, 0.038877204060554504, -0.08022532612085342, 0.17534680664539337, -0.14414049685001373, -0.06953541934490204, 0.17722201347351074, -0.09716696292161942, 0.13963663578033447, 0.021001048386096954, -0.016485555097460747, -0.11234991252422333, 0.10489485412836075, -0.07216797769069672, -0.009623277932405472, 0.037300121039152145, 0.14944028854370117, 0.10692550987005234, -0.02475683018565178, 0.05802628770470619, 0.17556828260421753, 0.18999667465686798, -0.08466000109910965, 0.12027456611394882, -0.12963545322418213, 0.022326432168483734, 0.2553781270980835, -0.14781039953231812, -0.04953796789050102, 0.10281220078468323, 0.09862398356199265, -0.1358404904603958, 0.11878880858421326, -0.05367618054151535, -0.12100522965192795, 0.08413971960544586, 0.03586271405220032, 0.0739682987332344, -0.005124327726662159, -0.11794068664312363, -0.12810492515563965, -0.08954170346260071, -0.09181301295757294, 0.046535924077034, -0.194136843085289, 0.07957607507705688, 0.04509766772389412, -0.028556939214468002, 0.013017823919653893, 0.15321126580238342, 0.06445050984621048, -0.013094787485897541, -0.015968162566423416, -0.1356903314590454, -0.13199742138385773, -0.07412049174308777, -0.1063753291964531, 0.14737895131111145, -0.0005063768476247787, 0.15004988014698029, -0.04800396040081978, 0.00985238142311573, 0.05586041882634163, -0.06463681161403656, 0.006001669447869062, -0.2110718935728073, 0.05987069383263588, 0.07644519209861755, -0.16183221340179443, -0.09610234200954437, -0.14229176938533783, -0.07589473575353622, 0.13177701830863953, 0.03780539706349373, -0.0235394649207592, 0.10452836006879807, 0.0524977445602417, 0.03424072265625, -0.14267681539058685, -0.020292745903134346, -0.2242763489484787, -0.2298300862312317, -0.17950715124607086, -0.0744081437587738, -0.16624365746974945, -0.046158868819475174, 0.014801804907619953, -0.024957114830613136, 0.02534675970673561, 0.14283403754234314, -0.06283656507730484, -0.10226619243621826, -0.09244181960821152, -0.1165597215294838, -0.08336492627859116, -0.14807014167308807, -0.011106797493994236, 0.0765429437160492, -0.003816683078184724, 0.21650077402591705, 0.1505815088748932, -0.12159182131290436, 0.005658374633640051, -0.009625805541872978, -0.027874445542693138, 0.050355345010757446, -0.0047545116394758224, -0.18836551904678345, -0.08141403645277023, -0.1005626991391182, -0.019291628152132034, 0.12450731545686722, 0.11298005282878876, -0.048970501869916916, -0.13141994178295135, -0.07873984426259995, -0.10587023198604584, -0.03964462876319885, -0.1848330795764923, 0.1177741065621376, -0.15306848287582397, -0.06604143977165222, 0.1812790334224701, -0.17550630867481232, 0.013817107304930687, 0.08342316746711731, 0.15523552894592285, 0.06266330182552338, 0.006182631012052298, 0.051533110439777374, -0.006250356789678335, -0.049336131662130356, -0.038768067955970764, 0.026736324653029442, 0.12858814001083374, 0.045009009540081024, 0.0900636687874794, -0.09193317592144012, 0.024498295038938522, 0.02827085182070732, -0.046245794743299484, -0.09463508427143097, -0.0036525006871670485, -0.013424535281956196, -0.09725768864154816, 0.03943442553281784, 0.014035030268132687, 0.061662282794713974, -0.09729883819818497, 0.08903958648443222, 0.13858234882354736, -0.019286517053842545, 0.047024354338645935, -0.07173418998718262, 0.1507853865623474, 0.07784640043973923, 0.03217969462275505, 0.026968469843268394, -0.02008868381381035, -0.07544613629579544, 0.08453468233346939, 0.07804247736930847, -0.08950065821409225, 0.12354918569326401, 0.12058041244745255, -0.03505360707640648, -0.14027464389801025, 0.01484866626560688, 0.039510659873485565, 0.16182364523410797, -0.20313401520252228, 0.03263124078512192, 0.024685971438884735, 0.005355689208954573, 0.14705537259578705, 0.018750879913568497, -0.09107610583305359, -0.05798255279660225, -0.006567490752786398, 0.005100195296108723, 0.0891730934381485, -0.0048562814481556416, -0.08226747065782547, 0.11804665625095367, -0.09400928765535355, 0.13370533287525177, -0.05150527507066727, 0.025120407342910767, 0.15395206212997437, 0.004266286268830299, 0.020572327077388763, -0.015536805614829063, 0.0810835063457489, 0.08180288970470428, 0.05927303433418274, 0.09776781499385834, -0.06266839802265167, 0.1656169891357422, 0.03640972077846527, 0.04269397631287575, -0.1629991978406906, 0.19988983869552612, 0.09050857275724411, 0.12238859385251999, 0.008044845424592495, 0.08134444802999496, 0.14104637503623962, -0.05538925901055336, -0.1015530377626419, 0.08407635241746902, -0.035367973148822784, -0.082902692258358, 0.05658525228500366, 0.04372889921069145, 0.005602906458079815, -0.013495550490915775, 0.025121483951807022, 0.11721701920032501, 0.0029535468202084303, 0.11012211441993713, 0.1323441118001938, -0.07736624032258987, 0.05097724869847298, -0.164902001619339, 0.0565902478992939, -0.15361444652080536, -0.1331181824207306, -0.1755221039056778, 0.10190623253583908, 0.014833267778158188, -0.003210359485819936, 0.05149438604712486, -0.07262665778398514, 0.021433712914586067, -0.1324712038040161, -0.10333405435085297, 0.0022071078419685364, 0.007307047490030527, 0.11598354578018188, -0.19652491807937622, 0.06580647081136703, -0.14255861937999725, -0.046500708907842636, -0.11419830471277237, 0.11204903572797775, 0.13712415099143982, -0.033856626600027084, 0.012471598573029041, -0.008520008064806461, 0.012235588394105434, -0.06862560659646988, -0.14328208565711975, -0.05355483666062355, -0.008839101530611515, -0.12828882038593292, -0.045732997357845306, 0.011051570065319538, 0.17860707640647888, -0.043489567935466766, -0.09963207691907883, -0.09945771843194962, 0.09958970546722412, 0.015555920079350471, 0.011116080917418003, -0.1648986041545868, 0.03240058571100235, -0.0033183814957737923, 0.1256272941827774, -0.10381241887807846, 0.14089609682559967, -0.020400676876306534, 0.05895628407597542, -0.09159408509731293, 0.23574809730052948, -0.005459893494844437, 0.13561633229255676, -0.07581938058137894, -0.11791983991861343, -0.07313662022352219, -0.13056442141532898, 0.0187459047883749, -0.022342436015605927, 0.1312761902809143, -0.07647434622049332, 0.02287670411169529, 0.10603323578834534, 0.006535409018397331, -0.052273571491241455, -0.027564888820052147, 0.020410696044564247, 0.09326419979333878, -0.17340606451034546, -0.02980155311524868, -0.010417357087135315, -0.23936037719249725, 0.08963503688573837, -0.18095245957374573, -0.04483405873179436, 