{"version": "0.5.2", "metadata": {"date": {"year": 2024, "month": 4, "day": 19, "hour": 16, "minute": 12, "second": 53}, "loudness": -18.096343994140625, "gain": 0.7953192844619095}, "architecture": "WaveNet", "config": {"layers": [{"input_size": 1, "condition_size": 1, "head_size": 8, "channels": 16, "kernel_size": 3, "dilations": [1, 2, 4, 8, 16, 32, 64, 128, 256, 512], "activation": "Tanh", "gated": false, "head_bias": false}, {"input_size": 16, "condition_size": 1, "head_size": 1, "channels": 8, "kernel_size": 3, "dilations": [1, 2, 4, 8, 16, 32, 64, 128, 256, 512], "activation": "Tanh", "gated": false, "head_bias": true}], "head": null, "head_scale": 0.02}, "weights": [-0.06207200139760971, 0.41673243045806885, -0.8521472811698914, -0.7539663314819336, -0.3965539336204529, 0.290504515171051, -0.06168190762400627, 0.8303196430206299, -0.13799697160720825, 0.2925625741481781, -0.368823766708374, -0.19220216572284698, -1.003735065460205, -0.6926413774490356, -0.4534761309623718, 0.016727562993764877, 0.08259816467761993, 0.09170728921890259, -0.11230315268039703, -0.10100371390581131, 0.032785095274448395, 0.11929012835025787, 0.007845004089176655, 0.12654586136341095, -0.024087674915790558, 0.052586693316698074, 0.1489291787147522, -0.1350347101688385, -0.053109560161828995, -0.01772376522421837, -0.05675887688994408, 0.08820080012083054, -0.11078744381666183, -0.06425056606531143, -0.07022466510534286, -0.12492389231920242, -0.0932762622833252, 0.08672936260700226, 0.046126838773489, 0.07105220854282379, 0.04252921789884567, -0.05890264734625816, 0.01991984248161316, -0.1713852733373642, -0.12166965752840042, -0.0723688080906868, 0.12776890397071838, 0.10200349986553192, -0.0661294013261795, 0.03135823830962181, 0.1098594143986702, 0.14177075028419495, 0.09467045217752457, 0.03782917186617851, 0.09572896361351013, -0.04762578383088112, 0.04515412822365761, -0.11303776502609253, -0.06273405998945236, -0.056362733244895935, 0.06411898136138916, 0.023494543507695198, -0.10131234675645828, 0.045885078608989716, 0.09866011142730713, 0.0371355339884758, 0.10413268208503723, 0.000763602671213448, 0.024639269337058067, 0.03440352901816368, -0.08010664582252502, 0.011741979978978634, 0.16200675070285797, 0.15095654129981995, 0.19023989140987396, 0.23245182633399963, 0.05954617261886597, -0.06094276160001755, 0.11930863559246063, -0.1213669404387474, -0.19884569942951202, 0.02280653640627861, 0.13310696184635162, -0.08547142893075943, 0.1283457726240158, -0.055604368448257446, -0.08843240141868591, -0.1712495982646942, 0.08495599031448364, -0.021849581971764565, 0.15886028110980988, 0.04236064851284027, 0.039033252745866776, -0.05184805765748024, -0.11236010491847992, -0.029238412156701088, 0.17824487388134003, 0.06100624427199364, -0.048677846789360046, 0.021837368607521057, 0.16702178120613098, 0.1619250327348709, 0.04216412082314491, -0.005151695106178522, -0.07286390662193298, 0.10277950763702393, -0.07809300720691681, -0.04691809043288231, 0.09795158356428146, -0.010852471925318241, -0.12099096924066544, -0.012136338278651237, -0.10735228657722473, 0.09887821972370148, 0.05594177544116974, -0.07552088797092438, 0.017998328432440758, 0.06656165421009064, -0.021901849657297134, -0.01772114261984825, -0.002556359628215432, -0.03458935022354126, -0.12242402881383896, 0.00924158189445734, -0.18034107983112335, -0.13670194149017334, -0.09479883313179016, -0.028017202392220497, 0.000399567186832428, -0.06048138067126274, -0.055949870496988297, -0.00500897504389286, -0.13944025337696075, 0.035699497908353806, 0.15528467297554016, 0.044228505343198776, -0.03332136943936348, -0.059167422354221344, -0.02520705573260784, 0.13321053981781006, 0.18715906143188477, 0.14934030175209045, 0.09587445110082626, -0.060882724821567535, -0.18759749829769135, -0.11082499474287033, 0.04750030115246773, -0.05843772739171982, -0.11486342549324036, -0.16266083717346191, -0.19430695474147797, -0.16461576521396637, -0.08100625872612, 0.02021848037838936, 0.036291711032390594, -0.19018761813640594, 0.03158542886376381, -0.0761716291308403, 0.010757074691355228, -0.01302072312682867, -0.027999887242913246, -0.000639459874946624, -0.06920309364795685, -0.13241124153137207, -0.05295632407069206, -0.054319560527801514, -0.059489358216524124, 0.08451047539710999, -0.07213086634874344, -0.003140171989798546, 0.15738998353481293, -0.0010221777483820915, 0.13520653545856476, 0.08147041499614716, -0.07302787154912949, 0.08485481142997742, -0.046906728297472, -0.12200097739696503, 0.11300910264253616, -0.09302335232496262, 0.06982211023569107, -0.03674730286002159, 0.072608582675457, -0.01764506846666336, 0.07378290593624115, 0.08014606684446335, 0.02305394783616066, -0.03591014817357063, -0.1486380398273468, 0.020766455680131912, 0.12030196934938431, 0.12891918420791626, -0.04352337494492531, 0.011861307546496391, -0.0727025717496872, -0.02331467904150486, -0.07757892459630966, 0.07986389845609665, -0.02791563980281353, 0.003082823706790805, 0.03632533550262451, 0.15090063214302063, -0.10387234389781952, -0.06952373683452606, -0.026249833405017853, 0.10328669846057892, -0.06945141404867172, 0.08088753372430801, 0.051832444965839386, 0.027705354616045952, 0.015026639215648174, -0.003650938393548131, 0.034392647445201874, -0.02378200925886631, -0.0229694414883852, 0.00537523441016674, -0.11867944896221161, -0.09757386147975922, 0.10356850922107697, -0.12289072573184967, -0.03148525208234787, 0.13059107959270477, 0.047175534069538116, 0.02468891628086567, -0.11352811753749847, 0.07587704807519913, -0.10412877053022385, -0.032400574535131454, -0.03344723582267761, 0.0006707313004881144, 0.014699745923280716, 0.12491195648908615, 0.002389968140050769, 0.12303070724010468, 0.0891462117433548, -0.07081931084394455, 0.07612614333629608, -0.0978691577911377, -0.08135385811328888, 0.03135690838098526, 0.043847281485795975, 0.08742702007293701, -0.058318398892879486, -0.004514977801591158, 0.0521840862929821, -0.15279129147529602, 0.0984199121594429, -0.1409972906112671, -0.010698212310671806, -0.0299809779971838, -0.09695574641227722, 0.00712364399805665, 0.11466336250305176, -0.034099020063877106, -0.08674424141645432, -0.059786342084407806, -0.161235973238945, 0.032046422362327576, -0.116993248462677, -0.04922369867563248, -0.027689311653375626, 0.14660561084747314, 0.03258989378809929, 0.05698739364743233, -0.01101971510797739, -0.0922531858086586, -0.09404972195625305, -0.02043876424431801, 0.0758717879652977, -0.013834106735885143, -0.13127771019935608, -0.024789655581116676, -0.08390577137470245, 0.09299476444721222, -0.10554417967796326, -0.16554765403270721, 0.07685954123735428, -0.049783289432525635, 0.03731278330087662, 0.10451075434684753, -0.03333226218819618, -0.1456277072429657, -0.17549365758895874, 0.15726090967655182, 0.07571831345558167, 0.181596040725708, -0.0903252512216568, -0.009774969890713692, -0.09524765610694885, -0.049517326056957245, -0.14024117588996887, -0.012544027529656887, 0.001685612602159381, -0.05679996684193611, -0.0957912728190422, -0.132598876953125, 0.0463075153529644, -0.1705041080713272, 0.016475843265652657, -0.1014670580625534, -0.132439523935318, 0.06266486644744873, -0.03345387428998947, 0.08086701482534409, 0.0037017306312918663, -0.12182606011629105, 0.02351105585694313, 0.10818168520927429, 0.09420500695705414, 0.004933094140142202, -0.16336430609226227, -0.05759769678115845, 0.02907642349600792, -0.09756743907928467, 0.019660605117678642, 0.07526162266731262, -0.11972036212682724, -0.0332542285323143, 0.03931770473718643, 0.05482460930943489, 0.04564443230628967, 0.03739910200238228, -0.14326779544353485, -0.007915990427136421, 0.09461396187543869, 0.17492955923080444, 0.11996692419052124, 0.040189582854509354, 0.028107115998864174, -0.09941510856151581, -0.13456712663173676, -0.08102446049451828, 0.17726005613803864, 0.11061741411685944, -0.14308711886405945, 0.022973043844103813, 0.08986867219209671, 0.10106799006462097, 0.09297508746385574, 0.09272447973489761, -0.07807820290327072, -0.08592422306537628, 0.0975474864244461, 0.036176104098558426, -0.12181799858808517, 0.10909556597471237, 0.02565162628889084, 0.04430091008543968, -0.11054608225822449, 0.07509502023458481, -0.02825351245701313, 0.12261736392974854, -0.05380728468298912, 0.017900390550494194, -0.022346394136548042, 0.11067651957273483, 0.008055186830461025, 0.1345892995595932, -0.14725004136562347, -0.022417258471250534, -0.1604863554239273, -0.1891292780637741, -0.17113147675991058, 0.05099642276763916, 0.0325503796339035, 0.08117455244064331, 0.05344570800662041, -0.08279980719089508, -0.04393494129180908, 0.03895656391978264, -0.12440871447324753, 0.05987671762704849, -0.15859372913837433, -0.023764479905366898, -0.08426415175199509, -0.019018473103642464, 0.07658068090677261, 0.06707683205604553, 0.04401148110628128, 0.15691038966178894, 0.18244829773902893, 0.02500995807349682, 0.01839803345501423, 0.07469579577445984, -0.014151479117572308, 0.09802216291427612, 0.02023457922041416, 0.027506433427333832, -0.09716708958148956, 0.014051765203475952, -0.04640430212020874, -0.080826535820961, -0.13629108667373657, -0.14372719824314117, -0.1565592736005783, 0.04267975687980652, 0.04045446962118149, 0.024340173229575157, -0.036143578588962555, 0.16518856585025787, 0.07547694444656372, -0.012588189914822578, -0.0975826233625412, 0.1761692762374878, 0.10651050508022308, -0.05901453271508217, 0.09760461747646332, 0.06427997350692749, -0.1018107607960701, 0.040438782423734665, -0.12732380628585815, -0.07164973765611649, 0.08287444710731506, -0.03866853564977646, -0.1507585495710373, -0.00868093129247427, 0.004826849326491356, 0.019743897020816803, -0.009657531045377254, 0.10465574264526367, -0.026269836351275444, -0.048498813062906265, 0.052699536085128784, 0.1182723268866539, 0.03679443150758743, -0.17155908048152924, -0.0695386677980423, -0.06836407631635666, -0.01796572282910347, 0.09944843500852585, -0.1412457674741745, 0.009988592937588692, 0.07483217120170593, -0.030045580118894577, -0.13998135924339294, -0.0989273265004158, -0.009140965528786182, -0.1554277390241623, 0.02249784953892231, -0.17138877511024475, -0.18382957577705383, -0.18915371596813202, -0.06864053755998611, 0.05277106910943985, -0.18492385745048523, 0.15432022511959076, -0.022324705496430397, 0.07888749986886978, -0.046929243952035904, -0.1842784583568573, 0.06367959827184677, 0.14555513858795166, 0.21254439651966095, 0.14312085509300232, -0.16300258040428162, 0.05128879100084305, -0.06276830285787582, 0.000947733991779387, -0.1845848113298416, -0.11167676001787186, -0.20933152735233307, -0.12531954050064087, -0.03936371952295303, -0.04664776474237442, 0.11385314911603928, 0.14653673768043518, -0.038395799696445465, -0.15543341636657715, -0.17250441014766693, 0.023033099249005318, 0.13230212032794952, 0.21262088418006897, 0.018086398020386696, -0.08216781914234161, -0.016569947823882103, -0.07490935921669006, -0.05530378967523575, 0.13658742606639862, -0.14869199693202972, 0.0011426933342590928, -0.17153139412403107, -0.1377502679824829, -0.18623162806034088, 0.006791605148464441, -0.08232823759317398, 0.04204542189836502, 0.01895872876048088, 0.012338260188698769, -0.06427989900112152, -0.11488264799118042, -0.09881595522165298, -0.04968584328889847, 0.001315552624873817, -0.04060956835746765, 0.18024204671382904, 0.04353609308600426, -0.17507635056972504, -0.14274640381336212, 0.060902077704668045, 0.16356225311756134, -0.09001937508583069, 0.15103495121002197, 0.036961354315280914, 0.03796550631523132, 0.06976436823606491, -0.11273236572742462, -0.0015125832287594676, 0.006917987018823624, -0.07905767858028412, -6.678055069642141e-05, -0.09465055912733078, 0.12455996125936508, 0.0073192305862903595, -0.0014531452907249331, -0.00751997297629714, -0.003296014154329896, -0.12764419615268707, 0.04787789285182953, 0.13088659942150116, 0.037900328636169434, 0.004875191953033209, -0.08559258282184601, -0.004525457974523306, -0.06849846243858337, -0.036909546703100204, -0.020521298050880432, 0.09580014646053314, -0.08770667016506195, -0.053998783230781555, -0.10484181344509125, 0.09725701808929443, 0.08919502794742584, -0.144074484705925, -0.16436396539211273, -0.16177374124526978, -0.03602996841073036, -0.08422687649726868, -0.14687274396419525, -0.08812209218740463, -0.021051207557320595, -0.1284746676683426, 0.06232736259698868, 0.00853063352406025, -0.02307075448334217, 0.059621866792440414, 0.15178999304771423, -0.07518938183784485, -0.04940967261791229, -0.10397155582904816, 0.10022643208503723, -0.08210865408182144, -0.08905906975269318, 0.18183816969394684, -0.03652235120534897, 0.0769134908914566, 0.02710883878171444, 0.023745214566588402, 0.01635311171412468, 0.13057543337345123, -0.04687134176492691, -0.1885969489812851, -0.12352712452411652, -0.008821680210530758, 0.10631556808948517, -0.07001803070306778, 0.08127336949110031, -0.08142833411693573, -0.0654989704489708, 0.16336886584758759, 0.11678354442119598, 0.15659670531749725, 0.029887357726693153, -0.09170038253068924, -0.13386431336402893, 0.0429329089820385, 0.1674523800611496, -0.010321627371013165, -0.08013325929641724, 0.10713834315538406, 0.1787264049053192, 0.0138690872117877, -0.07008650153875351, -0.09119542688131332, 0.09078479558229446, 0.03812288120388985, -0.03354436531662941, 0.08326159417629242, 0.10330870002508163, 0.1535017341375351, 0.07089448720216751, -0.05593248829245567, -0.152598038315773, -0.11696533113718033, 0.1697300225496292, 0.13188716769218445, 0.03146533668041229, -0.1762327402830124, 0.052746232599020004, 0.1660384088754654, 0.1800777018070221, -0.04134321212768555, -0.024973098188638687, -0.04938916862010956, 0.21711158752441406, -0.033518899232149124, -0.016864879056811333, 0.15547055006027222, -0.09569542855024338, -0.12040454149246216, -0.09252078086137772, 0.0016917880857363343, -0.07602375000715256, 0.18908004462718964, -0.09320040047168732, 0.001230427878908813, 0.04498341679573059, 0.09852559119462967, 0.06692086905241013, 0.2006535679101944, -0.009270699694752693, -0.11599556356668472, 0.056517764925956726, 0.06251100450754166, -0.09183991700410843, 0.03888467326760292, -0.06936749070882797, 0.17578932642936707, 0.05581365525722504, -0.10203509032726288, 0.040916651487350464, 0.17126335203647614, 0.06674277037382126, 0.09534214437007904, 0.09376852959394455, 0.0823787972331047, 0.013961552642285824, 0.022572839632630348, -0.15711422264575958, -0.14942914247512817, -0.0064122420735657215, -0.0907554104924202, 0.032872095704078674, 0.08387791365385056, -0.00823333952575922, -0.1261448711156845, 0.08628253638744354, -0.06900808215141296, 0.1488463282585144, -0.06372051686048508, -0.01945050247013569, 0.1088254377245903, -0.007944619283080101, 0.13518278300762177, -0.07001519948244095, -0.07059569656848907, -0.07949506491422653, -0.006009808275848627, 0.08295535296201706, -0.0700853168964386, 0.06661535054445267, 0.0025236173532903194, -0.04647059738636017, 0.07584813982248306, -0.16295170783996582, 0.02527373842895031, 0.16123603284358978, 0.027455341070890427, 0.09852763265371323, -0.073208287358284, 0.06638599932193756, -0.1263177990913391, 0.007973368279635906, 0.024857815355062485, 0.061003923416137695, 0.08559760451316833, 0.16013182699680328, -0.006353857461363077, 0.02460152469575405, 0.15006838738918304, -0.024221869185566902, 0.15653206408023834, -0.04517423361539841, -0.001931566628627479, 0.02131352387368679, 0.11476851999759674, 0.08709929883480072, -0.045642171055078506, -0.1583002358675003, 0.0931084007024765, 0.06109834834933281, 0.06633932143449783, -0.08318079262971878, 0.09935511648654938, 0.14678384363651276, 0.011187463067471981, -0.13750392198562622, 0.09372568875551224, -0.10890720039606094, 0.030081240460276604, 0.013174538500607014, -0.06740688532590866, 0.04891320317983627, -0.13560709357261658, 0.03401310369372368, -0.08925839513540268, -0.008766486309468746, 0.035860463976860046, 0.1378469616174698, -0.06147267669439316, 0.09417326748371124, -0.015352645888924599, -0.06078139692544937, -0.1214679703116417, -0.12980671226978302, 0.13804179430007935, -0.03623909130692482, 0.00831773690879345, 0.04518497735261917, 0.09871017932891846, 0.12226120382547379, 0.11087120324373245, -0.10782499611377716, -0.02493874728679657, -0.09159361571073532, -0.08409813046455383, 0.03128250315785408, 0.12767033278942108, -0.11687768995761871, 0.08479003608226776, -0.08226615190505981, -0.027908897027373314, 0.11329082399606705, -0.0390947200357914, 0.010983665473759174, -0.1049090176820755, 0.12002106755971909, 0.010883437469601631, -0.06913767755031586, 0.08549965173006058, -0.15157155692577362, -0.16843123733997345, -0.04974718391895294, 0.16153019666671753, 0.011857370845973492, 0.12590856850147247, 0.17121407389640808, 0.14839529991149902, -0.0178782120347023, 0.0304145198315382, 0.006547433324158192, -0.058686207979917526, -0.04611821845173836, 0.05709674209356308, 0.06504608690738678, 0.044925183057785034, 0.07030700147151947, -0.018536610528826714, 0.061770372092723846, -0.1127612516283989, -0.1581430733203888, 0.0645156055688858, 0.134404718875885, -0.07685096561908722, 0.08466997742652893, 0.0005864457925781608, -0.15766122937202454, 0.014702563174068928, 0.1767127513885498, -0.053897179663181305, 0.0038621805142611265, 0.09856388717889786, -0.07032152265310287, 0.126407191157341, 0.1279880702495575, 0.14759886264801025, -0.04510924592614174, 0.19624045491218567, -0.02782895788550377, 0.19027498364448547, -0.08664344251155853, -0.07136696577072144, 0.05306769907474518, -0.023081542924046516, -0.03321763128042221, -0.06554590165615082, -0.07985372096300125, -0.04841441661119461, -0.1377001851797104, 0.019469857215881348, 0.024037830531597137, -0.01237908098846674, 0.03085741586983204, 0.12125665694475174, 0.05245290324091911, -0.045633573085069656, -0.061568789184093475, -0.10587184876203537, -0.08671441674232483, -0.025825584307312965, -0.02852625958621502, 0.445377916097641, -0.5325455069541931, 0.8570805788040161, -0.7597771286964417, 0.009661911986768246, 0.9628441333770752, 1.0162543058395386, -0.5158756375312805, 0.2281132936477661, 0.18891063332557678, -0.4169537425041199, -0.38594210147857666, 0.19005565345287323, -0.7471481561660767, 0.17356711626052856, 0.374045729637146, -0.13164283335208893, 0.254609078168869, -0.07256117463111877, 0.1358821541070938, 0.18972544372081757, -0.1570281833410263, 0.07944417744874954, -0.060477886348962784, -0.07032973319292068, -0.09303049743175507, 0.047473762184381485, -0.03889358788728714, 0.06402657926082611, 0.056298382580280304, 0.11758573353290558, -0.03938058391213417, 0.005491539370268583, -0.05480186641216278, -0.2705219089984894, 0.11361236870288849, -0.007786777801811695, -0.1617424637079239, -0.14771932363510132, 0.11029820889234543, -0.06959780305624008, 0.11601871997117996, 0.04017360508441925, 0.10899525880813599, 0.10190403461456299, -0.027066675946116447, 0.07827407866716385, 0.1994476020336151, 0.010635302402079105, 0.09225001186132431, -0.03522191569209099, 0.1960969716310501, -0.1524231880903244, -0.20674288272857666, 0.053275711834430695, -0.17374636232852936, -0.031173447147011757, -0.16411961615085602, 0.21234188973903656, -0.1804458647966385, 0.16920004785060883, 0.29049673676490784, 0.04956650733947754, 0.003877416253089905, 0.2161073237657547, -0.11059973388910294, -0.03532605990767479, -0.12066785991191864, -0.04053746536374092, 0.060360852628946304, 0.0220356285572052, 0.005481394473463297, -0.24121710658073425, 0.011195830069482327, -0.002457637106999755, -0.005154647398740053, 0.15552276372909546, 0.2407207489013672, -0.16619957983493805, -0.020906122401356697, -0.1389385461807251, -0.2294231802225113, -0.21186287701129913, 0.20184947550296783, 0.13567706942558289, 0.10174770653247833, 0.11834727972745895, -0.16972316801548004, 0.03674604743719101, 0.2252715677022934, -0.13082364201545715, 0.24784991145133972, 0.041530340909957886, 0.17566846311092377, -0.1285904198884964, 0.1007709726691246, -0.19327253103256226, -0.03827681392431259, 0.11668004095554352, 0.06648404896259308, 0.23326575756072998, 0.2711474597454071, 0.2585279941558838, 0.10954517871141434, 0.19662216305732727, -0.009565540589392185, -0.22509759664535522, -0.08788363635540009, -0.0029476219788193703, -0.16046284139156342, 0.14963628351688385, 0.08297881484031677, 0.07096389681100845, 0.13050203025341034, 0.1634896695613861, 0.1426224410533905, -0.2920687794685364, -0.26238611340522766, 0.03867088258266449, 0.035128675401210785, 0.057663239538669586, -0.32626405358314514, -0.15943071246147156, 0.22860479354858398, 0.21013471484184265, -0.15667739510536194, 0.07564418762922287, -0.12715888023376465, 0.21796520054340363, 0.06106339395046234, 0.29226425290107727, -0.2465481460094452, -0.21153384447097778, 0.19427628815174103, 0.2638574242591858, 0.10128768533468246, 0.17523768544197083, -0.18289010226726532, 0.16894769668579102, -0.226359561085701, 0.07015807926654816, -0.17962177097797394, -0.06873428076505661, 0.03168787434697151, -0.1241738572716713, 0.0028805823531001806, -0.2963428497314453, -0.21373796463012695, 0.04850420355796814, -0.16342496871948242, -0.21460305154323578, -0.05217865854501724, -0.23700915277004242, -0.2490851730108261, 0.1822916567325592, 0.14718620479106903, 0.02649671770632267, -0.09689115732908249, 0.0411999337375164, 0.037396542727947235, -0.236372709274292, 0.047111209481954575, 0.21352975070476532, -0.2514263987541199, -0.24619102478027344, 0.032719049602746964, 0.17841361463069916, -0.060340870171785355, 0.059252433478832245, 0.1777568757534027, 0.08591904491186142, 0.03280581161379814, 0.19678369164466858, 0.15889500081539154, -0.15395720303058624, -0.005100818816572428, 0.10005176812410355, 0.26492902636528015, -0.3074726462364197, 0.16174425184726715, -0.11911308765411377, -0.30707937479019165, -0.005303537007421255, -0.08082569390535355, -0.0019713747315108776, -0.211646169424057, -0.14916224777698517, 0.006697121541947126, -0.09739046543836594, 0.1894332468509674, -0.015613037161529064, 0.2184799611568451, 0.031454071402549744, -0.08088450133800507, 0.14653445780277252, 0.00358364125713706, 0.024788616225123405, -0.0959058552980423, -0.012827501632273197, -0.053226254880428314, -0.014772005379199982, -0.1969936639070511, -0.010191038250923157, -0.20181715488433838, -0.05074853450059891, 0.1421380639076233, -0.19561228156089783, -0.1477080136537552, -0.07097867131233215, -0.021303832530975342, -0.014789062552154064, 0.07274027168750763, 0.07444597780704498, -0.22822585701942444, -0.07742910087108612, 0.1672087013721466, 0.18073400855064392, -0.06900238990783691, -0.10710858553647995, 0.09196387231349945, 0.15314047038555145, -0.11103779077529907, -0.1829378455877304, 0.14123249053955078, -0.02287258952856064, -0.21302682161331177, -0.17871657013893127, 0.11105292290449142, -0.11141496896743774, 0.14351187646389008, 0.16077716648578644, 0.0690380334854126, -0.046789105981588364, -0.10631578415632248, 0.013572919182479382, 0.0685686469078064, -0.18630437552928925, -0.03726153075695038, -0.2219337671995163, 0.17540565133094788, -0.17009851336479187, 0.26841020584106445, -0.12261340022087097, -0.13140669465065002, 0.06772672384977341, -0.04301919788122177, 0.11192242056131363, 0.14438886940479279, -0.27024054527282715, 0.11035548895597458, -0.005679235327988863, -0.05064474791288376, 0.17381715774536133, 0.22107255458831787, -0.22517089545726776, -0.0013361123856157064, 0.18111056089401245, 0.09391587972640991, 0.20914864540100098, -0.0802956074476242, -0.1376875936985016, 0.20912788808345795, 0.10474516451358795, 0.23115447163581848, -0.09998735040426254, -0.1562962532043457, -0.035060010850429535, -0.24233388900756836, 0.0874103307723999, 0.1826973259449005, 0.04455814138054848, -0.04349253699183464, 0.13929137587547302, -0.15313149988651276, 0.22326967120170593, -0.2229943871498108, -0.19178888201713562, -0.060725826770067215, 0.16564719378948212, 0.014759461395442486, 0.09519132971763611, -0.17737500369548798, 0.09128592163324356, -0.017724985256791115, 0.08892617374658585, 0.16562166810035706, 0.10433856397867203, -0.013049153611063957, 0.011103448458015919, -0.07556431740522385, -0.03208457678556442, 0.07828997820615768, -0.07708616554737091, 0.07356433570384979, -0.07203862071037292, -0.04971696808934212, 0.006302701309323311, -0.16772621870040894, -0.03761916235089302, -0.04497360438108444, -0.040890052914619446, -0.058902885764837265, 0.08516305685043335, 0.14627695083618164, -0.05088472366333008, 0.08951675146818161, -0.07763649523258209, -0.09132460504770279, 0.07991747558116913, 0.04861188679933548, -0.01681133173406124, -0.11177818477153778, -0.08007501810789108, 0.020862998440861702, -0.13956420123577118, -0.14210501313209534, 0.017525848001241684, -0.10828516632318497, -0.16316722333431244, -0.10222689807415009, -0.04394121095538139, -0.1734122633934021, -0.1346767246723175, -0.030174696817994118, -0.15863342583179474, -0.041410066187381744, -0.09526491910219193, -0.0888613685965538, 0.06805844604969025, -0.09407664090394974, -0.1147773414850235, 0.07408888638019562, 0.03586398437619209, 0.12603136897087097, -0.04207874462008476, -0.0902394950389862, -0.01399696059525013, -0.009514370001852512, 0.0663774311542511, -0.13351304829120636, -0.007130493875592947, 0.05167877674102783, -0.0253802128136158, -0.04557645693421364, 0.03880232572555542, -0.10718151926994324, 0.045369070023298264, -0.12577389180660248, 0.07356399297714233, -0.12573722004890442, 0.07327811419963837, -0.2183082550764084, -0.17383606731891632, 0.01251220516860485, 0.1024409607052803, -0.136331245303154, -0.10370401293039322, 0.05315065383911133, -0.0713234543800354, 0.07168150693178177, -0.07533649355173111, -0.008602237328886986, -0.09595116972923279, 0.10532078891992569, 0.047058142721652985, -0.10267149657011032, 0.10247884690761566, 0.04777901619672775, -0.07584884017705917, -0.10667870938777924, -0.0693948045372963, 0.08086606115102768, -0.054502520710229874, -0.07548585534095764, -0.06954460591077805, 0.028949910774827003, 0.054670948535203934, -0.004438105039298534, 0.012097467668354511, -0.06681764125823975, -0.06463366001844406, -0.1088881641626358, 0.0920957550406456, -0.10779006779193878, -0.09641938656568527, -0.1301921308040619, -0.043432701379060745, 0.1354135125875473, 0.14400848746299744, -0.10847970843315125, -0.03743693605065346, 0.0435016006231308, 0.02179773710668087, 0.10220751166343689, -0.02134074456989765, -0.11221635341644287, 0.10574684292078018, -0.03527284786105156, 0.08849287778139114, -0.0039021610282361507, 0.10959029197692871, 0.17704324424266815, 0.15347342193126678, -0.11908404529094696, -0.08668938279151917, -0.022752977907657623, -0.041942350566387177, 0.1893249899148941, -0.045395974069833755, -0.14183765649795532, -0.11071552336215973, -0.05439113825559616, 0.08759529888629913, -0.09668615460395813, -0.1612674593925476, -0.1923152059316635, 0.01067030057311058, 0.05937124788761139, -0.09570176899433136, 0.027440102770924568, 0.06964981555938721, -0.022602008655667305, -0.07441210746765137, -0.015856562182307243, -0.04342798888683319, 0.04566467925906181, -0.11926321685314178, 0.04087312892079353, 0.046561941504478455, -0.06786246597766876, 0.1468622237443924, 0.17142035067081451, -0.09450997412204742, -0.0759182944893837, 0.0408080518245697, -0.08096889406442642, 0.09030646830797195, 0.06739727407693863, 0.04692170396447182, -0.16499310731887817, -0.15421751141548157, 0.08870711177587509, 0.08456754684448242, -0.09965033084154129, -0.04725521430373192, -0.09604343771934509, -0.06593471020460129, -0.03144208341836929, 0.14502006769180298, -0.018487462773919106, 0.05333428084850311, 0.10884906351566315, 0.0332464799284935, -0.10874573886394501, 0.08607664704322815, 0.05046895891427994, 0.0684986412525177, -0.1812974512577057, 0.05471736192703247, 0.15201053023338318, -0.10061728209257126, 0.047262053936719894, 0.07664821296930313, -0.1431354433298111, 0.017376771196722984, 0.0821605771780014, 0.0578233003616333, 0.1758832037448883, 0.07744462788105011, 0.0858258455991745, -0.051228977739810944, 0.08343207836151123, -0.1711205691099167, -0.11321447789669037, -0.07762416452169418, -0.08500892668962479, 0.09747625142335892, 0.11605841666460037, 0.13650165498256683, 0.13631179928779602, -0.11791872978210449, -0.03177334740757942, 0.004082174506038427, 0.062294963747262955, 0.0955890640616417, -0.03533804044127464, -0.0736316367983818, 0.08649038523435593, -0.06893836706876755, -0.1253920942544937, 0.07336887717247009, 0.07795169949531555, -0.04137647524476051, -0.026707876473665237, -0.1047763004899025, -0.08715210855007172, 0.09637577086687088, -0.02825082093477249, 0.13734553754329681, -0.09843651950359344, -0.005879157222807407, 0.04081058129668236, 0.11805740743875504, 0.15482217073440552, 0.06478485465049744, 0.024309508502483368, -0.10012825578451157, -0.07712927460670471, -0.10143238306045532, 0.03455642610788345, 0.1111011803150177, -0.07038921117782593, -0.04252590611577034, -0.12534867227077484, 0.02862362563610077, 0.07432093471288681, -0.1782783716917038, -0.13934984803199768, 0.07322433590888977, 0.008262022398412228, -0.03496536985039711, 0.0019390851957723498, -0.042929764837026596, -0.1271178126335144, -0.1591932326555252, 0.11477744579315186, 0.0066067008301615715, -0.03375563025474548, -0.060903340578079224, -0.09908774495124817, -0.057873766869306564, -0.11582835018634796, 0.11846363544464111, 0.06983231008052826, -0.0776168555021286, -0.05323217809200287, 0.06101493537425995, -0.03720153868198395, 0.05247662588953972, 0.05259782448410988, -0.07813937216997147, 0.05007059499621391, 0.02388765662908554, 0.11494877934455872, -0.06656128168106079, -0.051424238830804825, 0.09568770974874496, -0.13680104911327362, -0.004049376584589481, 0.12041183561086655, -0.08513721078634262, 0.11571521311998367, 0.12840217351913452, 0.1363936811685562, -0.013096766546368599, 0.1339527666568756, -0.059273164719343185, -0.0451427698135376, 0.05987489968538284, 0.04164129123091698, 0.09300445765256882, 0.15602925419807434, -0.07467974722385406, 0.09619467705488205, 0.05073276162147522, 0.0776454284787178, 0.06962719559669495, -0.06206681951880455, -0.12309252470731735, 0.10512314736843109, -0.09593696147203445, 0.08061102777719498, -0.14605028927326202, -0.011577070690691471, 0.014091975055634975, 0.03758038580417633, 0.010879766196012497, 0.03810884431004524, -0.03302116319537163, 0.05577528104186058, 0.15960797667503357, -0.07934091985225677, -0.044839099049568176, -0.09931115806102753, 0.07174640893936157, 0.11145929992198944, -0.017634248360991478, -0.06594278663396835, -0.08821335434913635, 0.1017901822924614, -0.014353168196976185, 0.17645598948001862, 0.1335647702217102, 0.19132176041603088, 0.1266375631093979, -0.08813928067684174, 0.039018068462610245, -0.018866483122110367, 0.12317384779453278, 0.05069920793175697, -0.027022533118724823, -0.1472771018743515, -0.18660703301429749, 0.07990559190511703, 0.06078624725341797, 0.04145771265029907, 0.05565793812274933, -0.11461285501718521, -0.01809808611869812, -0.0717364177107811, 0.03988993912935257, -0.027259638532996178, 0.06210220977663994, 0.08168445527553558, 0.0711427554488182, -0.023222021758556366, 0.05407223850488663, -0.1774589866399765, -0.11558862030506134, -0.013192202895879745, -0.05040152370929718, -0.0778503492474556, -0.021236298605799675, -0.014003395102918148, -0.14642566442489624, 0.008341782726347446, 0.09712675958871841, 0.064463771879673, -0.0645279586315155, -0.1255975216627121, -0.146221324801445, -0.0270755086094141, 0.08257346600294113, -0.0783454030752182, -0.09789721667766571, -0.09137523174285889, -0.018766311928629875, -0.1443507820367813, -0.1335163414478302, 0.19028550386428833, -0.019860487431287766, -0.002285132184624672, -0.02121746353805065, -0.11120957881212234, -0.006705437321215868, 0.0940331369638443, -0.009703066200017929, 0.020985072478652, -0.03543707728385925, -0.17952479422092438, 0.08408260345458984, 0.13688935339450836, 0.11936648935079575, -0.02894977293908596, 0.027897102758288383, -0.18629105389118195, -0.06188936531543732, -0.057490721344947815, -0.07612849771976471, 0.03403792157769203, -0.10198231041431427, -0.05135742574930191, -0.06403546035289764, -0.14968307316303253, -0.0372057780623436, -0.13136017322540283, 0.05943781137466431, 0.05186578258872032, 0.12198606133460999, -0.030632739886641502, 0.025070004165172577, 0.03359599784016609, 0.15018321573734283, 0.14186187088489532, -0.052836302667856216, -0.1317678987979889, -0.13655932247638702, -0.0693354681134224, 0.1377631276845932, 0.0805853083729744, 0.2069740742444992, 0.11066646873950958, 0.012618506327271461, -0.06691225618124008, 0.13118475675582886, 0.10744424164295197, 0.058321814984083176, -0.12978580594062805, 0.038976624608039856, -0.11160163581371307, 0.09306442737579346, 0.06038862094283104, 0.08588983863592148, -0.17029179632663727, -0.14554309844970703, -0.02759135514497757, -0.005820906721055508, -0.07739163190126419, 0.20972009003162384, -0.013911116868257523, 0.1005668193101883, -0.1413307636976242, 0.08558662980794907, 0.004869116935878992, 0.04949314147233963, -0.018792854622006416, -0.041966717690229416, 0.09397825598716736, -0.0037756075616925955, 0.14704634249210358, 0.10389868915081024, -0.014302483759820461, -0.06189977377653122, -0.10058277100324631, -0.030689304694533348, -0.10809400677680969, 0.0345972441136837, -0.008150624111294746, -0.042333316057920456, -0.13326746225357056, 0.09063096344470978, 0.07937275618314743, -0.03145819902420044, -0.06271900236606598, 0.08967258781194687, 0.12727490067481995, -0.12474742531776428, -0.01044947188347578, 0.017486542463302612, -0.053226057440042496, 0.127310112118721, -0.013486555777490139, 0.1079820990562439, -0.010900781489908695, -0.02506190352141857, -0.08008741587400436, -0.0647612065076828, 0.013930045068264008, 0.05437314882874489, -0.008659249171614647, 0.13840940594673157, -0.09966293722391129, 0.03648442402482033, 0.09690696001052856, -0.012950180098414421, 0.14194348454475403, 0.040500376373529434, -0.11914461106061935, -0.09491968154907227, 0.03503720462322235, -0.06380707770586014, 0.055861953645944595, 0.17994441092014313, 0.05216922238469124, -0.011743010021746159, 0.03935326635837555, -0.06889041513204575, -0.0951574444770813, -0.07355733215808868, -0.11445200443267822, 0.040605850517749786, 0.04219469800591469, -0.06238760054111481, -0.12860505282878876, 0.1014578565955162, -0.07426321506500244, -0.029927274212241173, -0.13732703030109406, -0.025109784677624702, 0.10428714007139206, -0.11904221028089523, -0.10196792334318161, 0.08031169325113297, -0.12282540649175644, 0.011795807629823685, -0.005924856290221214, 0.0352340005338192, -0.0927634909749031, -0.003131173551082611, 0.009914164431393147, -0.01968141458928585, 0.013113019987940788, -0.13417740166187286, -0.00445399759337306, 0.028665507212281227, 0.027766326442360878, -0.07906803488731384, 0.08790863305330276, 0.09832608699798584, -0.09139421582221985, 0.04662313312292099, 0.10275427997112274, 0.013348451815545559, 0.020373934879899025, 0.10916215181350708, -0.04672688618302345, -0.1550906002521515, -0.0360298715531826, 0.14609375596046448, -0.01632702723145485, -0.11484503000974655, 0.10973063856363297, 0.06388553231954575, -0.03100002557039261, 0.07737160474061966, 0.01658659428358078, 0.005638943985104561, 0.056430935859680176, -0.05437874421477318, 0.029870564118027687, 0.0739624947309494, 0.04515625536441803, -0.07761052995920181, -0.029066767543554306, -0.14646875858306885, 0.07049389183521271, 0.08976902067661285, -0.004091502167284489, -0.09778399765491486, -0.030428551137447357, -0.028865160420536995, -0.15348117053508759, -0.0921771302819252, 0.14378072321414948, 0.11971897631883621, 0.0667591467499733, 0.08705954253673553, 0.04321230947971344, 0.06739860773086548, 0.08200854808092117, -0.046525001525878906, 0.010600630193948746, 0.1314675360918045, 0.032393261790275574, -0.0958247184753418, -0.11339004337787628, 0.08083715289831161, 0.14328749477863312, 0.13561458885669708, 0.048585645854473114, 0.10766805708408356, -0.12356074154376984, -0.0946429967880249, -0.1648717075586319, 0.0901939645409584, -0.02751656249165535, -0.07689608633518219, 0.0398891381919384, -0.06493989378213882, -0.07581643760204315, 0.07027313858270645, 0.043073054403066635, -0.08560017496347427, -0.07733988761901855, 0.08688163012266159, 0.1289886236190796, 0.03094509057700634, -0.05316350236535072, 0.07788247615098953, 0.033620286732912064, -0.11560535430908203, -0.09459467977285385, 0.03015061281621456, 0.08713839203119278, -0.04726552963256836, 0.07062015682458878, -0.09316738694906235, 0.12004585564136505, 0.08679471164941788, 0.007472652476280928, 0.09670061618089676, 0.08008144795894623, -0.07237546145915985, 0.01440504752099514, 0.050851672887802124, -0.028794245794415474, 0.13298988342285156, -0.060386449098587036, -0.13527850806713104, -0.10396797209978104, -0.16643266379833221, 0.11496216058731079, -0.07978505641222, -0.11338022351264954, -0.02921750396490097, -0.13741788268089294, -0.11131072044372559, 0.06299396604299545, -0.0732148289680481, 0.10229497402906418, 0.12040645629167557, -0.025621922686696053, 0.03877699375152588, -0.10265564173460007, 0.14479303359985352, 0.17404113709926605, 0.039028484374284744, 0.1435161978006363, -0.13851401209831238, -0.012272684834897518, 0.06525877118110657, -0.09327567368745804, 0.08661413192749023, -0.030784793198108673, -0.03021448478102684, -0.09868629276752472, 0.08232644945383072, -0.08342409133911133, -0.02433992549777031, 0.04378589242696762, 0.09133576601743698, 0.03144467622041702, -0.0758359357714653, -0.0748678520321846, 0.08405309915542603, 0.019013378769159317, 0.11962518095970154, 0.05811604857444763, 0.10044380277395248, -0.11492525041103363, 0.14294730126857758, -0.05254967883229256, -0.018633240833878517, 0.028609460219740868, -0.019991932436823845, 0.039434611797332764, 0.14440979063510895, -0.08166787773370743, 0.0233815498650074, -0.18108226358890533, -0.010853614658117294, 0.0922577828168869, 0.08048408478498459, 0.11956768482923508, 0.049591273069381714, -0.08346568793058395, 0.024295050650835037, -0.05405823886394501, 0.1557740569114685, 0.07192004472017288, -0.111285001039505, 0.11293607950210571, -0.021668776869773865, 0.0030531263910233974, 0.01785128191113472, -0.0045574926771223545, 0.038485877215862274, -0.03427623212337494, -0.13942140340805054, -0.06449674814939499, 0.004335987381637096, 0.10349884629249573, 0.10609275847673416, -0.07949177920818329, -0.028513576835393906, -0.04716310277581215, -0.05512330308556557, -0.0014659649459645152, -0.04340142011642456, 0.06263857334852219, -0.15292462706565857, -0.0505794994533062, -0.14374621212482452, 0.007621829863637686, 0.16875356435775757, -0.006668597925454378, -0.0771578997373581, 0.08945564180612564, 0.029555775225162506, -0.03504425659775734, -0.04005485400557518, 0.007742571644484997, -0.0023822274524718523, 0.10739552974700928, 0.016397638246417046, 0.15539096295833588, -0.07487518340349197, -0.07689974457025528, -0.01920432411134243, 0.049670685082674026, 0.08316393196582794, 0.04033319279551506, -0.004412620794028044, -0.10693896561861038, 0.01765734888613224, -0.12510481476783752, -0.04579655081033707, -0.049062032252550125, -0.07188699394464493, 0.1422674059867859, -0.041857678443193436, 0.09062153846025467, 0.12875685095787048, 0.10043270885944366, 0.08772651106119156, -0.012848369777202606, 0.00960485264658928, 0.024682197719812393, 0.03262854740023613, -0.07285317033529282, -0.03705243021249771, -0.04443039000034332, -0.17665468156337738, -0.01925855129957199, -0.13293972611427307, 0.13933636248111725, -0.03568817302584648, -0.023767312988638878, -0.07965988665819168, 0.11002694815397263, -0.10009071975946426, 0.06762081384658813, 0.07106933742761612, 0.10252184420824051, 0.04104246944189072, 0.09540902823209763, 0.1378358006477356, 0.04759449139237404, 0.0720386654138565, -0.08819366991519928, -0.037019677460193634, 0.022534674033522606, 0.02892419695854187, -0.06919390708208084, -0.18256691098213196, -0.08850808441638947, 0.02660195529460907, 0.10122982412576675, -0.14967064559459686, 0.04243681952357292, -0.18133682012557983, -0.1929159015417099, -0.08163446933031082, 0.004058954771608114, 0.07066129893064499, -0.11899764835834503, 0.09842036664485931, 0.11593649536371231, 0.017897097393870354, 0.15147912502288818, -0.017776265740394592, -0.023808645084500313, 0.011728442274034023, 0.04839899763464928, -0.08684138208627701, -0.09230773150920868, 0.08609087765216827, 0.04482829570770264, 0.14746829867362976, -0.05109182745218277, 0.049282923340797424, -0.04765312001109123, 0.09002776443958282, -0.0007012031273916364, 0.10254082083702087, 0.0686766654253006, 0.14136995375156403, 0.0753956139087677, -0.010486290790140629, 0.08932414650917053, -0.10280803591012955, 0.1206294447183609, 0.13893093168735504, 0.13638584315776825, -0.06014491617679596, -0.07724347710609436, 0.04132365062832832, 0.06269651651382446, 0.07732922583818436, 0.04484223946928978, 0.06769900768995285, -0.0396965853869915, -0.29650500416755676, 0.3527102470397949, 0.34839722514152527, -0.5806999206542969, 0.15327441692352295, -0.8005532622337341, -0.21395359933376312, -0.3517386019229889, 0.7484157085418701, -0.9510992169380188, -0.541433572769165, -0.9715821146965027, 0.23131336271762848, -0.8697112202644348, 0.2984312176704407, -0.769579291343689, -0.12136229872703552, -0.10315221548080444, 0.03484668582677841, 0.23305752873420715, 0.2199697196483612, -0.004487661644816399, -0.21766477823257446, -0.049675241112709045, -0.08110781759023666, -0.05154658854007721, 0.09405779093503952, 0.13178962469100952, 0.05053027346730232, 0.08607567101716995, -0.05798083171248436, -0.019984249025583267, 0.0338047631084919, -0.16338013112545013, -0.04730910435318947, -0.04099486023187637, -0.25230711698532104, 0.20025503635406494, -0.022884441539645195, -0.20363159477710724, 0.1262253373861313, -0.12144359946250916, 0.11237950623035431, 0.2899025082588196, 0.011606459505856037, 0.10439471155405045, 0.1007695347070694, 0.2195768654346466, -0.05991794541478157, -0.19665735960006714, -0.039957109838724136, 0.1518048793077469, 0.026469500735402107, 0.20975971221923828, -0.035694461315870285, 0.07450832426548004, -0.08178609609603882, 0.0650784969329834, -0.23101340234279633, -0.13140344619750977, 0.018898872658610344, 0.19189870357513428, 0.1516948640346527, 0.05241197720170021, 0.07389964908361435, 0.08072741329669952, -0.21998365223407745, -0.19809532165527344, -0.198349267244339, 0.007075038738548756, -0.11532057821750641, -0.08915403485298157, -0.07861560583114624, 0.08247199654579163, 0.07949221134185791, 0.24541985988616943, 0.2676865756511688, -0.17536376416683197, 0.012215225957334042, 0.05498162657022476, 0.2611998915672302, -0.043779999017715454, -0.11474695801734924, -0.1348821073770523, 0.16750343143939972, -0.04086543247103691, -0.09650477021932602, 0.20879381895065308, 0.23418782651424408, -0.01567174680531025, -0.16795167326927185, 0.22114941477775574, -0.12733329832553864, -0.07774508744478226, -0.15967990458011627, -0.14526358246803284, -0.17483770847320557, -0.11185191571712494, -0.22260168194770813, -0.06325975805521011, 0.10572129487991333, -0.20345710217952728, -0.04370246082544327, -0.08251282572746277, 0.19000883400440216, 0.20935460925102234, -0.05385178327560425, -0.15958313643932343, -0.20775106549263, -0.14627769589424133, 0.0617472305893898, 0.040528398007154465, 0.09113488346338272, -0.111721932888031, 0.09588443487882614, -0.23762406408786774, 0.056809645146131516, 0.27207690477371216, -0.30434221029281616, -0.17422987520694733, 0.1286289393901825, 0.02496667020022869, -0.12948812544345856, 0.19915185868740082, 0.06723461300134659, 0.06607934832572937, -0.1055428683757782, 0.2601986527442932, 0.1630585640668869, 0.07064202427864075, 0.055157069116830826, 0.13395094871520996, 0.17392085492610931, -0.11614958941936493, -0.043823108077049255, 0.11737430095672607, -0.08830197155475616, 0.23606353998184204, -0.18803517520427704, 0.08367276936769485, -0.21236154437065125, 0.0737605020403862, 0.16793058812618256, 0.0009257398196496069, -0.03790285438299179, 0.11705325543880463, -0.2190496176481247, -0.179300457239151, -0.24053482711315155, -0.11225376278162003, -0.00763303367421031, -0.12419898062944412, -0.008560797199606895, 0.04455561563372612, 0.23978447914123535, -0.062039587646722794, -0.03474613279104233, 0.2105087786912918, -0.06357003003358841, 0.29193446040153503, -0.056203290820121765, -0.005693324841558933, 0.0009530605748295784, 0.15081855654716492, 0.14079870283603668, -0.19243185222148895, 0.2018425613641739, -0.0038748220540583134, -0.07392659038305283, -0.04070628061890602, 0.161541149020195, 0.2088441699743271, 0.07427886873483658, -0.05148133635520935, 0.11834995448589325, -0.1572224646806717, -0.14066945016384125, -0.11874020099639893, -0.2005765289068222, 0.0879250317811966, -0.005884864367544651, -0.03429776057600975, -0.031483594328165054, -0.013085776008665562, 0.1249169185757637, 0.2705804705619812, -0.1625891923904419, 0.14469017088413239, 0.10349307209253311, 0.15964163839817047, -0.03148910775780678, 0.11336759477853775, 0.03765576332807541, 0.2532796859741211, -0.24915847182273865, -0.09410852938890457, -0.1823495328426361, -0.10460150986909866, 0.0448068268597126, 0.15181227028369904, -0.1435706913471222, 0.16475065052509308, 0.19981510937213898, -0.1392495483160019, 0.03351597860455513, -0.08620953559875488, 0.0705227255821228, -0.12270299345254898, -0.13507363200187683, -0.21689845621585846, -0.23982428014278412, 0.17584232985973358, -0.048540521413087845, 0.024287156760692596, -0.1326606422662735, 0.1451091468334198, -0.1783253252506256, -0.06532487273216248, -0.18350011110305786, -0.15997672080993652, 0.2583189010620117, -0.14693641662597656, -0.0240268986672163, -0.014980270527303219, 0.078236423432827, 0.04559008777141571, -0.21192708611488342, 0.20640960335731506, -0.26329365372657776, 0.047312233597040176, -0.03586900234222412, -0.07193970680236816, 0.12672655284404755, 0.22492912411689758, 0.05226022005081177, -0.06108925864100456, 0.21388812363147736, 0.17376038432121277, 0.027468036860227585, -0.043666671961545944, 0.06119798496365547, 0.18901237845420837, 0.008419528603553772, -0.08173753321170807, -0.21229039132595062, -0.09666245430707932, 0.15525412559509277, 0.03168113902211189, -0.10105524957180023, 0.129425510764122, -0.15108884871006012, 0.057285528630018234, -0.10027062892913818, 0.1926259994506836, 0.20291350781917572, 0.1777033656835556, 0.22050079703330994, -0.21022635698318481, -0.09578520804643631, 0.041932761669158936, -0.2231266349554062, 0.07718231528997421, -0.14739570021629333, 0.12676410377025604, 0.21482877433300018, -0.20187494158744812, 0.2125113606452942, 0.12915228307247162, -0.18996408581733704, 0.26068493723869324, -0.18971504271030426, -0.17145241796970367, -0.10378745198249817, -0.006506233010441065, 0.008876746520400047, -0.05875944718718529, -0.22304344177246094, -0.03795143589377403, 0.1529684066772461, 0.18290755152702332, 0.12557001411914825, 0.023573575541377068, 0.05976419150829315, -0.18824587762355804, 0.08799292892217636, -0.2586609423160553, -0.11903901398181915, -0.05823500454425812, 0.09213026612997055, -0.029056064784526825, -0.06026395782828331, -0.0017957044765353203, -0.14410188794136047, -0.01522547472268343, 0.015150229446589947, -0.024932758882641792, 0.03161725401878357, 0.06956082582473755, -0.12546470761299133, -0.05583852902054787, 0.13608574867248535, 0.02522270753979683, -0.029737915843725204, 0.11016903072595596, 0.10574988275766373, -0.06163916736841202, -0.09387801587581635, -0.06013931334018707, 0.049583833664655685, -0.0005145148024894297, 0.1026892364025116, -0.1434294432401657, -0.09732605516910553, 0.08609843254089355, 0.03696739673614502, 0.041941314935684204, 0.06798021495342255, -0.0334106907248497, -0.10619160532951355, -0.005814356729388237, -0.015452861785888672, -0.06615705788135529, 0.012954593636095524, 0.023822493851184845, -0.023005129769444466, -0.10685699433088303, 0.006402080412954092, -0.12219539284706116, 0.03183586895465851, -0.06946438550949097, 0.08068614453077316, 0.03976631909608841, -0.047254618257284164, 0.10729704052209854, -0.14037145674228668, -0.02791648358106613, -0.05591750144958496, -0.08531197905540466, 0.045487578958272934, -0.05512397736310959, 0.11382084339857101, -0.11983534693717957, 0.12724986672401428, 0.0878002792596817, 0.09764224290847778, -0.02248305454850197, -0.07379452884197235, -0.0914173349738121, 0.11717405915260315, -0.07353045046329498, -0.018299663439393044, -0.04913223162293434, -0.0029845917597413063, -0.11425366252660751, 0.1171494647860527, -0.10917361080646515, 0.12419065088033676, -0.08110536634922028, -0.08591372519731522, -0.028824109584093094, 0.0552646666765213, -0.01144310925155878, -0.15252479910850525, 0.09683593362569809, 0.1344807744026184, 0.06766820698976517, 0.1779436469078064, 0.06407827138900757, -0.028863416984677315, -0.09419135749340057, -0.10774683952331543, -0.07732789218425751, -0.028622915968298912, 0.08975932747125626, -0.062402620911598206, 0.02615049108862877, 0.018970532342791557, -0.10660379379987717, 0.006785853765904903, 0.14299766719341278, 0.06604540348052979, 0.12478003650903702, 0.009031346999108791, 0.034791383892297745, 0.05431931093335152, -0.07420678436756134, -0.0904703214764595, 0.11780524253845215, 0.01224492583423853, -0.096185602247715, 0.1346757560968399, 0.0380047932267189, 0.08834168314933777, -0.13930641114711761, 0.02080048993229866, 0.08000128716230392, -0.027896525338292122, -0.09583481401205063, 0.09891245514154434, 0.08374373614788055, 0.05695253610610962, 0.04331343248486519, 0.03048456460237503, 0.11480160057544708, -0.007991863414645195, -0.06656915694475174, 0.06622274965047836, 0.061169397085905075, 0.057668086141347885, -0.003528196830302477, -0.008758128620684147, -0.025069881230592728, 0.02993392013013363, -0.10059787333011627, -0.1533084660768509, 0.04179149121046066, -0.08512190729379654, -0.019486337900161743, 0.028394335880875587, 0.0006897980929352343, 0.09838170558214188, 0.02745930105447769, 0.04073822498321533, -0.04494382068514824, 0.0007525295368395746, 0.0415070503950119, 0.10012795776128769, -0.13064299523830414, -0.04843777045607567, -0.1327505111694336, -0.08622922748327255, 0.0541730560362339, -0.07922883331775665, -0.06878466159105301, 0.11396336555480957, -0.044021300971508026, 0.1374811977148056, 0.03387786075472832, 0.10072419047355652, 0.16056454181671143, -0.15752935409545898, 0.1431061178445816, 0.07412011921405792, -0.10459620505571365, 0.017265507951378822, -0.05670120194554329, -0.07046563178300858, -0.08338253945112228, -0.11595384031534195, 0.1334257423877716, 0.13383950293064117, -0.007488232105970383, -0.14435544610023499, -0.05710608884692192, -0.03116508200764656, 0.09653797745704651, 0.060396626591682434, 0.08800175040960312, 0.03932565823197365, -0.12387388944625854, -0.13010849058628082, -0.14647293090820312, 0.08055716007947922, 0.10783012211322784, -0.022234033793210983, 0.12107542902231216, -0.04936107620596886, -0.10859349370002747, 0.07151371985673904, -0.00013495476741809398, -0.011699673719704151, 0.20991455018520355, 0.05143498256802559, 0.11448078602552414, 0.09358671307563782, -0.010016029700636864, 0.06292004138231277, -0.10075432062149048, -0.005410519428551197, 0.04949573054909706, 0.09433532506227493, -0.10130827128887177, 0.05905528366565704, -0.03753914311528206, 0.08843570202589035, 0.07265741378068924, 0.03009994514286518, 0.06727349758148193, -0.01647997833788395, 0.004049277864396572, 0.1251966655254364, -0.08072200417518616, -0.0923563614487648, 0.01959027722477913, -0.047672297805547714, -0.008795786648988724, 0.10154219716787338, -0.077310711145401, -0.15567533671855927, -0.10467468947172165, 0.10949297994375229, -0.05054992809891701, -0.08531160652637482, 0.023380257189273834, 0.01817587949335575, -0.1314135640859604, 0.14045046269893646, 0.08923889696598053, 0.129848912358284, 0.046554502099752426, -0.048759158700704575, -0.03675698861479759, 0.11118746548891068, 0.004400105681270361, 0.058496322482824326, -0.10824108123779297, -0.08061894029378891, 0.0507662408053875, 0.007844009436666965, -0.061591655015945435, -0.11692837625741959, 0.12584660947322845, -0.05020185559988022, -0.15361960232257843, 0.1749887317419052, 0.11402826011180878, -0.041360899806022644, -0.0717248022556305, 0.1924344003200531, 0.03646596148610115, -0.1346646249294281, 0.12982045114040375, -0.011855986900627613, -0.058711402118206024, 0.00805537961423397, -0.08195672184228897, -0.16605639457702637, 0.01465383917093277, -0.10140915215015411, 0.061122048646211624, -0.023425301536917686, -0.07626848667860031, 0.04449095577001572, -0.22148358821868896, -0.09801989048719406, 0.17446494102478027, -0.06862427294254303, 0.10986544191837311, -0.019693758338689804, -0.1658450961112976, -0.1577826738357544, 0.12067899107933044, 0.14890122413635254, 0.012546846643090248, -0.19379384815692902, -0.13662847876548767, -0.022003965452313423, 0.034584950655698776, 0.12738172709941864, 0.0739453136920929, -0.08256468176841736, 0.0361209399998188, 0.08818382024765015, 0.08241471648216248, 0.19083239138126373, -0.013902378268539906, -0.1009177714586258, 0.06380598247051239, 0.08546207845211029, -0.018032558262348175, 0.07140494883060455, -0.06453991681337357, -0.2062889039516449, 0.08459540456533432, -0.07719811797142029, -0.013563458807766438, -0.12654685974121094, -0.11777904629707336, 0.01647527888417244, 0.02500496618449688, -0.08185955137014389, -0.043636370450258255, 0.0748073011636734, -0.09680955857038498, -0.06913959980010986, -0.06328537315130234, 0.10849208384752274, 0.03186993673443794, 0.016918273642659187, -0.023866508156061172, 0.08038415014743805, -0.01281298790127039, 0.1379922479391098, 0.020886074751615524, 0.03396330401301384, 0.04300227761268616, -0.04385083541274071, 0.14941099286079407, 0.1093364953994751, -0.112269327044487, -0.17716415226459503, -0.06631392985582352, 0.10909601300954819, -0.04505443200469017, 0.15398845076560974, -0.07206942141056061, -0.18149344623088837, 0.030156459659337997, -0.0568915531039238, -0.019230954349040985, -0.033144477754831314, -0.006838043220341206, -0.1597072333097458, -0.1574186235666275, 0.06837794929742813, -0.056121230125427246, -0.11083703488111496, 0.027324626222252846, -0.17875701189041138, 0.01821628212928772, 0.12327346205711365, 0.1582181751728058, -0.11739237606525421, -0.040708787739276886, 0.1487782597541809, 0.1974124163389206, -0.1499931961297989, 0.13284935057163239, 0.09339246898889542, 0.011459378525614738, 0.014658340252935886, 0.17449025809764862, -0.12181882560253143, -0.045703668147325516, 0.04180438444018364, 0.03939250484108925, -0.14117971062660217, 0.027483180165290833, -0.05704399198293686, -0.06694608926773071, 0.0618506595492363, 0.14070934057235718, -0.038333527743816376, 0.02915663830935955, 0.026036038994789124, -0.19124701619148254, -0.010828054510056973, 0.004109284374862909, 0.07689445465803146, 0.12869423627853394, -0.15980246663093567, -0.19061757624149323, -0.02087986283004284, -0.14445392787456512, 0.21099843084812164, -0.03828000649809837, -0.06905529648065567, -0.016217539086937904, -0.005110811907798052, -0.138160839676857, 0.11408232152462006, 0.1365555375814438, 0.09652041643857956, -0.009548839181661606, -0.004391095135360956, -0.02252073399722576, 0.10501332581043243, -0.046312883496284485, -0.21509391069412231, -0.19678562879562378, -0.17042236030101776, -0.07687517255544662, -0.07565043121576309, -0.10446777939796448, 0.029384927824139595, 0.10045384615659714, -0.06055941432714462, 0.014965779148042202, 0.01871081255376339, 0.07850206643342972, -0.09596912562847137, 0.02170424722135067, 0.14257676899433136, 0.10508300364017487, -0.16108331084251404, -0.0387285016477108, -0.013488484546542168, -0.09483608603477478, -0.1352132111787796, -0.13421127200126648, 0.08609870076179504, -0.061614107340574265, -0.02731810323894024, 0.013977530412375927, -0.10897475481033325, -0.00077885139035061, 0.12464755028486252, -0.054001763463020325, 0.0641799122095108, -0.026159577071666718, 0.06558237969875336, 0.08563589304685593, 0.06663230806589127, 0.02017960138618946, -0.11782404780387878, 0.02279571071267128, 0.051056016236543655, -0.08673298358917236, -0.11322017759084702, 0.14127878844738007, -0.015704961493611336, 0.05456356331706047, -0.026298310607671738, 0.09554849565029144, 0.16536162793636322, 0.10329614579677582, -0.03987840563058853, 0.08517859131097794, 0.05842084437608719, 0.010527387261390686, -0.09389787912368774, -0.04342601075768471, -0.10670170187950134, 0.08726816624403, 0.11904577165842056, 0.08225008845329285, 0.0072164712473750114, -0.007711202371865511, 0.1364019513130188, -0.06773608922958374, -0.05382435396313667, -0.11832856386899948, -0.005511930678039789, 0.02358919009566307, 0.055595751851797104, -0.09355111420154572, -0.01817918010056019, -0.15142183005809784, -0.15107929706573486, -0.027456900104880333, -0.1680569350719452, 0.026189330965280533, -0.13061566650867462, -0.11708347499370575, -0.04319778084754944, -0.1650179922580719, 0.11391427367925644, 0.12490598112344742, -0.059544213116168976, 0.019847465679049492, 0.056776322424411774, 0.010888909921050072, -0.018636545166373253, -0.10110040754079819, 0.14285020530223846, -0.08660264313220978, -0.035521723330020905, -0.006051185075193644, -0.04543674737215042, -0.06588774174451828, -0.15699531137943268, 0.0014379338826984167, -0.07054343819618225, 0.07531246542930603, -0.0424073189496994, 0.1389075368642807, 0.0551304817199707, -0.021024679765105247, -0.04974764958024025, -0.03011361137032509, -0.04548414424061775, -0.006663177628070116, 0.06378543376922607, 0.1033221110701561, 0.02454887330532074, 0.04904109612107277, 0.030123502016067505, 0.03905846178531647, 0.07788706570863724, 0.055079955607652664, 0.1622893065214157, -0.1066262423992157, 0.07234596461057663, 0.01489201094955206, 0.0045793429017066956, 0.02377927489578724, 0.08756290376186371, 0.13581274449825287, -0.1441696733236313, 0.07649827748537064, 0.09307471662759781, 0.053931642323732376, -0.012587146833539009, 0.09892156720161438, -0.04494722932577133, -0.030032949522137642, -0.009664864279329777, 0.07496044784784317, 0.027436673641204834, -0.016143644228577614, -0.013054552488029003, 0.059041667729616165, -0.09749367833137512, 0.054738931357860565, 0.07015488296747208, -0.0008893109625205398, -0.06024269387125969, 0.10431823879480362, -0.12868790328502655, -0.11261580139398575, -0.04491809010505676, 0.14017269015312195, -0.19546861946582794, -0.007898051291704178, -0.16991062462329865, -0.01912805624306202, 0.003145496593788266, -0.08947837352752686, 0.12477800250053406, -0.045842044055461884, -0.11266913264989853, 0.055771417915821075, 0.038465920835733414, -0.013210145756602287, 0.19687384366989136, -0.13450902700424194, 0.026290249079465866, 0.09341349452733994, 0.0665896087884903, -0.003513702657073736, 0.034742336720228195, -0.07050948590040207, -0.10026200115680695, -0.07441183179616928, -0.03441181033849716, 0.09143991023302078, 0.12896716594696045, 0.14407336711883545, -0.025149919092655182, -0.12697388231754303, -0.163101464509964, 0.03393472731113434, -0.0873488262295723, -0.13017089664936066, -0.0596991628408432, -0.1453634798526764, -0.1137966439127922, -0.12482522428035736, -0.014606083743274212, 0.11065088957548141, -0.04888039082288742, 0.09057973325252533, -0.011111137457191944, -0.025995131582021713, -0.003683039452880621, -0.15163269639015198, -0.14843852818012238, 0.1534036248922348, -0.0867689922451973, -0.14561738073825836, 0.22986945509910583, -0.015929998829960823, -0.11219528317451477, -0.16153696179389954, -0.06026673689484596, -0.06293469667434692, 0.16954699158668518, 0.1437186747789383, 0.04802572354674339, -0.11812800168991089, -0.0002826364361681044, -0.1216471791267395, 0.01052841916680336, 0.008945200592279434, 0.008285579271614552, -0.031195849180221558, 0.0808194950222969, 0.09162856638431549, 0.048958294093608856, -0.07613898068666458, -0.05281544104218483, 0.013526503928005695, -0.12139729410409927, 0.12345490604639053, -0.0987975001335144, 0.031982421875, -0.12587575614452362, -0.012746896594762802, 0.09266849607229233, -0.10220967233181, 0.04232259839773178, -0.14797407388687134, -0.00821898877620697, -0.023883705958724022, 0.14347752928733826, 0.1883070319890976, 0.030942434445023537, 0.009379290975630283, -0.061878692358732224, 0.06935476511716843, -0.037453144788742065, 0.07925014197826385, -0.0735553577542305, 0.15171267092227936, 0.15574343502521515, 0.08764015883207321, 0.05466778203845024, 0.09011223912239075, -0.18934020400047302, 0.1323762834072113, -0.02108924463391304, 0.0859338641166687, 0.02497517690062523, -8.862664981279522e-05, -0.04193679988384247, 0.12658321857452393, -0.053975384682416916, -0.04119282588362694, 0.08565230667591095, 0.009875385090708733, -0.17805808782577515, -0.10838523507118225, -0.043035682290792465, 0.12966449558734894, -0.0920029878616333, 0.08993833512067795, 0.11676193028688431, -0.07560750842094421, -0.0563090555369854, -0.05199446529150009, 0.012501104734838009, -0.03165527805685997, -0.027596069499850273, 0.02445174753665924, 0.02949550747871399, -0.040544044226408005, 0.01767558604478836, 0.033149585127830505, -0.03556765988469124, 0.018294567242264748, -0.06948526203632355, 0.12770290672779083, 0.016487691551446915, -0.011035534553229809, -0.1972501128911972, -0.0759110152721405, 0.02832668088376522, 0.007854694500565529, -0.06842124462127686, 0.07384428381919861, -0.0398433543741703, 0.08022809028625488, 0.13059775531291962, -0.13377508521080017, -0.05277830734848976, -0.045012734830379486, -0.10206576436758041, -0.05266811326146126, -0.013493416830897331, 0.042354390025138855, 0.057987552136182785, 0.12598705291748047, 0.12081572413444519, 0.008381030522286892, -0.006886311341077089, 0.06713229417800903, -0.03287358954548836, -0.03349664434790611, 0.08626999706029892, -0.12602081894874573, -0.12243381142616272, 0.03083992376923561, -0.03398687019944191, -0.06368361413478851, -0.13120582699775696, 0.13251619040966034, 0.011124003678560257, -0.12070519477128983, -0.07396762073040009, 0.02402452751994133, -0.098208948969841, 0.01649191975593567, -0.003988280892372131, 0.012052185833454132, 0.025634584948420525, -0.11417149752378464, 0.08517029881477356, 0.12375981360673904, 0.01943211443722248, 0.06287640333175659, -0.09448561072349548, 0.0005472500342875719, 0.07273029536008835, -0.051185544580221176, 0.1032562255859375, -0.12880946695804596, -0.0734134167432785, -0.09647869318723679, -0.06796015053987503, -0.1128147691488266, -0.14983683824539185, 0.06841152161359787, -0.05486016348004341, -0.12407367676496506, 0.07268393784761429, -0.01060684397816658, 0.06847136467695236, -0.1242908388376236, 0.008322962559759617, 0.0832468718290329, 0.12307823449373245, 0.04041464626789093, 0.0667441338300705, 0.1786249279975891, -0.050591982901096344, 0.10373320430517197, 0.14878448843955994, -0.09305711090564728, 0.06665950268507004, 0.11579184979200363, -0.015206705778837204, 0.09030450880527496, 0.018256189301609993, 0.08535483479499817, -0.024319464340806007, -0.12528343498706818, 0.08927484601736069, 0.023021714761853218, 0.11339477449655533, -0.006169594824314117, 0.037512898445129395, 0.046335309743881226, 0.03701543062925339, -0.01712852343916893, 0.053136344999074936, -0.10848789662122726, -0.00543556921184063, -0.07606929540634155, 0.04014482721686363, -0.08476939052343369, 0.1345294862985611, -0.11872786283493042, 0.07753163576126099, 0.11339979618787766, -0.12670184671878815, 0.13501691818237305, -0.09304608404636383, 0.00253424234688282, 0.0993039608001709, -0.009357956238090992, 0.13882873952388763, -0.04084417596459389, 0.03130470588803291, -0.0967312604188919, -0.059232670813798904, 0.14514775574207306, 0.11210955679416656, 0.009502719156444073, 0.025634340941905975, -0.12103533744812012, 0.09580938518047333, -0.0010305180912837386, -0.04867301508784294, -0.07905364036560059, 0.13276326656341553, 0.05631300434470177, 0.07291442155838013, 0.02263709530234337, -0.11888888478279114, 0.04797619581222534, 0.008097240701317787, 0.031407494097948074, -0.29665666818618774, -0.477959543466568, 0.8659780025482178, 0.35488730669021606, -0.49243253469467163, 0.207387313246727, -0.23306959867477417, 0.03407103195786476, 0.5213811993598938, -0.8770856261253357, 1.003127098083496, 0.5843326449394226, 0.002565753646194935, -0.32765206694602966, 0.15143118798732758, -0.7364687323570251, 0.19384346902370453, -0.169097900390625, 0.06402810662984848, -0.3090675473213196, 0.13144433498382568, 0.08204608410596848, 0.24349646270275116, -0.02419688180088997, 0.1018664687871933, 0.059810273349285126, 0.14488206803798676, 0.19094714522361755, -0.24120177328586578, 0.05614089593291283, -0.025464234873652458, -0.12567861378192902, 0.19880756735801697, -0.06888562440872192, 0.032513946294784546, 0.11976393312215805, 0.17399469017982483, 0.08012712746858597, -0.020883643999695778, -0.24583281576633453, -0.2566688060760498, 0.08469684422016144, -0.007991541177034378, -0.10301761329174042, 0.0792003944516182, 0.21272851526737213, 0.18266020715236664, -0.0383094921708107, 0.06771824508905411, -0.20095236599445343, 0.047405268996953964, -0.2584898769855499, 0.22622562944889069, -0.2006830871105194, -0.026989195495843887, -0.244533970952034, -0.11538401991128922, 0.02558189071714878, -0.20358353853225708, 0.22803524136543274, 0.12475645542144775, -0.20080387592315674, 0.029109977185726166, 0.10308467596769333, 0.21089643239974976, 0.003454062854871154, 0.1427760124206543, 0.057533394545316696, -0.12233980745077133, 0.2674354314804077, -0.27554693818092346, 0.27457019686698914, 0.2771705389022827, -0.06286769360303879, 0.15060113370418549, 0.15989084541797638, 0.09354352205991745, 0.13081055879592896, 0.021227095276117325, -0.11456021666526794, 0.09098295122385025, -0.149206280708313, 0.2119339108467102, -0.18329238891601562, 0.11079133301973343, -0.154697448015213, 0.1501181423664093, -0.04783210903406143, 0.13330036401748657, -0.07671000808477402, -0.177877277135849, 0.15508753061294556, -0.17671988904476166, -0.18037888407707214, 0.16325950622558594, -0.10430677235126495, -0.08369109779596329, -0.10620471090078354, 0.026878293603658676, -0.12572050094604492, -0.0623333565890789, -0.1333364099264145, 0.20367281138896942, 0.03835021331906319, -0.1379510909318924, -0.1729382574558258, -0.06519883871078491, 0.14523038268089294, 0.0005318541079759598, 0.12687376141548157, 0.247123584151268, 0.1045224666595459, 0.05525953322649002, 0.14111055433750153, -0.13090616464614868, 0.07929486781358719, 0.1993681788444519, -0.07625120133161545, 0.010312307626008987, -0.05159885808825493, -0.18180768191814423, 0.17581914365291595, 0.17197628319263458, -0.13831448554992676, 0.11628814041614532, 0.07393576949834824, 0.06038046255707741, 0.14769025146961212, 0.2520906627178192, 0.14882001280784607, -0.224904865026474, -0.1723567694425583, 0.16156789660453796, -0.2312980741262436, 0.10809066891670227, -0.14874498546123505, -0.0026280402671545744, 0.12507909536361694, 0.012234244495630264, 0.24617768824100494, -0.04856373742222786, 0.154187873005867, 0.13390137255191803, -0.06231771409511566, -0.18868227303028107, 0.2487242966890335, -0.10596287995576859, 0.21634095907211304, 0.14675384759902954, 0.04748138412833214, -0.22910763323307037, 0.061818916350603104, -0.11232069134712219, 0.09359849244356155, -0.09130804985761642, 0.15886430442333221, -0.21525748074054718, -0.06777219474315643, -0.00537223881110549, 0.02611124888062477, 0.15854085981845856, -0.06312260776758194, -0.1624755859375, 0.20233139395713806, 0.011757361702620983, 0.2487560510635376, -0.1778131127357483, -0.11124223470687866, -0.0870010182261467, -0.017349418252706528, 0.13821421563625336, -0.21786269545555115, -0.004093463998287916, -0.004178686533123255, 0.17348431050777435, -0.1213449165225029, 0.2444271594285965, -0.12002149224281311, -0.1642717570066452, -0.19127987325191498, 0.22339001297950745, -0.17726708948612213, 0.09284116327762604, -0.0639207661151886, 0.23003561794757843, 0.09050684422254562, -0.2679023742675781, 0.008209080435335636, 0.0333632156252861, -0.19687272608280182, 0.03864223137497902, 0.2698683440685272, 0.07544099539518356, 0.009210069663822651, -0.043580129742622375, 0.05961723253130913, -0.0634768009185791, 0.19845829904079437, 0.21285320818424225, 0.08853109925985336, -0.08749657869338989, -0.1937364637851715, -0.16810792684555054, 0.2388739287853241, -0.2330547273159027, -0.21732771396636963, 0.007540850900113583, 0.10176906734704971, -0.28020113706588745, -0.20284828543663025, -0.03152388334274292, -0.050731658935546875, 0.17292901873588562, 0.10689464211463928, -0.2327665090560913, -0.19432640075683594, 0.17566700279712677, 0.004278459120541811, -0.09844918549060822, 0.01583842560648918, -0.03230539336800575, 0.18006831407546997, 0.03895553946495056, -0.13160747289657593, -0.21094250679016113, 0.1660892367362976, -0.16212409734725952, 0.006812558975070715, -0.00031790920183993876, -0.05682692304253578, 0.11658955365419388, -0.1223037987947464, 0.08350193500518799, 0.018117690458893776, 0.1314147263765335, -0.29011526703834534, 0.028857318684458733, 0.1276998668909073, -0.20661446452140808, 0.04350006952881813, 0.08501526713371277, 0.12364901602268219, -0.07960609346628189, -0.12042154371738434, -0.07740912586450577, -0.22624848783016205, 0.1707247942686081, -0.32301604747772217, 0.12586688995361328, 0.18827193975448608, 0.06390891224145889, 0.3262135088443756, -0.14039064943790436, 0.05949487164616585, 0.1219867542386055, -0.15965117514133453, -0.06129935011267662, -0.07894036173820496, -0.07451297342777252, -0.25956103205680847, -0.11504828184843063, -0.11635077744722366, -0.022440368309617043, -0.25949275493621826, 0.02268362231552601, 0.17825672030448914, 0.1339973360300064, 0.25034916400909424, -0.19685253500938416, -0.05871567502617836, -0.0819711983203888, 0.07302069664001465, 0.0656292513012886, 0.06065847724676132, 0.09498849511146545, 0.14182895421981812, -0.12292464077472687, 0.15917059779167175, 0.15149208903312683, 0.02684631384909153, -0.2134372442960739, -0.15450818836688995, 0.06652667373418808, 0.08185762912034988, 0.21686141192913055, 0.12408923357725143, 0.08397205919027328, 0.001627677003853023, 0.09646538645029068, -0.135153129696846, 0.04602581635117531, -0.05282866582274437, -0.06672900170087814, 0.09205646812915802, 0.12377626448869705, -0.07918396592140198, 0.042683299630880356, -0.11520428210496902, 0.07683993130922318, 0.09573985636234283, 0.07029666751623154, -0.16471585631370544, -0.1022355854511261, 0.13329361379146576, -0.014023459516465664, 0.08214278519153595, 0.13906240463256836, -0.044904135167598724, -0.06041586026549339, -0.11062408238649368, 0.055089786648750305, 0.09266816079616547, -0.027434218674898148, -0.17238277196884155, -0.08161606639623642, -0.04004144296050072, 0.09388897567987442, -0.04779359698295593, -0.05563071370124817, -0.16029103100299835, 0.16842740774154663, 0.04612565413117409, -0.12523464858531952, -0.09757522493600845, -0.11804372072219849, 0.023388246074318886, -0.04320565238595009, 0.010815859772264957, -0.02556995488703251, -0.09167416393756866, -0.07581491768360138, -0.1853189319372177, -0.008742446079850197, 0.06724657863378525, -0.09930659085512161, 0.015591375529766083, -0.10781585425138474, 0.14574377238750458, -0.038885775953531265, 0.1415623426437378, -0.06841150671243668, -0.13951972126960754, -0.02747468277812004, -0.08406126499176025, -0.004156630486249924, 0.01587013155221939, 0.12552686035633087, 0.11109098047018051, -0.06318573653697968, 0.03962229564785957, 0.14106449484825134, -0.022192547097802162, -0.15435506403446198, 0.023856239393353462, -0.13350564241409302, 0.10111550241708755, -0.0796494111418724, -0.08542131632566452, -0.11316762864589691, -0.08539330959320068, 0.09372696280479431, 0.14776980876922607, -0.11905723065137863, 0.055087316781282425, 0.1357090175151825, 0.1574527621269226, -0.030703485012054443, 0.1633157879114151, -0.012607778422534466, 0.052376922219991684, -0.034321870654821396, -0.14437195658683777, -0.026700003072619438, 0.03447951376438141, 0.04194701090455055, -0.058676838874816895, 0.13291862607002258, -0.17857639491558075, -0.013333502225577831, 0.158091202378273, -0.01894313469529152, -0.14469031989574432, 0.05577635020017624, -0.04570326209068298, -0.05750031769275665, -0.1348051279783249, 0.01654687337577343, 0.10894189029932022, 0.006946247536689043, -0.10167048126459122, -0.10486146807670593, -0.02580203115940094, 0.11798328161239624, -0.15723618865013123, 0.037334881722927094, -0.05200304836034775, 0.1655178815126419, -0.03119717352092266, -0.033295802772045135, -0.04399287328124046, -0.11449474841356277, -0.011370993219316006, 0.02114531211555004, 0.09020501375198364, -0.09561148285865784, 0.07704658061265945, -0.006946365348994732, 0.08408297598361969, -0.13285906612873077, 0.024694249033927917, 0.08448721468448639, 0.0642000213265419, -0.04500313475728035, 0.0401504784822464, -0.05246908590197563, 0.03240841254591942, -0.04022251069545746, -0.08819147944450378, -0.11780036985874176, -0.10907956957817078, -0.08700551837682724, 0.014546374790370464, -0.023180991411209106, -0.14470736682415009, -0.005893610883504152, -0.004487326368689537, 0.1661515235900879, -0.10284226387739182, -0.0036869191098958254, -0.006225115619599819, 0.02395320124924183, -0.016916433349251747, -0.06793703138828278, 0.17758867144584656, -0.06258756667375565, -0.02887405827641487, 0.09886419028043747, 0.08498265594244003, 0.07000074535608292, 0.07489193975925446, -0.11925321072340012, 0.13368558883666992, 0.10714836418628693, -0.020904989913105965, 0.022651996463537216, 0.11057145148515701, -0.09545236825942993, -0.11466897279024124, -0.17145220935344696, 0.04580378159880638, 0.1026143953204155, -0.007469712756574154, -0.005502372980117798, -0.005098204128444195, -0.0023433768656104803, 0.12452345341444016, 0.07507883757352829, -0.08208347111940384, -0.1404772847890854, -0.12501738965511322, -0.01878928206861019, 0.09267210960388184, -0.016438910737633705, 0.20795239508152008, -0.07742444425821304, 0.0008049584575928748, 0.11557545512914658, 0.07084611803293228, 0.020307043567299843, 0.1615133285522461, -0.09197399765253067, 0.10650189220905304, 0.13593515753746033, -0.12171489745378494, -0.18386492133140564, 0.12226550281047821, -0.12881560623645782, -0.16166670620441437, 0.032250452786684036, -0.11900738626718521, 0.08714179694652557, 0.05763140320777893, -0.04941064864397049, 0.09642799943685532, 0.10988283902406693, -0.017756734043359756, -0.12230540066957474, 0.2083471268415451, -0.10394887626171112, 0.1901487559080124, -0.018733292818069458, 0.0546688437461853, 0.03986537083983421, -0.08835850656032562, -0.11192047595977783, -0.2173951417207718, 0.08049464970827103, 0.14339123666286469, -0.06995977461338043, -0.048179253935813904, -0.0052542053163051605, 0.028949657455086708, 0.047928620129823685, -0.026727518066763878, -0.05363159999251366, 0.18053562939167023, -0.11643465608358383, -0.10244814306497574, -0.09965672343969345, 0.036013852804899216, 0.04117417708039284, 0.14128953218460083, -0.13749481737613678, -0.06785600632429123, -0.06392085552215576, -0.059111740440130234, -0.09739850461483002, 0.04885714501142502, -0.05228216573596001, -0.10061756521463394, -0.04773735627532005, -0.1279270499944687, -0.11375538259744644, 0.010235965251922607, -0.0913931205868721, -0.034248001873493195, -0.08853279799222946, -0.031606998294591904, -0.06472276896238327, -0.036182742565870285, -0.034794244915246964, -0.03799153119325638, 0.09136319160461426, -0.12263871729373932, 0.004792333580553532, 0.20437096059322357, 0.05198117345571518, 0.007339935749769211, 0.08390074223279953, -0.13318891823291779, 0.06708918511867523, -0.14413081109523773, -0.1399857997894287, -0.19444428384304047, -0.18096402287483215, 0.023809337988495827, -0.0494510754942894, 0.055099692195653915, -0.050942350178956985, -0.058958496898412704, -0.07925236225128174, -0.09564977884292603, -0.07319925725460052, 0.1403740793466568, -0.08762775361537933, -0.01912735402584076, 0.03173768147826195, -0.02361617051064968, -0.01703506149351597, -0.00856537651270628, -0.16719545423984528, 0.017853496596217155, -0.07564694434404373, 0.06911569088697433, 0.033738747239112854, 0.02454592101275921, -0.14600840210914612, 0.053985703736543655, 0.024854199960827827, -0.10481970012187958, -0.05870926007628441, 0.0950908288359642, -0.18627463281154633, -0.05896279588341713, 0.07537900656461716, -0.010054313577711582, 0.19031405448913574, 0.10552731156349182, -0.10458925366401672, -0.05366393178701401, -0.03276918828487396, -0.01407003402709961, 0.028823038563132286, 0.17281047999858856, 0.0019895632285624743, -0.14599032700061798, -0.10583899915218353, -0.18460635840892792, -0.06040087342262268, 0.050628501921892166, -0.01512325182557106, -0.1261703372001648, -0.1041225790977478, 0.12123435735702515, -0.10368507355451584, -0.07594922930002213, -0.07075446099042892, 0.1807096153497696, 0.0068654161877930164, -0.003908556420356035, -0.08807041496038437, 0.10102938115596771, -0.06397002190351486, -0.010545436292886734, -0.01207259763032198, 0.025273386389017105, 0.11081939190626144, 0.029686186462640762, -0.03274311125278473, -0.02647850289940834, -0.13903044164180756, -0.04695957526564598, 0.16318245232105255, -0.06993705034255981, -0.0751282274723053, -0.14015482366085052, 0.016698144376277924, -0.17333358526229858, -0.001450254232622683, 0.21859368681907654, 0.05193083733320236, 0.06688875705003738, 0.0114265913143754, -0.12367020547389984, -0.16081590950489044, -0.16287295520305634, -0.11563518643379211, 0.06569087505340576, -0.01372742373496294, 0.08061504364013672, -0.1534748673439026, -0.13894639909267426, 0.053150586783885956, 0.014352038502693176, 0.20901192724704742, 0.044988151639699936, -0.14408479630947113, 0.14458321034908295, -0.005260296631604433, -0.1569851040840149, -0.1602812558412552, -0.08442902565002441, 0.015325185842812061, -0.16530299186706543, -0.0015224891249090433, -0.13153058290481567, 0.009420043788850307, -0.03279094398021698, 0.11377964913845062, 0.025317462161183357, -0.022225167602300644, -0.014706634916365147, -0.06718143075704575, 0.06587693095207214, -0.07326553761959076, -0.07381828874349594, -0.22487397491931915, -0.07859866321086884, -0.09715907275676727, 0.15431936085224152, 0.0970807820558548, 0.01663278415799141, 0.0736585408449173, 0.1280609667301178, -0.11478549987077713, -0.08489301800727844, -0.12425079196691513, -0.11996319890022278, -0.061014872044324875, -0.11667092144489288, -0.0810762569308281, 0.02333000861108303, -0.015039141289889812, 0.11565966159105301, 0.11257633566856384, 0.10772455483675003, -0.10459582507610321, 0.08921238034963608, 0.020418450236320496, -0.17715945839881897, 0.12477946281433105, -0.20115166902542114, -0.06744959950447083, -0.01203125435858965, -0.07284773886203766, 0.003129039192572236, 0.029201317578554153, 0.09556452184915543, 0.16075089573860168, -0.03412403538823128, -0.030754167586565018, -0.09369770437479019, -0.050533726811409, 0.04539351910352707, -0.08505214005708694, -0.11907444149255753, -0.09360615164041519, -0.08710985630750656, -0.03470887243747711, 0.048252206295728683, 0.139530211687088, -0.11914167553186417, 0.04555945470929146, -0.13920070230960846, 0.06786741316318512, 0.21185991168022156, 0.07611314207315445, -0.12122481316328049, 0.10820240527391434, -0.0198742114007473, -0.054282743483781815, -0.1534186750650406, 0.07512374967336655, 0.06340602785348892, 0.113503597676754, 0.02047702483832836, 0.0015183689538389444, 0.14514994621276855, -0.0548139289021492, 0.15374235808849335, -0.02288179099559784, 0.019671643152832985, 0.015159634873270988, 0.10431166738271713, -0.16173088550567627, 0.024402273818850517, 0.136046901345253, -0.04844376817345619, 0.06628403812646866, -0.015030239708721638, -0.09846626222133636, -0.006461306009441614, 0.11971335113048553, 0.05048070102930069, 0.12778577208518982, 0.04894944280385971, 0.0473533533513546, -0.09712404757738113, 0.007721937261521816, -0.06428999453783035, 0.15475749969482422, 0.061056531965732574, 0.05208205804228783, 0.07688455283641815, -0.002643548185005784, -0.01055409200489521, 0.02310539036989212, -0.16400082409381866, 0.04451964423060417, -0.04857311397790909, -0.10243383049964905, 0.07198812812566757, 0.047674864530563354, -0.040649209171533585, -0.13253153860569, -0.13851360976696014, 0.04330739751458168, -0.06725940108299255, -0.036863792687654495, -0.11859051883220673, 0.10578908026218414, 0.015332887880504131, 0.16413210332393646, 0.04315394163131714, -0.04836351424455643, 0.212279811501503, -0.05454825982451439, 0.1429722160100937, 0.0011620342265814543, -0.1327243596315384, 0.007964221760630608, 0.04450523108243942, -0.004498867783695459, 0.05115737393498421, -0.16578859090805054, -0.0010128844296559691, 0.07089701294898987, 0.20268797874450684, 0.07512889802455902, -0.12635301053524017, -0.1638011336326599, -0.11759504675865173, -0.03875366598367691, 0.022834252566099167, 0.02416691929101944, 0.03640575706958771, 0.12327518314123154, 0.12555083632469177, -0.09860357642173767, -0.10053978115320206, 0.005185327958315611, 0.05263911187648773, 0.04299796372652054, 0.1061580702662468, 0.04240953549742699, 0.003205771092325449, 0.06785774976015091, 0.047272443771362305, 0.0500168576836586, 0.12197175621986389, -0.11907785385847092, -0.08390988409519196, 0.05327710509300232, -0.08669435232877731, 0.08944375813007355, -0.08034475147724152, 0.08257360011339188, 0.09504179656505585, -0.0013043535873293877, 0.028014997020363808, -0.09998181462287903, 0.09010570496320724, -0.029753632843494415, -0.059334829449653625, 0.03134683519601822, 0.0022860390599817038, -0.02512896992266178, 0.003169467905536294, 0.027552122250199318, 0.06699914485216141, 0.03973908722400665, -0.05391582474112511, 0.01077516283839941, -0.058221373707056046, 0.16705454885959625, -0.1763123869895935, -0.08065862208604813, -0.021907905116677284, -0.07515375316143036, -0.11793915182352066, 0.10841532796621323, 0.06123208999633789, -0.10677346587181091, -0.04584638774394989, 0.015794970095157623, -0.05510566383600235, -0.08755254745483398, 0.12029064446687698, -0.015440233051776886, 0.1471536010503769, -0.13063392043113708, -0.10326393693685532, 0.023390570655465126, -0.12224075943231583, 0.13635766506195068, 0.11169496178627014, 0.1511458307504654, -0.15666042268276215, 0.15220710635185242, 0.12695153057575226, -0.04040383920073509, 0.025547431781888008, 0.04983948916196823, 0.08799165487289429, -0.1270969808101654, 0.12172679603099823, -0.047861188650131226, 0.09638100117444992, -0.04605921730399132, -0.189147487282753, -0.052837636321783066, 0.15419833362102509, -0.0891992375254631, 0.09678897261619568, -0.015728969126939774, 0.04998007416725159, -0.04603665694594383, 0.01238966267555952, 0.01973060704767704, -0.1028570830821991, 0.12795406579971313, 0.05646425113081932, -0.119171641767025, -0.02135084941983223, 0.07903450727462769, -0.1309584379196167, -0.06127991899847984, 0.07782787084579468, -0.09489376097917557, -0.024649037048220634, -0.12331349402666092, -0.11254758387804031, -0.12947700917720795, 0.1005067527294159, -0.1393047273159027, -0.018419204279780388, -0.033651310950517654, 0.0556865818798542, -0.017012689262628555, 0.2113194614648819, -0.15576845407485962, -0.11557261645793915, 0.04502082243561745, 0.0142672685906291, -0.025535982102155685, 0.05759231373667717, -0.16881252825260162, -0.19648180902004242, -0.08516642451286316, 0.10068921744823456, 0.08209367841482162, 0.06245841830968857, -0.045423299074172974, 0.2232048660516739, 0.07504069805145264, 0.025881268084049225, -0.03132876008749008, 0.0767698734998703, -0.03453351557254791, -0.005918761715292931, 0.018583355471491814, -0.03903847187757492, -0.02209853008389473, -0.04418553039431572, 0.1197354793548584, 0.06779859215021133, 0.13254694640636444, -0.0036580965388566256, -0.14446477591991425, 0.01872570812702179, 0.04880817234516144, 0.19824762642383575, 0.0745231881737709, 0.0471525676548481, 0.060176875442266464, -0.06633099913597107, 0.135761097073555, -0.03325844928622246, 0.05577077716588974, 0.09641791135072708, -0.11422348022460938, 0.05707802250981331, 0.11534958332777023, -0.16823633015155792, -0.03957033529877663, -0.10001713037490845, 0.04220486432313919, 0.04726845398545265, 0.07636011391878128, -0.038305725902318954, -0.14146174490451813, 0.07237657159566879, 0.11037340015172958, -0.01631244644522667, 0.11188673228025436, 0.049780216068029404, -0.057832591235637665, -0.00856382492929697, 0.05418659374117851, -0.020512402057647705, -0.04538021609187126, 0.010504274629056454, -0.06188016012310982, 0.05905284732580185, -0.11574814468622208, -0.09245322644710541, 0.11304743587970734, -0.07455003261566162, 0.0777067095041275, 0.1275365799665451, -0.06751247495412827, 0.08144039660692215, 0.18124760687351227, -0.11134085804224014, -0.011449918150901794, -0.0019428969826549292, -0.0804971307516098, 0.04362865164875984, 0.022430574521422386, 0.012135110795497894, -0.003245995379984379, 0.09844563156366348, -0.12418360263109207, -0.07297763228416443, -0.09137337654829025, 0.010345404036343098, -0.1376022845506668, -0.03456393629312515, 0.07087594270706177, -0.11014561355113983, 0.07238530367612839, -0.11936856061220169, 0.026317179203033447, 0.02164374105632305, 0.03685763478279114, 0.09537607431411743, 0.07979704439640045, -0.047264233231544495, 0.07854613661766052, 0.05059812590479851, -0.025946639478206635, -0.08945939689874649, -0.023828547447919846, 0.08411942422389984, -0.1203264370560646, -0.11642378568649292, -0.1389448493719101, 0.020426373928785324, -0.07103313505649567, -0.014368490315973759, 0.11735068261623383, -0.10513360798358917, -0.17617766559123993, 0.047400616109371185, -0.11357957124710083, -0.12817904353141785, 0.09283417463302612, 0.04843126982450485, -0.031064923852682114, 0.17584654688835144, 0.16283898055553436, -0.16452626883983612, -0.04202901944518089, 0.0551176443696022, -0.09520578384399414, -0.17083309590816498, -0.05693339183926582, -0.018792398273944855, -0.024768346920609474, 0.07286756485700607, 0.011601712554693222, 0.136959969997406, 0.03560423105955124, -0.022443508729338646, 0.04428901895880699, 0.08143630623817444, -0.0006623163353651762, -0.06636565178632736, -0.06922972202301025, -0.00586360227316618, 0.17658884823322296, -0.06938486546278, 0.017765691503882408, -0.14071770012378693, 0.013284018263220787, -0.16063618659973145, -0.03972672298550606, 0.09414543956518173, -0.17690569162368774, -0.02878738008439541, -0.061475351452827454, 0.10549105703830719, -0.04411878064274788, -0.0509667843580246, -0.15163815021514893, -0.0806349664926529, 0.03794536367058754, -0.18893863260746002, -0.046435918658971786, 0.09905251860618591, 0.1431778222322464, 0.060854703187942505, 0.1676863580942154, 0.06355004012584686, 0.0555739626288414, 0.19004985690116882, 0.07478178292512894, -0.04528480023145676, 0.10649389773607254, -0.11792663484811783, 0.1353372037410736, 0.07412144541740417, -0.06925608962774277, -0.1546303927898407, 0.11364533007144928, 0.14769914746284485, 0.010393107309937477, -0.06037547439336777, 0.07403935492038727, 0.05913197994232178, -0.02483932115137577, 0.12041019648313522, 0.6438109278678894, 0.2714081108570099, 0.5372987985610962, -0.8768640756607056, -0.42206448316574097, 0.15371482074260712, 0.351729154586792, -0.04423755779862404, 0.2893432676792145, 0.2611430287361145, -0.797823429107666, 0.29047611355781555, -0.03759263828396797, -0.7369970679283142, 0.046022940427064896, -0.28540876507759094, -0.06275581568479538, -0.27774080634117126, 0.2593857944011688, -0.2104351967573166, -0.030808476731181145, 0.15578718483448029, -0.02841712161898613, -0.17981816828250885, -0.19496354460716248, 0.08254515379667282, -0.1676926165819168, 0.06245026737451553, 0.09108170121908188, -0.10272160917520523, 0.10839875787496567, -0.02656288631260395, -0.09370502084493637, -0.2110486477613449, 0.03613481670618057, -0.18899081647396088, -0.014559382572770119, -0.10595183819532394, 0.11576274782419205, -0.11102146655321121, -0.09859376400709152, -0.014586148783564568, -0.17066311836242676, 0.11500087380409241, -0.16825814545154572, 0.11961252987384796, 0.1295977234840393, 0.18360422551631927, 0.048511750996112823, 0.07004682719707489, -0.1310112625360489, -0.3516385853290558, -0.13692927360534668, -0.2707761526107788, -0.226060688495636, 0.08087965846061707, 0.2918899655342102, -0.03334420919418335, -0.07118251174688339, -0.09939821064472198, 0.006042558699846268, 0.060225993394851685, -0.08544541895389557, 0.2292691469192505, -0.2676912248134613, 0.005317093338817358, -0.13713237643241882, 0.2955663800239563, 0.3099544644355774, 0.3274802267551422, 0.27150917053222656, 0.12678132951259613, -0.24093331396579742, -0.21418558061122894, 0.10383585840463638, -0.2742965817451477, 0.18192489445209503, 0.1107276901602745, 0.09440087527036667, -0.2047465741634369, 0.2451016902923584, -0.05690194293856621, -0.10446185618638992, 0.06707782298326492, -0.034700728952884674, -0.13543836772441864, 0.005095431115478277, -0.19353926181793213, 0.2650373578071594, 0.25745195150375366, 0.10476533323526382, 0.17804278433322906, -0.2259242981672287, -0.14622434973716736, -0.24228492379188538, -0.16402556002140045, -0.1723344922065735, 0.18878474831581116, 0.10303661227226257, 0.11236054450273514, -0.16520436108112335, 0.12789545953273773, -0.10162503272294998, -0.06974337995052338, 0.1298096477985382, 0.16799432039260864, -0.19840581715106964, 0.23456546664237976, -0.05013131722807884, 0.11848478019237518, -0.2547115981578827, -0.0029001845978200436, -0.15672877430915833, -0.11461342871189117, -0.16729429364204407, 0.03260895982384682, -0.0724988728761673, -0.1660241335630417, 0.1549709141254425, 0.09760954976081848, -0.28151220083236694, -0.0054260129109025, 0.07041283696889877, -0.04601544514298439, 0.04236452654004097, 0.03490472584962845, 0.14065948128700256, -0.18764792382717133, -0.0495498888194561, 0.15441712737083435, -0.1835789978504181, 0.09276473522186279, 0.1671580970287323, -0.27359381318092346, -0.16183337569236755, 0.257266640663147, 0.010083401575684547, 0.05601941794157028, 0.02770024724304676, 0.13846488296985626, -0.11110404133796692, 0.05054393410682678, 0.15175378322601318, -0.02492588758468628, -0.3064345717430115, 0.11977626383304596, -0.11156471818685532, 0.012590100057423115, 0.2063436359167099, 0.08480603247880936, -0.12846603989601135, -0.10257735103368759, -0.08986251056194305, -0.11488675326108932, -0.018992552533745766, -0.23138795793056488, 0.1855829507112503, 0.1547323614358902, 0.08748886734247208, 0.06986846774816513, -0.10805274546146393, 0.26406267285346985, -0.04677653685212135, 0.175054669380188, -0.0027807026635855436, 0.20801901817321777, -0.20682750642299652, 0.15567389130592346, -0.332842618227005, -0.21663324534893036, 0.2182295024394989, -0.2571544647216797, 0.24928030371665955, -0.0830068290233612, 0.3373652398586273, 0.03608699142932892, -0.13639338314533234, 0.14967502653598785, -0.24838684499263763, -0.13528454303741455, -0.13687816262245178, 0.0025813214015215635, 0.01009457278996706, -0.17439225316047668, 0.23354917764663696, -0.025797568261623383, -0.1094013899564743, -0.006794684566557407, -0.16052065789699554, 0.08530286699533463, 0.09995386004447937, -0.017245469614863396, 0.020757904276251793, 0.14142897725105286, -0.17296473681926727, -0.05922432616353035, -0.0438014455139637, -0.12926848232746124, -0.02643558755517006, 0.025725677609443665, -0.19506564736366272, 0.04360685497522354, 0.2707912027835846, 0.14055688679218292, -0.129434734582901, 0.2389441728591919, -0.14005182683467865, -0.16310827434062958, 0.0370110422372818, 0.22654713690280914, 0.1606324017047882, 0.29201540350914, -0.06452497094869614, 0.11569949984550476, -0.159701868891716, 0.07486262172460556, 0.14481452107429504, 0.050027355551719666, -0.16301152110099792, -0.1712576299905777, -0.24336794018745422, 0.16786311566829681, 0.03185420110821724, -0.15908591449260712, -0.10478893667459488, 0.09046800434589386, 0.03401116281747818, 0.25810015201568604, 0.04531758651137352, 0.09356263279914856, -0.020576143637299538, 0.025510942563414574, 0.00022634834749624133, 0.1987539380788803, 0.10295446217060089, -0.15797747671604156, -0.21540600061416626, -0.2482277750968933, -0.09750894457101822, 0.06330609321594238, 0.2819676399230957, -0.058089666068553925, 0.06689399480819702, 0.09013712406158447, -0.25864169001579285, -0.23918263614177704, 0.01569325104355812, 0.12409510463476181, -0.08986353129148483, 0.04998788237571716, -0.25286558270454407, 0.0402597114443779, 0.06253176182508469, 0.015287131071090698, -0.04409337788820267, 0.07452243566513062, -0.036525316536426544, 0.15266816318035126, -0.1816454380750656, -0.15959760546684265, -0.22792093455791473, -0.24580736458301544, 0.18006464838981628, -0.06430921703577042, -0.1673794686794281, 0.08283601701259613, -0.19672927260398865, 0.04757699370384216, 0.13017384707927704, -0.07906640321016312, 0.0916820541024208, 0.05840307101607323, -0.20272690057754517, 0.04940357804298401, 0.13767068088054657, -0.038499295711517334, 0.032519880682229996, 0.01944754086434841, 0.008331638760864735, 0.052223026752471924, -0.22816027700901031, 0.17573821544647217, 0.10424414277076721, 0.02773546800017357, 0.03189026936888695, -0.198273703455925, -0.0706290528178215, -0.0008601824520155787, -0.11114627122879028, -0.06132926791906357, 0.03887719660997391, -0.08022533357143402, 0.17534680664539337, -0.14414046704769135, -0.06953539699316025, 0.17722198367118835, -0.09716691821813583, 0.13963668048381805, 0.021001022309064865, -0.016485583037137985, -0.11234991997480392, 0.10489484667778015, -0.07216797024011612, -0.009623285382986069, 0.03730013221502304, 0.14944025874137878, 0.10692549496889114, -0.024756819009780884, 0.05802628770470619, 0.17556825280189514, 0.18999671936035156, -0.08466001600027084, 0.12027457356452942, -0.12963548302650452, 0.022326402366161346, 0.2553781569004059, -0.14781038463115692, -0.049537986516952515, 0.10281220078468323, 0.09862396121025085, -0.13584043085575104, 0.11878877878189087, -0.05367620661854744, -0.12100525200366974, 0.08413970470428467, 0.0358627587556839, 0.0739682987332344, -0.005124326329678297, -0.11794070154428482, -0.12810494005680084, -0.0895417258143425, -0.09181301295757294, 0.046535931527614594, -0.1941368281841278, 0.0795760378241539, 0.04509766027331352, -0.028556901961565018, 0.01301784347742796, 0.15321125090122223, 0.06445056945085526, -0.013094816356897354, -0.015968168154358864, -0.1356903314590454, -0.13199740648269653, -0.07412045449018478, -0.10637536644935608, 0.14737898111343384, -0.0005063788848929107, 0.15004989504814148, -0.04800397530198097, 0.009852373972535133, 0.05586044117808342, -0.06463686376810074, 0.006001667585223913, -0.2110718935728073, 0.059870727360248566, 0.07644514739513397, -0.16183225810527802, -0.09610238671302795, -0.14229167997837067, -0.07589476555585861, 0.13177701830863953, 0.03780538961291313, -0.023539487272500992, 0.10452835261821747, 0.05249772220849991, 0.03424069657921791, -0.14267683029174805, -0.020292766392230988, -0.22427639365196228, -0.22983002662658691, -0.17950710654258728, -0.074408158659935, -0.16624365746974945, -0.04615888372063637, 0.014801783487200737, -0.02495710365474224, 0.025346731767058372, 0.14283409714698792, -0.06283658742904663, -0.10226622223854065, -0.09244176000356674, -0.11655968427658081, -0.08336489647626877, -0.14807014167308807, -0.011106777004897594, 0.07654296606779099, -0.003816691692918539, 0.21650077402591705, 0.1505815088748932, -0.12159180641174316, 0.005658365320414305, -0.009625828824937344, -0.027874425053596497, 0.050355345010757446, -0.0047545102424919605, -0.18836556375026703, -0.08141402900218964, -0.100562684237957, -0.01929161511361599, 0.1245073527097702, 0.11298005282878876, -0.0489705428481102, -0.13141994178295135, -0.07873986661434174, -0.10587026178836823, -0.03964460641145706, -0.1848330795764923, 0.117774099111557, -0.15306849777698517, -0.06604141741991043, 0.1812790334224701, -0.17550629377365112, 0.013817108236253262, 0.08342314511537552, 0.15523552894592285, 0.06266329437494278, 0.0061826338060200214, 0.05153311789035797, -0.006250323727726936, -0.04933616518974304, -0.038768090307712555, 0.026736317202448845, 0.12858816981315613, 0.04500901699066162, 0.09006369858980179, -0.09193316847085953, 0.02449829690158367, 0.02827085368335247, -0.04624580591917038, -0.09463509917259216, -0.003652509767562151, -0.013424520380795002, -0.09725770354270935, 0.03943444788455963, 0.01403504516929388, 0.06166229769587517, -0.09729886054992676, 0.08903954178094864, 0.13858231902122498, -0.01928652822971344, 0.04702435061335564, -0.07173419743776321, 0.1507853865623474, 0.07784640043973923, 0.032179683446884155, 0.02696845307946205, -0.020088685676455498, -0.07544614374637604, 0.08453468978404999, 0.07804246246814728, -0.08950064331293106, 0.12354916334152222, 0.12058039754629135, -0.03505362197756767, -0.14027467370033264, 0.014848658815026283, 0.039510663598775864, 0.16182364523410797, -0.20313401520252228, 0.0326312817633152, 0.02468600496649742, 0.0053556738421320915, 0.14705538749694824, 0.018750851973891258, -0.0910760909318924, -0.05798254907131195, -0.006567476317286491, 0.005100181791931391, 0.0891731008887291, -0.0048563070595264435, -0.08226744830608368, 0.11804667115211487, -0.09400927275419235, 0.13370536267757416, -0.05150526762008667, 0.02512039989233017, 0.15395213663578033, 0.004266271833330393, 0.020572325214743614, -0.015536757186055183, 0.08108355849981308, 0.08180288225412369, 0.05927304923534393, 0.09776783734560013, -0.06266839057207108, 0.16561700403690338, 0.036409735679626465, 0.04269395396113396, -0.1629992127418518, 0.1998899132013321, 0.0905085876584053, 0.12238863110542297, 0.008044850081205368, 0.08134448528289795, 0.14104637503623962, -0.05538926646113396, -0.1015530452132225, 0.08407635986804962, -0.03536798804998398, -0.0829026997089386, 0.05658523365855217, 0.04372889921069145, 0.005602889694273472, -0.01349557749927044, 0.025121496990323067, 0.1172170415520668, 0.002953548915684223, 0.11012210696935654, 0.13234417140483856, -0.07736622542142868, 0.05097724497318268, -0.16490201652050018, 0.0565902516245842, -0.15361441671848297, -0.13311819732189178, -0.17552216351032257, 0.10190626233816147, 0.014833257533609867, -0.0032103678677231073, 0.05149439722299576, -0.07262665033340454, 0.021433748304843903, -0.13247109949588776, -0.10333401709794998, 0.0022071409039199352, 0.007307078689336777, 0.11598353087902069, -0.196524977684021, 0.06580646336078644, -0.1425585299730301, -0.04650073125958443, -0.11419829726219177, 0.11204901337623596, 0.13712413609027863, -0.03385663405060768, 0.012471597641706467, -0.008519967086613178, 0.01223559956997633, -0.06862559914588928, -0.14328204095363617, -0.05355482175946236, -0.008839061483740807, -0.1282888650894165, -0.04573298245668411, 0.011051593348383904, 0.17860709130764008, -0.043489597737789154, -0.09963209927082062, -0.09945771843194962, 0.09958968311548233, 0.015555903315544128, 0.011116092093288898, -0.1648986041545868, 0.03240059316158295, -0.0033183235209435225, 0.12562723457813263, -0.10381240397691727, 0.14089611172676086, -0.020400699228048325, 0.058956243097782135, -0.09159404784440994, 0.2357480823993683, -0.005459892563521862, 0.1356162577867508, -0.07581939548254013, -0.11791986227035522, -0.0731365755200386, -0.1305643767118454, 0.018745901063084602, -0.02234242483973503, 0.13127624988555908, -0.07647429406642914, 0.022876722738146782, 0.10603326559066772, 0.006535461638122797, -0.05227353796362877, -0.027564886957406998, 0.020410703495144844, 0.09326416254043579, -0.17340607941150665, -0.029801564291119576, -0.010417357087135315, -0.23936036229133606, 0.08963502198457718, -0.1809525042772293, -0.04483404383063316, 0.0047276695258915424, 0.17165347933769226, 0.0969351977109909, -0.11959414929151535, 