{"version": "0.5.2", "metadata": {"date": {"year": 2024, "month": 4, "day": 19, "hour": 12, "minute": 21, "second": 4}, "loudness": -15.426923751831055, "gain": 0.8379416375112854}, "architecture": "WaveNet", "config": {"layers": [{"input_size": 1, "condition_size": 1, "head_size": 8, "channels": 16, "kernel_size": 3, "dilations": [1, 2, 4, 8, 16, 32, 64, 128, 256, 512], "activation": "Tanh", "gated": false, "head_bias": false}, {"input_size": 16, "condition_size": 1, "head_size": 1, "channels": 8, "kernel_size": 3, "dilations": [1, 2, 4, 8, 16, 32, 64, 128, 256, 512], "activation": "Tanh", "gated": false, "head_bias": true}], "head": null, "head_scale": 0.02}, "weights": [-0.17809715867042542, 0.44459453225135803, -0.8620733022689819, -0.7374173402786255, -0.3347882330417633, 0.36325573921203613, -0.04236156493425369, 0.8417526483535767, -0.12473668903112411, 0.24257516860961914, -0.35301971435546875, -0.12328299134969711, -0.9332247376441956, -0.6716848611831665, -0.4126145839691162, -0.10534407943487167, -0.0037347758188843727, 0.1222911924123764, -0.08355867117643356, -0.038892824202775955, -0.0012591159902513027, 0.09233155846595764, -0.05391473323106766, 0.16092422604560852, 0.005600628908723593, -0.008686359040439129, 0.18340346217155457, -0.1076502799987793, -0.11074092239141464, 0.019578758627176285, -0.02673020213842392, 0.15740817785263062, -0.14043459296226501, -0.09073828160762787, -0.14266036450862885, -0.1029057577252388, -0.07953771948814392, 0.14737668633460999, 0.010638454928994179, 0.041737187653779984, -0.019210198894143105, -0.027600955218076706, 0.0463043749332428, -0.1118137463927269, -0.15524397790431976, -0.09918592870235443, 0.0653117224574089, 0.13570521771907806, -0.03950652852654457, -0.026130666956305504, 0.14362749457359314, 0.16744183003902435, 0.03475251793861389, 0.07330580055713654, 0.12441188097000122, -0.10722329467535019, 0.08138472586870193, -0.0836055800318718, -0.11999884247779846, -0.01835477724671364, 0.09512682259082794, -0.11296962946653366, -0.14077717065811157, 0.060586437582969666, -0.34776484966278076, -0.024414174258708954, 0.12636691331863403, 0.29376184940338135, 0.04408169165253639, -0.009924809448421001, -0.37495487928390503, -0.011760629713535309, 0.20361681282520294, -0.13626502454280853, 0.17024259269237518, 0.27643153071403503, -0.22740229964256287, -0.07923658937215805, 0.16467125713825226, 0.192221537232399, -0.17727452516555786, -0.02379791997373104, -0.12109231948852539, -0.0851694792509079, 0.1848745346069336, 0.23602136969566345, -0.06800616532564163, -0.21604493260383606, -0.17971692979335785, -0.026883704587817192, 0.21560728549957275, 0.3172155022621155, 0.05505926162004471, -0.09744179993867874, -0.4071016013622284, -0.05217941477894783, 0.2195468693971634, -0.20891237258911133, -0.07438057661056519, 0.05396103486418724, -0.12033506482839584, 0.14035718142986298, 0.08473801612854004, -0.29498952627182007, -0.09416922181844711, 0.14558018743991852, -0.3706102669239044, -0.07227019965648651, 0.13607540726661682, -0.36519432067871094, -0.08673448860645294, 0.09114772826433182, -0.11693190783262253, 0.1733345240354538, 0.206512913107872, -0.06558313220739365, -0.041382789611816406, -0.0693695992231369, -0.033377718180418015, 0.03966068476438522, 0.1368725746870041, -0.04809973016381264, -0.06561917066574097, 0.1465299129486084, -0.18926861882209778, -0.07437364012002945, 0.04558011516928673, -0.019241677597165108, -0.060764461755752563, -0.20257568359375, -0.09385120868682861, 0.03759695962071419, -0.009959612041711807, 0.04609862342476845, 0.09513746201992035, -0.09771980345249176, -0.032617032527923584, 0.01449402142316103, 0.1395500898361206, 0.137775719165802, 0.12190329283475876, 0.004032128024846315, 0.08701182901859283, 0.0023185815662145615, -0.042013589292764664, -0.1259443312883377, 0.09910343587398529, 0.07063347101211548, -0.12612690031528473, -0.10363281518220901, -0.05490316450595856, -0.17472675442695618, -0.020671486854553223, 0.1607230305671692, 0.02869913913309574, -0.12721776962280273, 0.17555266618728638, -0.0804528295993805, 0.04533424600958824, -0.000821358640678227, -0.11128883063793182, 0.009259694255888462, -0.12307775765657425, -0.07964678108692169, -0.06423810124397278, -0.007291076239198446, -0.115604929625988, 0.09402325749397278, -0.12270147353410721, -0.05452001467347145, 0.16910336911678314, -0.04770937189459801, 0.07789956778287888, 0.08641675859689713, -0.12472666054964066, 0.14181175827980042, -0.059681251645088196, -0.07341884076595306, 0.07872060686349869, -0.07151329517364502, 0.03336450085043907, 0.019171150401234627, 0.06426399946212769, 0.033235616981983185, 0.016254086047410965, 0.08621086180210114, -0.03334168344736099, 0.023790504783391953, -0.15047453343868256, 0.07687132805585861, 0.0632789134979248, 0.1357080489397049, -0.09581201523542404, -0.03774893656373024, -0.06502154469490051, -0.07105526328086853, -0.1322823017835617, 0.08761803060770035, -0.07827123254537582, -0.05231243371963501, 0.044003184884786606, 0.10044794529676437, -0.1631467193365097, -0.06493257731199265, -0.08104962855577469, 0.07651305198669434, 0.023914173245429993, 0.1470792144536972, 0.22310324013233185, 0.009784332476556301, -0.02255837991833687, -0.12130089104175568, 0.054582227021455765, -0.0026465789414942265, 0.09731680899858475, -0.013845311477780342, -0.1426708847284317, 0.01890484057366848, 0.08380325138568878, -0.14512868225574493, 0.08022390305995941, 0.10676824301481247, 0.020413583144545555, -0.10794036835432053, -0.09964151680469513, 0.09816780686378479, 0.02694096975028515, -0.03175609931349754, -0.03406896814703941, -0.11594808846712112, 0.03608815371990204, 0.15007315576076508, 0.11678294092416763, 0.10274479538202286, 0.06391444802284241, -0.17930933833122253, 0.09977264702320099, -0.07134648412466049, 0.03638135641813278, 0.011179883033037186, 0.020401606336236, 0.19645386934280396, -0.07539509236812592, -0.020798081532120705, 0.16701056063175201, -0.17340527474880219, 0.0748801901936531, -0.024973923340439796, -0.03128901124000549, -0.0536176934838295, 0.017169170081615448, -0.015174183994531631, 0.08929648250341415, 0.15345613658428192, -0.08847623318433762, -0.16181392967700958, 0.10612738132476807, 0.07784167677164078, -0.1285225749015808, -0.23405560851097107, -0.04865838587284088, 0.13775110244750977, 0.21967239677906036, 0.07396646589040756, -0.0010377465514466166, 0.0894513800740242, -0.07393763959407806, -0.008398984558880329, 0.2571846842765808, 0.007742879446595907, -0.12027478218078613, -0.22743117809295654, -0.10471861809492111, 0.0863858237862587, 0.05522042512893677, -0.14025680720806122, 0.10909798741340637, -0.23595458269119263, 0.01691417396068573, 0.0921047106385231, 0.15857036411762238, -0.11443988233804703, -0.13895583152770996, -0.02253701165318489, 0.0534546822309494, 0.1646765023469925, 0.09881838411092758, 0.016028963029384613, -0.0761880874633789, 0.11929209530353546, -0.11808798462152481, 0.009870532900094986, 0.18360334634780884, -0.035802967846393585, -0.0822589322924614, 0.05156998336315155, 0.06785441935062408, -0.15766005218029022, 0.20188333094120026, -0.07914936542510986, -0.11719554662704468, 0.31479883193969727, -0.07709751278162003, -0.11294190585613251, -0.06576784700155258, -0.0630493089556694, 0.065128393471241, 0.1482182890176773, 0.02724148891866207, -0.07170794159173965, -0.208055779337883, 0.00533964391797781, 0.10295190662145615, -0.13793908059597015, 0.08591952174901962, 0.1531861126422882, -0.1571359783411026, 0.03383399173617363, 0.11489380896091461, 0.09423337876796722, -0.02528873272240162, -0.03929665684700012, -0.15362726151943207, 0.08799368143081665, 0.20135580003261566, 0.21494421362876892, 0.0527685210108757, -0.03789721801877022, 0.014883729629218578, -0.00601066742092371, -0.029943495988845825, -0.048845674842596054, 0.10635574162006378, 0.030196957290172577, -0.18157994747161865, 0.0915374681353569, 0.16884540021419525, 0.05985499545931816, 0.15179699659347534, 0.16621609032154083, -0.1187431737780571, -0.021147815510630608, 0.17357218265533447, -0.00468944339081645, -0.05689898505806923, 0.18471363186836243, -0.019630178809165955, 0.10575709491968155, -0.03820467367768288, 0.06746277213096619, 0.05746792256832123, 0.09848907589912415, 0.09564050287008286, -0.07279268652200699, 0.015184403397142887, 0.02036518044769764, 0.059370722621679306, 0.11355942487716675, -0.053492140024900436, -0.07875347882509232, -0.13549993932247162, -0.09858071058988571, -0.2230185717344284, 0.07086586952209473, 0.1255253404378891, 0.03517070412635803, 0.07508769631385803, -0.18021412193775177, 0.017577964812517166, 0.015067239291965961, -0.026917926967144012, 0.024915944784879684, -0.12991029024124146, -0.11623282730579376, -0.03101113997399807, -0.041169341653585434, 0.17457856237888336, 0.0167748611420393, 0.08125284314155579, 0.06590407341718674, 0.2282080352306366, -0.00020474771736189723, 0.11201991140842438, 0.02196895144879818, 0.008348830975592136, 0.18393103778362274, -0.021710647270083427, 0.048053137958049774, -0.0069243754260241985, -0.03690820187330246, -0.026735208928585052, 0.010486205108463764, -0.1873052418231964, -0.12383480370044708, -0.06322991847991943, -0.009241288527846336, 0.06588955968618393, 0.08775389194488525, -0.16104088723659515, 0.1447204053401947, 0.11221734434366226, 0.04332931339740753, -0.04928741604089737, 0.1542753279209137, 0.06702626496553421, -0.10710544884204865, 0.11912339180707932, 0.10204321146011353, -0.05205966904759407, 0.05837703123688698, -0.09086312353610992, -0.023569604381918907, 0.10301041603088379, 0.000502764421980828, -0.1011321172118187, -0.03477833792567253, -0.036238040775060654, -0.03149509057402611, -0.021218527108430862, 0.12095320224761963, 0.00835371483117342, -0.06969064474105835, 0.013596857897937298, 0.06685081124305725, 0.06759434938430786, -0.1210874691605568, -0.000407330080633983, -0.09179666638374329, -0.05992738530039787, 0.04528161138296127, -0.11967086046934128, 0.05054837465286255, 0.1280146837234497, -0.016809863969683647, -0.10828555375337601, -0.05422646552324295, 0.010361235588788986, -0.11735451221466064, 0.07266155630350113, -0.15040326118469238, -0.14446784555912018, -0.1380491852760315, -0.0445728674530983, 0.09556440263986588, -0.13055825233459473, 0.209996297955513, 0.014411122538149357, 0.04893909767270088, -0.03495686128735542, -0.1502920687198639, 0.08430513739585876, 0.14717496931552887, 0.20957957208156586, 0.12406248599290848, -0.16523289680480957, 0.05533885955810547, -0.04531686753034592, -0.000726100115571171, -0.1816190481185913, -0.09223867207765579, -0.21275369822978973, -0.1259864717721939, -0.024364015087485313, -0.04939612001180649, 0.10570598393678665, 0.12863126397132874, -0.009993178769946098, -0.1174377053976059, -0.11426565796136856, 0.02566247433423996, 0.1299026906490326, 0.19501446187496185, 0.02239888906478882, -0.06466905772686005, 0.014962845481932163, -0.07134870439767838, -0.05715535208582878, 0.11945975571870804, -0.15114717185497284, 0.004411693196743727, -0.1524876356124878, -0.13965930044651031, -0.1838475614786148, 0.02863132581114769, -0.08556997030973434, 0.042684055864810944, 0.03573077917098999, 0.008776788599789143, -0.06417562067508698, -0.0986693874001503, -0.10602479428052902, -0.049783043563365936, 0.01623895950615406, 0.07436391711235046, 0.2799100875854492, 0.005028425250202417, -0.380207359790802, -0.08901964873075485, 0.17114530503749847, 0.3181637227535248, -0.12977544963359833, 0.05240807309746742, -0.11936033517122269, 0.07960942387580872, 0.17183470726013184, -0.26310664415359497, 0.04043767973780632, 0.1087813675403595, -0.22143425047397614, 0.04880267754197121, 0.01234391238540411, 0.28908833861351013, -0.03907175734639168, -0.1072678491473198, -0.11256128549575806, 0.0734127014875412, 0.0027909553609788418, 0.1988910287618637, 0.08597584813833237, -0.06715484708547592, -0.12815213203430176, -0.026126809418201447, 0.11559232324361801, 0.06978370994329453, -0.0851941779255867, -0.12681375443935394, -0.051085978746414185, -0.039575230330228806, 0.05364399030804634, -0.2438102662563324, 0.13463476300239563, 0.1834951639175415, -0.2925281822681427, -0.12160348892211914, -0.0596868172287941, -0.1864098459482193, -0.04183114320039749, -0.045255593955516815, -0.23899635672569275, 0.020118046551942825, -0.027591519057750702, -0.08418600261211395, 0.11699265986680984, 0.0878259539604187, 0.14994525909423828, 0.14677274227142334, -0.13685539364814758, -0.10702940821647644, -0.08617165684700012, 0.18526248633861542, -0.01877310685813427, -0.1030770093202591, 0.09596843272447586, 0.023263338953256607, 0.061254266649484634, -0.05912790447473526, 0.07744381576776505, -0.0041819685138762, 0.04215620085597038, -0.10600026696920395, -0.16691485047340393, -0.03316384181380272, 0.02500690519809723, 0.06299978494644165, -0.18426141142845154, 0.022703105583786964, -0.0634685754776001, 0.02345147728919983, 0.19724279642105103, 0.07229509949684143, 0.037672966718673706, -0.02013549394905567, -0.06855108588933945, -0.04161633178591728, 0.10004845261573792, 0.14840683341026306, -0.10022448748350143, -0.018916454166173935, 0.09944672882556915, 0.10092486441135406, 0.07254686951637268, -0.08581763505935669, -0.17710985243320465, 0.14888758957386017, 0.021487867459654808, -0.11993071436882019, 0.14414788782596588, 0.088914655148983, 0.06819328665733337, 0.09588688611984253, -0.10394629836082458, -0.15495286881923676, -0.2637827396392822, 0.18492312729358673, 0.11620543897151947, 0.1479705423116684, -0.1835227757692337, 0.05430586263537407, 0.04643941670656204, 0.18583214282989502, -0.045506663620471954, -0.1441067010164261, -0.04640507325530052, 0.2119426727294922, -0.14582616090774536, -0.008314383216202259, 0.15598779916763306, 0.02676319144666195, -0.12853796780109406, -0.08916372805833817, -0.1299063265323639, -0.0923583060503006, 0.16103391349315643, 0.02353971265256405, -0.005835565272718668, 0.0464375838637352, -0.012345614843070507, 0.08274642378091812, 0.20687110722064972, 0.0967480018734932, -0.13059215247631073, 0.05018530413508415, -0.05254139006137848, -0.08372259885072708, 0.03774238005280495, -0.18556086719036102, 0.17143553495407104, 0.043507833033800125, -0.21808497607707977, 0.04575715586543083, 0.1679799109697342, -0.04932384565472603, 0.1008843407034874, 0.09090561419725418, -0.03281383216381073, 0.021795861423015594, 0.020595736801624298, -0.22660644352436066, -0.03522418439388275, 0.06785472482442856, -0.28791794180870056, -0.03905796632170677, 0.03388531506061554, 0.13304217159748077, -0.09443140029907227, 0.09735669940710068, -0.216356098651886, 0.11253149807453156, -0.08339035511016846, -0.1623096615076065, 0.07261955738067627, -0.025891797617077827, -0.006394920405000448, -0.10645323246717453, -0.08806786686182022, 0.06925110518932343, 0.025802792981266975, 0.09785158932209015, -0.17074471712112427, 0.05640153959393501, 0.006380388047546148, 0.0986250638961792, 0.11214146763086319, -0.1443139910697937, -0.1145034059882164, 0.1313306838274002, 0.013906706124544144, 0.23727664351463318, -0.03980831429362297, 0.08196186274290085, -0.27363520860671997, -0.03261210769414902, 0.0016497618053108454, -0.07564987242221832, 0.04749269783496857, 0.1389027237892151, -0.14956940710544586, -0.012857230380177498, 0.13008570671081543, -0.1686325967311859, 0.11872604489326477, -0.06512337177991867, -0.15148219466209412, -0.021586764603853226, 0.08943953365087509, -0.00488227279856801, 0.013906273990869522, -0.09484634548425674, -0.2197195142507553, 0.16089396178722382, 0.17905928194522858, 0.13962118327617645, -0.014445815235376358, 0.02118072472512722, -0.21543024480342865, -0.02962893806397915, 0.21933814883232117, -0.3260922431945801, 0.14334528148174286, 0.1403084546327591, -0.27999308705329895, 0.16400185227394104, -0.007562317885458469, 0.2723754048347473, -0.19687652587890625, -0.13670647144317627, -0.16908858716487885, 0.2566703259944916, 0.0736100897192955, 0.3140204846858978, -0.12806621193885803, -0.18901140987873077, -0.32481011748313904, -0.003910217899829149, 0.2865893542766571, 0.1727333664894104, -0.10404910892248154, -0.0822921022772789, -0.12133826315402985, 0.23478981852531433, 0.23841218650341034, -0.31258273124694824, 0.08196264505386353, 0.028115032240748405, -0.30035680532455444, 0.14248088002204895, 0.2531072199344635, -0.3344970941543579, 0.19685959815979004, 0.0438091978430748, -0.24763213098049164, 0.22367660701274872, 0.08650551736354828, -0.3189944326877594, -0.06894853711128235, 0.20977318286895752, 0.29424571990966797, -0.17822517454624176, -0.025106322020292282, -0.3466235399246216, -0.06391353160142899, 0.08982223272323608, 0.35756173729896545, -0.09116233140230179, -0.01492040604352951, 0.3616040050983429, 0.04298609867691994, -0.16238471865653992, 0.2147764414548874, -0.10460010915994644, -0.20547403395175934, -0.250232994556427, 0.16590753197669983, 0.209614560008049, 0.21071214973926544, -0.06182653456926346, -0.19126291573047638, -0.12889499962329865, -0.004929950460791588, -0.011465325951576233, 0.22394993901252747, 0.000536454317625612, -0.25248709321022034, -0.09021836519241333, 0.11325566470623016, -0.007571399677544832, 0.20389029383659363, 0.06551439315080643, -0.2034822702407837, 0.183669775724411, 0.0033972638193517923, -0.20460934937000275, 0.31511470675468445, 0.0227473396807909, 0.0036041620187461376, 0.14488337934017181, 0.09011825174093246, -0.17218169569969177, 0.3818175494670868, -0.19104385375976562, -0.21267159283161163, 0.28335684537887573, -0.11628253012895584, -0.03870856761932373, -0.07642620801925659, -0.09914204478263855, -0.053722232580184937, -0.114265076816082, 0.04768718406558037, 0.031109394505620003, -0.00896777119487524, 0.0001946619595400989, 0.110145702958107, 0.17817790806293488, -0.041569001972675323, -0.055287837982177734, -0.05131096392869949, -0.004833162296563387, -0.013463664799928665, -0.041847918182611465, 0.41612687706947327, -0.5758965015411377, 0.7201172113418579, -0.7113682627677917, 0.03383850306272507, 0.9535332322120667, 0.9411253333091736, -0.5349794626235962, 0.1807231456041336, 0.17207302153110504, -0.5195234417915344, -0.3013119697570801, 0.19439351558685303, -0.7286226749420166, 0.04824681207537651, 0.5169975757598877, -0.12664327025413513, 0.4041222631931305, -0.0005879420787096024, 0.17676092684268951, 0.10108085721731186, -0.2364848256111145, 0.17313848435878754, 0.04436841979622841, -0.02460113726556301, -0.006163070444017649, 0.2442670315504074, -0.04055573418736458, 0.11352742463350296, 0.2404278814792633, 0.7587286233901978, -0.5637884140014648, -0.010427126660943031, -0.168558731675148, -0.2864035964012146, 0.08921675384044647, 0.07579183578491211, -0.029505107551813126, -0.15362900495529175, 0.07486315816640854, -0.07378115504980087, 0.1373884528875351, -0.08363601565361023, 0.08012962341308594, 0.042299557477235794, -0.12842431664466858, -0.17566430568695068, 0.45286598801612854, 0.17109820246696472, 0.11607425659894943, 0.07530675083398819, 0.2081288844347, -0.23270471394062042, -0.15147057175636292, 0.14238950610160828, -0.17365802824497223, 0.008807026781141758, -0.08617860823869705, 0.30004560947418213, -0.2034873217344284, 0.20269037783145905, 0.31477850675582886, 0.41274014115333557, -0.1708901822566986, 0.1415179967880249, -0.1508122831583023, -0.06437067687511444, -0.1572224497795105, 0.07371057569980621, 0.0934751108288765, 0.030065074563026428, -0.017628803849220276, -0.20315834879875183, 0.05299384519457817, -0.05186967924237251, -0.04354698583483696, 0.09054606407880783, 0.19733011722564697, -0.2706076204776764, -0.03272649273276329, -0.12038858979940414, -0.36146268248558044, -0.2319677621126175, 0.12627148628234863, 0.15962383151054382, 0.20630387961864471, 0.11299929767847061, -0.21410991251468658, 0.07899629324674606, 0.27837640047073364, -0.22147999703884125, 0.23504452407360077, -0.012926905415952206, 0.04237056151032448, -0.21976901590824127, 0.21603140234947205, -0.20807355642318726, -0.17518073320388794, 0.05628196522593498, 0.05710005760192871, 0.28137853741645813, 0.32557445764541626, 0.191664919257164, 0.027323726564645767, 0.15734456479549408, -0.05551997944712639, -0.3269520401954651, -0.05953630432486534, -0.059767089784145355, -0.2434588521718979, -0.30339160561561584, 0.3543590307235718, 0.08785619586706161, 0.21979115903377533, 0.12201838940382004, 0.19497588276863098, -0.28311049938201904, -0.32251328229904175, 0.0013071555877104402, 0.10143937170505524, -0.014718634076416492, -0.398089736700058, -0.1508515179157257, 0.26176345348358154, 0.2058064192533493, -0.05409787595272064, 0.18535982072353363, -0.11376658827066422, 0.18807975947856903, 0.023747213184833527, 0.26853376626968384, -0.2120632827281952, -0.22267559170722961, 0.16303440928459167, 0.2575621008872986, 0.04737621545791626, 0.1282762587070465, -0.21346279978752136, 0.17792342603206635, -0.2043026089668274, 0.05352209508419037, -0.1436137557029724, -0.21542872488498688, 0.11489693820476532, -0.08867079019546509, 0.05143212154507637, -0.24891510605812073, -0.2063159942626953, 0.04952134191989899, -0.13709253072738647, -0.20046916604042053, 0.0021836371161043644, -0.2464715540409088, -0.2695050537586212, 0.15569210052490234, 0.128893181681633, 0.04569157585501671, -0.09081519395112991, 0.06541667133569717, 0.04402567073702812, -0.31323716044425964, 0.017879614606499672, 0.22922009229660034, -0.23078259825706482, -0.010686235502362251, 0.048143502324819565, 0.2371649444103241, -0.04447284713387489, 0.08816096931695938, 0.22783729434013367, 0.12942393124103546, 0.0025898374151438475, 0.12573370337486267, 0.17971718311309814, -0.17116491496562958, -0.10336422175168991, 0.12180518358945847, 0.28534263372421265, -0.25857728719711304, 0.152360200881958, -0.11592885851860046, -0.2654995620250702, 0.01956375502049923, -0.06985093653202057, 0.02450781874358654, -0.1787637621164322, -0.12080013751983643, 0.01267468836158514, -0.0717855766415596, 0.1662532389163971, 0.13641420006752014, 0.11091937869787216, 0.01489875465631485, -0.11861038208007812, 0.11234330385923386, -0.01866084709763527, 0.05752916261553764, -0.08227435499429703, -0.0270910132676363, -0.05446767061948776, -0.002531226258724928, -0.19228185713291168, 0.012710386887192726, -0.2023591697216034, -0.07091937214136124, 0.12829454243183136, -0.27269595861434937, -0.1389455497264862, -0.008230633102357388, -0.019608259201049805, 0.0819040983915329, 0.0837198868393898, 0.08179707825183868, -0.1318853348493576, 0.004342196509242058, 0.10982146859169006, 0.19902868568897247, -0.017316395416855812, -0.08492183685302734, 0.05978596210479736, 0.19452516734600067, -0.1289185881614685, -0.10940951108932495, 0.11587521433830261, 0.014809966087341309, -0.23587416112422943, -0.1313246637582779, 0.0771210789680481, -0.09639332443475723, 0.2076796591281891, 0.17125996947288513, 0.03392994403839111, -0.007218463346362114, -0.08538909256458282, -0.034249283373355865, 0.044194646179676056, -0.17190755903720856, -0.11142094433307648, -0.27506697177886963, 0.19028401374816895, 0.019285373389720917, 0.20413024723529816, -0.04849699139595032, -0.15659649670124054, -0.0005921205738559365, 0.04221569746732712, 0.14133216440677643, 0.04467751085758209, -0.23675291240215302, 0.14133965969085693, -0.02245866321027279, -0.056453071534633636, 0.21805696189403534, 0.07349442690610886, -0.18103040754795074, 0.01476034615188837, 0.11646445095539093, 0.12201913446187973, 0.21582914888858795, -0.08165451884269714, -0.05933922529220581, 0.1287781447172165, 0.12136173248291016, 0.2669737935066223, -0.0775938630104065, -0.12238621711730957, 0.010356939397752285, -0.23756881058216095, 0.04403592273592949, 0.20836658775806427, 0.06778516620397568, -0.15025204420089722, 0.18575124442577362, -0.14484143257141113, 0.20254220068454742, -0.17679867148399353, -0.14029060304164886, -0.06512794643640518, 0.147550567984581, -0.0009178371983580291, 0.059170354157686234, -0.136375293135643, 0.08599071949720383, -0.00036802797694690526, 0.04714711010456085, 0.15567034482955933, 0.04442150145769119, 0.0025699075777083635, -0.02186814695596695, -0.029909249395132065, 0.04728966951370239, 0.15552806854248047, -0.06787392497062683, 0.06658273935317993, -0.07928524911403656, -0.039030980318784714, 0.0966581255197525, -0.11996098607778549, -0.040189485996961594, -0.004092725925147533, 0.0074295480735599995, -0.06528321653604507, 0.06802947074174881, 0.0196546521037817, -0.051334574818611145, -0.015329277142882347, -0.050352972000837326, -0.16567759215831757, 0.10596659034490585, -0.09543942660093307, 0.03061779774725437, -0.1683235615491867, 0.04725891724228859, -0.020145900547504425, -0.11158271133899689, -0.18773184716701508, 0.08654705435037613, -0.10417505353689194, 0.02443014271557331, -0.12526829540729523, 0.02188223972916603, -0.12740740180015564, -0.1905379742383957, -0.05393340438604355, -0.08693614602088928, -0.09706250578165054, -0.06612280756235123, -0.0702199935913086, 0.017999108880758286, -0.11898166686296463, -0.05890222266316414, 0.1102089211344719, 0.09560984373092651, 0.055069856345653534, -0.02752535417675972, -0.06829123944044113, -0.014774697832763195, 0.286481112241745, -0.04390845075249672, -0.19363020360469818, -0.148265540599823, 0.1282232254743576, -0.1267656832933426, 0.25863319635391235, 0.04871629923582077, -0.19773179292678833, 0.13557882606983185, -0.07365167886018753, 0.07376198470592499, -0.2405749261379242, 0.08198986202478409, 0.04432975500822067, -0.3995335102081299, -0.07822410762310028, -0.1325143426656723, 0.010985754430294037, 0.013795937411487103, 0.30032995343208313, -0.24021722376346588, -0.0033753998577594757, -0.34360960125923157, 0.09199727326631546, 0.04592378810048103, 0.3173638880252838, -0.021777940914034843, -0.17080029845237732, -0.17129720747470856, 0.19654345512390137, 0.04916618391871452, -0.26573142409324646, 0.02887757122516632, 0.17694801092147827, -0.23870840668678284, 0.09072928875684738, 0.055014438927173615, -0.08245635032653809, 0.06447440385818481, 0.04697876051068306, -0.05290306732058525, 0.03290010616183281, -0.11966611444950104, 0.1138576790690422, 0.14870750904083252, -0.20803186297416687, -0.24788981676101685, -0.38593554496765137, 0.00600894121453166, 0.27747100591659546, 0.3082311749458313, -0.060530006885528564, -0.05816870182752609, -0.21276362240314484, 0.02315937727689743, 0.21006491780281067, -0.029109762981534004, -0.07911212742328644, 0.208029642701149, 0.08604555577039719, 0.12211926281452179, -0.198212668299675, 0.2695842683315277, 0.16173499822616577, 0.33223509788513184, -0.20588412880897522, -0.08868764340877533, -0.2499113827943802, 0.03951093181967735, 0.13726601004600525, 0.1977987438440323, -0.1760132759809494, -0.097702257335186, -0.2375623732805252, 0.11227711290121078, -0.09664251655340195, 0.12820951640605927, -0.2596713602542877, 0.04870660975575447, 0.23311744630336761, -0.08415083587169647, 0.07137395441532135, 0.19789788126945496, -0.11184657365083694, -0.07943858951330185, 0.06578267365694046, -0.04474039375782013, 0.013659627176821232, -0.15347406268119812, -0.028544606640934944, 0.09916725754737854, -0.23288331925868988, 0.07153911143541336, 0.1847730278968811, -0.03484758734703064, -0.2154257893562317, 0.184427410364151, -0.08940141648054123, 0.15637479722499847, 0.01909339800477028, 0.10680422931909561, -0.3107677102088928, -0.08874494582414627, 0.10541313141584396, 0.039367642253637314, -0.12240467220544815, -0.07681843638420105, -0.041667163372039795, -0.10835503041744232, -0.15343262255191803, 0.338005930185318, 0.00038626446621492505, 0.1543358713388443, 0.0061523085460066795, 0.03505293279886246, -0.21572917699813843, 0.21192075312137604, 0.06853020936250687, 0.17876465618610382, -0.24832361936569214, 0.015610325150191784, 0.08068985491991043, -0.06208366900682449, 0.057301346212625504, 0.2120695263147354, -0.2656875550746918, -0.017784172669053078, 0.16410104930400848, 0.05319122225046158, 0.17236781120300293, 0.12266203761100769, -0.017864756286144257, -0.09810634702444077, 0.10110514611005783, -0.17741797864437103, -0.14861170947551727, -0.059419821947813034, -0.11408507823944092, 0.14477930963039398, 0.040752068161964417, 0.08381979167461395, 0.17756082117557526, -0.14011117815971375, -0.1258513629436493, 0.1416950225830078, 0.09404237568378448, 0.1382668912410736, -0.06906282156705856, -0.054327018558979034, -0.03965677693486214, 0.042250558733940125, -0.0886240303516388, 0.03151102736592293, 0.07775609195232391, -0.037217870354652405, -0.01571960374712944, -0.14337411522865295, -0.2267744392156601, 0.18189120292663574, -0.1465611755847931, 0.2137988954782486, -0.1945722997188568, -0.003276512725278735, -0.07938136160373688, 0.2077656090259552, 0.08380477875471115, 0.21442489326000214, -0.012488989159464836, -0.06278514117002487, -0.18285824358463287, -0.0678587406873703, 0.024083031341433525, 0.2759151756763458, -0.14945624768733978, 0.01971110887825489, -0.05793198198080063, -0.005313710309565067, 0.07387510687112808, -0.12499956041574478, -0.23364311456680298, 0.0788777768611908, 0.06937205791473389, -0.031096670776605606, -0.0055253091268241405, -0.014584467746317387, -0.1200009435415268, -0.0557575523853302, 0.026206552982330322, -0.032624486833810806, -0.01654038392007351, -0.028845079243183136, -0.14000974595546722, -0.09649331867694855, -0.14633652567863464, 0.1307162344455719, 0.05525525286793709, -0.06018209084868431, -0.08710893988609314, -0.007919390685856342, -0.016396375373005867, 0.0922965481877327, 0.05762983486056328, -0.06859347224235535, 0.07933807373046875, 0.030658897012472153, 0.15400223433971405, -0.017665676772594452, 0.08085641264915466, 0.03266141563653946, -0.17275211215019226, -0.09460917115211487, 0.15149816870689392, -0.07838474214076996, 0.2342376857995987, 0.06810043752193451, 0.1104758158326149, -0.12189394980669022, 0.19072572886943817, -0.042702265083789825, 0.017254533246159554, 0.009580335579812527, 0.029946384951472282, -0.025795964524149895, 0.18768325448036194, -0.05268893763422966, 0.07605627179145813, 0.0594213642179966, 0.097681924700737, 1.414648795616813e-05, -0.09508249908685684, -0.13610827922821045, 0.0701911449432373, -0.05123978480696678, 0.06597074866294861, -0.20055200159549713, 0.013180337846279144, 0.027923256158828735, 0.08404684066772461, 0.013040154241025448, 0.0239492729306221, 0.11205020546913147, 0.06435580551624298, 0.16685298085212708, -0.11683288961648941, 0.03067706525325775, -0.07856414467096329, 0.26941099762916565, 0.15158841013908386, -0.018444886431097984, -0.022266974672675133, -0.05487535148859024, 0.12107723206281662, -0.02242209203541279, 0.0460662879049778, 0.08840743452310562, -0.03767222538590431, 0.2033415138721466, -0.11089615523815155, 0.13582834601402283, -0.1576099991798401, 0.07663122564554214, -0.16112758219242096, 0.12452194839715958, -0.09149575978517532, -0.03857387229800224, -0.041063472628593445, 0.021888524293899536, -0.06545032560825348, 0.20093192160129547, -0.07930663228034973, 0.16589859127998352, -0.014034616760909557, 0.07918441295623779, 0.0415918305516243, 0.1457320898771286, 0.09894447028636932, 0.1930946707725525, 0.05799629166722298, 0.10286795347929001, -0.1232798770070076, -0.07686097174882889, 0.05018884316086769, 0.06506338715553284, -0.1889956295490265, -0.11835834383964539, -0.0789007693529129, -0.1952374279499054, 0.017478371039032936, -0.029905203729867935, 0.1292644441127777, -0.05658603459596634, -0.009776891209185123, -0.168508380651474, 0.007959149777889252, 0.02262509986758232, -0.04099535569548607, -0.08398604393005371, -0.05551997944712639, 0.016279321163892746, -0.13850106298923492, -0.06032395735383034, 0.08929552137851715, -0.07568032294511795, -0.039364129304885864, 0.033397186547517776, -0.09729263931512833, 0.045766547322273254, -0.011971943080425262, -0.03344227746129036, -0.07289399951696396, 0.07099499553442001, -0.15097744762897491, 0.17735108733177185, 0.08390803635120392, 0.12512506544589996, -0.09060580283403397, 0.15075233578681946, -0.16600506007671356, 0.020985834300518036, -0.016855157911777496, -0.06579164415597916, -0.03853826969861984, -0.05652814731001854, -0.05370759591460228, -0.025125475600361824, -0.11591028422117233, -0.038718558847904205, -0.08586546033620834, 0.0684695914387703, 0.07244038581848145, 0.056180328130722046, -0.09411861002445221, -0.003401282476261258, -0.054319895803928375, 0.2618485689163208, 0.05394679307937622, -0.00455594714730978, -0.18230308592319489, -0.12202312052249908, -0.12176098674535751, 0.2232622355222702, 0.028316034004092216, 0.2366512268781662, 0.1071622371673584, 0.00022257777163758874, -0.08211207389831543, 0.07255043834447861, 0.11803001165390015, 0.017960794270038605, -0.24403463304042816, 0.1574028730392456, -0.10769987106323242, 0.11412401497364044, -0.024863075464963913, 0.04182199388742447, -0.21667467057704926, -0.07436550408601761, 0.03127272054553032, 0.02746122144162655, -0.11568646132946014, 0.16318632662296295, -0.04168336093425751, 0.112968310713768, -0.12242484092712402, 0.11101461946964264, -0.08956260979175568, -0.03144390136003494, -0.012750011868774891, -0.0694318637251854, 0.06791763752698898, 0.04375390335917473, 0.1385738104581833, 0.08447236567735672, 0.0009981042239814997, -0.045520514249801636, -0.10125518590211868, 0.021213633939623833, -0.10235767066478729, 0.05441117286682129, -0.017562782391905785, -0.06956323236227036, -0.11280538886785507, 0.09629750996828079, 0.162075012922287, -0.1600455492734909, -0.08337566256523132, 0.04870927333831787, 0.16163817048072815, -0.14898966252803802, 0.05654257535934448, -0.06338819116353989, -0.09347996860742569, 0.1290370225906372, -0.02278890646994114, 0.09930913150310516, -0.045948777347803116, 0.007782964967191219, 0.06221547722816467, -0.13224633038043976, 0.09279587864875793, -0.036588508635759354, 0.04897766187787056, 0.11347109079360962, 0.04500982165336609, 0.00684231985360384, 0.1534639596939087, -0.12186738103628159, 0.17090412974357605, 0.03473031893372536, -0.030973857268691063, -0.10324271023273468, 0.043274279683828354, -0.2297636866569519, 0.08557669073343277, 0.13711006939411163, -0.056724146008491516, -0.04737735167145729, -0.028434857726097107, -0.1289128065109253, -0.048878200352191925, -0.08209339529275894, -0.13203535974025726, 0.04717490077018738, 0.0654553696513176, -0.05131256952881813, -0.10852682590484619, 0.045287057757377625, -0.012808403000235558, 0.0034350098576396704, -0.15821976959705353, -0.16934391856193542, -0.01117986161261797, 0.09028789401054382, -0.06928769499063492, 0.11670909076929092, -0.20208242535591125, -0.039770759642124176, -0.08638672530651093, 0.11348539590835571, -0.10848278552293777, -0.0593331977725029, -0.03830527514219284, 0.01891053281724453, 0.055302057415246964, -0.1614280343055725, -0.0030848125461488962, 0.12277630716562271, 0.027299707755446434, -0.04621036350727081, 0.0014504205901175737, 0.04079793766140938, -0.1368405669927597, 0.09797509014606476, 0.10314517468214035, 0.08947961777448654, -0.01398807018995285, 0.07488185912370682, -0.16722647845745087, -0.15479782223701477, 0.005296079441905022, 0.2051561027765274, -0.06617089360952377, -0.1321585476398468, 0.05256921052932739, 0.002454414963722229, -0.006289654411375523, 0.10314615070819855, -0.03658764809370041, -0.004189874045550823, 0.13048742711544037, -0.028290746733546257, 0.012621114030480385, 0.013628087006509304, 0.04690046235918999, 0.09458258002996445, -0.17391033470630646, -0.23110131919384003, 0.06984198838472366, 0.13690517842769623, -0.1490551084280014, 0.08520309627056122, -0.032245371490716934, 0.03357602655887604, -0.24031195044517517, -0.01373419351875782, -0.002839237917214632, 0.18666709959506989, 0.08163207769393921, 0.01962151937186718, -0.0058307102881371975, 0.03307611495256424, 0.12493974715471268, -0.12495434284210205, -0.1750153750181198, 0.2757745385169983, 0.062230728566646576, 0.06620320677757263, -0.17764142155647278, 0.06281214952468872, -0.022326434031128883, 0.24455569684505463, 0.11995664238929749, 0.28246310353279114, -0.15277160704135895, -0.14883434772491455, -0.3031066060066223, 0.09709543734788895, -0.004392760340124369, 0.09627992659807205, -0.05714080110192299, -0.15581509470939636, -0.03653234988451004, -0.01356657687574625, -0.028783736750483513, 0.030618146061897278, -0.1449800282716751, 0.04005313292145729, 0.20280130207538605, 0.059675831347703934, -0.0731426402926445, 0.12122485041618347, 0.012354178354144096, -0.04283752664923668, -0.24274711310863495, -0.06284143030643463, 0.12412707507610321, -0.0515148788690567, 0.026894044131040573, -0.16047944128513336, 0.10120689868927002, 0.10424894839525223, 0.0346129909157753, 0.09877974539995193, 0.06482096761465073, -0.1365145891904831, 0.004812988918274641, 0.06488396227359772, -0.03910966217517853, 0.1426980048418045, -0.028861766681075096, -0.10726866126060486, -0.014349200762808323, -0.1343570351600647, 0.23677168786525726, -0.1090926006436348, -0.0777948722243309, -0.06041871756315231, -0.06186382472515106, -0.13644735515117645, 0.13258032500743866, -0.1515345275402069, 0.10945843160152435, 0.07862430810928345, 0.013287916779518127, 0.013545751571655273, -0.08862591534852982, 0.049226127564907074, 0.19127227365970612, -0.022495528683066368, 0.10751116275787354, -0.13783757388591766, -0.023203948512673378, 0.0398896224796772, -0.05458611622452736, 0.06392432749271393, -0.04746226593852043, -0.017308160662651062, -0.09933394193649292, 0.07552272826433182, -0.0991196483373642, -0.05930565297603607, 0.06770770251750946, 0.07524068653583527, 0.012282885611057281, 0.08757224678993225, -0.26649636030197144, 0.0626167356967926, -0.027011021971702576, 0.20795808732509613, 0.03845652565360069, 0.20805399119853973, -0.2515800893306732, 0.09938118606805801, -0.047947973012924194, -0.004872497171163559, 0.029037492349743843, -0.07913856208324432, 0.10091796517372131, 0.1302797645330429, -0.18262752890586853, 0.21015840768814087, -0.09023400396108627, 0.018433064222335815, 0.01604888215661049, 0.012265689671039581, 0.10476788133382797, 0.08918482810258865, 0.020829586312174797, 0.007419902831315994, -0.061019785702228546, 0.08232690393924713, 0.10745558887720108, -0.10754957795143127, 0.1433996856212616, -0.020349184051156044, -0.0563972182571888, -0.10646617412567139, 0.06462618708610535, 0.08226463198661804, -0.04725676402449608, -0.12435909360647202, -0.055418360978364944, -0.05469343811273575, 0.05198381841182709, 0.11678853631019592, -0.1083567813038826, -0.0016306129982694983, -0.10298001766204834, -0.12367665022611618, 0.0303676538169384, -0.11452145129442215, 0.09425940364599228, -0.18072357773780823, 0.12106118351221085, -0.25036177039146423, 0.01969510316848755, 0.09821899980306625, 0.026472683995962143, -0.13834995031356812, 0.19729682803153992, -0.05026620998978615, -0.0493476428091526, -0.017603790387511253, 0.005368645768612623, -0.0015346212312579155, 0.031727664172649384, 0.03503815457224846, 0.23722147941589355, -0.19222451746463776, -0.04401054233312607, -0.04296235740184784, 0.15259553492069244, 0.09900982677936554, 0.1057608425617218, -0.06799992173910141, -0.09668564796447754, -0.03286461904644966, -0.09019441902637482, -0.03977835550904274, -0.0149998152628541, -0.1089581772685051, 0.11877927929162979, -0.12188907712697983, 0.14368560910224915, 0.12034416943788528, 0.03753132373094559, 0.08026963472366333, -0.03681141138076782, -0.03453585505485535, 0.06935494393110275, 0.029681293293833733, -0.08284050226211548, -0.039603497833013535, -0.025976959615945816, -0.23643673956394196, -0.035250891000032425, -0.22383320331573486, 0.19660717248916626, 0.047718070447444916, -0.01934739761054516, -0.0694083496928215, 0.1790899783372879, -0.24176332354545593, 0.047474395483732224, 0.03961068391799927, 0.13499103486537933, 0.011864007450640202, 0.18071818351745605, -0.009167341515421867, 0.026068996638059616, 0.1121690422296524, -0.08874724060297012, -0.029331576079130173, -0.00438563572242856, 0.05153096839785576, 0.09061235934495926, -0.26625946164131165, 0.07956469804048538, -0.06957247108221054, 0.16982156038284302, -0.21947093307971954, 0.17802798748016357, -0.2564786672592163, -0.04763053357601166, -0.22761426866054535, 0.03893081471323967, -0.007832664065063, -0.01030584704130888, 0.07625360041856766, 0.1623454988002777, -0.16488471627235413, 0.2235080599784851, -0.14206084609031677, -0.0782984048128128, 0.041963331401348114, 0.01667337492108345, -0.1343686878681183, -0.01815452240407467, 0.03106704168021679, -0.008157976903021336, 0.13950307667255402, -0.06079902499914169, 0.048413489013910294, -0.056003086268901825, -0.0164866354316473, 0.09949994087219238, 0.16271454095840454, 0.09817572683095932, 0.12753266096115112, 0.08744101226329803, -0.06603448837995529, 0.07118857651948929, -0.10804446786642075, 0.11115968972444534, 0.12428929656744003, 0.11873019486665726, -0.04898082837462425, -0.05022617429494858, 0.0602886788547039, 0.0731971263885498, 0.07472191751003265, 0.026933014392852783, 0.08848024904727936, -0.034354791045188904, -0.36441946029663086, 0.24831825494766235, 0.30929678678512573, -0.5370795130729675, 0.1089935228228569, -0.696186900138855, -0.4154123067855835, -0.4250352084636688, 0.8096539378166199, -0.8871943950653076, -0.5405427813529968, -0.8776434659957886, 0.2833315134048462, -0.7486319541931152, 0.3148132860660553, -0.6201743483543396, -0.09836983680725098, -0.17805232107639313, 0.14503459632396698, 0.1982068419456482, 0.2171131819486618, -0.018521632999181747, -0.15550902485847473, -0.09935886412858963, 0.002057138131931424, -0.052066005766391754, 0.1138005405664444, 0.15127861499786377, 0.1407085657119751, 0.033588957041502, -0.13753926753997803, -0.06730347126722336, 0.04469536617398262, -0.1452322006225586, -0.06038190424442291, 0.09646643698215485, -0.1832285225391388, 0.13840226829051971, -0.00416287686675787, -0.16034694015979767, 0.11415725201368332, -0.21326033771038055, 0.11388339102268219, 0.3382391333580017, -0.15638023614883423, 0.06958699226379395, -0.07160641998052597, 0.09093033522367477, -0.13320524990558624, -0.12959221005439758, -0.07649067044258118, 0.015557018108665943, -0.08383294194936752, 0.2517758309841156, -0.09010099619626999, -0.13041430711746216, 0.08040981739759445, 0.13775433599948883, -0.21782003343105316, -0.29218578338623047, 0.23610004782676697, 0.16002945601940155, 0.06348082423210144, 0.08994486927986145, 0.09811723232269287, 0.05237811803817749, -0.18390825390815735, -0.19625301659107208, -0.18730373680591583, 0.039569444954395294, -0.09467665106058121, -0.06526696681976318, -0.07069003582000732, 0.06634733825922012, 0.09055349975824356, 0.2991567552089691, 0.2657449245452881, -0.19876937568187714, 0.08749357610940933, 0.04186534136533737, 0.27934548258781433, 0.10340707749128342, -0.24621959030628204, -0.22394880652427673, 0.0423080138862133, -0.017974210903048515, -0.08596092462539673, 0.22983989119529724, 0.23819714784622192, -0.04303908720612526, -0.07890845090150833, 0.2395097017288208, 0.0018754475750029087, -0.10465721786022186, -0.2236938327550888, -0.1643347591161728, -0.14962591230869293, -0.059453800320625305, -0.2890886962413788, -0.11348573863506317, 0.05423150584101677, -0.17496755719184875, -0.022397076711058617, -0.06166427955031395, 0.1588820368051529, 0.2496415674686432, -0.022155901417136192, -0.1590447872877121, -0.10923293977975845, -0.09972910583019257, 0.06155012547969818, 0.08838506788015366, 0.025973061099648476, -0.14404138922691345, 0.1400591880083084, -0.13100284337997437, 0.07156858593225479, 0.2477348893880844, -0.37971436977386475, -0.23568877577781677, 0.09706402570009232, -0.018488511443138123, -0.16639988124370575, 0.1671028435230255, 0.10191307961940765, 0.10014134645462036, -0.21510140597820282, 0.26799654960632324, 0.13632015883922577, -0.0008168109925463796, 0.09767946600914001, 0.07393675297498703, 0.14221230149269104, -0.11992858350276947, -0.010441875085234642, 0.056095849722623825, -0.0017982620047405362, 0.3646843731403351, -0.21672183275222778, 0.03809281811118126, -0.07118042558431625, 0.15056581795215607, 0.14512531459331512, 0.1101098582148552, -0.07020141184329987, 0.13943196833133698, -0.20298944413661957, -0.07685556262731552, -0.19674856960773468, -0.10866709053516388, -0.04559295251965523, -0.14423727989196777, -0.022010698914527893, -0.03661394119262695, 0.22861869633197784, -0.07103992998600006, -0.10843519866466522, 0.2367125153541565, -0.13762611150741577, 0.2176789492368698, -0.018936162814497948, -0.21439215540885925, 0.1513577103614807, 0.21194113790988922, 0.21608556807041168, -0.17674098908901215, 0.2645498514175415, -0.048321474343538284, 0.04341284930706024, -0.041912008076906204, 0.13785521686077118, 0.3186892569065094, 0.03363646939396858, -0.006597206927835941, -0.04108700156211853, -0.22206895053386688, -0.14918024837970734, -0.0663304552435875, -0.22495222091674805, 0.158747598528862, 0.033610351383686066, -0.0467105433344841, -0.09687309712171555, -0.017540806904435158, 0.04750121757388115, 0.19818466901779175, -0.18226109445095062, 0.11462739109992981, -0.03864946961402893, 0.10050895065069199, -0.0671381801366806, 0.023237621411681175, 0.06883367151021957, 0.28537583351135254, -0.3047279715538025, -0.12631551921367645, -0.24104654788970947, -0.04545460268855095, 0.005736671853810549, 0.15050004422664642, -0.1730681210756302, 0.16621087491512299, 0.21831555664539337, -0.17818941175937653, 0.10513944923877716, -0.043284349143505096, 0.09398358315229416, -0.09100800007581711, -0.17584286630153656, -0.18552356958389282, -0.2543829083442688, 0.20736119151115417, -0.034632910043001175, 0.03678769990801811, -0.20736365020275116, 0.11684226989746094, -0.16544649004936218, -0.07265692949295044, -0.24673518538475037, -0.20735454559326172, 0.24746239185333252, -0.09655934572219849, 0.0031039754394441843, 0.007470615673810244, 0.07396071404218674, 0.09525690972805023, -0.24071741104125977, 0.27239978313446045, -0.23664553463459015, 0.054594848304986954, -0.01565231755375862, -0.021153490990400314, 0.06982022523880005, 0.16590894758701324, 0.05664399266242981, -0.005205470137298107, 0.14107204973697662, 0.13928097486495972, 0.05140550807118416, -0.10694558918476105, 0.010641278699040413, 0.3310188055038452, -0.1534968763589859, -0.1123577132821083, -0.287489116191864, -0.03539964184165001, 0.06780312210321426, -0.015818869695067406, -0.12591196596622467, 0.13147126138210297, -0.1263456493616104, -0.044409964233636856, -0.02306383289396763, 0.13773593306541443, 0.20972959697246552, 0.19266915321350098, 0.2184450477361679, -0.30971941351890564, -0.031194821000099182, 0.08477611839771271, -0.1713448464870453, 0.04918627440929413, -0.05240529030561447, 0.09129396080970764, 0.30215856432914734, -0.17765457928180695, 0.1972617655992508, 0.16833044588565826, -0.2389865517616272, 0.30289754271507263, -0.278869092464447, -0.21266287565231323, -0.09307675063610077, -0.005464667920023203, 0.014599298126995564, -0.038378797471523285, -0.13532431423664093, -0.013671520166099072, 0.13007529079914093, 0.1538998931646347, 0.108836330473423, 0.03422144055366516, 0.04403073713183403, -0.1707773506641388, 0.06412941217422485, -0.23843257129192352, -0.10353800654411316, -0.0587063692510128, 0.27990034222602844, 0.028887886554002762, -0.022899368777871132, 0.04027262330055237, -0.14275620877742767, -0.03522779792547226, -0.018558314070105553, 0.0458124577999115, 0.02081272378563881, 0.0379207544028759, -0.09656057506799698, -0.05937502160668373, 0.1472737044095993, 0.0020546484738588333, -0.03772697225213051, 0.08891284465789795, 0.09585350006818771, -0.03496304899454117, -0.09420672804117203, -0.01597147434949875, 0.062388334423303604, 0.007682119496166706, 0.05797675997018814, -0.14688974618911743, -0.16845598816871643, 0.09681745618581772, 0.0031589586287736893, 0.12951791286468506, 0.004279651679098606, -0.06161484122276306, -0.18382790684700012, -0.007301798090338707, -0.07805930078029633, -0.27216339111328125, 0.10070563107728958, 0.026913292706012726, -0.10719505697488785, -0.10857193917036057, -0.04641338065266609, -0.15925966203212738, 0.0870341882109642, -0.07278335094451904, -0.09266449511051178, 0.12008561193943024, -0.138685405254364, 0.27383747696876526, -0.23216645419597626, -0.036964938044548035, -0.20859694480895996, -0.09908892959356308, 0.030511323362588882, -0.04813101887702942, 0.13540270924568176, -0.1220223680138588, 0.11776809394359589, -0.003246018663048744, 0.06422118097543716, 0.025996340438723564, -0.09213712811470032, -0.08322819322347641, 0.11694464087486267, -0.039645109325647354, -0.0008613748359493911, -0.013757864944636822, 0.031543705612421036, -0.11910960078239441, 0.11273207515478134, -0.15721550583839417, 0.0812310129404068, -0.09852210432291031, -0.04805533587932587, -0.0014532902278006077, 0.09868559241294861, -0.056297626346349716, -0.1617838591337204, 0.0464341901242733, 0.21250182390213013, 0.1108565405011177, 0.2349005788564682, 0.04838375747203827, -0.020221682265400887, 0.06221238896250725, -0.1926903873682022, -0.06456056237220764, 0.01183264795690775, 0.06262123584747314, -0.0637851357460022, 0.06134156510233879, -0.028198830783367157, -0.15346753597259521, 0.15593372285366058, 0.06488658487796783, 0.13903647661209106, 0.013617868535220623, 0.11816582083702087, 0.058522798120975494, -0.01772954873740673, 0.015340900979936123, -0.20646822452545166, 0.07483973354101181, 0.05915495380759239, -0.011771741323173046, 0.388031929731369, 0.07529805600643158, 0.004635344725102186, -0.09900051355361938, 0.0013886397937312722, 0.12363850325345993, -0.06038415804505348, -0.1070253998041153, 0.0879461020231247, 0.034027405083179474, 0.020586902275681496, 0.012310628779232502, 0.08972058445215225, 0.13674087822437286, 0.038702160120010376, -0.08299344778060913, 0.07390978932380676, 0.01742311753332615, 0.1236560046672821, -0.004759969189763069, 0.02893427386879921, -0.11993233114480972, 0.0726349949836731, -0.12067678570747375, -0.04049034044146538, 0.09262828528881073, -0.013753050938248634, 0.18370330333709717, -0.03839452564716339, 0.04565213993191719, 0.17290757596492767, 0.04509226977825165, 0.08402227610349655, -0.022478442639112473, -0.01629573479294777, 0.07892019301652908, 0.4673261046409607, -0.192674458026886, -0.06864528357982635, -0.16225945949554443, 0.07427443563938141, 0.01777196303009987, -0.25877371430397034, -0.14034681022167206, 0.13459187746047974, -0.03343638405203819, 0.11689339578151703, -0.028134899213910103, -0.017905108630657196, 0.03431146964430809, -0.06602267920970917, 0.15122610330581665, 0.02267850562930107, -0.13241800665855408, 0.03653928264975548, -0.0016302679432556033, -0.039919957518577576, -0.06303577870130539, -0.0853831097483635, 0.1254168152809143, 0.12174275517463684, -0.06868377327919006, -0.17900680005550385, -0.055154260247945786, 0.04459553584456444, 0.16119857132434845, 0.10232219099998474, 0.05090634524822235, 0.028445366770029068, -0.14338664710521698, -0.0686904564499855, -0.12825240194797516, 0.10090610384941101, 0.05875268206000328, -0.006641818676143885, 0.2090008705854416, -0.12639567255973816, -0.09131438285112381, 0.07449508458375931, -0.0642913281917572, -0.005250549875199795, 0.24324028193950653, -0.0015559167368337512, 0.06901995092630386, 0.13379114866256714, -0.07577061653137207, 0.1930646300315857, -0.13932345807552338, 0.09035886824131012, 0.09137365967035294, 0.17932981252670288, -0.05740645155310631, 0.07968499511480331, -0.03263133391737938, 0.06295464932918549, 0.03756435588002205, -0.06525947898626328, 0.11441951990127563, -0.033022694289684296, 0.009461668320000172, 0.16181766986846924, -0.0831950381398201, -0.07684284448623657, 0.02205878496170044, -0.032298583537340164, -0.0065648905001580715, 0.09768664091825485, -0.015975994989275932, -0.18809813261032104, -0.09242445230484009, 0.08158569037914276, -0.052468568086624146, -0.11403175443410873, 0.042346879839897156, -0.029556693509221077, -0.12826868891716003, 0.10601040720939636, 0.1475227028131485, 0.10461943596601486, 0.06434156000614166, -0.1271684616804123, -0.05064420774579048, 0.03143079951405525, -0.1190265566110611, 0.09338019788265228, -0.1446419507265091, -0.09539205580949783, 0.0732567086815834, 0.0010422337800264359, -0.07978111505508423, -0.08681312948465347, 0.11495435237884521, -0.23494191467761993, -0.1413131058216095, 0.12153864651918411, 0.12822219729423523, -0.059856563806533813, -0.10126540809869766, 0.03474273905158043, 0.011986928060650826, -0.06798934191465378, 0.1476326435804367, -0.01571955345571041, -0.07416123151779175, -0.04469892382621765, -0.15327991545200348, -0.03747335821390152, 0.037108004093170166, -0.13303296267986298, 0.06791350245475769, 0.0025175202172249556, -0.013572383671998978, 0.08685159683227539, -0.1846487671136856, -0.07383696734905243, 0.1327885389328003, -0.08240608870983124, 0.043655380606651306, -0.013376045972108841, -0.1853390783071518, -0.1231493428349495, 0.1330183893442154, 0.17307451367378235, -0.03524068742990494, -0.18544559180736542, -0.16710436344146729, 0.04066775366663933, 0.014535062946379185, 0.17609626054763794, 0.06714671105146408, -0.020238136872649193, 0.12815436720848083, 0.02776583842933178, 0.12437349557876587, 0.17730379104614258, -0.1133638396859169, -0.08503201603889465, 0.0945739597082138, 0.03657487407326698, -0.03820104897022247, 0.16105659306049347, -0.09469463676214218, -0.022573912516236305, 0.017460111528635025, 0.01923581212759018, 0.014991194009780884, -0.03287758305668831, -0.08160950243473053, -0.046727702021598816, -0.029299428686499596, -0.07432834059000015, -0.013924488797783852, 0.19498254358768463, -0.04376758635044098, -0.15487824380397797, -0.08079710602760315, 0.1123320609331131, 0.038603201508522034, -0.002350150840356946, -0.0682060495018959, 0.0565713606774807, -0.05260328948497772, 0.08995114266872406, 0.003855303628370166, 0.04637772589921951, 0.09116753190755844, -0.023341933265328407, 0.18148942291736603, 0.09596846252679825, -0.13582365214824677, -0.18668583035469055, -0.032232582569122314, 0.1266348659992218, -0.040399786084890366, 0.13957028090953827, -0.06852826476097107, -0.1998710185289383, 0.03151655197143555, -0.08680590242147446, -0.010501112788915634, 0.008282002992928028, 0.008070623502135277, -0.1256689429283142, -0.09027787297964096, 0.09316413849592209, -0.09240487962961197, -0.09248772263526917, 0.05654657259583473, -0.15288762748241425, 0.01812637411057949, -0.01744179055094719, 0.16269779205322266, -0.11305345594882965, -0.037444598972797394, -0.06653545796871185, 0.17926613986492157, -0.12679465115070343, 0.11883407086133957, 0.11077030003070831, 0.025172829627990723, 0.020937662571668625, 0.016826974228024483, -0.08048346638679504, -0.011582672595977783, -0.02977772429585457, 0.042036041617393494, -0.13775764405727386, 0.06566669791936874, -0.03324255347251892, -0.05835578218102455, 0.051284193992614746, 0.07681291550397873, -0.03753472492098808, -0.04467257484793663, 0.02137821726500988, -0.20078562200069427, 0.06291041523218155, 0.016174186021089554, 0.12479350715875626, 0.06862927228212357, -0.13994337618350983, -0.2551000714302063, 0.13526496291160583, -0.11217616498470306, 0.27109330892562866, -0.09034990519285202, -0.022847365587949753, 0.17315180599689484, -0.18634575605392456, -0.11544931679964066, 0.13175469636917114, 0.02872820571064949, 0.1225445419549942, 0.017969617620110512, -0.10034231096506119, -0.04317140206694603, 0.3029704988002777, -0.18027718365192413, -0.07592890411615372, -0.29399073123931885, 0.06638742983341217, -0.013610533438622952, -0.0066453153267502785, -0.32021480798721313, 0.055695440620183945, 0.11591910570859909, -0.022161703556776047, -0.023348338901996613, -0.031121382489800453, 0.0904788225889206, -0.04083207994699478, 0.0020106995943933725, 0.18330752849578857, 0.09580372273921967, -0.14610885083675385, -0.012027949094772339, -0.012621833942830563, -0.06279567629098892, 0.024657629430294037, -0.07766632735729218, 0.09502211958169937, 0.005771384574472904, 0.004916397389024496, 0.013848131522536278, -0.14132975041866302, 0.02899888902902603, 0.09468279033899307, -0.02446809597313404, 0.03267062455415726, 0.03291573375463486, -0.13228587806224823, 0.0999588891863823, 0.016976337879896164, -0.006825568620115519, -0.19835005700588226, -0.03866424039006233, 0.2254461944103241, -0.04180016741156578, -0.14919963479042053, 0.2139284759759903, -0.022870942950248718, 0.03578612953424454, 0.09065748006105423, 0.01817813701927662, 0.026034245267510414, 0.3117732107639313, -0.009895582683384418, 0.2040490210056305, -0.37688323855400085, -0.10176390409469604, 0.07201531529426575, -0.177625373005867, -0.07772116363048553, 0.021645627915859222, 0.06052229180932045, -0.0024644588120281696, -0.041266586631536484, 0.18159173429012299, 0.061598874628543854, -0.14032112061977386, 0.023068837821483612, -0.15627914667129517, 0.014030060730874538, 0.00419719098135829, 0.024268770590424538, -0.06721843034029007, 0.04877864569425583, -0.0656404122710228, -0.17860403656959534, 0.05725336819887161, -0.19921495020389557, 0.082148477435112, -0.19187931716442108, -0.0716932937502861, -0.09751173108816147, -0.07475360482931137, 0.08075594902038574, 0.2072453647851944, -0.2806391417980194, 0.03408538177609444, -0.023256143555045128, 0.06441836804151535, -0.12739643454551697, -0.316800981760025, 0.38636788725852966, -0.1706419736146927, -0.0701509565114975, 0.12522418797016144, -0.08622049540281296, -0.1016712561249733, -0.022732852026820183, -0.030332429334521294, -0.30877551436424255, 0.3824608325958252, -0.15995638072490692, 0.21577176451683044, -0.4572341740131378, -0.15407302975654602, -0.07653810828924179, -0.06273891031742096, -0.023491794243454933, 0.021263735368847847, 0.07208231836557388, 0.12154684960842133, 0.16707584261894226, 0.12419518828392029, 0.08410455286502838, 0.04752182215452194, 0.07580258697271347, 0.061855051666498184, 0.16037051379680634, -0.09608009457588196, 0.07649347186088562, 0.04082915559411049, 0.0431804433465004, 0.009776921011507511, 0.13856738805770874, 0.1503858119249344, -0.11368483304977417, 0.04516367241740227, 0.08877323567867279, 0.03895020857453346, 0.022313514724373817, 0.10087590664625168, -0.028477121144533157, -0.10004971921443939, -0.05085771903395653, 0.028474193066358566, 0.13508528470993042, 0.03197018802165985, 0.05189589783549309, 0.16738784313201904, -0.008569561876356602, 0.11888790875673294, 0.0986175686120987, -0.006875984370708466, -0.06354901939630508, 0.1595078855752945, -0.11678161472082138, -0.10310899466276169, 0.09281167387962341, 0.22388747334480286, -0.11204952001571655, 0.01686583086848259, -0.24261504411697388, -0.054773177951574326, 0.20241768658161163, 0.0009792860364541411, 0.13886506855487823, -0.08008743822574615, -0.10330283641815186, 0.11093296855688095, 0.10316652059555054, 0.06176628917455673, 0.12306349724531174, -0.1565224975347519, 0.05701989307999611, 0.10216505080461502, 0.05580586567521095, -0.05906304344534874, 0.011442187242209911, -0.10115333646535873, -0.1608634889125824, -0.0741749182343483, -0.04137750715017319, 0.14387845993041992, 0.15036390721797943, 0.16219986975193024, -0.07624424993991852, -0.17473088204860687, -0.22333121299743652, 0.06080613285303116, -0.08944251388311386, -0.08751226216554642, -0.09157118201255798, -0.14257971942424774, -0.17340895533561707, -0.10648300498723984, -0.03183562681078911, -0.0029289082158356905, -0.03016420267522335, 0.01598428189754486, -0.0420343279838562, 0.0029757043812423944, -0.03601902350783348, -0.2174673229455948, -0.12761086225509644, 0.19167767465114594, -0.18310412764549255, -0.1146688237786293, 0.062356628477573395, 0.05455949157476425, -0.14124195277690887, -0.12322691082954407, -0.1692165583372116, -0.10843303054571152, 0.1535148322582245, 0.2044459581375122, 0.04092531278729439, -0.16013318300247192, -0.1695534884929657, -0.20738475024700165, 0.05799157917499542, 0.025653520599007607, -0.0036142277531325817, -0.04179038852453232, 0.1127869039773941, 0.160120889544487, 0.0859442874789238, -0.0788981020450592, -0.00527389720082283, 0.06557697802782059, -0.13842451572418213, 0.08579100668430328, -0.12264728546142578, 0.001110515440814197, -0.10226628184318542, 0.035311684012413025, 0.1065947636961937, -0.13617952167987823, 0.03214405104517937, -0.09498368203639984, 0.025764605030417442, -0.009680616669356823, 0.1773935854434967, 0.18024040758609772, 0.02451263554394245, 0.028751330450177193, -0.09082625061273575, 0.11720491200685501, -0.0768178254365921, 0.0433468371629715, -0.0724126473069191, 0.1881307065486908, 0.13280074298381805, 0.040992025285959244, 0.010951985605061054, 0.03074158914387226, -0.06590418517589569, 0.1694711297750473, 0.03591397404670715, 0.05361374840140343, -0.006949898321181536, -0.07255388051271439, 0.10970348864793777, 0.1281253844499588, -0.004071494564414024, -0.12480677664279938, 0.1803797334432602, 0.02813676744699478, -0.07971209287643433, -0.05496475100517273, -0.0037671751342713833, 0.15209197998046875, -0.06989454478025436, 0.14235669374465942, 0.1273457407951355, 0.006641995161771774, 0.1274038553237915, 0.01581009104847908, 0.0357418917119503, -0.03878752142190933, -0.06836794316768646, 0.016759734600782394, 0.06153258681297302, 0.02200600877404213, 0.040288425981998444, 0.0032007803674787283, -0.09029214084148407, -0.012661103159189224, -0.07619185745716095, 0.17937679588794708, 0.0811488926410675, -0.016786569729447365, -0.2181684672832489, 0.08337514847517014, 0.11284736543893814, 0.1210612878203392, -0.023424940183758736, 0.07787299156188965, -0.06680385768413544, 0.1159617081284523, 0.14614099264144897, -0.22108866274356842, 0.05607910454273224, 0.0020780684426426888, 0.01979256235063076, -0.07439140230417252, -0.08178852498531342, 0.04741865023970604, 0.20490700006484985, 0.17412294447422028, 0.06661035120487213, -0.01577351987361908, -0.03232375159859657, 0.10513326525688171, 0.0827513039112091, 0.08675266057252884, 0.09100479632616043, -0.1431727111339569, -0.1020071804523468, 0.054965946823358536, -0.054616305977106094, -0.1018173024058342, -0.14219611883163452, 0.0990818664431572, -0.037507783621549606, -0.1224854588508606, -0.06652553379535675, 0.06081193685531616, -0.06617135554552078, 0.03432464227080345, -0.03487136587500572, -0.049506381154060364, -0.007164258509874344, -0.09836233407258987, 0.09677089750766754, 0.1404007375240326, -0.029881224036216736, -0.0026751842815428972, -0.13418357074260712, 0.02782456949353218, 0.1084260493516922, -0.11502501368522644, 0.150983989238739, -0.13195666670799255, -0.09959862381219864, -0.06442881375551224, -0.05266888812184334, -0.15750662982463837, -0.12137579917907715, 0.1575556993484497, -0.05402578413486481, -0.04870341718196869, 0.0170960184186697, 0.036922287195920944, 0.01797592267394066, -0.15551090240478516, 0.05790198966860771, 0.05260101705789566, 0.22451311349868774, 0.06395535171031952, 0.10538017004728317, 0.16382375359535217, -0.21490193903446198, 0.01216850895434618, 0.12136861681938171, -0.07624776661396027, 0.10300297290086746, 0.11695301532745361, 0.0011330371489748359, 0.09917082637548447, 0.01785585656762123, 0.08468098938465118, 0.00928419642150402, -0.10100815445184708, 0.04994676634669304, 0.02045600302517414, 0.07578763365745544, -0.02396484464406967, 0.005435475148260593, 0.06845647841691971, 0.015297277830541134, -0.012712669558823109, 0.02129625529050827, -0.04141286760568619, -0.023583047091960907, 0.0029740927275270224, -0.03316910192370415, -0.10483916103839874, 0.0689927265048027, -0.2000734955072403, 0.11594779789447784, 0.09712890535593033, -0.12757109105587006, 0.1799876093864441, -0.09831960499286652, 0.017209099605679512, 0.172207772731781, -0.023780200630426407, -0.10583464801311493, -0.10151831805706024, -0.09783264249563217, -0.04519709572196007, -0.13812632858753204, 0.22452741861343384, 0.06215139478445053, 0.02407110668718815, 0.03711649775505066, -0.08555600047111511, 0.06716126948595047, 0.003266378305852413, -0.04604187607765198, -0.0487176813185215, 0.1124151200056076, 0.04798061028122902, 0.06718239933252335, -0.004994962830096483, -0.1023980975151062, 0.004230786580592394, -0.025748588144779205, 0.0106090372428298, -0.21221932768821716, -0.48254671692848206, 0.8073074817657471, 0.3167096674442291, -0.43828076124191284, 0.133628711104393, -0.20266307890415192, -0.0415012463927269, 0.5469669699668884, -0.7415062785148621, 0.9568429589271545, 0.6204622387886047, 0.0019630747847259045, -0.2739604413509369, 0.14747923612594604, -0.721676230430603, 0.02313210256397724, -0.05871157348155975, 0.24745109677314758, -0.09508725255727768, -0.04686899855732918, 0.23839597404003143, 0.20221902430057526, 0.21988457441329956, 0.08129293471574783, -0.22258654236793518, 0.2574959099292755, 0.11026888340711594, -0.2370198369026184, 0.09674734622240067, -0.16664303839206696, -0.1807366907596588, 0.16951465606689453, -0.03958841413259506, 0.015736475586891174, 0.15020491182804108, 0.09120645374059677, 0.14055103063583374, -0.041921235620975494, -0.2401287853717804, -0.23271054029464722, 0.08377283066511154, 0.00547378696501255, -0.10893988609313965, 0.15100541710853577, 0.41887354850769043, 0.11194536834955215, -0.026007158681750298, -0.043389350175857544, -0.2458016723394394, 0.12840215861797333, -0.29908236861228943, 0.1714397519826889, -0.15743426978588104, 0.0824611708521843, -0.04523878172039986, -0.4138505458831787, -0.32624921202659607, -0.36467164754867554, 0.2631109654903412, 0.10450804978609085, -0.4135255217552185, 0.12392004579305649, 0.08971582353115082, 0.17691396176815033, 0.039003171026706696, 0.10498284548521042, 0.04071272164583206, -0.11925802379846573, 0.26036542654037476, -0.23810146749019623, 0.251228928565979, 0.23592372238636017, -0.0780109241604805, 0.06413507461547852, 0.16831417381763458, 0.13968969881534576, 0.033469535410404205, 0.018298083916306496, -0.10159886628389359, 0.01892397180199623, -0.008602654561400414, 0.27936166524887085, -0.13355892896652222, 0.14644435048103333, -0.06425214558839798, 0.06010238081216812, 0.09190892428159714, 0.13375301659107208, -0.1967352330684662, -0.14322085678577423, 0.055267468094825745, -0.2277793288230896, -0.174953892827034, 0.14187167584896088, -0.12061422318220139, -0.1560014933347702, -0.04518542438745499, 0.01915232092142105, -0.11452530324459076, -0.09746391326189041, -0.1406426578760147, 0.21283571422100067, 0.11430034786462784, -0.22344017028808594, -0.3102951943874359, -0.057401347905397415, 0.16247932612895966, -0.018802260980010033, 0.11536628007888794, 0.2879932224750519, 0.08442948758602142, -0.05074748024344444, 0.08530166745185852, -0.07651318609714508, 0.14578410983085632, 0.05559731647372246, 0.024177271872758865, -0.03330930694937706, 0.029467830434441566, -0.13990303874015808, 0.17170342803001404, 0.1892426609992981, -0.20791751146316528, 0.16419148445129395, 0.08882767707109451, -0.032300349324941635, 0.13830973207950592, 0.24753408133983612, 0.10988490283489227, -0.21898560225963593, -0.22028689086437225, 0.16116315126419067, -0.2593350410461426, 0.15773481130599976, -0.14646148681640625, -0.1053837388753891, 0.04571542516350746, 0.006855054758489132, 0.33033931255340576, -0.08455417305231094, 0.057453226298093796, 0.25354504585266113, -0.11605055630207062, -0.18352019786834717, 0.20781159400939941, -0.09185387939214706, 0.1571452021598816, 0.13160483539104462, 0.03799549862742424, -0.23777157068252563, 0.02152162417769432, -0.08917765319347382, 0.050655752420425415, -0.09184530377388, 0.15197300910949707, -0.2308046817779541, -0.0789961889386177, 0.028079921379685402, 0.01045339833945036, 0.26025792956352234, -0.19597052037715912, -0.16282935440540314, 0.13257065415382385, -0.033174723386764526, 0.15453125536441803, -0.10649880766868591, -0.2281983494758606, -0.011395011097192764, 0.19232138991355896, 0.10321597009897232, -0.059806786477565765, -0.046862125396728516, -0.08097948133945465, 0.2661381959915161, -0.12050045281648636, 0.29039520025253296, -0.2672507166862488, -0.16956384479999542, -0.2324603945016861, 0.24278903007507324, -0.23443657159805298, 0.17070306837558746, -0.11154050379991531, 0.20941628515720367, 0.21939919888973236, -0.2539510428905487, 0.13180620968341827, 0.04297409951686859, -0.14950969815254211, 0.06125741824507713, 0.25682517886161804, 0.09152019023895264, -0.008854953572154045, -0.09777102619409561, 0.02758580818772316, 0.06803722679615021, 0.1511368453502655, 0.22049959003925323, 0.09314312040805817, -0.1251840591430664, -0.06912435591220856, -0.22384820878505707, 0.3250294625759125, -0.2431531846523285, -0.25119030475616455, 0.047936730086803436, 0.1338711678981781, -0.16189800202846527, -0.38462841510772705, -0.03948086500167847, -0.10927629470825195, 0.046325188130140305, -0.045929789543151855, -0.1028493121266365, -0.3097151219844818, 0.09435287117958069, 0.3093186616897583, -0.12121987342834473, 0.20850364863872528, -0.04032841697335243, 0.1285994052886963, 0.08406002074480057, -0.0986221507191658, -0.2517990469932556, 0.26023903489112854, -0.20690158009529114, 0.027784431353211403, 0.05281681567430496, 0.02563108317553997, 0.06632163375616074, -0.1028217151761055, 0.03351607173681259, 0.006831635721027851, 0.060271117836236954, -0.4006844758987427, 0.081737220287323, 0.19788871705532074, -0.27290019392967224, 0.05039289593696594, 0.18093045055866241, -0.011843167245388031, -0.03563385829329491, -0.11885879933834076, -0.11341038346290588, -0.3017251491546631, 0.22465629875659943, -0.3285578787326813, 0.09078104794025421, 0.23925258219242096, 0.14540927112102509, 0.4198146462440491, -0.20148037374019623, 0.21303124725818634, 0.14670170843601227, -0.15699255466461182, 0.015942681580781937, -0.15695881843566895, -0.06040631979703903, -0.26195642352104187, -0.09821095317602158, -0.14130036532878876, 0.012698800303041935, -0.27090391516685486, 0.016674360260367393, 0.28248560428619385, 0.1620781570672989, 0.33537912368774414, -0.20868267118930817, -0.05281008407473564, -0.030128849670290947, 0.08889713883399963, 0.05311824753880501, 0.013504561968147755, 0.08572516590356827, 0.12310601025819778, -0.0499846488237381, 0.15135957300662994, 0.12832313776016235, 0.02272873744368553, -0.18022969365119934, -0.15053321421146393, 0.04503893479704857, 0.07689070701599121, 0.15343782305717468, 0.12114934623241425, 0.06766971200704575, 0.005601470824331045, -0.05503879114985466, -0.18112199008464813, -0.029189983382821083, 0.07393138110637665, -0.0827767625451088, -0.01169382594525814, -0.0816735252737999, -0.145640566945076, 0.07686331868171692, -0.026647357270121574, 0.07170374691486359, 0.08607907593250275, -0.03576328605413437, -0.15242326259613037, -0.1326836794614792, -0.05835823714733124, -0.029615111649036407, 0.10518558323383331, 0.15196281671524048, -0.1104758009314537, -0.044465068727731705, -0.1995019018650055, 0.10874037444591522, 0.04454544931650162, 0.04029501974582672, -0.25752225518226624, -0.018047329038381577, 0.045157164335250854, 0.1838328093290329, -0.08002063632011414, -0.09005700796842575, -0.36909061670303345, 0.14832356572151184, -0.17363320291042328, -0.2117464393377304, -0.05520344153046608, -0.16810336709022522, -0.024561377242207527, -0.1149383932352066, 0.09871407598257065, -0.10995940864086151, -0.1082361489534378, -0.2339089959859848, -0.17895688116550446, -0.019081272184848785, 0.0021825581789016724, -0.17741429805755615, -0.09694454818964005, -0.2073606699705124, 0.158633291721344, 0.1381891667842865, 0.2610675096511841, -0.05295903980731964, -0.10973566025495529, 0.02141832374036312, -0.24814163148403168, 0.24499642848968506, 0.07485394179821014, 0.09830626845359802, -0.09426821023225784, -0.08162795752286911, -0.02263319119811058, 0.22046492993831635, -0.23361383378505707, -0.31080177426338196, 0.13108070194721222, -0.07910839468240738, 0.08351416885852814, -0.07918909192085266, -0.17576438188552856, -0.106895312666893, 0.011584920808672905, 0.19344782829284668, 0.03203947842121124, -0.1646915078163147, 0.06685749441385269, 0.20909380912780762, 0.12485568225383759, 0.05537079647183418, -0.0010747227352112532, 0.06512269377708435, -0.03577803447842598, -0.44286268949508667, -0.2011125683784485, 0.00908229686319828, -0.008732631802558899, 0.0279226116836071, 0.02557840198278427, 0.1413397639989853, -0.24861429631710052, -0.09964694082736969, 0.00858313962817192, 0.15143974125385284, -0.04078547656536102, 0.06594326347112656, 0.12697534263134003, -0.07903751730918884, -0.1329200565814972, -0.1516813337802887, 0.14093558490276337, 0.04004618898034096, -0.06269674748182297, -0.24988065659999847, 0.24047286808490753, 0.08591094613075256, -0.12700825929641724, -0.01670200191438198, 0.04797833785414696, 0.12232961505651474, 0.02483152225613594, -0.12028307467699051, -0.08202316612005234, 0.04976428672671318, -0.09990552067756653, -0.01904960535466671, 0.1093856543302536, -0.05829762667417526, 0.058564696460962296, 0.03371131792664528, -0.005433140322566032, -0.15470652282238007, 0.0902055874466896, 0.18067777156829834, 0.11963383853435516, -0.04771628975868225, 0.05731819197535515, -0.1614396870136261, 0.14792388677597046, 0.04677703604102135, -0.16231094300746918, 0.14475217461585999, 0.07641908526420593, -0.1625600904226303, 0.07056816667318344, 0.015798136591911316, -0.1454780399799347, -0.07321812212467194, 0.06924267113208771, 0.07013371586799622, 0.013738993555307388, -0.13259898126125336, -0.12784579396247864, 0.06475599110126495, -0.12039316445589066, -0.16600315272808075, 0.21433481574058533, 0.04724318906664848, 0.020942464470863342, 0.07412131130695343, 0.09145157039165497, 0.025205636397004128, 0.1383359134197235, 0.008322718553245068, 0.17578743398189545, 0.022237123921513557, -0.14420348405838013, 0.0026377071626484394, 0.1412830948829651, -0.040169958025217056, -0.16072578728199005, 0.03879127651453018, 0.20601432025432587, 0.12289529293775558, -0.0174674354493618, -0.0033704515080899, -0.08316072821617126, 0.0352335199713707, 0.20830141007900238, 0.08895573019981384, -0.14961981773376465, -0.17993253469467163, -0.13432788848876953, -0.047260213643312454, 0.04606832191348076, -0.03207063674926758, 0.14622598886489868, -0.04714109003543854, -0.020480846986174583, 0.12099640816450119, 0.10339169204235077, 0.013272980228066444, 0.12806932628154755, -0.0963127464056015, 0.14600999653339386, 0.0871298611164093, -0.16956907510757446, -0.2922751009464264, 0.14089788496494293, 0.025876734405755997, -0.2576761245727539, -0.03983527794480324, -0.057495348155498505, 0.005256705451756716, 0.05267123505473137, -0.0015583211788907647, 0.11320952326059341, 0.08882322162389755, 0.032167501747608185, -0.14772559702396393, 0.417839378118515, -0.05770857259631157, 0.20229820907115936, -0.07969630509614944, -0.017612142488360405, 0.04767412692308426, -0.03851586952805519, -0.05344340205192566, -0.2339468151330948, 0.2496313452720642, 0.20026756823062897, -0.07148982584476471, -0.07426714897155762, -0.01841922290623188, -0.028202790766954422, 0.057795144617557526, -0.014623980969190598, -0.05728476867079735, 0.16608566045761108, -0.1393435150384903, -0.11014018207788467, -0.1234564408659935, 0.020890595391392708, 0.005025227554142475, 0.17653727531433105, -0.13673876225948334, -0.027743743732571602, 0.15821382403373718, -0.007009516470134258, -0.11998458951711655, 0.013841281644999981, -0.08226040005683899, -0.09073322266340256, -0.09175481647253036, -0.1601685881614685, -0.17964202165603638, 0.05331415683031082, -0.014334922656416893, -0.12828181684017181, -0.10361049324274063, -0.007037304807454348, -0.1228320449590683, -0.017978327348828316, 0.018963102251291275, -0.010701642371714115, 0.08231110870838165, -0.07934829592704773, 0.017776427790522575, 0.2607453167438507, 0.13623002171516418, 0.01491132564842701, 0.002703776117414236, -0.21372748911380768, 0.07523419708013535, -0.10404706746339798, -0.06799162924289703, -0.21741583943367004, -0.019143693149089813, 0.1500810980796814, -0.026145320385694504, 0.03738059476017952, -0.060824401676654816, -0.10627481341362, -0.07523725181818008, -0.05378308147192001, -0.0727645680308342, 0.10750819742679596, -0.11580342799425125, -0.04883168265223503, 0.01257537491619587, -0.0455969013273716, -0.018079498782753944, 0.009024875238537788, -0.14367569983005524, 0.06056228280067444, 0.015712574124336243, 0.14524874091148376, 0.015452456660568714, -0.010718694888055325, -0.1569012701511383, 0.0698307454586029, -0.007496587000787258, -0.160382941365242, -0.1354958415031433, 0.09424660354852676, -0.06910502165555954, -0.10180170834064484, 0.06727899610996246, 0.037639275193214417, 0.2749347388744354, -0.002864145440980792, -0.1766551285982132, -0.11337977647781372, -0.028090281412005424, -0.010702978819608688, 0.08171332627534866, 0.0445655882358551, 0.11707766354084015, -0.2123682200908661, -0.024769937619566917, -0.035068776458501816, -0.0027797678485512733, -0.007135181687772274, -0.0728251188993454, 0.15389862656593323, -0.2102995365858078, -0.005282362457364798, -0.12419095635414124, -0.08029033243656158, -0.05468681827187538, 0.2718132436275482, -0.025407051667571068, -0.03603517264127731, -0.14300353825092316, 0.15334905683994293, 0.070640929043293, -0.06056639924645424, 0.05452936887741089, 0.09666815400123596, 0.11731098592281342, 0.05548631027340889, 0.052747249603271484, 0.052465640008449554, -0.13161037862300873, 0.10621117055416107, 0.1722351759672165, 0.014810883440077305, -0.012540888972580433, -0.20774903893470764, 0.06597676128149033, -0.08804414421319962, 0.13326804339885712, 0.10408531874418259, 0.05696966126561165, 0.06504888832569122, 0.019615422934293747, -0.20976048707962036, -0.176363006234169, -0.025554461404681206, -0.015679318457841873, 0.06735517829656601, -0.019332170486450195, 0.121458038687706, -0.1208794042468071, -0.04388241842389107, 0.11057738214731216, -0.011027883738279343, 0.07996808737516403, -0.09002678841352463, -0.1580609828233719, 0.17673157155513763, 0.05741487815976143, -0.22397007048130035, -0.014791630208492279, 0.027247067540884018, 0.034312836825847626, -0.15108457207679749, 0.00963510386645794, -0.1444331258535385, 0.048245105892419815, 0.004209399223327637, 0.093625009059906, -0.024453533813357353, -0.05452963709831238, -0.006564976181834936, -0.12421926856040955, -0.02606108784675598, -0.08718650788068771, -0.06224402040243149, -0.18942014873027802, -0.15418197214603424, -0.15456292033195496, 0.12711772322654724, 0.09973396360874176, -0.025792798027396202, 0.07458969205617905, 0.1320337951183319, -0.15453507006168365, -0.11794282495975494, -0.13830828666687012, 0.016417382284998894, 0.07665332406759262, -0.13122043013572693, -0.0737217590212822, 0.07628361135721207, 0.07813624292612076, 0.09576652199029922, 0.0360533744096756, 0.06484844535589218, -0.08746270090341568, 0.05368460714817047, -0.042410798370838165, -0.20459042489528656, 0.053015150129795074, -0.18728415668010712, -0.022720348089933395, 0.07045576721429825, -0.07130146026611328, -0.024591634050011635, -0.04298916459083557, 0.11459964513778687, 0.07175789028406143, -0.14646808803081512, -0.047727979719638824, -0.09722054749727249, -0.042266596108675, 0.08801925927400589, -0.07218488305807114, -0.1699819415807724, -0.1125338226556778, -0.06689023226499557, 0.006376136094331741, 0.05462690070271492, 0.17401356995105743, -0.09108354151248932, -0.0398588590323925, -0.14528124034404755, 0.05036825314164162, 0.15526854991912842, 0.09696798026561737, -0.09394103288650513, 0.09754664450883865, 0.025614706799387932, -0.05554187670350075, -0.17008118331432343, 0.08667033165693283, 0.10711044818162918, 0.14356908202171326, 0.01679309830069542, -0.1317661702632904, 0.15710750222206116, -0.03382210433483124, 0.09004973620176315, 0.012403726577758789, -0.0005151965306140482, -0.10190103203058243, 0.037924546748399734, -0.19804085791110992, -0.06177294999361038, 0.11594374477863312, 0.07460760325193405, 0.11484348028898239, 0.01632424257695675, -0.08232488483190536, 0.07775118201971054, 0.10619959980249405, 0.020745601505041122, 0.01067368220537901, 0.0870993360877037, 0.02602720446884632, -0.18926195800304413, -0.01569969765841961, -0.04770670831203461, 0.1811782717704773, 0.09294325113296509, 0.08716856688261032, 0.04167173430323601, 0.0001677756372373551, 0.029205020517110825, 0.08808126300573349, -0.18355192244052887, 0.07657672464847565, -0.006970535963773727, -0.21421170234680176, 0.04718857258558273, 0.07746956497430801, -0.023713620379567146, -0.024454860016703606, -0.016700804233551025, 0.012397298589348793, -0.01452036015689373, 0.020468205213546753, -0.1359095275402069, 0.08164650946855545, 0.06506595015525818, 0.17983855307102203, 0.0726613998413086, -0.1293007880449295, 0.16850025951862335, -0.07913779467344284, 0.08008753508329391, -0.03144308924674988, -0.0833895280957222, 0.09061431139707565, 0.052066728472709656, 0.004764821380376816, 0.09519407153129578, -0.1361003965139389, -0.03754216060042381, 0.09548242390155792, 0.20211224257946014, 0.015176089480519295, -0.2290591597557068, -0.15961533784866333, -0.08719367533922195, 0.018697261810302734, -0.030166424810886383, 0.17772991955280304, 0.1672162413597107, 0.14422838389873505, 0.12337152659893036, -0.1066664382815361, -0.1377207487821579, -0.019876452162861824, 0.09295009821653366, 0.03768722340464592, 0.051069602370262146, -0.010961823165416718, -0.031470488756895065, 0.019434887915849686, 0.008768531493842602, 0.07663507014513016, 0.08418905735015869, -0.10561498254537582, -0.08268256485462189, -0.0009891228983178735, -0.14680540561676025, 0.08470991253852844, -0.12825706601142883, 0.06646779179573059, 0.11179611831903458, -0.013287140056490898, -0.011820407584309578, -0.15031969547271729, 0.08123710751533508, 0.08335717767477036, -0.07083317637443542, -0.05008694902062416, 0.019423123449087143, -0.020759856328368187, 0.0005561378202401102, -0.034625690430402756, 0.06818047165870667, 0.055642105638980865, -0.09990569204092026, -0.02707752399146557, -0.22271189093589783, 0.12353698909282684, -0.1445055454969406, -0.015748348087072372, 0.042487066239118576, -0.10000530630350113, -0.15997634828090668, 0.06784424930810928, 0.003876273287460208, -0.2850205898284912, -0.13636527955532074, 0.015419898554682732, -0.058340318500995636, -0.08529501408338547, 0.10502956062555313, -0.022762468084692955, 0.13370424509048462, -0.08205433934926987, -0.09022481739521027, 0.04156067594885826, -0.1117008775472641, 0.1731412410736084, 0.13096201419830322, 0.16602616012096405, -0.23189716041088104, 0.15186567604541779, 0.10420576483011246, -0.18968340754508972, 0.035406652837991714, 0.05717374011874199, 0.1077137440443039, -0.1037699431180954, 0.15345828235149384, -0.016591839492321014, 0.1252138912677765, -0.05008145794272423, -0.23033073544502258, -0.10465988516807556, 0.1675046980381012, -0.05834627151489258, 0.11136969923973083, -0.08486177772283554, 0.04329359903931618, -0.04392686113715172, 0.04801523685455322, 0.007488884497433901, -0.037744540721178055, 0.02652120776474476, 0.3101842999458313, -0.07148921489715576, -0.026859644800424576, 0.0008233426488004625, -0.18357092142105103, -0.0682983472943306, 0.13541053235530853, -0.058202195912599564, -0.04765712097287178, 0.04810275882482529, -0.06275074928998947, -0.1443192958831787, 0.08050859719514847, -0.13927073776721954, -0.050643809139728546, -0.009456195868551731, 0.061654169112443924, -0.021509883925318718, 0.20230063796043396, -0.15199421346187592, -0.09945939481258392, 0.04011115804314613, 0.0032457755878567696, -0.0526619516313076, 0.07783524692058563, -0.1297580599784851, -0.11287330836057663, 0.14769591391086578, 0.2304152548313141, 0.047325246036052704, 0.018779801204800606, -0.07037129253149033, 0.22005881369113922, 0.011730584315955639, -0.010260622017085552, -0.12909747660160065, 0.10687446594238281, 0.011341103352606297, -0.06277304142713547, -0.021843183785676956, -0.05818985402584076, 0.0633939653635025, -0.08859790116548538, 0.19443747401237488, 0.05844832584261894, 0.09856928139925003, -0.04814349487423897, -0.0247926227748394, -0.21373479068279266, -0.03579931706190109, 0.1702018827199936, 0.1584884524345398, 0.06791092455387115, 0.09151104092597961, -0.10194602608680725, 0.12946850061416626, 0.005394610110670328, -0.16900622844696045, 0.06974658370018005, -0.1045096218585968, 0.048732347786426544, 0.0768304392695427, -0.12442000210285187, -0.0732416957616806, -0.09123341739177704, 0.06161626800894737, 0.054418690502643585, 0.0705869048833847, -0.039405569434165955, -0.11734648793935776, 0.10828515887260437, 0.17207209765911102, -0.09504413604736328, 0.006036161445081234, 0.03354635834693909, -0.25392499566078186, -0.20172272622585297, 0.06693064421415329, -0.009182550013065338, -0.04979750141501427, 0.0003242579405196011, 0.017814218997955322, 0.06870440393686295, 0.022922979667782784, -0.15400093793869019, 0.10763932764530182, 0.04388396441936493, 0.03874516114592552, 0.14252963662147522, -0.14913998544216156, 0.12684565782546997, 0.24316881597042084, -0.010886870324611664, 0.009196633473038673, 0.02204667218029499, -0.0914883017539978, 0.0024671002756804228, 0.11952067166566849, 0.001087466487661004, -0.039616137742996216, 0.028376447036862373, -0.12241970747709274, -0.06677702069282532, -0.0010594212217256427, -0.05135234072804451, -0.08440282195806503, 0.07156110554933548, 0.10864010453224182, -0.07840441167354584, 0.07561333477497101, -0.16271649301052094, -0.0028584289830178022, 0.030298126861453056, 0.04366191104054451, 0.08132567256689072, 0.06395373493432999, -0.0570814274251461, 0.01350017637014389, -0.0444011390209198, 0.05397142097353935, -0.016830556094646454, 0.005019331816583872, 0.06555643677711487, -0.15709668397903442, -0.07974934577941895, -0.10364701598882675, 0.005467606708407402, -0.07122529298067093, 0.036445215344429016, 0.1409377008676529, -0.11378452926874161, -0.20922163128852844, 0.06453440338373184, -0.026136035099625587, -0.10930826514959335, 0.11146946996450424, 0.07702217251062393, -0.021048802882432938, 0.144537091255188, 0.06879837810993195, -0.09897059202194214, 0.022600578144192696, 0.025283098220825195, -0.18397776782512665, -0.17819282412528992, -0.1132226511836052, 0.055188946425914764, 0.019865188747644424, 0.1492414027452469, 0.014422101899981499, 0.10826500505208969, -0.09153589606285095, 0.011713732033967972, 0.12560945749282837, 0.07142635434865952, -0.08441008627414703, -0.0746680498123169, -0.027566952630877495, 0.01904357224702835, 0.19698864221572876, -0.1297501027584076, -0.01596357859671116, -0.121344655752182, 0.0774938240647316, -0.13112851977348328, -0.00965789332985878, 0.08055713027715683, -0.205692857503891, -0.01428608875721693, -0.04254820942878723, 0.07835710793733597, 0.08191915601491928, 0.10760410875082016, -0.15205401182174683, -0.06415142118930817, -0.03585455194115639, -0.21657198667526245, -0.11451315134763718, 0.14534878730773926, 0.19788631796836853, 0.0688575804233551, 0.005076643079519272, 0.04724773019552231, -0.05017038434743881, 0.04861375316977501, 0.020117005333304405, -0.06670273095369339, 0.08712027221918106, -0.10758623480796814, 0.11580017954111099, 0.07472757995128632, -0.05891796573996544, -0.11321601271629333, 0.0971333235502243, 0.1546870917081833, 0.01966886594891548, -0.06478797644376755, 0.06561393290758133, 0.052433788776397705, 0.001660411013290286, 0.04880975931882858, 0.6386681795120239, 0.2619747817516327, 0.4712314009666443, -0.7934487462043762, -0.4300476312637329, 0.18396450579166412, 0.16942201554775238, 0.02193503826856613, 0.20043769478797913, 0.21380972862243652, -0.7139257192611694, 0.31127697229385376, -0.04012920707464218, -0.7070214748382568, 0.05639813840389252, -0.34684333205223083, -0.11787073314189911, -0.26743581891059875, 0.28774744272232056, -0.21624021232128143, 0.00537094846367836, 0.09532054513692856, 0.059508439153432846, -0.23956160247325897, -0.18379929661750793, 0.1408192366361618, -0.252714067697525, -0.05891600251197815, 0.11534295231103897, -0.1269686073064804, -0.013016789220273495, -0.01737005077302456, -0.1735077202320099, -0.20844869315624237, 0.14101694524288177, -0.27999719977378845, -0.05560874193906784, -0.09864463657140732, 0.30326709151268005, -0.1859395056962967, -0.0858631506562233, -0.005614512134343386, -0.22047318518161774, 0.11961240321397781, -0.12525945901870728, 0.09853191673755646, 0.04234960302710533, 0.13101403415203094, 0.07637635618448257, 0.1818953901529312, -0.17520175874233246, -0.19408006966114044, -0.04992266744375229, -0.1590103805065155, -0.3250206410884857, 0.13196653127670288, 0.16800428926944733, -0.11860305815935135, 0.02482866682112217, -0.09809337556362152, 0.022399842739105225, 0.07939539104700089, 0.02546026185154915, 0.2338472306728363, -0.2290867418050766, -0.0027292738668620586, -0.18947240710258484, 0.3450518548488617, 0.2929759919643402, 0.32613512873649597, 0.1844344288110733, 0.17007285356521606, -0.26724669337272644, -0.21751852333545685, 0.12864083051681519, -0.21388578414916992, 0.13837163150310516, 0.1368766576051712, 0.1543242484331131, -0.2476942241191864, 0.18153519928455353, -0.05043013021349907, -0.12457986176013947, 0.22005723416805267, 0.10957451164722443, -0.12231425940990448, -0.05156297981739044, -0.15923398733139038, 0.10723002254962921, 0.2305108606815338, 0.12992829084396362, 0.01471701730042696, -0.18630467355251312, -0.17962366342544556, -0.1935483068227768, -0.13547095656394958, -0.11905389279127121, 0.22955329716205597, 0.1472022533416748, 0.1560441255569458, -0.15439490973949432, 0.1814977377653122, -0.03800169751048088, -0.06075744330883026, 0.09785372763872147, 0.16570699214935303, -0.18678432703018188, 0.21700125932693481, 0.005888042971491814, 0.10012318193912506, -0.2565971314907074, -0.0237888190895319, -0.20643627643585205, -0.1934226155281067, -0.1750645637512207, -0.07962428778409958, -0.1322896033525467, -0.2203347086906433, 0.2085307091474533, 0.00788468774408102, -0.2251732349395752, 0.04027864709496498, 0.042000770568847656, -0.043160099536180496, 0.048878297209739685, 0.06449886411428452, 0.10176383703947067, -0.18250520527362823, 0.07602740824222565, 0.2765102684497833, -0.13099618256092072, 0.1835515946149826, 0.2320200800895691, -0.02878621406853199, -0.21110723912715912, 0.3060016930103302, -0.042383067309856415, -0.01126135978847742, 0.08981704711914062, 0.16401967406272888, -0.0032323095947504044, 0.029743511229753494, 0.23733414709568024, -0.006579115986824036, -0.3411690592765808, 0.049743007868528366, -0.14059218764305115, -0.04089801758527756, 0.1630096584558487, 0.083880715072155, -0.18515712022781372, -0.12953951954841614, -0.021484678611159325, -0.0933726355433464, 0.00804887618869543, -0.11217720061540604, 0.15673187375068665, 0.2204330712556839, 0.12500986456871033, 0.02029886096715927, -0.004991309717297554, 0.2900382876396179, -0.07935748249292374, 0.23647835850715637, -0.0010378217557445168, 0.29979851841926575, -0.3972374498844147, 0.2576048672199249, -0.3348822295665741, -0.26641517877578735, 0.289119690656662, -0.14966608583927155, 0.18823783099651337, -0.08864516019821167, 0.473140150308609, 0.05164334177970886, -0.08027495443820953, 0.22239267826080322, -0.23780865967273712, -0.22343477606773376, -0.24051433801651, 0.05751735344529152, 0.08033129572868347, -0.19136063754558563, 0.24905063211917877, -0.04141584783792496, -0.1263362020254135, 0.11429543793201447, -0.17476171255111694, 0.12251605838537216, 0.06989790499210358, -0.0840909332036972, 0.10342155396938324, 0.20549821853637695, -0.1602071076631546, -0.09600009769201279, -0.09618568420410156, -0.04442088305950165, -0.0559031218290329, 0.05830594152212143, -0.21084310114383698, 0.01642782799899578, 0.3116034269332886, 0.2362680286169052, -0.1309136152267456, 0.24742403626441956, -0.09591744095087051, -0.20144450664520264, 0.07494162023067474, 0.2575267553329468, 0.08151674270629883, 0.3105674684047699, -0.10431524366140366, 0.2403096854686737, -0.2967788279056549, 0.10811551660299301, 0.12198618054389954, 0.03191031143069267, -0.039101410657167435, -0.053059592843055725, -0.24437719583511353, 0.23039284348487854, 0.1706850230693817, -0.15827824175357819, -0.12298791110515594, 0.04467428848147392, 0.018314262852072716, 0.2660660445690155, 0.04430120810866356, 0.07930463552474976, -0.08684792369604111, 0.022827057167887688, 0.03134651482105255, 0.21953637897968292, 0.09878438711166382, -0.153004989027977, -0.1890590786933899, -0.2439715564250946, -0.08431700617074966, 0.07666106522083282, 0.29351598024368286, -0.010173816233873367, 0.07131688296794891, 0.13724814355373383, -0.1736649125814438, -0.12775005400180817, -0.06736725568771362, 0.1487768143415451, -0.13020922243595123, 0.016217084601521492, -0.15794599056243896, 0.03442082554101944, 0.0970020741224289, 0.048516497015953064, 0.05238986387848854, 0.06644224375486374, -0.04553531855344772, 0.22019770741462708, -0.1267167627811432, 0.00039300465141423047, -0.1627575010061264, -0.15114739537239075, 0.1835828274488449, -0.08113957196474075, -0.26565104722976685, 0.08941434323787689, -0.14526133239269257, -0.0032147462479770184, 0.1572401076555252, -0.06935293972492218, 0.1236918717622757, 0.019378388300538063, -0.17779822647571564, 0.009178802371025085, 0.10761649906635284, -0.03784758597612381, 0.05387997627258301, 0.023786740377545357, 0.018278969451785088, 0.038145773112773895, -0.19420452415943146, 0.1506490707397461, 0.07748834043741226, 0.003394786734133959, 0.05630812048912048, -0.163213312625885, -0.06839346885681152, 0.0271918922662735, -0.1295105218887329, -0.09754326194524765, -0.04547346010804176, -0.045509058982133865, 0.016031302511692047, -0.22440920770168304, -0.13782371580600739, 0.20165815949440002, -0.04940972104668617, 0.14692412316799164, 0.028033103793859482, 0.07382195442914963, -0.0620570033788681, 0.12563833594322205, -0.11661552637815475, -0.010563197545707226, 0.05955108627676964, 0.10405904799699783, 0.15698650479316711, -0.03731083497405052, 0.09542379528284073, 0.15688727796077728, 0.26269111037254333, 0.01312954816967249, 0.15767019987106323, -0.1480276882648468, 0.09690901637077332, 0.1967749446630478, -0.042700354009866714, 0.06835050880908966, 0.15357036888599396, -0.02106916345655918, -0.2266717553138733, 0.08192174136638641, -0.030174722895026207, -0.03728608787059784, 0.026060279458761215, 0.07685080170631409, 0.13464383780956268, 0.081339031457901, -0.09120448678731918, -0.12333879619836807, -0.12284203618764877, -0.06510870158672333, 0.1383318454027176, -0.31223437190055847, 0.015514359809458256, -0.023864883929491043, -0.03909200429916382, 0.030577315017580986, 0.14194878935813904, 0.028835279867053032, 0.14100268483161926, 0.017386989668011665, -0.12051887065172195, -0.2052564024925232, -0.020042255520820618, -0.10241428017616272, 0.18372097611427307, -0.04430596902966499, 0.13250413537025452, -0.0961441770195961, 0.061988405883312225, 0.06958205997943878, -0.08276046812534332, 0.07503440976142883, -0.20999179780483246, 0.11546983569860458, 0.07032409310340881, -0.14409488439559937, -0.21602323651313782, -0.0826561376452446, -0.09058265388011932, 0.1539657562971115, -0.014013733714818954, -0.049015823751688004, -0.02032594010233879, 0.0033109181094914675, -0.026103366166353226, -0.17228549718856812, 0.02768642082810402, -0.24474741518497467, -0.22754503786563873, -0.09019062668085098, -0.07458320260047913, -0.21686144173145294, -0.04316231608390808, 0.02954784594476223, 0.005633928347378969, -0.05412378907203674, 0.16274984180927277, -0.17850635945796967, -0.027943484485149384, -0.14878229796886444, -0.21974007785320282, -0.08349238336086273, -0.15163686871528625, -0.04744531586766243, 0.06759773194789886, 0.01712546870112419, 0.09794794023036957, 0.1274285614490509, -0.08190547674894333, 0.17838820815086365, 0.0026024123653769493, -0.030507195740938187, -0.0021209765691310167, 0.011077425442636013, -0.16271474957466125, -0.014092372730374336, -0.0839274525642395, -0.03033575229346752, 0.14544552564620972, 0.09460768848657608, -0.03547303378582001, -0.17305615544319153, -0.06996382027864456, -0.17144697904586792, 0.05001461133360863, -0.1956014335155487, 0.16760750114917755, -0.19162461161613464, -0.05332798510789871, 0.11788073182106018, -0.12916961312294006, 0.01566663198173046, 0.17615920305252075, 0.21885527670383453, 0.07770409435033798, 0.010787313804030418, 0.1184881329536438, 0.047186218202114105, -0.039759062230587006, 0.019413527101278305, 0.04210827499628067, 0.20313389599323273, 0.0002656557480804622, 0.08727055788040161, -0.16963915526866913, 0.146818146109581, 0.06771749258041382, -0.13648150861263275, 0.02963242121040821, 0.028285788372159004, 0.023899203166365623, -0.14169372618198395, 0.05616217851638794, 0.09256900101900101, 0.01795744150876999, -0.1054961085319519, 0.1571386605501175, 0.21036683022975922, 0.04366210475564003, 0.009320825338363647, -0.10608069598674774, 0.15499836206436157, 0.10249760001897812, 0.033558785915374756, 0.027766244485974312, 0.02152867801487446, -0.03645534813404083, 0.06378857791423798, 0.09649890661239624, -0.06806971877813339, 0.1304294317960739, 0.019862642511725426, -0.021120887249708176, -0.1647840142250061, 0.0007538601057603955, 0.004493124317377806, 0.14290320873260498, -0.3989684283733368, -0.04470686614513397, -0.007783178240060806, 0.10259241610765457, 0.25636211037635803, 0.08197099715471268, -0.12416332215070724, 0.008610340766608715, -0.07633402198553085, 0.022370750084519386, 0.12665492296218872, 0.028200171887874603, -0.0567874051630497, 0.089560367166996, -0.06561408936977386, 0.14059841632843018, -0.0563826709985733, 0.012272276915609837, 0.18726080656051636, 0.030586499720811844, 0.06911620497703552, 0.058490052819252014, 0.08357932418584824, 0.07463350892066956, -0.028405772522091866, 0.109446682035923, 0.051065534353256226, 0.16864964365959167, -0.009751401841640472, 0.05740610137581825, -0.18213726580142975, 0.23810094594955444, 0.0812535360455513, 0.14032821357250214, -0.013276517391204834, 0.07323197275400162, 0.19389773905277252, -0.05060625076293945, -0.11598541587591171, 0.0838325172662735, -0.030966531485319138, -0.06440142542123795, 0.07232031971216202, -0.030913151800632477, -0.07055200636386871, -0.0695563480257988, 0.021041614934802055, 0.14228440821170807, -0.019249629229307175, 0.004946725443005562, -0.005157830659300089, -0.15497137606143951, -0.011096563190221786, -0.06086069345474243, 0.006717628799378872, -0.1452426314353943, -0.10832347720861435, -0.20631003379821777, 0.0699121505022049, 0.0029474988114088774, -0.013703620992600918, 0.07816115766763687, -0.035910896956920624, 0.0963505208492279, -0.21154427528381348, -0.09943465888500214, 0.06394222378730774, -0.08586422353982925, 0.11101005971431732, -0.24738243222236633, -0.00023385316308122128, -0.13425011932849884, 0.014913106337189674, -0.3137269914150238, 0.021438026800751686, 0.1308247447013855, 0.06619096547365189, -0.054724663496017456, 0.03302576392889023, -0.014307232573628426, -0.0713830441236496, -0.15846548974514008, -0.018235772848129272, -0.023888738825917244, -0.16649773716926575, -0.024890080094337463, 0.02028416283428669, 0.2050972878932953, -0.11361998319625854, -0.1380397528409958, -0.19338861107826233, 0.2775018811225891, -0.025458980351686478, 0.06789328157901764, -0.1617482453584671, 0.023904599249362946, -0.02886592410504818, 0.23138706386089325, -0.09115754067897797, 0.2724887430667877, -0.0019301921129226685, -0.009016424417495728, 0.04130605608224869, 0.33008700609207153, -0.008296791464090347, 0.17758899927139282, -0.012022132985293865, -0.15256083011627197, -0.06402258574962616, -0.18325036764144897, 0.020379386842250824, -0.035868529230356216, 0.2601085603237152, -0.08276291191577911, 0.07362135499715805, 0.19874711334705353, 0.0595703050494194, -0.023716887459158897, -0.08504437655210495, 0.07781989872455597, 0.2500382363796234, -0.2256973385810852, -0.07959914207458496, -0.04508373513817787, -0.2530299127101898, 0.014066035859286785, -0.16692207753658295, 0.01904696598649025, -4.555421037366614e-05, 0.13186220824718475, 0.028651393949985504, -0.07896450906991959, 0.18371184170246124, 0.07629165053367615, 0.11269520968198776, 0.056660838425159454, 0.17568066716194153, 0.051949623972177505, -0.29356005787849426, -0.07561080157756805, -0.033967990428209305, -0.12055681645870209, 