{"version": "0.5.2", "metadata": {"date": {"year": 2024, "month": 4, "day": 19, "hour": 12, "minute": 30, "second": 15}, "loudness": -15.548898696899414, "gain": 0.8161536959388882}, "architecture": "WaveNet", "config": {"layers": [{"input_size": 1, "condition_size": 1, "head_size": 8, "channels": 16, "kernel_size": 3, "dilations": [1, 2, 4, 8, 16, 32, 64, 128, 256, 512], "activation": "Tanh", "gated": false, "head_bias": false}, {"input_size": 16, "condition_size": 1, "head_size": 1, "channels": 8, "kernel_size": 3, "dilations": [1, 2, 4, 8, 16, 32, 64, 128, 256, 512], "activation": "Tanh", "gated": false, "head_bias": true}], "head": null, "head_scale": 0.02}, "weights": [-0.20506049692630768, 0.536447286605835, -0.7589035630226135, -0.7737674117088318, -0.39759325981140137, 0.2844158709049225, -0.027481699362397194, 0.7659465670585632, -0.0351802334189415, 0.21976648271083832, -0.3923353850841522, -0.2823370397090912, -0.9980987906455994, -0.7099013328552246, -0.5146833658218384, 0.08797599375247955, 0.08118951320648193, 0.2775390148162842, -0.20595896244049072, -0.13581880927085876, -0.1509156972169876, 0.2308703511953354, 0.047840289771556854, 0.3135763704776764, -0.1252112239599228, 0.09015743434429169, 0.3331349194049835, -0.24373728036880493, -0.013989532366394997, 0.1700805127620697, -0.15936967730522156, 0.060389138758182526, -0.2881509065628052, 0.046658486127853394, -0.07644176483154297, -0.0024848247412592173, -0.24801671504974365, 0.04834693297743797, -0.1375769078731537, 0.17766240239143372, 0.06804663687944412, 0.07721850275993347, -0.09590218216180801, -0.20131492614746094, -0.2940410375595093, 0.03543712943792343, 0.1598731130361557, 0.2840484082698822, -0.1799759864807129, 0.07608132064342499, 0.30635958909988403, 0.03786638006567955, 0.1330825537443161, 0.22351622581481934, -0.010484614409506321, -0.009048931300640106, 0.23135167360305786, -0.21966248750686646, -0.026790523901581764, 0.13082051277160645, -0.04380128160119057, 0.017905008047819138, -0.26525643467903137, 0.17535912990570068, 0.00029641675064340234, 0.08607973903417587, 0.07096479088068008, 0.06176663562655449, -0.024229615926742554, 0.06609202176332474, -0.13931231200695038, 0.057096511125564575, 0.128764346241951, 0.09026223421096802, 0.23557983338832855, 0.19868656992912292, -0.0028910026885569096, -0.016088446602225304, 0.08536720275878906, -0.05707595869898796, -0.24479365348815918, 0.05908673256635666, 0.07390574365854263, -0.06131988763809204, 0.07790298014879227, 0.0035588156897574663, -0.13384394347667694, -0.13809294998645782, 0.06132611632347107, 0.026852518320083618, 0.14289629459381104, 0.09329406917095184, -0.01328978594392538, -0.026033133268356323, -0.17657151818275452, 0.016300318762660027, 0.14176639914512634, -0.0036424146965146065, -0.002089923480525613, -0.013955379836261272, 0.10679691284894943, 0.2075532227754593, 0.008766647428274155, -0.06395001709461212, -0.02447008527815342, 0.0709020122885704, -0.14136657118797302, -0.0010751273948699236, 0.0640731081366539, 0.06168816611170769, -0.19114872813224792, 0.023198846727609634, -0.11508894711732864, 0.1694999784231186, 0.22396861016750336, -0.04814538359642029, -0.025886528193950653, -0.11789081245660782, -0.045825086534023285, 0.029530012980103493, 0.1822921335697174, -0.06041344627737999, -0.07585464417934418, 0.19751450419425964, -0.20096617937088013, -0.0853528380393982, 0.09359432756900787, 0.002149738371372223, -0.043231330811977386, -0.24042059481143951, -0.09823523461818695, 0.02697732113301754, 0.04293355345726013, 0.060430750250816345, 0.10703644156455994, -0.14470413327217102, -0.029642583802342415, 0.018383679911494255, 0.18576543033123016, 0.15047571063041687, 0.13125623762607574, -0.03999321162700653, 0.06928301602602005, -0.01075240783393383, 0.005784325301647186, -0.13325265049934387, 0.09762740880250931, 0.1355201005935669, -0.13941088318824768, -0.11441484838724136, -0.0051269493997097015, -0.18809422850608826, -0.031010696664452553, 0.21168789267539978, 0.013398876413702965, -0.1378515064716339, 0.22642061114311218, -0.02962939441204071, -0.02005552314221859, -0.16876821219921112, -0.1250249147415161, 0.009615365415811539, -0.1069796159863472, -0.06556316465139389, -0.05209799110889435, 0.004637197125703096, -0.1317085176706314, 0.07571162283420563, -0.1352369785308838, -0.07147236168384552, 0.15239594876766205, -0.06168076768517494, 0.05928383022546768, 0.07093749940395355, -0.13745222985744476, 0.14949047565460205, -0.05122879520058632, -0.07041118294000626, 0.07608725875616074, -0.08064982295036316, 0.03882961720228195, 0.031929463148117065, 0.07863584905862808, 0.0433996208012104, 0.01543637178838253, 0.05994512513279915, -0.03982861712574959, 0.035794083029031754, -0.13897205889225006, 0.08341594785451889, 0.05158089101314545, 0.12784507870674133, -0.1007857695221901, -0.06358026713132858, -0.08028961718082428, -0.08715841174125671, -0.14774204790592194, 0.07334214448928833, -0.0897531509399414, -0.06812474876642227, 0.030019469559192657, 0.08869612962007523, -0.1762155145406723, -0.07631377130746841, -0.08875024318695068, 0.15776197612285614, -0.11549760401248932, 0.10016053169965744, 0.0328780934214592, -0.14167381823062897, 0.09776471555233002, 0.03851078823208809, 0.18504059314727783, -0.13179560005664825, -0.07244130223989487, -0.15197180211544037, -0.024611985310912132, -0.14385823905467987, -0.05042511597275734, -0.02251174859702587, -0.08058080077171326, -0.028510935604572296, 0.14140009880065918, 0.06211889535188675, 0.03391396626830101, -0.02806849591434002, -0.09981397539377213, -0.12449686974287033, 0.11133816838264465, 0.04844006523489952, 0.16890142858028412, 0.027104075998067856, -0.035759251564741135, 0.0057776495814323425, 0.1880888193845749, -0.026004541665315628, 0.22584980726242065, -0.19360235333442688, -0.12442929297685623, -0.12249230593442917, 0.1463421732187271, 0.03720109537243843, -0.22098393738269806, 0.09462715685367584, 0.004087001550942659, -0.30909964442253113, 0.19593384861946106, -0.188913494348526, -0.16729916632175446, 0.06797444820404053, -0.1421361118555069, -0.14983800053596497, 0.21563009917736053, -0.016614794731140137, 0.05313873291015625, -0.18668043613433838, -0.11597003787755966, 0.11121667921543121, 0.0319688580930233, -0.07467282563447952, -0.08962436020374298, -0.01647879369556904, 0.05800449848175049, 0.11896252632141113, 0.1503499299287796, -0.06769178807735443, -0.0319574810564518, 0.14404743909835815, 0.10460735857486725, 0.05190892145037651, 0.03309091180562973, -0.043611474335193634, -0.13798914849758148, -0.06061520054936409, -0.10813985019922256, -0.12088905274868011, 0.2317720353603363, -0.07377217710018158, -0.024155540391802788, -0.05888649821281433, -0.00881136767566204, -0.08180985599756241, -0.01847061887383461, 0.13395461440086365, 0.016618963330984116, 0.026407647877931595, -0.06841614097356796, 0.05148644745349884, 0.07170768827199936, -0.013543123379349709, -0.06430718302726746, 0.16920986771583557, 0.026899535208940506, 0.006161855533719063, 0.06942811608314514, -0.1070457175374031, 0.10935024917125702, -0.004246644210070372, 0.04376040771603584, -0.03428330644965172, 0.038234222680330276, 0.0475224070250988, -0.078569695353508, -0.06735377013683319, 0.005310276988893747, -0.14547359943389893, 0.19650359451770782, 0.11815717071294785, 0.11505765467882156, -0.2079767882823944, -0.17656643688678741, -0.08106988668441772, 0.22817671298980713, -0.10727105289697647, -0.0002645201457198709, 0.28433260321617126, -0.13021226227283478, -0.054985225200653076, 0.24112240970134735, 0.06432989239692688, 0.06167672574520111, -0.1656883805990219, -0.12727804481983185, 0.006907100323587656, 0.3274758756160736, 0.18425996601581573, 0.13782475888729095, -0.16673466563224792, 0.06251011788845062, -0.06348364800214767, 0.07464928925037384, -0.08341848850250244, 0.18373505771160126, -0.0905684307217598, -0.14985541999340057, 0.00952191837131977, 0.30489450693130493, 0.08918265253305435, 0.06729602813720703, 0.30672046542167664, -0.08770886808633804, -0.10565242916345596, 0.30490434169769287, 0.027447551488876343, -0.14040179550647736, 0.31762003898620605, 0.019641444087028503, 0.02672048658132553, 0.10321890562772751, 0.07421845942735672, -0.03088410198688507, -0.08995779603719711, 0.159996896982193, -0.2756330966949463, 0.06337431073188782, -0.03827684372663498, 0.26377955079078674, 0.031136514618992805, -0.0034855506382882595, -0.2725296914577484, -0.06530407071113586, -0.04211738705635071, -0.4223456084728241, 0.1530812382698059, 0.18323592841625214, -0.17019976675510406, 0.15336920320987701, -0.2353210300207138, 0.2007414549589157, -0.058654580265283585, 0.04811890795826912, -0.11900345981121063, -0.013114619068801403, -0.16745354235172272, 0.163749560713768, -0.11814164370298386, 0.19687700271606445, -0.09110406041145325, 0.15294784307479858, 0.010607417672872543, 0.41398483514785767, -0.07190712541341782, 0.17177391052246094, -0.17586420476436615, 0.09085548669099808, 0.24401600658893585, -0.2522292733192444, 0.1270519345998764, 0.04855804890394211, -0.23819370567798615, 0.05291900411248207, 0.06649190932512283, -0.3874591290950775, -0.04335837811231613, -0.0007748279604129493, -0.21338795125484467, 0.1471671611070633, -0.1549125462770462, 0.2060825079679489, 0.062978096306324, 0.02751571498811245, 0.08898768573999405, 0.02640116587281227, 0.2257552444934845, 0.03320254385471344, -0.18946599960327148, 0.049992263317108154, 0.13638384640216827, 0.026967069134116173, -0.008276771754026413, -0.05434440076351166, 0.060424599796533585, 0.03716975823044777, 0.03724546730518341, -0.019338330253958702, 0.04553132876753807, -0.06555282324552536, -0.10709633678197861, -0.06621148437261581, 0.16046832501888275, 0.10050805658102036, -0.000976028386503458, -0.02116992510855198, -0.014918575063347816, 0.027651173993945122, -0.07689476758241653, 0.09363143146038055, -0.02619040012359619, -0.0949973464012146, -0.03455960750579834, -0.19313588738441467, 0.08577442914247513, 0.2110552340745926, -0.0754808560013771, -0.060257893055677414, 0.03784726932644844, -0.05758119001984596, -0.08198089152574539, 0.1545635461807251, -0.21840442717075348, -0.10773511230945587, -0.05388709530234337, -0.11553248763084412, 0.13231463730335236, -0.046537674963474274, 0.232782781124115, -0.08005727082490921, -0.021874289959669113, 0.14428475499153137, -0.31366485357284546, 0.22212888300418854, 0.04537058621644974, 0.32651427388191223, -0.028727414086461067, -0.07451609522104263, -0.06408130377531052, 0.09955231100320816, 0.09502747654914856, -0.2970980703830719, 0.05782832205295563, -0.11353370547294617, -0.24094906449317932, 0.12497802823781967, -0.14424468576908112, 0.22508402168750763, -0.023519746959209442, 0.06372151523828506, -0.21072043478488922, 0.03104461170732975, -0.06729888170957565, 0.24313010275363922, 0.04442021623253822, 0.08761016279459, -0.12091770768165588, 0.15894263982772827, -0.16771873831748962, 0.04432611167430878, -0.03076779656112194, -0.0479651540517807, -0.10995972156524658, 0.005414741579443216, -0.03570788353681564, -0.3085305690765381, 0.17694538831710815, 0.010972854681313038, -0.07133703678846359, 0.18713054060935974, 0.10647953301668167, -0.17779764533042908, 0.054710518568754196, 0.005574308801442385, -0.1627759337425232, 0.17496833205223083, -0.1502070128917694, 0.3080316483974457, -0.13421806693077087, -0.1832592487335205, -0.26368334889411926, 0.08863363415002823, 0.20307545363903046, 0.03881007805466652, 0.1269804686307907, -0.004926356021314859, -0.09110523015260696, 0.09015515446662903, -0.15126124024391174, -0.1276703178882599, 0.03174571692943573, -0.11963300406932831, -0.12880106270313263, -0.07235146313905716, 0.1562160700559616, 0.1272658109664917, -0.030894169583916664, 0.0042403219267725945, -0.06895134598016739, -0.05422231927514076, 0.08682931959629059, 0.25642529129981995, 0.013693700544536114, -0.03295290842652321, -0.19138674437999725, 0.018151484429836273, -0.03158031776547432, 0.0849200114607811, -0.04431935399770737, 0.06355437636375427, -0.20839470624923706, -0.022393595427274704, -0.1487688422203064, -0.037629615515470505, 0.10880447924137115, -0.18309754133224487, -0.29105937480926514, -0.13779453933238983, -0.07604830712080002, -0.21194304525852203, -0.12352027744054794, -0.12412817031145096, -0.14705808460712433, -0.10171220451593399, 0.06711550801992416, 0.10450544208288193, -0.08122976124286652, -0.010444063693284988, 0.3134327232837677, -0.21491245925426483, -0.029515594244003296, -0.2591609060764313, 0.2790392339229584, -0.0955161303281784, 0.0672084242105484, 0.016796471551060677, -0.053847506642341614, 0.23085053265094757, -0.14745458960533142, 0.006142215803265572, 0.1721627563238144, -0.037143584340810776, -0.02154172770678997, -0.33452722430229187, 0.0476054884493351, -0.06538709998130798, 0.19945774972438812, -0.28755709528923035, 0.09761304408311844, -0.23301798105239868, 0.10643108189105988, 0.13463281095027924, 0.2047606259584427, -0.016413548961281776, 0.052934758365154266, -0.23150646686553955, 0.031201552599668503, 0.019554413855075836, 0.31721407175064087, -0.18942369520664215, -0.09180130809545517, 0.27574580907821655, 0.00444341916590929, -0.002726035425439477, 0.08443306386470795, -0.2632904648780823, 0.07311953604221344, 0.19201332330703735, -0.20646515488624573, 0.06013306975364685, 0.25744348764419556, -0.024905860424041748, 0.13246077299118042, -0.1790175884962082, 0.03648412972688675, -0.08596477657556534, 0.07096369564533234, 0.11914816498756409, 0.0432494692504406, -0.06687633693218231, 0.0679023489356041, 0.14936195313930511, 0.06790732592344284, -0.0609559528529644, -0.037744343280792236, -0.15786485373973846, 0.20251169800758362, -0.04740724712610245, -0.12774471938610077, 0.13786856830120087, -0.08710985630750656, -0.015765458345413208, -0.0788804292678833, -0.01058438140898943, -0.16246400773525238, 0.19910204410552979, -0.08026979863643646, 0.10831774771213531, 0.05907103791832924, 0.08453011512756348, -0.0055708629079163074, 0.214660182595253, -0.0034651325549930334, -0.019931497052311897, 0.06210237741470337, 0.05651776120066643, -0.1957271844148636, 0.029119310900568962, -0.08420553058385849, 0.05911554396152496, 0.034745167940855026, -0.11425836384296417, -0.06765371561050415, 0.1562931388616562, 0.05502333119511604, -0.013082161545753479, 0.07883884012699127, 0.07158329337835312, -0.0964384600520134, 0.008028313517570496, -0.1830153912305832, -0.07090190052986145, -0.02005237527191639, -0.19328486919403076, -0.11853273957967758, 0.08401080965995789, 0.09151791781187057, 0.011853930540382862, 0.07162453234195709, -0.17057184875011444, 0.008332820609211922, -0.05667662248015404, -0.11952600628137589, -0.029902830719947815, 0.0036223777569830418, 0.030573314055800438, -0.21377095580101013, -0.0640004500746727, 0.014288309030234814, 0.12550391256809235, 0.06754036247730255, -0.13080914318561554, -0.03564563766121864, 0.04727550223469734, 0.05288495868444443, 0.2133306860923767, -0.17381839454174042, -0.05084937810897827, 0.053976528346538544, 0.04664997011423111, 0.19107510149478912, 0.05650141090154648, 0.05303742364048958, -0.224211648106575, -0.1287936270236969, 0.03950762748718262, -0.051694877445697784, -0.06729306280612946, 0.16350898146629333, -0.10669951885938644, -0.11458111554384232, 0.16043324768543243, -0.12535609304904938, 0.01699403114616871, -0.03482016548514366, -0.10373158007860184, -0.12084246426820755, 0.12540049850940704, 0.176296666264534, 0.07376126199960709, -0.19089403748512268, 0.025175947695970535, 0.3047275245189667, -0.0004375058342702687, -0.0664382204413414, -0.1358228176832199, 0.21555863320827484, -0.010423798114061356, 0.08591718971729279, 0.030370745807886124, -0.1292974352836609, 0.2561653256416321, -0.05564122274518013, -0.08770732581615448, 0.27681267261505127, -0.20119589567184448, 0.06715177744626999, -0.3075113296508789, 0.05757759138941765, -0.013376708142459393, 0.3033384084701538, -0.17138387262821198, 0.1155877485871315, -0.23798984289169312, 0.005161838605999947, -0.1388472467660904, 0.03448660671710968, 0.07794052362442017, -0.007281435653567314, -0.20036275684833527, 0.11039852350950241, 0.06892465800046921, 0.3462778329849243, 0.03963926061987877, -0.11484592407941818, 0.22434253990650177, -0.15231560170650482, -0.1055796816945076, 0.2567146122455597, 0.06123053655028343, -0.13858115673065186, 0.31130391359329224, -0.14843712747097015, -0.05029255896806717, 0.3447067439556122, -0.10672066360712051, 0.05052386596798897, -0.3416152596473694, 0.18255510926246643, 0.15157362818717957, 0.055217061191797256, -0.10599314421415329, -0.2976016104221344, -0.2829129099845886, 0.1791735142469406, 0.30088162422180176, 0.11770880222320557, -0.09720654040575027, 0.31104135513305664, 0.25486794114112854, -0.24723777174949646, 0.16930438578128815, 0.11329445242881775, -0.28384047746658325, -0.1821381151676178, -0.042445965111255646, 0.29166606068611145, 0.1311807930469513, 0.130818709731102, -0.2781650722026825, -0.07599373906850815, -0.21522589027881622, 0.07048770785331726, 0.13871003687381744, 0.16977998614311218, -0.32185259461402893, -0.0378597229719162, -0.0867951512336731, 0.07201499491930008, 0.14891715347766876, 0.27479225397109985, -0.2909812927246094, 0.1586836725473404, 0.22227488458156586, -0.29349204897880554, 0.2652730941772461, 0.2328610122203827, -0.08107346296310425, 0.09361856430768967, 0.30011168122291565, -0.25762850046157837, 0.32869482040405273, 0.019591251388192177, -0.3046957850456238, -0.09372256696224213, -0.11886738240718842, 0.19401514530181885, -0.06311493366956711, -0.10629133880138397, -0.031106384471058846, -0.11564335227012634, 0.06268066167831421, 0.05335010960698128, 0.018704693764448166, -0.04805106297135353, 0.1236332505941391, 0.13322965800762177, -0.04618000611662865, -0.02671634405851364, -0.02168072946369648, -0.027771255001425743, 0.009384972974658012, -0.015075389295816422, 0.5499228835105896, -0.4981139898300171, 0.6695432662963867, -0.6973671913146973, -0.08650422096252441, 0.7979815006256104, 0.8102653622627258, -0.6138707995414734, 0.09763234853744507, 0.023073874413967133, -0.4397776424884796, -0.21478186547756195, 0.20773880183696747, -0.7567022442817688, 0.23967666923999786, 0.6009415984153748, -0.21012675762176514, 0.2509485185146332, 0.014545785263180733, 0.10689062625169754, 0.21486133337020874, -0.07940440624952316, 0.1485980600118637, 0.008462878875434399, -0.0064524332992732525, -0.033683039247989655, 0.1157020628452301, -0.08228333294391632, 0.029741110280156136, 0.1366923600435257, 0.20016609132289886, -0.24062195420265198, 0.13952605426311493, -0.1017204076051712, -0.2691155970096588, 0.020454004406929016, -0.11435094475746155, -0.13139969110488892, -0.21210967004299164, 0.11113116145133972, -0.09538623690605164, 0.1343628317117691, -0.022519422695040703, 0.06890188902616501, 0.08763173967599869, -0.19931241869926453, -0.010969232767820358, 0.4824119508266449, 0.001302827149629593, 0.049739714711904526, 0.09721602499485016, 0.09575334191322327, -0.13055847585201263, -0.09571793675422668, 0.11004848778247833, -0.12407005578279495, 0.025157876312732697, -0.07293668389320374, 0.32079315185546875, -0.22763574123382568, 0.07458661496639252, 0.14047233760356903, 0.07428249716758728, -0.12780417501926422, 0.12633059918880463, -0.21839949488639832, 0.02091863565146923, -0.19099092483520508, 0.05364495515823364, 0.13121071457862854, 0.05648680031299591, 0.05797925218939781, -0.1596623957157135, 0.10815653204917908, 0.06399589776992798, -0.07835463434457779, 0.14548711478710175, 0.18210987746715546, -0.24690012633800507, -0.10906892269849777, -0.15888306498527527, -0.2672802805900574, -0.20599523186683655, 0.1140231117606163, 0.11824630945920944, 0.16147838532924652, 0.11106188595294952, -0.2516739070415497, 0.10694820433855057, 0.2511614263057709, -0.11544574052095413, 0.25807279348373413, -0.07723088562488556, 0.10317159444093704, -0.0627034604549408, 0.05527553707361221, -0.23373062908649445, -0.033109042793512344, 0.029326600953936577, 0.029416102916002274, 0.22131246328353882, 0.168143630027771, 0.1733657270669937, 0.22070808708667755, 0.13772013783454895, -0.004297989420592785, -0.2569330930709839, -0.13592320680618286, -0.013067147694528103, -0.17865057289600372, -0.10399936139583588, 0.1689952164888382, 0.43842941522598267, 0.10031838715076447, 0.13793198764324188, 0.24704749882221222, -0.39205291867256165, -0.14980697631835938, 0.008369802497327328, -0.4090287685394287, 0.06263038516044617, -0.41843199729919434, -0.2243330031633377, 0.3691200613975525, 0.17145711183547974, -0.2429182529449463, 0.3854212164878845, 0.16326890885829926, 0.2324078232049942, 0.15634211897850037, 0.1888953596353531, -0.1916940063238144, -0.26116135716438293, 0.023762736469507217, 0.1988261491060257, 0.08989783376455307, 0.05720705911517143, -0.2742413580417633, 0.0924147218465805, -0.17659108340740204, 0.09015053510665894, -0.11312142759561539, -0.10795822739601135, 0.09500749409198761, 0.033972352743148804, -0.03434815630316734, -0.2543363571166992, -0.2534942924976349, -0.05086923763155937, -0.03884204104542732, -0.24411164224147797, -0.17412932217121124, -0.21158069372177124, -0.2687486410140991, 0.14336223900318146, 0.16705895960330963, 0.014618453569710255, -0.22028057277202606, 0.1421676129102707, 0.1887245923280716, -0.258384644985199, 0.04659823328256607, 0.15071149170398712, -0.22218464314937592, -0.1731533706188202, 0.0028879849705845118, 0.16027750074863434, -0.07938525080680847, 0.02924312837421894, 0.1643993854522705, 0.0423785001039505, 0.05294027179479599, 0.14468181133270264, 0.15662400424480438, -0.14408867061138153, -0.030239446088671684, 0.2040393203496933, 0.216812402009964, -0.2859545052051544, 0.14339092373847961, -0.21914492547512054, -0.15197862684726715, -0.024904150515794754, -0.21555666625499725, 0.03640679642558098, -0.24816809594631195, -0.16760365664958954, 0.06185261905193329, -0.09564154595136642, 0.12116561084985733, 0.1622256636619568, 0.2971262037754059, -0.18300671875476837, -0.1329372078180313, 0.1713743358850479, -0.06842783838510513, 0.17387177050113678, -0.1598944067955017, -0.024947334080934525, 0.29080942273139954, -0.022380998358130455, -0.08669345080852509, 0.12569019198417664, -0.33394572138786316, -0.03536243364214897, 0.13681170344352722, -0.43773239850997925, -0.4595847725868225, -0.16842277348041534, -0.07982231676578522, 0.126788929104805, 0.04323524609208107, 0.2144237458705902, -0.11971112340688705, 0.0356612429022789, 0.2781861424446106, 0.2531294524669647, 0.06171318143606186, 0.03444657102227211, 0.002073993906378746, 0.18500718474388123, -0.10229712724685669, -0.18264590203762054, -0.06735491007566452, -0.017331887036561966, -0.25609511137008667, -0.08266518265008926, 0.06306085735559464, -0.09058038145303726, 0.2128591239452362, 0.2032945305109024, 0.11519604921340942, 0.0031068893149495125, -0.04526994749903679, 0.062426045536994934, 0.0012328624725341797, -0.1423899531364441, -0.08635228127241135, -0.2647269666194916, 0.13362756371498108, -0.24299019575119019, 0.19611504673957825, -0.046335358172655106, -0.2140817493200302, 0.08064499497413635, -0.02471480518579483, 0.1229349747300148, 0.32343998551368713, -0.26496297121047974, 0.20333318412303925, 0.0937691405415535, -0.1539241373538971, 0.181404247879982, 0.14345695078372955, -0.38318437337875366, -0.17044073343276978, 0.2173382192850113, 0.06085211783647537, 0.18774722516536713, -0.1131657063961029, -0.11630166321992874, 0.2344622164964676, 0.06249282881617546, 0.15428587794303894, -0.08494119346141815, -0.1547246128320694, -0.040758341550827026, -0.21902206540107727, 0.06516221165657043, 0.12865468859672546, 0.06268022209405899, -0.007475242950022221, 0.1459473967552185, -0.16717791557312012, 0.17276519536972046, -0.1839560717344284, -0.10297040641307831, -0.03915977105498314, 0.13722161948680878, 0.00788668729364872, 0.049341339617967606, -0.10444094240665436, 0.08693692088127136, -0.03855551779270172, 0.046874649822711945, 0.11232554912567139, 0.0678340494632721, 0.014315608888864517, -0.11869864165782928, 0.030331017449498177, 0.04620841518044472, 0.32522550225257874, -0.06370200216770172, 0.09847152233123779, -0.12497381120920181, 0.02533823810517788, 0.10258422791957855, -0.11823736131191254, 0.005969681311398745, 0.00961795262992382, -0.018100671470165253, -0.048608846962451935, 0.13205714523792267, -0.007692867424339056, 0.01729772984981537, 0.05220054090023041, 0.05103488638997078, -0.25450554490089417, 0.08483292907476425, -0.026207933202385902, -0.0029357573948800564, -0.18821761012077332, 0.11550112813711166, -0.06640003621578217, -0.1234746053814888, -0.2667207717895508, 0.09111873060464859, -0.1272222399711609, 0.07430993020534515, -0.18846993148326874, 0.007939701899886131, -0.3434382975101471, 0.16390348970890045, 0.10481800138950348, -0.1979416459798813, 0.07038062065839767, -0.031107112765312195, -0.04048137739300728, 0.05055698752403259, -0.09618572145700455, -0.27935847640037537, 0.30878746509552, 0.10172056406736374, 0.0658552274107933, -0.020266946405172348, -0.07860325276851654, -0.03713443502783775, 0.024646881967782974, 0.2010011076927185, -0.10637176036834717, -0.014650224708020687, 0.019536511972546577, 0.004656128119677305, 0.045799192041158676, 0.2262933850288391, -0.10409586131572723, 0.06858275830745697, -0.07935687154531479, 0.11059518903493881, -0.08071694523096085, 0.15255963802337646, -0.19723814725875854, -0.19138357043266296, -0.06905528903007507, 0.2521226108074188, 0.003818343160673976, -0.010509957559406757, -0.049081284552812576, -0.20956604182720184, -0.09579198807477951, 0.04561499133706093, 0.11352278292179108, 0.009965760633349419, -0.004604960326105356, -0.06729001551866531, -0.19947686791419983, 0.20997796952724457, 0.193151593208313, 0.06863946467638016, -0.3305513560771942, -0.1182510182261467, 0.24851499497890472, 0.019851183518767357, 0.06796225905418396, 0.13739332556724548, 0.11053388565778732, 0.140439972281456, 0.08712932467460632, -0.049803946167230606, -0.02351723238825798, 0.0842723697423935, -0.047739386558532715, 0.10498599708080292, -0.1416437029838562, -0.12627655267715454, -0.06048804521560669, 0.026150032877922058, 0.2335580289363861, 0.16098423302173615, -0.08193818479776382, -0.07201018184423447, 0.050580982118844986, 0.10066346824169159, 0.15070277452468872, 0.02582717314362526, -0.06565878540277481, 0.11576776206493378, -0.06536631286144257, 0.12072665244340897, -0.09799779951572418, 0.1924150437116623, 0.04028506949543953, 0.23546729981899261, -0.2863374650478363, -0.003922922536730766, -0.04467877745628357, 0.00624792231246829, 0.018269477412104607, 0.03483223542571068, -0.24667954444885254, -0.04663143306970596, -0.118623286485672, 0.16241486370563507, -0.157537579536438, -0.017962727695703506, -0.33552753925323486, 0.14763395488262177, -0.11760679632425308, 0.15289811789989471, 0.04610367491841316, 0.031689438968896866, 0.025629844516515732, -0.046124525368213654, -0.012870811857283115, -0.06978739798069, 0.033992066979408264, -0.22394393384456635, 0.20491062104701996, 0.05926961451768875, -0.06085171550512314, 0.17049375176429749, 0.17363405227661133, -0.07145609706640244, -0.06412730365991592, 0.05993375554680824, -0.0646781325340271, 0.08034664392471313, -0.004366071429103613, 0.08242947608232498, -0.15680783987045288, -0.15056367218494415, 0.08994865417480469, 0.08789079636335373, -0.09582474827766418, -0.01406735461205244, -0.08108185976743698, -0.05058107525110245, -0.14414194226264954, 0.19033636152744293, 0.022467318922281265, 0.13848333060741425, 0.02108883298933506, 0.10155659914016724, -0.13971059024333954, 0.14423643052577972, 0.07155519723892212, 0.11663598567247391, -0.2600567936897278, -0.008925741538405418, 0.1285906285047531, -0.048882193863391876, 0.061123937368392944, 0.18302594125270844, -0.24356134235858917, 0.008516321890056133, 0.06780968606472015, 0.2155422866344452, 0.01043715700507164, 0.05580972135066986, 0.07205300033092499, -0.06771191954612732, 0.06689764559268951, -0.19679316878318787, -0.1362762451171875, -0.11686022579669952, -0.02375142276287079, 0.08564342558383942, 0.03067740984261036, 0.12320975959300995, 0.20589154958724976, -0.2938462197780609, -0.028613481670618057, 0.111165851354599, 0.32622256875038147, 0.20304511487483978, -0.02297179400920868, -0.2597818076610565, -0.008248833939433098, 0.007198464125394821, -0.11832239478826523, 0.058786600828170776, 0.10987862199544907, -0.047629185020923615, -0.08728255331516266, -0.09890949726104736, -0.17594149708747864, 0.1998729407787323, -0.05639689788222313, 0.2541747987270355, -0.2603173851966858, -0.02679125964641571, 0.05587606132030487, 0.23836654424667358, 0.09759485721588135, 0.2155827283859253, -0.0585484653711319, -0.0894031673669815, -0.18605630099773407, -0.03177349641919136, 0.03248485177755356, 0.2630251944065094, -0.22442860901355743, -0.012285158969461918, -0.3874327838420868, 0.2259705811738968, 0.17056404054164886, -0.39685532450675964, -0.25501397252082825, 0.08594439178705215, 0.03997442498803139, -0.07428745180368423, -0.022556215524673462, -0.30157098174095154, -0.031147290021181107, -0.0850571021437645, 0.08808837085962296, -0.00753669673576951, -0.0705534815788269, 0.0612720251083374, -0.18410633504390717, -0.18370480835437775, -0.30021312832832336, 0.09823784232139587, 0.05706538259983063, -0.021609392017126083, -0.1512284278869629, -0.12104956805706024, -0.043922342360019684, 0.03343329578638077, 0.013813523575663567, -0.09961886703968048, 0.036867108196020126, -0.02104400470852852, 0.16218656301498413, -0.10142605751752853, 0.07189363241195679, -0.008499001152813435, -0.06583598256111145, -0.06105080619454384, 0.11434678733348846, -0.06990686804056168, 0.2790452539920807, 0.009449854493141174, 0.16442134976387024, -0.0986223891377449, 0.243217334151268, -0.07245408743619919, 0.014610481448471546, -0.0397111251950264, 0.08422158658504486, -0.04842710867524147, 0.4672374129295349, -0.27314817905426025, -0.06368803977966309, 0.11811850219964981, -0.025994235649704933, -0.08831986039876938, -0.127266064286232, -0.16537342965602875, 0.04575170576572418, 0.12872561812400818, -0.15527677536010742, -0.33021438121795654, -0.03631310909986496, -0.004076521378010511, 0.08406176418066025, -0.10284729301929474, 0.14879493415355682, 0.09341168403625488, 0.26350975036621094, 0.18414077162742615, -0.04194900393486023, -0.11376172304153442, -0.01837526634335518, 0.2209693342447281, 0.14174990355968475, 0.024685503914952278, -0.01002050843089819, -0.05663017928600311, 0.12308675050735474, 0.052940841764211655, 0.14068852365016937, 0.19026672840118408, 0.10209369659423828, 0.2069500982761383, -0.2000923603773117, 0.08096698671579361, -0.016264401376247406, 0.11306527256965637, -0.09218724071979523, 0.07459766417741776, -0.19289185106754303, -0.1118340790271759, -0.019109515473246574, 0.09789277613162994, -0.012005281634628773, 0.13578909635543823, -0.1800931841135025, 0.08464762568473816, -0.3361091613769531, 0.2625613808631897, 0.07758153229951859, -0.0035314555279910564, 0.20131127536296844, 0.1870044767856598, 0.02452310174703598, 0.06679815798997879, -0.15051811933517456, -0.31018391251564026, 0.25605684518814087, 0.07744326442480087, -0.05749798193573952, -0.00894260872155428, -0.05126653239130974, -0.29486802220344543, 0.07169802486896515, 0.14974214136600494, 0.31059321761131287, -0.019298331812024117, -0.06707825511693954, -0.22605739533901215, 0.03227435424923897, 0.17585626244544983, -0.018526766449213028, -0.03776806592941284, -0.02450578100979328, 0.029664285480976105, -0.10679156333208084, -0.06160816550254822, 0.06280814111232758, 0.012012731283903122, -0.08253134042024612, 0.11207086592912674, -0.2059231400489807, 0.03272983804345131, 0.029741564765572548, -0.023147933185100555, -0.09561453014612198, 0.12476945668458939, -0.2257729321718216, 0.13840918242931366, 0.02137736603617668, 0.1627189964056015, -0.0657406821846962, 0.2074679136276245, -0.2390289604663849, 0.021972160786390305, -0.2932625710964203, 0.1366305649280548, 0.1115754023194313, -0.1682373583316803, 0.04041118919849396, -0.0030688706319779158, -0.10192953795194626, -0.03967360407114029, -0.12270255386829376, -0.16690662503242493, 0.23288309574127197, 0.16695722937583923, -0.050465550273656845, 0.04980849102139473, 0.032899703830480576, 0.21714386343955994, 0.14865051209926605, 0.003979138098657131, -0.19171610474586487, -0.141781747341156, -0.10781259834766388, 0.16859939694404602, 0.07245587557554245, 0.24403436481952667, 0.06615597754716873, -0.019735435023903847, -0.08291356265544891, 0.07286874949932098, 0.033795833587646484, -0.007549678441137075, -0.1435655951499939, 0.009490696713328362, -0.13395023345947266, 0.037743426859378815, 0.030810698866844177, 0.06749466806650162, -0.13911676406860352, -0.10942793637514114, -0.009065864607691765, -0.01650170423090458, -0.056820061057806015, 0.25437071919441223, -0.009954914450645447, 0.08789505064487457, -0.1707497090101242, 0.0404023751616478, -0.02420666627585888, 0.04018073529005051, 0.14660078287124634, -0.018994929268956184, 0.15600845217704773, 0.0004468618135433644, 0.12339652329683304, 0.1295650750398636, -0.0069548506289720535, -0.04197225347161293, -0.06793241202831268, 0.0348961241543293, -0.1498219519853592, 0.08077231049537659, -0.052211202681064606, -0.1122012585401535, -0.218109130859375, 0.07862836122512817, 0.0765947476029396, -0.03296922892332077, -0.07349777221679688, 0.07587974518537521, 0.10449977964162827, -0.13120603561401367, -0.0031541273929178715, 0.002323990920558572, -0.0787348747253418, 0.10982730984687805, -0.03669912740588188, 0.09910991042852402, -0.010003373958170414, -0.041575800627470016, -0.0014817222254350781, -0.08178981393575668, 0.11051584780216217, 0.013900664635002613, 0.06828830391168594, -0.011544634588062763, -0.06318187713623047, 0.0118158720433712, 0.20165054500102997, -0.0336352176964283, 0.18530960381031036, -0.012161855585873127, -0.09229454398155212, -0.11694558709859848, 0.08215809613466263, -0.17290616035461426, 0.09764349460601807, 0.013811096549034119, 0.08616761863231659, -0.17912083864212036, 0.15938429534435272, -0.08290491253137589, -0.09725633263587952, -0.08102377504110336, -0.10631342232227325, 0.05667658895254135, 0.04273420199751854, -0.0662466362118721, -0.1762954741716385, 0.13587403297424316, -0.05275099724531174, -0.03132648393511772, -0.13300561904907227, -0.007488152477890253, 0.13037404417991638, -0.0348675362765789, -0.14363707602024078, 0.06213296949863434, -0.1744806319475174, 0.044399064034223557, 0.049616675823926926, 0.13800013065338135, -0.12004853039979935, -0.025542907416820526, -0.0021545004565268755, -0.0177947748452425, 0.021394455805420876, -0.11258244514465332, 0.020707767456769943, 0.041256133466959, 0.004467380233108997, -0.06035441905260086, 0.12089449167251587, 0.18903473019599915, -0.08182987570762634, 0.03309989348053932, 0.05082055181264877, 0.02292453683912754, 0.06001283973455429, 0.1539633870124817, -0.08042757958173752, -0.20118561387062073, -0.09825078397989273, 0.17541709542274475, 0.023339616134762764, -0.03719739243388176, -0.01603858359158039, 0.01248512975871563, -0.14586913585662842, 0.10157901793718338, 0.04739418998360634, 0.07800910621881485, 0.08365505933761597, -0.023324143141508102, 0.07437159866094589, 0.06824146211147308, 0.06757227331399918, -0.04995124787092209, -0.03507116809487343, -0.16329199075698853, 0.05319809168577194, 0.13810068368911743, -0.03653493896126747, -0.14500926434993744, -0.03169003129005432, -0.014551714062690735, -0.20643004775047302, -0.04442169889807701, 0.09987694770097733, 0.024986887350678444, 0.03537276014685631, 0.01641700603067875, -0.034675151109695435, 0.030296238139271736, 0.019200896844267845, -0.13360609114170074, -0.04045214131474495, 0.20997220277786255, 0.20822280645370483, -0.027421336621046066, -0.12707620859146118, 0.030933266505599022, 0.1292356699705124, 0.24644003808498383, 0.23104649782180786, 0.1381910741329193, -0.14765319228172302, -0.19654260575771332, -0.22963836789131165, 0.059113338589668274, -0.02589493803679943, -0.06702640652656555, -0.09314215928316116, -0.2751842439174652, -0.09264101088047028, 0.09610811620950699, -0.1097312793135643, -0.05292321369051933, -0.15144596993923187, -0.004862298723310232, 0.18695786595344543, 0.05640837922692299, -0.03948359191417694, 0.1126403734087944, -0.029046811163425446, -0.18676656484603882, -0.1778162568807602, -0.007275646552443504, 0.12325181812047958, -0.06379272788763046, 0.014225814491510391, -0.14125016331672668, 0.06496253609657288, 0.06337177753448486, -0.03075988031923771, 0.09144045412540436, 0.07439784705638885, -0.10749512910842896, -0.012402242980897427, 0.03284762054681778, -0.035877201706171036, 0.12524034082889557, -0.045798949897289276, -0.1456582248210907, -0.0454736165702343, -0.19151203334331512, 0.18091966211795807, -0.12772859632968903, -0.02010323479771614, -0.07555833458900452, -0.09723177552223206, -0.12006666511297226, 0.1380772888660431, -0.12709450721740723, 0.14273212850093842, 0.07095565646886826, 0.020412186160683632, 0.0025629247538745403, -0.06299791485071182, 0.05962008610367775, 0.22747394442558289, -0.031922418624162674, 0.2368766963481903, -0.30845385789871216, -0.046624764800071716, 0.055337682366371155, -0.12906132638454437, 0.10645216703414917, -0.050059106200933456, -0.02647445723414421, -0.09541096538305283, 0.10370219498872757, -0.20528924465179443, -0.017470967024564743, 0.0366361141204834, 0.0870947614312172, 0.04554872587323189, -0.08187995105981827, 0.06082477793097496, -0.0483396016061306, 0.06966155022382736, -0.00683246087282896, 0.10016123205423355, 0.025001665577292442, -0.07440945506095886, -0.02697000838816166, -0.06790271401405334, 0.008202980272471905, 0.011806415393948555, -0.052550364285707474, 0.04916170984506607, 0.09641984850168228, -0.051903437823057175, -0.0014359037159010768, -0.12948380410671234, -0.09039206802845001, 0.08627341687679291, 0.06447912007570267, 0.16123194992542267, 0.022581927478313446, 0.006494271568953991, -0.022835884243249893, -0.13239774107933044, 0.1216113492846489, 0.13112108409404755, -0.07023964077234268, 0.15746189653873444, -0.09563296288251877, -0.007939266040921211, -0.03005850687623024, 0.187543585896492, 0.19856466352939606, -0.1463019698858261, -0.18341973423957825, -0.023584555834531784, -0.11796385794878006, 0.04169078543782234, 0.05768655240535736, -0.13528960943222046, -0.055926669389009476, -0.028839223086833954, -0.2152831107378006, -0.03939654678106308, -0.03804577514529228, 0.08534091711044312, -0.12316570430994034, 0.03757736459374428, -0.10933028161525726, -0.004044993314892054, 0.13342325389385223, 0.021883783861994743, -0.09937877207994461, 0.11161859333515167, 0.015237553976476192, -0.005267312750220299, -0.023611977696418762, 0.019536908715963364, 0.014853887259960175, 0.14469946920871735, 0.041449174284935, 0.2255786508321762, -0.04686034470796585, -0.08700927346944809, -0.02232598513364792, 0.08587227016687393, 0.08715064823627472, 0.05216202512383461, -0.032174620777368546, -0.13844045996665955, -0.021220548078417778, -0.14797118306159973, -0.03963656723499298, -0.03894340246915817, -0.07422178238630295, 0.13264642655849457, -0.09612786024808884, 0.08599881082773209, 0.13263821601867676, 0.030649198219180107, 0.09875893592834473, 0.0778561532497406, 0.041059043258428574, 0.05173664540052414, 0.03828034922480583, -0.06491883844137192, -0.042896922677755356, -0.04711189866065979, -0.14822064340114594, 0.02110014297068119, -0.10881394147872925, 0.18681937456130981, 0.018293052911758423, -0.019718782976269722, -0.03192826732993126, 0.04565352573990822, -0.22302518784999847, -0.04586260765790939, 0.03978237509727478, 0.11762244999408722, 0.04962550476193428, 0.0515655092895031, -0.028465548530220985, 0.011457936838269234, 0.04939484968781471, -0.1376354843378067, -0.06456415355205536, 0.019061096012592316, -0.035411957651376724, 0.03309189900755882, -0.2397533804178238, 0.032901208847761154, -0.08050468564033508, 0.22064368426799774, -0.225006565451622, 0.07705020904541016, -0.20389853417873383, -0.007909800857305527, -0.206784188747406, 0.05644969269633293, -0.010199176147580147, -0.009909626096487045, 0.07024028897285461, 0.1926126629114151, -0.14493818581104279, 0.23890596628189087, -0.14879003167152405, 0.18567243218421936, -0.1943209171295166, -0.017108138650655746, -0.05946898087859154, -0.1348050832748413, -0.044803448021411896, -0.0077334921807050705, 0.1363050490617752, -0.09363521635532379, 0.17800137400627136, -0.2057875543832779, -0.01718689315021038, 0.02747795544564724, 0.10744792968034744, 0.09580497443675995, 0.10903775691986084, 0.09786371886730194, -0.051634617149829865, 0.08278538286685944, -0.12532992660999298, 0.11640823632478714, 0.11601147800683975, 0.09601280838251114, -0.026938578113913536, -0.05573268607258797, 0.05898026376962662, 0.10991505533456802, 0.08675280958414078, 0.023554028943181038, 0.059900857508182526, -0.02992098778486252, -0.3466435372829437, 0.14086130261421204, 0.2400692105293274, -0.5634976625442505, 0.1759212762117386, -0.6331778168678284, -0.32618775963783264, -0.4333093762397766, 0.7756716012954712, -0.8046786785125732, -0.6219696998596191, -0.753221869468689, 0.262869268655777, -0.7601340413093567, 0.287273108959198, -0.6196923851966858, -0.18089087307453156, -0.08782044053077698, 0.006227805279195309, 0.16874560713768005, 0.11122681200504303, -0.021094975993037224, -0.2855854630470276, -0.13157810270786285, -0.07658637315034866, -0.042512714862823486, 0.12883025407791138, 0.1573108285665512, 0.08189915120601654, 0.07915756851434708, 0.006679953541606665, 0.005349995102733374, -0.10269668698310852, -0.14430676400661469, -0.13197840750217438, -0.04521995037794113, -0.4854607582092285, 0.3022043704986572, -0.2557111978530884, -0.33956965804100037, 0.11731578409671783, -0.13268639147281647, 0.12962540984153748, 0.2744782269001007, 0.14837652444839478, 0.090937040746212, 0.00532726151868701, 0.27163460850715637, -0.3524988889694214, -0.17000676691532135, -0.16945546865463257, 0.1784779131412506, -0.23718103766441345, 0.32092729210853577, -0.3909783661365509, -0.2549717128276825, -0.08257640898227692, 0.08558671176433563, -0.1475500911474228, -0.22215577960014343, 0.31318843364715576, 0.15345126390457153, 0.08606904745101929, 0.14472897350788116, 0.05120440572500229, 0.11279774457216263, -0.2586187720298767, -0.1753406524658203, -0.1669657975435257, 0.07082856446504593, -0.18301931023597717, -0.1432931274175644, -0.09270491451025009, 0.11197513341903687, 0.06273730099201202, 0.25154179334640503, 0.3377187252044678, -0.2595535218715668, -0.05947726219892502, 0.10810906440019608, 0.28555914759635925, 0.03780196234583855, -0.17276455461978912, -0.16341637074947357, 0.07187683880329132, -0.04957682639360428, -0.07223618775606155, 0.21449610590934753, 0.26575687527656555, -0.032755326479673386, -0.00908000860363245, 0.2157781571149826, -0.04092814028263092, -0.005763024557381868, -0.1526619791984558, -0.16222454607486725, -0.22081130743026733, -0.06435862183570862, -0.3313567042350769, -0.13973629474639893, 0.008691600523889065, -0.12375500798225403, -0.1939721703529358, -0.18805551528930664, 0.21032659709453583, 0.2730965316295624, -0.027341261506080627, -0.19072206318378448, -0.08908429741859436, -0.03163180127739906, -0.027123363688588142, 0.12401080131530762, 0.08583313226699829, -0.18101166188716888, 0.19645698368549347, -0.1516416370868683, 0.18015305697917938, 0.20999394357204437, -0.3382207155227661, -0.16590963304042816, 0.05405948683619499, -0.11225264519453049, -0.2621453106403351, 0.13708136975765228, 0.09302113205194473, -0.12844213843345642, -0.112240731716156, 0.17284142971038818, 0.12239174544811249, 0.06443583965301514, 0.014971070922911167, 0.038194965571165085, 0.16302073001861572, -0.10314352065324783, -0.08755087852478027, 0.08342089504003525, 0.011853567324578762, 0.3039264380931854, -0.1604335457086563, 0.035882361233234406, -0.16805751621723175, 0.17802885174751282, 0.12137772887945175, 0.09498321264982224, -0.023809416219592094, 0.1302838921546936, -0.17993734776973724, -0.12239216268062592, -0.2660599648952484, -0.1756037324666977, 0.015828140079975128, -0.09954848885536194, -0.08539470285177231, -0.0029926819261163473, 0.18621894717216492, -0.1000896468758583, -0.02732851170003414, 0.07876507192850113, -0.012845102697610855, 0.2595651149749756, -0.007905020378530025, 0.004504126962274313, 0.021642781794071198, 0.09777168929576874, 0.26600366830825806, -0.10024960339069366, 0.23842133581638336, -0.014246667735278606, 0.026608183979988098, -0.013376912102103233, 0.1620221883058548, 0.21477359533309937, 0.1269225776195526, 0.04112963750958443, 0.08550845831632614, -0.16634255647659302, -0.07463498413562775, -0.12959197163581848, -0.09375496208667755, 0.09645452350378036, 0.03709574416279793, -0.17336338758468628, 0.0478653647005558, 0.06724864989519119, 0.09194659441709518, 0.14693446457386017, -0.22254644334316254, 0.10399959981441498, 0.0710129588842392, -0.04133414849638939, -0.04940462112426758, 0.04417502507567406, 0.11690579354763031, 0.24181921780109406, -0.32015466690063477, -0.05883609503507614, -0.19816187024116516, -0.05943981185555458, 0.14081650972366333, 0.178488090634346, -0.16487644612789154, 0.17613235116004944, 0.29382777214050293, -0.14967603981494904, 0.023573357611894608, 0.07929396629333496, 0.04466170072555542, -0.03161980211734772, -0.09126477688550949, -0.18159885704517365, -0.24835588037967682, 0.25886520743370056, 0.05950404331088066, -0.031000038608908653, -0.06103024631738663, 0.18767589330673218, -0.24504011869430542, -0.04274527728557587, -0.19012005627155304, -0.21444839239120483, 0.24719810485839844, -0.13682293891906738, 0.0316726453602314, -0.008204522542655468, 0.13619720935821533, 0.08605530112981796, -0.15634624660015106, 0.2889701724052429, -0.2646973133087158, -0.10909900814294815, 0.10259362310171127, 0.06599898636341095, 0.028732169419527054, 0.17613287270069122, 0.017533499747514725, -0.020902246236801147, 0.14534549415111542, 0.053715407848358154, 0.0682305321097374, -0.12568975985050201, -0.0015724097611382604, 0.19956108927726746, -0.08226358145475388, -0.08306735008955002, -0.32895880937576294, -0.06867864727973938, 0.05417071282863617, -0.06364644318819046, -0.08063173294067383, 0.12298190593719482, -0.10836157202720642, 0.01876962184906006, 0.016773400828242302, 0.1813117116689682, 0.1684368997812271, 0.2390272617340088, 0.2956372797489166, -0.22208857536315918, -0.041851192712783813, -0.012192871421575546, -0.06982936710119247, 0.014741738326847553, -0.0020463482942432165, 0.19857880473136902, 0.2593897581100464, -0.1984792947769165, 0.2013021558523178, 0.07520081847906113, -0.21814881265163422, 0.26458707451820374, -0.08277720212936401, -0.19322670996189117, -0.0627693459391594, -0.0024780931416898966, -0.02260798215866089, -0.05241978168487549, -0.1246785968542099, -0.0033457365352660418, 0.12389688938856125, 0.18511782586574554, 0.06070224195718765, 0.06223878636956215, 0.038065798580646515, -0.21156682074069977, 0.041255269199609756, -0.28643983602523804, -0.14381316304206848, -0.058016326278448105, 0.32170748710632324, -0.05561907961964607, -0.17784295976161957, -0.06963898986577988, -0.13592378795146942, -0.03158968687057495, 0.08846310526132584, 0.017726222053170204, -0.0922214537858963, -0.0571260079741478, -0.1305147260427475, 0.008013023994863033, 0.17694111168384552, 0.011532525531947613, -0.08344367146492004, 0.13194194436073303, 0.08141691237688065, 0.03536766394972801, -0.16160213947296143, -0.033456649631261826, 0.045615751296281815, 0.03791934996843338, 0.04056699946522713, -0.15705768764019012, -0.25751063227653503, 0.06067926436662674, 0.03699949383735657, 0.14671073853969574, 0.04671304300427437, -0.046792369335889816, -0.2113509476184845, 0.021374788135290146, -0.04470749571919441, -0.2820587158203125, 0.07619982212781906, 0.06614809483289719, -0.06288355588912964, 0.001162651926279068, 0.10910820215940475, -0.25992193818092346, 0.06815477460622787, -0.020240651443600655, -0.026575550436973572, 0.06791263818740845, -0.19517965614795685, 0.145742729306221, -0.20947623252868652, -0.0738585963845253, -0.17315448820590973, -0.10281413793563843, 0.16599372029304504, 0.07606767863035202, 0.15950684249401093, -0.11901309341192245, 0.07331086695194244, 0.06987413763999939, 0.15583141148090363, 0.02446887269616127, -0.08094716817140579, -0.16352029144763947, 0.1121620386838913, -0.05065128952264786, 0.016356294974684715, -0.03968888521194458, 0.011440274305641651, -0.11120843142271042, 0.10401492565870285, -0.1542212963104248, 0.04550634324550629, -0.08499596267938614, -0.04917895048856735, 0.024834968149662018, 0.1109546646475792, -0.026378463953733444, -0.224639430642128, 0.06894327700138092, 0.16034749150276184, 0.1294514685869217, 0.19742056727409363, 0.04073013737797737, -0.09386297315359116, -0.06707332283258438, -0.11945595592260361, -0.09719161689281464, -0.07467148452997208, 0.01998346671462059, -0.10284779965877533, 0.07930561155080795, 0.006644691340625286, -0.1831568032503128, 0.00489713903516531, 0.10368062555789948, 0.11043934524059296, 0.12130971997976303, 0.05438029021024704, 0.0818340852856636, 0.02372867986559868, -0.09323986619710922, -0.1539299339056015, 0.30525290966033936, -0.4705909490585327, 0.06859462708234787, 0.31977343559265137, -0.05993378162384033, 0.16025282442569733, -0.09851706773042679, -0.026841115206480026, 0.12898118793964386, -0.06640858948230743, -0.1219894140958786, -0.010644364170730114, 0.1065451130270958, -0.08169040083885193, 0.051564548164606094, 0.10073329508304596, 0.11117114871740341, 0.08554143458604813, -0.10176797211170197, 0.10424817353487015, 0.026496613398194313, 0.10358292609453201, -0.028522461652755737, 0.05238979682326317, -0.08607213199138641, 0.11227495968341827, -0.1504422426223755, -0.08950190246105194, 0.04107324779033661, -0.005795406177639961, 0.09873442351818085, 0.15069961547851562, 0.044000789523124695, 0.1889743208885193, 0.08185823261737823, 0.04519440978765488, -0.008072735741734505, -0.049873679876327515, 0.1089455708861351, 0.27533024549484253, -0.04660974070429802, -0.011180142872035503, -0.09779563546180725, -0.07518113404512405, -0.014729511924088001, -0.21587978303432465, -0.044016625732183456, 0.26926174759864807, -0.059911035001277924, 0.03045099601149559, 0.04990982264280319, -0.03745357319712639, 0.06307012587785721, -0.04808957874774933, 0.15981100499629974, 0.06563214212656021, -0.15947432816028595, 0.02638077363371849, -0.014159701764583588, -0.005550025962293148, -0.09345303475856781, -0.09816140681505203, 0.09304992854595184, 0.11140024662017822, -0.1193232387304306, -0.16199947893619537, -0.045636218041181564, 0.02027742564678192, 0.09945536404848099, 0.13265977799892426, 0.05570831149816513, 0.017051314935088158, -0.1451895833015442, -0.08269517868757248, -0.14945156872272491, 0.09557856619358063, 0.02802920527756214, -0.029350144788622856, 0.22404931485652924, 0.04792128875851631, -0.15324944257736206, 0.00038970375317148864, -0.036363016813993454, -0.09113752096891403, 0.2647373080253601, -0.005115947686135769, 0.05926384776830673, 0.06593053787946701, -0.003195366123691201, 0.16308628022670746, -0.16071024537086487, 0.09951340407133102, 0.12617279589176178, 0.2118472009897232, -0.11904314160346985, -0.04840544983744621, -0.06781768798828125, -0.13438811898231506, -0.050062332302331924, 0.1685815453529358, -0.07273120433092117, -0.2025909125804901, 0.016346566379070282, 0.0930074155330658, -0.04603399708867073, -0.1302489936351776, -0.0047226292081177235, -0.09582784026861191, 0.07478256523609161, -0.06484722346067429, -0.11380200833082199, -0.18266119062900543, -0.12546955049037933, 0.1007334515452385, -0.03404143452644348, -0.05577268451452255, 0.03637359291315079, -0.04802209883928299, -0.1907498985528946, 0.13347385823726654, 0.11950212717056274, 0.2238398790359497, 0.07862523943185806, -0.08740612864494324, -0.04606984183192253, 0.11521659046411514, -0.035850878804922104, -0.023780016228556633, -0.11966576427221298, 0.04956333711743355, 0.05910670757293701, 0.047480978071689606, -0.10690241307020187, -0.16765616834163666, 0.15441428124904633, -0.04063909500837326, -0.20660310983657837, 0.058481018990278244, 0.03816302865743637, 0.1034737229347229, -0.11565868556499481, 0.12201153486967087, 0.07713618129491806, -0.030841877683997154, 0.22426436841487885, -0.07987966388463974, 0.0029778522439301014, 0.029740754514932632, -0.08681464195251465, -0.01531496923416853, 0.06042978912591934, -0.09366066753864288, 0.04611944779753685, -0.019914841279387474, -0.04903123527765274, 0.08928725123405457, -0.12547926604747772, -0.03500382602214813, 0.15160465240478516, -0.06873811781406403, 0.052209191024303436, -0.008506684564054012, -0.1859699785709381, -0.12008693814277649, 0.10546712577342987, 0.16999123990535736, -0.02494630217552185, -0.19652657210826874, -0.1770101934671402, 0.014522122219204903, 0.02712794952094555, 0.1426646113395691, 0.03204536437988281, -0.07106786221265793, 0.09337503463029861, 0.15771828591823578, 0.026668598875403404, 0.14128504693508148, -0.06767429411411285, -0.1283983290195465, 0.06934107095003128, 0.015934746712446213, -0.050012677907943726, 0.09832275658845901, -0.012182257138192654, -0.08292330056428909, 0.0580989308655262, -0.08623916655778885, 0.06078815832734108, -0.04361357539892197, -0.1277080923318863, -0.11422153562307358, 0.06426627188920975, 0.023699292913079262, 0.015345736406743526, 0.21303962171077728, -0.005006331950426102, -0.12374408543109894, -0.07576116919517517, 0.11365461349487305, 0.06984951347112656, 0.0018944131443277001, -0.0635455995798111, 0.02751960977911949, 0.0065696644596755505, 0.1461075395345688, 0.022634778171777725, 0.016218997538089752, 0.08614436537027359, -0.011100223287940025, 0.15142744779586792, 0.0825163945555687, -0.12479855865240097, -0.19601590931415558, -0.033885449171066284, 0.16479235887527466, -0.031024791300296783, 0.12892897427082062, -0.09084944427013397, -0.23102416098117828, 0.023303644731640816, -0.0358213447034359, -0.06305180490016937, -0.12151449918746948, -0.02282099425792694, -0.08097362518310547, -0.09534556418657303, 0.10200320929288864, -0.07979264855384827, -0.09099289029836655, 0.08569595962762833, -0.11349310725927353, 0.007311221677809954, 0.07232560962438583, 0.2085379958152771, -0.1839599907398224, 0.009344613179564476, -0.003019843716174364, 0.18599092960357666, -0.022848015651106834, 0.2926863133907318, 0.005173455458134413, -0.009369770996272564, 0.04179125651717186, 0.10766225308179855, 0.032782670110464096, -0.010562598705291748, -0.016976583749055862, -0.015147927217185497, -0.14193415641784668, 0.057169243693351746, -0.009238004684448242, -0.026830658316612244, 0.06793653964996338, 0.07660689949989319, -0.013997904025018215, -0.024364212527871132, -0.01816375181078911, -0.20546622574329376, 0.0796738862991333, 0.0203012116253376, 0.1635562777519226, 0.11047974973917007, -0.15751372277736664, -0.25002461671829224, 0.05608002468943596, -0.10613404214382172, 0.24890857934951782, -0.11474638432264328, -0.09967020153999329, 0.024595392867922783, -0.06859955936670303, -0.1373417228460312, 0.03261146321892738, -0.005582334473729134, 0.10844878107309341, 0.028472986072301865, -0.10363071411848068, -0.08267052471637726, 0.18797701597213745, -0.06507281959056854, -0.003438544226810336, -0.16960768401622772, -0.12588156759738922, 0.0013275300152599812, -0.06550801545381546, -0.08817198872566223, 0.10088430345058441, 0.20759467780590057, 0.20427513122558594, 0.024707460775971413, 0.07848874479532242, 0.2975679636001587, 0.02841065265238285, 0.033205728977918625, 0.18044854700565338, 0.11617588251829147, -0.12265362590551376, -0.023455936461687088, 0.0022568083368241787, -0.10978572070598602, -0.06412898004055023, -0.05660747364163399, 0.10197743028402328, 0.04713360592722893, -0.04708477854728699, 0.010691841132938862, -0.1379280686378479, 0.005109002813696861, 0.10440981388092041, -0.022908542305231094, 0.012299902737140656, -0.031220244243741035, -0.032280001789331436, 0.10457993298768997, 0.05611972510814667, 0.08719351887702942, -0.16929595172405243, -0.06002836301922798, -0.07189631462097168, -0.030161811038851738, -0.1462811976671219, 0.09009154140949249, 0.029858646914362907, 0.06554330140352249, 0.04358374699950218, 0.06093287467956543, 0.09315161406993866, 0.04306843876838684, -0.008541548624634743, 0.14429683983325958, -0.08517683297395706, -0.015846937894821167, 0.010513189248740673, -0.12274513393640518, -0.13116976618766785, -0.07421331852674484, 0.22847899794578552, 0.05572843924164772, -0.06773697584867477, 0.017213305458426476, -0.012968035414814949, -0.18645136058330536, -0.06368102878332138, -0.09019804745912552, -0.02022680640220642, -0.012839308008551598, -0.0159487035125494, -0.08450585603713989, -0.039973288774490356, -0.07728186994791031, -0.2032751739025116, -0.00022112467559054494, -0.19027356803417206, 0.14261429011821747, -0.17061415314674377, -0.10931964963674545, -0.1564866155385971, -0.14880041778087616, 0.08641123026609421, 0.2363203912973404, -0.09796706587076187, 0.042970847338438034, -0.02588007226586342, 0.06723251938819885, -0.053503889590501785, -0.2938337028026581, 0.13239969313144684, -0.11093862354755402, -0.04929851368069649, 0.09299678355455399, 0.05818646401166916, -0.1641601026058197, -0.07022891193628311, 0.036379892379045486, -0.30991092324256897, 0.021045610308647156, -0.2794210910797119, 0.07318093627691269, 0.02088358998298645, -0.11379998922348022, -0.10391294211149216, -0.0505855493247509, 0.008240153081715107, 0.00012421513383742422, 0.24921000003814697, 0.2113090604543686, -0.05486888810992241, 0.21538925170898438, 0.0744367316365242, 0.058554746210575104, 0.16753685474395752, 0.08460646867752075, 0.17755496501922607, -0.1284123957157135, 0.06272147595882416, -0.012694396078586578, 0.2087782621383667, 0.059316765516996384, 0.14617449045181274, 0.15011820197105408, -0.13010510802268982, -0.006729125510901213, 0.027752231806516647, 0.028170717880129814, 0.02962529845535755, 0.13168883323669434, -0.03567522019147873, -0.1001882329583168, -0.09869664907455444, 0.04461295157670975, 0.13595378398895264, 0.027535613626241684, 0.028298599645495415, 0.15100985765457153, 0.10999903082847595, 0.08023059368133545, 0.03557027876377106, 0.06556548178195953, -0.030439630150794983, 0.1803111881017685, -0.05882992595434189, -0.07438794523477554, 0.0067333257757127285, 0.3031207025051117, -0.2125939577817917, -0.004670220427215099, -0.4842926859855652, -0.17901459336280823, 0.13198226690292358, -0.058880798518657684, 0.03198258578777313, -0.10508748888969421, 0.044589146971702576, 0.049703698605298996, 0.04187304526567459, 0.05691598728299141, 0.043302975594997406, -0.17891372740268707, 0.05068375915288925, 0.16492022573947906, 0.06039367616176605, -0.0402831956744194, -0.007407261990010738, -0.049241647124290466, -0.10221031308174133, -0.0929357185959816, -0.06701481342315674, 0.1364952176809311, 0.14724133908748627, 0.20302218198776245, -0.0607626810669899, -0.16032764315605164, -0.2744317054748535, 0.03141486644744873, -0.06601313501596451, -0.027820739895105362, -0.07184046506881714, -0.1459912657737732, -0.1854219138622284, -0.0713227167725563, 0.0441637746989727, -0.059480346739292145, -0.16323569416999817, 0.08097966015338898, -0.04633389040827751, -0.002498906571418047, 0.032086655497550964, -0.23689700663089752, -0.09348861128091812, 0.24867670238018036, -0.22151444852352142, -0.2197113335132599, 0.07774677872657776, 0.04772736504673958, -0.15068508684635162, -0.10732562839984894, -0.10911895334720612, -0.017125973477959633, 0.1796409785747528, 0.19022449851036072, -0.5494421124458313, -0.052962884306907654, 0.021433506160974503, -0.48372015357017517, 0.1114974096417427, 0.049139559268951416, -0.058816276490688324, -0.033111486583948135, 0.052569471299648285, 0.15563617646694183, 0.038871560245752335, -0.047943081706762314, -0.21454259753227234, 0.04787401482462883, -0.0886065736413002, 0.003169985255226493, -0.05923653393983841, -0.011308264918625355, -0.02369595877826214, -0.028450045734643936, 0.11303142458200455, -0.22724387049674988, 0.04841505363583565, -0.16675131022930145, 0.23733623325824738, -0.0288699883967638, 0.16134004294872284, 0.046453606337308884, 0.01604013703763485, 0.1565859019756317, 0.11767126619815826, 0.11441988497972488, -0.0476987287402153, 0.041958343237638474, -0.14711745083332062, 0.17057210206985474, -0.036254871636629105, 0.027420522645115852, 0.16338399052619934, 0.11085881292819977, -0.054517194628715515, 0.19368886947631836, 0.2192169427871704, 0.04078484699130058, -0.011154640465974808, -0.02420121617615223, -0.0577872209250927, 0.32768717408180237, -0.5882342457771301, -0.01622488908469677, 0.29868176579475403, -0.20825117826461792, -0.11852443218231201, -0.059752289205789566, -0.07772906124591827, 0.18645840883255005, -0.11421648412942886, 0.1082887127995491, 0.09081213921308517, 0.06428176909685135, -0.14394031465053558, -0.006363386753946543, 0.08908779174089432, -0.10846950113773346, 0.013620696030557156, -0.01520164217799902, 0.09514430910348892, -0.06301514059305191, 0.01570667140185833, -0.07859362661838531, -0.048639584332704544, -0.030446289107203484, 0.12164600193500519, 0.16105565428733826, 0.04460061714053154, -0.07650889456272125, -0.14708398282527924, 0.026957832276821136, 0.20936445891857147, 0.09396739304065704, -0.024768002331256866, 0.11613643914461136, 0.013514265418052673, 0.08451756089925766, 0.03333572670817375, -0.07187604904174805, 0.09722038358449936, 0.020582325756549835, -0.003111952217295766, -0.07287164777517319, 0.011326351203024387, -0.011069259606301785, 0.16045886278152466, 0.12270035594701767, 0.025002123787999153, -0.05913329869508743, -0.0652012974023819, 0.03961511701345444, 0.0751798003911972, -0.043396856635808945, 0.01812009885907173, -0.1374237984418869, -0.10207027196884155, 0.0769430547952652, -0.04540669173002243, -0.09467457979917526, -0.1624162495136261, 0.15827450156211853, 0.0035100113600492477, -0.1449887454509735, -0.0678042471408844, 0.049877505749464035, -0.05403241515159607, 0.003695888677611947, -0.03133748844265938, -0.013591121882200241, -0.015508171170949936, -0.11202724277973175, 0.12846320867538452, 0.13238176703453064, 0.0031887940131127834, 0.01431369036436081, -0.11120177805423737, 0.02922038733959198, 0.1518576443195343, -0.04742982238531113, 0.13847503066062927, -0.0863000825047493, -0.014245378784835339, -0.0281076617538929, -0.01937808282673359, -0.15132731199264526, -0.13816244900226593, 0.14729897677898407, -0.00037221904494799674, -0.09534797072410583, 0.011045056395232677, 0.03364745154976845, 0.007951646111905575, -0.22758778929710388, -0.023644182831048965, 0.06982219219207764, 0.08391302824020386, -0.12140616774559021, 0.06774099916219711, 0.06436383724212646, -0.22920648753643036, -0.00995642226189375, 0.027298513799905777, -0.11152402311563492, -0.0014714119024574757, 0.0811840072274208, -0.018259437754750252, 0.10225871950387955, 0.03296927735209465, -0.006200241856276989, -0.1437600702047348, -0.14807766675949097, 0.06277411431074142, 0.026161350309848785, 0.055312056094408035, 0.033421292901039124, 0.05711251497268677, 0.07446097582578659, 0.016667962074279785, -0.03922513127326965, -0.00042988406494259834, -0.06606828421354294, 0.021794702857732773, -0.02028203196823597, -0.012630131095647812, -0.12003225833177567, 0.012707914225757122, -0.13662783801555634, -0.14052820205688477, 0.07640824466943741, -0.08664584159851074, 0.10914234817028046, -0.07825185358524323, -0.007463327143341303, 0.07513737678527832, -0.0835123285651207, -0.05012194439768791, -0.25610023736953735, -0.09196751564741135, -0.17154499888420105, 0.16876132786273956, 0.1743224859237671, 0.02841220796108246, 0.0306670181453228, 0.03937055543065071, -0.08748777210712433, 0.0528741292655468, -0.007732521276921034, -0.02346820943057537, -0.029945602640509605, 0.1069955974817276, 0.041150469332933426, 0.06388528645038605, -0.014768201857805252, -0.11586881428956985, -0.003257927717640996, -0.008447005413472652, 0.004873363301157951, -0.22848837077617645, -0.4090474247932434, 0.8411595821380615, 0.316866010427475, -0.48944851756095886, 0.19598813354969025, -0.25476470589637756, 0.03256160393357277, 0.49045950174331665, -0.8338484168052673, 1.0436919927597046, 0.4955452084541321, 0.03898709639906883, -0.3096889555454254, 0.10292546451091766, -0.686469316482544, 0.12321929633617401, -0.02126636914908886, 0.11290741711854935, -0.2758467197418213, 0.12201103568077087, 0.20851972699165344, 0.2640608549118042, 0.16967931389808655, 0.14103089272975922, -0.10319822281599045, 0.18429435789585114, 0.06257925927639008, -0.16800762712955475, 0.13727951049804688, -0.0645962506532669, -0.12462498992681503, 0.19073474407196045, -0.031056005507707596, 0.05348563194274902, 0.06978137046098709, 0.21794725954532623, 0.10947106778621674, 0.03613072633743286, -0.20259350538253784, -0.2283715009689331, 0.0855543240904808, -0.09267429262399673, -0.043118830770254135, 0.13671347498893738, 0.3842405378818512, 0.1891278773546219, -0.05368354916572571, 0.0066115157678723335, -0.31091123819351196, 0.07203415036201477, -0.1989639401435852, 0.3100683391094208, -0.14415669441223145, 0.007606969214975834, -0.19374889135360718, -0.1622675210237503, 0.015290459617972374, -0.3333400785923004, 0.27556297183036804, 0.2950759828090668, -0.12408498674631119, -0.005318330600857735, 0.14572440087795258, 0.20575305819511414, -0.007165879011154175, 0.23457874357700348, 0.036835283041000366, -0.19005277752876282, 0.22187677025794983, -0.220432311296463, 0.272927463054657, 0.2735714614391327, -0.15326739847660065, 0.09414885938167572, 0.1752665489912033, 0.1288546472787857, 0.22629141807556152, 0.047338999807834625, -0.1428965926170349, 0.10109524428844452, -0.07752952724695206, 0.25652217864990234, -0.1988004744052887, 0.1951502412557602, -0.08609543740749359, 0.13908660411834717, 0.07792861014604568, 0.20993319153785706, -0.014190220274031162, -0.14180177450180054, 0.14695362746715546, -0.17280925810337067, -0.16209803521633148, 0.15859079360961914, -0.0650007575750351, -0.09857177734375, -0.12636642158031464, -0.0060966480523347855, -0.1202578917145729, -0.03987332433462143, -0.14651155471801758, 0.22797080874443054, 0.0829346626996994, -0.17265856266021729, -0.1291065365076065, -0.058151956647634506, 0.1947721689939499, -0.008582144975662231, -0.004419439937919378, 0.26761674880981445, 0.08245977759361267, 0.045733291655778885, 0.06249060854315758, 0.0160504337400198, 0.09562475234270096, 0.10660180449485779, 0.012626820243895054, -0.022486558184027672, -0.01389153953641653, -0.16791561245918274, 0.08575312048196793, 0.15966591238975525, -0.20177334547042847, 0.1623688042163849, 0.07340405881404877, 0.07162517309188843, 0.03508045896887779, 0.24122945964336395, 0.1438136249780655, -0.2735956311225891, -0.15940621495246887, 0.1774778813123703, -0.1845783144235611, 0.09620051085948944, -0.12655285000801086, -0.022945666685700417, 0.16252486407756805, 0.0667777806520462, 0.27447956800460815, 0.06870848685503006, 0.22092494368553162, 0.10056052356958389, 0.0008965808665379882, -0.10532577335834503, 0.18842005729675293, -0.05957164987921715, 0.14548568427562714, 0.17984262108802795, -0.03130614012479782, -0.1923123449087143, -0.03794458135962486, -0.13970714807510376, 0.15162906050682068, -0.2030506432056427, 0.20701223611831665, -0.2966645359992981, -0.07774558663368225, 0.06173526868224144, -0.08748827874660492, 0.28006136417388916, -0.23365020751953125, -0.15944017469882965, 0.12725235521793365, 0.11727059632539749, 0.08767148852348328, -0.14670300483703613, -0.26224395632743835, -0.16526547074317932, 0.10696664452552795, 0.1548335701227188, -0.12115732580423355, -0.05079178512096405, 0.011182975955307484, 0.2840985357761383, -0.10648400336503983, 0.3476523160934448, -0.22009140253067017, -0.138920858502388, -0.23099304735660553, 0.23366592824459076, -0.27843964099884033, 0.14898055791854858, -0.15566754341125488, 0.15756605565547943, 0.24343885481357574, -0.3488078713417053, 0.17803341150283813, -0.018265509977936745, -0.16131754219532013, 0.08984391391277313, 0.1909760683774948, 0.10176834464073181, -0.06627030670642853, -0.11711607128381729, 0.10764061659574509, 0.020841611549258232, 0.08808952569961548, 0.22820429503917694, 0.07716785371303558, -0.1801368147134781, -0.022817173972725868, -0.11637713760137558, 0.25522324442863464, -0.3216308653354645, -0.36820435523986816, 0.022517168894410133, 0.11903916299343109, -0.2604670524597168, -0.19923090934753418, -0.07701143622398376, -0.010319158434867859, 0.07832392305135727, 0.11577495187520981, -0.20949919521808624, -0.16507107019424438, 0.07108668237924576, 0.04111979901790619, -0.09767800569534302, 0.07869205623865128, -0.0016177406068891287, 0.07170701026916504, 0.05074649676680565, -0.13017146289348602, -0.3436889946460724, 0.342044472694397, -0.166455939412117, 0.10633619129657745, -0.17343784868717194, 0.0708426684141159, 0.02289756014943123, -0.008971677161753178, 0.22491826117038727, -0.19084733724594116, 0.12790721654891968, -0.46285945177078247, 0.028117332607507706, 0.09771423786878586, -0.32878461480140686, 0.009561242535710335, 0.21560697257518768, -0.011631432920694351, -0.1725572645664215, -0.15118154883384705, 0.036064356565475464, -0.3068041503429413, 0.22082798182964325, -0.3460811376571655, 0.06160563975572586, 0.49350816011428833, 0.12133241444826126, 0.42127594351768494, -0.24492543935775757, -0.022558361291885376, 0.1674705296754837, -0.1827804446220398, -0.04125351831316948, -0.10186120867729187, -0.07402382791042328, -0.22616715729236603, -0.06883401423692703, -0.07505884766578674, -0.057911377400159836, -0.2505422532558441, -0.06060445308685303, 0.258595734834671, 0.15532107651233673, 0.26723945140838623, -0.14469513297080994, 0.08655168861150742, -0.07221771031618118, 0.10982725024223328, 0.05665179714560509, 0.043767478317022324, 0.0422951765358448, 0.08101829141378403, -0.0297254491597414, 0.12966038286685944, 0.10770847648382187, 0.031103825196623802, -0.20813652873039246, -0.11781050264835358, 0.037200264632701874, 0.06028129532933235, 0.07660800963640213, 0.08062243461608887, 0.05825718119740486, 0.028686821460723877, -0.05296724662184715, -0.07699000090360641, 0.10156537592411041, -0.2568894326686859, -0.15885327756404877, 0.10299398005008698, -0.10745053738355637, -0.10955917835235596, 0.05117536336183548, -0.04146866872906685, 0.09110898524522781, 0.18915383517742157, -0.04569397121667862, -0.16244365274906158, -0.13951244950294495, -0.09531094878911972, -0.07708320766687393, 0.09738963097333908, 0.14466723799705505, -0.09375610202550888, -0.05633597820997238, -0.24176034331321716, 0.08713912218809128, 0.08425671607255936, 0.028968162834644318, -0.24823440611362457, -0.10631193220615387, -0.06630344688892365, 0.18303470313549042, -0.021103642880916595, -0.17874105274677277, -0.33303016424179077, 0.13726706802845, -0.10504978895187378, -0.1896003931760788, -0.08241697400808334, -0.08511751145124435, -0.01947307586669922, -0.085515595972538, 0.14102968573570251, -0.07383856922388077, -0.10429631173610687, -0.27814000844955444, -0.1992112696170807, 0.004748189821839333, -0.11517511308193207, -0.07903075963258743, 0.06856414675712585, -0.20508728921413422, 0.12850907444953918, 0.053666841238737106, 0.004978530574589968, -0.30476126074790955, 0.0003881684970110655, -0.038722485303878784, -0.26122233271598816, 0.08602286875247955, -0.07571979612112045, 0.10496066510677338, -0.040046125650405884, -0.05013104900717735, -0.01329156942665577, 0.2599845826625824, -0.18181826174259186, -0.31239476799964905, 0.09941728413105011, -0.08808166533708572, 0.04054340347647667, -0.056278739124536514, -0.14578334987163544, -0.12523362040519714, -0.00358886132016778, 0.17442017793655396, 0.06650324165821075, -0.12534980475902557, 0.017391305416822433, 0.1728993058204651, 0.17661090195178986, 0.027768034487962723, 0.03887811303138733, 0.02853420190513134, 0.113905169069767, -0.3001858592033386, -0.29364022612571716, -0.02764497697353363, -0.02657749503850937, -0.035040225833654404, 0.030540084466338158, 0.1630880981683731, -0.2692975103855133, -0.03327057138085365, -0.005508033093065023, 0.09783605486154556, -0.10568924248218536, -0.035758405923843384, 0.05156908556818962, -0.019424328580498695, -0.06921017169952393, -0.036278270184993744, 0.30266043543815613, 0.07621527463197708, -0.14175346493721008, -0.09066761285066605, 0.04090885818004608, 0.1604924201965332, -0.08988841623067856, 0.13699020445346832, 0.07091948390007019, 0.1466071903705597, -0.011493006721138954, -0.10813159495592117, 0.012107791379094124, -0.0688348338007927, -0.04866734892129898, 0.0028636895585805178, 0.07981175184249878, -0.09940160065889359, 0.09785143285989761, 0.009306597523391247, 0.033201806247234344, -0.1515263020992279, 0.04999767616391182, 0.13539835810661316, 0.09306474030017853, -0.022877845913171768, 0.04917836934328079, -0.10605030506849289, 0.06427177041769028, -0.00234860647469759, -0.18979738652706146, 0.06370681524276733, 0.12484652549028397, -0.0922577902674675, 0.04101470485329628, 0.050439152866601944, -0.19341430068016052, -0.04495759308338165, 0.046552982181310654, 0.14154919981956482, -0.010835154913365841, -0.04750325530767441, -0.0397411547601223, 0.10667292028665543, -0.014507075771689415, -0.10434244573116302, 0.20895196497440338, 0.01318249013274908, -0.1103624776005745, 0.17970335483551025, 0.24210302531719208, 0.05314820259809494, 0.10777892172336578, -0.0040875389240682125, 0.1491120457649231, 0.058312613517045975, -0.09014023840427399, 0.004041504114866257, 0.1278536170721054, -0.024933021515607834, -0.15826362371444702, -0.08677010238170624, 0.14691486954689026, 0.09811541438102722, -0.0017479176167398691, 0.0029036356136202812, -0.05157668888568878, 0.03297567367553711, 0.17587098479270935, 0.047246821224689484, -0.12161494046449661, -0.1625051349401474, -0.15858545899391174, -0.0348886102437973, 0.06798936426639557, 0.005692003294825554, 0.23845599591732025, -0.052178844809532166, -0.03625354543328285, 0.0638151690363884, -0.037009526044130325, 0.050627484917640686, 0.1610778272151947, -0.09747081249952316, 0.15375234186649323, 0.07971954345703125, -0.1779729425907135, -0.25972220301628113, 0.13138099014759064, -0.0342404805123806, -0.2021293193101883, 0.057776641100645065, -0.05190623179078102, 0.1965942531824112, 0.07507416605949402, -0.11367695778608322, 0.2838340103626251, 0.48543304204940796, -0.06133844330906868, 0.06009675934910774, 0.49249863624572754, -0.08872915804386139, 0.14691103994846344, -0.036807432770729065, 0.03434809669852257, 0.10475251823663712, -0.023320194333791733, -0.09220943599939346, -0.03843630477786064, 0.27591902017593384, 0.12811480462551117, -0.12643589079380035, 0.004590573720633984, 0.00846773199737072, 0.10726815462112427, 0.04393163323402405, -0.07428208738565445, -0.14064481854438782, 0.2644684612751007, -0.07866017520427704, -0.09144684672355652, -0.17648324370384216, -0.015773212537169456, 0.039139166474342346, 0.3529013991355896, -0.061586134135723114, -0.05964953079819679, 0.11456935852766037, 0.00543981185182929, -0.11350112408399582, 0.07083085924386978, -0.012067188508808613, -0.18608376383781433, -0.054967645555734634, -0.07586310803890228, 0.00023097859229892492, 0.16297480463981628, -0.05202437564730644, 0.049885477870702744, -0.042969733476638794, -0.08359798789024353, -0.09607087820768356, -0.03373119980096817, -0.04286200925707817, -0.043645575642585754, 0.295975923538208, 0.006214809138327837, -0.01672135852277279, 0.347802996635437, 0.167951300740242, 0.014765632338821888, 0.05870845913887024, -0.18404211103916168, 0.046826235949993134, -0.12104949355125427, -0.09845980256795883, -0.2038557380437851, -0.050201188772916794, 0.10152964293956757, -0.06433311104774475, 0.06500954180955887, -0.020475076511502266, -0.09327304363250732, -0.07526233792304993, -0.09613682329654694, -0.10244524478912354, 0.14797300100326538, -0.073152557015419, -0.01971060037612915, 0.004436075687408447, -0.04173219949007034, -0.04203272610902786, 0.0724874883890152, -0.10933540761470795, -0.03145173192024231, -0.018127556890249252, 0.026404360309243202, 0.043957848101854324, 0.013081809505820274, -0.1549956351518631, 0.06661204993724823, -0.015913132578134537, -0.1489114910364151, -0.14337041974067688, 0.1243726834654808, -0.12983745336532593, -0.09359343349933624, 0.08945176005363464, -0.009412040933966637, 0.14665119349956512, 0.0630386546254158, -0.22678379714488983, 0.03728114068508148, 0.28911635279655457, 0.008200514130294323, 0.009761369787156582, 0.40876591205596924, 0.022083135321736336, -0.13034240901470184, -0.11519962549209595, -0.14396239817142487, -0.08164577931165695, 0.07993369549512863, -0.031559742987155914, -0.09461938589811325, 0.048508282750844955, 0.13856080174446106, -0.1110711395740509, -0.05626176670193672, -0.04106166213750839, 0.14565789699554443, -0.022202175110578537, -0.07717986404895782, -0.10678431391716003, 0.19053757190704346, 0.015173415653407574, -0.0022042649798095226, -0.02666519209742546, 0.0007364098564721644, 0.11329915374517441, 0.18919146060943604, 0.0394882895052433, -0.160871222615242, 0.019678901880979538, -0.015532931312918663, 0.17040151357650757, -0.06577496230602264, -0.058516740798950195, -0.14316418766975403, 0.011524380184710026, -0.11148573458194733, -0.07415545731782913, 0.323679655790329, 0.023554133251309395, 0.006297923158854246, 0.03666415810585022, -0.21705545485019684, -0.1937551647424698, -0.10404963046312332, -0.02502100169658661, 0.0397392101585865, -0.055774345993995667, 0.2339077591896057, -0.10043322294950485, -0.11845339834690094, 0.08771676570177078, -0.08425447344779968, 0.10620386898517609, -0.07680582255125046, -0.11339741945266724, 0.17620939016342163, 0.05442050099372864, -0.19370485842227936, -0.10388710349798203, -0.04108332097530365, 0.01930915378034115, -0.18451088666915894, -0.016271177679300308, -0.13432319462299347, 0.05040796101093292, 0.025881662964820862, 0.09828713536262512, -0.04027504846453667, -0.04064764082431793, -0.02843739651143551, -0.06103438138961792, 0.09148237854242325, -0.07860308885574341, -0.10149624198675156, -0.21634936332702637, -0.011398292146623135, -0.10979831218719482, 0.0009010109351947904, 0.09976813942193985, 0.004793841391801834, 0.007007174659520388, 0.13884751498699188, -0.16020864248275757, -0.13998879492282867, -0.188023179769516, -0.10811616480350494, 0.004461632110178471, -0.13242007791996002, -0.06637644022703171, 0.08764772117137909, 0.03295097127556801, 0.08604493737220764, 0.06449057161808014, 0.08552486449480057, -0.2697736322879791, -0.08087872713804245, -0.029544830322265625, -0.2671973705291748, 0.04120054095983505, -0.18474507331848145, -0.024364778771996498, 0.07951021194458008, -0.06737101823091507, -0.013788880780339241, -0.029034405946731567, 0.10787630826234818, 0.057094451040029526, -0.134722501039505, -0.010197557508945465, -0.0817687064409256, -0.05448903515934944, 0.09458128362894058, -0.10142447054386139, -0.1572791337966919, -0.07460016012191772, -0.06233372539281845, -0.006085416302084923, 0.060763001441955566, 0.13364681601524353, -0.11077645421028137, 0.029035348445177078, -0.18183760344982147, 0.04489950090646744, 0.2512798011302948, 0.11955265700817108, 0.060712940990924835, 0.09151937812566757, -0.0023943758569657803, -0.039278510957956314, -0.16995960474014282, 0.1298551857471466, 0.12299791723489761, 0.19434762001037598, 0.010515482164919376, -0.07539352774620056, 0.1934000700712204, -0.06198141351342201, 0.10948571562767029, -0.045540645718574524, 0.053587865084409714, -0.07993022352457047, 0.13802240788936615, -0.044158220291137695, -0.09685339033603668, 0.06799277663230896, 0.06908605247735977, 0.04979271441698074, 0.00810902938246727, -0.07638698071241379, 0.12479670345783234, 0.0877617597579956, 0.047428764402866364, 0.011264531873166561, -0.01684008166193962, 0.0695231705904007, -0.18677639961242676, 0.01943313144147396, -0.0436188243329525, 0.14912672340869904, 0.07387247681617737, 0.09379173815250397, 0.018962174654006958, -0.004415440838783979, 0.015980055555701256, 0.06610643863677979, -0.13416437804698944, 0.055915992707014084, -0.045046012848615646, -0.2013034075498581, 0.07551705837249756, 0.04855668917298317, -0.18690867722034454, -0.0731310024857521, 0.024198362603783607, 0.014849187806248665, -0.0658940002322197, 0.02606058493256569, -0.14142872393131256, 0.07543186098337173, 0.10330156236886978, 0.10522102564573288, 0.12401353567838669, -0.13137595355510712, 0.1663661003112793, 0.030977526679635048, 0.08502820134162903, -0.0032058279030025005, -0.0946488156914711, 0.10078132152557373, -0.040128469467163086, -0.044352442026138306, 0.09531709551811218, -0.135894313454628, -0.03988594189286232, 0.07660549879074097, 0.21506290137767792, 0.06557668745517731, -0.2268165796995163, -0.16024677455425262, -0.11283541470766068, 0.030185021460056305, 0.017928214743733406, 0.09951917827129364, 0.08617657423019409, 0.12048091739416122, 0.11876936256885529, -0.11819446086883545, -0.13486650586128235, 0.01335843838751316, 0.12232016772031784, 0.022949254140257835, 0.061908431351184845, -0.0022965355310589075, -0.03805099055171013, 0.032806411385536194, 0.035967037081718445, 0.09316287934780121, 0.13041262328624725, -0.126435324549675, -0.034976761788129807, 0.022252948954701424, -0.24566511809825897, 0.11456307023763657, -0.07128923386335373, 0.06669095903635025, 0.12900322675704956, -0.025945531204342842, -0.04042074829339981, -0.12528996169567108, 0.0797242522239685, 0.04707272723317146, -0.06675335764884949, 0.0023692629765719175, 0.08824076503515244, -0.13645285367965698, -0.023878881707787514, 0.0452488549053669, -0.11814399808645248, -0.2658441364765167, -0.051270972937345505, -0.15055949985980988, -0.24042044579982758, 0.16961322724819183, -0.1397189199924469, -0.06914635747671127, 0.0406888984143734, -0.14146998524665833, -0.16111619770526886, 0.06316521763801575, -0.13424932956695557, -0.2835296392440796, -0.06360866874456406, 0.04994325712323189, -0.10919440537691116, -0.08325564861297607, 0.03003978729248047, -0.02694815583527088, 0.14781035482883453, -0.03329610452055931, -0.15793411433696747, 0.005154194310307503, -0.1515256017446518, 0.20232141017913818, 0.15111412107944489, 0.13148494064807892, -0.37915095686912537, 0.10745780915021896, 0.14855775237083435, -0.09269044548273087, 0.02938769944012165, 0.06683750450611115, 0.07720056176185608, -0.14558380842208862, 0.22378148138523102, -0.03497632220387459, 0.08893901854753494, -0.1406862884759903, -0.2630777657032013, -0.08520051091909409, 0.05601885914802551, -0.12280692160129547, 0.12668387591838837, -0.11462106555700302, 0.032780036330223083, -0.048915330320596695, -0.036855023354291916, 0.012472475878894329, 0.14780133962631226, 0.08674968034029007, 0.0017014221521094441, 0.032954439520835876, -0.011183230206370354, 0.01802246645092964, -0.1689465492963791, -0.10127855092287064, 0.08628036826848984, -0.05373859032988548, -0.06842575967311859, -0.09627986699342728, -0.03282090276479721, -0.12254263460636139, 0.08811840415000916, -0.13206961750984192, -0.10167927294969559, -0.03202497586607933, 0.0649799183011055, -0.0008623545872978866, 0.18291571736335754, -0.1381666511297226, -0.14785324037075043, 0.04441336914896965, 0.00039157739956863225, -0.0005930524202995002, 0.09875623136758804, -0.08892714232206345, -0.12347155064344406, -0.057922229170799255, 0.06207786872982979, 0.1185513362288475, 0.05475739389657974, -0.0440351739525795, 0.2757916748523712, 0.04025905951857567, -0.017156925052404404, -0.17482614517211914, 0.015672720968723297, 0.014462640509009361, -0.08854670822620392, 0.004949772264808416, -0.033030007034540176, 0.0964362844824791, -0.07067736983299255, 0.18357160687446594, 0.08126693218946457, -0.18768459558486938, -0.09367166459560394, 0.04303503409028053, -0.20579248666763306, -0.10258384793996811, 0.17571453750133514, 0.10276897251605988, 0.047419723123311996, 0.12935660779476166, -0.10019393265247345, 0.1468956172466278, 0.06917407363653183, -0.10373605042695999, 0.0037237934302538633, -0.08818881213665009, 0.04406974837183952, 0.10718272626399994, -0.09495159238576889, -0.06603167206048965, -0.07085175067186356, 0.07701139897108078, 0.04736598581075668, 0.06046488136053085, -0.06932905316352844, -0.12574037909507751, 0.0892784595489502, 0.23067884147167206, -0.11885543167591095, 0.057260025292634964, 0.24079881608486176, -0.15480083227157593, -0.2555331587791443, 0.04173790290951729, -0.022497067227959633, -0.05583955720067024, -0.020390450954437256, -0.010902853682637215, 0.05504397302865982, 0.1036352589726448, -0.28422170877456665, 0.06330753117799759, 0.08343338221311569, 0.0018194271251559258, 0.13326750695705414, -0.06681417673826218, 0.056358642876148224, 0.1998768150806427, -0.16262467205524445, -0.05791521072387695, 0.017240075394511223, -0.03593840077519417, -0.004867028910666704, 0.04628312960267067, -0.030524376779794693, -0.036761727184057236, 0.009718180634081364, -0.09888218343257904, -0.06632421165704727, -0.03219428285956383, 0.04252059385180473, -0.12488076835870743, 0.02964470535516739, 0.06682980060577393, -0.09451539069414139, 0.06415283679962158, -0.14668847620487213, -0.004678837489336729, 0.040286604315042496, 0.034945957362651825, 0.09768625348806381, 0.04638352990150452, -0.08060525357723236, 0.04995797201991081, 0.03487394377589226, 0.013693710789084435, -0.03075440041720867, -0.015964534133672714, 0.1582411676645279, -0.13940197229385376, -0.15863274037837982, -0.11740320920944214, 0.0317455530166626, -0.06482633203268051, 0.014176854863762856, 0.14513586461544037, -0.120081827044487, -0.14304964244365692, 0.012416436336934566, -0.043623246252536774, -0.11112871766090393, 0.0025313033256679773, 0.04777360334992409, 0.00043491696123965085, 0.12077566236257553, 0.05565039440989494, 0.049250852316617966, 0.0024434980005025864, -0.0976458340883255, -0.06208229437470436, -0.2130483239889145, -0.15430493652820587, 0.02620602212846279, 0.06282851099967957, 0.19031336903572083, 0.008251840248703957, 0.0875186175107956, -0.07293599098920822, 0.01836264319717884, -0.031858205795288086, -0.025578537955880165, 0.026792416349053383, -0.058332547545433044, -0.08120935410261154, -0.008429261855781078, 0.11846739053726196, -0.14921841025352478, 0.01543471124023199, -0.14347392320632935, 0.04385167360305786, -0.12212086468935013, 0.01272738166153431, 0.12721183896064758, -0.1995619535446167, -0.10248570144176483, -0.08753756433725357, 0.06260167807340622, -0.03231058642268181, 0.21597537398338318, -0.1928621232509613, -0.08899307250976562, 0.03663419187068939, -0.2301783412694931, -0.010478858835995197, 0.19412481784820557, 0.16689543426036835, -0.021629957482218742, 0.037931326776742935, 0.0378086157143116, 0.0013068313710391521, 0.10539278388023376, 0.060806456953287125, -0.03829275444149971, 0.06774964183568954, -0.1011475995182991, 0.11428036540746689, 0.06949599832296371, -0.08985691517591476, -0.1637953221797943, 0.11414957791566849, 0.12051192671060562, 0.02993684820830822, -0.06621536612510681, 0.06353432685136795, 0.08211309462785721, -0.008335231803357601, 0.068584144115448, 0.6003841757774353, 0.2754031717777252, 0.5208413600921631, -0.727783203125, -0.4481393098831177, 0.17522519826889038, 0.28978633880615234, -0.005293278023600578, 0.1627514809370041, 0.20163758099079132, -0.6406618356704712, 0.2768465578556061, 0.04793771356344223, -0.7643526792526245, 0.05490102991461754, -0.4221208989620209, -0.0964585542678833, -0.3021068274974823, 0.3754189908504486, -0.27689680457115173, 0.045455798506736755, 0.09316086769104004, -0.006241862196475267, -0.20781384408473969, -0.14733515679836273, 0.13521277904510498, -0.258497416973114, -0.000957614800427109, 0.02119455672800541, -0.12026762217283249, -0.012379549443721771, 0.08496022969484329, -0.13902366161346436, -0.2661457359790802, 0.1484769731760025, -0.24541804194450378, 0.02289348840713501, -0.174287348985672, 0.11586351692676544, -0.1779591292142868, -0.043987393379211426, 0.008533166721463203, -0.2425837367773056, 0.07132267951965332, -0.19913005828857422, 0.09009356051683426, 0.04699128866195679, 0.19327519834041595, 0.0746573880314827, 0.0910552516579628, -0.08091309666633606, -0.26413634419441223, -0.17556606233119965, -0.24550782144069672, -0.2987377941608429, 0.13891421258449554, 0.28621742129325867, -0.07877082377672195, -0.033462535589933395, -0.03552401065826416, 0.03439691290259361, 0.10523731261491776, -0.049968890845775604, 0.17705045640468597, -0.27434077858924866, 0.032040685415267944, -0.23365256190299988, 0.26698362827301025, 0.28049933910369873, 0.23750771582126617, 0.1977950483560562, 0.13652469217777252, -0.21244946122169495, -0.1964622586965561, 0.09426263719797134, -0.23737367987632751, 0.17215560376644135, 0.1754041165113449, 0.11542705446481705, -0.19069834053516388, 0.2441728562116623, -0.07312183827161789, -0.1132522001862526, 0.22855475544929504, -0.006030218210071325, -0.022693561390042305, 0.0970962643623352, -0.15778347849845886, 0.04575372114777565, 0.2186027467250824, 0.16493602097034454, 0.14123408496379852, -0.19007249176502228, -0.22612321376800537, -0.22222797572612762, -0.20855116844177246, -0.04376576095819473, 0.17927546799182892, 0.18875573575496674, 0.18519115447998047, -0.2669377326965332, 0.22684046626091003, -0.06063967943191528, -0.028268689289689064, 0.05510029196739197, 0.15921948850154877, -0.17271342873573303, 0.2942766547203064, -0.036668967455625534, 0.05028481036424637, -0.2580256760120392, -0.04082678630948067, -0.21718625724315643, -0.18205861747264862, -0.11837279051542282, -0.07132092118263245, -0.01423835288733244, -0.2536398768424988, 0.204098179936409, 0.037504564970731735, -0.190836101770401, 0.06286685913801193, 0.005296499002724886, -0.05250747129321098, 0.03507696092128754, 0.014054537750780582, 0.09996888041496277, -0.17766351997852325, -0.06127498298883438, 0.15482842922210693, -0.09913405030965805, 0.10717257112264633, 0.11250608414411545, -0.1993490606546402, -0.1484183669090271, 0.2291436791419983, 0.01622791402041912, 0.0760486051440239, 0.035090770572423935, 0.13527993857860565, -0.08212496340274811, 0.03067004680633545, 0.15084880590438843, -0.023943619802594185, -0.3675297200679779, 0.09837725758552551, -0.08967018127441406, -0.16930563747882843, 0.2321566343307495, -0.08052795380353928, -0.17392051219940186, -0.20689383149147034, 0.11689455807209015, -0.054347507655620575, -0.0851166769862175, -0.20733869075775146, 0.16969053447246552, 0.24859820306301117, 0.04956086352467537, 0.10690035670995712, 0.019288863986730576, 0.2981332540512085, -0.1788184940814972, 0.22965465486049652, -0.12741580605506897, 0.2501400411128998, -0.19644805788993835, 0.22984030842781067, -0.3402513265609741, -0.23701830208301544, 0.26853322982788086, -0.09781120717525482, 0.2556668817996979, -0.07627496868371964, 0.4255768358707428, 0.050622086971998215, -0.10108886659145355, 0.16781024634838104, -0.1981230527162552, -0.1876852959394455, -0.2157631814479828, -0.024245375767350197, -0.029938535764813423, -0.19290123879909515, 0.3200562596321106, -0.020072486251592636, -0.11788022518157959, 0.07253872603178024, -0.153093159198761, 0.10973697900772095, 0.07974372804164886, -0.05716192349791527, 0.07200194895267487, 0.17609316110610962, -0.2082478404045105, -0.01702049747109413, -0.1673019826412201, -0.0528898648917675, -0.05005687102675438, 0.070554718375206, -0.128043070435524, 0.012675256468355656, 0.3265543282032013, 0.23183119297027588, -0.07750634104013443, 0.287234365940094, -0.048558447510004044, -0.1706368625164032, 0.058523476123809814, 0.2963356077671051, 0.04536505788564682, 0.3472563624382019, -0.14052194356918335, 0.1826901137828827, -0.23414134979248047, 0.09429717063903809, 0.15230827033519745, 0.008728454820811749, -0.08135276287794113, -0.09602978080511093, -0.17423035204410553, 0.2800526022911072, 0.22434115409851074, -0.25587210059165955, -0.0771629586815834, 0.057016514241695404, 0.055827125906944275, 0.1624012142419815, 0.11767973005771637, 0.014309038408100605, -0.03418074920773506, -0.024832801893353462, 0.07583190500736237, 0.26725247502326965, 0.023701529949903488, -0.16312839090824127, -0.23225624859333038, -0.25334906578063965, -0.15156465768814087, 0.10685713589191437, 0.3052673935890198, -0.05049847811460495, 0.07140243053436279, 0.19063688814640045, -0.32639452815055847, -0.11212777346372604, -0.011569362133741379, 0.1422394961118698, -0.11229481548070908, 0.017140721902251244, -0.146209716796875, 0.0789603516459465, 0.10402444005012512, 0.05499274656176567, 0.036896344274282455, 0.047276969999074936, -0.019026266410946846, 0.20680512487888336, -0.2132231593132019, -0.026107540354132652, -0.2410372942686081, -0.10611831396818161, 0.16556385159492493, 0.021406471729278564, -0.28674280643463135, 0.0504976324737072, -0.0794362798333168, 0.05327029526233673, 0.1952895224094391, -0.09670460224151611, 0.1635035276412964, -0.021742377430200577, -0.16306644678115845, 0.01574392430484295, 0.11716410517692566, -0.05996045470237732, 0.058946527540683746, 0.034586623311042786, 0.01028504129499197, 0.07596632838249207, -0.2049853503704071, 0.15896755456924438, 0.08901726454496384, 0.01020208653062582, 0.03145517408847809, -0.17543713748455048, -0.05776720121502876, 0.07667921483516693, -0.07820417732000351, -0.09041234105825424, -0.007095907349139452, -0.09556908905506134, 0.13368776440620422, -0.20009349286556244, -0.054455868899822235, 0.14624832570552826, -0.11609373986721039, 0.12323065847158432, -0.030966321006417274, 0.09909922629594803, -0.03951854631304741, 0.10908140987157822, -0.07857389003038406, 0.047580085694789886, 0.08802254498004913, 0.10547292232513428, 0.1560547649860382, -0.0018071492668241262, 0.12068288773298264, 0.15723499655723572, 0.18826501071453094, -0.07572877407073975, 0.0831204429268837, -0.17511600255966187, 0.08612367510795593, 0.27671775221824646, -0.09665592014789581, 0.05599948391318321, 0.08712271600961685, 0.05732216313481331, -0.20475786924362183, 0.07987614721059799, -0.05443423613905907, -0.050981488078832626, 0.021617673337459564, 0.04814993962645531, 0.12033264338970184, -0.05230026692152023, -0.13648168742656708, -0.12856031954288483, -0.06068878620862961, -0.023550700396299362, 0.14619220793247223, -0.20507711172103882, 0.11238738894462585, 0.08856817334890366, 0.005369686521589756, 0.01822950318455696, 0.14396488666534424, 0.11714312434196472, 0.0049179550260305405, 0.037768930196762085, -0.16483217477798462, -0.21106219291687012, 0.022510714828968048, -0.10083363950252533, 0.21534667909145355, -0.0847221165895462, 0.16136634349822998, -0.10192804038524628, 0.031076719984412193, 0.09208548814058304, -0.13773274421691895, 0.10188329964876175, -0.25250113010406494, 0.06037096306681633, 0.06631743162870407, -0.09748609364032745, -0.16833677887916565, -0.061104580760002136, -0.12498465925455093, 0.18897999823093414, 0.011833040043711662, -0.01035709585994482, -0.0701950192451477, -0.04001206159591675, -0.005221073050051928, -0.1110759824514389, 0.06124507263302803, -0.227145254611969, -0.22742773592472076, -0.1665356457233429, -0.07562670111656189, -0.16076484322547913, -0.058061160147190094, -0.00796475075185299, 0.1022254005074501, -0.001238931086845696, 0.2084997296333313, -0.2031976729631424, -0.06071268394589424, -0.06334099173545837, -0.21782606840133667, -0.09948214888572693, -0.13397745788097382, -0.011184549890458584, 0.05570394918322563, 0.06517014652490616, 0.2794419527053833, 0.09754355996847153, -0.04266803711652756, 0.10457177460193634, 0.032471269369125366, 0.018194127827882767, 0.04108380898833275, -0.030217591673135757, -0.15626388788223267, -0.016681615263223648, -0.060263872146606445, 0.013627823442220688, 0.20109960436820984, 0.1581144779920578, -0.020482050254940987, -0.07230518013238907, -0.08512285351753235, -0.19692659378051758, -0.016269275918602943, -0.1868099868297577, 0.15201403200626373, -0.1439095139503479, -0.04899578168988228, 0.12373317033052444, -0.17438387870788574, -0.003899673465639353, 0.12875457108020782, 0.22469240427017212, 0.054086655378341675, -0.02536841295659542, 0.15843208134174347, 0.037239935249090195, -0.04260989651083946, -0.06055771932005882, 0.018127724528312683, 0.18458318710327148, 0.006302436348050833, 0.07977773994207382, -0.10178223997354507, 0.0922081470489502, 0.023555763065814972, -0.14234936237335205, -0.09342719614505768, -0.03144615516066551, 0.033021681010723114, -0.0590289942920208, 0.06209983304142952, 0.1576584130525589, -0.043287377804517746, -0.06626811623573303, 0.0889560654759407, 0.23135006427764893, 0.0707428902387619, 0.048357799649238586, -0.17149341106414795, 0.12085246294736862, 0.08629696071147919, 0.09758704900741577, 0.039501871913671494, -0.03288128972053528, 0.06679921597242355, 0.08690301328897476, 0.1027294173836708, -0.11177771538496017, 0.11664872616529465, 0.08822347968816757, 0.09050150215625763, -0.1437375247478485, 0.04293438419699669, -0.0556529276072979, 0.163506418466568, -0.3041626811027527, 0.11909303069114685, -0.023250283673405647, 0.047386471182107925, 0.1508217751979828, 0.08003565669059753, -0.22663530707359314, 0.05272895470261574, 0.0004381406179163605, 0.0004914107266813517, 0.0889679417014122, 0.010923421010375023, -0.02776709757745266, -0.0720030888915062, -0.08833517134189606, 0.013767475262284279, 0.05995948612689972, 0.032079920172691345, 0.06166299805045128, 0.12028612941503525, 0.061304379254579544, 0.054297301918268204, 0.05940012261271477, 0.04395052045583725, 0.13384243845939636, 0.06017956882715225, -0.0030650654807686806, 0.09026511758565903, -0.05206959694623947, 0.11430349200963974, -0.11773445457220078, 0.3007524609565735, 0.05633757263422012, 0.12935905158519745, -0.04947271570563316, 0.04393364489078522, 0.16343218088150024, -0.15876077115535736, -0.10695840418338776, 0.09813357144594193, -0.030684903264045715, -0.057320911437273026, 0.07402954250574112, -0.040193501859903336, -0.005475783254951239, -0.08716131001710892, 0.07418972253799438, 0.16619862616062164, -0.013850623741745949, 0.002338024089112878, 0.005552776623517275, -0.15497905015945435, 0.03056870959699154, -0.04054396599531174, -0.07484609633684158, -0.16242434084415436, -0.0953516736626625, -0.19769501686096191, 0.12665309011936188, 0.03260333463549614, -0.011331056244671345, 0.17953388392925262, -0.006088382564485073, 0.06264963746070862, -0.2680289149284363, -0.0675312951207161, 0.021074967458844185, -0.09161654114723206, 0.09538334608078003, -0.2915380299091339, 0.10318800806999207, -0.13852882385253906, -0.29332998394966125, -0.05888534337282181, 0.04287325590848923, 0.11768106371164322, 0.10739030689001083, -0.017796829342842102, 0.023132337257266045, -0.1051674336194992, -0.055287282913923264, -0.19014737010002136, 0.03679688274860382, -0.005303375422954559, -0.17290079593658447, 0.05397120490670204, 0.025571759790182114, 0.20416326820850372, -0.05482717975974083, -0.11617472022771835, -0.15062645077705383, 0.18569494783878326, -0.07883018255233765, 0.08089806139469147, -0.2307160347700119, 0.051073651760816574, 0.1644187867641449, 0.20998652279376984, -0.08223795890808105, 0.17509281635284424, -0.038631241768598557, 0.002310435753315687, 0.07919995486736298, 0.2143409103155136, 0.031205758452415466, 0.18891780078411102, -0.13427594304084778, -0.12247172743082047, -0.0695333182811737, -0.27147239446640015, 0.049432117491960526, -0.08945435285568237, 0.3239353597164154, -0.05086802691221237, 0.00017087791638914496, 0.22664545476436615, 0.02202649787068367, 0.11720521003007889, 0.013143285177648067, 0.023016810417175293, 0.27393949031829834, -0.07634951174259186, -0.03269864618778229, -0.0794047936797142, -0.08731408417224884, -0.04107513278722763, -0.1663963794708252, -0.03725368157029152, -0.05393329635262489, 0.1690537929534912, 0.12999093532562256, -0.1622377187013626, 0.10974763333797455, 0.1817435771226883, 0.016042787581682205, -0.0761910006403923, 0.15411244332790375, 0.01866547018289566, -0.1463184505701065, 