{"version": "0.5.2", "metadata": {"date": {"year": 2024, "month": 4, "day": 17, "hour": 14, "minute": 36, "second": 7}, "loudness": -15.446151733398438, "gain": 0.8375495601675943}, "architecture": "WaveNet", "config": {"layers": [{"input_size": 1, "condition_size": 1, "head_size": 8, "channels": 16, "kernel_size": 3, "dilations": [1, 2, 4, 8, 16, 32, 64, 128, 256, 512], "activation": "Tanh", "gated": false, "head_bias": false}, {"input_size": 16, "condition_size": 1, "head_size": 1, "channels": 8, "kernel_size": 3, "dilations": [1, 2, 4, 8, 16, 32, 64, 128, 256, 512], "activation": "Tanh", "gated": false, "head_bias": true}], "head": null, "head_scale": 0.02}, "weights": [-0.2501538097858429, 0.5849362015724182, -0.8348134756088257, -0.6051287055015564, -0.3656860291957855, 0.2782801389694214, -0.04945190250873566, 0.7907702326774597, -0.12499646842479706, 0.15149711072444916, -0.4601859450340271, -0.13978034257888794, -0.8547033667564392, -0.7900495529174805, -0.4831784963607788, -0.0164418313652277, 0.14294710755348206, 0.10782958567142487, -0.19878287613391876, -0.1368490755558014, -0.0034814956597983837, 0.16756820678710938, 0.043222907930612564, 0.1607389599084854, -0.0747872069478035, 0.08430764079093933, 0.18210209906101227, -0.18316146731376648, -0.02360881119966507, 0.011634628288447857, -0.10953110456466675, 0.0655316561460495, -0.13222667574882507, -0.0032955603674054146, -0.05704827234148979, -0.09976384788751602, -0.12961623072624207, 0.053996019065380096, 0.013167149387300014, 0.12191849201917648, 0.06668898463249207, -0.03406061604619026, -0.04000357165932655, -0.1821117401123047, -0.13244251906871796, -0.007731984369456768, 0.15465891361236572, 0.1276741921901703, -0.12669643759727478, 0.07153445482254028, 0.1518583744764328, 0.10389429330825806, 0.1256052702665329, 0.06979584693908691, 0.045502688735723495, -0.011786673218011856, 0.08205578476190567, -0.16070029139518738, -0.02531125769019127, -0.019552726298570633, 0.016174182295799255, -0.13438396155834198, -0.20172956585884094, -0.08451151102781296, -0.12431766837835312, -0.19455426931381226, 0.09952112287282944, 0.12804272770881653, 0.20429904758930206, 0.04221915453672409, -0.2038717418909073, -0.1654762327671051, 0.15405996143817902, 0.027377819642424583, 0.013402724638581276, 0.22002291679382324, -0.05787414312362671, -0.23194487392902374, 0.11409687995910645, -0.004103415179997683, -0.03131264075636864, 0.021198667585849762, 0.08003505319356918, -0.2080031782388687, 0.1316734403371811, 0.06683607399463654, 0.08713208884000778, -0.16474264860153198, -0.023323502391576767, -0.18711158633232117, 0.16175498068332672, 0.1372043937444687, 0.18771950900554657, -0.05550901219248772, -0.23889599740505219, -0.20739194750785828, 0.17526525259017944, -0.07425520569086075, -0.23644845187664032, -0.002754260553047061, 0.0460289865732193, -0.013678419403731823, 0.0316968634724617, -0.13066540658473969, -0.2526252269744873, 0.09300350397825241, -0.2030230015516281, -0.22613118588924408, 0.08779623359441757, -0.03306776285171509, -0.23336215317249298, -0.06681056320667267, -0.09421442449092865, 0.15424486994743347, 0.2606794834136963, -0.11621462553739548, -0.050211645662784576, -0.10364601016044617, 0.01718592643737793, 0.05134879797697067, 0.17388764023780823, 0.0045741405338048935, -0.057538554072380066, 0.17724484205245972, -0.1373257040977478, -0.0638408362865448, 0.08563414961099625, -0.05815683677792549, -0.06101927161216736, -0.23059794306755066, -0.07100806385278702, 0.010326058603823185, 0.01637565717101097, -0.004453854635357857, 0.08498550951480865, -0.13349898159503937, 0.015657860785722733, 0.033013515174388885, 0.1886785328388214, 0.08503939211368561, 0.11041738092899323, -0.03380183130502701, 0.1379021257162094, 0.016798481345176697, 0.0022839487064629793, -0.07325667887926102, 0.10950424522161484, 0.10114626586437225, -0.07452069967985153, -0.09421724826097488, -0.019870758056640625, -0.1222531720995903, -0.009486944414675236, 0.19810976088047028, 0.08089067786931992, -0.11542124301195145, 0.21319295465946198, -0.12715277075767517, -0.09061669558286667, -0.021849514916539192, -0.15064637362957, -0.016060153022408485, -0.10970941185951233, -0.010832916013896465, -0.026946038007736206, -0.011566109023988247, -0.1829458326101303, 0.053597208112478256, -0.11942186951637268, -0.1201673224568367, 0.1300470530986786, -0.043808966875076294, 0.009954349137842655, 0.04721211642026901, -0.12351138144731522, 0.19688130915164948, -0.02630080282688141, -0.08512303233146667, 0.06387344002723694, -0.0781906470656395, 0.07249648123979568, 0.08309604972600937, 0.10057974606752396, 0.026076097041368484, -0.032952696084976196, 0.060416851192712784, -0.010149657726287842, 0.08777327090501785, -0.1074485331773758, 0.07727740705013275, -0.002705420833081007, 0.09965138137340546, -0.08852815628051758, -0.10950393229722977, -0.10651146620512009, -0.07177948951721191, -0.19753089547157288, 0.05045101046562195, -0.07334219664335251, -0.1207241490483284, 0.005945132579654455, 0.10431644320487976, -0.23045721650123596, -0.1039644181728363, -0.0766686201095581, 0.018349336460232735, -0.13052934408187866, 0.011689039878547192, -0.08206520229578018, -0.02021428756415844, 0.08181464672088623, 0.035017818212509155, 0.047584012150764465, -0.1048671305179596, -0.06793946772813797, -0.010853137820959091, -0.0385284386575222, -0.13268519937992096, 0.09226439893245697, -0.04186750948429108, -0.07041288167238235, 0.11811939626932144, 0.128354012966156, 0.0632697269320488, -0.10890074819326401, -0.014882144518196583, -0.028934109956026077, 0.06441514194011688, 0.14964760839939117, 0.0388939194381237, 0.025919392704963684, 0.040848102420568466, 0.001667688018642366, 0.15301889181137085, 0.2147853821516037, -0.033645063638687134, 0.08278527855873108, -0.1813250035047531, -0.1181551069021225, 0.02533632144331932, 0.13494519889354706, 0.038732562214136124, -0.0819748118519783, 0.06328181177377701, 0.01529586873948574, -0.16555756330490112, 0.17942528426647186, -0.17989902198314667, -0.02582225203514099, 0.050026971846818924, -0.14006829261779785, -0.00909438356757164, 0.19407808780670166, -0.021925123408436775, -0.15774139761924744, -0.06782221049070358, 0.10141925513744354, 0.3086818754673004, -0.24213780462741852, -0.22623799741268158, -0.28002631664276123, 0.24231383204460144, 0.20626068115234375, 0.30719345808029175, -0.10100774466991425, 0.07911435514688492, 0.15415838360786438, -0.10282693803310394, 0.2423834502696991, 0.2298830896615982, -0.22039462625980377, -0.1893543154001236, -0.3241100013256073, 0.18913106620311737, 0.0002519742411095649, 0.051015328615903854, 0.07573091983795166, -0.22162459790706635, -0.21363799273967743, 0.18974469602108002, 0.13250890374183655, 0.11736985296010971, -0.2288031429052353, 0.01756114698946476, -0.1428167074918747, 0.2652485966682434, 0.08831290155649185, 0.24934834241867065, -0.18168669939041138, 0.1408146768808365, 0.12374752014875412, -0.08152410387992859, 0.17033837735652924, 0.19092288613319397, -0.1784849911928177, 0.04347873479127884, 0.30104589462280273, -0.25736474990844727, 0.19274067878723145, 0.15351301431655884, -0.2179284691810608, 0.019072605296969414, -0.06145657226443291, -0.12321275472640991, -0.17214933037757874, -0.12691406905651093, -0.01288569811731577, 0.24421602487564087, 0.09589821845293045, 0.05661928281188011, -0.29589203000068665, -0.05670246109366417, -0.016940036788582802, -0.22364768385887146, 0.02117556892335415, 0.02990894578397274, -0.24919606745243073, -0.03308212012052536, -0.0077806273475289345, 0.17242461442947388, 0.02992299012839794, 0.06890755146741867, -0.2153930962085724, 0.021081706508994102, 0.08450698852539062, 0.2992662787437439, 0.11286778748035431, 0.08055274933576584, -0.06377388536930084, -0.06101004779338837, -0.1445256769657135, 0.026541324332356453, 0.16654393076896667, 0.1448032408952713, -0.2659805715084076, 0.03679974377155304, 0.0553499311208725, -0.02227211557328701, 0.09857062250375748, 0.05138925090432167, -0.20279136300086975, -0.08229659497737885, 0.054171763360500336, -0.09565787017345428, -0.12135842442512512, 0.06128816679120064, -0.10920712351799011, 0.04241349548101425, -0.16015079617500305, 0.021276336163282394, -0.08236392587423325, 0.012399019673466682, 0.3120609521865845, -0.33097347617149353, -0.0939425379037857, -0.22641029953956604, 0.29561400413513184, 0.16822929680347443, 0.18663975596427917, -0.3085508942604065, -0.1971530318260193, 0.13504554331302643, -0.4468846619129181, 0.012103928253054619, 0.3627460300922394, -0.19649821519851685, 0.01690121926367283, -0.4148358702659607, 0.2394682615995407, 0.08234670013189316, 0.17626634240150452, -0.15939000248908997, -0.23483920097351074, -0.3492608666419983, 0.20507606863975525, 0.026808975264430046, 0.366827130317688, -0.24373193085193634, -0.04173886030912399, -0.13655708730220795, 0.4429633319377899, 0.06865250319242477, 0.3531171679496765, -0.22592049837112427, -0.0660351887345314, 0.42436325550079346, -0.2607884407043457, -0.008129824884235859, 0.22120793163776398, -0.26998502016067505, -0.08998514711856842, 0.2506020963191986, -0.4252903461456299, -0.1846599131822586, 0.17647656798362732, -0.24347633123397827, 0.0042228600941598415, 0.10034242272377014, -0.209133580327034, 0.05447566881775856, 0.0773107260465622, 0.04655967280268669, -0.020046377554535866, 0.16609644889831543, 0.021818770095705986, -0.15441355109214783, 0.10606566071510315, 0.14801061153411865, -0.004539418965578079, 0.04975637421011925, -0.045632414519786835, 0.02210570126771927, 0.09067396074533463, 0.043522100895643234, -0.05358178913593292, -0.011477124877274036, -0.07350285351276398, -0.07213373482227325, 0.0055643473751842976, 0.2003975361585617, 0.11380044370889664, -0.05752585828304291, -0.032155923545360565, 0.019130364060401917, 0.059236954897642136, -0.06209896132349968, 0.0661078467965126, -0.07618843019008636, -0.09573078900575638, 0.005568842403590679, -0.13603411614894867, 0.09438332170248032, 0.17444758117198944, -0.013948861509561539, -0.0528600737452507, -0.005271211266517639, -0.0016633684281259775, -0.07391714304685593, 0.11853276938199997, -0.16076445579528809, -0.09722266346216202, -0.08863367140293121, -0.05610800161957741, 0.1410854458808899, -0.08284442126750946, 0.030037282034754753, -0.15128742158412933, -0.02282227948307991, -0.010375963523983955, 0.14142528176307678, 0.09503882378339767, 0.16073502600193024, -0.00437484635040164, 0.14961132407188416, -0.18378956615924835, 0.25960081815719604, -0.07093372941017151, -0.009778540581464767, 0.020220821723341942, -0.11623719334602356, -0.2303253710269928, 0.074332594871521, -0.04890105873346329, -0.023355523124337196, -0.094148650765419, 0.15082570910453796, 0.041406143456697464, 0.12893441319465637, -0.029074616730213165, 0.038411423563957214, -0.07685636729001999, 0.2162778377532959, 0.03229382634162903, 0.16497968137264252, 0.02987276017665863, -0.04679481312632561, -0.22756139934062958, 0.1491587609052658, -0.1611427664756775, 0.22432175278663635, -0.16875435411930084, -0.14428353309631348, 0.030290018767118454, 0.005152086727321148, -0.09700421243906021, 0.24468669295310974, 0.013232341967523098, -0.0020949027966707945, 0.1458958387374878, -0.12161925435066223, -0.11836761236190796, 0.15818656980991364, -0.007853575050830841, 0.0410660095512867, 0.33405378460884094, 0.14124032855033875, -0.3849923312664032, -0.1441231667995453, 0.2568633258342743, 0.26699668169021606, -0.067108154296875, 0.046235647052526474, -0.06460867077112198, 0.01779433898627758, 0.17719446122646332, -0.2104269564151764, -0.022775888442993164, 0.11108184605836868, -0.1711425632238388, -0.012831431813538074, 0.017489586025476456, 0.2242569625377655, 0.021163662895560265, -0.11788926273584366, -0.009470291435718536, 0.053833674639463425, 0.04857415333390236, 0.14384020864963531, 0.14722570776939392, -0.07328380644321442, -0.0611741729080677, -0.07360979914665222, 0.13587269186973572, 0.008370023220777512, -0.03154196962714195, -0.13262522220611572, 0.005444580223411322, -0.09286301583051682, 0.07169175893068314, -0.2176865041255951, 0.0619199201464653, 0.17912520468235016, -0.23817068338394165, -0.1812150478363037, -0.053536877036094666, -0.1361970156431198, -0.10478873550891876, -0.03975812718272209, -0.18714353442192078, -0.040883734822273254, -0.02239464968442917, 0.16313156485557556, 0.09382475912570953, 0.13795682787895203, 0.18898095190525055, 0.20102812349796295, -0.21138328313827515, -0.0696660652756691, -0.11693468689918518, 0.2247537076473236, -0.05872100964188576, -0.07411132007837296, 0.0569535456597805, -0.01648159697651863, 0.09170836210250854, -0.09425918012857437, 0.03765201196074486, 0.02333148568868637, 0.0005634212284348905, -0.07183993607759476, -0.19890131056308746, 0.007692358922213316, -0.10971742868423462, -0.0022562798112630844, -0.31688156723976135, 0.06351832300424576, -0.09076779335737228, 0.06362450122833252, 0.13678236305713654, 0.07600811123847961, -0.02161945216357708, 0.023985261097550392, -0.09361532330513, -0.004104070831090212, 0.06029803305864334, 0.1708078235387802, -0.1487300843000412, -0.04377872869372368, 0.13718432188034058, 0.07333941757678986, 0.031767189502716064, -0.0577971488237381, -0.21580637991428375, 0.10906140506267548, 0.0497281439602375, -0.1602022498846054, 0.10109076648950577, 0.11425699293613434, 0.02622397616505623, 0.16768337786197662, 0.1054612249135971, -0.09150718152523041, -0.22797797620296478, 0.2622203826904297, 0.06685814261436462, 0.11194662749767303, -0.2271660715341568, 0.12933573126792908, 0.08410971611738205, 0.22778232395648956, -0.11854344606399536, -0.10243749618530273, -0.007229300681501627, 0.14061908423900604, -0.11511395871639252, 0.024932032451033592, 0.07820886373519897, -0.011500146239995956, -0.1630924642086029, -0.013772954232990742, -0.17536838352680206, -0.1633298248052597, 0.02107767015695572, -0.015943283215165138, -0.046334702521562576, 0.11936186999082565, 0.0060450974851846695, 0.09684394299983978, 0.11404512822628021, 0.06090273708105087, -0.15416540205478668, 0.1250893622636795, -0.016662387177348137, -0.041198913007974625, -0.03655862808227539, -0.14659711718559265, 0.22512578964233398, -0.01509546022862196, -0.17756804823875427, 0.08728230744600296, 0.09908903390169144, -0.011954366229474545, 0.14388443529605865, 0.019401606172323227, 0.0010235670488327742, 0.06158812344074249, -0.054195668548345566, -0.1857193112373352, -0.06966183334589005, 0.016361990943551064, -0.3324536085128784, 0.0042921872809529305, 0.1653105765581131, 0.16951797902584076, -0.08562745153903961, 0.06443002820014954, -0.24809451401233673, 0.10344532132148743, -0.04465166851878166, -0.19302582740783691, 0.06357654929161072, 0.009352258406579494, -0.03830907493829727, -0.1124722808599472, -0.05015959218144417, 0.08591311424970627, 0.025830760598182678, 0.049820076674222946, -0.15196624398231506, 0.08178989589214325, 0.0776369571685791, 0.12640081346035004, 0.1173572987318039, -0.18542784452438354, -0.12225205451250076, 0.1387631744146347, 0.07034025341272354, 0.24482668936252594, -0.04501298442482948, 0.03704095631837845, -0.30114707350730896, -0.031614866107702255, 0.05223111808300018, -0.1260872483253479, 0.027196962386369705, 0.16601283848285675, -0.1783456951379776, -0.01768162101507187, 0.1699966937303543, -0.20315797626972198, 0.11131951212882996, -0.026736652478575706, -0.18357792496681213, -0.02801975980401039, 0.12977492809295654, 0.02852020412683487, -0.04517995938658714, -0.16635948419570923, 0.06361380964517593, 0.15885885059833527, -0.06695829331874847, -0.0383930504322052, -0.04757604002952576, 0.20952874422073364, -0.03061540797352791, 0.007693441119045019, 0.029143908992409706, -0.14961789548397064, 0.17367520928382874, -0.04673486575484276, -0.11321857571601868, 0.18889819085597992, -0.20239980518817902, 0.08215007185935974, -0.22469256818294525, 0.06011147052049637, -0.013016742654144764, 0.24245530366897583, -0.12865401804447174, 0.13719722628593445, -0.15989044308662415, 0.0022939625196158886, -0.17302663624286652, 0.005665648728609085, 0.07039592415094376, 0.018710214644670486, -0.10861015319824219, 0.11826097220182419, 0.050492845475673676, 0.264352411031723, 0.040532466024160385, -0.1315896213054657, 0.13187181949615479, -0.1366988867521286, -0.12679526209831238, 0.1752028614282608, 0.06601247191429138, -0.15940739214420319, 0.23349706828594208, -0.14405876398086548, -0.06747985631227493, 0.26196831464767456, -0.10057085007429123, -0.02097201906144619, -0.0522296167910099, 0.08902747929096222, 0.25840049982070923, -0.03622716665267944, -0.07168848812580109, -0.2786255180835724, -0.17300410568714142, 0.07204888015985489, 0.28162670135498047, 0.010970170609652996, -0.0014239520533010364, 0.2885836064815521, 0.14883138239383698, -0.14277176558971405, 0.1389801800251007, -0.0024637929163873196, -0.19151681661605835, -0.16571268439292908, 0.0633155032992363, 0.2010650634765625, 0.1074162945151329, 0.036015585064888, -0.17567548155784607, -0.054204024374485016, -0.10811321437358856, -0.026103222742676735, 0.1467481404542923, 0.09783919155597687, -0.24512243270874023, 0.007369979750365019, 0.02793950028717518, -0.014333236031234264, 0.12867648899555206, 0.16220127046108246, -0.2000473290681839, 0.13912414014339447, 0.11608699709177017, -0.1750945895910263, 0.23913328349590302, 0.12428704649209976, 0.019032170996069908, 0.07502424716949463, 0.1961582899093628, -0.15513209998607635, 0.30776387453079224, -0.08821547031402588, -0.1980292946100235, 0.04449468478560448, -0.046158317476511, -0.14197756350040436, -0.1276724487543106, -0.05475722625851631, 0.05893025919795036, -0.07015004009008408, 0.08712662011384964, -0.09922537952661514, 0.23379148542881012, -0.011874317191541195, 0.14161819219589233, 0.1558128297328949, -0.06525199860334396, -0.019961370155215263, -0.028955813497304916, 0.07640474289655685, -0.07221494615077972, -0.05455875024199486, 0.4923877418041229, -0.5224403738975525, 0.6866576075553894, -0.7158243656158447, -0.06722373515367508, 1.0514968633651733, 1.0614163875579834, -0.4752154052257538, 0.1335471272468567, 0.19718465209007263, -0.5229157209396362, -0.26452285051345825, 0.2632591128349304, -0.7660275101661682, 0.23437568545341492, 0.49864885210990906, -0.3564029037952423, 0.4313390851020813, -0.08577585220336914, 0.29519733786582947, 0.3720654547214508, -0.3078131377696991, 0.12866482138633728, -0.2640742063522339, -0.09764330834150314, 0.038284413516521454, 0.287434846162796, -0.02757590264081955, -0.09818648546934128, 0.360200434923172, 0.045061253011226654, -0.4692247807979584, 0.11309507489204407, -0.16919764876365662, -0.23642468452453613, 0.09574753046035767, -0.03926972672343254, 0.06752579659223557, -0.1259244680404663, 0.08498737961053848, -0.0575355589389801, 0.13978832960128784, -0.03146651014685631, 0.05562854930758476, 0.18940415978431702, -0.09333089739084244, 0.1108034998178482, 0.3120536506175995, 0.1664331555366516, 0.1335792988538742, 0.0982021912932396, 0.19773881137371063, -0.09851154685020447, -0.2044999599456787, 0.19304439425468445, -0.47519007325172424, 0.026738984510302544, -0.063661590218544, 0.32460087537765503, -0.22509101033210754, 0.1879037320613861, 0.31588494777679443, 0.3036230504512787, -0.1581316590309143, 0.1993350386619568, -0.33702385425567627, 0.01285164337605238, -0.2823903560638428, 0.06061233580112457, 0.1286439448595047, 0.061215195804834366, -0.06234203279018402, -0.06674142181873322, 0.18075817823410034, -0.017076849937438965, -0.04156005382537842, 0.11646037548780441, 0.10646256059408188, -0.07479144632816315, -0.06406911462545395, -0.1562040001153946, -0.3103564977645874, -0.1860228329896927, 0.15674558281898499, 0.22162513434886932, 0.344369500875473, 0.31258508563041687, -0.7489093542098999, 0.06713499128818512, 0.3506523370742798, -0.12277527153491974, 0.2061779499053955, 0.1452539563179016, 0.24148884415626526, 0.08944389224052429, 0.02220959961414337, -0.0025207349099218845, -0.15345355868339539, 0.06051422655582428, 0.07993455976247787, 0.07595620304346085, 0.34557005763053894, 0.1359618455171585, 0.22957225143909454, 0.1731768250465393, -0.03821181505918503, -0.2869400978088379, -0.020704107359051704, 0.23716530203819275, -0.27382153272628784, 0.333707720041275, 0.37305378913879395, 0.09602617472410202, 0.10583748668432236, 0.09787969291210175, 0.11051971465349197, -0.2587921917438507, -0.2829122245311737, 0.10999290645122528, 0.09008315950632095, 0.05555864796042442, -0.36786970496177673, -0.29061636328697205, 0.19654099643230438, -0.013066142797470093, -0.1523263156414032, -0.017945069819688797, -0.0283073578029871, 0.22704309225082397, 0.07790333032608032, 0.16807213425636292, -0.12036064267158508, -0.2297551929950714, 0.20803949236869812, 0.17844130098819733, 0.12534835934638977, 0.011117925867438316, -0.2589722275733948, 0.16438248753547668, -0.16027595102787018, 0.0567152164876461, -0.13091428577899933, -0.10910408198833466, 0.12145736813545227, -0.07380031049251556, 0.035181984305381775, -0.2422763854265213, -0.24216331541538239, -0.046557605266571045, -0.18544626235961914, -0.1621149629354477, 0.009989888407289982, -0.19682006537914276, -0.3097335398197174, 0.06179262697696686, 0.12265390902757645, 0.05433327332139015, -0.14749403297901154, 0.09983455389738083, 0.06580068916082382, -0.3401198387145996, 0.04733797535300255, 0.057611361145973206, -0.1583484560251236, -0.12371369451284409, -0.13504599034786224, 0.022939307615160942, -0.33453482389450073, 0.015399960801005363, 0.21983852982521057, 0.028952332213521004, 0.1179199293255806, 0.13935478031635284, 0.358530730009079, -0.10385910421609879, 0.019802501425147057, 0.08961110562086105, 0.24519576132297516, -0.23841670155525208, 0.09170835465192795, -0.21744434535503387, -0.3199210464954376, 0.02208760753273964, -0.11172138899564743, -0.030432943254709244, -0.2264573872089386, -0.18865102529525757, 0.07093357294797897, 0.047301050275564194, 0.1325993537902832, 0.114077627658844, 0.17072613537311554, -0.01676149107515812, -0.07362623512744904, 0.0553845651447773, -0.05068322271108627, 0.04752471670508385, -0.20806634426116943, -0.052041225135326385, 0.04399416968226433, -0.02020016498863697, -0.17714999616146088, 0.00012755085481330752, -0.09264001250267029, -0.11712167412042618, 0.1888205111026764, -0.20239271223545074, -0.3388054370880127, -0.12710286676883698, 0.02204909175634384, 0.18845848739147186, 0.01971084251999855, 0.17076049745082855, -0.29474902153015137, 0.11039382219314575, 0.45854055881500244, 0.3152059316635132, -0.0428549200296402, 0.03330617398023605, -0.07014510780572891, -0.12404483556747437, -0.13602657616138458, -0.43762195110321045, -0.048403773456811905, 0.043646715581417084, -0.18152397871017456, -0.12034012377262115, 0.047732360661029816, -0.19645226001739502, 0.1313086748123169, 0.22386792302131653, 0.10612300038337708, -0.0420963428914547, -0.14253012835979462, -0.029864907264709473, 0.07567620277404785, -0.10739964246749878, -0.12226961553096771, -0.0725792944431305, 0.15446361899375916, 0.06784726679325104, 0.28205782175064087, -0.06404603272676468, -0.23165756464004517, -0.035820357501506805, -0.022332917898893356, 0.14084811508655548, 0.24669149518013, -0.26437437534332275, 0.03706226870417595, -0.012886044569313526, -0.0036550513468682766, 0.11336564272642136, 0.060588568449020386, -0.09179031848907471, 0.01096862368285656, 0.10675672441720963, -0.034481532871723175, 0.1248774453997612, -0.1483035534620285, -0.15335862338542938, 0.18902216851711273, 0.07528292387723923, 0.37368351221084595, -0.11031051725149155, -0.17722086608409882, -0.12135480344295502, -0.15211121737957, -0.019108913838863373, 0.07690934836864471, -0.021613458171486855, 0.08352572470903397, 0.19402334094047546, -0.1847630888223648, 0.10395630449056625, -0.09098049253225327, -0.1069222092628479, -0.05369376763701439, 0.14289778470993042, 0.0049127391539514065, -0.06994274258613586, -0.08515731245279312, 0.03612760081887245, 0.012129404582083225, 0.03242498263716698, 0.04896298795938492, -0.0612855963408947, 0.01474682241678238, 0.1418454945087433, 0.031069163233041763, -0.14900436997413635, 0.12993240356445312, -0.09560755640268326, 0.15076975524425507, 0.04053840786218643, 0.0948982983827591, -0.045474253594875336, -0.12966109812259674, 0.001945899915881455, 0.022185875102877617, 0.21327842772006989, 0.059388481080532074, -0.015415969304740429, 0.0862576961517334, -0.16338622570037842, 0.176018625497818, -0.25716957449913025, -0.09864936023950577, 0.16406121850013733, 0.05829306319355965, -0.017713632434606552, -0.1059446632862091, -0.12040550261735916, 0.0027031884528696537, -0.10146883130073547, -0.03104740008711815, 0.14316144585609436, -0.2282855063676834, -0.14194072782993317, -0.046364083886146545, 0.00846678763628006, -0.11378185451030731, 0.009744404815137386, -0.1567353904247284, -0.19080743193626404, 0.06289131194353104, 0.02970677986741066, -0.16736938059329987, 0.0628291666507721, -0.043953582644462585, -0.041301701217889786, 0.2836481034755707, 0.19007062911987305, 0.0980938971042633, -0.05102899670600891, 0.06357646733522415, -0.09069236367940903, 0.13535816967487335, -0.11526133865118027, -0.11271502822637558, -0.0034730867482721806, 0.2111559510231018, -0.16477449238300323, 0.12023153901100159, -0.033381979912519455, -0.09114138036966324, 0.14734715223312378, -0.06654591858386993, 0.09833655506372452, -0.04539923369884491, 0.020603131502866745, -0.02086915262043476, -0.360131174325943, 0.07838261872529984, 0.046699780970811844, -0.014092719182372093, 0.05752972140908241, 0.2225387543439865, -0.20429818332195282, 0.012460526078939438, -0.21300379931926727, 0.07335852831602097, 0.023935619741678238, 0.1699499785900116, 0.031170973554253578, -0.1922484040260315, -0.04842689260840416, 0.16649524867534637, 0.03620726615190506, -0.3169701397418976, 0.343801885843277, -0.38880279660224915, -0.1812092363834381, 0.0621911883354187, 0.018167121335864067, -0.01316068135201931, 0.09018535912036896, 0.03143273666501045, -0.11242833733558655, 0.12194865196943283, -0.12886492908000946, 0.09176099300384521, 0.08506935089826584, -0.03623240068554878, -0.24276188015937805, -0.29541563987731934, -0.04186509922146797, 0.2480151206254959, 0.2171669900417328, 0.003836616175249219, -0.05587221682071686, -0.11315613240003586, -0.12276807427406311, 0.24626947939395905, -0.002846372779458761, -0.0810648649930954, 0.2108439803123474, -0.20333650708198547, -0.11149340122938156, -0.05564479902386665, 0.23162153363227844, 0.21146437525749207, 0.3275910019874573, -0.08105967193841934, -0.05518767237663269, -0.2343890219926834, -0.013019674457609653, 0.17784717679023743, 0.17596064507961273, -0.13558301329612732, -0.07293505221605301, -0.20727266371250153, 0.05081694573163986, -0.17611739039421082, 0.09153328835964203, -0.1842624694108963, 0.04155176132917404, 0.014987042173743248, -0.29040035605430603, 0.19200916588306427, 0.2160203754901886, -0.06354318559169769, -0.09758275002241135, 0.10738851130008698, -0.04482776299118996, 0.06689372658729553, 0.09770578891038895, 0.08987531065940857, 0.12467179447412491, -0.07405966520309448, 0.20684348046779633, 0.3666972815990448, -0.09587857127189636, -0.3472099006175995, 0.20096012949943542, -0.0921892523765564, 0.16097413003444672, 0.013540582731366158, 0.21651001274585724, -0.4605398178100586, -0.054504018276929855, 0.1792394071817398, -1.625602089916356e-05, -0.11847056448459625, 0.06697572767734528, -0.2673231065273285, 0.04668167233467102, -0.25894656777381897, 0.5272342562675476, 0.03314116969704628, 0.21322360634803772, 0.10379006713628769, -0.02523280680179596, -0.3076465427875519, 0.21947325766086578, 0.09667474776506424, 0.2602269947528839, -0.23615829646587372, -0.007341804448515177, 0.005415907595306635, -0.18064472079277039, 0.0515405647456646, 0.2818814516067505, -0.22825436294078827, -0.04158034175634384, 0.40949615836143494, -0.5521560311317444, 0.39198118448257446, 0.23922230303287506, -0.021412266418337822, -0.11896374821662903, 0.21477755904197693, -0.1790337711572647, -0.10233163833618164, 0.18492604792118073, -0.1944008469581604, 0.25861459970474243, -0.09632667154073715, 0.2715390920639038, 0.08067497611045837, -0.2553977072238922, -0.21811643242835999, 0.12514100968837738, 0.24924048781394958, 0.2793142795562744, 0.03334629163146019, -0.029683498665690422, -0.10676474124193192, -0.13805928826332092, -0.009644616395235062, 0.05793382227420807, 0.0365627259016037, 0.26828670501708984, 0.1836887001991272, -0.48491936922073364, -0.055192992091178894, 0.37751156091690063, -0.1248563826084137, 0.19879013299942017, -0.2292080968618393, -0.036706142127513885, -0.12318012118339539, 0.22391484677791595, 0.1556471884250641, 0.26467251777648926, -0.011702882125973701, -0.06015855446457863, -0.16545064747333527, -0.06057865917682648, 0.0032221984583884478, 0.310520201921463, -0.14374959468841553, -0.030095314607024193, -0.3410421311855316, -0.3854433298110962, 0.2984011173248291, -0.15319576859474182, -0.40311652421951294, 0.07534173876047134, 0.11071313917636871, -0.0779070258140564, -0.0033122024033218622, 0.12982237339019775, -0.2519993185997009, 0.054490990936756134, -0.02628740482032299, -0.015812987461686134, 0.06518277525901794, -0.04223737120628357, -0.024500971660017967, -0.1300266683101654, -0.07017333805561066, 0.039641112089157104, 0.01025778241455555, -0.14983828365802765, -0.0019935299642384052, 0.019568221643567085, -0.08670394867658615, 0.003920458257198334, 0.10192572325468063, -0.2483145296573639, -0.12148790806531906, 0.24209094047546387, 0.18986688554286957, -0.17194107174873352, 0.11903190612792969, -0.0321476049721241, -0.20515576004981995, -0.1678358018398285, 0.1982555389404297, -0.048145655542612076, 0.27466127276420593, 0.03933490812778473, 0.08024446666240692, -0.19042424857616425, 0.20027340948581696, 0.05607287958264351, 0.08656278252601624, -0.04377119615674019, 0.02021186240017414, -0.08011266589164734, 0.20303307473659515, 0.07625937461853027, -0.016501033678650856, 0.00015071409870870411, 0.20409157872200012, -0.009356889873743057, -0.20464326441287994, -0.2065068930387497, 0.05233326926827431, -0.2135813981294632, 0.14493794739246368, -0.22263798117637634, -0.004314167890697718, -0.057043109089136124, 0.06914423406124115, -0.07525424659252167, 0.054909173399209976, 0.26758337020874023, 0.10201764851808548, 0.1293729990720749, -0.24615825712680817, -0.07042139768600464, -0.09888668358325958, 0.3355496823787689, 0.1095661148428917, -0.04563276469707489, -0.07807257771492004, -0.1409863829612732, 0.09245184808969498, -0.08037300407886505, 0.2053866684436798, 0.15319420397281647, -0.10529234260320663, 0.21474462747573853, -0.06789945811033249, 0.11632581055164337, 0.00568729592487216, 0.20609718561172485, -0.056520283222198486, -0.025432005524635315, -0.20205724239349365, -0.15415191650390625, 0.024745885282754898, 0.0780901089310646, 0.12338147312402725, 0.04270477592945099, -0.19547425210475922, 0.06551900506019592, -0.16167475283145905, 0.06104391813278198, 0.4016555845737457, 0.02986861579120159, 0.05700721591711044, 0.3146303594112396, -0.032795678824186325, 0.0006174786249175668, -0.21793656051158905, -0.2292088270187378, -0.11883895844221115, 0.1451803743839264, -0.04832174628973007, -0.0016228582244366407, -0.16763772070407867, -0.18076835572719574, -0.017939193174242973, 0.09474347531795502, 0.1977948695421219, -0.03130234777927399, -0.07863731682300568, -0.03978549316525459, 0.016243955120444298, 0.07258109003305435, 0.04479609802365303, -0.06003142148256302, -0.03465334326028824, 0.38786783814430237, -0.10009822249412537, -0.2424381971359253, 0.22340889275074005, -0.05986319109797478, 0.012006629258394241, -0.08214358985424042, -0.12590976059436798, 0.041339825838804245, -0.0100204823538661, -0.0133367870002985, -0.008649987168610096, 0.03791750594973564, -0.1635158509016037, 0.13991881906986237, 0.15257973968982697, 0.1887703239917755, -0.05450752004981041, 0.11208837479352951, -0.18918801844120026, -0.02299000509083271, -0.19947679340839386, -0.10051853954792023, 0.04125306382775307, -0.2346697300672531, -0.13593442738056183, -0.023476749658584595, -0.14213106036186218, -0.06386642903089523, -0.09548160433769226, 0.013656416907906532, 0.03743133321404457, 0.2576969265937805, -0.12384611368179321, -0.02681741863489151, 0.15521377325057983, 0.056202955543994904, 0.00410626083612442, -0.07819261401891708, -0.17946459352970123, -0.1253810077905655, -0.10977427661418915, 0.1974044293165207, 0.13381969928741455, 0.24966569244861603, 0.21094632148742676, 0.14104436337947845, 0.007633296772837639, 0.3408842980861664, 0.3006698489189148, -0.10457738488912582, 0.019385553896427155, 0.20954662561416626, -0.1124020367860794, 0.0409979410469532, 0.032666612416505814, 0.10551872104406357, -0.14915518462657928, -0.12332591414451599, -0.006249971687793732, -0.013900834135711193, -0.0897790938615799, 0.26720237731933594, -0.031413886696100235, 0.05693890154361725, -0.24590936303138733, 0.05065595731139183, -0.030872978270053864, 0.04827708750963211, -0.23043686151504517, -0.3315318524837494, 0.19862119853496552, -0.004503204487264156, 0.07127895206212997, 0.18469944596290588, 0.12697628140449524, 0.05575152114033699, 0.043994441628456116, 0.11640967428684235, 0.01686595380306244, 0.2207837849855423, 0.07014791667461395, -0.005279748700559139, -0.05463838949799538, 0.09191424399614334, 0.18065397441387177, -0.13343635201454163, -0.08351146429777145, 0.09294801950454712, 0.14995086193084717, -0.2226409912109375, -0.008687569759786129, -0.0698321983218193, -0.13721606135368347, 0.1513916254043579, -0.04301697388291359, 0.09789548814296722, 0.03813626244664192, -0.1448584944009781, 0.10645629465579987, -0.07381610572338104, 0.04854881390929222, -0.08366075158119202, -0.008529514074325562, 0.152894988656044, 0.08112526684999466, 0.01388991717249155, 0.12217539548873901, -0.1955573707818985, 0.1381656974554062, 0.03711298853158951, 0.02162264660000801, -0.07960543781518936, 0.055217545479536057, -0.2664283514022827, 0.048672132194042206, 0.16110339760780334, -0.3264615535736084, 0.1183117926120758, -0.3535863757133484, -0.23348009586334229, -0.09901861101388931, -0.04542377218604088, -0.22023342549800873, 0.024036509916186333, 0.017099425196647644, -0.28973445296287537, -0.1911366581916809, -0.022937631234526634, 0.05807504802942276, 0.05834691971540451, -0.07721646130084991, -0.22851558029651642, 0.07422906905412674, -0.006149063818156719, -0.0475124828517437, 0.04815762862563133, -0.1289951205253601, -0.011389261111617088, -0.0871439054608345, 0.026177728548645973, -0.08880600333213806, -0.0994987040758133, -0.061098963022232056, -0.08237028121948242, -0.38601014018058777, -0.1787935048341751, 0.07948002219200134, 0.0975847914814949, 0.06919028609991074, 0.0421999990940094, 0.12475048005580902, 0.09179466962814331, -0.07300126552581787, 0.16253453493118286, 0.19767118990421295, 0.04295163229107857, -0.0047710249200463295, 0.008441981859505177, -0.16356384754180908, -0.25086089968681335, -0.045419227331876755, 0.1809869110584259, -0.06128952279686928, -0.18456584215164185, -0.09334957599639893, 0.006692755036056042, 0.0032867377158254385, 0.14504015445709229, 0.15527944266796112, -0.02762787975370884, 0.13450287282466888, -0.019215283915400505, -0.033468931913375854, 0.13454817235469818, 0.10594569891691208, -0.05530849099159241, -0.05332563817501068, -0.031915731728076935, 0.06009683758020401, 0.10193489491939545, -0.07607044279575348, -0.030174952000379562, -0.006240959744900465, -0.013896978460252285, -0.2136419266462326, -0.031219255179166794, 0.1677679419517517, 0.18267489969730377, 0.08551245182752609, 0.1116514727473259, 0.04304250702261925, 0.13624709844589233, 0.2507866322994232, -0.11333736777305603, -0.013512094505131245, 0.2876332104206085, -0.0043742237612605095, -0.06569869816303253, -0.1736821085214615, 0.0834968164563179, 0.10815340280532837, 0.21603135764598846, 0.10897503048181534, 0.13588395714759827, -0.18023696541786194, -0.13192284107208252, -0.2141127735376358, 0.0725395530462265, -0.05652386695146561, -0.030435536056756973, -0.0272537749260664, -0.12997232377529144, -0.09919247776269913, -0.20169930160045624, 0.21941988170146942, -0.07422830164432526, -0.12368673831224442, 0.11901822686195374, 0.1493532657623291, 0.051315419375896454, -0.0189027339220047, 0.17098505795001984, 0.07510682940483093, 0.028437849134206772, -0.1315612494945526, -0.004404874052852392, 0.06440461426973343, -0.012819170020520687, 0.08478228002786636, -0.11926023662090302, 0.0937788188457489, 0.059583768248558044, 0.021326132118701935, 0.11424319446086884, 0.12037092447280884, -0.09404090791940689, -0.06271203607320786, -0.008472505025565624, -0.07943640649318695, -0.07373125851154327, -0.08431846648454666, -0.13762590289115906, -0.1108245849609375, -0.17989106476306915, 0.2063937932252884, -0.13212080299854279, -0.16230008006095886, -0.09933507442474365, -0.06568241119384766, -0.0893416479229927, 0.12159726768732071, -0.1300780475139618, 0.07660899311304092, 0.04950952157378197, -0.06510500609874725, 0.008584294468164444, -0.15102902054786682, 0.0846785455942154, 0.1637192964553833, -0.02459162473678589, 0.19811485707759857, -0.115806944668293, -0.09140801429748535, 0.10310039669275284, 0.007695313543081284, 0.05071670562028885, -0.06155891716480255, -0.01947338692843914, -0.12376294285058975, 0.12443947792053223, 0.011422613635659218, -0.009317616000771523, -0.00515872985124588, 0.016805512830615044, -0.01787692680954933, 0.17072057723999023, -0.07844027131795883, -0.010284852236509323, -0.17099297046661377, 0.12593911588191986, 0.032383281737565994, 0.16666461527347565, -0.10481297224760056, 0.03340790420770645, -0.1501636654138565, 0.04498602822422981, 0.053464289754629135, -0.32488349080085754, 0.2605515122413635, 0.30589473247528076, -0.2743474245071411, 0.07358644157648087, -0.021507468074560165, 0.017499327659606934, 0.04249129816889763, -0.0775582417845726, 0.21174275875091553, 0.05496532842516899, 0.02511347457766533, -0.07581004500389099, -0.10011421144008636, 0.035674482583999634, 0.2248384803533554, -0.035485342144966125, 0.23359817266464233, -0.08726717531681061, -0.011782164685428143, -0.0980454608798027, 0.421997994184494, 0.051051706075668335, -0.1316969394683838, 0.06360781937837601, -0.03733013570308685, -0.06411928683519363, 0.0007216649246402085, 0.07999977469444275, -0.15931743383407593, 0.1690833866596222, -0.041833311319351196, -0.2102944254875183, -0.02611365355551243, -0.07867905497550964, 0.033280130475759506, -0.1361362487077713, 0.0717908963561058, -0.3123052716255188, 0.01687433198094368, 0.16949306428432465, 0.0723583996295929, -0.14624527096748352, 0.15542346239089966, -0.12234822660684586, -0.07719291001558304, -0.010501917451620102, -0.020725887268781662, 0.09830689430236816, 0.1897077113389969, -0.08653412759304047, 0.2632392346858978, -0.20275269448757172, 0.013306381180882454, 0.0006235844339244068, 0.1394011229276657, 0.15749700367450714, 0.14833281934261322, -0.06547083705663681, -0.07549818605184555, -0.04667612537741661, -0.07053954899311066, -0.021892668679356575, 0.05877578258514404, -0.07815568149089813, 0.10198930650949478, -0.13940051198005676, 0.1281806230545044, 0.11520933359861374, -0.14924325048923492, 0.33520984649658203, -0.37613940238952637, -0.07366202026605606, 0.04478519782423973, 0.004999418277293444, -0.1420363187789917, -0.041965413838624954, -0.06736625730991364, -0.3295317590236664, -0.04334919527173042, -0.3260769844055176, 0.20620861649513245, -0.04259136691689491, 0.05986550450325012, -0.050546348094940186, 0.25793883204460144, -0.23915182054042816, 0.05533488839864731, 0.05027366429567337, 0.1246524453163147, -0.12812243402004242, 0.21497224271297455, -0.033447958528995514, -0.03188344091176987, 0.12101340293884277, -0.11349109560251236, -0.15640662610530853, 0.09564387053251266, -0.074516162276268, 0.16367068886756897, -0.3117656707763672, -0.0022443027701228857, -0.12267079949378967, 0.07950829714536667, -0.17190605401992798, 0.24569512903690338, -0.22609849274158478, -0.09350457787513733, -0.28862476348876953, 0.0023407605476677418, 0.013645913451910019, 0.03378543257713318, 0.15453986823558807, 0.17914104461669922, -0.19868798553943634, 0.168046772480011, -0.09096056967973709, -0.20222638547420502, 0.2982342541217804, -0.1376267820596695, -0.23137299716472626, -0.060279861092567444, 0.03816412389278412, -0.09664914757013321, 0.11486940085887909, -0.12310197204351425, -0.17343822121620178, -0.056717004626989365, -0.1582343429327011, 0.23258613049983978, 0.12193768471479416, 0.17011624574661255, 0.0899883583188057, 0.0833904966711998, -0.08476584404706955, 0.08292646706104279, -0.216840922832489, 0.06987497210502625, 0.15976928174495697, 0.12369585037231445, -0.07082531601190567, -0.04947033151984215, 0.02977307327091694, 0.00238547520712018, 0.06189030408859253, -0.010131110437214375, 0.09830529987812042, -0.04549271985888481, -0.34684497117996216, 0.2726505398750305, 0.3693884313106537, -0.4861685037612915, 0.21125543117523193, -0.7113735675811768, -0.31796133518218994, -0.3807201683521271, 0.7076316475868225, -0.9517406225204468, -0.457807719707489, -0.9253894686698914, 0.28185006976127625, -0.7736709713935852, 0.3172732889652252, -0.7076701521873474, -0.10652654618024826, -0.026971766725182533, 0.041320234537124634, 0.33619698882102966, 0.23574014008045197, 0.022479090839624405, -0.18149419128894806, -0.184110626578331, -0.10270245373249054, -0.10473498702049255, 0.12635068595409393, 0.03410988673567772, 0.05758198723196983, 0.17612016201019287, -0.06544602662324905, -0.05878518149256706, -0.04481695592403412, -0.22511938214302063, -0.06409167498350143, -0.03596298396587372, -0.26393547654151917, -0.0305185467004776, 0.20353583991527557, -0.10778114944696426, 0.12385641783475876, -0.21945996582508087, 0.11860445886850357, 0.25685903429985046, -0.07628831267356873, 0.009925562888383865, 0.04050030559301376, 0.10522044450044632, 0.03649856150150299, -0.044132351875305176, -0.020176267251372337, 0.24087406694889069, -0.04798410087823868, 0.13572649657726288, -0.14340166747570038, -0.2372790426015854, -0.08045715093612671, 0.018712211400270462, -0.25543370842933655, -0.2981417179107666, 0.1825544536113739, 0.1275685727596283, 0.10241024196147919, -0.0887133777141571, 0.18109552562236786, 0.015050303190946579, -0.10597143322229385, -0.13028420507907867, -0.08013666421175003, -0.002493299078196287, -0.12064260244369507, -0.06140311434864998, -0.14220884442329407, 0.12004032731056213, 0.052567366510629654, 0.22963079810142517, 0.26825734972953796, -0.002898900303989649, 0.24307991564273834, -0.06480176001787186, 0.32719624042510986, 0.03383297473192215, -0.08969186991453171, -0.14609648287296295, 0.13664798438549042, -0.09618673473596573, 0.01796223595738411, 0.34773093461990356, 0.44321560859680176, 0.0419035330414772, 0.013266101479530334, 0.5138129591941833, -0.1658514142036438, -0.08233238756656647, -0.2847510874271393, -0.06093869358301163, -0.14328910410404205, -0.16635243594646454, -0.33497872948646545, -0.21028707921504974, -0.007875647395849228, -0.23980730772018433, -0.062098316848278046, 0.09133484959602356, 0.2243621051311493, 0.2892426550388336, -0.0734124630689621, -0.07825968414545059, -0.13581258058547974, -0.04421050474047661, 0.026070276275277138, 0.16878817975521088, 0.002903758315369487, -0.17474816739559174, 0.18945810198783875, -0.22089557349681854, 0.1335231363773346, 0.2834981679916382, -0.27894848585128784, -0.13773968815803528, 0.03310203179717064, -0.0037110524717718363, -0.17578019201755524, 0.2022053599357605, -0.010788151063024998, 0.04693523049354553, -0.3377860486507416, 0.2404082864522934, 0.06350504606962204, 0.11036607623100281, -0.08103317767381668, 0.06973621249198914, 0.08189211040735245, -0.06042291969060898, -0.19499877095222473, -0.020636389032006264, 0.01327404472976923, 0.39506664872169495, -0.23507289588451385, 0.013122917152941227, -0.10057014971971512, 0.3110456168651581, 0.11982275545597076, 0.24724842607975006, -0.0793900266289711, 0.018149642273783684, -0.15805454552173615, -0.16728776693344116, -0.24038130044937134, -0.09401647746562958, 0.054167427122592926, -0.05169195309281349, -0.07650928199291229, -0.06678002327680588, 0.26350441575050354, -0.03307633101940155, -0.08663637936115265, 0.07560304552316666, -0.1615375429391861, 0.13486367464065552, -0.12235674262046814, -0.07326043397188187, 0.06947313994169235, 0.41594773530960083, 0.2537952661514282, -0.19183406233787537, 0.22554448246955872, -0.10137829929590225, -0.0019550772849470377, -0.12989011406898499, 0.18581795692443848, 0.1724594384431839, 0.05264865979552269, -0.028827453032135963, -0.013476290740072727, -0.29797300696372986, -0.015531548298895359, -0.08625215291976929, -0.13231025636196136, 0.13456383347511292, 0.012449551373720169, -0.026557564735412598, 0.030657116323709488, 0.05483928322792053, 0.0428168959915638, 0.2070537805557251, -0.1670607030391693, 0.1328696757555008, 0.008634367026388645, 0.033966001123189926, -0.04142279922962189, -0.02658730000257492, 0.09014656394720078, 0.233341783285141, -0.2414005696773529, -0.09665066748857498, -0.210513174533844, -0.05278569832444191, -0.08249319344758987, -0.04612052068114281, -0.11901264637708664, 0.153957337141037, 0.19058461487293243, -0.15860360860824585, 0.2124248594045639, -0.067156583070755, 0.2718195915222168, -0.14708629250526428, -0.14869824051856995, -0.17951512336730957, -0.1152176558971405, 0.3254636526107788, 0.034600719809532166, 0.12296521663665771, -0.132991760969162, 0.15354961156845093, -0.4825882315635681, -0.060161080211400986, -0.18345420062541962, -0.33702102303504944, 0.17025457322597504, -0.3015683889389038, 0.09988406300544739, -0.07403253018856049, 0.08993349224328995, 0.04213918745517731, -0.193369060754776, 0.26607203483581543, -0.2942325472831726, 0.10667295008897781, 0.12314173579216003, 0.06222878023982048, 0.031097862869501114, 0.228872150182724, 0.11903872340917587, 0.06988822668790817, 0.12068448215723038, 0.02063409797847271, 0.05928432568907738, -0.07510684430599213, -0.0008843392133712769, 0.020015105605125427, -0.139659121632576, -0.17693425714969635, -0.46991798281669617, -0.013534162193536758, -0.04168212041258812, -0.04712703078985214, -0.12128156423568726, 0.1875736266374588, -0.11872775852680206, 0.0427514985203743, 0.07624276727437973, 0.17506563663482666, 0.16773803532123566, 0.13969147205352783, 0.21720023453235626, 0.12286820262670517, 0.040841128677129745, 0.07734557241201401, -0.058029092848300934, 0.05786047875881195, -0.018911190330982208, -0.15374737977981567, 0.13316401839256287, -0.16470564901828766, 0.251751184463501, -0.07321637868881226, -0.26282015442848206, 0.2061692774295807, -0.12644962966442108, -0.08756688237190247, -0.08699481934309006, -0.049091748893260956, -0.04733540117740631, -0.0060872542671859264, -0.07938474416732788, -0.0018267346313223243, 0.13633498549461365, 0.21073748171329498, 0.0038960925303399563, 0.04976262152194977, 0.001262136036530137, -0.21909385919570923, -0.031396783888339996, -0.3076108992099762, -0.22215905785560608, -0.07273328304290771, 0.27476024627685547, 0.08002649992704391, -0.1937699019908905, 0.2678811550140381, 0.05326782166957855, -0.15415328741073608, 0.07282909005880356, -0.008017224259674549, -0.09495779126882553, -0.014346939511597157, -0.17590633034706116, -0.06372571736574173, 0.07488955557346344, 0.021392174065113068, -0.22323429584503174, 0.11781518161296844, 0.0040917471051216125, -0.16086401045322418, -0.23374658823013306, -0.3255152702331543, 0.0012219968484714627, 0.04940546303987503, 0.047831445932388306, -0.2401892989873886, -0.19243280589580536, 0.067510686814785, 0.04153543710708618, 0.10439421236515045, 0.09913179278373718, -0.044299181550741196, -0.23870296776294708, 0.015192799270153046, -0.025663113221526146, -0.10743791610002518, 0.10309839248657227, -0.04642641171813011, -0.03512692451477051, 0.10766644030809402, 0.017960596829652786, -0.134793221950531, 0.1501520872116089, 0.020482582971453667, 0.051651839166879654, 0.09627679735422134, -0.208060622215271, 0.22830095887184143, -0.13947126269340515, -0.051871757954359055, -0.42773646116256714, -0.12468401342630386, 0.08856426924467087, 0.07504820823669434, 0.18494248390197754, -0.029815910384058952, 0.01990124024450779, 0.015589410439133644, 0.14661820232868195, 0.07908094674348831, -0.12734849750995636, -0.1290167272090912, 0.13213478028774261, 0.0038126998115330935, 0.034678809344768524, 0.2067425400018692, 0.12028279155492783, 0.05959495157003403, 0.17717424035072327, -0.08189213275909424, 0.1844795048236847, -0.03654032200574875, -0.03491104394197464, 0.1301477700471878, 0.06651312112808228, -0.0465855598449707, -0.19097350537776947, -0.0023233797401189804, 0.14330092072486877, 0.01666569709777832, 0.2020445168018341, 0.030140329152345657, -0.09476854652166367, -0.05815107375383377, -0.15890096127986908, 0.011240584775805473, -0.05424310639500618, -0.061632588505744934, -0.04791543260216713, 0.05251505970954895, -0.16893011331558228, -0.2666248381137848, 0.07331369817256927, 0.10186543315649033, 0.1861926168203354, 0.14455507695674896, -0.02376125194132328, 0.08365333080291748, -0.08267830312252045, 0.06480800360441208, -0.16058313846588135, 0.11957888305187225, -0.2334078848361969, -0.3117041289806366, 0.17834846675395966, 0.12121929228305817, 0.173444002866745, -0.08058246970176697, -0.006807266268879175, 0.10581731796264648, -0.06534772366285324, -0.1805461049079895, 0.09076973050832748, 0.2120799869298935, -0.2345234453678131, -0.4180036187171936, 0.0009226699476130307, 0.14487022161483765, 0.09787607192993164, -0.029758164659142494, 0.06155241280794144, -0.06708993762731552, 0.0918101966381073, -0.0213078111410141, 0.06852348148822784, -0.0971931591629982, 0.10459192097187042, -0.05780196562409401, -0.11398699879646301, 0.08843216300010681, 0.05983274430036545, 0.29328620433807373, -0.04270470142364502, 0.028175706043839455, 0.03833036869764328, 0.04203466325998306, 0.21456751227378845, -0.014002514071762562, -0.0058690086007118225, 0.16225853562355042, 0.4320068955421448, -0.2597918212413788, -0.07654297351837158, -0.10350174456834793, 0.014476809650659561, 0.2403162121772766, -0.28879377245903015, -0.024987002834677696, 0.23680496215820312, -0.08858859539031982, -0.11863522231578827, 0.09134598076343536, 0.05116230621933937, 0.07643189281225204, -0.07387653738260269, 0.1878374069929123, 0.009764698334038258, -0.15859279036521912, 0.14570854604244232, -0.0030289948917925358, 0.024754732847213745, 0.01845240220427513, -0.1270384043455124, 0.13572517037391663, 0.28682252764701843, 0.007514552678912878, -0.10082942992448807, -0.02522709220647812, 0.011142055504024029, 0.15964573621749878, 0.06514552235603333, 0.048292215913534164, 0.025272734463214874, -0.13425765931606293, -0.07670827955007553, -0.15199406445026398, 0.0903814435005188, 0.0594467855989933, -0.029182806611061096, 0.07871273905038834, -0.13847172260284424, -0.07998044788837433, -0.12050803005695343, -0.07148776948451996, -0.03043794445693493, 0.17316406965255737, -0.09641042351722717, -0.008365181274712086, 0.07829831540584564, -0.16948740184307098, 0.16828858852386475, -0.01639590598642826, 0.015952497720718384, 0.19778911769390106, 0.2874867916107178, -0.04097788780927658, 0.04592336714267731, -0.04421505704522133, 0.029204800724983215, 0.05677984282374382, 0.10642759501934052, 0.0037755134981125593, -0.07159047573804855, -0.018029440194368362, 0.09300526231527328, -0.0390222929418087, 0.14696690440177917, 0.11393026262521744, 0.005073970649391413, -0.271497905254364, 0.06292904168367386, -0.0662827417254448, -0.19997237622737885, -0.11973915249109268, -0.03246113285422325, -0.10281957685947418, -0.05314807966351509, 0.02525658905506134, -0.05935293808579445, -0.2056657075881958, 0.08275694400072098, 0.19971968233585358, 0.2313099205493927, 0.12411794066429138, -0.10948590934276581, -0.11717106401920319, 0.03461041301488876, -0.04995866119861603, -0.08498407155275345, -0.08961918205022812, -0.12319814413785934, 0.03232825547456741, 0.022921524941921234, -0.08015690743923187, -0.10235719382762909, 0.18114860355854034, -0.04997242987155914, -0.291464626789093, 0.13347497582435608, 0.09762533754110336, 0.15112251043319702, -0.01455167680978775, 0.025724586099386215, 0.03844816982746124, 0.05782349780201912, -0.06521367281675339, -0.04202398657798767, 0.05583532527089119, -0.03783904388546944, -0.07588671147823334, -0.09476933628320694, 0.039323799312114716, -0.10115610063076019, -0.006088619586080313, 0.06895416229963303, -0.07153864204883575, 0.1660323292016983, -0.14830294251441956, -0.05993259325623512, 0.19500747323036194, 0.02532697655260563, 0.007706347852945328, -0.043761398643255234, -0.25577452778816223, -0.19532568752765656, 0.1568736582994461, 0.1754470020532608, 0.013043341226875782, -0.22482168674468994, -0.13707616925239563, -0.03448818251490593, 0.03719856217503548, 0.2142898589372635, 0.08744349330663681, -0.08198276907205582, -0.03189774230122566, 0.20709174871444702, 0.11471394449472427, 0.19624987244606018, 0.05067801475524902, -0.16633805632591248, 0.15641410648822784, 0.11302840709686279, -0.06227430701255798, -0.0030173356644809246, 0.020443733781576157, -0.06685058027505875, 0.18056601285934448, -0.0637783408164978, -0.010664704255759716, 0.041303206235170364, -0.11174830794334412, -0.15409664809703827, 0.18629387021064758, -0.08473490178585052, -0.007713610306382179, 0.14296706020832062, -0.09140286594629288, -0.16941440105438232, -0.09857986122369766, 0.09950365871191025, 0.05848315730690956, -0.1035500317811966, 0.009064273908734322, -0.015851173549890518, -0.053523868322372437, 0.034782152622938156, -0.13925397396087646, -0.056317005306482315, 0.08575616031885147, -0.03030095435678959, 0.24886982142925262, 0.09039092063903809, -0.189832404255867, -0.2061220109462738, -0.06319522112607956, 0.14318792521953583, -0.04112536087632179, 0.18950986862182617, -0.012456524185836315, -0.269532173871994, 0.040297895669937134, -0.043336544185876846, 0.052269503474235535, -0.07157678157091141, -0.12374550849199295, -0.22128692269325256, -0.15773612260818481, 0.12098772823810577, -0.19322921335697174, -0.11819570511579514, 0.09452176094055176, -0.10663099586963654, -0.02319093607366085, -0.023239722475409508, 0.17159035801887512, -0.03987865895032883, 0.08851294964551926, -0.20108292996883392, 0.1308222860097885, -0.13195766508579254, 0.14999888837337494, -0.12259834259748459, 0.1108938679099083, -0.10520367324352264, 0.06441377848386765, -0.02313368394970894, -0.05456513911485672, -0.010885016992688179, 0.015839338302612305, -0.06258414685726166, 0.0005669413949362934, 0.07832130789756775, 0.0906410664319992, -0.001281948178075254, 0.056150760501623154, 0.035397838801145554, 0.019059084355831146, 0.05927106738090515, -0.16341039538383484, 0.0331249013543129, 0.001702300040051341, 0.08830816298723221, 0.058656834065914154, -0.16388560831546783, -0.20377083122730255, 0.058368898928165436, -0.10018076747655869, 0.24188679456710815, -0.1003437265753746, -0.028062527999281883, -0.09034803509712219, -0.18208123743534088, -0.14787839353084564, 0.04988538846373558, 0.024609023705124855, 0.057843632996082306, 0.010267258621752262, -0.1252562254667282, -0.05485174059867859, 0.11774560064077377, -0.22888527810573578, -0.03400463983416557, -0.06026452034711838, -0.2113620787858963, 0.0004824749776162207, 0.053494807332754135, -0.28991544246673584, 0.18311716616153717, -0.03284420818090439, 0.08397867530584335, -0.042873889207839966, 0.07554081082344055, 0.2685527205467224, -0.03809468075633049, 0.046688612550497055, 0.25865402817726135, 0.0783638134598732, -0.1781715452671051, -0.1326143890619278, 0.024903554469347, -0.061787642538547516, 0.01705987937748432, -0.14707249402999878, 0.1704244166612625, 0.019694317132234573, -0.0028056767769157887, -0.012693299911916256, -0.11644992977380753, 0.025990080088377, 0.09450845420360565, -0.023646509274840355, 0.017619160935282707, 0.006850012112408876, -0.06687208265066147, 0.16392432153224945, 0.09046607464551926, 0.05045759305357933, -0.1505700647830963, -0.03313354030251503, 0.16731220483779907, -0.13606427609920502, 0.030466299504041672, 0.16943596303462982, -0.011241535656154156, 0.07669156789779663, 0.06585244089365005, 0.04316999018192291, -0.07189461588859558, 0.33542513847351074, -0.17786015570163727, 0.035359740257263184, -0.10100636631250381, -0.1440402716398239, 0.261035293340683, -0.10392078012228012, -0.039706867188215256, -0.23265822231769562, 0.08527223020792007, -0.11863584816455841, 0.03213577717542648, 0.028730273246765137, -0.053125832229852676, -0.17703688144683838, 0.0049364157021045685, -0.15409117937088013, -0.002990888897329569, 0.1010943278670311, -0.003614497371017933, -0.1979004442691803, 0.147050678730011, 0.16513778269290924, -0.16393037140369415, 0.04136010259389877, -0.2066878080368042, 0.07752884924411774, -0.15543118119239807, -0.023572318255901337, -0.13914428651332855, -0.09974724054336548, 0.033646438270807266, 0.2596608102321625, -0.1858976036310196, 0.023914536461234093, -0.019112279638648033, 0.047005895525217056, -0.16627717018127441, -0.5260848999023438, 0.24360261857509613, -0.27163320779800415, -0.001227236120030284, -0.0215435940772295, -0.1855245679616928, -0.13401149213314056, -0.07841914892196655, -0.09061098098754883, -0.504935085773468, 0.28513842821121216, -0.2997780740261078, 0.04057785123586655, -0.17621490359306335, -0.2721482813358307, 0.044234100729227066, -0.11285517364740372, 0.018929721787571907, -0.20756705105304718, 0.26995721459388733, 0.024032995104789734, 0.25910842418670654, 0.2284102439880371, 0.03774523735046387, 0.10731124877929688, 0.19481207430362701, 0.06333901733160019, 0.25324147939682007, -0.0928768441081047, 0.09539128839969635, -0.18124069273471832, 0.21243979036808014, 0.11941690742969513, 0.234190434217453, 0.15868939459323883, -0.10857019573450089, -0.020615117624402046, 0.032658208161592484, 0.04567496106028557, 0.05759001895785332, 0.15427474677562714, -0.045909617096185684, -0.056703049689531326, -0.1531016230583191, 0.049909558147192, 0.17793893814086914, 0.07641009986400604, 0.028636356815695763, 0.20005358755588531, 0.13380791246891022, 0.014403502456843853, 0.17499569058418274, 0.05717048421502113, -0.09380971640348434, 0.19026730954647064, -0.04075171798467636, -0.13066241145133972, 0.035797636955976486, 0.38772934675216675, -0.22836701571941376, 0.06150374189019203, -0.2388981431722641, -0.24192938208580017, 0.2794552147388458, -0.04356114938855171, -0.002403475344181061, -0.09911108762025833, -0.08137693256139755, 0.0011668012011796236, 0.08988802134990692, 0.03133615478873253, 0.06675174087285995, -0.07533986121416092, 0.05660068243741989, 0.16543085873126984, -0.015993846580386162, 0.028638847172260284, -0.10015930235385895, -0.0030249557457864285, -0.15539424121379852, -0.08313272893428802, 0.06970575451850891, 0.1563304215669632, 0.19244921207427979, 0.2653855085372925, -0.07049054652452469, -0.23005954921245575, -0.21946784853935242, 0.02263978309929371, -0.08523156493902206, -0.19996343553066254, -0.08169510215520859, -0.15927059948444366, -0.22927363216876984, -0.07479377090930939, 0.007429671008139849, 0.12920765578746796, 0.014094128273427486, -0.05570850521326065, -0.17070633172988892, 0.05545579642057419, -0.024910734966397285, -0.298198401927948, -0.08275630325078964, 0.2500000298023224, -0.08384659141302109, -0.11515740305185318, 0.014928464777767658, -0.19002065062522888, -0.12265028059482574, -0.23655882477760315, -0.22112643718719482, -0.014982311986386776, 0.2289687544107437, -0.016663119196891785, -0.10589858889579773, -0.11430718749761581, -0.07170127332210541, -0.16748982667922974, 0.03801318630576134, 0.04823581874370575, -0.03589295223355293, -0.07581392675638199, 0.1884978711605072, -0.023157158866524696, 0.2264401763677597, -0.05249449238181114, -0.1005776897072792, 0.05811678245663643, 0.025585200637578964, 0.1275954246520996, -0.18479883670806885, -0.032885678112506866, -0.053864702582359314, 0.06070888414978981, 0.12950070202350616, -0.1904762238264084, 0.014625241048634052, -0.13899624347686768, 0.11904783546924591, -0.01972454972565174, 0.22594299912452698, 0.06380563229322433, -0.055925507098436356, -0.0632990151643753, -0.2779496908187866, 0.20406998693943024, -0.02054746076464653, 0.004437646828591824, -0.15661196410655975, 0.22712627053260803, 0.07880260795354843, -0.033871375024318695, 0.0883520171046257, -0.16573689877986908, -0.01825719140470028, 0.17033784091472626, 0.2067427784204483, 0.05689853057265282, -0.2695097029209137, -0.02743440680205822, 0.015063948929309845, 0.18007497489452362, -0.12307018041610718, -0.04070102423429489, 0.18133120238780975, -0.05058171600103378, -0.07589038461446762, 0.08820309489965439, -0.0642332062125206, 0.1348939836025238, -0.021375369280576706, -0.11581900715827942, 0.06614836305379868, 0.24192270636558533, 0.03802561014890671, -0.024082398042082787, 0.2529318928718567, -0.03873317316174507, -0.028188485652208328, 0.07655458897352219, 0.11323828995227814, 0.013029986061155796, 0.03800028935074806, -0.06227920576930046, -0.061879176646471024, -0.19310139119625092, -0.012984761036932468, 0.0963541567325592, 0.10957397520542145, -0.012375159189105034, -0.16961880028247833, 0.14384038746356964, -0.08414381742477417, 0.25226736068725586, -0.20493224263191223, 0.09612047672271729, 0.03621037304401398, 0.11946415156126022, 0.05483381077647209, -0.23305870592594147, 0.24761039018630981, -0.210896298289299, 0.06012415885925293, -0.07472798973321915, -0.08074098825454712, -0.09958813339471817, -0.006644475739449263, 0.11661101132631302, -0.0646577700972557, 0.10783319175243378, -0.009857656434178352, -0.06428542733192444, -0.08385565131902695, -0.13576947152614594, 0.01941574551165104, -0.15557217597961426, -0.16423572599887848, 0.056327298283576965, 0.0821448490023613, -0.09138482064008713, -0.1889355480670929, 0.13111476600170135, -0.09316514432430267, -0.28473350405693054, -0.15847758948802948, 0.06217827647924423, -0.06303203105926514, 0.04429074749350548, 0.0374143049120903, -0.06073489785194397, -0.0015679397620260715, -0.1573127657175064, 0.13401800394058228, 0.15795449912548065, 0.10766623169183731, 0.03645143285393715, -0.14402000606060028, -0.028121342882514, 0.1497015804052353, -0.020929161459207535, -0.01854102686047554, -0.15683896839618683, -0.16202197968959808, -0.15921913087368011, -0.0036907256580889225, -0.12401007860898972, -0.18649540841579437, 0.1464485079050064, 0.024803869426250458, -0.2705214023590088, 0.020000137388706207, 0.07296726852655411, 0.22900237143039703, -0.09792793542146683, 0.052781328558921814, 0.014377133920788765, 0.4945644736289978, -0.10590183734893799, -0.4169701039791107, -0.19478049874305725, -0.18604378402233124, -0.015388721600174904, 0.19409872591495514, -0.12802888453006744, 0.0627007856965065, 0.050223350524902344, -0.023930571973323822, 0.18202340602874756, 0.22769556939601898, -0.05240306630730629, 0.06682559102773666, -0.25070589780807495, 0.09156408905982971, 0.11507623642683029, 0.055014174431562424, 0.030406108126044273, 0.11289112269878387, 0.11536401510238647, -0.03691348060965538, -0.08754269778728485, -0.05766630172729492, -0.07954082638025284, -0.02283206395804882, 0.02262863889336586, -0.0453917570412159, -0.17293164134025574, 0.013245375826954842, -0.33603405952453613, -0.030480369925498962, 0.09116217494010925, -0.10403062403202057, 0.20327620208263397, -0.06634745001792908, -0.07492267340421677, 0.07295086234807968, -0.10450877994298935, -0.13302263617515564, -0.13691742718219757, -0.04791399464011192, -0.34249597787857056, -0.09559860080480576, 0.09085257351398468, 0.04603048786520958, 0.0293327234685421, 0.0195466261357069, -0.06387270987033844, 0.027956286445260048, 0.014945067465305328, -0.009912452660501003, -0.06090975180268288, 0.0881829559803009, 0.05581843480467796, 0.061121679842472076, -0.17622490227222443, -0.11266278475522995, -0.10268015414476395, -0.010712514631450176, 0.0072478181682527065, -0.30058717727661133, -0.3594783842563629, 0.7617124915122986, 0.4232335090637207, -0.44718068838119507, 0.2416495680809021, -0.2815549373626709, 0.02744835801422596, 0.5060920119285583, -0.7384142875671387, 0.9720486402511597, 0.515932559967041, 0.18795756995677948, -0.28443875908851624, 0.10663123428821564, -0.7276477217674255, 0.22817394137382507, -0.14031606912612915, 0.13989432156085968, -0.2028830498456955, 0.11084568500518799, 0.21681401133537292, 0.16418448090553284, 0.100693479180336, 0.02908896841108799, -0.15214373171329498, 0.16147789359092712, 0.14980722963809967, -0.1313633769750595, 0.1613713800907135, -0.03925706818699837, -0.17844258248806, 0.27556121349334717, -0.08951981365680695, 0.0730179026722908, 0.078755222260952, -0.013417885638773441, 0.21563954651355743, -0.06299842149019241, -0.33882418274879456, -0.23011159896850586, -0.12017633020877838, 0.18289445340633392, -0.08778132498264313, 0.0608709491789341, 0.1433565318584442, 0.13670800626277924, -0.3055117726325989, 0.035018060356378555, -0.2032947987318039, 0.03287649154663086, -0.32218989729881287, 0.4017115533351898, 0.012750835157930851, -0.005980374291539192, -0.17764528095722198, -0.25481897592544556, -0.038280319422483444, -0.5745488405227661, 0.22718432545661926, 0.1850135177373886, -0.26643839478492737, -0.05015256628394127, 0.24956631660461426, 0.21511569619178772, 0.044943805783987045, 0.19478343427181244, 0.0648500844836235, -0.1919327974319458, 0.057481154799461365, -0.134500652551651, 0.2931804060935974, 0.11633864045143127, -0.4912225008010864, -0.14134514331817627, 0.17432992160320282, 0.08923279494047165, 0.2264966070652008, 0.14191624522209167, -0.13789144158363342, 0.09092409163713455, -0.1786501258611679, 0.26752036809921265, -0.22293734550476074, 0.18163613975048065, -0.22248752415180206, 0.10845965892076492, -0.07958265393972397, 0.16331997513771057, -0.26952236890792847, -0.15824969112873077, 0.09732985496520996, -0.10830915719270706, -0.09815093129873276, 0.14171184599399567, -0.10612466186285019, -0.13573913276195526, -0.08590845763683319, 0.06993109732866287, -0.053417980670928955, -0.06419792026281357, -0.27355822920799255, 0.2185906171798706, 0.13659916818141937, -0.2819128930568695, -0.5935752987861633, -0.11488298326730728, 0.17421433329582214, 0.06961212307214737, 0.25287771224975586, 0.32903778553009033, 0.030047958716750145, 0.06377921998500824, 0.05296654254198074, 0.07856589555740356, 0.0905308723449707, -0.06303481757640839, -0.1646513193845749, 0.08038857579231262, 0.03597715497016907, -0.27008047699928284, -0.226584792137146, 0.22083815932273865, -0.12344667315483093, 0.08817113190889359, 0.4833255410194397, 0.007623002398759127, 0.2967972457408905, 0.18678626418113708, 0.14009718596935272, -0.2715401351451874, -0.12381687760353088, 0.21762299537658691, -0.1364826261997223, 0.14027191698551178, -0.06708831340074539, -0.014205868355929852, 0.07348031550645828, 0.13715697824954987, 0.29435625672340393, 0.07582610100507736, 0.14743439853191376, 0.11260876804590225, -0.06092838570475578, 0.05191010981798172, 0.25267699360847473, 0.03549148514866829, 0.014969606883823872, 0.06966891884803772, -0.07696805894374847, -0.11946472525596619, -0.06121434271335602, -0.12862816452980042, 0.06284839659929276, -0.11425960808992386, 0.16485725343227386, -0.4788060486316681, -0.08861789107322693, 0.07327421009540558, -0.05528516694903374, 0.3144513666629791, -0.1579209268093109, -0.12979713082313538, 0.11707749962806702, 0.023232130333781242, 0.19753648340702057, -0.1428438127040863, -0.21844592690467834, 0.04697128385305405, 0.22924332320690155, 0.18544284999370575, -0.10015061497688293, -0.06321435421705246, -0.12549304962158203, 0.18163666129112244, -0.06976528465747833, 0.36835843324661255, -0.23406767845153809, -0.09863429516553879, -0.31860336661338806, 0.2870931327342987, -0.19618159532546997, 0.217356875538826, -0.12652255594730377, 0.10311464220285416, 0.10525234788656235, -0.31544971466064453, 0.15412625670433044, -0.07012984156608582, -0.25144171714782715, 0.09274008870124817, 0.17632754147052765, 0.06793169677257538, -0.1442706435918808, -0.14445509016513824, -0.049189940094947815, -0.0690789446234703, 0.25098881125450134, 0.32304343581199646, 0.061571232974529266, -0.11983785778284073, 0.13152776658535004, -0.22369690239429474, 0.40070828795433044, -0.24744941294193268, -0.2798086404800415, 0.05729521065950394, 0.05322375148534775, -0.34495702385902405, -0.43120843172073364, 0.07155109196901321, 0.06629578769207001, 0.036770328879356384, 0.10996203124523163, -0.12442048639059067, -0.09585975855588913, 0.12451259791851044, 0.12222904711961746, -0.1394614726305008, 0.23792709410190582, 0.02306748740375042, 0.13262638449668884, 0.028636114671826363, -0.0892772451043129, -0.32863107323646545, 0.2569614052772522, -0.19345681369304657, 0.05903005599975586, -0.03314409404993057, 0.0036637699231505394, 0.006500006187707186, -0.016933485865592957, 0.12014566361904144, 0.062919020652771, 0.13091056048870087, -0.5221722722053528, 0.01933840848505497, 0.25354766845703125, -0.41736623644828796, -0.04732978716492653, 0.2248951494693756, -0.17291583120822906, 0.013669460080564022, -0.18998709321022034, -0.10224039107561111, -0.4108930826187134, 0.3522486984729767, -0.3217560648918152, 0.07520415633916855, 0.2716435194015503, 0.18444103002548218, 0.4643884003162384, -0.19829556345939636, -0.008727991953492165, 0.14818598330020905, -0.2399238497018814, -0.008466807194054127, -0.1380724012851715, -0.08937830477952957, -0.24147813022136688, -0.18660975992679596, -0.09142419695854187, 0.05271890386939049, -0.2244890034198761, 0.017706850543618202, 0.41948187351226807, 0.28729286789894104, 0.33870580792427063, -0.19462887942790985, 0.0005526411696337163, -0.16568291187286377, 0.11252469569444656, 0.019894985482096672, -0.008511040359735489, 0.04014494642615318, 0.10572092980146408, -0.02763482555747032, 0.13653482496738434, 0.0375920869410038, 0.06133458763360977, -0.07174620032310486, -0.10219847410917282, -0.014178666286170483, 0.08236231654882431, 0.07930436730384827, 0.048481978476047516, 0.03139880299568176, 0.0010353868128731847, -0.0735345408320427, -0.1667933315038681, 0.04807452857494354, -0.06521304696798325, -0.05865880474448204, 0.048978690057992935, 0.0961390808224678, -0.24629881978034973, 0.10996414721012115, -0.2148561328649521, 0.05910209193825722, 0.20126451551914215, -0.2179405689239502, -0.17109468579292297, -0.027996091172099113, -0.2562189996242523, -0.04069092497229576, 0.2255919724702835, 0.04051774740219116, -0.0833907499909401, 0.024772468954324722, -0.2333088219165802, 0.1673550307750702, 0.01586940325796604, 0.027871834114193916, -0.2753380239009857, -0.03202446922659874, -0.0054843612015247345, 0.10653741657733917, -0.02388130873441696, -0.10243978351354599, -0.41265931725502014, 0.16630733013153076, -0.17338570952415466, -0.15641814470291138, -0.08181145787239075, 0.11158623546361923, -0.06924306601285934, -0.08274775743484497, 0.14518144726753235, -0.13148106634616852, -0.14407743513584137, -0.33624768257141113, -0.1463097631931305, -0.06895080208778381, -0.020855488255620003, -0.09039036184549332, -0.23612898588180542, -0.11806073039770126, 0.1361602246761322, 0.0990356057882309, 0.1752963811159134, 0.01601058430969715, -0.0765518993139267, 0.015924351289868355, -0.30014893412590027, 0.16090048849582672, 0.00515700550749898, 0.10794083029031754, -0.036614999175071716, -0.017120080068707466, -0.020457500591874123, 0.24974876642227173, -0.2521630525588989, -0.38556423783302307, 0.11632656306028366, -0.03577925264835358, 0.03462480381131172, -0.08238060027360916, -0.17212733626365662, -0.11100646108388901, 0.04937003552913666, 0.1486925184726715, -0.04379895702004433, -0.13865552842617035, 0.00257545942440629, 0.3208061158657074, 0.049566518515348434, -0.0021449311170727015, -0.05666927620768547, -0.01403165515512228, -0.09473641216754913, -0.46061643958091736, -0.12559548020362854, 0.09003091603517532, 0.045635808259248734, -0.09071819484233856, 0.035035356879234314, 0.1528315395116806, -0.24626488983631134, -0.07076268643140793, -0.14921753108501434, 0.20714439451694489, -0.049475282430648804, 0.006316807121038437, 0.15619754791259766, 0.0011716525768861175, -0.2594328224658966, -0.1721295714378357, 0.0398247055709362, 0.1237005889415741, 0.010966571979224682, -0.20249134302139282, -0.1847413182258606, 0.0489116869866848, -0.1034020259976387, 0.0629962831735611, 0.12154749780893326, 0.30137380957603455, -0.18207357823848724, -0.18636924028396606, 0.04384728521108627, 0.03888468071818352, -0.06645598262548447, 0.00018564068886917084, 0.14631061255931854, -0.10968591272830963, 0.08302095532417297, 0.020002353936433792, 0.0039824508130550385, -0.15677104890346527, 0.12221155315637589, 0.18265286087989807, 0.12176331132650375, -0.06361479312181473, 0.08164340257644653, -0.10879092663526535, 0.06793488562107086, 0.003199513303115964, -0.10050281882286072, 0.08102329820394516, 0.011724975891411304, -0.32305508852005005, -0.04012822359800339, -0.10813771933317184, -0.1870644986629486, -0.04372657462954521, 0.05489734187722206, 0.1924697756767273, -0.016439229249954224, -0.061525966972112656, -0.13632194697856903, -0.048707857728004456, -0.09530660510063171, -0.1494743674993515, 0.20022067427635193, 0.06550981104373932, -0.015273685567080975, 0.3663318157196045, 0.1090814471244812, -0.056405600160360336, 0.19915930926799774, 0.009293935261666775, 0.0834149718284607, 0.19458815455436707, -0.10637779533863068, -0.05069267749786377, 0.1495794802904129, -0.06605338305234909, -0.15619075298309326, 0.20966801047325134, 0.08433115482330322, 0.10975940525531769, -0.013243290595710278, -0.017135605216026306, -0.03368762135505676, 0.015317192301154137, 0.13899138569831848, 0.0717812329530716, -0.1020670160651207, -0.11446651816368103, -0.07438521832227707, -0.04835515469312668, 0.10146641731262207, -0.10900159925222397, 0.14761310815811157, -0.0026037790812551975, -0.11874102801084518, 0.25839295983314514, 0.09129732847213745, -0.0863286703824997, 0.12529073655605316, -0.13896454870700836, 0.1441715657711029, 0.07665753364562988, -0.131820946931839, -0.23687373101711273, 0.1154048815369606, -0.025182349607348442, -0.2543095648288727, -0.11296841502189636, -0.11078675091266632, 0.010134398005902767, 0.08885984867811203, -0.03535405173897743, 0.05691508948802948, -0.07376957684755325, 0.040624912828207016, -0.09362507611513138, 0.482908695936203, 0.04692147299647331, 0.14258140325546265, -0.0727776288986206, -0.04359736666083336, 0.018678821623325348, -0.011511324904859066, -0.10520545393228531, -0.009638241492211819, 0.31431636214256287, 0.11661159992218018, -0.14015115797519684, -0.0006774132489226758, -0.010522534139454365, 0.10325901955366135, 0.011751441285014153, -0.062253277748823166, -0.09620057046413422, 0.2961740493774414, -0.08030213415622711, -0.17702873051166534, -0.19301146268844604, 0.10107581317424774, 0.003635557834059, 0.31754884123802185, -0.016857679933309555, 0.0613294318318367, 0.18401150405406952, -0.03738386929035187, -0.16794605553150177, 0.001187696703709662, 0.0348023883998394, -0.16586384177207947, -0.05504788085818291, -0.09901212900876999, -0.02897295169532299, 0.10630352050065994, -0.06837756186723709, -0.11217356473207474, -0.11114446073770523, -0.03237311542034149, -0.15968531370162964, -0.07771527767181396, 0.0010562457609921694, -0.049438197165727615, -0.04223009943962097, 0.08516377955675125, 0.060834500938653946, 0.12205438315868378, 0.08979225903749466, -0.04710112139582634, 0.02076076529920101, -0.19207583367824554, 0.13100269436836243, -0.12093181908130646, -0.0261523574590683, -0.21511206030845642, -0.09130433946847916, 0.08125433325767517, 0.04391360282897949, 0.16523490846157074, -0.04773780331015587, -0.06509245187044144, -0.11529328674077988, -0.07494331896305084, -0.030915509909391403, 0.18949715793132782, -0.06176237761974335, -0.02625262923538685, 0.02735063247382641, 0.04156128317117691, 0.05414007976651192, 0.030766461044549942, -0.16444753110408783, 0.0038290892262011766, -0.06848281621932983, 0.1902841478586197, -0.1296999603509903, -0.17310912907123566, -0.3850838243961334, 0.04475313052535057, 0.07136417180299759, -0.14182697236537933, -0.08036402612924576, 0.06642497330904007, -0.018450729548931122, -0.05357320234179497, 0.19317765533924103, 0.05847552418708801, 0.10859791934490204, 0.14245113730430603, -0.09403333812952042, 0.08565032482147217, 0.30487632751464844, 0.08495435863733292, 0.14358922839164734, 0.5860852003097534, 0.13904684782028198, -0.20260758697986603, -0.07449126988649368, -0.17768977582454681, -0.08894618600606918, 0.22572021186351776, 0.02369372919201851, -0.20081859827041626, 0.007965372875332832, -0.02732297033071518, -0.16917987167835236, -0.13783392310142517, -0.08235189318656921, 0.02815994992852211, -0.0617498941719532, -0.12843406200408936, -0.022057464346289635, 0.28797975182533264, 0.05068105459213257, 0.14301738142967224, 0.05429651588201523, 0.15862755477428436, 0.1910170167684555, 0.2988048791885376, 0.11573491245508194, -0.15517005324363708, 0.2946754992008209, 0.037256281822919846, 0.13792768120765686, -0.10019062459468842, -0.07902225852012634, -0.0729493647813797, 0.04080718010663986, -0.07832340151071548, -0.2560475468635559, 0.38262853026390076, -0.007447032257914543, -0.22182588279247284, 0.10107942670583725, -0.2355566918849945, -0.20589114725589752, -0.009131471626460552, 0.005858732853084803, -0.08488979935646057, -0.059298716485500336, 0.20884963870048523, -0.05626043677330017, -0.1821235865354538, -0.008402829058468342, -0.04856521263718605, 0.014682906679809093, -0.06125292927026749, -0.15867485105991364, 0.13073258101940155, 0.04888860881328583, -0.17162497341632843, -0.05765915289521217, 0.01459263265132904, 0.0447404570877552, -0.17232704162597656, -0.04661785066127777, -0.1433190107345581, 0.06003176420927048, 0.02643994241952896, 0.0890079140663147, -0.01771823689341545, -0.08382390439510345, -0.0660267025232315, -0.10817714035511017, 0.06744938343763351, -0.12458827346563339, -0.09355837106704712, -0.278315007686615, -0.1566420942544937, -0.09271640330553055, 0.057868700474500656, -0.08203129470348358, 0.12297111004590988, 0.017346512526273727, 0.1474866420030594, -0.16731303930282593, -0.12678807973861694, -0.21458657085895538, -0.0500318817794323, 0.02613121084868908, -0.3257514536380768, 0.011561487801373005, 0.2144838273525238, 0.12392720580101013, 0.054756049066782, -0.03966906666755676, 0.311868816614151, 0.06372217833995819, 0.10770980268716812, -0.039079081267118454, 0.048802051693201065, 0.1126471534371376, -0.203426793217659, -0.03506780415773392, 0.015528618358075619, 0.07345396280288696, 0.11125105619430542, 0.03672761842608452, 0.24490654468536377, 0.1038547232747078, -0.17440618574619293, -0.06835107505321503, -0.09771636873483658, -0.035324014723300934, 0.14198718965053558, -0.0286270584911108, -0.1880379468202591, -0.212081640958786, -0.07423568516969681, 0.0039604427292943, 0.13343271613121033, 0.16476090252399445, -0.04546382278203964, -0.08037590235471725, -0.1099248081445694, 0.07269374281167984, 0.17527532577514648, 0.11996686458587646, -0.11025916785001755, 0.036028411239385605, -0.08424418419599533, -0.13156670331954956, -0.25355374813079834, 0.0319221094250679, 0.08530502766370773, 0.06790002435445786, 0.051462601870298386, -0.10178767144680023, 0.1054929569363594, -0.011649500578641891, 0.08282576501369476, 0.08124293386936188, -0.09639523178339005, -0.16334350407123566, 0.08694467693567276, -0.07830697298049927, -0.07855367660522461, 0.09021411091089249, 0.10974625498056412, 0.2245492786169052, 0.020423712208867073, -0.11383435130119324, 0.010303379036486149, 0.03359627723693848, 0.11768568307161331, 0.13917340338230133, 0.12657883763313293, 0.09104457497596741, -0.3003714382648468, -0.061876390129327774, -0.13030603528022766, 0.16656138002872467, 0.06313743442296982, 0.11538488417863846, -0.04648705944418907, -0.021218664944171906, 0.05989537388086319, 0.1639774739742279, -0.16155946254730225, 0.008337097242474556, -0.022087864577770233, -0.20098042488098145, 0.13599874079227448, 0.19321101903915405, 0.007329289335757494, 0.10550116002559662, -0.06088270992040634, 0.07243957370519638, 0.08955162763595581, 0.11410922557115555, -0.15776561200618744, 0.03534208610653877, 0.1313040852546692, 0.17482469975948334, 0.19787733256816864, -0.09084951132535934, 0.07352181524038315, -0.1848028600215912, 0.04576753079891205, -0.11179450154304504, -0.00963624194264412, 0.17511038482189178, -0.04980336129665375, 0.029843542724847794, 0.20589804649353027, -0.06959487497806549, -0.14570064842700958, 0.055459145456552505, 0.07495130598545074, 0.016314780339598656, -0.22916989028453827, -0.1529652178287506, -0.12164171040058136, 0.11301843822002411, -0.013342682272195816, 0.10483565181493759, 0.28539392352104187, 0.01416625827550888, 0.06895267963409424, -0.1596829891204834, -0.09179948270320892, 0.008010943420231342, 0.15672501921653748, 0.07898840308189392, 0.057856544852256775, -0.08050551265478134, -0.0653756782412529, 0.03498515486717224, -0.025000758469104767, 0.09972444176673889, 0.07877763360738754, -0.1492827981710434, -0.08648884296417236, -5.11737925990019e-05, -0.17380815744400024, 0.2465076595544815, 0.025767046958208084, 0.15850099921226501, 0.15334871411323547, 0.056580688804388046, -0.059026848524808884, -0.09128467738628387, 0.09530942887067795, 0.11006039381027222, -0.10880602151155472, 0.10873925685882568, 0.09875378757715225, 0.005377511493861675, 0.021619364619255066, -0.008804143406450748, 0.2609071731567383, 0.1569075584411621, 0.08526558429002762, 0.0844179019331932, -0.18413902819156647, 0.09443957358598709, -0.05040870979428291, -0.1265314519405365, 0.1284017562866211, -0.036498766392469406, -0.12690752744674683, 0.07688426226377487, -0.06472986191511154, -0.35658520460128784, -0.0957857221364975, 0.07460635155439377, -0.12822513282299042, -0.03733260557055473, 0.04155776649713516, -0.03729509189724922, 0.1406153440475464, -0.05631857365369797, -0.16270312666893005, 0.005580997560173273, -0.20911243557929993, 0.4115484356880188, 0.1319899559020996, 0.17093032598495483, -0.3002893626689911, 0.04667635262012482, 0.057449307292699814, -0.2003512680530548, -0.037079308182001114, 0.14903081953525543, 0.16785864531993866, -0.2984784245491028, 0.19382244348526, -0.024397365748882294, 0.09761352092027664, -0.0670943558216095, -0.24427208304405212, -0.09007428586483002, 0.12468770891427994, -0.029666531831026077, 0.0601206012070179, -0.1631392538547516, 0.06262246519327164, -0.033710986375808716, -0.19960789382457733, -0.042214926332235336, -0.0485132597386837, 0.3660705089569092, 0.09382425993680954, -0.06126278638839722, 0.011181462556123734, 0.03182072564959526, -0.14912624657154083, -0.13623766601085663, 0.06704367697238922, -0.10707103461027145, -0.10929617285728455, -0.006830750498920679, -0.008170378394424915, -0.108441561460495, 0.13704335689544678, -0.1377609223127365, -0.11585945636034012, -0.056867245584726334, 0.08486980944871902, 0.08224296569824219, 0.21333517134189606, -0.1428290456533432, -0.15420804917812347, 0.060356251895427704, 0.018001021817326546, 0.07952738553285599, 0.07017975300550461, -0.16442951560020447, -0.1878221035003662, -0.0034027681685984135, 0.19222581386566162, 0.14017076790332794, 0.05205104500055313, -0.05264854058623314, 0.2754422426223755, 0.058889761567115784, -0.010385564528405666, -0.1288987547159195, 0.022831980139017105, 0.04200293496251106, -0.15065689384937286, -0.05341500788927078, -0.04862324893474579, 0.12201240658760071, 0.026725875213742256, 0.22394151985645294, 0.19566074013710022, -0.04405378922820091, -0.021449876949191093, -0.11485294252634048, -0.0070380098186433315, -0.1354903280735016, 0.13595397770404816, 0.10705561190843582, 0.04153626784682274, 0.06912948191165924, -0.10076896846294403, 0.2172980010509491, -0.1065586507320404, -0.1629662811756134, 0.10202742367982864, -0.12488394975662231, 0.08563277870416641, 0.10801077634096146, -0.13124381005764008, -0.05662623420357704, -0.056969091296195984, 0.03272712975740433, 0.045492496341466904, 0.001485023065470159, -0.010362365283071995, -0.14867262542247772, 0.10817302763462067, 0.13482347130775452, -0.05196660757064819, -0.013229952193796635, 0.1349206119775772, -0.2932225167751312, -0.23271924257278442, 0.05078421160578728, -0.0626026839017868, -0.11967869848012924, -0.03961736336350441, -0.017908800393342972, 0.015767719596624374, 0.002963494509458542, -0.1769130676984787, 0.050420165061950684, 0.1466786116361618, 0.11764643341302872, 0.16074790060520172, -0.18960615992546082, 0.18030229210853577, 0.28607675433158875, 0.10812994837760925, 0.004891363903880119, 0.04770166799426079, -0.03632281720638275, 0.06052149832248688, 0.022446559742093086, -0.02808495983481407, 0.08353464305400848, 0.12752528488636017, -0.09286212921142578, -0.08104085922241211, 0.03231862559914589, -0.16865578293800354, -0.11320959776639938, 0.14339619874954224, 0.0980621948838234, -0.006307023111730814, 0.07377846539020538, -0.12891706824302673, -0.020379846915602684, 0.082979716360569, 0.07289601117372513, 0.08524118363857269, 0.05090705305337906, -0.024951305240392685, 0.04724998399615288, -0.0786328986287117, 0.049589481204748154, -0.08647884428501129, -0.07322221249341965, 0.022208906710147858, -0.2333134114742279, -0.057433463633060455, -0.18317286670207977, -0.22821180522441864, -0.2776155471801758, 0.04638304188847542, 0.17313596606254578, -0.14175119996070862, -0.15872570872306824, -0.017636675387620926, 0.039456821978092194, 0.07832255214452744, 0.12359973788261414, 0.11190033704042435, 0.0770907774567604, 0.007683236617594957, -0.06946972757577896, 0.3912063241004944, 0.007437058724462986, -0.05075313150882721, -0.2868483066558838, -0.34783196449279785, -0.37181732058525085, 0.14781086146831512, 0.0037764457520097494, 0.12936721742153168, 0.027265198528766632, -0.0013128133723512292, -0.10167708247900009, 0.12452398240566254, -0.3018674850463867, -0.1936497986316681, -0.10755331069231033, -0.11095894128084183, -0.05394357070326805, 0.01723484694957733, 0.13055332005023956, -0.17506501078605652, -0.02651667594909668, -0.019889775663614273, 0.13613678514957428, -0.0971226617693901, 0.0011905769351869822, 0.042787324637174606, -0.24013864994049072, 0.046862728893756866, -0.06351820379495621, 0.21398352086544037, -0.0321689173579216, -0.03935546055436134, -0.0444556288421154, -0.03917915001511574, 0.05499054118990898, -0.27081722021102905, 0.016065385192632675, 0.2002984583377838, 0.1770739108324051, 0.05414728820323944, -0.04100325331091881, 0.14661291241645813, 0.20645980536937714, 0.07834149897098541, -0.02445908635854721, -0.06034662202000618, 0.1109381765127182, -0.11467334628105164, 0.1175885796546936, 0.0353839285671711, -0.0974581316113472, -0.18776343762874603, 0.06058064475655556, 0.23728381097316742, 0.07382258772850037, -0.069926418364048, 0.049510657787323, 0.04935936629772186, -0.029216982424259186, 0.07489962875843048, 0.6820548176765442, 0.30088552832603455, 0.5059967041015625, -0.7950893044471741, -0.45081856846809387, 0.17955733835697174, 0.31443876028060913, 0.042443037033081055, 0.2149495929479599, 0.1447262167930603, -0.6722525954246521, 0.316854327917099, 0.04046204686164856, -0.6969856023788452, 0.08454680442810059, -0.435946524143219, -0.14956215023994446, -0.26528048515319824, 0.2641800045967102, -0.22684481739997864, -0.01640734076499939, 0.25727659463882446, -0.19556325674057007, -0.19872944056987762, -0.22142553329467773, 0.05060932785272598, -0.1866210699081421, 0.001020147930830717, 0.10779459774494171, 0.0005736642051488161, 0.08634573966264725, 0.02420969307422638, -0.25644829869270325, -0.09913633018732071, 0.07534972578287125, -0.2154673933982849, 0.03516291454434395, -0.08751263469457626, 0.07608179748058319, -0.1527540385723114, -0.1164708063006401, -0.17894986271858215, -0.21965168416500092, 0.1096663549542427, -0.14779600501060486, 0.18027757108211517, 0.24687056243419647, 0.23183603584766388, -0.056288909167051315, 0.14204637706279755, -0.13390688598155975, -0.24331972002983093, -0.08451735973358154, -0.058589279651641846, -0.2941160202026367, 0.09239539504051208, 0.17564775049686432, -0.08633656799793243, -0.038744837045669556, -0.0011126770405098796, 0.08224394917488098, 0.05521678924560547, -0.07612501084804535, 0.17219410836696625, -0.22222475707530975, 0.041434649378061295, -0.24988415837287903, 0.28015416860580444, 0.19094964861869812, 0.22839364409446716, 0.21485571563243866, 0.1540265530347824, -0.2780613303184509, -0.1939842402935028, 0.18985995650291443, -0.17105962336063385, 0.19824126362800598, 0.2272508591413498, 0.15726743638515472, -0.24413907527923584, 0.19052620232105255, -0.09710316359996796, -0.3109270930290222, 0.312264621257782, 0.07558923959732056, -0.3048144280910492, 0.1262463927268982, -0.13550172746181488, 0.1507239192724228, 0.3117944300174713, 0.12478140741586685, 0.09594020247459412, -0.1606101393699646, -0.222020223736763, -0.3217012584209442, -0.27146103978157043, -0.09616940468549728, 0.1537030190229416, 0.14389190077781677, 0.14579859375953674, -0.19942188262939453, 0.169477179646492, -0.10876992344856262, -0.06376665830612183, 0.10057292133569717, 0.14824606478214264, -0.2953890860080719, 0.22656673192977905, -0.025071315467357635, 0.1327066272497177, -0.30895981192588806, -0.07366087287664413, -0.18676191568374634, -0.21724949777126312, -0.13113360106945038, -0.0011638475116342306, 0.013762486167252064, -0.26108434796333313, 0.2174786776304245, -0.026328815147280693, -0.20683829486370087, 0.08247613906860352, 0.03673071041703224, 0.03738284111022949, 0.055707670748233795, 0.05308779701590538, 0.08583907037973404, -0.1864919662475586, -0.058743543922901154, 0.24658115208148956, -0.10453278571367264, 0.2062387615442276, 0.14406535029411316, 0.014707975089550018, -0.08252205699682236, 0.2585449814796448, -0.0354459285736084, 0.018981797620654106, 0.042166050523519516, 0.1685800552368164, 0.018855901435017586, -0.027233613654971123, 0.2116243690252304, -0.04248417913913727, -0.35747382044792175, 0.09157203882932663, -0.03476985543966293, -0.1640220582485199, 0.09157931059598923, 0.06342379003763199, -0.24088779091835022, -0.23437775671482086, 0.0665392130613327, -0.05727649852633476, 0.042981281876564026, -0.10597541928291321, 0.13888701796531677, 0.24447397887706757, 0.1610240340232849, 0.15163446962833405, -0.0032467301934957504, 0.24295130372047424, -0.05405905097723007, 0.2047368735074997, -0.09530507028102875, 0.1788208931684494, -0.029807470738887787, 0.24553048610687256, -0.3167760670185089, -0.28313305974006653, 0.2170737087726593, -0.12446826696395874, 0.21865928173065186, -0.11397264897823334, 0.4094143211841583, 0.08757445961236954, -0.12149691581726074, 0.23380741477012634, -0.2129288762807846, -0.15663927793502808, -0.1866564154624939, 0.17856578528881073, -0.06955384463071823, -0.20623119175434113, 0.2931748628616333, -0.043788012117147446, -0.14046576619148254, 0.11355403065681458, -0.21519044041633606, 0.05720236897468567, 0.11240608245134354, -0.09670794010162354, 0.13783451914787292, 0.23026888072490692, -0.15569686889648438, -0.03401758149266243, -0.11850558966398239, 0.02823389694094658, -0.2144184708595276, 0.12749600410461426, -0.2524895966053009, -0.03253640606999397, 0.3428364098072052, 0.3108484447002411, -0.050484009087085724, 0.2857237756252289, -0.05930747836828232, -0.18016943335533142, -0.0006516833673231304, 0.14307208359241486, 0.2412046641111374, 0.28862565755844116, 0.04078901186585426, 0.23087352514266968, -0.242274209856987, 0.04565620794892311, 0.1101246178150177, -0.0031110059935599566, -0.09977345913648605, -0.25703340768814087, -0.20163847506046295, 0.26475584506988525, 0.227779358625412, -0.2203468680381775, -0.12992334365844727, 0.06994633376598358, 0.12644967436790466, 0.01679195836186409, 0.01567317172884941, -0.021794350817799568, -0.2070462703704834, -0.09028971195220947, 0.14026732742786407, 0.3370714783668518, 0.051817599684000015, -0.14243914186954498, -0.3355359733104706, -0.19970710575580597, -0.18052077293395996, 0.13290517032146454, 0.23792482912540436, -0.05420906841754913, 0.11033566296100616, 0.11016040295362473, -0.20471593737602234, -0.14415456354618073, -0.095970019698143, 0.12636521458625793, -0.1161663681268692, 0.058822907507419586, -0.22255857288837433, 0.05596032738685608, 0.08637215197086334, -0.0473964549601078, -0.04276742413640022, 0.0606028251349926, 0.11589466035366058, 0.2615383267402649, -0.1890392005443573, 0.05332799255847931, -0.1852099895477295, -0.062400735914707184, 0.25645121932029724, -0.03298940509557724, -0.19804517924785614, 0.02822081185877323, -0.17506489157676697, 0.04033318907022476, 0.17641018331050873, -0.16389818489551544, 0.1124034970998764, -0.08688456565141678, -0.16575637459754944, -0.052477192133665085, 0.07967570424079895, -0.032915178686380386, 0.02802756056189537, 0.02028559520840645, 0.0004763132892549038, 0.06206940859556198, -0.1927972286939621, 0.10421407967805862, 0.06332045048475266, 0.0043919081799685955, 0.033350203186273575, -0.18757666647434235, -0.06813281774520874, 0.13791459798812866, 0.06948016583919525, -0.03994377329945564, -0.12167761474847794, -0.20022663474082947, 0.22647272050380707, -0.1862289309501648, -0.09143586456775665, 0.09685689210891724, -0.1065872460603714, 0.16619394719600677, -0.05162578448653221, 0.161704421043396, 0.23489885032176971, 0.1843826025724411, -0.02034890279173851, 0.07101260125637054, -0.004920941311866045, -0.18522915244102478, 0.11417221277952194, 0.03726032376289368, 0.1944461464881897, 0.13012555241584778, 0.12974686920642853, -0.14059677720069885, 0.018546713516116142, -0.14961378276348114, 0.13243740797042847, 0.15634408593177795, -0.25815945863723755, 0.18862929940223694, 0.007040055468678474, 0.1300193816423416, 0.04435688629746437, 0.15064460039138794, -0.1730492115020752, 0.10468796640634537, 0.10001426935195923, 0.08318615704774857, 0.2215462476015091, -0.1498359888792038, -0.03109731525182724, -0.09318096935749054, 0.09571921080350876, 0.0299725029617548, 0.06425059586763382, -0.2287115752696991, 0.16907580196857452, 0.1644277721643448, -0.06811140477657318, -0.001953893108293414, 0.10140164196491241, 0.026752686128020287, 0.13009880483150482, 0.08338978886604309, -0.1331242322921753, -0.20134465396404266, -0.0005997096304781735, -0.11673197150230408, 0.2353329062461853, 0.016159961000084877, 0.14167670905590057, -0.10720789432525635, -0.013593660667538643, 0.16077923774719238, -0.1865633726119995, 0.02102583274245262, -0.20597651600837708, 0.13199128210544586, 0.05192467197775841, -0.08897969126701355, -0.27693235874176025, -0.054578568786382675, -0.15038104355335236, 0.2678165137767792, 0.039858587086200714, -0.15257763862609863, 0.028110789135098457, 0.014078357256948948, 0.01723155379295349, -0.10265353322029114, 0.05805419385433197, -0.3100981116294861, -0.3572852611541748, -0.03838676959276199, -0.1620136946439743, 0.010314933024346828, -0.17899790406227112, -0.0033525738399475813, 0.20461556315422058, -0.05956217274069786, 0.24189122021198273, -0.1952933520078659, -0.04750033840537071, -0.16204899549484253, -0.3950134217739105, -0.07022205740213394, -0.16472996771335602, -0.002358613768592477, -0.058850765228271484, 0.11991714686155319, -0.15990185737609863, 0.04897502064704895, -0.12493409961462021, -0.03341732919216156, 0.046967096626758575, -0.03604705631732941, 0.08150210976600647, -0.03511252626776695, -0.20444755256175995, 0.14380203187465668, -0.05399300530552864, -0.05755139887332916, 0.11813351511955261, -0.0071671223267912865, 0.024178234860301018, 0.024628615006804466, -0.04126977175474167, -0.20552502572536469, 0.02675895020365715, -0.16585296392440796, 0.13677328824996948, -0.1896749883890152, -0.07672520726919174, 0.13589848577976227, -0.13452455401420593, 0.09874985367059708, 0.16379304230213165, 0.22002626955509186, 0.058715734630823135, -0.09841614216566086, 0.24265769124031067, 0.08895707130432129, -0.04309239238500595, 0.20145250856876373, 0.1768925040960312, 0.15818338096141815, -0.11077549308538437, 0.17406606674194336, -0.27698931097984314, 0.17088574171066284, 0.04047040268778801, -0.02992282621562481, 0.26785194873809814, 0.03498616814613342, 0.04214226081967354, -0.20470452308654785, 0.13389207422733307, 0.049023911356925964, 0.15581925213336945, -0.23182442784309387, 0.14387774467468262, 0.14518557488918304, 0.01616673357784748, -0.04740319773554802, -0.07626999914646149, 0.08925866335630417, -0.046109285205602646, 0.04351453855633736, -0.2103145718574524, 0.05221809074282646, -0.1238882914185524, 0.2391900271177292, 0.028087453916668892, -0.08022996783256531, -0.020975351333618164, 0.13122990727424622, -0.16468369960784912, 0.07181613892316818, -0.0025412756949663162, 0.0545511320233345, -0.044207293540239334, -0.31727346777915955, -0.014930483885109425, 0.126622274518013, 0.0412277989089489, 0.23161236941814423, -0.0003539541794452816, -0.25100916624069214, -0.126753032207489, 0.09044034779071808, -0.02732151560485363, -0.21494662761688232, 0.007848438806831837, 0.02325425297021866, 0.35024675726890564, -0.31186020374298096, 0.09425325691699982, -0.21583132445812225, -0.01228893082588911, 0.042380332946777344, 0.05715654790401459, 0.23858462274074554, -0.03673544153571129, 0.029353756457567215, 0.03354758769273758, -0.03840402513742447, 0.08564139157533646, 0.10945317894220352, 0.09571337699890137, -0.05032594874501228, 0.17969417572021484, -0.186008483171463, 0.2613358795642853, 0.058872662484645844, 0.05396991968154907, 0.06452269107103348, 0.052828092128038406, 0.2732337713241577, -0.04349260777235031, -0.09058424085378647, 0.13229341804981232, 0.06311245262622833, -0.06601395457983017, 0.13558357954025269, -0.05089057609438896, -0.024193614721298218, -0.12863029539585114, 0.052084144204854965, 0.1868683397769928, -0.007176716346293688, -0.04113595932722092, 0.03811553120613098, -0.08562595397233963, -0.01140263769775629, 0.05410626158118248, 0.004478174261748791, -0.32812565565109253, -0.11429229378700256, -0.164451465010643, 0.07127289474010468, 0.07877003401517868, -0.07629214972257614, 0.2127300202846527, 0.031661007553339005, 0.06508240848779678, -0.18448172509670258, -0.0654071569442749, -0.051354117691516876, -0.25643622875213623, 0.1021963357925415, -0.21730995178222656, 0.0018162345513701439, -0.2178688496351242, -0.2089759260416031, -0.4816504120826721, -0.018292775377631187, 0.11919263750314713, 0.1283591091632843, -0.06167159602046013, 0.042461469769477844, -0.07728732377290726, -0.059986554086208344, 0.022919196635484695, -0.021682757884263992, -0.004142506048083305, -0.29283344745635986, -0.04902078956365585, 0.03363952040672302, 0.2035258263349533, -0.12483522295951843, -0.08193714916706085, -0.16013522446155548, 0.24539977312088013, -0.01460334099829197, 0.05094236135482788, -0.19682669639587402, 0.04205821454524994, 0.12806352972984314, 0.2688852548599243, -0.02853819727897644, 0.09580625593662262, 0.04682391881942749, -0.04199555516242981, -0.020829390734434128, 0.6022115349769592, 0.03185657411813736, 0.03923039510846138, -0.11009529232978821, -0.1328054666519165, -0.037539608776569366, -0.3386421203613281, 0.041875217109918594, -0.12965033948421478, 0.3199772238731384, -0.07990500330924988, -0.0015434175729751587, 0.34517404437065125, 0.08294220268726349, -0.13029541075229645, -0.20851927995681763, -0.01666557416319847, 0.2727178633213043, -0.026915429159998894, -0.04163792356848717, 0.1223045065999031, -0.11342906206846237, -0.007834313437342644, -0.27759918570518494, -0.09199140220880508, -0.0015802871203050017, 0.13230808079242706, 0.018338343128561974, -0.007211009971797466, 0.2351614534854889, 0.12213601917028427, 0.19378238916397095, -0.046287424862384796, 0.08374849706888199, 0.09123247861862183, -0.20527519285678864, -0.1954021453857422, -0.025408226996660233, -0.10327742993831635, -0.04091853275895119, 0.0691838189959526, -0.20597554743289948, 0.13850870728492737, -0.05324022099375725, 0.07704618573188782, 0.1728350818157196, 