{"version": "0.5.2", "metadata": {"date": {"year": 2024, "month": 4, "day": 12, "hour": 11, "minute": 54, "second": 58}, "loudness": -15.560234069824219, "gain": 0.8413974876192047}, "architecture": "WaveNet", "config": {"layers": [{"input_size": 1, "condition_size": 1, "head_size": 8, "channels": 16, "kernel_size": 3, "dilations": [1, 2, 4, 8, 16, 32, 64, 128, 256, 512], "activation": "Tanh", "gated": false, "head_bias": false}, {"input_size": 16, "condition_size": 1, "head_size": 1, "channels": 8, "kernel_size": 3, "dilations": [1, 2, 4, 8, 16, 32, 64, 128, 256, 512], "activation": "Tanh", "gated": false, "head_bias": true}], "head": null, "head_scale": 0.02}, "weights": [-0.07126019895076752, 0.32725024223327637, -0.9304277300834656, -0.6921727657318115, -0.40573012828826904, 0.37362197041511536, -0.01631489023566246, 0.8376249670982361, -0.12632332742214203, 0.29151707887649536, -0.4205746054649353, -0.09824220091104507, -0.9945932626724243, -0.6276793479919434, -0.4615577459335327, 0.0024730004370212555, 0.10899229347705841, 0.13507460057735443, -0.12996195256710052, -0.10015514492988586, 0.018008505925536156, 0.15344536304473877, 0.013466603122651577, 0.15113721787929535, -0.05499386414885521, 0.05443272367119789, 0.1689690798521042, -0.16832835972309113, -0.046217769384384155, 0.006484419107437134, -0.0876091793179512, 0.0821976438164711, -0.13739897310733795, -0.03393431007862091, -0.04876375198364258, -0.09346259385347366, -0.11633486300706863, 0.08330130577087402, 0.02393828146159649, 0.10354332625865936, 0.04522596299648285, -0.03862090781331062, -0.016202464699745178, -0.17437081038951874, -0.14324328303337097, -0.038954414427280426, 0.1325884312391281, 0.12625201046466827, -0.0990927666425705, 0.027198417112231255, 0.11919061094522476, 0.1044255793094635, 0.09802863001823425, 0.059727802872657776, 0.06318039447069168, -0.04396630451083183, 0.06690509617328644, -0.14525246620178223, -0.05714451149106026, -0.03191100060939789, 0.033072877675294876, -0.017237529158592224, -0.15334931015968323, 0.016269046813249588, -0.034141041338443756, -0.05596699193120003, 0.12292993813753128, 0.13288113474845886, 0.11632932722568512, 0.021134207025170326, -0.2159048318862915, -0.08756192028522491, 0.17461153864860535, 0.01790706254541874, 0.09448704868555069, 0.24600328505039215, -0.07384329289197922, -0.15773005783557892, 0.1333509087562561, 0.014564847573637962, -0.09787841141223907, 0.010839492082595825, 0.01474718190729618, -0.17873331904411316, 0.14381816983222961, 0.07806547731161118, 0.008477576076984406, -0.18528476357460022, -0.043878063559532166, -0.11361310631036758, 0.17644405364990234, 0.173589825630188, 0.13302525877952576, -0.0678107738494873, -0.24547883868217468, -0.12658581137657166, 0.19345243275165558, -0.0677579939365387, -0.135938361287117, 0.03559108078479767, 0.03332635387778282, 0.06524001806974411, 0.056225474923849106, -0.13977064192295074, -0.17097803950309753, 0.11466672271490097, -0.21088698506355286, -0.14382855594158173, 0.11199000477790833, -0.03406451269984245, -0.109425850212574, -0.016749277710914612, 0.014778690412640572, 0.2448892593383789, 0.014232530258595943, -0.17581121623516083, -0.09150061011314392, 0.0815482884645462, 0.10080737620592117, 0.12439887225627899, -0.014422322623431683, 0.08099963515996933, 0.00942138209939003, -0.0032482354436069727, -0.05683070048689842, 0.0058542401529848576, -0.10708428919315338, -0.154695525765419, -0.14931422472000122, -0.050178445875644684, 0.07402268052101135, 0.1520208716392517, -0.16091126203536987, -0.08395655453205109, 0.017292972654104233, 0.056067828088998795, 0.09555741399526596, 0.0911087915301323, -0.03523119539022446, 0.011761793866753578, 0.047008588910102844, 0.16114869713783264, 0.22451239824295044, 0.09003365784883499, -0.19837473332881927, -0.01919461414217949, 0.14513848721981049, -0.0764758288860321, 0.004679866135120392, -0.025305628776550293, -0.2062457799911499, -0.044645193964242935, 0.05630366504192352, 0.009103433229029179, 0.15940211713314056, -0.04693499580025673, 0.01959671825170517, -0.10102488845586777, -0.03859427943825722, -0.05319223552942276, -0.06518009305000305, -0.09173069894313812, -0.05438266694545746, -0.10616666078567505, 0.029843918979167938, -0.05156299099326134, -0.09147433936595917, -0.007179447449743748, -0.07196100801229477, -0.0331893265247345, 0.06887577474117279, -0.0013068538391962647, 0.10019875317811966, -0.010257270187139511, -0.0716894268989563, 0.11498533189296722, 0.046402763575315475, -0.12173523753881454, 0.07123404741287231, -0.1641433835029602, 0.10829910635948181, -0.005417707841843367, 0.16328072547912598, -0.017442641779780388, 0.038728561252355576, -0.007328099105507135, 0.030773935839533806, -0.0022796939592808485, -0.056903958320617676, 0.021210750564932823, 0.08559270948171616, 0.03554002568125725, -0.04139159619808197, -0.013791008852422237, -0.15323218703269958, -0.028267523273825645, -0.10907995700836182, -0.010326082818210125, -0.027634987607598305, -0.028517670929431915, -0.052821990102529526, 0.1523071825504303, -0.13716652989387512, -0.16132239997386932, -0.024817440658807755, 0.13496659696102142, -0.01843249425292015, 0.11006787419319153, 0.1172284185886383, 0.05972308665513992, 0.04313935339450836, -0.1203700602054596, -0.04319857433438301, -0.0850534439086914, 0.0958395004272461, 0.08497080206871033, -0.05370370298624039, 0.02007165364921093, 0.1818864941596985, -0.059693604707717896, 0.0833854228258133, 0.20792225003242493, 0.1108378991484642, -0.09571041166782379, -0.19334745407104492, 0.011544172652065754, -0.0005872626788914204, 0.047906406223773956, 0.04023222625255585, -0.11684087663888931, -0.06348824501037598, 0.06154260411858559, 0.11140376329421997, 0.19381272792816162, 0.14771941304206848, -0.1832699179649353, 0.0028576995246112347, -0.15720847249031067, 0.033328596502542496, 0.1072089672088623, 0.10614167153835297, 0.19827739894390106, 0.013469544239342213, 0.05037859082221985, 0.16981634497642517, -0.07426900416612625, 0.1622927337884903, -0.02144755609333515, 0.0701928660273552, 0.036269187927246094, 0.018306974321603775, 0.08387284725904465, 0.17751598358154297, 0.04306579753756523, -0.014276839792728424, 0.0025197560898959637, -0.005255762487649918, 0.1314137876033783, -0.19453860819339752, -0.19012515246868134, -0.11728338897228241, 0.18358200788497925, 0.1899215430021286, 0.16348685324192047, -0.050083499401807785, 0.059900738298892975, 0.007715381681919098, -0.05781112238764763, 0.23116961121559143, 0.0911305844783783, -0.17358307540416718, -0.18446142971515656, -0.19279341399669647, 0.13277368247509003, 0.042911726981401443, -0.055860359221696854, 0.02526041492819786, -0.20477913320064545, -0.06732302159070969, 0.14265446364879608, 0.12646867334842682, -0.03465432673692703, -0.2148122489452362, 0.0025027282536029816, -0.02869873121380806, 0.22197957336902618, 0.07004845142364502, 0.10057064890861511, -0.1357291042804718, 0.08686919510364532, -0.054888591170310974, -0.04786859080195427, 0.15654204785823822, 0.047590889036655426, -0.13397939503192902, 0.02199278585612774, 0.15086425840854645, -0.20786139369010925, 0.1725698709487915, 0.0049893902614712715, -0.17219294607639313, -0.026222188025712967, -0.15909023582935333, -0.04361320659518242, 0.015340177342295647, -0.09174568206071854, 0.0379735492169857, 0.08221849799156189, 0.04828273504972458, -0.03480396047234535, -0.1343982219696045, -0.007566744461655617, 0.06858009845018387, -0.06819044798612595, 0.06971754878759384, 0.11606895923614502, -0.09110911935567856, 0.015987711027264595, 0.07762734591960907, 0.024436594918370247, -0.006298740394413471, -0.0034375879913568497, -0.1272304654121399, 0.028721796348690987, 0.11581560224294662, 0.1445627510547638, 0.06865116953849792, -0.0011037306394428015, 0.06385644525289536, -0.0417599231004715, -0.0892828032374382, -0.1125122606754303, 0.12479979544878006, 0.0687132403254509, -0.11010988056659698, 0.07740452885627747, 0.1323719322681427, 0.1270960122346878, 0.13757994771003723, 0.13203758001327515, -0.04818233475089073, -0.03511824831366539, 0.13837452232837677, 0.0639500543475151, -0.07341466099023819, 0.14748844504356384, 0.05630819499492645, 0.09586089849472046, -0.0700041800737381, -0.05598535016179085, -0.1699763536453247, -0.01474892906844616, 0.17759431898593903, -0.0700058713555336, -0.1252574622631073, -0.07874633371829987, 0.07973086088895798, 0.19991302490234375, 0.062366683036088943, -0.09716008603572845, -0.23331402242183685, 0.012280765920877457, -0.24503934383392334, -0.019541220739483833, 0.2379690408706665, 0.009822339750826359, -0.01975795440375805, -0.2978239953517914, 0.03291184827685356, 0.11391545832157135, 0.037245023995637894, 0.026179613545536995, -0.23398292064666748, -0.2293376475572586, -0.00975402258336544, 0.05295257270336151, 0.2782309055328369, -0.010511384345591068, -0.03720783069729805, -0.047779686748981476, 0.25900113582611084, 0.09982655197381973, 0.22870475053787231, -0.0013105111429467797, -0.09070290625095367, 0.2748854458332062, -0.051817361265420914, -0.03890400379896164, 0.10783081501722336, -0.06003527715802193, -0.11802012473344803, 0.12032266706228256, -0.20771726965904236, -0.21370665729045868, 0.0482233390212059, -0.03124680370092392, -0.03311989828944206, -0.00608411617577076, -0.060473088175058365, 0.12052371352910995, 0.14533309638500214, 0.023092886433005333, -0.17187857627868652, 0.09268809109926224, 0.04303126409649849, -0.049473635852336884, 0.19034244120121002, 0.13686810433864594, -0.11236170679330826, 0.13017897307872772, -0.05733323097229004, -0.08150679618120193, 0.1741289347410202, 0.032492127269506454, -0.1647782176733017, -0.10309040546417236, -0.07017295062541962, 0.028376279398798943, 0.08110404014587402, 0.1799473911523819, -0.05491948872804642, -0.13952849805355072, -0.018494509160518646, 0.12888185679912567, 0.13111968338489532, -0.09813356399536133, -0.08425994962453842, -0.15851016342639923, -0.08756030350923538, 0.11332329362630844, -0.047629840672016144, 0.08323755860328674, 0.06124822795391083, 0.05043579638004303, -0.07918975502252579, -0.10883528739213943, 0.08195528388023376, -0.08438051491975784, 0.011671559885144234, -0.07919080555438995, -0.11094608157873154, -0.19784720242023468, 0.02283695712685585, 0.1244783028960228, -0.19768637418746948, 0.16776983439922333, -0.032639481127262115, 0.06781361252069473, 0.03983330726623535, -0.08487758040428162, 0.06746332347393036, 0.049542129039764404, 0.10185103118419647, 0.11330246925354004, -0.060710374265909195, 0.16878889501094818, -0.03179112449288368, 0.1015452966094017, -0.06903193145990372, -0.08041507750749588, -0.11016041785478592, -0.01226598210632801, -0.012445610016584396, -0.15175768733024597, -0.0072268350049853325, 0.11329640448093414, 0.05514243617653847, -0.05849820747971535, -0.1552157700061798, -0.07808185368776321, 0.01600443199276924, 0.18181683123111725, 0.11905215680599213, 0.03272196650505066, 0.011966774240136147, -0.17427481710910797, -0.16954883933067322, 0.10832296311855316, -0.04643465578556061, 0.11840551346540451, -0.14184997975826263, -0.040997620671987534, -0.07596592605113983, 0.03793919458985329, 0.01855355314910412, 0.15791937708854675, 0.04948575049638748, 0.11476963758468628, 0.05247969552874565, -0.08280062675476074, 0.0009792075725272298, 0.06464862823486328, 0.029548464342951775, -0.03632059320807457, 0.1719791293144226, 0.03461631014943123, -0.2309509515762329, -0.1786876916885376, 0.07485803961753845, 0.2504994571208954, -0.04115157201886177, 0.15211759507656097, -0.05605323240160942, -0.0191485658288002, 0.06260739266872406, -0.20350924134254456, -0.055686742067337036, 0.0018234156304970384, -0.1688888520002365, -0.05656193569302559, -0.10121789574623108, 0.22048217058181763, 0.06570274382829666, 0.006164034362882376, -0.09809348732233047, -0.087564617395401, -0.16211539506912231, 0.1392674595117569, 0.1860259771347046, 0.04340282455086708, -0.08513618260622025, -0.14314045011997223, -0.011682099662721157, 0.019983084872364998, 0.01599329337477684, -0.017256127670407295, 0.004197165835648775, -0.14485004544258118, -0.06057785451412201, -0.18613730370998383, 0.05407663434743881, 0.09297025203704834, -0.23547537624835968, -0.21977850794792175, -0.16766712069511414, -0.12947522103786469, -0.1422886997461319, -0.15562063455581665, -0.17837445437908173, -0.07679286599159241, -0.13436177372932434, -0.02072647586464882, -0.054690565913915634, -0.07541336119174957, -0.04939885810017586, 0.11647441238164902, 0.008757625706493855, 0.062335941940546036, -0.05149255320429802, 0.06451096385717392, -0.21097692847251892, -0.15694765746593475, 0.21523898839950562, -0.1588812619447708, 0.015176131390035152, 0.06281334906816483, -0.1036500483751297, -0.0496828593313694, 0.1667838990688324, 0.08660470694303513, -0.11547330766916275, -0.15417158603668213, -0.13913670182228088, 0.03258265554904938, -0.029883431270718575, 0.20672790706157684, -0.01679285243153572, -0.10067559033632278, 0.04265158995985985, 0.0585276298224926, 0.20130150020122528, 0.15314331650733948, -0.03024364821612835, -0.17301733791828156, -0.08559127897024155, 0.10080400854349136, 0.027825692668557167, -0.1776643991470337, 0.06953119486570358, 0.22719992697238922, -0.11149552464485168, -0.13442498445510864, -0.05604463443160057, -0.0356740728020668, -0.027726812288165092, -9.914037946145982e-06, -0.04406401887536049, 0.03742796182632446, 0.1900186538696289, 0.03464812412858009, -0.08015867322683334, -0.18624195456504822, -0.17525310814380646, 0.17662855982780457, 0.12648536264896393, 0.0968485176563263, -0.16780273616313934, 0.07295597344636917, 0.09617459774017334, 0.16872189939022064, -0.06433965265750885, -0.09163570404052734, -0.05878950282931328, 0.19617071747779846, -0.10140612721443176, -0.027082988992333412, 0.13476862013339996, -0.02606648951768875, -0.11051809787750244, -0.07005790621042252, -0.0698101669549942, -0.10072600841522217, 0.16712641716003418, -0.025414621457457542, 0.011166934855282307, 0.06634756177663803, 0.03243705630302429, 0.057625096291303635, 0.18259583413600922, 0.05589970946311951, -0.1084364578127861, 0.07513318210840225, -0.0050027682445943356, -0.10107697546482086, 0.019011761993169785, -0.1310424655675888, 0.17077751457691193, 0.038766779005527496, -0.16976086795330048, 0.030829278752207756, 0.1498667150735855, -0.00034443341428413987, 0.08484844863414764, 0.07237502187490463, 0.013678821735084057, 0.0025854120030999184, 0.0004382398910820484, -0.11358881741762161, -0.09347021579742432, 0.042688630521297455, -0.17464128136634827, -0.021637914702296257, 0.14524467289447784, 0.08588957041501999, -0.05072884261608124, 0.07666808366775513, -0.17309756577014923, 0.06269790977239609, -0.0557108111679554, -0.11979404836893082, 0.026407578960061073, 0.0008024575072340667, 0.03207269310951233, -0.15512783825397491, -0.06007950380444527, 0.024878662079572678, 0.08152387291193008, 0.07586564123630524, -0.17481030523777008, -0.024309732019901276, 0.021703368052840233, 0.05527633801102638, 0.15971319377422333, -0.17207087576389313, -0.07845423370599747, 0.07730011641979218, 0.04185747727751732, 0.19922617077827454, 0.00882828701287508, 0.05412912741303444, -0.23044759035110474, -0.07787439972162247, 0.03639483079314232, -0.028358979150652885, 0.014509360305964947, 0.17051996290683746, -0.10836028307676315, -0.05926308408379555, 0.15923230350017548, -0.12725837528705597, 0.07088690996170044, -0.0382952056825161, -0.1044907420873642, -0.06349730491638184, 0.1250472515821457, 0.024121878668665886, -0.08733474463224411, -0.2043963521718979, 0.05578949674963951, 0.07676851749420166, 0.024513015523552895, -0.08056817948818207, 0.054595716297626495, 0.1478392332792282, 0.008119658567011356, -0.09038262069225311, 0.09006115794181824, -0.11125829815864563, 0.07680459320545197, 0.011186396703124046, -0.07048053294420242, 0.09518628567457199, -0.13956628739833832, 0.03804779052734375, -0.13690277934074402, -0.003967368043959141, 0.034908685833215714, 0.1766553372144699, -0.0685054212808609, 0.09661293774843216, -0.06264850497245789, -0.05821618065237999, -0.12021639198064804, -0.08068934828042984, 0.13737688958644867, -0.033456869423389435, -0.038260042667388916, 0.04853800684213638, 0.09634973108768463, 0.17018596827983856, 0.10724329948425293, -0.11105039715766907, 0.018906734883785248, -0.090760737657547, -0.08629549294710159, 0.07856350392103195, 0.12528875470161438, -0.11851201206445694, 0.13189923763275146, -0.08427154272794724, -0.029929183423519135, 0.16092205047607422, -0.04178003966808319, -0.011210769414901733, -0.14029309153556824, 0.08173812925815582, 0.07939209043979645, -0.19609038531780243, 0.09043940901756287, -0.2113465964794159, -0.0531713031232357, -0.026435529813170433, 0.21652492880821228, -0.12179858237504959, 0.10136052221059799, 0.22700481116771698, 0.021168801933526993, -0.041659075766801834, 0.07903558015823364, -0.12517884373664856, -0.08167669177055359, -0.10198861360549927, 0.19660474359989166, 0.09250852465629578, 0.05392668768763542, -0.025965901091694832, -0.00885778572410345, 0.007356475573033094, 0.018850302323698997, -0.13334934413433075, 0.10863027721643448, 0.0002581700391601771, -0.09732216596603394, 0.033020101487636566, 0.13406819105148315, -0.13317841291427612, 0.06403223425149918, 0.03850223869085312, -0.07821762561798096, 0.06736914813518524, -0.004403058439493179, -0.08793181926012039, 0.18053029477596283, -0.002757989801466465, 0.1234142929315567, 0.007720584515482187, 0.06915725767612457, -0.049672309309244156, 0.2402956187725067, -0.2198083996772766, -0.09486072510480881, 0.06009810417890549, -0.007878097705543041, -0.02715613692998886, -0.048572856932878494, -0.06290890276432037, -0.03336430713534355, -0.14505800604820251, 0.051784906536340714, 0.0296874288469553, 0.010712429881095886, 0.023869335651397705, 0.08266353607177734, 0.07202247530221939, -0.03765439987182617, -0.049545180052518845, -0.0423809252679348, -0.006196147296577692, -0.011521078646183014, -0.042248982936143875, 0.4774188995361328, -0.5453939437866211, 0.8687469959259033, -0.7593507170677185, -0.055369045585393906, 1.0003294944763184, 0.9760621786117554, -0.44562503695487976, 0.2377718985080719, 0.15741519629955292, -0.4105101525783539, -0.41945943236351013, 0.2121831476688385, -0.755057156085968, 0.17596738040447235, 0.39838042855262756, -0.16086044907569885, 0.22834382951259613, -0.06717557460069656, 0.10811109840869904, 0.3113720715045929, -0.13693974912166595, 0.06393717974424362, -0.006663598120212555, -0.04024806246161461, -0.05614008381962776, -0.04364325851202011, -0.06885527819395065, 0.07400693744421005, 0.028602363541722298, 0.12329811602830887, -0.03543606400489807, -0.03309524804353714, -0.06479055434465408, -0.2813366651535034, 0.10123126208782196, 0.05804179608821869, -0.2020801454782486, -0.18827538192272186, 0.22541269659996033, -0.03878195583820343, 0.12011086195707321, -0.0027134090196341276, 0.0742625892162323, 0.049495428800582886, -0.05596376955509186, -0.037027448415756226, 0.2432359904050827, -0.04896539822220802, 0.16745370626449585, -0.05640552192926407, 0.24625985324382782, -0.1777217835187912, -0.28682655096054077, 0.07624293118715286, -0.14165012538433075, -0.08310697227716446, -0.16485971212387085, 0.2724995017051697, -0.06157291308045387, 0.13540208339691162, 0.3742978274822235, 0.10047807544469833, -0.06868424266576767, 0.20747345685958862, -0.1243833601474762, 0.01721801422536373, -0.1424074023962021, -0.08756589889526367, 0.14058789610862732, 0.07007380574941635, -0.022471345961093903, -0.20410293340682983, 0.05199899896979332, 0.04630580544471741, -0.06290305405855179, 0.13829867541790009, 0.19032573699951172, -0.13695748150348663, -0.0361056923866272, -0.15184158086776733, -0.2097698450088501, -0.23706179857254028, 0.21240603923797607, 0.167357936501503, 0.048436518758535385, 0.08797308057546616, -0.101618193089962, 0.007195690181106329, 0.20757272839546204, -0.15006676316261292, 0.27994778752326965, 0.036682650446891785, 0.21236026287078857, -0.1390223652124405, 0.08706963807344437, -0.12245213985443115, -0.1383311003446579, 0.15639550983905792, 0.00010688199108699337, 0.24893605709075928, 0.38258302211761475, 0.25215649604797363, 0.18203672766685486, 0.2608672082424164, -0.0008733292925171554, -0.2644624710083008, -0.2244892418384552, -0.022866828367114067, -0.2836368978023529, 0.040554195642471313, 0.15087054669857025, 0.04298139363527298, 0.13332463800907135, 0.15138745307922363, 0.17773643136024475, -0.22092314064502716, -0.30830076336860657, 0.06249142065644264, 0.04411870986223221, 0.04283861070871353, -0.29713553190231323, -0.20609524846076965, 0.2995424270629883, 0.18733812868595123, -0.12858860194683075, 0.13254043459892273, -0.17380598187446594, 0.23372656106948853, 0.03101242333650589, 0.25441646575927734, -0.2499299943447113, -0.19331765174865723, 0.16754953563213348, 0.23822028934955597, 0.09256791323423386, 0.16307847201824188, -0.1706574410200119, 0.1292237788438797, -0.1856999695301056, 0.08555213361978531, -0.17188377678394318, -0.0742858424782753, 0.02204340137541294, -0.1823929101228714, 0.0668124184012413, -0.31887176632881165, -0.16327407956123352, 0.08802863210439682, -0.22134093940258026, -0.22943949699401855, -0.035448938608169556, -0.2580491602420807, -0.24951355159282684, 0.19812363386154175, 0.19072569906711578, 0.010543950833380222, -0.04828786477446556, 0.09209469705820084, 0.038368843495845795, -0.1893692910671234, 0.05551297962665558, 0.19892768561840057, -0.20145274698734283, -0.31705042719841003, -0.0005829978035762906, 0.19292987883090973, -0.1315338909626007, 0.019620448350906372, 0.17036187648773193, 0.14141790568828583, 0.10757216811180115, 0.18344397842884064, 0.20910754799842834, -0.14757834374904633, -0.014605996198952198, 0.027535300701856613, 0.3400793969631195, -0.3237003684043884, 0.19267834722995758, -0.10133857280015945, -0.3687279522418976, -0.022449007257819176, -0.06023246422410011, -0.029465071856975555, -0.2679211497306824, -0.13239139318466187, 0.060209982097148895, -0.09357402473688126, 0.24071112275123596, -0.021325787529349327, 0.23630286753177643, 0.05027305707335472, -0.14093877375125885, 0.2857125997543335, -0.059167180210351944, -0.017323680222034454, 0.05126136541366577, 0.09499471634626389, -0.03525307774543762, 0.05382310599088669, -0.1470271348953247, 0.029823338612914085, -0.27794748544692993, -0.0764654278755188, 0.05212398245930672, -0.17711322009563446, -0.17520855367183685, -0.05018922686576843, -0.008737913332879543, 0.035965416580438614, 0.07537148892879486, 0.09541722387075424, -0.18475420773029327, -0.05601804330945015, 0.16035909950733185, 0.1823040246963501, -0.08543811738491058, -0.1166941300034523, 0.024290906265378, 0.16818813979625702, -0.13158904016017914, -0.1583317369222641, 0.19035540521144867, -0.059163086116313934, -0.1912371665239334, -0.14251337945461273, 0.13005438446998596, -0.14729872345924377, 0.1240023598074913, 0.20892234146595, 0.08762454986572266, -0.03332602232694626, -0.06898495554924011, 0.07019232958555222, 0.06920254975557327, -0.21976801753044128, -0.03368553891777992, -0.22752784192562103, 0.1128353625535965, -0.19186145067214966, 0.31729552149772644, -0.10514538735151291, -0.09777361899614334, 0.09401363134384155, -0.05428982898592949, 0.11672048270702362, 0.19855736196041107, -0.29276156425476074, 0.09703152626752853, -0.011902064085006714, -0.0008538931724615395, 0.13351279497146606, 0.23817633092403412, -0.15566518902778625, 0.015181186608970165, 0.1550435870885849, 0.09622719138860703, 0.18980829417705536, -0.07567358762025833, -0.10719425231218338, 0.17861425876617432, 0.08483570069074631, 0.2756590247154236, -0.09031587094068527, -0.13376140594482422, -0.028239814564585686, -0.2517945170402527, 0.06489463150501251, 0.1743583083152771, 0.01569264754652977, -0.04584326595067978, 0.14613887667655945, -0.14388680458068848, 0.2101438194513321, -0.21182438731193542, -0.14524342119693756, -0.06230571120977402, 0.15774469077587128, 0.021673433482646942, 0.0777355432510376, -0.18034116923809052, 0.06738796830177307, -0.009062605910003185, 0.048665039241313934, 0.15434083342552185, 0.0701616182923317, -7.767100760247558e-05, -0.016075685620307922, -0.11156267672777176, -0.008466926403343678, 0.10751859843730927, -0.07590705901384354, 0.10776616632938385, -0.07803554832935333, -0.09053828567266464, 0.03685004636645317, -0.1585242748260498, -0.02202242985367775, -0.01174441073089838, -0.05258303880691528, -0.08655507117509842, 0.10879720747470856, 0.04616701230406761, 0.020451070740818977, -0.03177560865879059, -0.10276775807142258, -0.14794747531414032, 0.0737302303314209, 0.035707443952560425, -0.026453163474798203, -0.19544245302677155, -0.0539076067507267, 0.011567384004592896, -0.08039329946041107, -0.12197034060955048, 0.03856310620903969, -0.13093088567256927, -0.14354482293128967, -0.09633296728134155, 0.038215216249227524, -0.14657410979270935, -0.043857887387275696, -0.018802054226398468, -0.16323861479759216, -0.04264727607369423, -0.0461617037653923, -0.11820978671312332, 0.029304618015885353, -0.13564206659793854, -0.13423246145248413, 0.03926965594291687, 0.06593985110521317, 0.11183267086744308, -0.03612619638442993, -0.1397932469844818, 0.0733436867594719, 0.054939549416303635, 0.056064870208501816, -0.09409118443727493, 0.04426726698875427, 0.06085937097668648, 0.044611409306526184, 0.07027306407690048, -0.021416550502181053, -0.06885626912117004, 0.07139498740434647, -0.12851150333881378, 0.1504395753145218, -0.07904187589883804, 0.04884783551096916, -0.24023248255252838, -0.42166265845298767, 0.19940398633480072, 0.1182890459895134, -0.08588538318872452, -0.09571585059165955, -0.02235385589301586, -0.11870139092206955, 0.12603631615638733, -0.005242154002189636, 0.08068354427814484, -0.1464867889881134, 0.01909429021179676, 0.008902369998395443, -0.10464988648891449, 0.18557208776474, 0.11353977769613266, -0.1291005164384842, -0.20606262981891632, -0.1344444900751114, 0.14736874401569366, 0.026585588231682777, -0.02754569798707962, -0.09718219190835953, 0.07022683322429657, 0.10866159945726395, 0.013860823586583138, 0.1033753901720047, 0.024030327796936035, -0.11233413964509964, -0.16228950023651123, 0.052453577518463135, -0.04621950536966324, -0.08608220517635345, -0.11386516690254211, -0.022793343290686607, 0.20470261573791504, 0.18006232380867004, -0.059752993285655975, -0.0966515988111496, 0.04750793054699898, 0.00818032119423151, 0.10119355469942093, -0.009010612033307552, -0.10309559851884842, 0.12650993466377258, -0.042261190712451935, 0.0915510281920433, 0.07766059786081314, 0.0645497590303421, 0.17236308753490448, 0.13612589240074158, -0.10246579349040985, -0.06652706116437912, -0.10921768099069595, -0.09548861533403397, 0.14126616716384888, 0.0009703858522698283, -0.10054416209459305, -0.07550553977489471, -0.09488850086927414, 0.07351091504096985, -0.1345619112253189, -0.06261298805475235, -0.1295243352651596, 0.06056719273328781, -0.045953478664159775, -0.12459314614534378, -0.006347789894789457, 0.13037995994091034, 0.0046979389153420925, -0.042939361184835434, -0.015977658331394196, -0.06468126177787781, 0.012793632224202156, -0.1173601895570755, 0.05939427763223648, 0.055105168372392654, -0.12429674714803696, 0.12340409308671951, 0.1426495909690857, -0.10240582376718521, -0.09335391968488693, 0.0492667518556118, -0.044915568083524704, 0.11156301945447922, 0.10632476955652237, 0.0071834782138466835, -0.2909514904022217, -0.1770140826702118, 0.08845873922109604, 0.08046527206897736, -0.09686365723609924, -0.03749538213014603, -0.08908171951770782, -0.04620099440217018, 0.06383976340293884, 0.6186118125915527, 0.022653788328170776, 0.04757439345121384, 0.0625084936618805, 0.03784165903925896, -0.12700368463993073, 0.09320784360170364, 0.050051264464855194, 0.06642907112836838, -0.25627586245536804, 0.05809139460325241, 0.1570679396390915, -0.10757066309452057, 0.04879281669855118, 0.1100369244813919, -0.1579999029636383, 0.041971199214458466, 0.049647945910692215, 0.06227271258831024, 0.1436522752046585, 0.08551870286464691, 0.08260154724121094, -0.0445416085422039, 0.030106211081147194, -0.24243834614753723, -0.1696884036064148, -0.08994131535291672, -0.1469677984714508, 0.09887214004993439, 0.055480726063251495, 0.12192260473966599, 0.08056523650884628, -0.10659829527139664, -0.003491385839879513, 0.06015991419553757, 0.08678330481052399, 0.0999504029750824, -0.018730521202087402, -0.08945699036121368, 0.12757793068885803, -0.02695438824594021, -0.13644549250602722, 0.07604450732469559, 0.08205769211053848, -0.04484783858060837, -0.034979358315467834, -0.09309323132038116, -0.09199128299951553, -0.006846022326499224, -0.10281413793563843, 0.1447841376066208, -0.06374463438987732, 0.0368899442255497, -0.0037662575487047434, 0.0794074609875679, 0.08883233368396759, 0.10684937983751297, 0.07661205530166626, -0.030632272362709045, -0.08185742795467377, -0.1047062873840332, -0.0021459783893078566, 0.16838626563549042, -0.018954219296574593, 0.03326267749071121, -0.21242956817150116, -0.0013504915405064821, 0.021393153816461563, -0.161352276802063, -0.12386055290699005, 0.11995960772037506, 0.021605994552373886, -0.02843473292887211, 0.004438257776200771, -0.03989886865019798, -0.09012309461832047, -0.10550609230995178, 0.09551382809877396, 0.0003256330091971904, -0.06740807741880417, -0.1297350525856018, -0.14481788873672485, -0.02619730494916439, -0.14518623054027557, 0.10885486751794815, 0.09617088735103607, -0.13263994455337524, -0.11925307661294937, 0.10706903785467148, -0.008221877738833427, 0.08793934434652328, 0.1035914421081543, -0.12648504972457886, 0.03376457095146179, 0.059353239834308624, 0.17791986465454102, 0.06122102960944176, -0.1672876924276352, 0.03260203078389168, -0.21064138412475586, -0.026532618328928947, 0.21059681475162506, -0.0393117256462574, 0.06212695688009262, 0.05151780694723129, 0.07746323943138123, 0.018120665103197098, 0.18067555129528046, -0.03535014018416405, -0.05198290944099426, -0.0356108658015728, -0.018956078216433525, 0.14607979357242584, 0.3080933392047882, -0.005896013230085373, 0.07446678727865219, -0.010937015525996685, 0.044357817620038986, 0.10766729712486267, -0.09284384548664093, -0.1641484647989273, 0.06899633258581161, -0.15615704655647278, 0.02973886951804161, -0.08401558548212051, 0.03769998624920845, 0.019142834469676018, -0.027548955753445625, 0.016953574493527412, 0.010154036805033684, -0.06931161880493164, 0.09590360522270203, 0.19579783082008362, -0.03979986533522606, -0.06964195519685745, -0.13646338880062103, 0.0566406175494194, 0.1236010491847992, -0.014327740296721458, -0.06761448085308075, -0.045699965208768845, 0.10824614763259888, -0.007677113171666861, 0.2290310263633728, 0.1737789660692215, 0.18598729372024536, 0.12296918779611588, -0.10728905349969864, 0.051135074347257614, -0.08665590733289719, 0.09703464806079865, 0.04565698653459549, 0.0025925645604729652, -0.13781839609146118, -0.15829956531524658, 0.058673884719610214, 0.06460294127464294, 0.050916701555252075, 0.12299029529094696, -0.07703382521867752, 0.00775496382266283, -0.15678557753562927, 0.058709852397441864, -0.04547528922557831, 0.09579276293516159, 0.09172781556844711, 0.05500349402427673, -0.05836745351552963, 0.0470815934240818, -0.18414635956287384, -0.10550897568464279, -0.016603654250502586, -0.07297556847333908, -0.12715931236743927, -0.02357792854309082, -0.020620517432689667, -0.1303870677947998, 9.587130625732243e-05, 0.08858918398618698, 0.1243496984243393, -0.039337750524282455, -0.09345141798257828, -0.12343680113554001, -0.0641036257147789, 0.06546605378389359, -0.06275138258934021, -0.07522132247686386, -0.06696406751871109, 0.019062606617808342, -0.1360885053873062, -0.11935853958129883, 0.03337019309401512, -0.0139901889488101, -0.01682957634329796, 0.0073770396411418915, -0.12063989788293839, -0.004273599479347467, 0.007249373476952314, -0.050363700836896896, -0.023684147745370865, 0.03944610431790352, -0.17791682481765747, 0.10987609624862671, 0.1424592286348343, 0.1135774627327919, -0.036520812660455704, 0.12728163599967957, -0.15428505837917328, -0.01844155229628086, -0.16570119559764862, -0.03491749241948128, 0.0463407076895237, -0.08279808610677719, -0.02984282374382019, -0.04200548678636551, -0.17388387024402618, -0.07470627129077911, -0.16296932101249695, 0.09588763862848282, 0.04616065323352814, 0.11658790707588196, -0.0760621428489685, 0.03897896781563759, 0.02369665540754795, 0.08090740442276001, 0.08161365985870361, 0.009117759764194489, -0.1894817352294922, -0.20934684574604034, -0.07855056971311569, 0.06451506912708282, -0.013199124485254288, 0.3090413212776184, 0.08972828835248947, 0.006540421862155199, -0.02947746030986309, 0.0403900146484375, 0.036726780235767365, 0.09595976024866104, -0.01599026285111904, 0.32271844148635864, -0.27701225876808167, 0.05162699893116951, -0.030624870210886, 0.08155439794063568, -0.0497504360973835, -0.0565088652074337, -0.07550246268510818, -0.0823691114783287, -0.16085436940193176, 0.3000768721103668, 0.02154105342924595, 0.11290358006954193, -0.19609203934669495, -0.03528536111116409, -0.09867700934410095, 0.10682235658168793, 0.16064688563346863, 0.12089050561189651, 0.1000460609793663, -0.08308824896812439, 0.0980992242693901, 0.16772492229938507, -0.025212589651346207, -0.07997497171163559, -0.08389265835285187, -0.12472743541002274, -0.19826892018318176, 0.1286129355430603, 0.06117038428783417, -0.00109768845140934, -0.23567532002925873, 0.06845860928297043, 0.02720397152006626, 0.002427933504804969, -0.08507265150547028, 0.0699332058429718, 0.1396842747926712, -0.18115392327308655, -0.12303902208805084, 0.022317174822092056, -0.06707555800676346, 0.10516461730003357, -0.014672867953777313, 0.050995372235774994, -0.07607623189687729, -0.015028335154056549, 0.025630615651607513, 0.1771245300769806, -0.06418044120073318, 0.05852915346622467, -0.07407792657613754, 0.1457681655883789, 0.001985016744583845, 0.13050878047943115, 0.04828914999961853, -0.08402424305677414, 0.06061859801411629, 0.06568015366792679, -0.08061971515417099, -0.04979940503835678, 0.03413685783743858, -0.16675437986850739, -0.048051223158836365, 0.21500596404075623, 0.13984790444374084, 0.07673225551843643, -0.010045776143670082, -0.13510802388191223, -0.16129587590694427, -0.061566684395074844, -0.151397243142128, 0.025317616760730743, 0.025874072685837746, -0.1195591539144516, -0.22162818908691406, 0.12551265954971313, -0.01439021248370409, 0.015702109783887863, -0.17876489460468292, -0.004880383610725403, 0.1475534588098526, -0.12291320413351059, -0.1182565838098526, 0.08363566547632217, -0.13977962732315063, 0.012481913901865482, 0.04362444207072258, 0.02757798135280609, -0.10252953320741653, -0.012143394909799099, -0.008256942965090275, 0.021543465554714203, 0.05835143104195595, -0.15431059896945953, 0.1269238144159317, -0.026924600824713707, 0.10025597363710403, -0.11040914803743362, 0.1267881691455841, 0.11764021217823029, -0.09701808542013168, 0.028935905545949936, 0.13807286322116852, -0.00464242696762085, 0.037903208285570145, 0.07883574813604355, -0.0770740658044815, -0.17899468541145325, -0.00914935115724802, 0.1457023173570633, 0.001409068121574819, -0.15248827636241913, 0.0682583823800087, -0.025036413222551346, -0.027824165299534798, 0.09513335675001144, 0.03414228558540344, -0.015668511390686035, 0.08798102289438248, -0.04100741073489189, 0.058936215937137604, 0.0905824601650238, 0.08633331954479218, -0.09337407350540161, -0.026342833414673805, -0.1614069938659668, 0.10490742325782776, 0.11520316451787949, 0.009483064524829388, 0.003704118775203824, -0.10065323114395142, -0.12016592174768448, -0.18788549304008484, -0.1638588309288025, 0.0031507378444075584, 0.13822326064109802, -0.02780461683869362, -0.012793389149010181, -0.021656835451722145, -0.014616518281400204, -0.013226078823208809, -0.06792797148227692, 0.07360418140888214, 0.6329820156097412, 0.04432113468647003, -0.015334458090364933, -0.09909015893936157, 0.19867798686027527, 0.23801767826080322, 0.22798579931259155, 0.03208787366747856, 0.02022128738462925, -0.2606235146522522, -0.09615156799554825, -0.14287059009075165, 0.10622461140155792, -0.05832815542817116, -0.19041092693805695, -0.08505059778690338, -0.06549859791994095, -0.05124311149120331, 0.13965389132499695, -0.004737661685794592, -0.16235677897930145, -0.14074093103408813, 0.10421115905046463, 0.08888231217861176, -0.006232356186956167, -0.07368826121091843, 0.014457909390330315, -0.05009276792407036, -0.0730680376291275, -0.07022159546613693, 0.07314354181289673, 0.026461897417902946, -0.05831338092684746, 0.07776211947202682, -0.13766297698020935, 0.08785738795995712, 0.08693519234657288, -0.016220880672335625, 0.07305950671434402, 0.09527117758989334, -0.09338825941085815, 0.0383986160159111, 0.06851185858249664, -0.022723868489265442, 0.1461692601442337, -0.024350494146347046, -0.1437484323978424, 0.023804184049367905, -0.16003580391407013, 0.18095432221889496, -0.11914923787117004, -0.10912482440471649, -0.05663950368762016, -0.10407865792512894, -0.10019154846668243, 0.127788707613945, -0.13705803453922272, 0.08521445095539093, 0.060730691999197006, -0.025609677657485008, 0.036833979189395905, -0.06407530605792999, 0.1009901911020279, 0.16332218050956726, -0.021006809547543526, 0.22023451328277588, -0.16373741626739502, 0.038412440568208694, 0.05744240805506706, -0.10233426839113235, 0.03938549384474754, -0.030607076361775398, -0.02452831342816353, -0.08754216134548187, 0.06967829167842865, -0.07517208904027939, -0.05109366029500961, 0.09253338724374771, 0.10899284482002258, 0.09126482903957367, -0.18188613653182983, -0.1372888833284378, 0.20228788256645203, -0.08407388627529144, 0.043131016194820404, 0.07509028166532516, -0.0018684228416532278, -0.1976691335439682, 0.31368985772132874, -0.12290339916944504, -0.07677317410707474, 0.02589765377342701, -0.16210633516311646, -0.0634390339255333, 0.1826186627149582, -0.11203324049711227, 0.18900328874588013, -0.5224053859710693, -0.04228658229112625, 0.03388627991080284, 0.16427117586135864, 0.25718003511428833, 0.1359708458185196, -0.18205872178077698, -0.08751136809587479, -0.13257135450839996, 0.303160160779953, 0.18701565265655518, -0.04868631064891815, 0.054729051887989044, -0.151789590716362, -0.08060688525438309, 0.13793928921222687, 0.14292973279953003, 0.1452973186969757, -0.1396045684814453, -0.2870562672615051, -0.1381303071975708, 0.10752278566360474, 0.054526567459106445, 0.09855140745639801, -0.03896428644657135, -0.16130109131336212, -0.12953627109527588, 0.08203563094139099, 0.08919591456651688, -0.004855475388467312, -0.0928385928273201, -0.1043890193104744, -0.01849869266152382, -0.12760667502880096, 0.06248201057314873, 0.20478489995002747, 0.03524912893772125, -0.06163729354739189, 0.10598784685134888, 0.011063441634178162, -0.048465218394994736, -0.05324779078364372, -0.015222029760479927, 0.025449484586715698, 0.11748392879962921, 0.03641915321350098, 0.1198265552520752, -0.172578826546669, -0.0549769252538681, 0.05498576536774635, 0.10440599173307419, 0.1336435079574585, 0.012254689820110798, -0.0006737399962730706, -0.07908154278993607, 0.05513245239853859, -0.10219348222017288, -0.03694695606827736, -0.07647934556007385, -0.08092492073774338, 0.11881957948207855, 0.009464907459914684, 0.1134549081325531, 0.12454544007778168, 0.003309714375063777, 0.0493224561214447, -0.10484809428453445, 0.032953765243291855, 0.02807033061981201, 0.013898180797696114, -0.06327037513256073, -0.024816226214170456, -0.03717629984021187, -0.1341853141784668, 0.02102029137313366, -0.14169782400131226, 0.10502634197473526, -0.04329310357570648, -0.02382741868495941, -0.1452724039554596, 0.07122884690761566, -0.06993225961923599, -0.022283198311924934, 0.026523375883698463, 0.07780957967042923, 0.002923347521573305, 0.10888053476810455, 0.1593976616859436, 0.020685894414782524, 0.0421646386384964, -0.09486755728721619, -0.1320308893918991, -0.03424448147416115, 0.029810365289449692, -0.04939177632331848, -0.33471065759658813, -0.11625438928604126, 0.004723318852484226, 0.07624570280313492, -0.16833165287971497, 0.21327875554561615, -0.08727899193763733, -0.22332945466041565, -0.17911741137504578, -0.014593996107578278, 0.07027716934680939, -0.05443449318408966, 0.13686834275722504, 0.09663049876689911, -0.14194408059120178, 0.06804458051919937, -0.0016937595792114735, 0.15084317326545715, 0.08547591418027878, 0.0709146112203598, -0.19058841466903687, -0.1439906507730484, 0.1154225692152977, 0.009747776202857494, 0.18430697917938232, -0.03673359751701355, -0.035721782594919205, -0.08371207118034363, 0.12482702732086182, 0.07990169525146484, 0.10451401770114899, 0.028593800961971283, 0.12551352381706238, 0.08572878688573837, -0.027267714962363243, 0.06957577913999557, -0.08755762875080109, 0.08919662982225418, 0.11576517671346664, 0.12657387554645538, -0.046457841992378235, -0.06262397766113281, 0.0555138885974884, 0.12647400796413422, 0.0634075328707695, 0.07674317061901093, 0.05623524263501167, -0.02815861627459526, -0.3874867260456085, 0.40490859746932983, 0.3268999457359314, -0.5698548555374146, 0.09853334724903107, -0.86552494764328, -0.18635763227939606, -0.3876664340496063, 0.7170169353485107, -0.9901309013366699, -0.5191736221313477, -0.9993752241134644, 0.28361475467681885, -0.9631853103637695, 0.35618117451667786, -0.8217958211898804, -0.1461777240037918, 0.010227934457361698, 0.08071190118789673, 0.16228027641773224, 0.2566939890384674, -0.07396230101585388, -0.07705622911453247, -0.049215350300073624, -0.153198704123497, -0.16252093017101288, 0.1545407623052597, 0.1285211443901062, 0.1289125233888626, 0.22652371227741241, -0.051852837204933167, -0.0634351521730423, 0.02087491564452648, -0.05375199764966965, -0.0757499635219574, -0.0869874656200409, -0.24154020845890045, 0.10747712850570679, 0.006282462272793055, -0.19714832305908203, 0.058188628405332565, -0.19883319735527039, 0.17357294261455536, 0.2961364984512329, 0.0371134914457798, 0.3272722065448761, 0.10589398443698883, 0.18307708203792572, -0.05911573767662048, -0.11027740687131882, -0.027750905603170395, 0.13198935985565186, 0.07995133101940155, 0.11302336305379868, 0.00042670423863455653, 0.1005677878856659, -0.16795949637889862, 0.04044785723090172, -0.2055208832025528, -0.15349793434143066, 0.052556924521923065, 0.3770001232624054, 0.13001437485218048, -0.010633629746735096, 0.05207057297229767, 0.09826934337615967, -0.14535145461559296, -0.14407870173454285, -0.16617022454738617, -0.04661918058991432, -0.03995845094323158, -0.07597830146551132, -0.044832974672317505, 0.04243576526641846, 0.07651642709970474, 0.2842475473880768, 0.21292904019355774, -0.3131521940231323, 0.002266393741592765, -0.01013030856847763, 0.2852754294872284, -0.024446168914437294, -0.15759052336215973, -0.10407235473394394, 0.15518325567245483, -0.03415226936340332, -0.11877764761447906, 0.22562424838542938, 0.19914758205413818, -0.017280317842960358, -0.12866194546222687, 0.27522116899490356, -0.11227834224700928, 0.02616959996521473, -0.18933062255382538, -0.14297443628311157, -0.12096764147281647, -0.0827387273311615, -0.2447817176580429, -0.10560552030801773, 0.0821366012096405, -0.15817900002002716, -0.09993108361959457, -0.059759508818387985, 0.1774391233921051, 0.16706202924251556, -0.03440748155117035, -0.19120104610919952, -0.21414850652217865, -0.2195121794939041, 0.049832768738269806, 0.11153245717287064, 0.16472096741199493, -0.04969189316034317, 0.09631800651550293, -0.4452776610851288, 0.10935060679912567, 0.25381550192832947, -0.32001060247421265, -0.09682886302471161, -0.03170708566904068, 0.027042165398597717, -0.19980356097221375, 0.11287284642457962, 0.0193889532238245, 0.22582559287548065, -0.07329642027616501, 0.3061002790927887, 0.17281128466129303, 0.016030851751565933, -0.044067949056625366, 0.09877067059278488, 0.12076331675052643, -0.06089054048061371, -0.11402788758277893, 0.09213479608297348, -0.05122726410627365, 0.2851487994194031, -0.2092829942703247, 0.00010456192831043154, -0.17912665009498596, 0.07047978043556213, 0.1452288031578064, 0.056967999786138535, -0.07175495475530624, 0.213173970580101, -0.16401608288288116, -0.3043084144592285, -0.2098466157913208, -0.17998024821281433, 0.052212223410606384, -0.10277112573385239, -0.1400446891784668, -0.026211217045783997, 0.27692174911499023, -0.0498851016163826, -0.055496763437986374, 0.34994950890541077, 0.0008518561371602118, 0.2757156193256378, -0.060189083218574524, -0.07888723909854889, -0.04957287758588791, 0.25629696249961853, 0.11278093606233597, -0.12541086971759796, 0.0805756077170372, 0.004697335418313742, 0.06106911972165108, 0.0619688518345356, 0.10654619336128235, 0.22256815433502197, 0.0741865411400795, -0.10575587302446365, 0.08786974102258682, -0.17870919406414032, -0.17245754599571228, -0.04150693491101265, -0.13203255832195282, 0.15902777016162872, 0.03979054093360901, -0.1759054809808731, 0.06101009622216225, 0.023508289828896523, 0.08549502491950989, 0.23310905694961548, -0.15396128594875336, 0.1981831192970276, 0.05176432058215141, 0.3569629192352295, -0.0601133331656456, 0.029781099408864975, 0.04732706397771835, 0.28156647086143494, -0.1479983925819397, -0.16552162170410156, -0.1633453369140625, -0.17765533924102783, 0.07518155127763748, 0.09353431314229965, -0.12551699578762054, 0.06629715114831924, 0.20354649424552917, -0.21158988773822784, 0.1303810328245163, -0.4132285416126251, 0.07048024982213974, -0.13885965943336487, -0.2192249596118927, -0.16411910951137543, -0.12589795887470245, 0.2208203822374344, 0.03628974407911301, -0.07052325457334518, -0.020687315613031387, 0.14668825268745422, -0.24917347729206085, -0.12630556523799896, -0.2131107598543167, -0.15101772546768188, 0.2519740164279938, -0.13163518905639648, -0.0046500032767653465, -0.05171556398272514, 0.10128890722990036, 0.01143322791904211, -0.22594907879829407, 0.2711981534957886, -0.2609770894050598, 0.06296680867671967, 0.01300058327615261, -0.03191521018743515, 0.13788801431655884, 0.2858025133609772, 0.05412118881940842, -0.014207414351403713, 0.12608180940151215, 0.3488960564136505, 0.04614141210913658, -0.061007920652627945, 0.07953794300556183, 0.31541958451271057, -0.00023535641958005726, -0.04545046389102936, -0.17456549406051636, -0.19918419420719147, 0.1916971057653427, 0.05052885785698891, -0.13978439569473267, 0.1351434588432312, -0.14495761692523956, 0.05786557495594025, -0.07919546961784363, 0.37060466408729553, 0.1419367641210556, 0.09815546870231628, 0.20902112126350403, -0.18969088792800903, -0.13561947643756866, -0.042334701865911484, -0.21511898934841156, 0.0638582855463028, -0.16150754690170288, 0.13082635402679443, 0.18753784894943237, -0.1930379867553711, 0.23341220617294312, 0.10744912922382355, -0.18670980632305145, 0.40016770362854004, -0.1979997605085373, -0.14052841067314148, -0.09285826236009598, 0.0024369775783270597, -0.01768467016518116, -0.0466502420604229, -0.19675076007843018, 0.0037341928109526634, 0.12061908096075058, 0.1748163253068924, 0.11588261276483536, 0.02744174189865589, 0.04843434318900108, -0.18056051433086395, 0.06373395770788193, -0.26426881551742554, -0.11317088454961777, -0.039496589452028275, -0.059762999415397644, -0.12818869948387146, -0.12039313465356827, -0.11136243492364883, -0.14836916327476501, -0.017545413225889206, -0.13560661673545837, 0.010588187724351883, -0.006452567409723997, 0.10347198694944382, -0.09565825015306473, -0.024015653878450394, 0.12434299290180206, 0.08015616983175278, 0.01600761152803898, 0.18145692348480225, 0.08607819676399231, -0.10060270875692368, -0.14724352955818176, -0.028940796852111816, 0.05452502518892288, -0.03942621126770973, 0.10880919545888901, -0.17019931972026825, -0.15224412083625793, 0.026354901492595673, 0.033063117414712906, 0.08319346606731415, 0.10747604817152023, -0.05684242025017738, -0.22916117310523987, 0.06810089200735092, -0.012353770434856415, 0.06586859375238419, -0.004804994445294142, 0.04883808270096779, -0.015655431896448135, -0.12462256848812103, -0.005129111930727959, -0.20041094720363617, 0.12221033126115799, -0.04240137338638306, -0.055720679461956024, 0.0577862411737442, -0.04511365666985512, -0.059834882616996765, -0.2006971836090088, -0.010635624639689922, 0.039938535541296005, -0.03944152221083641, 0.08841929584741592, 0.10860613733530045, 0.04181147739291191, -0.14811547100543976, 0.32759055495262146, -0.00483758794143796, 0.08974025398492813, -0.08385834842920303, -0.1191539391875267, -0.1152256578207016, 0.1486920416355133, -0.10758019983768463, -0.03368701785802841, -0.09818989783525467, 0.0394369512796402, -0.08152538537979126, 0.21985673904418945, -0.15889044106006622, 0.11745445430278778, -0.04881871119141579, -0.06945789605379105, 0.007252213545143604, 0.10903389751911163, -0.015827571973204613, -0.16801601648330688, 0.059008751064538956, 0.14251640439033508, 0.08216684311628342, 0.33507171273231506, -0.005791221279650927, -0.035237088799476624, -0.2682783603668213, -0.08303738385438919, -0.08922680467367172, -0.032373007386922836, 0.09592503309249878, -0.05974417179822922, 0.1460806131362915, -0.10309402644634247, -0.1652354598045349, 0.20000556111335754, 0.08177538216114044, 0.031903814524412155, 0.234623983502388, -0.004849240183830261, 0.008588570170104504, 0.2025652527809143, 0.04043186455965042, -0.037380773574113846, 0.19018502533435822, 0.045560166239738464, -0.07785610109567642, 0.22430887818336487, 0.06925012916326523, 0.09856835752725601, -0.14597083628177643, -0.010460217483341694, 0.0619729608297348, -0.012054710648953915, -0.13301624357700348, 0.08427823334932327, -0.03424783796072006, -0.010035240091383457, -0.03208009898662567, 0.08940763026475906, 0.13908196985721588, 0.03490389510989189, -0.06844411045312881, 0.064959317445755, 0.0672210231423378, 0.13286951184272766, 0.06998424977064133, 0.011787001974880695, -0.08636215329170227, -0.013071300461888313, -0.10017178952693939, -0.06690597534179688, 0.06820890307426453, -0.08161754161119461, -0.0684271901845932, 0.00689666997641325, -0.03890616074204445, 0.10862473398447037, 0.033085037022829056, 0.037389688193798065, 0.027760230004787445, 0.04119925945997238, 0.04542284458875656, 0.2572776973247528, -0.10156767815351486, -0.08754560351371765, 0.06517083942890167, 0.095505490899086, 0.1794167160987854, 0.019358543679118156, -0.06308551132678986, 0.11702669411897659, -0.020862290635704994, 0.15110480785369873, 0.059228260070085526, 0.1163022518157959, 0.09873472154140472, -0.11127714812755585, 0.1279221773147583, 0.0662924200296402, -0.12346334755420685, 0.04434870183467865, -0.07821186631917953, -0.056523650884628296, -0.08771983534097672, -0.02543490007519722, 0.1441398710012436, 0.09724290668964386, -0.032192375510931015, -0.13069231808185577, -0.044026460498571396, -0.03197841718792915, 0.12441904842853546, 0.03921246528625488, 0.1024426594376564, 0.021580206230282784, -0.11894207447767258, -0.17606312036514282, -0.1246761903166771, 0.1089063286781311, 0.03743037208914757, -0.032185062766075134, 0.10258496552705765, 0.02517305687069893, -0.16579510271549225, 0.059372201561927795, -0.014203151687979698, -0.04207737371325493, 0.18613483011722565, -0.032733142375946045, 0.10536382347345352, 0.1609385907649994, 0.00039973363163881004, 0.06272349506616592, -0.007873330265283585, 0.01732516661286354, 0.10196283459663391, 0.04958561435341835, -0.10932860523462296, 0.11960706859827042, -0.08585333079099655, 0.02648293226957321, 0.15726514160633087, -0.06733296066522598, 0.0299855824559927, 0.08711250871419907, 0.012495534494519234, 0.11476200073957443, -0.05279182642698288, -0.11443775147199631, 0.011068576015532017, 0.006093750242143869, 0.020162031054496765, 0.010114622302353382, -0.17907869815826416, -0.21433566510677338, -0.21644935011863708, 0.15242543816566467, -0.03860476613044739, -0.040766727179288864, -0.032071731984615326, -0.02891451120376587, -0.20430633425712585, 0.20480380952358246, 0.14251869916915894, 0.20077846944332123, -0.031670037657022476, -0.11875448375940323, -0.054241642355918884, 0.20172278583049774, -0.01049608550965786, 0.011669488623738289, -0.19508527219295502, -0.10936310142278671, 0.013733736239373684, 0.050482507795095444, -0.08871611952781677, -0.09951665252447128, 0.2175387442111969, -0.19915518164634705, -0.22194865345954895, 0.3111847937107086, 0.0991334542632103, 0.021692853420972824, -0.012109902687370777, 0.16971568763256073, 0.032609011977910995, -0.13796384632587433, 0.08986084908246994, 0.09584228694438934, -0.042231809347867966, -0.05573342740535736, -0.01882184110581875, -0.1267676055431366, -0.013436092995107174, -0.11735312640666962, 0.0638563334941864, -0.007716762367635965, -0.04631542041897774, 0.03962583467364311, -0.1753913015127182, -0.044062476605176926, 0.17155808210372925, -0.14574620127677917, 0.22539275884628296, 0.038073062896728516, -0.14813578128814697, -0.16492488980293274, 0.12014821916818619, 0.0888289362192154, 0.06267113238573074, -0.19415530562400818, -0.11397711932659149, -0.06631884723901749, 0.056509148329496384, 0.07242682576179504, 0.09208662807941437, -0.09689664095640182, 0.08827029913663864, 0.04129406437277794, 0.05754692479968071, 0.14573243260383606, -0.04461358115077019, -0.10105661302804947, -0.013224945403635502, 0.09062985330820084, -0.020284906029701233, 0.03459791839122772, 0.047912489622831345, -0.20008830726146698, 0.12167729437351227, 0.022334810346364975, -0.006065206602215767, -0.2421789914369583, -0.1485077440738678, -0.015241588465869427, 0.041452549397945404, -0.09447977691888809, -0.06353631615638733, 0.07047180831432343, -0.08841010183095932, -0.13774274289608002, -0.051949407905340195, 0.12669777870178223, 0.03822237625718117, -0.005004812031984329, -0.013122525997459888, 0.06724061071872711, -0.0005773410084657371, 0.11318013817071915, -0.022958602756261826, 0.08014370501041412, 0.049454037100076675, -0.07284673303365707, 0.152792826294899, 0.09148022532463074, -0.12982650101184845, -0.13761721551418304, -0.07193370163440704, 0.11415279656648636, -0.06285370141267776, 0.17880100011825562, -0.05895053967833519, -0.17760755121707916, 0.06797098368406296, -0.0694127306342125, -0.012286806479096413, -0.07755549997091293, 0.0007096808403730392, -0.15288308262825012, -0.11392798274755478, 0.07537626475095749, -0.03484361618757248, -0.0708930566906929, 0.02681449055671692, -0.16386160254478455, -0.011891449801623821, 0.07793045043945312, 0.1311468929052353, -0.15953925251960754, -0.03885199874639511, 0.23141051828861237, 0.17670387029647827, -0.14057910442352295, 0.11978594958782196, 0.10970868170261383, 0.039426736533641815, 0.036521464586257935, 0.13387255370616913, -0.07588747888803482, -0.09976354241371155, -0.003679006127640605, 0.01341478805989027, -0.10443481057882309, 0.003635603468865156, -0.07344447076320648, -0.08924377709627151, 0.1298121064901352, 0.060469161719083786, -0.10894036293029785, 0.009821674786508083, 0.05636387690901756, -0.13712197542190552, 0.026539528742432594, 0.04316750541329384, 0.044434357434511185, 0.15366671979427338, -0.17107348144054413, -0.1543917953968048, -0.009582451544702053, -0.06490610539913177, 0.2193821668624878, -0.11801866441965103, -0.08035214245319366, -0.04169515147805214, 0.026204364374279976, -0.21091336011886597, 0.0737980306148529, 0.07238661497831345, 0.05366026237607002, -0.048081494867801666, -0.07330764085054398, -0.020626913756132126, 0.19008059799671173, -0.032113753259181976, -0.216923788189888, -0.030622849240899086, -0.028005721047520638, 0.05103052780032158, -0.003887289436534047, -0.02396726980805397, 0.10326305031776428, 0.12680616974830627, -0.06280164420604706, 0.09422426670789719, 0.05029245838522911, 0.08040404319763184, -0.02288730815052986, 0.05810784921050072, 0.14715513586997986, 0.12593069672584534, -0.16282571852207184, -0.07633338868618011, -0.024518456310033798, -0.14135946333408356, -0.18924088776111603, -0.1362190693616867, 0.05263132601976395, -0.12074396014213562, 0.001155870035290718, -0.046892378479242325, -0.1049591451883316, -0.004694314673542976, 0.12917232513427734, -0.08836791664361954, 0.08232134580612183, -0.045650336891412735, 0.112913578748703, 0.07818939536809921, 0.1050477996468544, 0.002919342601671815, -0.06808272749185562, 0.016781363636255264, 0.04056563228368759, -0.11381757259368896, -0.0688357800245285, 0.13425692915916443, -0.00860547460615635, 0.11363427340984344, 0.006411148700863123, 0.10393261909484863, 0.16374261677265167, 0.0490352027118206, 0.057144343852996826, 0.00857213232666254, 0.13604608178138733, 0.04994574934244156, -0.2107073813676834, -0.12083932012319565, -0.11689247936010361, -0.009126913733780384, 0.03243051469326019, 0.05958002805709839, -0.10842234641313553, -0.02599382773041725, 0.14608685672283173, -0.09287044405937195, -0.08336276561021805, -0.11692194640636444, -0.07163805514574051, 0.011459482833743095, 0.04471520707011223, -0.015102392062544823, -0.07227766513824463, -0.15757693350315094, -0.1732877939939499, -0.06014316529035568, -0.1517634242773056, 0.09300513565540314, -0.0634484589099884, -0.12113645672798157, -0.11155488342046738, -0.2560277581214905, 0.1481839269399643, 0.21659381687641144, 0.03647884353995323, -0.01587517000734806, -0.04707951098680496, -0.008247895166277885, 0.012505530379712582, -0.09126271307468414, 0.07169755548238754, -0.06658246368169785, -0.07549276947975159, -0.04602425917983055, -0.021155836060643196, -0.1384991854429245, -0.1697428673505783, 0.009412074461579323, -0.25199267268180847, -0.00731979263946414, 0.014375225640833378, 0.03804907202720642, 0.010243350639939308, -0.08434924483299255, -0.07771242409944534, -0.05001118406653404, 0.02011580392718315, 0.07243148237466812, -0.05387086421251297, 0.16522276401519775, 0.18625497817993164, -0.015788735821843147, 0.14820845425128937, -0.009102504700422287, 0.06806375086307526, 0.05921954661607742, 0.17778395116329193, -0.10342974215745926, 0.10638972371816635, 0.045909106731414795, 0.10245729237794876, 0.027666140347719193, 0.18061286211013794, 0.08349227905273438, -0.09952805191278458, 0.12131043523550034, 0.08734819293022156, 0.008587508462369442, 0.00959782488644123, 0.06495998799800873, -0.013859031721949577, -0.06856122612953186, -0.0018645190866664052, 0.021978285163640976, 0.14491291344165802, -0.04078378528356552, 0.1229015663266182, 0.018052930012345314, 0.005150135140866041, 0.0381636768579483, 0.05102933198213577, 0.0458056777715683, 0.009136042557656765, 0.19723302125930786, -0.21855854988098145, 0.010852561332285404, 0.09545011818408966, 0.07322738319635391, -0.1039632186293602, -0.014068455435335636, -0.3581826388835907, -0.08076748996973038, -0.08562714606523514, -0.13148796558380127, 0.01660551317036152, -0.12672846019268036, -0.058802273124456406, -0.02464415319263935, -0.04787953943014145, 0.10388839244842529, 0.10788654536008835, -0.08537847548723221, 0.054187674075365067, 0.10101812332868576, 0.02362734079360962, 0.023442652076482773, 0.006824353709816933, -0.04823281615972519, -0.15082097053527832, -0.0942455306649208, -0.04430572688579559, 0.19241851568222046, 0.10099691152572632, 0.14266052842140198, -0.022859696298837662, -0.11191321164369583, -0.20828284323215485, 0.04067019000649452, -0.10571607202291489, -0.07857932150363922, -0.05923831835389137, -0.12360259890556335, -0.2584173381328583, -0.07320750504732132, -0.09319093823432922, 0.20853674411773682, -0.11188393086194992, 0.1500203013420105, -0.026661254465579987, -0.03501104936003685, -0.030803540721535683, -0.2416936606168747, -0.07716181129217148, 0.10714329034090042, -0.21849872171878815, -0.07508645206689835, 0.16335317492485046, -0.08962210267782211, -0.11307570338249207, -0.18038569390773773, 0.03327443450689316, -0.00983233842998743, 0.22147086262702942, 0.1828186959028244, -0.028084466233849525, -0.07577142119407654, 0.043982021510601044, -0.2171073853969574, 0.09627200663089752, -0.013006237335503101, -0.014922263100743294, -0.04774283617734909, 0.09455692768096924, 0.04854029044508934, 0.05126218497753143, -0.07322762906551361, 0.006281986366957426, 0.006079106591641903, -0.1381836086511612, 0.041755352169275284, -0.07276342809200287, 0.03961788862943649, -0.11983466148376465, -0.01061017345637083, 0.09899696707725525, -0.13400892913341522, 0.07043078541755676, -0.1773962378501892, -0.00024400952679570764, -0.04533189907670021, 0.2364925891160965, 0.09653951972723007, 0.07061787694692612, -0.03858509659767151, 0.0037945876829326153, 0.0151217607781291, -0.020265400409698486, 0.0914607048034668, -0.05485798418521881, 0.18673282861709595, 0.0503058135509491, 0.10559628158807755, 0.15897297859191895, 0.011143149808049202, -0.15125644207000732, 0.19185276329517365, -0.020378807559609413, 0.10456732660531998, -0.08305079489946365, -0.09100621938705444, -0.039431918412446976, 0.18845829367637634, -0.16396088898181915, 0.015106748789548874, 0.20352867245674133, 0.032533783465623856, -0.08187618851661682, -0.1930312067270279, -0.07613416016101837, 0.14060969650745392, -0.08023756742477417, 0.11623905599117279, 0.15721441805362701, -0.08766599744558334, -0.06784403324127197, -0.02659108117222786, 0.15310578048229218, -0.12694740295410156, -0.023310447111725807, 0.15932920575141907, 0.08375958353281021, -0.06321776658296585, 0.005668275058269501, -0.05243049934506416, -0.013469957746565342, 0.063603974878788, 0.0004409580142237246, 0.11494442820549011, 0.04320834204554558, -0.00019568271818570793, -0.0821278765797615, -0.2341962456703186, 0.05328110232949257, -0.016621969640254974, -0.15988533198833466, 0.06016135588288307, 0.007347028236836195, 0.13590380549430847, 0.14797598123550415, 0.007632256019860506, 0.07410920411348343, -0.04652826488018036, -0.0050044977106153965, 0.12127672880887985, -0.09560129046440125, -0.013592836447060108, -0.061546407639980316, 0.060850974172353745, 0.06779003143310547, -0.014510254375636578, 0.05156824365258217, 0.06332383304834366, -0.059518296271562576, 0.09640555828809738, 0.04943988472223282, -0.1294519603252411, -0.10762499272823334, 0.0628298744559288, -0.04205920174717903, -0.015687773004174232, -0.13002152740955353, 0.13528360426425934, -0.05511194095015526, -0.13489344716072083, -0.04284660890698433, 0.09335989505052567, -0.11067391186952591, 0.053733259439468384, -0.008831305429339409, -0.03273351117968559, 0.0133721474558115, -0.08800177276134491, 0.10776415467262268, 0.1536770462989807, -0.01439935527741909, 0.008020542562007904, -0.1889013797044754, 0.13814200460910797, 0.07358068227767944, -0.03172687068581581, 0.02754325419664383, -0.09681085497140884, -0.11452014744281769, -0.09525842219591141, -0.03932840749621391, -0.16988824307918549, -0.017630543559789658, 0.08383922278881073, -0.11672347038984299, 0.006119806785136461, 0.06393364071846008, 0.006842693779617548, 0.11407490074634552, -0.11214936524629593, 0.06311886012554169, 0.06963865458965302, -0.009084049612283707, -0.004269072785973549, 0.031890321522951126, 0.09534285217523575, -0.08747892081737518, 0.03329921513795853, 0.10063797235488892, -0.06614698469638824, 0.06332103163003922, 0.11249098926782608, -0.005054087843745947, 0.06171536445617676, -0.004143842030316591, 0.12547846138477325, 0.04048355296254158, -0.08724415302276611, 0.009019742719829082, -0.03558610379695892, 0.04395127296447754, -0.09462928771972656, 0.014345708303153515, 0.08388397097587585, 0.02823210321366787, -0.03890354558825493, 0.010096129029989243, -0.12657517194747925, 0.0021642539650201797, -0.008292322978377342, 0.03411052003502846, -0.18345963954925537, 0.03282748907804489, -0.06674046069383621, 0.12624244391918182, 0.15434926748275757, -0.046787288039922714, 0.15363024175167084, -0.11939292401075363, 0.005954748950898647, 0.07015958428382874, -0.0889647975564003, 0.08140413463115692, -0.1226985827088356, -0.026287715882062912, -0.24949407577514648, -0.14801545441150665, 0.0287467110902071, 0.09796132147312164, 0.025313103571534157, 0.05333488807082176, -0.11912181973457336, 0.0783257707953453, 0.0028609996661543846, -0.031087199226021767, -0.0706862360239029, 0.13198038935661316, 0.0629890114068985, 0.06840705871582031, 0.022588759660720825, -0.11391498148441315, 0.002457273192703724, 0.015760820358991623, 0.023139631375670433, -0.32220470905303955, -0.40830060839653015, 0.8308598399162292, 0.4164540469646454, -0.5652167201042175, 0.20622380077838898, -0.24240566790103912, 0.06945900619029999, 0.5211548209190369, -0.8960990309715271, 0.9292899370193481, 0.5909756422042847, 0.03342707082629204, -0.3737424314022064, 0.09793347120285034, -0.6694186925888062, 0.2098136842250824, -0.18938173353672028, 0.07856358587741852, -0.2781609892845154, 0.1508893519639969, 0.0892760381102562, 0.24760131537914276, -0.044654253870248795, 0.1150108352303505, 0.04874710738658905, 0.1730322241783142, 0.19657540321350098, -0.2491743415594101, 0.10436985641717911, 0.010231232270598412, -0.15314345061779022, 0.2316291481256485, -0.07453855872154236, -0.06971834599971771, 0.1055719330906868, 0.20106486976146698, 0.027963759377598763, 0.039233800023794174, -0.277400940656662, -0.30149540305137634, 0.20351697504520416, -0.06701035052537918, -0.07479254901409149, 0.07975133508443832, 0.27850341796875, 0.24032749235630035, -0.08262453973293304, 0.0071861837059259415, -0.18303059041500092, 0.02393363043665886, -0.19313248991966248, 0.19960011541843414, -0.12786778807640076, -0.03346238657832146, -0.12402191758155823, -0.08551743626594543, -0.02109823189675808, -0.15319229662418365, 0.07972701638936996, 0.2161651998758316, -0.16782383620738983, -0.09937124699354172, 0.0819208174943924, 0.2776561677455902, -0.03479501232504845, 0.1795872002840042, -0.022060321643948555, -0.16978733241558075, 0.18596097826957703, -0.25906315445899963, 0.1682969629764557, 0.250728577375412, -0.054466042667627335, 0.14031469821929932, 0.25208163261413574, 0.03549117222428322, 0.09814751893281937, 0.10226403176784515, -0.16103696823120117, 0.07592709362506866, -0.1391441822052002, 0.1794804334640503, -0.17530396580696106, 0.12340071052312851, -0.13617563247680664, 0.16066943109035492, -0.024202272295951843, 0.16012756526470184, -0.1212071031332016, -0.15882588922977448, 0.15303552150726318, -0.17507195472717285, -0.16146139800548553, 0.176442489027977, -0.11790231615304947, -0.05093730241060257, -0.14999641478061676, -0.016767794266343117, -0.13469789922237396, -0.14503513276576996, -0.13183316588401794, 0.24964873492717743, 0.004986384883522987, -0.18951615691184998, -0.12833578884601593, 0.0266715157777071, 0.16659343242645264, -0.0211996678262949, 0.23226559162139893, 0.279604434967041, 0.07016420364379883, 0.0034532754216343164, 0.16906701028347015, -0.009944703429937363, 0.03376767039299011, 0.01677943952381611, -0.0943620428442955, 0.056343935430049896, -0.0083905765786767, -0.1593523621559143, 0.06310421973466873, 0.1725020855665207, -0.214985653758049, 0.13188821077346802, 0.1597057431936264, 0.04683876410126686, 0.12271135300397873, 0.15923117101192474, 0.16090145707130432, -0.20455673336982727, -0.09109750390052795, 0.17876379191875458, -0.15581831336021423, 0.10175903141498566, -0.04986550658941269, 0.02775150164961815, 0.09087558835744858, 0.030028345063328743, 0.1334872543811798, 0.02190341427922249, 0.19168171286582947, 0.059001971036195755, -0.02286711148917675, -0.12436407804489136, 0.2811039388179779, -0.06159572675824165, 0.13586881756782532, 0.058477818965911865, -0.01609617844223976, -0.21865753829479218, 0.02989448793232441, -0.12940776348114014, 0.08827724307775497, -0.11563663184642792, 0.2034560739994049, -0.28077998757362366, -0.03132776916027069, 0.04754193499684334, -0.04017670452594757, 0.16835644841194153, -0.09429524838924408, -0.1433115154504776, 0.1474676877260208, 0.14016292989253998, 0.14961335062980652, -0.13264906406402588, -0.1514255404472351, -0.05210639163851738, 0.04575340822339058, 0.15488596260547638, -0.17603233456611633, 0.0038756655994802713, -0.00364960846491158, 0.16845789551734924, -0.04869738221168518, 0.3539089858531952, -0.2134879231452942, -0.2406274676322937, -0.2437657117843628, 0.3124893307685852, -0.17732205986976624, 0.11598419398069382, -0.11096080392599106, 0.15875449776649475, 0.18459467589855194, -0.3041243851184845, 0.08345092087984085, -0.014207784086465836, -0.2736823856830597, 0.09529972821474075, 0.2136790007352829, 0.020247016102075577, -0.03662192076444626, -0.02314731478691101, 0.1555711179971695, -0.30206984281539917, 0.3354143500328064, 0.14535348117351532, 0.11723653227090836, -0.07789142429828644, -0.22774264216423035, -0.07969066500663757, 0.2314145267009735, -0.20514097809791565, -0.24390551447868347, -0.06587090343236923, 0.021161679178476334, -0.1897621899843216, -0.3678291440010071, -0.11869367957115173, -0.13351181149482727, 0.203021839261055, 0.03389190509915352, -0.14271904528141022, -0.3067259192466736, 0.08641224354505539, 0.17873568832874298, -0.13525918126106262, 0.14468593895435333, -0.08491385728120804, 0.057934679090976715, 0.10853305459022522, -0.1854860633611679, -0.27010372281074524, 0.3060513436794281, -0.1204858347773552, 0.05817226693034172, 0.013445883989334106, -0.055037930607795715, 0.04972933605313301, -0.06771687418222427, 0.11224862933158875, -0.08571435511112213, 0.036348290741443634, -0.36827778816223145, 0.05026405677199364, 0.05653516948223114, -0.22129829227924347, 0.09244521707296371, 0.07923411577939987, 0.05720019340515137, -0.09234102815389633, -0.13094541430473328, 0.006207912229001522, -0.22772018611431122, 0.2924927771091461, -0.3363121449947357, 0.11721149832010269, 0.26111847162246704, 0.13232141733169556, 0.34229159355163574, -0.12673014402389526, 0.1964333951473236, 0.13561052083969116, -0.2143634706735611, -0.1439208984375, -0.05513622611761093, -0.027110720053315163, -0.24998624622821808, -0.1657048761844635, -0.05750589072704315, 0.015749480575323105, -0.21824835240840912, 0.023622844368219376, 0.12721554934978485, 0.2297113537788391, 0.1704653650522232, -0.13479985296726227, 0.04423990473151207, -0.1496049463748932, 0.0757090374827385, 0.08351007103919983, 0.06360135972499847, 0.06322941184043884, 0.14012937247753143, -0.10366372764110565, 0.17677728831768036, 0.14018367230892181, 0.03418884426355362, -0.18686239421367645, -0.15956002473831177, 0.06636954098939896, 0.09017955511808395, 0.18624374270439148, 0.09761413186788559, 0.07522962987422943, 0.03426346555352211, 0.04069569706916809, -0.09296315908432007, 0.02856510691344738, -0.13711512088775635, -0.045832421630620956, 0.16213098168373108, 0.04155297577381134, -0.043513573706150055, 0.032155007123947144, -0.10348532348871231, 0.08192888647317886, 0.11505904048681259, 0.023932160809636116, -0.15558026731014252, -0.096826933324337, 0.06553684920072556, -0.09266038239002228, 0.006726411171257496, 0.1043170616030693, -0.030605021864175797, -0.04954872280359268, -0.13767360150814056, 0.07923587411642075, 0.052335500717163086, -0.012129494920372963, -0.14249823987483978, -0.02914680354297161, -0.008360431529581547, 0.10329657793045044, -0.06584612280130386, -0.14902527630329132, -0.11942111700773239, 0.20915348827838898, 0.11873593926429749, -0.09786996990442276, -0.1397368609905243, -0.14059306681156158, 0.00974010769277811, -0.03305407986044884, 0.061896368861198425, 0.006553077604621649, -0.03499448299407959, -0.18449203670024872, -0.14356966316699982, -0.04001077637076378, 0.03353575989603996, -0.0018400069093331695, 0.04008326679468155, -0.18940728902816772, 0.11301291733980179, 0.027712062001228333, 0.1509351283311844, -0.22777092456817627, -0.07841429114341736, 0.000255496590398252, -0.25387242436408997, 0.06133277714252472, 0.058616477996110916, 0.20869499444961548, -0.009537424892187119, -0.022432032972574234, -0.013449829071760178, 0.21771928668022156, -0.18030570447444916, -0.12844781577587128, 0.10796117037534714, -0.20070038735866547, 0.015399523079395294, -0.01954631321132183, -0.16072814166545868, -0.13373973965644836, -0.005258937831968069, 0.06073291599750519, 0.04685628414154053, -0.18948671221733093, 0.04085641726851463, 0.16108497977256775, 0.20598076283931732, -0.04108036682009697, -0.025672107934951782, -0.017797639593482018, 0.08339928835630417, 0.11363300681114197, -0.17260874807834625, -0.011678657494485378, -0.01884504221379757, -0.021186979487538338, -0.05189794301986694, 0.10386233031749725, -0.2457377165555954, -0.03238673135638237, 0.04126947000622749, 0.07226891070604324, -0.2142065018415451, -0.009688656777143478, 0.00859212689101696, -0.03148544952273369, -0.07497123628854752, -0.028089115396142006, 0.1582198143005371, 0.05334272235631943, 0.011045764200389385, -0.13035151362419128, 0.013324225321412086, 0.1666518896818161, -0.26138126850128174, 0.02491011470556259, -0.015716848894953728, 0.17896373569965363, 0.031172584742307663, 0.010755950585007668, 0.09254903346300125, -0.19567327201366425, -0.1284938007593155, 0.01647340878844261, 0.0454375296831131, -0.1386439949274063, 0.13259288668632507, 0.01347684022039175, 0.031735800206661224, -0.16988322138786316, 0.018530013039708138, 0.16031326353549957, 0.1347842961549759, 0.009888541884720325, 0.05916522070765495, -0.03943838179111481, 0.10873941332101822, 0.08761991560459137, -0.07528689503669739, -0.024824634194374084, -0.1023884117603302, -0.14533482491970062, 0.01119721494615078, 0.016074588522315025, -0.16577298939228058, -0.05262466147542, 0.018408022820949554, 0.1725841909646988, -0.1291077882051468, -0.05842113867402077, 0.035047050565481186, 0.08196940273046494, -0.0029554925858974457, -0.004135251510888338, 0.2767569124698639, -0.03339187428355217, -0.0731145367026329, 0.24106398224830627, 0.09809905290603638, 0.06086227670311928, 0.09676626324653625, -0.09997673332691193, 0.12025615572929382, 0.05573954060673714, -0.006237895227968693, 0.040300268679857254, 0.15149131417274475, -0.09247605502605438, -0.15997180342674255, -0.14262057840824127, 0.040672678500413895, 0.09287566691637039, -0.013387085869908333, -0.003971088211983442, 0.032331276684999466, 0.02305949665606022, 0.13713443279266357, -0.010332228615880013, -0.106754831969738, -0.1858777552843094, -0.11290277540683746, 0.001448285300284624, 0.11666252464056015, -0.01955893076956272, 0.2809273898601532, -0.04227641969919205, -0.020914454013109207, -0.001791441231034696, 0.09653159976005554, -0.016809703782200813, 0.1541249305009842, -0.09609349071979523, 0.0825028046965599, 0.09830906242132187, -0.15616796910762787, -0.2090647667646408, 0.1472986936569214, -0.09097574651241302, -0.07787982374429703, 0.08144073188304901, -0.10308846086263657, 0.21118097007274628, 0.057783033698797226, -0.055865928530693054, 0.21576154232025146, 0.24188914895057678, -0.03451376035809517, -0.0568111278116703, 0.2924570143222809, -0.051026973873376846, 0.17162735760211945, -0.10690519958734512, 0.05687972903251648, 0.07370402663946152, -0.08022058010101318, -0.1698102205991745, -0.12871767580509186, 0.10097771883010864, 0.15819953382015228, -0.0014632469974458218, 0.04503555968403816, 0.044447749853134155, 0.12523669004440308, 0.058958377689123154, -0.03635309636592865, -0.09116680175065994, 0.20822249352931976, -0.08187413215637207, -0.10823707282543182, -0.12171405553817749, -0.020390579476952553, 0.09778331220149994, 0.2198917269706726, -0.0848274976015091, -0.303714394569397, -0.3640267252922058, -0.0930573046207428, -0.0938718318939209, 0.07934161275625229, 0.008159942924976349, -0.14275778830051422, -0.012562702409923077, -0.06762900203466415, 0.0793294906616211, 0.11097905039787292, -0.041510675102472305, 0.13564975559711456, -0.0768219381570816, -0.04921814426779747, -0.1078200712800026, -0.05702657625079155, -0.018211623653769493, -0.028922993689775467, -0.021970905363559723, -0.041597966104745865, 0.02757852151989937, 0.11098349094390869, 0.1433228701353073, 0.05369524657726288, 0.06707404553890228, -0.24890851974487305, 0.10133820027112961, -0.15421444177627563, -0.08792462944984436, -0.19584740698337555, -0.15637671947479248, 0.08671217411756516, -0.09603812545537949, -0.040467552840709686, -0.014674360863864422, -0.13358287513256073, -0.0642225593328476, -0.04295848682522774, -0.06710495799779892, 0.07118835300207138, -0.10270648449659348, -0.03553525730967522, 0.0911898985505104, 0.020708899945020676, 0.024233005940914154, -0.10662942379713058, -0.1320563554763794, 0.11939053237438202, 0.012240931391716003, -0.03682246431708336, 0.08782187849283218, -0.02472732402384281, -0.16687899827957153, -0.06730886548757553, -0.057140130549669266, -0.16116094589233398, -0.10142896324396133, -0.04925672709941864, 0.05575859174132347, -0.12689173221588135, 0.03179202973842621, 0.05642921105027199, 0.06526125967502594, 0.19286967813968658, -0.12454269081354141, -0.16115030646324158, 0.19392094016075134, 0.12488892674446106, -0.011887134052813053, 0.26100507378578186, 0.068907231092453, -0.05298595502972603, -0.13429582118988037, -0.21148885786533356, -0.10837849229574203, 0.1115313246846199, 0.009126227349042892, -0.2097613364458084, -0.06149953976273537, 0.12068440765142441, -0.12432313710451126, -0.06426682323217392, -0.05856975167989731, 0.07290864735841751, 0.0011276593431830406, -0.032376158982515335, -0.0920364260673523, 0.1373782455921173, -0.023512529209256172, -0.000994570553302765, 0.025115130469202995, 0.0623815543949604, 0.0910085067152977, 0.1910606324672699, 0.08385436981916428, 0.06084735319018364, -0.1724003702402115, -0.0317947119474411, 0.16751615703105927, -0.05202126502990723, -0.06344542652368546, -0.11736147105693817, -0.05709785223007202, -0.19747266173362732, -0.23812998831272125, 0.28024035692214966, 0.09902604669332504, -0.08117061108350754, 0.030029334127902985, -0.18775300681591034, -0.15902259945869446, -0.08022377640008926, -0.09175954759120941, 0.019825410097837448, 0.022768110036849976, 0.10751182585954666, -0.10409240424633026, -0.10857690125703812, 0.10867537558078766, 0.009773707017302513, 0.09899502247571945, -0.07535446435213089, -0.13711588084697723, 0.14945746958255768, -0.006010054610669613, -0.22071614861488342, -0.027077006176114082, 0.043891336768865585, 0.01625448279082775, -0.12339963018894196, 0.07656113058328629, -0.09692324697971344, 0.07259616255760193, 0.01417109090834856, 0.08119510114192963, 0.025055646896362305, -0.022691965103149414, -0.04399494081735611, -0.11376327276229858, 0.022229723632335663, -0.056802716106176376, -0.0515371710062027, -0.1975744366645813, -0.07760316133499146, -0.23736572265625, 0.03333890065550804, 0.11292818933725357, 0.006082323379814625, 0.06353709101676941, 0.10666502267122269, -0.0952705591917038, -0.061131298542022705, -0.09561086446046829, -0.055721137672662735, 0.04141169413924217, -0.11652179807424545, -0.05005797743797302, 0.04652700200676918, 0.085874043405056, 0.10788505524396896, 0.05172281339764595, 0.15994134545326233, -0.06390754878520966, 0.05174220725893974, -0.02391212061047554, -0.13492648303508759, 0.04337378963828087, -0.22576913237571716, -0.0635034367442131, 0.14588956534862518, -0.04718528687953949, 0.01969662494957447, -0.0004817343724425882, 0.22266730666160583, 0.06240612640976906, -0.1818029284477234, -0.023870740085840225, -0.08453983068466187, -0.07773348689079285, 0.12010835111141205, -0.07556889951229095, -0.2056926190853119, -0.09186764806509018, -0.034738730639219284, 0.019744088873267174, 0.13550525903701782, 0.14036592841148376, -0.1644945740699768, 0.014071470126509666, -0.09740690141916275, -0.043890781700611115, 0.2103676050901413, 0.05361781641840935, -0.07091310620307922, 0.08279599249362946, -0.02996915392577648, -0.038969483226537704, -0.22163352370262146, 0.13146284222602844, 0.11159928888082504, 0.2126653492450714, 0.06841579079627991, -0.08374426513910294, 0.21375499665737152, -0.006897193379700184, 0.11890529096126556, 0.026273952797055244, 0.049551431089639664, -0.0069518075324594975, 0.1527354121208191, -0.0815402939915657, 0.04295993596315384, 0.05599289387464523, -0.024090755730867386, -0.0019422817276790738, -0.09218554198741913, -0.07040110975503922, 0.15140150487422943, 0.1312018781900406, 0.10140399634838104, 0.1569024622440338, 0.16999627649784088, -0.006930944975465536, -0.22309215366840363, -0.006165635772049427, -0.10335411131381989, 0.04370850324630737, 0.14156852662563324, 0.06156698986887932, 0.030516741797327995, -0.03344050794839859, 0.005993126891553402, 0.03627398982644081, -0.0818212479352951, 0.06392569839954376, -0.005256580654531717, -0.16387879848480225, 0.1414652019739151, 0.06289318203926086, -0.09704968333244324, -0.06246836483478546, -0.01389256026595831, -0.0284672062844038, -0.06272164732217789, -0.0036687753163278103, -0.12021271884441376, 0.08000274747610092, -0.01932794228196144, 0.18202820420265198, 0.07608400285243988, -0.14148692786693573, 0.2703684866428375, -0.020794855430722237, 0.09372219443321228, 0.015297270379960537, -0.15317639708518982, -0.004060662351548672, 0.051864344626665115, -0.09573394060134888, -0.024345528334379196, -0.1051105484366417, -0.026253918185830116, 0.04082081839442253, 0.20688413083553314, 0.05877837538719177, -0.12366269528865814, -0.1176411509513855, -0.10491345077753067, -0.033182308077812195, -0.04672791808843613, -0.04347331449389458, 0.015189392492175102, 0.11573219299316406, 0.10124987363815308, -0.1135949045419693, -0.1089157834649086, 0.0027489091735333204, 0.06294888257980347, 0.06053297966718674, 0.0816212072968483, -0.04781031981110573, -0.06031589210033417, 0.056228529661893845, 0.051130156964063644, 0.1353764832019806, 0.10617490112781525, -0.14800681173801422, -0.10072600841522217, -0.01847045309841633, -0.08526897430419922, 0.12094838917255402, -0.09698683768510818, 0.048135481774806976, 0.13159559667110443, 0.023763393983244896, 0.028378743678331375, -0.057953257113695145, 0.022869544103741646, -0.013368895277380943, -0.02819487266242504, 0.004748163744807243, 0.03886979818344116, -0.12570151686668396, -0.11877100169658661, 0.006538329645991325, 0.11227390170097351, -0.1674872487783432, -0.06287674605846405, 0.046364445239305496, -0.14922139048576355, 0.15140600502490997, -0.17789682745933533, 0.07715903967618942, -0.012514904141426086, -0.09606058150529861, -0.1848452240228653, 0.11750549077987671, 0.013640777207911015, -0.23741701245307922, -0.2401370257139206, 0.02164163999259472, -0.11730988323688507, -0.05253157392144203, -0.0031503092031925917, -0.09641323238611221, 0.1605476438999176, 0.027438728138804436, -0.08485078066587448, 0.011157495900988579, -0.2032521665096283, 0.15278027951717377, 0.18756811320781708, 0.19212007522583008, -0.27512210607528687, 0.12216155230998993, 0.1791241616010666, 0.22021304070949554, 0.013275825418531895, 0.1145431399345398, 0.10215772688388824, -0.21704693138599396, 0.21931417286396027, -0.07263928651809692, 0.1417425125837326, -0.08922148495912552, -0.2811466455459595, -0.10024964809417725, 0.038533907383680344, -0.19918955862522125, 0.11106735467910767, -0.18398268520832062, 0.05393286049365997, -0.044061146676540375, -0.003001053351908922, 0.038884349167346954, -0.04455438628792763, 0.14880239963531494, 0.016087856143712997, -0.06983939558267593, -0.0002846596180461347, 0.02147998847067356, -0.23494160175323486, -0.1085328459739685, 0.11043441295623779, -0.06882435828447342, -0.21181437373161316, -0.04248320311307907, -0.07501962035894394, -0.1896486133337021, 0.0639701634645462, -0.15385711193084717, -0.12452618032693863, -0.03309018537402153, 0.09969473630189896, -0.018908143043518066, 0.15722207725048065, -0.20006804168224335, -0.1548546999692917, 0.059530846774578094, 0.06571297347545624, 0.005859547760337591, 0.0462786965072155, -0.08835665881633759, -0.21907205879688263, -0.05217961221933365, 0.08257313817739487, 0.1002785712480545, 0.045819930732250214, -0.07126995921134949, 0.30609577894210815, 0.02665368840098381, -0.0009348408202640712, -0.17079755663871765, 0.04320994392037392, -0.004357098136097193, -0.14051604270935059, -0.014041229151189327, -0.04395165666937828, -0.0076110647059977055, -0.16849513351917267, 0.1814323216676712, 0.06344857811927795, -0.17307570576667786, -0.16329514980316162, -0.1536666452884674, -0.22884605824947357, -0.029638539999723434, 0.2389775663614273, 0.22071796655654907, -0.043340183794498444, 0.095723457634449, -0.15090933442115784, 0.15781176090240479, -0.013037478551268578, 0.0775906890630722, 0.22922812402248383, -0.17396080493927002, -0.0653456300497055, 0.06607940793037415, -0.17606593668460846, -0.10870767384767532, -0.024927953258156776, -0.0006038519786670804, -0.06343704462051392, -0.04496074095368385, 0.006349512375891209, -0.10466520488262177, 0.16571404039859772, 0.06754045933485031, -0.2984257936477661, -0.05099276453256607, 0.10990771651268005, 0.13425904512405396, 0.00298055587336421, 0.05136927217245102, -0.07784013450145721, -0.1435457020998001, -0.0562235452234745, -0.07202120125293732, -0.06200714409351349, -0.05514543876051903, -0.2656063139438629, 0.0912628099322319, -0.041876304894685745, -0.016177304089069366, 0.22242459654808044, -0.1442016065120697, 0.03530991077423096, 0.1876612901687622, -0.15597780048847198, -0.03161030635237694, -0.04187513515353203, -0.038678448647260666, 0.0313229039311409, 0.06163523346185684, 0.09289935231208801, 0.004731891676783562, 0.026874350383877754, -0.150417760014534, -0.12471755594015121, -0.114662304520607, -0.1819370537996292, 0.014920496381819248, 0.06955189257860184, 0.07739987969398499, -0.09543084353208542, 0.10699933767318726, -0.14859753847122192, -0.012074274942278862, 0.03337642177939415, 0.052014391869306564, 0.11074201762676239, 0.0752798467874527, -0.10858850926160812, 0.03057868406176567, 0.004561673384159803, -0.022006681188941002, -0.1091642826795578, -0.017577609047293663, 0.03951916843652725, -0.13292370736598969, -0.13916347920894623, -0.11581319570541382, 0.060733612626791, -0.05345573276281357, 0.07662884891033173, 0.16356003284454346, -0.054680872708559036, -0.19578367471694946, 0.06376798450946808, -0.08458749204874039, -0.16692785918712616, 0.011407225392758846, 0.0028377522248774767, -0.23105186223983765, 0.2146853357553482, 0.1737869828939438, -0.3427979052066803, 0.10133916884660721, 0.10566025227308273, -0.22504134476184845, -0.09986039996147156, -0.11347018927335739, 0.02182302065193653, -0.1311725378036499, -0.006336980499327183, -0.04587028548121452, 0.18330907821655273, 0.10385923087596893, -0.2358139306306839, 0.040045011788606644, 0.049324411898851395, -0.025370562449097633, -0.05400285869836807, -0.11547860503196716, -0.12324274331331253, 0.1832541823387146, -0.0629393607378006, 0.0167430117726326, -0.15287457406520844, -0.029170330613851547, -0.09988994896411896, 0.03319874778389931, 0.13586105406284332, -0.2695438265800476, 0.12339767068624496, -0.046518467366695404, 0.2272082418203354, -0.01349321473389864, -0.04317644238471985, -0.19368724524974823, -0.10326947271823883, -0.027912961319088936, -0.0694214403629303, -0.07405281066894531, 0.0997413918375969, -0.11755858361721039, 0.13978148996829987, 0.07088431715965271, -0.13004563748836517, 0.050898052752017975, 0.16094303131103516, 0.08309100568294525, -0.09267284721136093, 0.05926560238003731, -0.13343001902103424, 0.19182048738002777, 0.04701155424118042, -0.08139072358608246, -0.1208169087767601, 0.09679030627012253, 0.12126676738262177, 0.0015667418483644724, -0.06984785944223404, 0.040931131690740585, 0.04535302519798279, -0.0005187680362723768, 0.06422091275453568, 0.5844184160232544, 0.3503221571445465, 0.5046985149383545, -0.7930833697319031, -0.4438956677913666, 0.19924472272396088, 0.34605950117111206, -0.010698615573346615, 0.18948782980442047, 0.2559618055820465, -0.745708703994751, 0.3203696608543396, 0.05650077387690544, -0.6277897953987122, 0.024921316653490067, -0.21763737499713898, -0.07644445449113846, -0.2594856321811676, 0.24688398838043213, -0.19022664427757263, -0.011675423942506313, 0.17220167815685272, -0.11856990307569504, -0.16374970972537994, -0.24013344943523407, 0.05814513564109802, -0.1215558648109436, 0.03650011867284775, 0.16729460656642914, -0.05953403189778328, 0.17543597519397736, -0.033666376024484634, -0.10757166892290115, -0.17426922917366028, -0.012331338599324226, -0.20589876174926758, -0.005120774731040001, -0.0578320138156414, -0.01148008368909359, -0.07255050539970398, -0.1354702264070511, -0.09985051304101944, -0.11904489994049072, 0.167728990316391, -0.21063831448554993, 0.2147255688905716, 0.20307043194770813, 0.11697616428136826, -0.0367828905582428, 0.10764968395233154, -0.1861007660627365, -0.22811593115329742, -0.028547022491693497, -0.23189984261989594, -0.37937307357788086, 0.08266398310661316, 0.2303907424211502, -0.10344229638576508, 0.03563723340630531, -0.06830187141895294, -0.011344990693032742, 0.11461569368839264, 0.002730574458837509, 0.19122903048992157, -0.12257517129182816, 0.0051972465589642525, -0.21335910260677338, 0.18053580820560455, 0.15349799394607544, 0.3363989591598511, 0.22544309496879578, 0.17623959481716156, -0.2622790038585663, -0.2441319078207016, 0.07654900848865509, -0.1381356120109558, 0.12645891308784485, 0.1636480987071991, 0.14144478738307953, -0.15274207293987274, 0.15054389834403992, -0.08694611489772797, -0.0741998627781868, 0.019907990470528603, 0.03221549466252327, -0.12905728816986084, 0.0003255820192862302, -0.22480706870555878, 0.28500935435295105, 0.25409331917762756, 0.11483787000179291, 0.08315977454185486, -0.14617668092250824, -0.19086220860481262, -0.24666732549667358, -0.18574158847332, -0.19840936362743378, 0.1978890597820282, 0.20867136120796204, 0.17966733872890472, -0.18634137511253357, 0.08836393058300018, -0.012920703738927841, -0.12423477321863174, 0.19597163796424866, 0.21596038341522217, -0.23349618911743164, 0.22777226567268372, 0.01232724729925394, 0.057995475828647614, -0.3551461398601532, -0.02246358059346676, -0.18929553031921387, -0.1975601613521576, -0.11504670232534409, 0.03896559402346611, 0.02975514903664589, -0.19735974073410034, 0.21484151482582092, 0.044617660343647, -0.1729883998632431, 0.034694135189056396, 0.039038605988025665, -0.009331176057457924, -0.002732595195993781, -0.001621294766664505, 0.10534843802452087, -0.16852174699306488, -0.16909773647785187, 0.22086544334888458, -0.2207065224647522, 0.2596542239189148, 0.2180728316307068, -0.14885905385017395, -0.15897136926651, 0.3018780052661896, -0.11608754098415375, -0.03831583261489868, 0.13255968689918518, 0.1420094519853592, 0.058809489011764526, 0.11370747536420822, 0.26506200432777405, -0.04964558407664299, -0.24091902375221252, 0.01445743814110756, -0.183930903673172, -0.052773550152778625, 0.2617323398590088, 0.06732601672410965, -0.26600468158721924, -0.10619661957025528, -0.07240486145019531, -0.12333174794912338, 0.022210681810975075, -0.19698338210582733, 0.1059744656085968, 0.179759681224823, 0.1324457824230194, 0.06960680335760117, -0.026955803856253624, 0.29993924498558044, -0.07644953578710556, 0.1799445003271103, -0.11381698399782181, 0.23754635453224182, -0.16353152692317963, 0.16333609819412231, -0.3961917757987976, -0.2357340157032013, 0.17740470170974731, -0.08633510768413544, 0.24081282317638397, -0.02279653586447239, 0.4509828984737396, 0.14409872889518738, -0.10485459864139557, 0.15083667635917664, -0.3252843916416168, -0.19721448421478271, -0.18297913670539856, 0.04785134270787239, -0.18613600730895996, -0.1441262811422348, 0.23724201321601868, -0.0759376809000969, -0.07637356221675873, 0.047378767281770706, -0.2300713211297989, 0.25822553038597107, 0.17573818564414978, -0.09225966781377792, -0.0019252399215474725, 0.1946869194507599, -0.060610510408878326, -0.02786586619913578, -0.04417134448885918, -0.02532019279897213, 0.18409468233585358, -0.06563480198383331, -0.11263395845890045, 0.096465565264225, 0.1721106469631195, 0.1798786073923111, -0.10727585107088089, 0.21692878007888794, -0.247345432639122, -0.1517353057861328, 0.16437220573425293, 0.24416682124137878, 0.15899915993213654, 0.09047779440879822, -0.17339113354682922, 0.10718079656362534, -0.26704496145248413, 0.09170213341712952, 0.23695316910743713, 0.047912389039993286, -0.17895513772964478, -0.07447697967290878, -0.3660168945789337, 0.2645762860774994, 0.09521077573299408, -0.16246463358402252, -0.09906430542469025, -0.011395977810025215, 0.10582774877548218, 0.16122911870479584, 0.1379673033952713, -0.005239784251898527, -0.04562840238213539, -0.005173337180167437, 0.10920795798301697, 0.27712979912757874, 0.09754137694835663, -0.3409685790538788, -0.32147130370140076, -0.38803377747535706, -0.21527142822742462, -0.014474598690867424, 0.2463383823633194, 0.036143723875284195, 0.009039596654474735, 0.16829794645309448, -0.24829614162445068, -0.11173545569181442, 0.016306262463331223, 0.172566220164299, -0.2039133459329605, -0.03335259109735489, -0.2136034220457077, 0.120142862200737, 0.15758243203163147, 0.1301618367433548, 0.09367331117391586, 0.11478409171104431, -0.07965318113565445, 0.1889943927526474, -0.271828830242157, 0.04376262426376343, -0.2013021856546402, -0.1930350363254547, 0.18332788348197937, -0.009041616693139076, -0.33462876081466675, 0.005086434539407492, -0.13857881724834442, 0.05923749879002571, 0.20389589667320251, -0.0065683359280228615, 0.21285201609134674, 0.09660454839468002, -0.154462531208992, 0.021839283406734467, 0.11742360144853592, -0.04101408272981644, 0.05081107094883919, 0.035880498588085175, -0.004134401213377714, 0.12874680757522583, -0.17352230846881866, 0.17972707748413086, 0.0994584783911705, 0.025631703436374664, 0.027759531512856483, -0.21619676053524017, -0.03803524002432823, 0.027056623250246048, -0.16214577853679657, -0.10622364282608032, 0.05318102985620499, -0.03355937451124191, -0.059096090495586395, -0.12548178434371948, 0.017667947337031364, 0.11200162768363953, -0.07613859325647354, 0.1605275422334671, 0.07706890255212784, 0.05046107992529869, -0.14352920651435852, -0.03446557745337486, -0.1509975790977478, -0.04386590048670769, 0.06508101522922516, 0.11388283967971802, 0.21184448897838593, -0.03397300839424133, 0.1731240600347519, 0.1195325255393982, 0.2134859263896942, 0.00340539263561368, 0.15437987446784973, -0.15845495462417603, 0.09325975179672241, 0.22467204928398132, 0.004350490868091583, 0.06435741484165192, 0.11413072794675827, 0.06806197762489319, -0.19202975928783417, 0.14046938717365265, 0.14840078353881836, -0.14325910806655884, -0.023016149178147316, 0.09725026786327362, 0.010387529619038105, -0.019435130059719086, -0.3125688135623932, -0.15628214180469513, 0.00385095807723701, -0.14855138957500458, 0.19997656345367432, -0.08332758396863937, 0.07381006330251694, 0.17220310866832733, -0.10512027889490128, 0.02722751535475254, 0.17411109805107117, 0.07163409143686295, -0.05365549772977829, 0.02218623273074627, -0.14568881690502167, -0.11458348482847214, -0.08363558351993561, -0.031167183071374893, 0.12500576674938202, -0.06033683195710182, 0.07565202564001083, 0.024639161303639412, 0.060081224888563156, 0.0033050645142793655, -0.04965653270483017, 0.064195916056633, -0.1672336310148239, 0.09444951266050339, 0.07062909752130508, -0.18247082829475403, -0.023944810032844543, -0.08853070437908173, -0.015683813020586967, 0.09989507496356964, -0.04191486909985542, -0.02923567406833172, 0.07487445324659348, -0.0034259886015206575, 0.12125096470117569, -0.16056707501411438, -0.002671284368261695, -0.09685522317886353, -0.17834128439426422, -0.14647625386714935, 0.00031392398523166776, -0.21245528757572174, -0.03731372207403183, 0.08177993446588516, 0.019527850672602654, 0.023196352645754814, 0.05738017335534096, -0.021567940711975098, -0.05674862489104271, -0.22656044363975525, -0.09235109388828278, -0.10566423088312149, -0.16916847229003906, 0.012253856286406517, 0.06701214611530304, 0.13142380118370056, 0.11346305161714554, 0.022470971569418907, -0.06201391667127609, -0.0545748807489872, -0.0005816916818730533, -0.0006418158300220966, 0.015057564713060856, -0.08123200386762619, -0.20934918522834778, -0.06482776254415512, -0.03906187415122986, -0.14201810956001282, 0.16485531628131866, 0.20063652098178864, -0.03688051551580429, -0.09343148022890091, -0.10495135933160782, -0.12992358207702637, 0.028863688930869102, -0.12694360315799713, 0.1593681126832962, -0.19888989627361298, -0.10988287627696991, 0.19431811571121216, -0.10106999427080154, 0.08275949209928513, 0.17693312466144562, 0.11206945031881332, 0.005575539544224739, 0.062432706356048584, 0.11819620430469513, 0.05183691531419754, -0.0345657542347908, -0.07234695553779602, -0.027586927637457848, 0.05469203740358353, -0.04923144727945328, 0.02821207605302334, -0.06269548833370209, 0.06983909755945206, 0.17692266404628754, -0.04529863968491554, -0.05829991400241852, 0.035163525491952896, 0.010223709046840668, -0.13203652203083038, 0.09557251632213593, -0.04507321119308472, -0.16734422743320465, -0.0918491929769516, 0.03206630423665047, 0.06605216860771179, -0.0012537286384031177, 0.05898478627204895, 0.013766385614871979, 0.10439904779195786, 0.07212936878204346, -0.00866539217531681, 0.050390440970659256, -0.01577572524547577, -0.14810232818126678, 0.1329033225774765, 0.08262642472982407, -0.09162979573011398, 0.10091190040111542, 0.11500196903944016, -0.04025779664516449, -0.09005507826805115, -0.01316855102777481, 0.05755689740180969, 0.08039285987615585, -0.22990696132183075, 0.0036991278175264597, -0.043098848313093185, -0.0019588705617934465, 0.04071100056171417, -0.0053389426320791245, -0.11111444979906082, -0.09641683101654053, 0.01591716706752777, 0.00035481833037920296, -0.0016200613463297486, -0.06484085321426392, 0.024033905938267708, 0.35398319363594055, -0.1372903287410736, 0.05961090698838234, -0.20477312803268433, 0.06329715251922607, 0.081425242125988, -0.09421072155237198, 0.09693536162376404, -0.03639979287981987, 0.13401097059249878, 0.09511028230190277, -0.15820397436618805, 0.17914237082004547, 0.06698516011238098, 0.1198243722319603, 0.12410677969455719, 0.13035686314105988, -0.23056919872760773, 0.17180238664150238, 0.07252079993486404, 0.12339701503515244, -0.04147834703326225, 0.077518031001091, 0.17808696627616882, -0.10685063898563385, -0.19343240559101105, 0.12552382051944733, -0.00961077120155096, -0.05771689489483833, 0.0055716498754918575, 0.13971902430057526, -0.011776593513786793, -0.03366972133517265, -0.01128084771335125, 0.2064816802740097, -0.13818028569221497, 0.17777957022190094, 0.08173055201768875, -0.07678067684173584, 0.08511156588792801, -0.07858514040708542, 0.02613246999680996, -0.2052600383758545, -0.2867845296859741, -0.13085320591926575, 0.10515538603067398, 0.03981737792491913, 0.12660004198551178, -0.20673781633377075, 0.027683110907673836, -0.08015314489603043, -0.033372748643159866, -0.11956947296857834, -0.17394542694091797, 0.2556597888469696, 0.1602165848016739, -0.25353989005088806, 0.11589110642671585, -0.16706490516662598, -0.10378849506378174, 0.21675030887126923, 0.11439846456050873, 0.13628293573856354, 0.12630394101142883, 0.016134681180119514, -0.020402995869517326, -0.05487479642033577, -0.0678752213716507, -0.14732716977596283, -0.077157162129879, -0.004287875257432461, -0.18975506722927094, -0.06469208002090454, -0.005988311022520065, 0.16756130754947662, -0.02039705403149128, -0.0939207449555397, -0.14603815972805023, 0.1968686729669571, -0.046191733330488205, 0.09067969024181366, -0.1436651200056076, 0.06725438684225082, -0.012155474163591862, 0.3199775516986847, -0.14593127369880676, 0.11205119639635086, 0.10074678063392639, 0.06669021397829056, -0.15915504097938538, 0.22392569482326508, -0.007819307036697865, 0.11247700452804565, -0.04271548613905907, -0.08129188418388367, 0.04214851185679436, -0.5808967351913452, 0.014088492840528488, -0.11007358878850937, 0.30845701694488525, -0.07314042747020721, -0.14788265526294708, 0.30704110860824585, -0.09541311860084534, -0.07031062990427017, -0.03630340099334717, 0.06367024779319763, 0.06830643862485886, -0.08838322013616562, -0.08511032164096832, -0.07358894497156143, -0.1763218343257904, -0.04989300295710564, -0.13168101012706757, 0.021719282492995262, 0.0020580701529979706, 0.14137285947799683, 0.10084079951047897, -0.09966025501489639, 0.2060786485671997, 0.026977544650435448, 