{"version": "0.5.2", "metadata": {"date": {"year": 2024, "month": 4, "day": 17, "hour": 7, "minute": 9, "second": 54}, "loudness": -15.350866317749023, "gain": 0.8308129555281626}, "architecture": "WaveNet", "config": {"layers": [{"input_size": 1, "condition_size": 1, "head_size": 8, "channels": 16, "kernel_size": 3, "dilations": [1, 2, 4, 8, 16, 32, 64, 128, 256, 512], "activation": "Tanh", "gated": false, "head_bias": false}, {"input_size": 16, "condition_size": 1, "head_size": 1, "channels": 8, "kernel_size": 3, "dilations": [1, 2, 4, 8, 16, 32, 64, 128, 256, 512], "activation": "Tanh", "gated": false, "head_bias": true}], "head": null, "head_scale": 0.02}, "weights": [-0.12391412258148193, 0.2893320322036743, -0.7212196588516235, -0.6248639225959778, -0.3386748135089874, 0.368295818567276, -0.032066695392131805, 0.9536253809928894, -0.03381456062197685, 0.13895867764949799, -0.4045243263244629, -0.06231708824634552, -0.9067444205284119, -0.7059388756752014, -0.5056285262107849, 0.002685068640857935, 0.01592220366001129, 0.15489405393600464, -0.10486491024494171, -0.05696680024266243, -0.036548368632793427, 0.10158407688140869, -0.041087374091148376, 0.192477747797966, -0.009045341052114964, 0.004804299678653479, 0.21535032987594604, -0.12006387859582901, -0.09670459479093552, 0.051694851368665695, -0.03804824501276016, 0.14626044034957886, -0.16957728564739227, -0.07182832807302475, -0.15395702421665192, -0.10263267159461975, -0.11902894824743271, 0.12984196841716766, -0.025970036163926125, 0.05185545235872269, 0.0009297994547523558, 0.0079719927161932, 0.03345107287168503, -0.1094774529337883, -0.16883216798305511, -0.06861364096403122, 0.07681167870759964, 0.1661175638437271, -0.05629859119653702, -0.01122349128127098, 0.17546266317367554, 0.16369275748729706, 0.050313081592321396, 0.10767016559839249, 0.11335259675979614, -0.08971201628446579, 0.1177976131439209, -0.09310689568519592, -0.10213657468557358, 0.018641099333763123, 0.08551729470491409, -0.09030649811029434, -0.10077326744794846, 0.05853600800037384, -0.4287182688713074, -0.06893319636583328, 0.05502646043896675, 0.3433077931404114, 0.062265388667583466, 0.03408047556877136, -0.4259622097015381, -0.031196853145956993, 0.15770705044269562, -0.1858249008655548, 0.15218253433704376, 0.23195353150367737, -0.2645488977432251, -0.08595079183578491, 0.1308259218931198, 0.25058507919311523, -0.15079322457313538, 0.030091891065239906, -0.13568267226219177, -0.10242699831724167, 0.12009797245264053, 0.28727564215660095, -0.0494389645755291, -0.17115110158920288, -0.2153196632862091, -0.03511928766965866, 0.17746330797672272, 0.3573478162288666, 0.06675788760185242, -0.05826700106263161, -0.46315473318099976, -0.0753052607178688, 0.1693197786808014, -0.217508465051651, -0.06355038285255432, 0.03313692659139633, -0.17116142809391022, 0.12180716544389725, 0.03989807516336441, -0.34796541929244995, -0.11396565288305283, 0.09982537478208542, -0.4243044853210449, -0.09205158799886703, 0.09025301039218903, -0.36104655265808105, -0.05672178789973259, 0.09073636680841446, -0.144094318151474, 0.10588341951370239, 0.21968188881874084, -0.04526275396347046, 0.003120753215625882, -0.10991308838129044, -0.060419872403144836, -0.01152308564633131, 0.1742267608642578, -0.07219599932432175, -0.11302618682384491, 0.18570449948310852, -0.2126978635787964, -0.1164187341928482, 0.09363310784101486, 0.0041675865650177, -0.00956276897341013, -0.23865538835525513, -0.12298037111759186, -0.04718673601746559, -0.023768793791532516, 0.07135389000177383, 0.14201875030994415, -0.14177264273166656, -0.03033447079360485, 0.0019155519548803568, 0.2164011001586914, 0.15064853429794312, 0.15370739996433258, -0.05016982555389404, 0.06955162435770035, -0.03778794780373573, 0.006747198756784201, -0.16415540874004364, 0.04206910356879234, 0.09782880544662476, -0.15036249160766602, -0.15023209154605865, -0.01310146413743496, -0.1976807415485382, -0.06603286415338516, 0.20451246201992035, 0.005366187542676926, -0.1734827756881714, 0.21889793872833252, -0.1429746299982071, -0.042884811758995056, -0.030542874708771706, -0.16715021431446075, 0.06960863620042801, -0.2057667076587677, -0.03966221585869789, -0.13147878646850586, 0.06222833693027496, -0.1567724049091339, 0.1630566418170929, -0.19485649466514587, -0.09429143369197845, 0.23838301002979279, -0.11776478588581085, 0.03912528604269028, 0.15482032299041748, -0.1967601627111435, 0.1876114159822464, -0.12718483805656433, 0.0027378234080970287, -0.017498595640063286, -0.07442691922187805, -0.0855581983923912, 0.060064077377319336, -0.007400189526379108, 0.10670939832925797, -0.0317302830517292, 0.1436205357313156, -0.11750119924545288, 0.07331251353025436, -0.20346489548683167, 0.160150945186615, 0.016692029312253, 0.2018728405237198, -0.17551961541175842, -0.056947365403175354, 0.010052219033241272, -0.11832485347986221, -0.17302840948104858, 0.15741822123527527, -0.15063351392745972, -0.09378579258918762, 0.11424002051353455, 0.027115555480122566, -0.20637093484401703, 0.004805220756679773, -0.1560962051153183, 0.0985807254910469, 0.13888591527938843, 0.14632301032543182, 0.17564740777015686, 0.015642032027244568, 0.012667573988437653, -0.06934545189142227, 0.05803453177213669, -0.029549909755587578, 0.04740116000175476, -0.013750104233622551, -0.11134827882051468, -0.031987711787223816, 0.08266540616750717, -0.11487673968076706, 0.020231688395142555, 0.09738240391016006, 0.04437066987156868, -0.06337887793779373, -0.10549259185791016, 0.06028269976377487, 0.04179709032177925, 0.04995996505022049, 0.0915892943739891, -0.06124821677803993, 0.04005134850740433, 0.12153881788253784, 0.05316484719514847, 0.09298784285783768, 0.09129569679498672, -0.1251794546842575, 0.10351045429706573, -0.09971445053815842, -0.013096451759338379, 0.013224750757217407, 0.05630403012037277, 0.1386418640613556, -0.08344937860965729, 0.004687098320573568, 0.11354684084653854, -0.176801860332489, 0.10359873622655869, -0.0784955695271492, -0.034897834062576294, -0.025117654353380203, -0.03878920525312424, -0.020280320197343826, 0.11656951159238815, 0.11729847639799118, -0.0911654531955719, -0.12943989038467407, 0.13459347188472748, 0.08470853418111801, -0.06324197351932526, -0.24467425048351288, -0.03878283500671387, 0.08882411569356918, 0.23116594552993774, 0.06391628831624985, 0.050147343426942825, 0.10040753334760666, -0.08241359889507294, 0.044035427272319794, 0.25559648871421814, -0.01055050641298294, -0.07422614842653275, -0.24527855217456818, -0.10221847891807556, 0.025705762207508087, 0.08900269865989685, -0.08501230925321579, 0.2783883810043335, -0.24672533571720123, 0.027364622801542282, 0.039844416081905365, 0.1743946373462677, -0.11021162569522858, -0.05530575290322304, -0.02669498138129711, 0.06393223255872726, 0.10946783423423767, 0.11611388623714447, 0.012979056686162949, -0.012658537365496159, 0.09801260381937027, -0.1447875201702118, 0.05052443593740463, 0.19421714544296265, -0.045808762311935425, -0.030506758019328117, 0.06346721947193146, 0.05831354856491089, -0.10535909235477448, 0.21433795988559723, -0.08956562727689743, -0.06614238023757935, 0.2770078778266907, -0.12893176078796387, -0.11941725015640259, -0.09529739618301392, -0.06995348632335663, 0.09972180426120758, 0.1476801335811615, 0.00478725228458643, -0.13503271341323853, -0.21295566856861115, 0.02420976758003235, 0.16359072923660278, -0.13969707489013672, 0.107448048889637, 0.2158752679824829, -0.15168367326259613, 0.06309302151203156, 0.1866549551486969, 0.09817788004875183, -0.04351377114653587, -0.09860344976186752, -0.11874523758888245, 0.11269614100456238, 0.2603408098220825, 0.21636956930160522, 0.02977769263088703, -0.10391651093959808, 0.04398128762841225, 0.04230443388223648, 0.05790204182267189, -0.06060422584414482, 0.0722687840461731, -0.04385045915842056, -0.18040283024311066, 0.11518558859825134, 0.23470130562782288, 0.06314869225025177, 0.17672647535800934, 0.23186157643795013, -0.12104393541812897, 0.00048267398960888386, 0.23745808005332947, -0.007079568691551685, -0.035286519676446915, 0.24903522431850433, -0.0233897864818573, 0.12628445029258728, 0.024759909138083458, 0.029423775151371956, 0.038439590483903885, 0.09715726971626282, 0.1651323288679123, -0.2108732908964157, 0.03409670665860176, -0.041232552379369736, 0.18625612556934357, 0.09555570036172867, 0.013755913823843002, -0.20749066770076752, -0.11349022388458252, -0.03405899927020073, -0.3503992557525635, 0.0899001732468605, 0.1924535632133484, -0.0870959609746933, 0.09541647136211395, -0.24962906539440155, 0.14915406703948975, -0.008101298473775387, 0.029182525351643562, -0.08953290432691574, -0.13739749789237976, -0.180732861161232, 0.10267599672079086, -0.05960926041007042, 0.2379942536354065, -0.11084426194429398, 0.0995061919093132, -0.011257710866630077, 0.3348941206932068, -0.03383900597691536, 0.1811324656009674, -0.10766498744487762, 0.03106091544032097, 0.21904249489307404, -0.1535094827413559, 0.03117472492158413, 0.05764110013842583, -0.16649428009986877, -0.008030472323298454, 0.07450699806213379, -0.31913450360298157, -0.10562005639076233, 0.0031743613071739674, -0.14224044978618622, 0.08490882068872452, 0.06691636145114899, -0.3772696852684021, 0.06766294687986374, 0.0907614529132843, 0.12261698395013809, -0.06938871741294861, 0.17760205268859863, -0.015299981459975243, -0.10025055706501007, 0.09263035655021667, 0.18457497656345367, -0.05980658903717995, 0.03229929134249687, -0.007702074479311705, -0.031224308535456657, 0.07598856091499329, 0.08610045164823532, -0.1021963432431221, -0.01306003239005804, -0.1230616420507431, -0.025511188432574272, -0.05143104866147041, 0.1675383597612381, -0.013565625995397568, -0.043922316282987595, -0.07414031028747559, 0.07001030445098877, 0.05450553819537163, -0.021747861057519913, 0.02417268045246601, -0.06973399221897125, -0.14652182161808014, 0.04162169247865677, -0.14316914975643158, 0.14020435512065887, 0.12670397758483887, -0.03841331973671913, -0.02822853811085224, -0.049740634858608246, -0.015480699948966503, -0.03185641020536423, 0.06731083989143372, -0.1751408576965332, -0.05733058601617813, -0.14203324913978577, -0.067514568567276, 0.18552598357200623, -0.13227617740631104, 0.17401884496212006, 0.04142419621348381, 0.04688911512494087, -0.21968775987625122, -0.18385633826255798, 0.09051571786403656, 0.3245197832584381, 0.26173269748687744, 0.12327130138874054, -0.34906283020973206, 0.00416650390252471, -0.04404722899198532, -0.18117795884609222, -0.23310303688049316, -0.0891360342502594, -0.40134748816490173, -0.18670248985290527, -0.026049228385090828, 0.13648302853107452, 0.15584543347358704, 0.127444788813591, -0.1000504121184349, -0.07024656236171722, -0.00599734066054225, 0.21430432796478271, 0.18495169281959534, 0.19633899629116058, -0.1613704115152359, -0.10906773060560226, 0.02542002499103546, 0.11004221439361572, -0.0016775719122961164, 0.11903911828994751, -0.3350377380847931, -0.04569416493177414, -0.14937490224838257, -0.30407240986824036, -0.23652110993862152, 0.036174315959215164, -0.27121496200561523, -0.013152693398296833, 0.03424608334898949, -0.17797453701496124, -0.12035451829433441, -0.10103001445531845, -0.29968705773353577, -0.10981933772563934, 0.009025581181049347, -0.1608535349369049, 0.20666807889938354, -0.0420927070081234, -0.4180416166782379, -0.11475320160388947, 0.14363299310207367, 0.3250824809074402, -0.13504670560359955, 0.05107131227850914, -0.1325760781764984, 0.08060663938522339, 0.1690201759338379, -0.27362531423568726, 0.04330312833189964, 0.10752978920936584, -0.21657520532608032, 0.06573183089494705, 0.024322351440787315, 0.3081433176994324, -0.03418935090303421, -0.097941555082798, -0.05701831728219986, 0.09755201637744904, 0.0013536373153328896, 0.20914794504642487, 0.08138930797576904, -0.06833982467651367, -0.10874469578266144, 0.0021936390548944473, 0.1360006034374237, 0.06766421347856522, -0.098075732588768, -0.13401168584823608, -0.06255818158388138, -0.03671488165855408, 0.05224885791540146, -0.22228087484836578, 0.15831278264522552, 0.19700407981872559, -0.30259257555007935, -0.11764930188655853, -0.05953752249479294, -0.19750173389911652, -0.038189295679330826, -0.04496853053569794, -0.24917733669281006, 0.024791110306978226, -0.02689969725906849, -0.05582244321703911, 0.1485731601715088, 0.10633551329374313, 0.1637832373380661, 0.20128339529037476, -0.1731945276260376, -0.09815207123756409, -0.11774638295173645, 0.2486419677734375, -0.018793661147356033, -0.06429104506969452, 0.03637014329433441, 0.019884977489709854, 0.0969027653336525, -0.12068622559309006, 0.06551996618509293, 0.021884815767407417, -0.030110260471701622, -0.1035880371928215, -0.20683157444000244, 0.02416258305311203, -0.050867289304733276, 0.056301333010196686, -0.26603811979293823, 0.027250830084085464, -0.09836989641189575, 0.08845719695091248, 0.1565094143152237, 0.07230568677186966, -0.054478831589221954, -0.003926416859030724, -0.09014829993247986, 0.03128781169652939, 0.09092459082603455, 0.1808917075395584, -0.166220560669899, -0.009535652585327625, 0.1432405412197113, 0.04951094090938568, 0.06846584379673004, -0.05033901706337929, -0.24012118577957153, 0.1438923329114914, 0.05640750005841255, -0.1840004175901413, 0.13906481862068176, 0.12416817992925644, 0.004305257461965084, 0.18103478848934174, -0.0033353962935507298, -0.10377588868141174, -0.30512535572052, 0.2260192185640335, 0.05301108956336975, 0.15977837145328522, -0.2529798448085785, 0.08635413646697998, 0.025326944887638092, 0.2491857409477234, -0.08633308857679367, -0.16231177747249603, 0.019115373492240906, 0.17428719997406006, -0.15951235592365265, 0.060621634125709534, 0.12183825671672821, 0.0474449060857296, -0.19165922701358795, -0.044846128672361374, -0.25561124086380005, -0.1597876250743866, 0.01396231446415186, 0.03825828805565834, -0.07771164178848267, 0.08175894618034363, -0.022190852090716362, 0.15403392910957336, 0.17489957809448242, 0.1105465367436409, -0.19569344818592072, 0.0854136049747467, -0.06325209885835648, -0.009779045358300209, 0.0023803897202014923, -0.19422896206378937, 0.23214057087898254, 0.012399292550981045, -0.23404642939567566, 0.11448496580123901, 0.13130374252796173, -0.06303371489048004, 0.1725260615348816, 0.05608351528644562, -0.05016173794865608, 0.09033781290054321, -0.018429864197969437, -0.24038304388523102, 0.024111632257699966, 0.05041061341762543, -0.32732826471328735, -0.05556445196270943, 0.022648673504590988, 0.1423751264810562, -0.10544595122337341, 0.07981805503368378, -0.229843407869339, 0.12033046036958694, -0.06959229707717896, -0.17376960813999176, 0.08160531520843506, -0.010742266662418842, -0.006285827606916428, -0.0871979370713234, -0.06296391040086746, 0.08783216774463654, 0.02234763093292713, 0.08881223946809769, -0.14802199602127075, 0.06732514500617981, 0.003840014571323991, 0.11031778156757355, 0.10174081474542618, -0.16152861714363098, -0.11073412746191025, 0.15353111922740936, 0.038314685225486755, 0.23743836581707, -0.057615578174591064, 0.059851232916116714, -0.2873823046684265, -0.024660535156726837, 0.015504064038395882, -0.06174451485276222, 0.0709732323884964, 0.16358709335327148, -0.16102398931980133, -0.003122771391645074, 0.14634457230567932, -0.18137378990650177, 0.12784302234649658, -0.04908046871423721, -0.1643587201833725, -0.012656972743570805, 0.10474081337451935, -0.027413733303546906, 0.00389348017051816, -0.11714494228363037, -0.3118428885936737, 0.2593740224838257, 0.12582024931907654, 0.20712155103683472, -0.1446802318096161, 0.040000591427087784, -0.2863771915435791, 0.10075945407152176, 0.19839173555374146, -0.3950745761394501, 0.27524587512016296, 0.12104161828756332, -0.3362075686454773, 0.30839934945106506, -0.016095807775855064, 0.3527677059173584, -0.321640282869339, -0.10870270431041718, -0.2100892961025238, 0.3688390254974365, 0.026413382962346077, 0.3846908509731293, -0.2634211778640747, -0.1706082969903946, -0.37506261467933655, 0.13799217343330383, 0.275706946849823, 0.2356661707162857, -0.2358310967683792, -0.06503079831600189, -0.19670797884464264, 0.36550408601760864, 0.21433305740356445, -0.3357734680175781, 0.2380872517824173, 0.03393920511007309, -0.37052980065345764, 0.27597329020500183, 0.23413518071174622, -0.40656301379203796, 0.33021900057792664, 0.024309294298291206, -0.31893280148506165, 0.3577449917793274, 0.06659166514873505, -0.3260115683078766, 0.08849518746137619, 0.24037835001945496, 0.33326488733291626, -0.17172123491764069, 0.018723899498581886, -0.35235801339149475, -0.03866371884942055, 0.07670894265174866, 0.3651668429374695, -0.11512277275323868, 0.00034480824251659214, 0.36682450771331787, 0.016644950956106186, -0.14937599003314972, 0.2069648802280426, -0.14313450455665588, -0.20371600985527039, -0.2639107406139374, 0.1846669316291809, 0.18816682696342468, 0.1761658489704132, -0.08499635010957718, -0.15908585488796234, -0.13490751385688782, 0.022108498960733414, -0.023659711703658104, 0.20703883469104767, -0.04130864515900612, -0.25317952036857605, -0.08570467680692673, 0.1462077498435974, -0.014176608994603157, 0.2116491049528122, 0.040694404393434525, -0.18843652307987213, 0.15485376119613647, -0.044012703001499176, -0.20804433524608612, 0.32103464007377625, -0.003661255119368434, 0.016380906105041504, 0.15245060622692108, 0.06439171731472015, -0.1589154303073883, 0.3892015814781189, -0.21675769984722137, -0.1987391710281372, 0.25335875153541565, -0.16779574751853943, -0.04134697467088699, -0.011549040675163269, -0.08971687406301498, -0.037527214735746384, -0.05012492835521698, 0.0004945359542034566, 0.010797865688800812, 0.008588016964495182, 0.052757397294044495, 0.023584097623825073, 0.4367043673992157, -0.07726849615573883, -0.07823894917964935, -0.0008757016621530056, 0.02898620069026947, 0.0302884578704834, -0.039635706692934036, 0.42600417137145996, -0.5297434329986572, 0.68292635679245, -0.6417702436447144, 0.003871193155646324, 0.9034544229507446, 0.8797349333763123, -0.5521061420440674, 0.18871526420116425, 0.17128290235996246, -0.5164097547531128, -0.24204517900943756, 0.2312326580286026, -0.743235170841217, 0.06831914931535721, 0.502153217792511, -0.10333329439163208, 0.4094434082508087, 0.010363451205193996, 0.08974426984786987, 0.11248528212308884, -0.19018292427062988, 0.12624536454677582, 0.014239209704101086, 0.0009423117153346539, -0.031008128076791763, 0.2363506257534027, 0.01469454262405634, -0.024696484208106995, 0.11105679720640182, 0.8294072151184082, -0.554956316947937, -0.08752991259098053, -0.14869782328605652, -0.32990410923957825, 0.22000862658023834, -0.01034732349216938, -0.1869843304157257, -0.14455339312553406, 0.0901264026761055, -0.07155700027942657, 0.17135950922966003, -0.08697159588336945, 0.09889567643404007, 0.022471139207482338, 0.04275678098201752, -0.13266147673130035, 0.395161896944046, 0.2525559365749359, 0.20479589700698853, 0.099587582051754, 0.21186712384223938, -0.1157444640994072, -0.09804676473140717, 0.14908228814601898, -0.36671945452690125, 0.03673939034342766, -0.014938109554350376, 0.3635585606098175, -0.16874900460243225, 0.18515069782733917, 0.2563139498233795, 0.7804070711135864, -0.2524191439151764, 0.09585414081811905, -0.19663876295089722, -0.022403771057724953, -0.25894659757614136, 0.07699529081583023, 0.165318563580513, 0.05468170717358589, -0.07376392930746078, -0.1093963012099266, 0.2358795702457428, -0.07857980579137802, -0.09202583134174347, 0.011031669564545155, 0.12004570662975311, -0.3301355540752411, -0.035568010061979294, 0.042955778539180756, -0.385749876499176, -0.27596795558929443, 0.27151548862457275, -0.07075759768486023, 0.12697957456111908, 0.12131083011627197, -0.3833431303501129, 0.12145295739173889, 0.44295626878738403, -0.23753395676612854, 0.2566252052783966, 0.07953367382287979, 0.09961379319429398, -0.1732301563024521, 0.23722533881664276, 0.02401011995971203, -0.1776275634765625, 0.044385384768247604, 0.14156608283519745, -0.02647019363939762, 0.2018345445394516, 0.23648300766944885, -0.14361871778964996, 0.13032470643520355, -0.1376749873161316, -0.29271188378334045, -0.09586407989263535, 0.16568557918071747, -0.1250750869512558, -0.4195636510848999, 0.27727949619293213, 0.09815065562725067, 0.22915852069854736, 0.10129331052303314, 0.20314237475395203, -0.08727538585662842, -0.23712795972824097, 0.054446350783109665, -0.0032599703408777714, 0.08613298088312149, -0.30228275060653687, -0.12449929118156433, 0.21125362813472748, 0.1817331314086914, -0.008542533032596111, 0.38200703263282776, -0.13092665374279022, 0.18445760011672974, 0.020188122987747192, 0.29511407017707825, -0.25000718235969543, -0.1810634732246399, 0.16575363278388977, 0.31707319617271423, 0.12728267908096313, 0.033191900700330734, -0.29160699248313904, 0.2093791663646698, -0.2210245281457901, 0.0008616812992841005, -0.1102362796664238, -0.264354944229126, 0.09664898365736008, -0.09819819778203964, 0.049217525869607925, -0.20246154069900513, -0.2202690988779068, 0.06578031927347183, -0.09309060871601105, -0.23308946192264557, 0.05309149995446205, -0.1411317139863968, -0.05795042961835861, 0.12586432695388794, 0.10572389513254166, 0.031666100025177, -0.14086122810840607, 0.05039912462234497, 0.0732741430401802, -0.223782017827034, 0.04357549548149109, 0.12233138084411621, -0.12769538164138794, -0.03307007625699043, -0.16182470321655273, 0.11203477531671524, 0.03668130561709404, -0.009687330573797226, 0.09795232117176056, 0.08866851776838303, 0.022928375750780106, 0.008382847532629967, 0.27771371603012085, -0.1832312047481537, -0.18430060148239136, 0.06382295489311218, 0.28579211235046387, -0.21509605646133423, 0.13721564412117004, -0.0426439605653286, -0.2179885059595108, -0.007961161434650421, -0.0675320103764534, 0.09910271316766739, -0.05192675441503525, -0.1420462727546692, 0.024634618312120438, -0.02185838855803013, 0.10880209505558014, 0.1329176127910614, 0.12395735830068588, -0.1255791336297989, -0.13869796693325043, 0.11472754180431366, -0.14718247950077057, 0.05964254215359688, -0.04060889407992363, -0.04941827803850174, 0.3261781632900238, 0.06783252954483032, -0.10495680570602417, 0.00040667253779247403, -0.19572240114212036, -0.25389450788497925, 0.08910754323005676, -0.46664178371429443, -0.1323017030954361, 0.07143028825521469, 0.010427228175103664, 0.12064483016729355, -0.01403445191681385, 0.07336191087961197, -0.04274843633174896, -0.015942474827170372, 0.014513061381876469, 0.2194097340106964, 0.2064395248889923, -0.07776402682065964, 0.04568631201982498, 0.08860372751951218, -0.20769523084163666, -0.0952700525522232, 0.13536499440670013, 0.07808099687099457, -0.2327153980731964, -0.07306304574012756, 0.00545327877625823, -0.1150490790605545, 0.2301056981086731, 0.1528511643409729, 0.05650167912244797, 0.06528833508491516, 0.03032282181084156, -0.04124336317181587, 0.029284579679369926, -0.12865500152111053, -0.1700083613395691, -0.3091464042663574, 0.2018137276172638, 0.039311543107032776, 0.21740145981311798, -0.05970150604844093, -0.1796513944864273, -0.09699825942516327, 0.007351402658969164, 0.05164133012294769, 0.24866007268428802, -0.2043597400188446, 0.1474429965019226, -0.027085069566965103, -0.034423816949129105, 0.0674658939242363, 0.017025835812091827, -0.2235102653503418, 0.016928687691688538, -0.1867637038230896, 0.11515786498785019, 0.2952592968940735, -0.18611416220664978, -0.029228171333670616, -0.053671568632125854, 0.09346863627433777, 0.5400264859199524, -0.21312709152698517, -0.2551005482673645, 0.08390315622091293, -0.28217339515686035, -0.1902492642402649, 0.33865439891815186, -0.016580650582909584, -0.23158124089241028, 0.22693400084972382, -0.15844233334064484, 0.16888311505317688, -0.13190685212612152, -0.19777581095695496, -0.004383475054055452, 0.21552252769470215, 0.08972611278295517, -0.017790045589208603, -0.06123897433280945, 0.0188591331243515, -0.0030351474415510893, -0.011060791090130806, 0.05586600676178932, -0.05957099795341492, 0.04848900064826012, -0.048576321452856064, -0.10662476718425751, 0.04032228887081146, 0.23934073746204376, 0.008875889703631401, 0.11866530030965805, -0.10306760668754578, -0.18932268023490906, 0.0814744383096695, 0.0021248236298561096, 0.08394455909729004, 0.13068588078022003, 0.16010694205760956, -0.016432901844382286, 0.1501002460718155, -0.005472589749842882, -0.018523696810007095, -0.06635084748268127, -0.16044378280639648, -0.3274379372596741, -0.021218523383140564, -0.16751031577587128, -0.005241085775196552, -0.2493537813425064, -0.016287244856357574, -0.06404891610145569, -0.19208230078220367, -0.1568729132413864, 0.1731165647506714, -0.021638836711645126, -0.010556722991168499, -0.19204586744308472, -0.023446079343557358, -0.33900585770606995, 0.04115935415029526, -0.13519257307052612, -0.028889235109090805, -0.05746879801154137, 0.025307968258857727, -0.08682190626859665, 0.012938377447426319, -0.146416574716568, 0.011942483484745026, 0.2955704629421234, 0.22295233607292175, -0.026618489995598793, 0.03121551312506199, -0.10601640492677689, 0.018722953274846077, 0.4618578255176544, 0.02791295014321804, -0.16668438911437988, -0.22432902455329895, 0.11581380665302277, -0.1455925703048706, 0.4424411654472351, 0.10352319478988647, -0.22523702681064606, 0.06981358677148819, -0.05499967187643051, 0.06383737921714783, -0.3266686201095581, 0.043624795973300934, 0.10594616830348969, -0.5329545140266418, -0.10307273268699646, -0.12801869213581085, 0.06395696103572845, 0.07168375700712204, 0.3475014567375183, -0.23325024545192719, -0.023258091881871223, -0.3712485134601593, 0.08575743436813354, 0.07256826758384705, 0.3623535633087158, -0.0013422203483060002, -0.17050234973430634, -0.21098758280277252, 0.19713962078094482, 0.07226568460464478, -0.2648116648197174, -0.3026565611362457, 0.19200089573860168, -0.26484495401382446, 0.09054986387491226, 0.09230468422174454, -0.13629841804504395, 0.012638344429433346, 0.048193030059337616, -0.28418058156967163, -0.2511152923107147, -0.15503743290901184, 0.23434820771217346, 0.2262393683195114, -0.05303293094038963, -0.26997581124305725, -0.40439730882644653, -0.06217874586582184, 0.24828091263771057, 0.2634214162826538, -0.04084416851401329, -0.00709707522764802, -0.24538151919841766, -0.07940107583999634, 0.19272734224796295, -0.00866775680333376, -0.12102708965539932, 0.18235574662685394, -0.03055998682975769, 0.09230910241603851, -0.19954775273799896, 0.24092726409435272, 0.2520340085029602, 0.3365667760372162, -0.22240258753299713, -0.13018061220645905, -0.28893420100212097, 0.0413828045129776, 0.18552103638648987, 0.23566479980945587, -0.14972499012947083, -0.09337388724088669, -0.27947062253952026, 0.10941004753112793, -0.10126194357872009, 0.1832386553287506, -0.22739236056804657, 0.03633967787027359, 0.04528652876615524, 0.050506409257650375, 0.08714078366756439, 0.2096918374300003, -0.12506473064422607, -0.14406657218933105, 0.1086239218711853, -0.03313291445374489, 0.014263497665524483, -0.14367873966693878, 0.22448839247226715, -0.037797488272190094, -0.27780213952064514, 0.1610802561044693, 0.15642791986465454, -0.008505900390446186, -0.2989395558834076, 0.25944650173187256, -0.13183295726776123, 0.19305112957954407, -0.06448038667440414, 0.13213494420051575, -0.37346938252449036, -0.043558720499277115, 0.09790905565023422, 0.038461312651634216, -0.18759563565254211, -0.13997788727283478, 0.06795322149991989, -0.23668307065963745, -0.20064616203308105, 0.4028407037258148, -0.08716243505477905, 0.14975686371326447, -0.03572541102766991, 0.020159907639026642, -0.20466186106204987, 0.23036929965019226, 0.08596321195363998, 0.15815681219100952, -0.27754634618759155, -0.019149139523506165, 0.046041835099458694, -0.09228800982236862, 0.05010513216257095, 0.18609367311000824, -0.3086574971675873, -0.046144481748342514, 0.21741898357868195, 0.06951609253883362, 0.20233260095119476, 0.09848982095718384, -0.041876863688230515, -0.13120032846927643, 0.08457019925117493, -0.17159031331539154, -0.1841696947813034, -0.18596932291984558, -0.28972581028938293, 0.12501239776611328, 0.019602948799729347, -0.09649200737476349, 0.23528489470481873, -0.2448689490556717, -0.14408829808235168, 0.16051702201366425, 0.1286541372537613, 0.16811729967594147, -0.10264619439840317, -0.19004350900650024, -0.01954418234527111, 0.06549675762653351, -0.07284596562385559, -0.020992115139961243, 0.048187993466854095, -0.018460428342223167, 0.020181117579340935, -0.24325063824653625, -0.0757320299744606, 0.2115834653377533, -0.18948476016521454, 0.1947488784790039, -0.1911136358976364, -0.035548336803913116, -0.10318067669868469, 0.21258880198001862, 0.12454814463853836, 0.2608936131000519, -0.0024895083624869585, -0.0604691244661808, -0.2200116068124771, -0.10245385766029358, 0.04226034879684448, 0.31382274627685547, -0.12056057155132294, 0.014817003160715103, 0.05069597810506821, -0.254006952047348, 0.1248343288898468, -0.11707910150289536, -0.27546072006225586, 0.01398907694965601, 0.13442565500736237, -0.035059038549661636, -0.04095511510968208, 0.06319058686494827, -0.3535996973514557, 0.05379895865917206, -0.0006918126600794494, -0.2106415033340454, 0.03018808923661709, -0.0675504133105278, -0.012949949130415916, -0.061153899878263474, -0.18933600187301636, 0.038503218442201614, 0.08418629318475723, -0.08277961611747742, 0.09284686297178268, 0.046516336500644684, -0.256639689207077, -0.02799929492175579, 0.19291730225086212, -0.19317975640296936, 0.03246372565627098, 0.17923328280448914, 0.20803190767765045, -0.17718718945980072, -0.06085236743092537, 0.0372626967728138, -0.14740194380283356, -0.20549790561199188, 0.2515905499458313, -0.09355084598064423, 0.1262224018573761, 0.05738808587193489, 0.09431551396846771, -0.11313330382108688, 0.20892158150672913, -0.012466966174542904, 0.08791831135749817, -0.017630543559789658, 0.0686403438448906, -0.017021173611283302, 0.18826864659786224, -0.4792667627334595, -0.10032497346401215, -0.07386399805545807, 0.0503593385219574, 0.0690581277012825, -0.14051006734371185, -0.20046187937259674, 0.06556694209575653, -0.3882843554019928, 0.020631831139326096, 0.34809839725494385, 0.0009279828518629074, -0.09169714897871017, -0.07518117129802704, 0.007780731655657291, 0.04542864114046097, 0.20539775490760803, 0.14280344545841217, 0.1978965401649475, -0.15234263241291046, 0.06110375002026558, -0.05635599419474602, 0.43329617381095886, 0.3610279858112335, 0.20363165438175201, 0.09459242224693298, 0.3113512098789215, 0.3048368990421295, 0.002336049685254693, 0.01924595981836319, -0.006197432987391949, -0.24713784456253052, 0.16788418591022491, -0.1438191682100296, 0.21897022426128387, -0.2562752366065979, -0.030299866572022438, -0.30168142914772034, 0.11853039264678955, -0.08285345882177353, -0.00542475376278162, -0.09781472384929657, 0.016904298216104507, -0.13770125806331635, 0.21121524274349213, -0.05580541118979454, 0.2515832781791687, -0.4740036725997925, 0.07041158527135849, -0.32107412815093994, 0.25247475504875183, 0.2250594198703766, 0.3186552822589874, 0.0891321450471878, 0.12969882786273956, -0.12523187696933746, -0.07691188156604767, 0.43039530515670776, 0.20923210680484772, -0.38757607340812683, -0.11345264315605164, -0.07774318754673004, -0.1238769143819809, -0.02036469057202339, -0.0947725772857666, 0.19875146448612213, -0.02794318087399006, 0.11647453159093857, -0.10334990918636322, -0.06219634786248207, -0.035419706255197525, 0.052974168211221695, 0.06459082663059235, -0.01422067079693079, 0.18827170133590698, -0.0966765359044075, 0.11419909447431564, 0.014650080353021622, -0.09660957753658295, 0.02459076978266239, -0.024748578667640686, -0.18245919048786163, 0.024215271696448326, -0.025031235069036484, -0.07792722433805466, -0.0924619510769844, -0.01013554260134697, -0.17638950049877167, 0.13898590207099915, 0.12076640874147415, 0.21197357773780823, -0.118245430290699, 0.09244132041931152, -0.2132159024477005, -0.006175386719405651, -0.3538210988044739, 0.3526308536529541, -0.19184499979019165, -0.048703476786613464, 0.015960630029439926, -0.023039432242512703, -0.1701594740152359, -0.031046712771058083, -0.07632157951593399, 0.07150036096572876, 0.5451206564903259, -0.07872593402862549, -0.20101946592330933, 0.18406623601913452, -0.19792796671390533, 0.3672372102737427, -0.09129700809717178, 0.013141424395143986, -0.31607621908187866, -0.13523510098457336, -0.16356563568115234, 0.2821975648403168, -0.09103952348232269, 0.2647280693054199, 0.09638892114162445, -0.017303507775068283, -0.07055745273828506, -0.20853470265865326, -0.021261489018797874, -0.07850731909275055, -0.336546927690506, 0.214747816324234, -0.2082919478416443, 0.1325734704732895, -0.06562671810388565, 0.017158959060907364, -0.24240729212760925, -0.07092351466417313, 0.03067377582192421, 0.04303240031003952, -0.11397603154182434, 0.14718769490718842, -0.07641761749982834, 0.10410907864570618, -0.1352701634168625, 0.149748295545578, -0.0972176119685173, -0.03252473473548889, 0.1928158551454544, 0.18640317022800446, 0.013540423475205898, 0.04953562095761299, 0.13459442555904388, 0.07322981208562851, 0.008739156648516655, -0.016146361827850342, -0.11619667708873749, 0.09529711306095123, -0.09973461925983429, 0.08521361649036407, 0.13452783226966858, -0.08943907171487808, -0.19001998007297516, 0.11416374891996384, 0.16422304511070251, -0.14167246222496033, -0.050299618393182755, 0.025908367708325386, 0.15354058146476746, -0.15186962485313416, -0.05639728903770447, -0.09208859503269196, -0.1566271036863327, 0.11627604812383652, -0.09000258147716522, 0.20047849416732788, -0.14605891704559326, 0.024796752259135246, 0.12773370742797852, -0.054788097739219666, 0.1667998731136322, -0.03613927587866783, 0.017079917713999748, 0.12558354437351227, 0.10934491455554962, 0.06574253737926483, 0.193245068192482, -0.1626347452402115, 0.15536993741989136, 0.01463095098733902, 0.006575939245522022, -0.026950770989060402, 0.07623612135648727, -0.2819212079048157, 0.02500438690185547, 0.10643616318702698, -0.337026447057724, 0.3452436029911041, -0.19584333896636963, -0.1721668392419815, -0.0677264928817749, -0.09914225339889526, -0.1697799414396286, 0.03885655105113983, 0.049788180738687515, -0.3439079523086548, -0.0008022692054510117, -0.17055396735668182, -0.16074353456497192, 0.25416624546051025, -0.1507054716348648, -0.2560599148273468, -0.0237936582416296, -0.02646239846944809, -0.027397451922297478, 0.10826670378446579, -0.1665320098400116, -0.14210407435894012, -0.09975312650203705, 0.04213659092783928, -0.1979195475578308, -0.05886286497116089, -0.13107362389564514, 0.036451634019613266, 0.06466339528560638, -0.05143194645643234, 0.08661505579948425, 0.11371948570013046, 0.1354152262210846, -0.0680278092622757, -0.030763177201151848, 0.009141331538558006, -0.038651660084724426, 0.158132404088974, 0.17424561083316803, 0.004499049391597509, -0.11219023913145065, -0.02651185542345047, -0.19455879926681519, -0.14171017706394196, -0.007942130789160728, 0.10233567655086517, -0.1382196992635727, -0.2137879729270935, 0.21141178905963898, 0.16726846992969513, 0.09093306958675385, 0.07542295008897781, -0.028310062363743782, -0.026597678661346436, 0.1391662359237671, -0.03462482988834381, 0.03806912153959274, -0.25674352049827576, 0.13697125017642975, -0.18577057123184204, -0.178521066904068, -0.16299952566623688, 0.009437737055122852, 0.1776932328939438, -0.1960165649652481, 0.24078993499279022, -0.10254553705453873, 0.026304852217435837, -0.40241754055023193, 0.015208113007247448, -0.04381205886602402, 0.29296040534973145, 0.026389170438051224, -0.0623798705637455, -0.08601563423871994, -0.03864164277911186, 0.1424340456724167, -0.31752514839172363, -0.23764169216156006, 0.29611971974372864, -0.106596440076828, 0.03650153428316116, -0.22425521910190582, 0.05461506173014641, -0.009509962983429432, 0.25978443026542664, 0.11766774952411652, 0.23115529119968414, -0.1987822949886322, -0.18994323909282684, -0.3005320727825165, 0.09651750326156616, 0.007996490225195885, 0.05587982013821602, -0.10222764313220978, -0.17403821647167206, 0.1483008861541748, 0.1404203474521637, 0.04532323405146599, 0.011631731875240803, -0.16722512245178223, 0.03060414269566536, 0.1755126416683197, 0.05951118469238281, -0.11724469810724258, 0.17592410743236542, -0.11451131105422974, 0.0727723240852356, -0.1478860229253769, -0.09535249322652817, 0.30240586400032043, -0.013075349852442741, 0.021033689379692078, -0.14364320039749146, 0.07844369113445282, 0.1682801991701126, 0.07055757939815521, 0.2041519731283188, 0.1443130373954773, -0.11795703321695328, -0.11018489301204681, 0.105659119784832, -0.1394103765487671, 0.13118790090084076, 0.12454483658075333, -0.11234361678361893, -0.058787260204553604, -0.15332044661045074, 0.204480841755867, -0.028472699224948883, -0.04565765708684921, -0.026567909866571426, -0.04574405401945114, -0.1720373034477234, 0.13091303408145905, -0.12532740831375122, 0.12502574920654297, 0.1371212601661682, -0.06064329296350479, -0.08275691419839859, -0.1437089443206787, 0.08614858984947205, 0.22485294938087463, 0.00032175410888157785, -0.09106528013944626, -0.6008134484291077, -0.24535873532295227, -0.023511437699198723, -0.06633850932121277, -0.015156100504100323, -0.07153113186359406, -0.01828969083726406, -0.13476897776126862, -0.0947638750076294, -0.09727422147989273, -0.024862362071871758, -0.016170775517821312, -0.18044522404670715, -0.07968389987945557, 0.11901813000440598, -0.3453770577907562, 0.06259388476610184, -0.06614360958337784, 0.22796699404716492, 0.01928999274969101, 0.20939218997955322, -0.4034086763858795, 0.0935441106557846, -0.18058806657791138, 0.040611252188682556, -0.0036702952347695827, -0.1684161275625229, 0.10907313972711563, 0.16657842695713043, -0.21397414803504944, 0.2981402277946472, -0.09185928106307983, 0.038589607924222946, -0.08796028792858124, -0.0450173020362854, 0.16969530284404755, 0.1307118833065033, -0.008830447681248188, -0.06661151349544525, -0.12111999839544296, -0.017526209354400635, 0.07418711483478546, -0.11486683785915375, 0.10630787909030914, -0.08209708333015442, -0.16244280338287354, -0.15120884776115417, -0.09071815013885498, 0.4093654155731201, -0.3192548155784607, -0.21863675117492676, -0.08585847169160843, -0.0518985316157341, -0.03266366198658943, 0.11843708902597427, -0.13404296338558197, -0.42430663108825684, -0.2878571152687073, -0.35722142457962036, -0.05393503978848457, -0.11662503331899643, -0.017666859552264214, -0.20116405189037323, 0.08665451407432556, -0.14760808646678925, 0.10096007585525513, 0.20421786606311798, -0.0053183166310191154, -0.14531418681144714, 0.1740846037864685, 0.004063185770064592, -0.12465301901102066, 0.037602756172418594, -0.11375970393419266, 0.07191091030836105, 0.1421787142753601, -0.08706750720739365, 0.3421737849712372, -0.07657970488071442, -0.062399279326200485, 0.007153493817895651, 0.18728630244731903, 0.18170608580112457, 0.12389881908893585, -0.057817492634058, -0.10483673959970474, -0.009614257141947746, -0.07024562358856201, 0.002195117762312293, -0.04628760367631912, -0.10557697713375092, 0.11662394553422928, -0.11397413909435272, 0.15042297542095184, 0.15500135719776154, -0.5228947401046753, -0.16157563030719757, -0.3297573924064636, -0.050200678408145905, 0.08403510600328445, 0.03795703500509262, -0.09446795284748077, -0.04972771182656288, -0.06446287781000137, -0.8653274178504944, -0.2641436755657196, -0.4250911474227905, 0.05088572949171066, -0.05015324428677559, 0.11188764870166779, -0.11087138205766678, 0.2420983761548996, -0.23833529651165009, 0.11094382405281067, -0.004519140347838402, 0.1443547159433365, -0.06953595578670502, 0.2123872935771942, -0.03801849111914635, 0.018423447385430336, 0.016192447394132614, -0.05960899963974953, 0.0892559215426445, -0.12558552622795105, 0.07334378361701965, 0.17620866000652313, -0.28775671124458313, 0.10351764410734177, -0.09978543967008591, 0.1809898316860199, -0.2283192276954651, 0.22057557106018066, -0.23042061924934387, -0.047576338052749634, -0.2518807053565979, 0.02689916081726551, -0.007844897918403149, 0.045558493584394455, 0.12568220496177673, 0.20705807209014893, -0.20376946032047272, 0.20810988545417786, -0.146501362323761, -0.02654573880136013, 0.0018567140214145184, 0.08191529661417007, -0.16288317739963531, -0.04417495056986809, 0.04640600085258484, -0.0436522550880909, 0.093775175511837, -0.06838150322437286, 0.08819624781608582, -0.10013031959533691, 0.20497559010982513, 0.07229525595903397, 0.33117491006851196, 0.21573039889335632, 0.10507708787918091, 0.09936126321554184, -0.12804530560970306, 0.0838337168097496, -0.19156216084957123, 0.08345578610897064, 0.11619114130735397, 0.14243365824222565, -0.07022315263748169, 0.00023669521033298224, 0.14213430881500244, 0.09573736041784286, 0.061563652008771896, 0.03199533745646477, 0.05830242484807968, -0.03559991344809532, -0.43700850009918213, 0.20273540914058685, 0.3792858421802521, -0.5131146907806396, 0.17067083716392517, -0.7750622034072876, -0.4891971945762634, -0.41926971077919006, 0.8273137807846069, -0.8513306379318237, -0.48884618282318115, -0.8739928007125854, 0.31442299485206604, -0.7579241991043091, 0.299135684967041, -0.6387556791305542, -0.13552024960517883, -0.1914423704147339, 0.15341044962406158, 0.17980681359767914, 0.09465255588293076, -0.0735347718000412, -0.1466158777475357, -0.05284702032804489, 0.03987646475434303, 0.01665670797228813, 0.10475727915763855, 0.07576851546764374, 0.15608727931976318, 0.1738346964120865, -0.07466527819633484, -0.10778284817934036, 0.05407506972551346, -0.09496685862541199, -0.09788043051958084, 0.03328697755932808, -0.18191075325012207, 0.0014343971852213144, 0.017595695331692696, -0.036558154970407486, 0.14122410118579865, -0.043066803365945816, 0.07048535346984863, 0.2924129068851471, -0.25868117809295654, -0.017973681911826134, -0.20229370892047882, 0.19814026355743408, -0.3624541759490967, -0.2538214325904846, -0.038934677839279175, 0.03778485581278801, -0.15618324279785156, 0.31007853150367737, -0.0517110750079155, -0.3036791980266571, 0.02256534993648529, 0.2524901330471039, -0.3271341621875763, -0.4119175970554352, 0.34579867124557495, 0.25704461336135864, 0.25297731161117554, 0.03811736777424812, -0.10625410079956055, -0.016281267628073692, -0.08250004053115845, -0.09872133284807205, -0.1011936366558075, -0.061638351529836655, -0.09818581491708755, -0.028013689443469048, -0.17698591947555542, 0.15481944382190704, 0.17375881969928741, 0.3184378147125244, 0.4163876175880432, -0.13134805858135223, 0.2922815978527069, -0.03856531158089638, 0.3326490521430969, 0.04246656596660614, -0.25369343161582947, -0.1504579484462738, 0.06119432672858238, -0.1694093495607376, 0.017952168360352516, 0.1146676316857338, -0.02110528200864792, -0.05192975699901581, -0.08908110857009888, 0.32016053795814514, -0.022683201357722282, -0.006976450327783823, -0.2127632051706314, -0.08695776760578156, -0.27588024735450745, -0.04643983393907547, -0.29428017139434814, -0.20320789515972137, 0.05653655156493187, -0.13216660916805267, -0.059254977852106094, -0.3434848189353943, 0.20581181347370148, 0.14758716523647308, -0.033721260726451874, -0.13974708318710327, -0.10202624648809433, -0.2726285457611084, -0.16129405796527863, 0.0765901580452919, 0.1539185345172882, -0.21048203110694885, 0.17305023968219757, -0.26971760392189026, 0.06989327073097229, -0.02779758907854557, -0.37103310227394104, -0.10478600114583969, -0.04689908027648926, -0.08088858425617218, -0.15344655513763428, 0.18342658877372742, -0.18826532363891602, -0.025299806147813797, -0.19852232933044434, 0.30302461981773376, 0.039270125329494476, 0.04304005950689316, 0.05120815709233284, 0.021679259836673737, 0.047868143767118454, -0.1658760905265808, -0.08460206538438797, -0.08709312975406647, 0.0312435794621706, 0.26355957984924316, -0.26969438791275024, -0.09107714891433716, -0.0730653926730156, 0.10940713435411453, 0.17601913213729858, 0.16046714782714844, -0.021682508289813995, 0.08441039174795151, -0.11943823844194412, -0.06902292370796204, -0.13231423497200012, -0.07149554789066315, -0.0047828457318246365, -0.057993385940790176, -0.06759705394506454, 0.025470228865742683, 0.2521730959415436, -0.09396730363368988, -0.08463379740715027, 0.18322713673114777, -0.16113592684268951, 0.22470305860042572, 0.023199910297989845, -0.2546676993370056, 0.2066192924976349, 0.2193136364221573, 0.16281633079051971, -0.15429067611694336, 0.25752854347229004, 0.043133433908224106, 0.08242776989936829, -0.023195238783955574, 0.11218563467264175, 0.3072633743286133, -0.008963610045611858, 0.004226254299283028, 0.024270955473184586, -0.23401881754398346, -0.09825415164232254, -0.1090674176812172, -0.17312289774417877, 0.18926970660686493, 0.05857228487730026, -0.18825577199459076, -0.07902822643518448, 0.08535125851631165, 0.03963217884302139, 0.27207720279693604, -0.18016445636749268, 0.15915274620056152, -0.053997963666915894, 0.04874958470463753, -0.14843128621578217, -0.00593571737408638, 0.17024540901184082, 0.22380875051021576, -0.357838898897171, -0.006740662269294262, -0.29752883315086365, -0.08884599804878235, 0.018778109923005104, 0.358688086271286, -0.2743012309074402, 0.1544198840856552, 0.2353377789258957, -0.15356644988059998, 0.05101834610104561, 0.0476396344602108, -0.04071403294801712, -0.18201389908790588, -0.09408838301897049, -0.25730010867118835, -0.1800539344549179, 0.20572374761104584, 0.004553778562694788, -0.13852821290493011, -0.1844313144683838, 0.2561197876930237, -0.20554913580417633, 0.035719890147447586, -0.2570934295654297, -0.1576405018568039, 0.2746138870716095, -0.02814381569623947, -0.08892109990119934, -0.008553870022296906, 0.18904273211956024, 0.06319841742515564, -0.20466338098049164, 0.3191829323768616, -0.1440185010433197, 0.024650592356920242, 0.031123904511332512, 0.10825563222169876, 0.022789588198065758, 0.1807021200656891, 0.1170269250869751, 0.10992545634508133, 0.13918961584568024, 0.08204418420791626, 0.08112464845180511, -0.15378747880458832, 0.05354846641421318, 0.3050229251384735, -0.34839940071105957, 0.07468443363904953, -0.3120461702346802, -0.1008785143494606, 0.11475856602191925, 0.1466197818517685, -0.09586071968078613, 0.33610570430755615, -0.17127536237239838, -0.01846478320658207, -0.05664654076099396, 0.29492464661598206, 0.052975110709667206, 0.08435312658548355, 0.20126128196716309, -0.34958842396736145, 0.0545949786901474, -0.18694619834423065, -0.2794860601425171, 0.13125479221343994, -0.04051705449819565, 0.17369972169399261, 0.3248509168624878, -0.10175017267465591, 0.12778228521347046, 0.12216319143772125, -0.21441704034805298, 0.08222758769989014, -0.13570818305015564, -0.07481418550014496, -0.05756896361708641, -0.05050816759467125, 0.04625723510980606, -0.05497964844107628, -0.1329343020915985, 0.0015557670267298818, 0.19332794845104218, 0.17034144699573517, 0.017101027071475983, 0.04138324409723282, 0.012213721871376038, -0.19844815135002136, 0.07464195042848587, -0.2452619969844818, -0.2263357937335968, -0.026716768741607666, 0.29209163784980774, 0.045523155480623245, -0.05234181508421898, 0.09674781560897827, -0.109895721077919, -0.0804414227604866, -0.24669092893600464, -0.10669920593500137, -0.03829934448003769, 0.05908961966633797, -0.15285183489322662, -0.04524840787053108, 0.1396883875131607, 0.1979784071445465, -0.018066735938191414, 0.015600587241351604, 0.012831360101699829, 0.09294860810041428, -0.04668528214097023, -0.1940416395664215, 0.04667246714234352, -0.004294329322874546, 0.06596539914608002, -0.1208895817399025, -0.15151512622833252, 0.097881019115448, 0.02386285923421383, 0.293528288602829, 0.09803757071495056, -0.08453521132469177, -0.19237840175628662, -0.022010307759046555, -0.07938104122877121, -0.3466593027114868, 0.21558170020580292, 0.10700518637895584, -0.07803573459386826, -0.1459016352891922, 0.010106152854859829, -0.13505934178829193, 0.11887058615684509, -0.06128259003162384, -0.18178331851959229, 0.16741514205932617, -0.11272261291742325, 0.4088439643383026, -0.14212462306022644, -0.12512516975402832, -0.26701366901397705, -0.11342600733041763, -0.003930987324565649, -0.12148651480674744, 0.07886569201946259, -0.16297486424446106, 0.1697949469089508, -0.04229710251092911, 0.12085635960102081, -0.03178316727280617, -0.07238984107971191, -0.07990144938230515, 0.12688909471035004, -0.20505107939243317, -0.013953312300145626, 0.17435257136821747, 0.16709281504154205, 0.004092108458280563, 0.015113375149667263, -0.1436801552772522, 0.02909497544169426, -0.04951415956020355, 0.01039989572018385, 0.061739999800920486, 0.04476135969161987, -0.1255803257226944, -0.1980438381433487, 0.0043650539591908455, 0.23599159717559814, 0.04585818573832512, 0.17168064415454865, -0.03820599615573883, -0.107712522149086, 0.09200286120176315, -0.28295785188674927, 0.06430404633283615, -0.037542637437582016, -0.026098739355802536, -0.09148341417312622, -0.0036301976069808006, -0.12106981128454208, -0.22381442785263062, 0.20915579795837402, 0.01572033390402794, 0.2359229326248169, -0.08154526352882385, -0.0533115491271019, -0.1998910903930664, -0.05861876904964447, -0.02451702393591404, -0.26162025332450867, 0.07597866654396057, 0.038070131093263626, 0.06996465474367142, 0.279615193605423, 0.3066684305667877, 0.0243538748472929, -0.11292362213134766, -0.03322868049144745, 0.07802218943834305, 0.08545823395252228, -0.24412544071674347, 0.06496218591928482, 0.09185633808374405, -0.03161794692277908, -0.04281818866729736, 0.01720832847058773, 0.21306155622005463, -0.11864130198955536, -0.09459540992975235, 0.033174727112054825, -0.0507931187748909, 0.12417291849851608, -0.01470454316586256, 0.05186767503619194, -0.17774343490600586, 0.04076915606856346, -0.05492967739701271, 0.004283120855689049, 0.12246821820735931, 0.059788741171360016, 0.3439166247844696, -0.2716594934463501, 0.011802996508777142, 0.1824461817741394, 0.04539532959461212, 0.057353172451257706, 0.011373038403689861, -0.0068680522963404655, 0.15662658214569092, 0.6941347718238831, -0.25387224555015564, -0.11753116548061371, -0.17570477724075317, 0.0652875080704689, -0.05091778561472893, -0.2693384289741516, -0.15547096729278564, 0.17368543148040771, -0.08359470218420029, 0.10748517513275146, 0.0032625191379338503, -0.059570178389549255, -0.047180671244859695, 0.011609092354774475, 0.31222909688949585, -0.0015002737054601312, -0.1335705816745758, -0.03355195000767708, 0.11063040792942047, 0.02263812907040119, -0.06532816588878632, -0.0029439490754157305, 0.27740588784217834, -0.09052803367376328, -0.0969427078962326, -0.3205813467502594, -0.10833316296339035, 0.06194327771663666, 0.24843093752861023, 0.07218039780855179, 0.05387676879763603, -0.00788271613419056, -0.05299539119005203, -0.0644284039735794, -0.17307019233703613, 0.05381447821855545, 0.04969172179698944, -0.03622077777981758, 0.1862962692975998, -0.08805134147405624, -0.04197799041867256, -0.0051862820982933044, -0.2491150051355362, -0.0707491934299469, 0.25414928793907166, -0.04667458310723305, 0.05723367631435394, 0.05352029949426651, -0.08436178416013718, 0.2629373371601105, -0.13015305995941162, -0.010193531401455402, 0.04359455034136772, 0.151238813996315, -0.09642348438501358, -0.11189155280590057, -0.07123403996229172, 0.048458170145750046, 0.014340759254992008, -0.1602247655391693, 0.2548368573188782, -0.11642614752054214, 0.17707592248916626, 0.15821470320224762, 0.10120464861392975, -0.26362496614456177, 0.006483892910182476, 0.15585029125213623, -0.3189567029476166, 0.1723838895559311, -0.005464108195155859, -0.3203352689743042, -0.0020608948543667793, -0.12040112912654877, -0.025801384821534157, -0.13790284097194672, -0.00697154039517045, 0.01448879949748516, -0.07540562748908997, 0.08044777065515518, 0.1802845150232315, 0.01151975803077221, 0.04059717804193497, -0.2294251173734665, -0.0659075602889061, -0.07699447125196457, 0.05369310826063156, 0.17494462430477142, -0.20466601848602295, -0.2966630160808563, 0.19042015075683594, 0.12116063386201859, -0.17384077608585358, -0.08453686535358429, 0.07947589457035065, -0.16599337756633759, -0.04725354164838791, 0.11268402636051178, 0.006443401798605919, -0.06517578661441803, -0.295654296875, 0.002095784293487668, 0.06360052525997162, 0.024254610762000084, 0.10877925902605057, -0.08630505204200745, -0.07222011685371399, -0.04368208348751068, -0.17018868029117584, -0.013052119873464108, 0.03855600208044052, -0.2537621259689331, 0.0230370182543993, -0.029228663071990013, -0.1439066380262375, 0.041521765291690826, -0.12448123097419739, -0.060355138033628464, 0.1568709760904312, -0.12959817051887512, 0.2548452913761139, 0.13197213411331177, -0.21260926127433777, -0.10864155739545822, 0.20049889385700226, 0.10258171707391739, -0.05325226113200188, -0.2110689878463745, -0.14194679260253906, 0.05736173689365387, -0.015491802245378494, 0.21334849298000336, 0.10960511863231659, -0.022441398352384567, 0.09097136557102203, 0.033409569412469864, 0.1757289171218872, 0.1944795548915863, -0.06424795836210251, -0.046811968088150024, 0.12437018007040024, 0.017107132822275162, -0.06872525066137314, 0.12281813472509384, -0.10373681783676147, 0.03855211287736893, 0.00021209180704317987, 0.10266640782356262, 0.10496443510055542, 0.038093339651823044, -0.03970411792397499, -0.11552400141954422, 0.0051412140019237995, 0.007271171547472477, -0.0035288967192173004, 0.16268670558929443, -0.04277682676911354, -0.18698234856128693, -0.22882021963596344, 0.17095494270324707, 0.0014877594076097012, 0.1023007333278656, -0.07163547724485397, 0.04445791617035866, 0.03460896015167236, 0.038435034453868866, -0.0013356745475903153, 0.08197750151157379, -0.10082892328500748, -0.010470667853951454, 0.4423745274543762, 0.16383391618728638, -0.16633829474449158, -0.17248821258544922, -0.06738504022359848, 0.172724649310112, -0.050205085426568985, 0.18760737776756287, -0.05439957231283188, -0.23548033833503723, -0.0009662399534136057, -0.05312120169401169, 0.008513343520462513, -0.08696842193603516, -0.007664237171411514, -0.08418960869312286, -0.08772926032543182, 0.05618387833237648, -0.24598075449466705, -0.10561318695545197, 0.08114901930093765, -0.0869215726852417, -6.570131972694071e-06, -0.05582309514284134, 0.19621621072292328, -0.10459866374731064, 0.03626608848571777, -0.092526875436306, 0.12497507035732269, -0.12875896692276, 0.08617176860570908, 0.04058842733502388, 0.07147043198347092, 0.0506376214325428, 0.16087868809700012, -0.06500101089477539, -0.09885893762111664, -0.039973050355911255, -0.037245020270347595, -0.06012758985161781, -0.11065781861543655, -0.042345575988292694, 0.042047347873449326, 0.19676336646080017, 0.10656987875699997, -0.01411011815071106, 0.08366911113262177, 0.011223559267818928, -0.19545681774616241, 0.05880444496870041, -0.000699921976774931, 0.11905971169471741, 0.05871734768152237, -0.14819501340389252, -0.33557483553886414, 0.01898215524852276, -0.06285309046506882, 0.28684109449386597, -0.09215274453163147, -0.002524689305573702, 0.24994415044784546, -0.3260183334350586, -0.1739717423915863, 0.110645592212677, 0.00028150787693448365, 0.11114644259214401, 0.009752779267728329, -0.13053365051746368, -0.030220400542020798, 0.4252814054489136, -0.21417781710624695, -0.08321096748113632, -0.3509640097618103, -0.14745238423347473, 0.08171240240335464, 0.05966082587838173, -0.33050015568733215, 0.0874553918838501, 0.12510526180267334, 0.027603251859545708, -0.08343365788459778, 0.42882800102233887, 0.3205232322216034, 0.040485627949237823, -0.040011052042245865, 0.10616414994001389, 0.15565727651119232, -0.24146109819412231, 0.05842248350381851, -0.13875415921211243, 0.07042504847049713, 0.14520613849163055, 0.0818714126944542, 0.24521012604236603, 0.08856474608182907, 0.15986812114715576, -0.027470074594020844, -0.1495363563299179, 0.08088606595993042, 0.14704473316669464, 0.0047469655983150005, 0.020142292603850365, -0.12984757125377655, -0.2113809883594513, 0.01877371408045292, 0.08915752917528152, 0.018367161974310875, -0.2633463442325592, -0.04258326441049576, 0.19979342818260193, -0.0955643355846405, -0.023802053183317184, 0.3404770493507385, -0.03126717358827591, 0.1011287048459053, 0.13591736555099487, -0.020375007763504982, 0.09075911343097687, 0.330040842294693, -0.09718696027994156, 0.3222300708293915, -0.38754549622535706, -0.2760460674762726, 0.1693800836801529, -0.05871853977441788, -0.05548766255378723, 4.1628660255810246e-05, 0.06487606465816498, -0.05280112475156784, 0.21724700927734375, 0.23173053562641144, 0.09822174906730652, -0.1997925341129303, -0.03442255035042763, -0.15772199630737305, -0.20133356750011444, -0.06172194331884384, -0.07436148822307587, -0.07877800613641739, 0.00498984893783927, 0.22171731293201447, -0.04292575642466545, 0.121259905397892, -0.08664163202047348, 0.07596500962972641, -0.1699318140745163, 0.012972663156688213, -0.08635690063238144, -0.08319175988435745, 0.04239595681428909, 0.21067246794700623, -0.19871783256530762, -0.05383475869894028, -0.01315260212868452, 0.06683332473039627, -0.21156036853790283, -0.5110902190208435, 0.28629085421562195, -0.3387039303779602, -0.017701828852295876, 0.11433003842830658, -0.04269969463348389, -0.10697811841964722, -0.03432858735322952, -0.09828026592731476, -0.45735010504722595, 0.28550460934638977, -0.3568403124809265, 0.27487343549728394, -0.3548285663127899, -0.2749573886394501, -0.0684845969080925, 0.01315686572343111, 0.07032463699579239, 0.035002700984478, 0.1410972774028778, 0.1623641401529312, 0.18000492453575134, 0.2366289645433426, 0.20527832210063934, 0.28640687465667725, 0.03015311434864998, 0.031949106603860855, 0.08286182582378387, 0.08713541179895401, 0.061560165137052536, 0.1483956277370453, -0.00028355681570246816, 0.09000846743583679, 0.162958025932312, 0.11130992323160172, -0.15355977416038513, -0.03243428096175194, 0.029569806531071663, 0.027815653011202812, 0.06109358370304108, 0.15225590765476227, -0.02758917771279812, -0.17663617432117462, -0.15409976243972778, 0.017178574576973915, 0.20568148791790009, 0.14673598110675812, 0.1252099573612213, 0.23052142560482025, 0.3271813690662384, 0.16881069540977478, 0.14363126456737518, 0.07854724675416946, 0.0042508309707045555, 0.22910141944885254, -0.043385934084653854, -0.037978045642375946, 0.08816948533058167, 0.4402347505092621, -0.11525490880012512, 0.09749818593263626, -0.07193715125322342, 0.02054579369723797, 0.23031288385391235, -0.05829896405339241, 0.03235062211751938, -0.12916117906570435, -0.03767387568950653, 0.12925797700881958, 0.05659462511539459, 0.05651471018791199, 0.04921254888176918, -0.11085040122270584, 0.019667265936732292, 0.023366626352071762, 0.024368159472942352, -0.0277389045804739, -0.06290124356746674, -0.13366417586803436, -0.15795427560806274, 0.002510454971343279, -0.07478955388069153, 0.016356639564037323, 0.1974593698978424, 0.24758586287498474, -0.06948309391736984, -0.22975550591945648, -0.1867944598197937, 0.04718407616019249, -0.06552571803331375, -0.1365019828081131, -0.08892075717449188, -0.11537878960371017, -0.23221313953399658, -0.09506986290216446, 0.01323681976646185, 0.09185843914747238, -0.06995423138141632, -0.052643075585365295, -0.18911069631576538, 0.05470987409353256, -0.03365970775485039, -0.3602975010871887, -0.058286089450120926, 0.24778202176094055, -0.0886545330286026, -0.10394620150327682, -0.009829483926296234, -0.06782364100217819, -0.11382299661636353, -0.08838217705488205, -0.19468867778778076, -0.0011253517586737871, 0.27267342805862427, 0.06851842999458313, -0.12659165263175964, -0.3031494915485382, -0.13073472678661346, -0.19875720143318176, 0.06068914756178856, 0.22310501337051392, -0.0002487193560227752, -0.11952073872089386, 0.03461373969912529, 0.05035512149333954, 0.1378810703754425, -0.11108944565057755, 0.07905653864145279, 0.11601977795362473, -0.07662611454725266, 0.2495052069425583, -0.16062691807746887, -0.06915062665939331, -0.062224678695201874, 0.1557856798171997, 0.07381504774093628, -0.16877411305904388, -0.025729665532708168, -0.10265657305717468, 0.020917806774377823, -0.03895183280110359, 0.14831775426864624, 0.15575142204761505, -0.04753689095377922, 0.023219898343086243, -0.0974220484495163, 0.19579054415225983, -0.031390927731990814, 0.00961935706436634, -0.05445472523570061, 0.22410738468170166, 0.06701898574829102, -0.03947128728032112, -0.05082247033715248, -0.0002798426430672407, -0.0022647036239504814, 0.07270970195531845, -0.0030325225088745356, -0.0026141677517443895, 0.09363684803247452, -0.026558447629213333, 0.1290605068206787, 0.16250675916671753, 0.14281968772411346, -0.1902635246515274, 0.29551416635513306, 0.07296065241098404, -0.022990327328443527, -0.27310019731521606, 0.054841428995132446, 0.026553064584732056, -0.07527894526720047, 0.39016425609588623, 0.0324869267642498, 0.26688966155052185, 0.1487092226743698, 0.08574201166629791, -0.18557101488113403, -0.3154655992984772, -0.16002129018306732, 0.06723470240831375, 0.07740597426891327, 0.11209221184253693, 0.015122094191610813, 0.015248562209308147, -0.10239221900701523, -0.021779511123895645, -0.07454898953437805, 0.19888603687286377, 0.06501079350709915, 0.049515895545482635, -0.27790454030036926, 0.04832737520337105, 0.34847792983055115, 0.23180148005485535, -0.12179207801818848, 0.27948933839797974, -0.0910990759730339, 0.09596721827983856, 0.2219340056180954, -0.24983137845993042, 0.10548561811447144, 0.14658397436141968, 0.0901474878191948, 0.20372848212718964, 0.20799268782138824, 0.027355266734957695, 0.2347845733165741, 0.10455681383609772, -0.12928344309329987, 0.059314459562301636, 0.005816661287099123, -0.006911048199981451, 0.02353527769446373, 0.026267683133482933, 0.006885574199259281, -0.21300584077835083, -0.1542423665523529, 0.16993194818496704, 0.001084843766875565, -0.2089381068944931, -0.3100697100162506, 0.026346273720264435, -0.13368891179561615, -0.19852758944034576, 0.15257474780082703, 0.1411355584859848, 0.185554638504982, 0.024659454822540283, -0.03202715143561363, -0.09210597723722458, 0.07631602138280869, -0.11918745189905167, 0.1508217453956604, 0.14900565147399902, 0.04093446210026741, -0.002101721940562129, 0.03263615071773529, -0.05054834857583046, 0.1331825703382492, -0.08906138688325882, 0.06397607177495956, -0.11543125659227371, 0.020352356135845184, 0.015193833038210869, -0.012136639095842838, -0.12039001286029816, -0.1350357085466385, 0.1829637587070465, -0.014987033791840076, -0.12590673565864563, -0.031060542911291122, 0.16801603138446808, 0.14635030925273895, -0.2184605449438095, 0.009821371175348759, 0.02147364616394043, 0.16279566287994385, 0.04332178831100464, 0.07847093045711517, 0.13198348879814148, -0.0548035129904747, 0.01997360959649086, 0.1307167410850525, -0.17499729990959167, 0.2801525592803955, 0.19652999937534332, -0.06019078567624092, 0.10499503463506699, 0.2076205611228943, 0.06540019065141678, 0.06136171519756317, -0.006962290965020657, 0.2620205581188202, 0.03496668487787247, 0.15500696003437042, -0.0196592565625906, -2.4135952116921544e-05, 0.12419141829013824, 0.03975529596209526, 0.006441241595894098, -0.026168229058384895, -0.10126570612192154, -0.07544498890638351, -0.08563795685768127, -0.12303464859724045, -0.14329713582992554, -0.10608328133821487, -0.2502304017543793, 0.1266259253025055, 0.06525684148073196, -0.04162834584712982, 0.3057268559932709, 0.06876987218856812, 0.003915151581168175, 0.17842800915241241, -0.16597004234790802, -0.18632614612579346, -0.08804111927747726, -0.10651358962059021, -0.16851010918617249, -0.3686385154724121, 0.15418949723243713, 0.0688338503241539, 0.02962341159582138, 0.020774878561496735, -0.033391501754522324, 0.008923026733100414, 0.021473567932844162, -0.04815846309065819, -0.05957290530204773, 0.11508229374885559, 0.05175582319498062, 0.039945799857378006, -0.15834149718284607, -0.05600954219698906, 5.93973854847718e-05, 0.0073509421199560165, -0.0035523150581866503, -0.1677117645740509, -0.41903188824653625, 0.7778096199035645, 0.38509252667427063, -0.48953840136528015, 0.16485334932804108, -0.21176455914974213, -0.052085839211940765, 0.5614451169967651, -0.7010589241981506, 0.9665797352790833, 0.5987803936004639, 0.08594733476638794, -0.21066461503505707, 0.17674078047275543, -0.8106053471565247, 0.00985772255808115, -0.0812661424279213, 0.3503267467021942, -0.087891586124897, -0.10246061533689499, 0.2334509938955307, 0.24769972264766693, 0.22704440355300903, 0.029636068269610405, -0.2709844708442688, 0.34885624051094055, 0.13463890552520752, -0.20489788055419922, 0.14450834691524506, -0.09320193529129028, -0.2998829185962677, 0.13735643029212952, 0.10177236795425415, 0.08319568634033203, 0.15057578682899475, 0.027197569608688354, 0.06062760949134827, 0.04159891977906227, -0.19935233891010284, -0.11731379479169846, -0.12250135093927383, 0.061583757400512695, -0.10208401083946228, 0.043794289231300354, 0.68924880027771, 0.18726037442684174, -0.16437141597270966, -0.13865597546100616, -0.16826114058494568, 0.1656486839056015, -0.37211063504219055, 0.22633977234363556, -0.1902528554201126, 0.07007919251918793, 0.03413279354572296, -0.5030826330184937, -0.37751132249832153, -0.3780144453048706, 0.2676464915275574, 0.0661017894744873, -0.3104749619960785, 0.11300947517156601, 0.15675030648708344, 0.05816261097788811, -0.08296100795269012, 0.06535474956035614, -0.040530700236558914, -0.2678428888320923, 0.15671613812446594, -0.18077713251113892, 0.33048897981643677, 0.21238747239112854, -0.004110870882868767, 0.12626588344573975, 0.22969603538513184, 0.06983064860105515, -0.11593916267156601, 0.04142080247402191, 0.032029204070568085, 0.04956890642642975, 0.07146123051643372, 0.22633789479732513, -0.2076098769903183, 0.28828197717666626, -0.1441141963005066, 0.020046012476086617, 0.04263262078166008, 0.19619913399219513, -0.28662317991256714, -0.10958534479141235, 0.05464291572570801, -0.3322363495826721, -0.11335114389657974, 0.07855278253555298, -0.06515829265117645, -0.2102157473564148, -0.10319861024618149, 0.0010575078194960952, -0.08755765110254288, -0.11554530262947083, -0.20265044271945953, 0.24185051023960114, 0.18255335092544556, -0.3448447585105896, -0.34768587350845337, -0.07132385671138763, 0.2011171281337738, -0.0001227117609232664, 0.1623784303665161, 0.250036358833313, 0.16150297224521637, -0.2467961311340332, 0.07181451469659805, -0.03925829753279686, 0.05144486576318741, -0.007086093537509441, -0.09420662373304367, 0.03411739692091942, 0.22845155000686646, -0.18217845261096954, 0.18219834566116333, 0.1853114515542984, -0.11294849961996078, 0.017103340476751328, 0.10806994885206223, 0.04193434119224548, 0.1675935685634613, 0.23239165544509888, 0.018061676993966103, -0.25625425577163696, -0.1626223772764206, 0.22199195623397827, -0.24502195417881012, 0.1764303594827652, -0.17124013602733612, -0.06457943469285965, 0.06868836283683777, -0.04674150422215462, 0.3593772053718567, -0.07637482136487961, 0.024411166086792946, 0.22244411706924438, -0.025187071412801743, -0.12298950552940369, 0.26776817440986633, -0.046374354511499405, -0.0002772921579889953, 0.17891031503677368, -0.022062521427869797, -0.19340811669826508, 0.08339045196771622, -0.19027890264987946, 0.01761733554303646, -0.12009135633707047, 0.14129547774791718, -0.3465377688407898, -0.01270555704832077, 0.09054435044527054, -0.1625375598669052, 0.24521052837371826, -0.23293867707252502, -0.21196532249450684, 0.014192769303917885, -0.05847214534878731, 0.24509456753730774, -0.1437111347913742, -0.2731229364871979, 0.18696637451648712, 0.01964215561747551, 0.08818688988685608, -0.08953943848609924, -0.0325801745057106, -0.12996624410152435, 0.24721036851406097, -0.12340270727872849, 0.35815635323524475, -0.2991894483566284, -0.28577202558517456, -0.3013678193092346, 0.24196451902389526, -0.28314208984375, 0.2321205884218216, -0.1899360716342926, 0.2205716371536255, 0.23847444355487823, -0.3075374662876129, 0.1449408084154129, 0.06773577630519867, -0.0921134427189827, 0.11389468610286713, 0.2912638485431671, 0.16378028690814972, -0.05048774555325508, -0.14557357132434845, -0.030420813709497452, 0.26725438237190247, 0.16368024051189423, 0.1953134983778, 0.0975242629647255, -0.15029995143413544, 0.13894902169704437, -0.27378854155540466, 0.2805963158607483, -0.18126587569713593, -0.3895556926727295, -0.006655144039541483, 0.13839098811149597, -0.262993723154068, -0.3749360144138336, 0.0635533556342125, -0.2008541375398636, 0.13987663388252258, 0.004953410942107439, -0.07854222506284714, -0.1534218043088913, -0.0029364677611738443, 0.1696486920118332, -0.17324167490005493, 0.22547368705272675, -0.07926014065742493, 0.22005967795848846, 0.11411093920469284, -0.11908766627311707, -0.3139730393886566, 0.3670870363712311, -0.18187887966632843, -0.03179356828331947, -0.029847512021660805, -0.007173003163188696, 0.09687270224094391, -0.0492212176322937, -0.10353824496269226, -0.15111605823040009, 0.09706341475248337, -0.37406492233276367, 0.012895532883703709, 0.25008440017700195, -0.26089468598365784, 0.0037186103872954845, 0.2225300371646881, 0.013919740915298462, -0.01241041999310255, -0.04389132186770439, -0.06740207970142365, -0.33721473813056946, 0.26965487003326416, -0.37075790762901306, 0.16283072531223297, 0.20371168851852417, 0.13504162430763245, 0.40602949261665344, -0.12404198944568634, 0.29249754548072815, 0.14213770627975464, -0.20579345524311066, -0.027765218168497086, -0.13790054619312286, -0.04428887739777565, -0.37803277373313904, -0.0472504086792469, -0.13130903244018555, 0.013894815929234028, -0.22164662182331085, 0.07156874984502792, 0.3023618757724762, 0.09321092814207077, 0.3197973370552063, -0.18288551270961761, 0.024695096537470818, -0.011436781845986843, 0.19695082306861877, 0.028801290318369865, -0.03253379091620445, 0.10342913866043091, 0.023929497227072716, -0.028722934424877167, 0.12052617222070694, 0.017664454877376556, 0.09086927026510239, 0.0024854859802871943, -0.07747203856706619, 0.026836862787604332, 0.07218785583972931, 0.04646245390176773, 0.05622917786240578, 0.04722220450639725, 0.0052910009399056435, -0.21322917938232422, -0.257568359375, 0.06284391134977341, -0.0028792875818908215, -0.1518072932958603, -0.00693912897258997, -0.09406277537345886, -0.27064356207847595, 0.18708035349845886, 0.04532422870397568, 0.15071704983711243, 0.08630364388227463, -0.10571076720952988, -0.08352704346179962, -0.359295517206192, -0.1917179375886917, 0.026785265654325485, -0.04901716485619545, 0.16397316753864288, -0.1394902467727661, 0.10287871956825256, -0.1829473376274109, 0.16800081729888916, -0.06879332661628723, 0.040838178247213364, -0.3193894624710083, 0.11042124032974243, 0.20656387507915497, 0.2912493348121643, -0.09781885147094727, 0.08864206075668335, -0.43414750695228577, 0.10631873458623886, 0.0037375057581812143, -0.14098717272281647, 0.013075421564280987, 0.03155213221907616, 0.10496729612350464, -0.33776044845581055, 0.07840615510940552, -0.18522168695926666, -0.02900739759206772, -0.2898527979850769, -0.1463775932788849, -0.0647326335310936, -0.04451499879360199, -0.1362869143486023, -0.3508371412754059, -0.1978113055229187, 0.2391965389251709, 0.14874131977558136, 0.4058646261692047, 0.019241368398070335, -0.045486561954021454, -0.13949351012706757, -0.31962281465530396, 0.2749464511871338, 0.023306848481297493, 0.0838787853717804, -0.08606059849262238, 0.026143308728933334, -0.005955055821686983, 0.21972432732582092, -0.31358933448791504, -0.32300204038619995, 0.16670680046081543, -0.015848567709326744, 0.060378897935152054, -0.1107478067278862, -0.2098134309053421, -0.11369900405406952, 0.02916262485086918, 0.18981382250785828, -0.01512855477631092, -0.161809504032135, 0.07173391431570053, 0.40110036730766296, 0.0399288646876812, 0.04266177490353584, -0.12998218834400177, 0.021738095209002495, -0.14359402656555176, -0.5169317126274109, -0.05818835273385048, -0.017746111378073692, -0.051141850650310516, 0.035894230008125305, 0.05244880169630051, 0.14595288038253784, -0.25559020042419434, -0.1392507404088974, -0.029206136241555214, 0.1876274198293686, 0.05694032460451126, 0.06901920586824417, 0.05256213620305061, -0.048102136701345444, -0.17185455560684204, -0.23130694031715393, 0.2179431915283203, 0.25170400738716125, 0.10586903244256973, -0.15403519570827484, 0.08746179193258286, 0.18204998970031738, 0.019922519102692604, 0.12303117662668228, 0.015225419774651527, 0.0731927677989006, 0.156654953956604, -0.09203983098268509, 0.07220857590436935, -0.014125494286417961, -0.19837065041065216, -0.0808245837688446, 0.045303888618946075, -0.04173080623149872, 0.07066604495048523, 0.026730990037322044, -0.05539872124791145, -0.1451074630022049, 0.07418843358755112, 0.24167244136333466, 0.06495879590511322, 0.021066298708319664, 0.2186543047428131, -0.21298156678676605, 0.23400327563285828, 0.12039191275835037, -0.025361036881804466, 0.05403973534703255, 0.0649479404091835, -0.28624969720840454, 0.12342604994773865, -0.07700031250715256, -0.11164002865552902, -0.040180813521146774, 0.1293162703514099, 0.08832018822431564, 0.15184947848320007, -0.19489111006259918, -0.3682999312877655, 0.21112827956676483, -0.13349604606628418, -0.2593388259410858, 0.13798876106739044, 0.12229176610708237, -0.060632508248090744, 0.10328522324562073, 0.28055450320243835, 0.009287753142416477, 0.18488918244838715, -0.037329886108636856, 0.23704518377780914, -0.023191489279270172, -0.20273658633232117, -0.07432827353477478, 0.10045519471168518, -0.05550581216812134, -0.15873515605926514, 0.029052354395389557, 0.12691771984100342, 0.0970572829246521, -0.048318080604076385, -0.07454412430524826, -0.10256519168615341, 0.11155668646097183, 0.29609906673431396, 0.11327632516622543, -0.18071800470352173, -0.30791011452674866, -0.09506213665008545, 0.022875947877764702, 0.029985379427671432, -0.019755037501454353, 0.15407128632068634, -0.04597320780158043, 0.06334877014160156, 0.2185395509004593, 0.08292754739522934, 0.17509320378303528, 0.2609075605869293, -0.3243131637573242, 0.15855476260185242, 0.051086410880088806, -0.19359852373600006, -0.3279336988925934, 0.2039417326450348, 0.13707859814167023, -0.27145493030548096, 0.03133577108383179, -0.031561270356178284, -0.1721005141735077, -0.06639932841062546, -0.06805006414651871, 0.32896703481674194, 0.2873912453651428, 0.1967363953590393, -0.08282776921987534, 0.43802928924560547, -0.17652148008346558, 0.12542010843753815, -0.1456851214170456, -0.039164282381534576, 0.21107293665409088, 0.04776160046458244, -0.012263854965567589, -0.19550161063671112, 0.29101771116256714, 0.09826013445854187, -0.21784165501594543, -0.1849338263273239, -0.05510565638542175, -0.03696209192276001, 0.03893694654107094, -0.08001470565795898, -0.0319993682205677, 0.21816392242908478, -0.13540801405906677, -0.1033836081624031, -0.1976117491722107, -0.055942192673683167, -0.03460971638560295, 0.21581414341926575, -0.12213421612977982, 0.09669759124517441, 0.3809477984905243, -0.20477603375911713, -0.18117153644561768, -0.029079636558890343, -0.2204897403717041, -0.08730337768793106, -0.08278485387563705, -0.13424250483512878, -0.1288089007139206, 0.14320629835128784, 0.0451752245426178, -0.19502195715904236, -0.21696683764457703, 0.02475736476480961, -0.2799169421195984, -0.018291739746928215, 0.06693288683891296, 0.03795825317502022, 0.09853219240903854, -0.02222968079149723, 0.03433052822947502, 0.014114531688392162, 0.1436787098646164, 0.02692064642906189, -0.03437921777367592, -0.32362377643585205, 0.11872509866952896, -0.10765015333890915, -0.13528062403202057, -0.08851379156112671, -0.034192219376564026, 0.30462369322776794, -0.017569907009601593, 0.0659199059009552, -0.011879739351570606, -0.16186293959617615, -0.14800888299942017, -0.00871250405907631, -0.07242593169212341, 0.04609406739473343, -0.2015683352947235, -0.05329342558979988, 0.049983516335487366, -0.11586613208055496, 0.005336720030754805, 0.01189348939806223, -0.22755171358585358, 0.008132620714604855, -0.2553406357765198, 0.04605332762002945, 0.12728604674339294, -0.04285860061645508, -0.2562164068222046, 0.08991774916648865, 0.031234493479132652, -0.1963662952184677, -0.14186665415763855, 0.03972012922167778, -0.05366106703877449, 0.013232440687716007, 0.1718812882900238, 0.11873506754636765, 0.22197982668876648, -0.054256871342659, -0.14636777341365814, -0.15443241596221924, -0.2339092195034027, -0.3164098560810089, -0.10465116053819656, -0.02473779395222664, 0.13672411441802979, -0.10214117914438248, 0.02763204649090767, 0.02787463553249836, -0.005418010987341404, 0.0917743518948555, -0.32483020424842834, 0.15667250752449036, -0.12783347070217133, 0.028788432478904724, -0.1276835799217224, -0.0778403952717781, 0.1003393679857254, 0.3008430600166321, -0.04437071457505226, -0.0404912605881691, -0.19735053181648254, 0.1504986435174942, 0.03877830132842064, -0.11613793671131134, -0.0049018701538443565, 0.16789481043815613, 0.09974335134029388, 0.12051241099834442, -0.06458471715450287, 0.05767407268285751, -0.22045525908470154, 0.07300439476966858, 0.026381151750683784, 0.11410874128341675, 0.07202912867069244, -0.2034790813922882, 0.1084270030260086, -0.10698741674423218, 0.169583261013031, 0.08619297295808792, 0.019209109246730804, -0.029717477038502693, 0.04308551177382469, -0.24460287392139435, -0.13398443162441254, 0.07857160270214081, -0.005061816889792681, -0.056491460651159286, -0.02586081065237522, 0.1397942304611206, 0.09310726821422577, -0.015688780695199966, -0.02959311194717884, -0.12038914114236832, 0.05966579169034958, -0.09233778715133667, -0.20794913172721863, 0.16074492037296295, 0.015938065946102142, -0.26588040590286255, -0.009236559271812439, 0.03449777886271477, 0.02133871056139469, -0.11770425736904144, 0.012791524641215801, -0.18178431689739227, 0.05554618686437607, 0.024975553154945374, 0.1178426742553711, -0.014561111107468605, -0.10768897086381912, -0.01981414295732975, -0.13407182693481445, -0.09444181621074677, -0.12063007801771164, -0.14227163791656494, -0.15406744182109833, -0.030355866998434067, -0.13338597118854523, 0.06755091995000839, -0.050956107676029205, 0.020710252225399017, 0.20796890556812286, 0.14884881675243378, -0.1871197521686554, -0.11790104955434799, -0.16618914902210236, 0.02961622178554535, 0.09603569656610489, -0.23875583708286285, -0.04287777468562126, 0.12649109959602356, 0.19098445773124695, 0.09586384147405624, -0.05884667858481407, 0.19539658725261688, -0.04144247621297836, 0.25542768836021423, -0.10631341487169266, -0.1424291729927063, 0.07446946203708649, -0.14886662364006042, -0.022513531148433685, 0.026627138257026672, -0.22335116565227509, 0.0788409560918808, 0.05372448265552521, 0.150009423494339, 0.16084954142570496, -0.22222326695919037, -0.042842183262109756, -0.1508013904094696, -0.04368080943822861, 0.17994557321071625, -0.03044397570192814, -0.19968263804912567, -0.17869676649570465, -0.046597860753536224, 0.097072072327137, 0.15306337177753448, 0.21614918112754822, 0.011476037092506886, -0.11864358931779861, -0.15166327357292175, 0.09667812287807465, 0.16010567545890808, 0.16760967671871185, 0.06355728954076767, -0.054386138916015625, -0.1053512692451477, -0.25067293643951416, -0.24001187086105347, 0.040024641901254654, 0.10352906584739685, 0.1121288314461708, 0.02201080322265625, -0.12909778952598572, 0.0071029262617230415, -0.03330535441637039, 0.15128955245018005, 0.06471981108188629, -0.043234627693891525, -0.26977187395095825, 0.00015929841902107, -0.04586818441748619, 0.06365759670734406, 0.18671616911888123, 0.20260268449783325, 0.21497823297977448, 0.050501640886068344, 0.013477222062647343, 0.12263664603233337, -0.01793237216770649, 0.0731566995382309, 0.12248449772596359, 0.205799862742424, 0.14109186828136444, -0.3630817234516144, 0.1607835292816162, -0.08790580928325653, 0.11739130318164825, 0.20707961916923523, 0.1347218006849289, -0.002962757833302021, 0.049073245376348495, 0.07560846209526062, 0.18589045107364655, -0.21113550662994385, 0.11001948267221451, 0.12480825930833817, -0.17082205414772034, 0.058343805372714996, 0.11680632084608078, 0.01023599412292242, 0.056509364396333694, 0.10295706242322922, 0.11342786252498627, -0.002331998897716403, -0.03153960406780243, -0.18043838441371918, 0.03277982398867607, 0.10638885945081711, 0.15914037823677063, 0.1329186111688614, -0.12895449995994568, 0.1740647852420807, -0.07115724682807922, 0.00549660250544548, -0.09166064858436584, -0.12402451038360596, 0.20906400680541992, 0.012472874484956264, 0.05490114912390709, 0.19788587093353271, -0.11735114455223083, -0.1293032020330429, -0.07640083879232407, -0.006316931452602148, -0.03037933073937893, -0.2684619128704071, -0.17892679572105408, 0.039913807064294815, 0.027412405237555504, -0.12317617237567902, 0.09157519042491913, 0.17632131278514862, 0.01595272868871689, 0.14672063291072845, -0.1198178231716156, -0.2205260545015335, -0.04221682250499725, 0.15377281606197357, 0.11525864899158478, 0.04894905537366867, -0.1411501169204712, -0.021968690678477287, -0.025062784552574158, -0.09886709600687027, 0.09666237980127335, 0.04576006159186363, -0.1316433697938919, -0.008653453551232815, -0.062713123857975, -0.2630583345890045, -0.018243053928017616, -0.06798122823238373, 0.019769897684454918, 0.11971171200275421, -0.01918814890086651, -0.07481333613395691, -0.10254797339439392, 0.04261292144656181, 0.16962109506130219, -0.061011023819446564, -0.06508518755435944, 0.04257989302277565, 0.03110727295279503, 0.05795906111598015, -0.0211824718862772, 0.14775775372982025, 0.05375548452138901, -0.11357107758522034, -0.07476945221424103, -0.4042884111404419, 0.09377143532037735, -0.14905428886413574, 0.058495692908763885, 0.032423634082078934, 0.010135841555893421, -0.1104767769575119, 0.1480346918106079, -0.06496500223875046, -0.34313005208969116, -0.14732833206653595, 0.057527702301740646, -0.06542401760816574, -0.07399095594882965, 0.07774293422698975, -0.022843381389975548, 0.09304384142160416, -0.0656653642654419, -0.1062256246805191, 0.1007368415594101, -0.06941048055887222, 0.1891857534646988, 0.11723974347114563, 0.1270972192287445, -0.3380436599254608, 0.10587494820356369, 0.03290024399757385, -0.18357998132705688, 0.034217461943626404, -0.038782380521297455, 0.19754472374916077, -0.008182390592992306, 0.17926236987113953, -0.013482840731739998, 0.162313312292099, -0.08519522845745087, -0.22480939328670502, -0.09966164082288742, 0.12105228006839752, -0.06882264465093613, 0.0711497887969017, 0.0489518865942955, 0.177504763007164, -0.06092208996415138, 0.029648935422301292, 0.042144447565078735, -0.19187340140342712, 0.03471529483795166, 0.47043150663375854, 0.145807683467865, -0.027667110785841942, -0.06916569173336029, -0.09814804047346115, -0.06400582194328308, 0.0550561286509037, -0.09809301048517227, -0.03239678964018822, 0.04035843908786774, -0.06035836786031723, 0.1010497435927391, 0.01718508079648018, -0.1735919713973999, -0.089323028922081, -0.03284955769777298, 0.039033424109220505, -0.008932807482779026, 0.21058259904384613, -0.1000935360789299, -0.23459099233150482, 0.14521998167037964, -0.01102070789784193, -0.14204947650432587, 0.060276009142398834, -0.01543477363884449, -0.14257225394248962, 0.10159752517938614, 0.23661628365516663, -0.14882329106330872, 0.06145157665014267, 0.041576072573661804, 0.20946267247200012, -0.02762363664805889, -0.03680475801229477, -0.04484616592526436, 0.09416221082210541, -0.02218277007341385, 0.02670019119977951, -0.04844411462545395, -0.2963975667953491, 0.09461041539907455, -0.07661721855401993, 0.26154813170433044, 0.1755625605583191, 0.09014911949634552, -0.07435742765665054, -0.1802060306072235, -0.29093030095100403, -0.08502545207738876, 0.10791315883398056, 0.06442888081073761, 0.05891290679574013, 0.12325179576873779, -0.07495254278182983, 0.19531163573265076, 0.03397611901164055, -0.17920953035354614, 0.18177290260791779, -0.14543123543262482, 0.05345980077981949, 0.09890521317720413, -0.12266390770673752, -0.09395304322242737, -0.06662563979625702, 0.014683764427900314, 0.03087705560028553, 0.04376867413520813, 0.00030585110653191805, -0.14575886726379395, -0.02472664974629879, 0.14419975876808167, -0.14784620702266693, -0.11863686144351959, -0.08680616319179535, -0.3523097336292267, -0.24003536999225616, -0.06236761808395386, -0.0768594890832901, -0.0880761370062828, -0.01650383695960045, 0.02713392861187458, 0.03218047693371773, 0.04229271411895752, -0.18379990756511688, 0.11889763921499252, 0.07201937586069107, 0.02800225280225277, 0.1284778118133545, -0.208647221326828, 0.12637518346309662, 0.32180893421173096, 0.110321044921875, 0.0029230578802525997, 0.024108679965138435, -0.11508625745773315, -0.0683661699295044, 0.0008918937528505921, -0.09449449926614761, -0.05199531465768814, 0.07733938843011856, 0.02030903846025467, -0.20781441032886505, 0.0433654747903347, -0.16405868530273438, -0.16581283509731293, 0.25017836689949036, 0.011618442833423615, -0.07929101586341858, 0.0704096108675003, -0.23696520924568176, -0.02683406136929989, 0.050731755793094635, 0.01318045612424612, 0.0242836344987154, 0.0010984905529767275, 0.029355954378843307, 0.03360716626048088, -0.21469180285930634, 0.06733886897563934, -0.02227495051920414, -0.09195887297391891, 0.002961698453873396, -0.24555526673793793, -0.14412830770015717, -0.10927264392375946, -0.02314501255750656, -0.03522638604044914, 0.06689394265413284, 0.15227751433849335, -0.13489769399166107, -0.24232365190982819, 0.010686454363167286, -0.055453214794397354, 0.006884395144879818, 0.06912753731012344, 0.011359726078808308, 0.10006814450025558, 0.1345207393169403, 0.006388035137206316, 0.04409140348434448, 0.20540335774421692, 0.013754650950431824, -0.3983168303966522, -0.4817821979522705, -0.18616466224193573, 0.1634705513715744, 0.1929844319820404, 0.26806336641311646, 0.30483880639076233, -0.07263648509979248, 0.028657950460910797, 0.04244954138994217, 0.006091068033128977, 0.021046258509159088, -0.20078130066394806, -0.11080970615148544, -0.04473220556974411, 0.060174793004989624, 0.21443869173526764, -0.16526120901107788, -0.07613319158554077, -0.1790226846933365, 0.11489299684762955, -0.11218276619911194, 0.04230593144893646, 0.15915492177009583, -0.2626638114452362, -0.061472419649362564, -0.01971074752509594, 0.022187339141964912, 0.03766890987753868, 0.12039437890052795, -0.1961912363767624, -0.33550864458084106, -0.04961548000574112, -0.24300096929073334, -0.11748828738927841, 0.17140711843967438, 0.2977428734302521, 0.11653614789247513, -0.06656774878501892, 0.044475018978118896, -0.16704954206943512, -0.04889136925339699, 0.008702759630978107, -0.06440220028162003, 0.09483601897954941, -0.09795297682285309, 0.08319356292486191, 0.04784893989562988, 0.014827374368906021, -0.09408668428659439, 0.05881485715508461, 0.09374772757291794, -0.004433289635926485, -0.038123976439237595, 0.02023191750049591, 0.05259218439459801, -0.06974764913320541, -0.016812598332762718, 0.7113532423973083, 0.2925225794315338, 0.42703577876091003, -0.6192276477813721, -0.43741583824157715, 0.25755250453948975, 0.12296758592128754, 0.10594242811203003, 0.09114065021276474, 0.15702593326568604, -0.6362454891204834, 0.2907271385192871, -0.034258220344781876, -0.7076820135116577, 0.11230652779340744, -0.39047425985336304, -0.1288250833749771, -0.23916999995708466, 0.06382986158132553, -0.29344871640205383, 0.017900502309203148, 0.10427669435739517, 0.005343584809452295, -0.26026391983032227, -0.14394189417362213, 0.1614241898059845, -0.2500859498977661, -0.11730083078145981, -0.05683496966958046, -0.0678248256444931, -0.04772631451487541, -0.13985037803649902, -0.31593698263168335, -0.10723913460969925, 0.050215817987918854, -0.2635558247566223, -0.00928205531090498, -0.01429198868572712, 0.31197670102119446, -0.18413391709327698, -0.09599798172712326, -0.12669020891189575, -0.1328662782907486, 0.09425121545791626, -0.11970098316669464, 0.19012778997421265, 0.13234619796276093, 0.17859381437301636, -0.03867475688457489, 0.12031369656324387, -0.21312981843948364, -0.05600437521934509, 0.1314285844564438, -0.2816455066204071, -0.4167974889278412, 0.20829568803310394, 0.08124460279941559, -0.10993321239948273, 0.056873150169849396, -0.06959943473339081, 0.2874066233634949, 0.01382162980735302, 0.015594535507261753, 0.4151419699192047, -0.15405315160751343, -0.0030068017076700926, -0.2352125197649002, 0.3197699189186096, 0.20053589344024658, 0.33722221851348877, 0.12722796201705933, 0.17272323369979858, -0.2877363860607147, -0.27181974053382874, 0.21002332866191864, -0.16047599911689758, 0.031107371672987938, 0.21841317415237427, 0.23848584294319153, -0.33659419417381287, 0.2027200609445572, -0.02716592140495777, -0.19274047017097473, 0.2508872151374817, 0.11143101751804352, -0.16360358893871307, -0.10192471742630005, -0.22676508128643036, 0.09091249108314514, 0.39073842763900757, 0.11532321572303772, 0.17294999957084656, -0.08393212407827377, -0.2588699460029602, -0.30618414282798767, -0.3310575485229492, -0.13816867768764496, 0.26578041911125183, 0.04329228028655052, 0.11875297874212265, 0.03121316060423851, 0.25568488240242004, 0.0034447109792381525, -0.09520626813173294, 0.12330702692270279, 0.20731419324874878, -0.1822102814912796, 0.15364407002925873, 0.004036831669509411, 0.06894101202487946, -0.2806369364261627, -0.1428736299276352, -0.2508832514286041, -0.22565563023090363, -0.2090490311384201, -0.03903797268867493, -0.16036294400691986, -0.22016479074954987, 0.19072891771793365, -0.0043152328580617905, -0.2970826029777527, 0.011977273970842361, 0.11747435480356216, 0.025590332224965096, 0.13113893568515778, 0.13874410092830658, 0.13729986548423767, -0.21594373881816864, 0.10196459293365479, 0.3305380940437317, -0.12989917397499084, 0.049772292375564575, 0.24436384439468384, 0.04325057193636894, -0.17437279224395752, 0.25519824028015137, -0.030729755759239197, -0.021702511236071587, 0.05706419423222542, 0.14979462325572968, -0.06915553659200668, 0.0008313693106174469, 0.2110738754272461, -0.042891860008239746, -0.3099701404571533, 0.006550865713506937, -0.011883072555065155, -0.05911482498049736, 0.1762644499540329, 0.04801464453339577, -0.1693333238363266, -0.16202735900878906, 0.05399251729249954, -0.10173643380403519, -0.005590664688497782, -0.10090073198080063, 0.11390920728445053, 0.3987412452697754, 0.14416638016700745, 0.15801504254341125, 0.1033778265118599, 0.27435463666915894, 0.08634623885154724, 0.2558594048023224, 0.0179036445915699, 0.2649851441383362, -0.3433389663696289, 0.22681491076946259, -0.3408854901790619, -0.31542858481407166, 0.20071899890899658, -0.1340794861316681, 0.12949393689632416, -0.14540912210941315, 0.5033431053161621, -0.05304607003927231, -0.059716321527957916, 0.25704360008239746, -0.15717749297618866, -0.18597157299518585, -0.20018823444843292, 0.18515799939632416, 0.15928785502910614, -0.2067217230796814, 0.22213596105575562, -0.06994301080703735, -0.12332265079021454, 0.10112888365983963, -0.06420958787202835, 0.09069542586803436, 0.13128761947155, -0.09005431830883026, 0.12933343648910522, 0.1665099710226059, -0.16386857628822327, -0.12369430065155029, -0.02059505507349968, -0.050635598599910736, -0.01940654218196869, 0.043970901519060135, -0.18181267380714417, 0.02873510681092739, 0.27482959628105164, 0.2367659956216812, -0.13100892305374146, 0.22419746220111847, -0.12727630138397217, -0.13204799592494965, 0.13466592133045197, 0.21537382900714874, 0.10726405680179596, 0.36378705501556396, 0.005380093120038509, 0.15045006573200226, -0.2788463532924652, 0.0997214987874031, 0.26443272829055786, 0.046389225870370865, -0.0997074544429779, 0.06918191909790039, -0.16987626254558563, 0.16962173581123352, 0.08566536754369736, 0.04548802971839905, -0.052983131259679794, 0.04894258826971054, 0.19260163605213165, 0.3260403573513031, -0.010181537829339504, 0.045334406197071075, -0.08752855658531189, 0.0366356186568737, 0.08067303895950317, 0.21794746816158295, 0.1384570598602295, -0.1312904953956604, -0.03153280168771744, -0.22957684099674225, -0.05111439526081085, 0.18729905784130096, 0.2347879558801651, 0.03346403315663338, 0.09862425923347473, 0.10901587456464767, -0.23868583142757416, -0.07675036787986755, -0.05796094983816147, 0.13364391028881073, -0.12467257678508759, 0.02674814872443676, -0.1329781860113144, 0.08508805930614471, 0.15838973224163055, 0.049150269478559494, 0.06718283146619797, 0.15456855297088623, 0.08808949589729309, 0.31390824913978577, -0.03547820821404457, 0.008287007920444012, 0.022895686328411102, -0.06435460597276688, 0.21227894723415375, -0.08483803272247314, -0.27640748023986816, 0.11723215132951736, -0.1575656235218048, -0.04150807484984398, 0.3551340699195862, -0.0949629470705986, 0.13194173574447632, -0.037844590842723846, -0.15294383466243744, -0.0712844505906105, 0.06446712464094162, 0.014308733865618706, 0.02136293612420559, 0.013171232305467129, -0.025320276618003845, 0.04169486463069916, -0.04700538516044617, 0.11225274950265884, 0.06218985468149185, 0.010919489897787571, 0.01671641878783703, -0.09087735414505005, -0.04790034517645836, 0.07085700333118439, -0.09741277992725372, -0.09525779634714127, -0.13741275668144226, -0.057985108345746994, -0.05519891157746315, -0.26967132091522217, -0.09285353869199753, 0.26465901732444763, -0.17129439115524292, 0.10800845175981522, 0.018580591306090355, 0.10548717528581619, 0.1904740333557129, 0.3716084957122803, -0.6644628643989563, 0.04954281821846962, 0.009570962749421597, -0.09045864641666412, 0.25972357392311096, 0.2947811484336853, 0.1979006677865982, 0.08075729012489319, 0.1694350391626358, 0.10572762042284012, 0.15242114663124084, -0.09705382585525513, 0.11469455063343048, 0.12369529157876968, -0.09575697779655457, 0.20858697593212128, 0.17019017040729523, 0.0968751311302185, -0.35928747057914734, -0.00034945906372740865, 0.0011957960668951273, 0.013021848164498806, -0.013028927147388458, 0.06050823628902435, 0.22203953564167023, 0.14540214836597443, 0.04249361529946327, -0.3859198987483978, -0.19783100485801697, -0.08205464482307434, 0.004025538917630911, -0.22186997532844543, 0.11694005876779556, -0.1428457498550415, -0.0708480104804039, 0.04804741218686104, 0.09246038645505905, 0.023034295067191124, 0.18922288715839386, 0.12218542397022247, 0.12688887119293213, -0.1413574069738388, 0.002636480377987027, -0.06517549604177475, 0.21899855136871338, -0.08417920023202896, 0.1375623494386673, -0.07334288209676743, 0.023676173761487007, 0.18441136181354523, -0.14840196073055267, 0.07945448160171509, -0.21819144487380981, 0.16341347992420197, 0.09178485721349716, -0.17451919615268707, -0.34102675318717957, -0.10892101377248764, -0.05880061164498329, 0.2752387821674347, 0.0342489629983902, -0.2027270793914795, -0.04288366436958313, -0.08298753201961517, -0.023256495594978333, -0.15477950870990753, 0.1515524983406067, -0.16036833822727203, -0.22885014116764069, -0.04403971880674362, -0.11595461517572403, -0.2010442465543747, -0.06836795806884766, 0.06324245035648346, 0.0816272497177124, -0.13443714380264282, 0.23920714855194092, -0.14223982393741608, -0.04209071770310402, -0.21122734248638153, -0.19991447031497955, -0.07541929185390472, -0.14272944629192352, -0.09619291126728058, 0.0037993798032402992, 0.05618187040090561, 0.07097626477479935, 0.11725630611181259, 0.028022628277540207, 0.2019834816455841, 0.05409420281648636, -0.11508685350418091, -0.0444471538066864, -0.041791971772909164, 0.16552802920341492, -0.06923455744981766, -0.25239071249961853, -0.025076044723391533, 0.04159172624349594, -0.02732737921178341, -0.06837216019630432, -0.18610164523124695, -0.24186941981315613, -0.21725872159004211, 0.14018671214580536, -0.12212491780519485, 0.21734818816184998, -0.19528035819530487, -0.04689731448888779, 0.0819321945309639, -0.08771899342536926, 0.06882071495056152, 0.1599704921245575, 0.27363213896751404, -0.11644991487264633, 0.013508354313671589, 0.11770585179328918, 0.03263550251722336, -0.16810859739780426, 0.017455922439694405, 0.06922263652086258, 0.23504117131233215, -0.032715559005737305, 0.08554594963788986, -0.27589908242225647, 0.1763210892677307, 0.2338050901889801, -0.17681506276130676, 0.048946235328912735, -0.04224960133433342, 0.09130731225013733, -0.15556137263774872, 0.12159024178981781, 0.06565487384796143, 0.0020427717827260494, -0.4904979169368744, 0.474452942609787, 0.15531279146671295, 0.04525454342365265, -0.044393379241228104, -0.10439670085906982, 0.23795157670974731, 0.2271556258201599, -0.04244070127606392, 0.13571880757808685, 0.057617951184511185, 0.04599248617887497, 0.26197800040245056, 0.12394067645072937, -0.09433801472187042, 0.09194345027208328, -0.031698547303676605, -0.02832730859518051, -0.041308943182229996, 0.03969939798116684, -0.05884811282157898, -0.007298809476196766, -0.5503080487251282, -0.061625368893146515, 0.10536356270313263, 0.13841307163238525, 0.24319593608379364, -0.007015943992882967, -0.19793611764907837, 0.058113422244787216, -0.09722744673490524, -0.019853441044688225, 0.05723390355706215, 0.013650724664330482, 0.048516545444726944, 0.01812850683927536, -0.09573252499103546, 0.16592048108577728, -0.21692103147506714, 0.02073083631694317, 0.18931405246257782, -0.12815946340560913, 0.1434689164161682, 0.051605112850666046, 0.14252044260501862, -0.053069986402988434, -0.06533205509185791, 0.09269647300243378, -0.02264924719929695, 0.22932052612304688, 0.17533467710018158, 0.052240386605262756, -0.18074171245098114, 0.25626662373542786, 0.0814352035522461, 0.3949280083179474, 0.15209385752677917, 0.096733458340168, 0.2926778495311737, -0.07196442037820816, -0.1840311586856842, 0.09208278357982635, 0.05281524360179901, -0.03597637265920639, 0.08757415413856506, -0.14852400124073029, -0.1151357889175415, -0.07747315615415573, 0.09193726629018784, 0.1353314369916916, -0.11367102712392807, -0.08446434885263443, 0.01572434790432453, -0.0966096967458725, -0.012491203844547272, 0.054530851542949677, -0.06694760918617249, -0.15674574673175812, 0.013563086278736591, -0.15848153829574585, 0.019994009286165237, 0.043385524302721024, 0.04292718693614006, 0.2281423956155777, -0.05797109007835388, 0.1317809820175171, -0.24129639565944672, -0.1305284947156906, 0.24904513359069824, -0.1461135596036911, 0.16166222095489502, -0.29048728942871094, -0.10583989322185516, -0.1798287332057953, -0.09464089572429657, -0.45854195952415466, 0.0402236245572567, -0.012745779007673264, 0.05253450572490692, -0.10437693446874619, 0.14691168069839478, -0.019388966262340546, -0.0709681361913681, -0.08155009150505066, 0.057696983218193054, 0.07148179411888123, -0.26635995507240295, -0.042818013578653336, 0.03080858662724495, 0.20833343267440796, -0.17903609573841095, -0.1345723569393158, -0.20392262935638428, 0.39038512110710144, -0.03173229098320007, 0.1089971587061882, -0.19047294557094574, 0.058679550886154175, 0.14375069737434387, 0.3413085341453552, -0.09896411001682281, 0.21842171251773834, 0.09114919602870941, -0.01885417476296425, 0.05343224108219147, 0.4813080430030823, 0.03627488389611244, 0.19791480898857117, 0.03302035853266716, -0.18724271655082703, -0.02773200534284115, -0.19467201828956604, 0.008851365186274052, -0.08816756308078766, 0.3734312057495117, -0.019984453916549683, 0.036282699555158615, 0.2670336663722992, 0.06137765571475029, 0.015227224677801132, -0.07971297204494476, 0.14822961390018463, 0.5616937279701233, -0.17327216267585754, -0.06471528112888336, -0.30023881793022156, -0.22016389667987823, -0.19299282133579254, -0.1511664241552353, 0.08586683124303818, -0.05913248285651207, -0.09007950127124786, -0.22671812772750854, -0.2511623799800873, 0.15468548238277435, 0.10932481288909912, 0.4191206991672516, -0.07653360068798065, 0.05149674415588379, 0.10598204284906387, -0.2949160933494568, -0.09103809297084808, -0.06830389052629471, -0.10722666233778, 0.034423694014549255, -0.026722854003310204, -0.21781037747859955, 0.17958974838256836, -0.18575195968151093, 0.12465043365955353, 0.08627860993146896, 0.05994150787591934, -0.16231589019298553, 0.07183849811553955, -0.11091531068086624, 