{"version": "0.5.2", "metadata": {"date": {"year": 2024, "month": 4, "day": 12, "hour": 12, "minute": 0, "second": 14}, "loudness": -15.18212890625, "gain": 0.7951728771040362}, "architecture": "WaveNet", "config": {"layers": [{"input_size": 1, "condition_size": 1, "head_size": 8, "channels": 16, "kernel_size": 3, "dilations": [1, 2, 4, 8, 16, 32, 64, 128, 256, 512], "activation": "Tanh", "gated": false, "head_bias": false}, {"input_size": 16, "condition_size": 1, "head_size": 1, "channels": 8, "kernel_size": 3, "dilations": [1, 2, 4, 8, 16, 32, 64, 128, 256, 512], "activation": "Tanh", "gated": false, "head_bias": true}], "head": null, "head_scale": 0.02}, "weights": [-0.23530682921409607, 0.5393600463867188, -0.8180868625640869, -0.7983601689338684, -0.3833029866218567, 0.2368873953819275, -0.04912593215703964, 0.7550504207611084, -0.14943721890449524, 0.2442934513092041, -0.4175930917263031, -0.27751344442367554, -1.0025289058685303, -0.6846643686294556, -0.45683813095092773, 0.00035927098360843956, 0.20359742641448975, 0.11891528218984604, -0.19619138538837433, -0.18602962791919708, 0.005664507858455181, 0.18353663384914398, 0.09080435335636139, 0.15539710223674774, -0.08458074927330017, 0.13620330393314362, 0.1767742931842804, -0.19791781902313232, 0.03238567337393761, 0.01387672871351242, -0.11417218297719955, 0.0073694707825779915, -0.13665439188480377, -0.0010183630511164665, 0.009680857881903648, -0.10535439848899841, -0.1652033030986786, 0.0048700482584536076, 0.017745187506079674, 0.13095785677433014, 0.12429817765951157, -0.031230829656124115, -0.04462214559316635, -0.2541206181049347, -0.15080773830413818, -0.012432524003088474, 0.2127450555562973, 0.1304558962583542, -0.1302611529827118, 0.11541717499494553, 0.1413160115480423, 0.08322936296463013, 0.1780809909105301, 0.06619445979595184, 0.03391804173588753, 0.03613119572401047, 0.07398198544979095, -0.17401832342147827, 0.021628303453326225, -0.026144247502088547, 0.00462432112544775, 0.023171978071331978, -0.10437001287937164, 0.05588211119174957, 0.017057452350854874, -0.025375274941325188, 0.04575357586145401, 0.053566377609968185, 0.06308984756469727, 0.07013632357120514, -0.13126590847969055, -0.02664976194500923, 0.12557309865951538, 0.09969905018806458, 0.15226733684539795, 0.19665907323360443, 0.009514725767076015, -0.09819091111421585, 0.0829477459192276, -0.0700160339474678, -0.1601186990737915, 0.06093341112136841, 0.08110836148262024, -0.12820333242416382, 0.07730966806411743, -0.006322117522358894, -0.05151890963315964, -0.13597747683525085, 0.03158615902066231, -0.06298433244228363, 0.11659309267997742, 0.09086890518665314, 0.07510682195425034, -0.016218610107898712, -0.1647559255361557, -0.068456269800663, 0.13986054062843323, 0.007115140091627836, -0.08967655152082443, -0.018239300698041916, 0.11632947623729706, 0.12438356876373291, 0.00707375630736351, -0.05485828220844269, -0.10970157384872437, 0.06765887886285782, -0.12915156781673431, -0.0853055790066719, 0.06056274101138115, 0.0048412117175757885, -0.09446147829294205, 0.017008405178785324, -0.10432962328195572, 0.18210841715335846, 0.24862128496170044, -0.05222427099943161, -0.015176820568740368, -0.09517259150743484, -0.04756178706884384, 0.013215870596468449, 0.15618161857128143, -0.05960883945226669, -0.09045730531215668, 0.1709023416042328, -0.20507612824440002, -0.10434651374816895, 0.06617756187915802, -0.0019466368248686194, -0.02951151691377163, -0.21567854285240173, -0.10093792527914047, 0.023627474904060364, 0.05163504555821419, 0.060049090534448624, 0.12276677787303925, -0.1174236536026001, -0.05567571893334389, -0.021526804193854332, 0.14831851422786713, 0.15497443079948425, 0.15371105074882507, -0.008938460610806942, 0.07014225423336029, -0.027323314920067787, -0.02029973641037941, -0.1328233927488327, 0.08281043916940689, 0.1082792654633522, -0.13924658298492432, -0.13026326894760132, -0.03377445042133331, -0.1885850876569748, -0.04748934507369995, 0.18396687507629395, 0.010266811586916447, -0.15846140682697296, 0.19421811401844025, -0.11799724400043488, -0.02113783173263073, -0.04465309903025627, -0.08521518856287003, -0.06802115589380264, -0.1630764603614807, -0.06254199892282486, 0.018781261518597603, 0.03101404756307602, -0.12879584729671478, 0.010651668533682823, -0.15967576205730438, -0.07301370054483414, 0.08380910754203796, -0.08819965273141861, 0.06391195207834244, 0.005373649764806032, -0.16327348351478577, 0.15131889283657074, 0.023425614461302757, -0.037811681628227234, 0.051097411662340164, -0.16263233125209808, -0.02060568518936634, 0.03348556533455849, 0.14726950228214264, 0.07059609889984131, 0.0038066976703703403, 0.005113624036312103, -0.06557942926883698, 0.03578172251582146, -0.07260134816169739, 0.11050326377153397, 0.04986654967069626, 0.05413667485117912, -0.13214540481567383, -0.05805337801575661, -0.14749497175216675, -0.11138942092657089, -0.14777213335037231, 0.005414123646914959, -0.11580963432788849, -0.06803453713655472, -0.03884907439351082, 0.06198950856924057, -0.1740780472755432, -0.14458297193050385, -0.1150691881775856, 0.1446525603532791, -0.04002189636230469, 0.10970886796712875, -0.0817369893193245, -0.010141028091311455, 0.09570452570915222, 0.15406164526939392, 0.10776331275701523, -0.0926065668463707, -0.17946654558181763, -0.06918603926897049, -0.05291984602808952, -0.2557106614112854, 0.028619591146707535, -0.056050606071949005, -0.1924937665462494, 0.051193151623010635, 0.10790862143039703, 0.1789221465587616, -0.04270031675696373, 0.006172264460474253, -0.2641468644142151, -0.10270290076732635, 0.04094701260328293, 0.15813285112380981, 0.0900472030043602, 0.05973868444561958, -0.15496622025966644, 0.04968087375164032, 0.16022324562072754, 0.08950784057378769, 0.15423928201198578, -0.1603342592716217, -0.24044299125671387, -0.04376766085624695, 0.11178185045719147, -0.0682508647441864, -0.13223424553871155, 0.06326139718294144, -0.10509593039751053, -0.22760532796382904, 0.16437458992004395, -0.30036836862564087, -0.08698517084121704, 0.03524092212319374, -0.2554904520511627, -0.06925193220376968, 0.17927730083465576, 0.017352821305394173, -0.062134578824043274, -0.06535559892654419, -0.06343599408864975, 0.13845758140087128, 0.14941008388996124, -0.09515271335840225, -0.06703448295593262, -0.03292889520525932, 0.07407867163419724, 0.09244363009929657, 0.16281406581401825, -0.04973766580224037, -0.05720384418964386, 0.15733389556407928, 0.11766039580106735, 0.02176017314195633, 0.043278101831674576, -0.06330602616071701, -0.11918751150369644, -0.07779279351234436, -0.08726299554109573, -0.1288938969373703, 0.2951376438140869, -0.08928412199020386, 0.0015183122595772147, -0.0703212097287178, 0.013761699199676514, -0.10091576725244522, 0.017220228910446167, 0.11659267544746399, 0.04095790535211563, 0.012636000290513039, -0.045374710112810135, 0.02973216027021408, 0.09077242761850357, -0.00019055043230764568, -0.09943275153636932, 0.16980291903018951, 0.044375941157341, -0.020212113857269287, 0.07983684539794922, -0.09126725047826767, 0.08315985649824142, 0.00725525850430131, 0.058052908629179, -0.06525787711143494, 0.045554909855127335, 0.03778159245848656, -0.05398855730891228, 0.059082772582769394, -0.07980150729417801, -0.10619109869003296, 0.1778653860092163, 0.16120651364326477, 0.09030046314001083, -0.11050306260585785, -0.2158726155757904, -0.056679144501686096, 0.13784027099609375, -0.1498623937368393, 0.022171644493937492, 0.18715783953666687, -0.17452451586723328, -0.0347861722111702, 0.14565305411815643, 0.10600486397743225, 0.04257553443312645, -0.07238821685314178, -0.20044249296188354, -0.00440757442265749, 0.20806768536567688, 0.2260107696056366, 0.11810870468616486, -0.06781502813100815, -0.021161679178476334, -0.09522117674350739, -0.020482109859585762, -0.029806863516569138, 0.17577387392520905, 0.002606820547953248, -0.19647052884101868, 0.025276603177189827, 0.2040836364030838, 0.0484047494828701, 0.0916169211268425, 0.19919316470623016, -0.12998579442501068, -0.08374655991792679, 0.20831596851348877, -0.01611340045928955, -0.11984556913375854, 0.2193593680858612, -0.028126589953899384, 0.043994780629873276, -0.0026719265151768923, 0.05149279162287712, -0.05621347948908806, 0.08375154435634613, -0.032381776720285416, 0.011514502577483654, 0.08993882685899734, 0.07039584219455719, 0.035807494074106216, 0.0992291197180748, -0.10797180980443954, -0.05287570133805275, -0.13048119843006134, -0.14830301702022552, -0.20084944367408752, 0.08190927654504776, 0.07124565541744232, 0.049473837018013, 0.08216818422079086, -0.12269704043865204, -0.018287526443600655, 0.0064387540332973, -0.06982267647981644, 0.03269440308213234, -0.13866519927978516, -0.06519591808319092, -0.05580449849367142, -0.04756573215126991, 0.1253567636013031, 0.04131967946887016, 0.07979219406843185, 0.1181866005063057, 0.21159446239471436, -0.0047451225109398365, 0.0609462596476078, 0.04400131106376648, 0.01840880885720253, 0.13847479224205017, -0.014141135849058628, 0.05594608932733536, -0.05716584250330925, -0.015918513759970665, -0.015608777292072773, -0.03976154327392578, -0.1656995266675949, -0.11407828330993652, -0.11565574258565903, 0.011283227242529392, 0.06868880987167358, -0.0014442703686654568, -0.07864467054605484, 0.09426838904619217, 0.0771787092089653, 0.08998247236013412, 0.1297759711742401, 0.2237703949213028, 0.08914095163345337, -0.21827374398708344, 0.04593833163380623, 0.074269138276577, 0.04918412119150162, -0.01081111654639244, -0.11511382460594177, 0.08356180042028427, 0.030742134898900986, -0.0293006282299757, -0.0003322655975352973, 0.04168250784277916, -0.007906285114586353, -0.13105767965316772, -0.08287009596824646, 0.11836079508066177, 0.1566815972328186, 0.0031121657229959965, 0.041521698236465454, -0.03420451655983925, -0.012125397101044655, -0.15553607046604156, 0.09568087756633759, -0.01821015775203705, -0.027649415656924248, -0.04795883968472481, -0.19466453790664673, 0.021497728303074837, 0.23432357609272003, -0.07702852040529251, -0.12747667729854584, 0.05644802376627922, -0.06056517735123634, -0.1445905864238739, 0.1750582903623581, -0.22277142107486725, -0.17162705957889557, -0.03426997736096382, -0.12150862067937851, 0.06239786744117737, -0.031776655465364456, 0.13468827307224274, -0.03295749053359032, 0.06568970531225204, -0.024088142439723015, -0.07117710262537003, 0.29213666915893555, 0.17617572844028473, 0.19022102653980255, -0.01290956325829029, -0.19248154759407043, 0.0704241469502449, 0.08714139461517334, -0.029228035360574722, -0.16463083028793335, 0.040926333516836166, -0.2419905960559845, -0.10918717831373215, 0.1078677624464035, -0.019699061289429665, 0.0908803641796112, -0.0062863887287676334, -0.07250376790761948, -0.12683159112930298, 0.0047734384424984455, 0.05411408469080925, 0.1144912987947464, 0.06346677243709564, -0.008125610649585724, -0.059112537652254105, 0.14282171428203583, -0.045064691454172134, -0.07305043935775757, -0.010630705393850803, -0.1787002831697464, 0.022058643400669098, -0.015513686463236809, -0.16641733050346375, -0.16710242629051208, 0.15924812853336334, -0.11191029101610184, 0.06152339652180672, 0.1695774495601654, -0.01935352012515068, -0.04585004970431328, 0.03614772856235504, -0.13039228320121765, -0.03232639655470848, 0.15100526809692383, -0.06293877959251404, 0.15347586572170258, 0.007761767599731684, -0.2453414350748062, -0.09907207638025284, 0.22776886820793152, 0.25030517578125, -0.05859067663550377, 0.09291703999042511, -0.04339400306344032, 0.007338748779147863, 0.123098224401474, -0.19499078392982483, -0.032663919031620026, 0.06131507828831673, -0.15775823593139648, -0.028431467711925507, -0.03872440755367279, 0.20701934397220612, 0.039600919932127, -0.05170386657118797, -0.0801573097705841, -0.018469080328941345, -0.057555392384529114, 0.1276882141828537, 0.16193249821662903, -0.012953388504683971, -0.0705895945429802, -0.11464692652225494, 0.05144188925623894, 0.010668250732123852, -0.0059921941719949245, -0.07225384563207626, 0.015420960262417793, -0.11662975698709488, 0.004764724988490343, -0.18554134666919708, 0.06288804858922958, 0.1394207924604416, -0.22472509741783142, -0.19474729895591736, -0.1076115071773529, -0.11674672365188599, -0.11457547545433044, -0.09306120872497559, -0.1678284853696823, -0.05144522711634636, -0.07500874996185303, 0.05557813122868538, 0.030027052387595177, 0.018464157357811928, 0.20116163790225983, 0.15038487315177917, -0.3116680085659027, -0.15172505378723145, -0.13731099665164948, 0.25393959879875183, 0.016117336228489876, -0.053537074476480484, 0.0372438058257103, 0.06311967968940735, 0.11158476769924164, -0.12130831927061081, 0.12381458282470703, 0.05356879532337189, -0.012619332410395145, -0.14403705298900604, -0.22172048687934875, 0.021505866199731827, 0.09568258374929428, 0.13288213312625885, -0.23572728037834167, -0.01496768370270729, -0.11543958634138107, 0.07847581058740616, 0.25291764736175537, 0.14471092820167542, 0.0005002091056667268, -0.06560877710580826, -0.12627016007900238, 0.008948010392487049, 0.1420893669128418, 0.20076903700828552, -0.16388586163520813, 0.021074749529361725, 0.14732354879379272, 0.035749685019254684, 0.11145927011966705, -0.036082908511161804, -0.2383922040462494, 0.1892242729663849, 0.07228782773017883, -0.18082532286643982, 0.18295666575431824, 0.14004924893379211, 0.009043463505804539, 0.10839536041021347, -0.0204990915954113, -0.10665383189916611, -0.14393386244773865, 0.15703430771827698, 0.12253832817077637, 0.07941514253616333, -0.12779024243354797, 0.10095090419054031, 0.11902199685573578, 0.13218176364898682, -0.08948326855897903, -0.07183845341205597, -0.09690013527870178, 0.16985464096069336, -0.07863424718379974, -0.06317392736673355, 0.10823018103837967, -0.04940037429332733, -0.07324835658073425, -0.04610942304134369, -0.041524674743413925, -0.12154243886470795, 0.1442347764968872, -0.0475037582218647, 0.04820704832673073, 0.09192457795143127, 0.05347803980112076, 0.022208765149116516, 0.15734070539474487, 0.03431788459420204, -0.07145877927541733, 0.10088978707790375, 0.01544898934662342, -0.13905808329582214, -0.008006520569324493, -0.1164635717868805, 0.1290442794561386, 0.009549341164529324, -0.14863882958889008, -0.006326786242425442, 0.1241326779127121, 0.02095733769237995, 0.048659034073352814, 0.04726891219615936, 0.035654664039611816, -0.03365037590265274, -0.0252529326826334, -0.15579868853092194, -0.15440011024475098, -0.0183925312012434, -0.1761888861656189, -0.041021157056093216, 0.03821911662817001, 0.04432095214724541, -0.07074915617704391, 0.14523223042488098, -0.11853717267513275, 0.09539961069822311, -0.12165374308824539, -0.06920729577541351, 0.05544993653893471, -0.0657968744635582, 0.08527962118387222, -0.12381234765052795, -0.12890547513961792, -0.03229714557528496, 0.045357637107372284, 0.1402159184217453, -0.10768280923366547, 0.019671406596899033, -0.05955631285905838, 0.0012628361582756042, 0.12789423763751984, -0.10515119880437851, -0.022657999768853188, 0.10811108350753784, -0.031331028789281845, 0.14558133482933044, -0.021873192861676216, 0.12330558151006699, -0.17645263671875, -0.04598766937851906, -0.033035632222890854, 0.0065602208487689495, 0.027080098167061806, 0.09873411804437637, -0.05588160455226898, -0.028439531102776527, 0.09298741072416306, -0.07321622222661972, 0.10365554690361023, -0.1030908152461052, -0.051933422684669495, -0.032730311155319214, 0.05612945556640625, 0.06374925374984741, -0.07190979272127151, -0.17736588418483734, 0.10531754791736603, 0.1801738291978836, 0.25535672903060913, -0.07931686192750931, 0.046680059283971786, -0.002072693780064583, 0.0030760772060602903, -0.09229589998722076, 0.23482081294059753, -0.11575751006603241, 0.07778652757406235, 0.15758147835731506, -0.07709625363349915, 0.09199130535125732, 0.003256280906498432, 0.04134320840239525, -0.13564322888851166, -0.14916342496871948, 0.02024845965206623, 0.1852736622095108, 0.09094691276550293, 0.10195016115903854, -0.06013078615069389, -0.20078131556510925, -0.12312796711921692, -0.07985910773277283, 0.2863987386226654, -0.027574503794312477, -0.03440282866358757, -0.09189191460609436, 0.09168359637260437, 0.17043007910251617, 0.258137971162796, -0.10991687327623367, 0.023000182583928108, 0.05153056979179382, -0.09137129038572311, 0.07798006385564804, 0.2704577147960663, -0.12432115525007248, 0.13085082173347473, 0.05989155173301697, -0.03653544932603836, 0.15757879614830017, 0.10182853043079376, 0.01210305280983448, -0.09921490401029587, 0.11296525597572327, 0.19901809096336365, -0.07597333937883377, -0.10813935846090317, -0.3307235836982727, -0.15951278805732727, 0.1919027715921402, 0.337472528219223, 0.0014151637442409992, -0.11597081273794174, 0.34768885374069214, 0.13801956176757812, -0.2606757879257202, 0.20854388177394867, -0.0019405862549319863, -0.29893600940704346, -0.22136755287647247, 0.0665704607963562, 0.3033474385738373, 0.21220876276493073, 0.04702010378241539, -0.27658531069755554, -0.11117926985025406, -0.10102371871471405, 0.0839637741446495, 0.23278991878032684, 0.1171501949429512, -0.3276303708553314, -0.0894969031214714, 0.009908401407301426, 0.08110619336366653, 0.19063915312290192, 0.16353105008602142, -0.3019990026950836, 0.1808159500360489, 0.09067752212285995, -0.3096412420272827, 0.30173808336257935, 0.11638063192367554, -0.09578854590654373, 0.13004231452941895, 0.18525832891464233, -0.2705318331718445, 0.3671376705169678, -0.09640534222126007, -0.31342610716819763, 0.0464688278734684, -0.05676969513297081, -0.057607706636190414, -0.09487760066986084, -0.08656951040029526, -0.07049383968114853, -0.12144138664007187, 0.039439767599105835, 0.06634442508220673, -0.009422024711966515, -0.04595266282558441, 0.09982235729694366, 0.12955482304096222, -0.026598364114761353, -0.0054334113374352455, -0.08490752428770065, -0.05122597515583038, -0.039500296115875244, -0.01985931769013405, 0.5063454508781433, -0.4976954460144043, 0.6961982250213623, -0.6717307567596436, -0.0555482879281044, 0.7872563004493713, 0.9062250256538391, -0.5454002022743225, 0.07506678253412247, 0.0389370396733284, -0.470497190952301, -0.2399219423532486, 0.2379409819841385, -0.6890666484832764, 0.031595200300216675, 0.6159093976020813, -0.4169767200946808, 0.24149557948112488, 0.07749543339014053, 0.1256662905216217, 0.4146130383014679, -0.07470374554395676, 0.23228850960731506, 0.15291324257850647, 0.08901562541723251, 0.06610669195652008, 0.1508740335702896, -0.14222635328769684, 0.04534861817955971, 0.03217116370797157, 0.41355741024017334, -0.8702079057693481, 0.13884592056274414, -0.08810638636350632, -0.2602839171886444, 0.018595024943351746, -0.09529559314250946, -0.10735044628381729, -0.16797757148742676, -0.052263956516981125, -0.08310708403587341, 0.0903751477599144, -0.04024171829223633, 0.11656226217746735, 0.08809586614370346, -0.0828823372721672, 0.051974888890981674, 0.5751093029975891, -0.049049608409404755, 0.03924468904733658, 0.06701450049877167, 0.19952616095542908, -0.02135353907942772, -0.11215833574533463, 0.15665413439273834, -0.07419461011886597, 0.07175642251968384, -0.05852380767464638, 0.2998339533805847, -0.2782069444656372, 0.13415327668190002, 0.22535035014152527, 0.13974438607692719, -0.3928403854370117, 0.2206147313117981, -0.1313435137271881, -0.04771144688129425, -0.13652843236923218, -0.06035289540886879, 0.07822167873382568, 0.010071627795696259, -0.057393722236156464, -0.23226377367973328, 0.016986802220344543, -0.022573068737983704, -0.018222857266664505, 0.14160844683647156, 0.22219061851501465, -0.20997117459774017, 0.14316657185554504, -0.16375164687633514, -0.2527335584163666, -0.16999389231204987, 0.16359727084636688, 0.19591133296489716, 0.14879484474658966, 0.1538650095462799, -0.1568627655506134, 0.08996757864952087, 0.2769438326358795, -0.1306399255990982, 0.22694507241249084, 0.012284502387046814, 0.12731730937957764, -0.07567184418439865, -0.14183887839317322, -0.21457481384277344, 0.01983053795993328, 0.07813329249620438, 0.0450788252055645, 0.19814370572566986, 0.22318808734416962, 0.2080877274274826, 0.09714990854263306, 0.1757289469242096, -0.04515984654426575, -0.243234783411026, -0.042693644762039185, -0.0056189121678471565, -0.1304323524236679, 0.16239693760871887, -0.015871640294790268, 0.18466590344905853, 0.08330859243869781, 0.15442365407943726, 0.14833468198776245, -0.31052467226982117, -0.24228182435035706, 0.03760739415884018, -0.03322015702724457, 0.01940547488629818, -0.34101158380508423, -0.2588522136211395, 0.22451446950435638, 0.21195343136787415, -0.17391052842140198, 0.02628508396446705, 0.3404683768749237, 0.13376329839229584, 0.1028752475976944, 0.27138277888298035, -0.21352051198482513, -0.20336616039276123, 0.15082255005836487, 0.2583705186843872, 0.11458304524421692, 0.1614174097776413, -0.18558190762996674, 0.1766325682401657, -0.19142168760299683, 0.07056131958961487, -0.151188924908638, 0.0029188371263444424, -0.17146170139312744, 0.037764810025691986, -0.005709058605134487, -0.340657502412796, -0.24331797659397125, -0.05977799370884895, -0.14276422560214996, -0.2634810209274292, -0.1076086089015007, -0.2908610999584198, -0.3145170211791992, 0.051463883370161057, 0.17374709248542786, 0.08291998505592346, -0.06210382655262947, -0.05609375238418579, 0.2649432420730591, -0.22188469767570496, 0.0999414473772049, 0.15490269660949707, -0.18819132447242737, -0.25832104682922363, -0.03300691395998001, 0.12720121443271637, -0.09609338641166687, 0.013555161654949188, 0.13297554850578308, 0.13579733669757843, 0.09753978252410889, 0.22287093102931976, 0.22002120316028595, -0.1727091372013092, -0.10288890451192856, 0.16266122460365295, 0.22055864334106445, -0.2802053987979889, 0.16792620718479156, -0.09983490407466888, -0.2535812556743622, 0.024159127846360207, -0.07953919470310211, 0.0140455923974514, -0.1904115080833435, -0.1521020531654358, -0.02923162467777729, -0.0835317000746727, 0.17502014338970184, -0.036450888961553574, 0.25959721207618713, -0.01151703204959631, -0.05260509252548218, 0.17244674265384674, -0.003049214370548725, 0.057661350816488266, -0.0853676125407219, -0.017311319708824158, 0.0230315700173378, 0.014519932679831982, -0.19631926715373993, 0.004788810852915049, -0.2196832001209259, -0.07743123173713684, 0.14284417033195496, -0.13120992481708527, -0.3061518371105194, -0.09293659776449203, -0.05836556851863861, 0.08637697994709015, 0.10487492382526398, 0.15373484790325165, -0.16071264445781708, 0.024377774447202682, 0.2107647806406021, 0.221991166472435, 0.0013983686221763492, -0.02701134793460369, 0.008520092815160751, 0.16605034470558167, -0.12554635107517242, -0.12202603369951248, -0.09379961341619492, 0.004535437561571598, -0.2339678257703781, -0.135914608836174, 0.11026283353567123, -0.10246147960424423, 0.17344611883163452, 0.19754642248153687, 0.05173768103122711, -0.035331714898347855, -0.09244123846292496, 0.013453800231218338, 0.032470110803842545, -0.17524224519729614, -0.04534221068024635, -0.2493203729391098, 0.2846793532371521, -0.1877528727054596, 0.25163733959198, -0.07373951375484467, -0.13002340495586395, 0.1321312040090561, 0.009696369990706444, 0.15567557513713837, 0.19449110329151154, -0.23669970035552979, 0.14773720502853394, 0.01788255386054516, -0.08170899748802185, 0.13596969842910767, 0.1954178363084793, -0.19471389055252075, -0.22089707851409912, 0.25502508878707886, 0.09518470615148544, 0.162237286567688, -0.06148196756839752, -0.1652909517288208, 0.17593954503536224, 0.051632896065711975, 0.16961437463760376, -0.13233406841754913, -0.19492597877979279, -0.048977211117744446, -0.2103365808725357, 0.09099924564361572, 0.19360670447349548, 0.0031028196681290865, 0.1946362555027008, 0.15363791584968567, -0.1505730301141739, 0.21997372806072235, -0.21681103110313416, -0.17793527245521545, -0.045620787888765335, 0.14843030273914337, 0.004042165819555521, 0.03887643292546272, -0.19371429085731506, 0.06343258172273636, -0.013924757950007915, 0.04665330797433853, 0.15524542331695557, 0.10315058380365372, -0.036516088992357254, 0.11418557912111282, -0.1298234760761261, -0.10615483671426773, 0.02752653695642948, -0.048634182661771774, 0.12716253101825714, 0.02013567090034485, -0.032276563346385956, -0.006261007860302925, -0.15438461303710938, -0.01578059233725071, -0.02991204895079136, -0.02516230382025242, -0.07441927492618561, 0.0648076981306076, 0.10323365777730942, -0.1317586749792099, 0.044441502541303635, -0.12891753017902374, -0.05268588662147522, 0.08295120298862457, -0.0038190751802176237, -0.06039418280124664, -0.12681907415390015, -0.08075480908155441, 0.10536473989486694, -0.08146429061889648, -0.1458050012588501, 0.009954835288226604, -0.11950056999921799, -0.12431572377681732, -0.01806396059691906, -0.0004243064031470567, -0.06308914721012115, -0.13288183510303497, -0.04422158747911453, -0.08689005672931671, -0.018634909763932228, -0.10033459961414337, -0.10158674418926239, 0.07465364784002304, -0.08144116401672363, -0.03861289098858833, 0.08983913064002991, 0.022712497040629387, 0.09013618528842926, -0.030429020524024963, -0.09380049258470535, 0.02048252709209919, -0.19456328451633453, 0.04933144897222519, -0.20988023281097412, 0.08636027574539185, 0.11805977672338486, -0.014946110546588898, -0.06116336211562157, 0.09290535002946854, -0.08306717872619629, 0.12751571834087372, -0.04794548451900482, 0.055746376514434814, -0.15016090869903564, 0.10458756238222122, -0.1860354095697403, -0.23836961388587952, -0.04106394946575165, 0.11574514210224152, -0.027459973469376564, -0.07148449122905731, 0.06524094194173813, -0.13068529963493347, 0.004017465282231569, -0.08366818726062775, 0.12439338117837906, -0.019795404747128487, 0.08500486612319946, 0.017451439052820206, -0.1385597586631775, 0.07790733873844147, 0.13771788775920868, -0.004888967610895634, -0.05102638900279999, -0.03972390294075012, 0.17175939679145813, -0.03877579793334007, -0.05262386053800583, -0.006174199283123016, 0.023604385554790497, 0.10952496528625488, 0.049858786165714264, 0.007493497338145971, -0.05342864245176315, -0.003949047531932592, -0.0907062515616417, 0.19142886996269226, -0.08931568264961243, -0.28560587763786316, -0.17130085825920105, -0.10761474072933197, 0.25069111585617065, 0.2029133290052414, -0.012821346521377563, -0.1321224719285965, -0.03344941511750221, -0.02945251576602459, 0.15753932297229767, -0.01422877423465252, -0.08331052213907242, 0.0876845046877861, -0.0319635272026062, 0.09583060443401337, -0.09757702797651291, 0.14702464640140533, 0.14702339470386505, 0.24749834835529327, -0.13457058370113373, -0.03705788031220436, -0.08125988394021988, -0.005568443797528744, 0.15190333127975464, 0.06500742584466934, -0.17990820109844208, -0.06857448816299438, -0.003974928520619869, 0.13961628079414368, -0.05546524375677109, -0.04704897105693817, -0.22763735055923462, 0.05917109549045563, 0.004897013306617737, -0.10633592307567596, 0.034272558987140656, 0.018391979858279228, -0.09783247113227844, -0.12279603630304337, -0.031985122710466385, -0.0916401818394661, 0.021846845746040344, -0.18982663750648499, -0.04091370850801468, 0.01262647844851017, 0.04320654645562172, 0.18627794086933136, 0.22359156608581543, -0.24837210774421692, 0.01617673598229885, 0.06483466178178787, 0.021553119644522667, 0.05775848403573036, 0.05203821882605553, -0.02021172270178795, -0.16314882040023804, -0.15953584015369415, 0.08682471513748169, 0.029456764459609985, -0.1404038518667221, -0.07099677622318268, -0.07542693614959717, -0.06507669389247894, -0.07411219924688339, 0.2744232714176178, 0.07064125686883926, 0.14956384897232056, 0.05252914875745773, 0.057532649487257004, -0.12372518330812454, 0.17955461144447327, 0.11420584470033646, 0.17589767277240753, -0.2775398790836334, 0.030076339840888977, 0.14601463079452515, -0.10251204669475555, 0.04578425735235214, 0.1598765105009079, -0.2520802319049835, -0.03520470857620239, -0.025395339354872704, 0.051393210887908936, 0.11808209121227264, 0.0416627936065197, 0.06023910641670227, -0.07505268603563309, 0.12120743095874786, -0.18103215098381042, -0.11580182611942291, -0.09933208674192429, -0.09244341403245926, 0.09594027698040009, 0.1623028814792633, 0.07280150800943375, 0.11037696897983551, -0.4133160710334778, 0.025480234995484352, 0.0437183603644371, 0.26200222969055176, 0.07900979369878769, -0.033385321497917175, -0.20072807371616364, 0.030722973868250847, -0.02284173108637333, -0.06740152090787888, 0.004158569499850273, 0.06979883462190628, -0.16096559166908264, -0.04764336347579956, -0.1335974633693695, -0.2288946807384491, 0.18703801929950714, -0.07387334853410721, 0.32012805342674255, -0.15882623195648193, 0.10105489939451218, -0.05693085864186287, 0.20194177329540253, 0.06909427791833878, 0.28192138671875, -0.06856650114059448, -0.0058785127475857735, -0.09802953898906708, -0.12056735903024673, -0.0012651929864659905, 0.2852499783039093, -0.18016114830970764, 0.02005765587091446, -0.2326127141714096, -0.005990754347294569, 0.11677395552396774, -0.20183204114437103, -0.20277364552021027, 0.11283423006534576, 0.1242770329117775, -0.027794072404503822, 0.06384242326021194, -0.07867854088544846, -0.2156452238559723, -0.08659522980451584, 0.25698769092559814, -0.06866578757762909, -0.08755376189947128, 0.006755606271326542, -0.1007026955485344, -0.07838214933872223, -0.13749687373638153, 0.1144375279545784, 0.07150006294250488, -0.028487708419561386, -0.03747600317001343, 0.009119199588894844, -0.028701728209853172, 0.0716652199625969, 0.04658916965126991, -0.037298548966646194, 0.07223723083734512, 0.03754040598869324, 0.14768630266189575, -0.06437429040670395, 0.026898711919784546, 0.022295502945780754, -0.1662735790014267, -0.0541742742061615, 0.14439117908477783, -0.07280544191598892, 0.21958254277706146, 0.08009850233793259, 0.12769654393196106, -0.09196368604898453, 0.12669503688812256, -0.06229919567704201, -0.02637896127998829, 0.030849874019622803, 0.0426221638917923, 0.0076222228817641735, 0.24027270078659058, -0.041225630789995193, 0.07129696011543274, 0.0711469054222107, 0.07595715671777725, -0.004275671672075987, -0.07648831605911255, -0.13580293953418732, 0.061799436807632446, -0.05172004923224449, 0.0965861901640892, -0.2087230682373047, -0.05226542428135872, 0.011358007788658142, 0.07601776719093323, -0.16733156144618988, 0.0675094947218895, -0.01933753862977028, 0.16130371391773224, 0.18598434329032898, -0.019251886755228043, -0.09878015518188477, -0.07833081483840942, 0.11833811551332474, 0.14355966448783875, -0.027973996475338936, -0.05271771177649498, -0.13819415867328644, 0.11412473767995834, -0.0023468644358217716, 0.07876042276620865, 0.12193196266889572, 0.08807163685560226, 0.23333707451820374, -0.10503910481929779, 0.06884577870368958, -0.10150548815727234, 0.08698359876871109, -0.08188704401254654, 0.12008670717477798, -0.12318861484527588, -0.0821409672498703, 0.051916010677814484, 0.029598629102110863, -0.0009396087261848152, 0.173036128282547, -0.0916968584060669, 0.10003107786178589, -0.16103066504001617, 0.05339430272579193, 0.004511578008532524, 0.06613599509000778, 0.11225514113903046, 0.13900883495807648, 0.04900270700454712, 0.0929780974984169, -0.11879177391529083, -0.12123050540685654, 0.012426414526998997, 0.018005255609750748, -0.01495923101902008, -0.07894827425479889, -0.08738068491220474, -0.28087371587753296, 0.006284584756940603, 0.09080410748720169, 0.15263302624225616, -0.04507334902882576, -0.10348215699195862, -0.1672513633966446, -0.04926184192299843, 0.08347480744123459, -0.023686885833740234, -0.09582193940877914, -0.07881051301956177, -0.03524041920900345, -0.13732925057411194, -0.13157251477241516, 0.03921990469098091, -0.022587783634662628, -0.027703657746315002, 0.08598412573337555, -0.125086709856987, -0.004740670323371887, -0.04760453477501869, -0.017654623836278915, -0.028065763413906097, 0.11429540067911148, -0.1864970624446869, 0.11844991147518158, 0.13506196439266205, 0.12085074186325073, -0.036654651165008545, 0.1954900026321411, -0.19000323116779327, -0.036448072642087936, -0.05397985503077507, -0.07523959130048752, 0.025663530454039574, -0.06613294780254364, -0.05510766804218292, -0.03983349725604057, -0.10889195650815964, -0.03550589084625244, -0.11684583127498627, 0.08140725642442703, 0.025872016325592995, 0.126399427652359, 0.02881144918501377, 0.013033973053097725, -0.0015940768644213676, 0.22409939765930176, 0.15552383661270142, -0.07044430822134018, -0.1682383120059967, -0.1590578258037567, -0.08374912291765213, 0.1486608237028122, 0.08461790531873703, 0.21223604679107666, 0.09027896821498871, 0.010536391288042068, -0.045582834631204605, 0.1307106912136078, 0.09173990786075592, 0.03775949031114578, -0.08673685044050217, 0.04388546943664551, -0.11991346627473831, 0.04286779463291168, 0.054492853581905365, 0.07414993643760681, -0.12718991935253143, -0.12699256837368011, -0.017456527799367905, -0.06919708102941513, -0.09194215387105942, 0.2269263118505478, -0.015462813898921013, 0.09688703715801239, -0.1489451825618744, 0.02477988600730896, -0.014518244192004204, 0.04336470365524292, 0.015695538371801376, -0.013930053450167179, 0.15349099040031433, -0.011207519099116325, 0.1474095731973648, 0.1139969676733017, -0.02985515631735325, -0.07125915586948395, -0.0899253711104393, -0.03368370607495308, -0.1091560646891594, 0.03816385194659233, -0.027020463719964027, -0.03683716431260109, -0.14247369766235352, 0.15946589410305023, 0.024680165573954582, 0.03389344736933708, -0.09543352574110031, 0.11881818622350693, 0.07829393446445465, -0.13247907161712646, -0.04393266886472702, 0.021567409858107567, -0.0803246945142746, 0.12614281475543976, -0.02859554998576641, 0.11296455562114716, -0.01888188347220421, -0.012032145634293556, -0.03565458580851555, -0.0864361897110939, 0.05937119945883751, 0.030541175976395607, 0.024321015924215317, 0.08098602294921875, -0.06269899755716324, 0.0365295335650444, 0.13986024260520935, -0.0893062874674797, 0.15466615557670593, -0.035949189215898514, -0.11607597768306732, -0.09094911813735962, 0.040847647935152054, -0.1363660842180252, 0.06340495496988297, 0.10824942588806152, 0.016567746177315712, -0.053873900324106216, 0.06070161983370781, -0.0868351086974144, -0.12015335261821747, -0.07729615271091461, -0.13748469948768616, 0.04174128919839859, 0.025087332352995872, -0.08400846272706985, -0.1512758880853653, 0.09266836941242218, -0.08236639201641083, 0.022190015763044357, -0.13855203986167908, 0.07148364186286926, 0.10302991420030594, -0.11063522845506668, -0.22119426727294922, 0.043936099857091904, -0.13581116497516632, 0.03896600008010864, 0.05630064755678177, 0.0962933599948883, -0.12625698745250702, 0.027530185878276825, 0.0338580422103405, -0.02425966039299965, -0.002552070189267397, -0.13286074995994568, 0.08745637536048889, -0.029891055077314377, -0.040346648544073105, -0.19332998991012573, 0.08817930519580841, 0.1351027935743332, -0.006975067779421806, -0.013008217327296734, 0.044089388102293015, -0.08141687512397766, 0.08457198739051819, 0.1748124063014984, -0.06159737706184387, -0.1800297051668167, -0.05083464831113815, 0.049168914556503296, 0.05248599499464035, -0.03771905601024628, 0.13688504695892334, 0.08728808164596558, -0.03700147941708565, 0.054723042994737625, 0.06506603956222534, 0.055731598287820816, 0.03480701521039009, -0.021248608827590942, 0.05957770720124245, 0.06252484023571014, 0.1056419163942337, -0.018371615558862686, -0.10013627260923386, -0.18216127157211304, 0.04873589053750038, 0.21477623283863068, 0.0480998195707798, -0.02353757433593273, -0.09717974066734314, -0.06551890820264816, -0.2110671103000641, -0.07123203575611115, 0.1339656412601471, 0.09893043339252472, 0.011786422692239285, 0.03935353830456734, -0.018863333389163017, 0.03761876001954079, 0.03812331706285477, -0.0881926491856575, 0.03382569178938866, 0.1262400895357132, 0.04935236647725105, -0.09202150255441666, -0.06729286909103394, 0.11011279374361038, 0.1728532612323761, 0.15405933558940887, 0.09125353395938873, 0.04224667698144913, -0.14994218945503235, -0.15223880112171173, -0.16838257014751434, 0.08590357005596161, -0.022642016410827637, -0.1257174164056778, 0.019452815875411034, -0.1116514578461647, -0.1165456473827362, -0.012926480732858181, -0.045868538320064545, -0.09246816486120224, -0.1003650426864624, 0.04949085786938667, 0.13584540784358978, 0.0446837842464447, -0.055835794657468796, 0.0997939258813858, 0.03153388202190399, -0.13717253506183624, -0.12730631232261658, 0.02403031662106514, 0.08669109642505646, -0.03581854701042175, 0.0660194456577301, -0.039389483630657196, 0.11377907544374466, 0.08490537852048874, -0.030231084674596786, 0.09101895987987518, 0.08041226863861084, -0.07000551372766495, 0.017739970237016678, 0.06251508742570877, -0.03581463545560837, 0.14784379303455353, -0.044099271297454834, -0.11287334561347961, -0.0604739747941494, -0.1482660174369812, 0.1641535609960556, -0.11580194532871246, -0.13460466265678406, -0.08287006616592407, -0.10279598832130432, -0.09967286139726639, 0.10623647272586823, -0.10593504458665848, 0.09235832840204239, 0.05643273517489433, -0.0461372472345829, 0.022136837244033813, -0.10605497658252716, 0.10737497359514236, 0.16411638259887695, -0.006103297229856253, 0.12664362788200378, -0.13372591137886047, 0.010486901737749577, 0.05459219217300415, -0.0986911877989769, 0.06720568239688873, -0.02011568285524845, -0.018433762714266777, -0.11360567063093185, 0.08032248169183731, -0.07464797049760818, -0.030954288318753242, 0.027590271085500717, 0.08766206353902817, 0.02664341777563095, -0.06005598232150078, -0.07998290657997131, 0.11916948109865189, 0.04714629799127579, 0.14385779201984406, 0.04138282313942909, 0.09640748798847198, -0.13634656369686127, 0.12942548096179962, -0.0586092509329319, -0.025151167064905167, 0.013630143366754055, -0.009924698621034622, 0.045637477189302444, 0.1527816504240036, -0.0825967788696289, 0.03803541138768196, -0.1262790560722351, -0.012567596510052681, 0.07661110162734985, 0.021990014240145683, 0.1151231974363327, 0.06541524827480316, -0.03521452471613884, 0.017935769632458687, -0.0711749717593193, 0.10789046436548233, 0.06917265802621841, -0.10967188328504562, 0.11873117089271545, -0.0165114663541317, -0.010462362319231033, -0.03882397711277008, 0.006667469162493944, 0.04573598504066467, -0.019388172775506973, -0.1337481588125229, -0.0736498162150383, 0.003935397136956453, 0.09482129663228989, 0.09514317661523819, -0.10148154944181442, -0.030869100242853165, -0.06738166511058807, -0.0754421278834343, -0.014426839537918568, -0.050801534205675125, 0.02738388627767563, -0.07936923205852509, -0.054504770785570145, -0.1121998205780983, -0.019648607820272446, 0.19212555885314941, 0.005736532621085644, -0.04664717987179756, 0.07499472051858902, 0.020064251497387886, -0.05337601900100708, -0.0595715306699276, -0.013625447638332844, -0.009363170713186264, 0.09381069242954254, 0.013583407737314701, 0.16000308096408844, -0.06918714940547943, -0.0515160970389843, 0.02628997527062893, 0.09349551051855087, 0.06748248636722565, 0.03872714191675186, 0.013921779580414295, -0.09166107326745987, 0.020602481439709663, -0.1036120280623436, -0.07744210213422775, -0.05868302285671234, -0.0813777968287468, 0.12582476437091827, -0.03800073638558388, 0.10032793134450912, 0.09692346304655075, 0.1053859144449234, 0.05910768732428551, 0.005273727234452963, 0.01695890724658966, 0.0006190210115164518, 0.014769596979022026, -0.07329841703176498, -0.032034821808338165, -0.04308095574378967, -0.14146177470684052, -0.020146319642663002, -0.13454028964042664, 0.12975230813026428, -0.011146364733576775, -0.026265030726790428, 0.13700275123119354, 0.03939014673233032, -0.05744071677327156, -0.04055339843034744, 0.1145920529961586, 0.07659922540187836, 0.08844834566116333, 0.07144883275032043, 0.11121038347482681, -0.008142557926476002, 0.08669775724411011, -0.11556674540042877, 0.008516461588442326, 0.0029880045913159847, 0.03661157563328743, 0.04874013364315033, -0.21667131781578064, -0.00425648083910346, -0.08849020302295685, 0.14088459312915802, -0.23661530017852783, 0.13877692818641663, -0.18455830216407776, -0.07787834852933884, -0.24727119505405426, 0.035376351326704025, -0.03836458548903465, -0.09726449847221375, 0.12232259660959244, 0.14726626873016357, -0.12102930247783661, 0.18210425972938538, -0.12029898166656494, 0.00978072453290224, 0.0036739122588187456, 0.04899586737155914, -0.09175880998373032, -0.10780010372400284, 0.03932070732116699, -0.034470461308956146, 0.1275562196969986, -0.10922884196043015, 0.041350699961185455, -0.0579388253390789, 0.037920188158750534, -0.0816895067691803, 0.18174992501735687, 0.0992824137210846, 0.13591760396957397, 0.06902755051851273, -0.038963690400123596, 0.10594914108514786, -0.05810021609067917, 0.10336986929178238, 0.15341372787952423, 0.13442347943782806, -0.055995989590883255, -0.07024969905614853, 0.05024534836411476, 0.1090155690908432, 0.07305333763360977, 0.044216275215148926, 0.08400063216686249, -0.053696177899837494, -0.2713514566421509, 0.3025849759578705, 0.33611032366752625, -0.5244424343109131, 0.07855746895074844, -0.6840740442276001, -0.32634785771369934, -0.3842712640762329, 0.7678452134132385, -0.9072250723838806, -0.623974084854126, -0.9278370141983032, 0.25596117973327637, -0.8010057806968689, 0.3612535893917084, -0.645073413848877, -0.10557296127080917, -0.11591070145368576, 0.07088044285774231, 0.31820082664489746, 0.35282233357429504, -0.027644125744700432, -0.002058224054053426, 0.05702965334057808, -0.03925900161266327, -0.08258955180644989, 0.08699662983417511, 0.12509390711784363, 0.024129623547196388, 0.12465238571166992, -0.08041840046644211, -0.0586141012609005, -0.0009841747814789414, -0.13240087032318115, -0.06234932318329811, -0.10373067110776901, -0.3288874626159668, 0.1884588599205017, -0.2136918604373932, -0.2764841616153717, 0.16535189747810364, -0.12084072083234787, 0.1285790652036667, 0.3189750015735626, 0.05822627246379852, 0.02758651413023472, -0.04106135293841362, 0.23360368609428406, -0.19499869644641876, -0.23283715546131134, -0.022586587816476822, 0.21029013395309448, 0.07857293635606766, 0.20451270043849945, -0.07923109084367752, 0.0053043970838189125, -0.03193902596831322, -0.04362094774842262, -0.2083406001329422, -0.21104209125041962, 0.059616103768348694, 0.058727528899908066, -0.013138696551322937, 0.02639920823276043, 0.09360595792531967, 0.08250026404857635, -0.25030291080474854, -0.2408405989408493, -0.25085195899009705, 0.01740986295044422, -0.1445293128490448, -0.11584649980068207, -0.04033482074737549, 0.11608506739139557, 0.08788876980543137, 0.27397656440734863, 0.2682049870491028, -0.17262446880340576, 0.035521604120731354, 0.06413641571998596, 0.26551952958106995, -0.011720853857696056, -0.12413167208433151, -0.1364510953426361, 0.17271913588047028, -0.04469494894146919, -0.10141216218471527, 0.19286280870437622, 0.23374319076538086, -0.059789229184389114, -0.1304873526096344, 0.21907451748847961, -0.08461613953113556, -0.07225484400987625, -0.22650791704654694, -0.15600451827049255, -0.14612962305545807, -0.07534992694854736, -0.2473151832818985, -0.11879096925258636, 0.07804788649082184, -0.17167982459068298, -0.07233778387308121, -0.09565616399049759, 0.16796943545341492, 0.2359893023967743, -0.024143463000655174, -0.17915759980678558, -0.19403788447380066, -0.08580505847930908, 0.059103067964315414, 0.07641909271478653, 0.06901372969150543, -0.09118162095546722, 0.1990302950143814, -0.22882914543151855, 0.07216206938028336, 0.19760672748088837, -0.36346346139907837, -0.194540873169899, 0.03726710379123688, -0.02482759766280651, -0.22155676782131195, 0.11723989993333817, 0.0017795825842767954, -0.10285094380378723, -0.04567722976207733, 0.21544301509857178, 0.12506602704524994, 0.035059843212366104, 0.08212129771709442, 0.15632008016109467, 0.23375928401947021, -0.13165535032749176, 0.0012606357922777534, 0.11367339640855789, -0.05310558155179024, 0.2369149923324585, -0.22583231329917908, 0.00599146680906415, -0.18548084795475006, 0.09496456384658813, 0.07883746176958084, 0.01923685148358345, -0.03283548727631569, 0.1629314124584198, -0.23820026218891144, -0.24486277997493744, -0.3433372676372528, -0.10606639087200165, -0.019085554406046867, -0.0939861461520195, -0.12810027599334717, 0.046605635434389114, 0.249310702085495, -0.04667432978749275, -0.12237167358398438, 0.2033836841583252, -0.014252696186304092, 0.2939740717411041, -0.0571114607155323, 0.013575047254562378, -0.040367547422647476, 0.14076556265354156, 0.14420771598815918, -0.1451348215341568, 0.24021755158901215, 0.03989460691809654, -0.02899535745382309, -0.03787063807249069, 0.16420111060142517, 0.23415866494178772, 0.07930314540863037, 0.04753398895263672, 0.14540520310401917, -0.13140550255775452, -0.1606777310371399, -0.1108817458152771, -0.19201602041721344, 0.08800571411848068, -0.022726910188794136, -0.044421497732400894, -0.04068882390856743, -0.023289943113923073, 0.10662537068128586, 0.21567754447460175, -0.14895357191562653, 0.1559819132089615, 0.07146497815847397, 0.07232759892940521, 0.020875846967101097, 0.10122565925121307, 0.05603129044175148, 0.22364220023155212, -0.28969019651412964, -0.23230981826782227, -0.26984983682632446, -0.03422654792666435, -0.138310968875885, 0.03542536124587059, -0.14952857792377472, 0.2197216898202896, 0.22729115188121796, -0.11263105273246765, 0.1165517270565033, -0.11484472453594208, -0.011882351711392403, 0.017943184822797775, -0.20024098455905914, -0.25950363278388977, -0.1865207850933075, 0.2633129358291626, -0.010953019373118877, -0.04384521022439003, -0.03473689407110214, 0.22519518435001373, -0.21668407320976257, -0.11266068369150162, -0.2057008445262909, -0.13158252835273743, 0.19024941325187683, -0.22797681391239166, -0.11112948507070541, -0.07790559530258179, 0.0779307410120964, 0.0498618446290493, -0.18457846343517303, 0.22245469689369202, -0.25821182131767273, -0.006479135248810053, -0.0073143476620316505, -0.02196771278977394, 0.10666802525520325, 0.18896053731441498, 0.0334499217569828, -0.022470587864518166, 0.14936400949954987, 0.10070302337408066, 0.029151340946555138, -0.0975809246301651, 0.049318935722112656, 0.20880967378616333, -0.00744450930505991, -0.11458440870046616, -0.2441014051437378, -0.08123117685317993, 0.06623068451881409, -0.053297799080610275, -0.11671742796897888, 0.12246652692556381, -0.13148856163024902, 0.0620131753385067, -0.06322991847991943, 0.13946230709552765, 0.1618000864982605, 0.20924662053585052, 0.18160857260227203, -0.2302618771791458, -0.1240750327706337, -0.05559317022562027, -0.27569329738616943, 0.11112096160650253, -0.24464844167232513, 0.05190221220254898, 0.18594755232334137, -0.16393788158893585, 0.22646237909793854, 0.1338571310043335, -0.15816892683506012, 0.2559773325920105, -0.23019619286060333, -0.06850213557481766, -0.1031535267829895, -0.004697901662439108, -0.01007152535021305, -0.05693383887410164, -0.18997111916542053, -0.015774384140968323, 0.11960100382566452, 0.17038504779338837, 0.09534160792827606, 0.043504804372787476, 0.028249463066458702, -0.19029603898525238, 0.03004913404583931, -0.2579474151134491, -0.10963346809148788, -0.07895208895206451, 0.21701951324939728, -0.10718095302581787, -0.046826645731925964, -0.05582384020090103, -0.019729357212781906, 0.01782042719423771, 0.08149576187133789, 0.03268251568078995, -0.03223155066370964, 0.010231968015432358, -0.06775859743356705, -0.02145465277135372, 0.16045308113098145, 0.03341871500015259, -0.03151765465736389, 0.11789420992136002, 0.13148941099643707, -0.007407295983284712, -0.09607597440481186, 0.004446650855243206, 0.07459083944559097, 0.0333397351205349, 0.05881267413496971, -0.16230393946170807, -0.1604783982038498, 0.11238624155521393, 0.021800560876727104, 0.06212526932358742, 0.011449259705841541, -0.04458285868167877, -0.15339019894599915, 0.053449541330337524, -0.025702808052301407, -0.20772020518779755, 0.0936187282204628, 0.011364654637873173, -0.013169932179152966, -0.09078469127416611, 0.020374765619635582, -0.15188618004322052, 0.10956822335720062, -0.05239348113536835, -0.06927885115146637, 0.13793298602104187, -0.1267719566822052, -0.028361942619085312, -0.1380702257156372, -0.011289142072200775, -0.1448681354522705, -0.00645081140100956, 0.017235996201634407, -0.0447864793241024, 0.007240231614559889, -0.1654546558856964, 0.12925578653812408, 0.08586567640304565, 0.13689501583576202, -0.000932372291572392, -0.13346050679683685, -0.14583182334899902, 0.11401556432247162, -0.06602256000041962, 0.003821596736088395, -0.06484947353601456, 0.012416847981512547, -0.0946500152349472, 0.1274649053812027, -0.15378817915916443, 0.10828722268342972, -0.08968468010425568, -0.043942395597696304, 0.022691043093800545, 0.1023240014910698, -0.03198061138391495, -0.17376112937927246, 0.07804160565137863, 0.16652117669582367, 0.0841069146990776, 0.20961445569992065, 0.035436004400253296, -0.0503578819334507, -0.017458558082580566, -0.18677185475826263, -0.08741174638271332, -0.02737443335354328, 0.09457261115312576, -0.10445152223110199, 0.026985691860318184, -0.03664572164416313, -0.15637250244617462, 0.12659722566604614, 0.08750715851783752, 0.08264796435832977, 0.17769204080104828, -0.033219244331121445, -0.004566140938550234, 0.012021397240459919, 0.00898467842489481, -0.20789146423339844, 0.21374066174030304, -0.07285325974225998, -0.04720213636755943, 0.14525572955608368, 0.10657548159360886, -0.0044522336684167385, -0.12140969932079315, 0.002043358515948057, 0.10130830109119415, -0.019502541050314903, -0.10240347683429718, 0.046617623418569565, 0.09865452349185944, 0.017541762441396713, 0.026717903092503548, 0.06471394002437592, 0.13179618120193481, 0.0851350650191307, -0.08279965072870255, 0.06012945622205734, 0.03804492577910423, 0.09355175495147705, -0.0002776384062599391, 0.04719625040888786, -0.059395983815193176, 0.06780538707971573, -0.13963650166988373, -0.12191954255104065, 0.056513216346502304, -0.053571101278066635, 0.08241327852010727, 0.01796376146376133, 0.04914337024092674, 0.05167057737708092, 0.05891501531004906, -0.0007988857687450945, -0.03274156153202057, -0.018273349851369858, 0.07295235246419907, 0.22743651270866394, -0.09263627976179123, -0.10037949681282043, 0.012857149355113506, 0.0022293860092759132, 0.1636752337217331, -0.15866319835186005, 0.08210855722427368, 0.1388004571199417, -0.029656831175088882, -0.03288286179304123, -0.005631191190332174, 0.054012201726436615, 0.16035641729831696, -0.09111058712005615, 0.17591384053230286, -0.006627884227782488, -0.1345304399728775, 0.010982169769704342, -0.04216967150568962, -0.03984851762652397, -0.0605633370578289, -0.09540195763111115, 0.11974997818470001, 0.14579683542251587, -0.07708714157342911, -0.15985824167728424, -0.06589547544717789, 0.03733992576599121, 0.11820650845766068, 0.07757794857025146, 0.02479543909430504, 0.025379536673426628, -0.13915014266967773, -0.07251814007759094, -0.13044743239879608, 0.07505600154399872, 0.04025737941265106, -0.014993304386734962, 0.2337895929813385, -0.1418239176273346, -0.1129114180803299, 0.04369732365012169, 0.0004025544913019985, -0.035910528153181076, 0.18407189846038818, -0.05697747692465782, 0.08095254749059677, 0.1471317857503891, -0.10827583074569702, 0.10070131719112396, 0.036704905331134796, -0.0288293045014143, 0.05096319690346718, 0.017214776948094368, -0.116068534553051, 0.13291430473327637, 0.03283796086907387, 0.10284871608018875, 0.008745191618800163, 0.03834100812673569, 0.03295006603002548, 0.0013343808241188526, 0.06641072034835815, 0.13580600917339325, -0.10919173806905746, -0.09062982350587845, 0.021651754155755043, -0.02681155316531658, -0.06128043308854103, 0.0630883276462555, -0.036849815398454666, -0.13809970021247864, -0.10827554017305374, 0.049648769199848175, -0.0938110500574112, -0.0854717269539833, 0.06213781237602234, 0.057676028460264206, -0.13760624825954437, 0.08673013001680374, 0.0369250662624836, 0.13159872591495514, 0.08220699429512024, 0.000488790450617671, -0.04768822342157364, 0.03688786178827286, 0.029607722535729408, 0.010522720403969288, -0.14047744870185852, -0.037987302988767624, 0.06782005727291107, 0.02357376739382744, 0.0008228070801123977, -0.09829719364643097, 0.08271994441747665, -0.009242729283869267, -0.22491423785686493, 0.08080072700977325, 0.0996166467666626, -0.10997404903173447, -0.12559735774993896, 0.11960653960704803, 0.14872971177101135, -0.062169380486011505, 0.09562120586633682, -0.15408706665039062, -0.06046405807137489, -0.03261921927332878, -0.047341927886009216, -0.0671815276145935, 0.016277702525258064, -0.16327734291553497, 0.06646814197301865, -0.023055147379636765, -0.05604651942849159, 0.07447393983602524, -0.1706584244966507, -0.096745066344738, 0.10532161593437195, -0.09681233018636703, 0.034554608166217804, -0.007415925618261099, -0.15285652875900269, -0.11472148448228836, 0.10664337128400803, 0.12779603898525238, -0.034204188734292984, -0.17027559876441956, -0.12630926072597504, 0.03584155812859535, 0.031237943097949028, 0.10686206072568893, 0.04270844906568527, -0.035891853272914886, 0.11180760711431503, 0.04190542921423912, 0.07080058753490448, 0.14339983463287354, -0.017020005732774734, -0.09240981191396713, 0.017339102923870087, 0.008504318073391914, -0.008165043778717518, 0.08758841454982758, -0.10865127295255661, -0.12093723565340042, 0.19664216041564941, -0.06947251409292221, -0.009282676503062248, -0.04115049168467522, -0.24772046506404877, -0.058560874313116074, 0.02208343707025051, 0.05042346194386482, 0.010060669854283333, 0.08640249818563461, -0.1103876605629921, -0.15252026915550232, -0.09246990084648132, 0.17783023416996002, 0.06909158825874329, 0.023195916786789894, -0.047835685312747955, 0.02925603650510311, -0.017080221325159073, 0.10755123198032379, 0.019618632271885872, 0.018033256754279137, 0.10895203053951263, -0.011260752566158772, 0.17130394279956818, 0.05472687631845474, -0.14032745361328125, -0.2132376879453659, -0.02155117318034172, 0.13165083527565002, -0.020397352054715157, 0.12072936445474625, -0.08053717017173767, -0.21683257818222046, 0.06865125894546509, -0.06631956994533539, -0.10918955504894257, 0.035043880343437195, -0.013216136023402214, -0.15366768836975098, -0.1599554568529129, 0.09549042582511902, -0.07408347725868225, -0.040313612669706345, 0.058734212070703506, -0.2373582124710083, 0.11601904034614563, 0.07425597310066223, 0.08285064995288849, -0.05192326009273529, 0.0085172513499856, -0.0346989780664444, 0.1504763662815094, -0.14026492834091187, 0.12521521747112274, 0.026044553145766258, 0.012120071798563004, 0.002815305721014738, 0.18604888021945953, -0.07733329385519028, -0.037107814103364944, 0.019480973482131958, 0.028831027448177338, -0.13270142674446106, 0.03591132164001465, -0.04421926289796829, -0.05682393163442612, 0.03846876695752144, 0.10885094106197357, -0.06745859980583191, -0.02774669975042343, 0.03628435730934143, -0.18830785155296326, -0.007293843198567629, 0.00900833960622549, 0.09118139743804932, 0.12046834826469421, -0.14981433749198914, -0.17053617537021637, 0.03969424217939377, -0.11936869472265244, 0.2432115226984024, -0.03700687736272812, -0.060865066945552826, 0.09282474219799042, -0.01140363235026598, -0.17575497925281525, 0.07543739676475525, 0.13909737765789032, 0.07792428135871887, -0.01006043516099453, -0.024540331214666367, -0.028688356280326843, 0.2335519790649414, -0.052259717136621475, -0.16101408004760742, -0.09677371382713318, -0.17079924046993256, -0.13772991299629211, -0.1088816300034523, -0.3209387958049774, 0.12767736613750458, 0.06247388944029808, 0.1393452137708664, -0.044142402708530426, 0.0133212273940444, -0.05985982343554497, -0.10186321288347244, 0.0077996160835027695, 0.19480112195014954, 0.05064697563648224, -0.1745472401380539, -0.062310170382261276, -0.0024420025292783976, -0.12045259773731232, -0.10354364663362503, -0.1005573570728302, 0.07793840765953064, 0.0004346436180640012, -0.058388061821460724, 0.02527518756687641, -0.15711331367492676, 0.0487186498939991, 0.1382170170545578, 0.006527320947498083, 0.02169281616806984, -0.04781292751431465, -0.028942778706550598, 0.07271590828895569, 0.07162482291460037, 0.048450179398059845, -0.18273858726024628, 0.011982488445937634, 0.12805989384651184, -0.13908331096172333, -0.11236298084259033, 0.11411646753549576, -0.04878472164273262, 0.09556403011083603, 0.07956554740667343, 0.05717488005757332, 0.1832355409860611, -0.0002645714266691357, -0.1140485554933548, 0.005796533077955246, 0.12435029447078705, -0.0829305350780487, 0.002149919979274273, -0.16065551340579987, 0.01083280798047781, 0.007541092112660408, 0.27578601241111755, 0.05182664096355438, 0.02340138703584671, -0.043807823210954666, 0.0841553807258606, -0.12941138446331024, -0.009856228716671467, -0.14551055431365967, -0.02953614853322506, -0.002118207048624754, 0.05935446918010712, -0.10696519911289215, 0.02251705341041088, -0.07907478511333466, -0.16010728478431702, 0.04162861779332161, -0.1914827674627304, 0.06743130832910538, -0.13996478915214539, -0.07777874916791916, -0.08778926730155945, -0.14027397334575653, 0.054630447179079056, 0.1546875387430191, -0.16080859303474426, 0.025124819949269295, 0.01244102232158184, 0.02193387970328331, -0.08788007497787476, -0.25736382603645325, 0.18725308775901794, -0.16376224160194397, 0.014989553950726986, -0.02536163665354252, -0.042508549988269806, -0.07659300416707993, -0.09501691162586212, -0.03421643748879433, -0.26787421107292175, 0.037662819027900696, -0.13873276114463806, -0.013829119503498077, 0.01663118787109852, -0.10429222881793976, -0.06050707399845123, 0.05746730789542198, -0.1468076854944229, -0.0044687604531645775, -0.03929249942302704, 0.17258647084236145, 0.019336534664034843, 0.10206326097249985, 0.06705094873905182, 0.020311586558818817, 0.02863301895558834, 0.08012707531452179, 0.16596157848834991, -0.09374085813760757, 0.06938564032316208, 0.07899110019207001, 0.035053279250860214, -0.013472046703100204, 0.09008269011974335, 0.10835166275501251, -0.08819419145584106, 0.0879291221499443, 0.13054437935352325, 0.018916772678494453, -0.027833418920636177, 0.0659598559141159, -0.002294044243171811, -0.003807981498539448, 0.041761867702007294, 0.05748102441430092, 0.01721573993563652, -0.03136543929576874, 0.06767688691616058, 0.11503402888774872, -0.09838232398033142, 0.10135804861783981, 0.03656947985291481, 0.007993282750248909, -0.08981496095657349, 0.055153537541627884, -0.21202561259269714, -0.07831218093633652, -0.027061479166150093, 0.18246182799339294, -0.0823933482170105, 0.06255324929952621, -0.15925739705562592, 0.0072488728910684586, 0.2483036369085312, -0.22436301410198212, 0.178504079580307, -0.15533404052257538, 0.08452590554952621, 0.10778790712356567, 0.09341216832399368, 0.014931765384972095, 0.17184101045131683, -0.19466498494148254, 0.12762059271335602, 0.1542581170797348, 0.05158444121479988, -0.022321684285998344, 0.0019146749982610345, -0.06979529559612274, -0.10371676087379456, -0.08009833842515945, -0.058892518281936646, 0.1925937384366989, 0.14111202955245972, 0.1620943546295166, -0.1242065504193306, -0.20933496952056885, -0.21863344311714172, 0.09343856573104858, -0.06070542708039284, -0.09709659218788147, -0.14039063453674316, -0.17777876555919647, -0.16673320531845093, -0.042829930782318115, 0.024048002436757088, -0.05885463207960129, 0.09626321494579315, 0.10107214003801346, 0.049438681453466415, -0.035536717623472214, 0.08731742203235626, -0.16904300451278687, -0.039475779980421066, 0.22372367978096008, -0.28767552971839905, -0.060423556715250015, 0.15458780527114868, -0.18855343759059906, 0.00783721823245287, -0.10487986356019974, -0.2039138674736023, 0.11480657756328583, 0.1415172666311264, 0.21778371930122375, -0.1504117101430893, -0.15032441914081573, -0.02741069160401821, -0.1109699085354805, 0.019729504361748695, 0.05368868261575699, -0.08205120265483856, -0.06433538347482681, 0.09550576657056808, 0.1134500578045845, 0.0709242969751358, -0.04754544422030449, -0.02612881548702717, 0.02371549978852272, -0.08811736851930618, 0.06279271841049194, -0.08276751637458801, 0.007756025530397892, -0.048074401915073395, 0.02511746622622013, 0.10900339484214783, -0.17717847228050232, 0.03396409749984741, -0.1564023494720459, 0.07463648170232773, -0.0015098585281521082, 0.1813397854566574, 0.12416495382785797, 0.017474761232733727, 0.16140952706336975, -0.1574915498495102, 0.10633725672960281, -0.08639375865459442, 0.0844397097826004, -0.14070767164230347, 0.1483522653579712, 0.03187762573361397, 0.035136207938194275, 0.1575130820274353, -0.005970614962279797, -0.1717350035905838, 0.3282259404659271, -0.05433602258563042, 0.10759356617927551, 0.08394406735897064, 0.14565572142601013, -0.19067759811878204, 0.2193809300661087, -0.21958091855049133, 0.0785641148686409, 0.15071167051792145, 0.1769140362739563, -0.17881666123867035, -0.07835667580366135, -0.06947094947099686, 0.2274005115032196, -0.013595545664429665, 0.15908627212047577, 0.12025026232004166, 0.050540708005428314, -0.039970412850379944, -0.04462001845240593, 0.011111604049801826, -0.09558247774839401, 0.05577300488948822, 0.020618241280317307, 0.08517923206090927, -0.08711577951908112, -0.03399275615811348, -0.06000318378210068, 0.01416438352316618, 0.026598798111081123, 0.04373946040868759, 0.13220179080963135, -0.017569726333022118, -0.06786146759986877, -0.09439744800329208, 0.03813948482275009, 0.01546073891222477, 0.09685889631509781, -0.07785612344741821, 0.07815619558095932, -0.0537504144012928, -0.026611486449837685, -0.001235718373209238, -0.05654924362897873, 0.03178781643509865, 0.07310828566551208, -0.006638344377279282, 0.11306317150592804, -0.13215941190719604, 0.025771962478756905, 0.08416315168142319, 0.09463242441415787, 0.06463908404111862, 0.02621988020837307, 0.014714040793478489, 0.09259481728076935, -0.03619459271430969, -0.009532143361866474, 0.08282985538244247, -0.1314014047384262, -0.10485299676656723, 0.05902775749564171, -0.02901150844991207, -0.06948297470808029, -0.15067073702812195, 0.13311626017093658, -0.000555002479813993, -0.14275187253952026, -0.06828028708696365, 0.04155753180384636, -0.08359620720148087, 0.029482323676347733, -0.010658634826540947, -0.011051291599869728, 0.014970198273658752, -0.10277657955884933, 0.10620187222957611, 0.12224122881889343, 0.010450396686792374, 0.05461633950471878, -0.10653875023126602, 0.02988624759018421, 0.10816998779773712, -0.08794400095939636, 0.11836691945791245, -0.11176283657550812, -0.0832531526684761, -0.09046388417482376, -0.03775740787386894, -0.10808227211236954, -0.11388376355171204, 0.1048785001039505, -0.08682338893413544, -0.060451459139585495, 0.07301745563745499, -0.026700647547841072, 0.07007390260696411, -0.0773547813296318, -0.03412497043609619, 0.013749458827078342, 0.20703479647636414, 0.023933688178658485, 0.060230739414691925, 0.09006525576114655, -0.019681446254253387, 0.0779796838760376, 0.17962507903575897, -0.05753413587808609, 0.07704806327819824, 0.10810992121696472, -0.013194154016673565, 0.09836160391569138, 0.047279082238674164, 0.024238748475909233, -0.057338204234838486, -0.1299072951078415, 0.07741234451532364, -0.008083239197731018, 0.03638261556625366, -0.026078328490257263, 0.048444926738739014, 0.07192135602235794, 0.0669487714767456, -0.02110186405479908, -0.004394917283207178, -0.09564578533172607, 0.009957293048501015, 9.1220012109261e-05, 0.07317526638507843, -0.08809828013181686, 0.0750579759478569, -0.14225949347019196, 0.053914498537778854, 0.08141610026359558, -0.03449966758489609, 0.15380263328552246, -0.04816628247499466, 0.0380520336329937, 0.11954334378242493, -0.052673742175102234, 0.12213995307683945, -0.08713067322969437, -0.014823620207607746, -0.11467568576335907, -0.11875266581773758, 0.08251632750034332, 0.08598218858242035, 0.02153337188065052, 0.04969678074121475, -0.10502719134092331, 0.07287683337926865, -0.0010713533265516162, -0.04763780161738396, -0.07719187438488007, 0.14221644401550293, 0.06186404079198837, 0.07464099675416946, 0.01639581099152565, -0.12018684297800064, -0.0037921732291579247, 0.006458432879298925, 0.0027841466944664717, -0.24771636724472046, -0.42982178926467896, 0.8831008076667786, 0.3462606370449066, -0.4071260988712311, 0.14360016584396362, -0.21947219967842102, 0.01426598709076643, 0.5356253385543823, -0.8000324368476868, 0.9531721472740173, 0.555120587348938, 0.04996706545352936, -0.324809730052948, 0.12609556317329407, -0.7313848733901978, 0.1871272176504135, -0.16968213021755219, 0.12744979560375214, -0.26465147733688354, 0.10431833565235138, 0.09354709088802338, 0.21751274168491364, -0.0291641466319561, 0.1314586102962494, 0.006239977665245533, 0.2246016561985016, 0.12075326591730118, -0.22171352803707123, 0.050801776349544525, -0.04055775701999664, -0.13345997035503387, 0.17254096269607544, -0.03849058970808983, 0.01268107257783413, 0.10600153356790543, 0.15345442295074463, 0.09074216336011887, -0.01402215100824833, -0.24890057742595673, -0.29180464148521423, 0.01034566480666399, 0.026183320209383965, -0.16975611448287964, 0.11675792932510376, 0.325830340385437, 0.19576066732406616, -0.01906956546008587, 0.05361052230000496, -0.2855052947998047, 0.029884185642004013, -0.24114137887954712, 0.10048402845859528, -0.21408313512802124, 0.017951905727386475, -0.217924565076828, -0.16246521472930908, 0.07816120982170105, -0.13332746922969818, 0.21190330386161804, 0.10441035777330399, -0.11914535611867905, 0.0031990245915949345, 0.0832267701625824, 0.20277217030525208, 0.014837471768260002, 0.0852913185954094, 0.02659258432686329, -0.09350799024105072, 0.18455782532691956, -0.2849748134613037, 0.22634176909923553, 0.2601974308490753, -0.051589593291282654, 0.0715557113289833, 0.14526692032814026, 0.09000739455223083, 0.11408847570419312, 0.06254499405622482, -0.09061669558286667, 0.08192434161901474, -0.16072282195091248, 0.25878196954727173, -0.15846693515777588, 0.0944383442401886, -0.10470569878816605, 0.15911495685577393, -0.01591472513973713, 0.14922796189785004, -0.049515701830387115, -0.13551823794841766, 0.1677224189043045, -0.17989295721054077, -0.22468821704387665, 0.13341903686523438, -0.11979302018880844, -0.05829259008169174, -0.12970910966396332, 0.026121575385332108, -0.15947070717811584, -0.07845692336559296, -0.11179415136575699, 0.2494794726371765, 0.042349059134721756, -0.16466547548770905, -0.15757004916667938, -0.003956001251935959, 0.19593726098537445, -0.014302702620625496, 0.18094998598098755, 0.2554333508014679, 0.09414158016443253, 0.011279437690973282, 0.19234099984169006, -0.10612045973539352, 0.11133639514446259, 0.16006334125995636, 0.06027134135365486, -0.03132285177707672, -0.007197731640189886, -0.1686154454946518, 0.018074575811624527, 0.20839916169643402, -0.24733257293701172, 0.15747234225273132, 0.046842772513628006, 0.030242914333939552, 0.085886150598526, 0.2800484299659729, 0.057719048112630844, -0.08686169981956482, -0.17129793763160706, 0.07239259034395218, -0.22169068455696106, 0.16936300694942474, -0.1328429877758026, -0.0890531986951828, 0.0680900365114212, 0.1573406159877777, 0.32480573654174805, -0.01015402004122734, 0.18975147604942322, 0.14004912972450256, -0.08489274978637695, -0.18132932484149933, 0.32644012570381165, -0.20114833116531372, 0.21643531322479248, 0.2078295201063156, 0.047294698655605316, -0.28333577513694763, 0.02368638478219509, -0.014679946005344391, 0.25305241346359253, -0.2082921415567398, 0.12825503945350647, -0.28699880838394165, -0.1943540871143341, -0.017309516668319702, 0.03060450591146946, 0.29634708166122437, -0.13560499250888824, -0.1020163893699646, 0.11295343190431595, 0.03780340403318405, 0.12182226777076721, -0.10194476693868637, -0.1528167724609375, -0.13495071232318878, 0.16931959986686707, 0.0907479077577591, -0.04005113244056702, -0.064423106610775, 0.022176146507263184, 0.24979588389396667, -0.15041224658489227, 0.24282105267047882, -0.1491536945104599, -0.16724048554897308, -0.18296045064926147, 0.1835576295852661, -0.1666768342256546, 0.10701927542686462, -0.0517122708261013, 0.2361762970685959, 0.14097917079925537, -0.25450971722602844, -0.0006098184385336936, 0.017890149727463722, -0.2244618535041809, 0.018763184547424316, 0.2408149540424347, 0.10818397253751755, -0.02780134789645672, -0.09301059693098068, -0.015225930139422417, -0.12912015616893768, 0.091644786298275, 0.2740798592567444, 0.05607962608337402, -0.14208951592445374, -0.08495423942804337, -0.1531095653772354, 0.23353338241577148, -0.2578679025173187, -0.1391056478023529, 0.019454358145594597, 0.07077030837535858, -0.31501245498657227, -0.22406332194805145, -0.06390461325645447, -0.020753158256411552, 0.14929628372192383, 0.14466407895088196, -0.24126802384853363, -0.17300549149513245, 0.19648228585720062, -0.02385942079126835, -0.12160416692495346, -0.0020813692826777697, -0.0032365298829972744, 0.1365511268377304, -0.011848240159451962, -0.11660541594028473, -0.1989229917526245, 0.2609420120716095, -0.2369903028011322, 0.03516514599323273, 0.03580496460199356, -0.04606608301401138, 0.05352023243904114, -0.13142448663711548, 0.14972135424613953, 0.11948531866073608, 0.02315530553460121, -0.3535476326942444, -0.040315382182598114, 0.04201588034629822, -0.2004345804452896, 0.004667920060455799, 0.08887879550457001, 0.07534151524305344, -0.042489275336265564, -0.11271072924137115, -0.14671872556209564, -0.18580763041973114, 0.2008751630783081, -0.2950044572353363, 0.12532852590084076, 0.26020917296409607, 0.10121292620897293, 0.32096928358078003, -0.14076349139213562, 0.11339925974607468, 0.07699671387672424, -0.18854038417339325, -0.016365863382816315, -0.15548494458198547, -0.1025519073009491, -0.321528822183609, -0.1445983350276947, -0.14625424146652222, 0.045749787241220474, -0.2754020392894745, -0.04177769273519516, 0.3147333860397339, 0.1430465579032898, 0.31050366163253784, -0.23158396780490875, 0.054011035710573196, -0.04699108004570007, 0.07691359519958496, 0.08519430458545685, 0.042672526091337204, 0.0465160571038723, 0.12114641815423965, -0.09938133507966995, 0.16498243808746338, 0.13319654762744904, 0.024360965937376022, -0.19545309245586395, -0.15009520947933197, 0.0517847053706646, 0.06418901681900024, 0.1723237782716751, 0.12623165547847748, 0.08227479457855225, -0.020213255658745766, 0.01973601058125496, -0.08605002611875534, 0.010229668579995632, -0.26196858286857605, -0.13821755349636078, 0.1213541105389595, -0.016279274597764015, -0.040976591408252716, 0.05284452810883522, -0.09393686056137085, -0.00717307860031724, 0.14344854652881622, 0.06372597813606262, -0.12216558307409286, -0.1073969230055809, 0.0013220576802268624, -0.05098981410264969, 0.06161581352353096, 0.08512543886899948, -0.0744481235742569, -0.0737185850739479, -0.18046794831752777, 0.07025439292192459, 0.03935273736715317, -0.020932169631123543, -0.20278632640838623, -0.05803002044558525, -0.011882591061294079, 0.1025923490524292, -0.044354330748319626, -0.09496786445379257, -0.20402385294437408, 0.17782360315322876, -0.12931576371192932, -0.23069438338279724, -0.031115205958485603, -0.12582632899284363, -0.022084522992372513, -0.08346635103225708, 0.02421872690320015, -0.06747453659772873, -0.108517587184906, -0.24727490544319153, -0.19839023053646088, -0.12393182516098022, -0.1643523871898651, -0.14480464160442352, 0.07279589027166367, -0.030026875436306, 0.17699114978313446, 0.054673243314027786, 0.021813997998833656, -0.32904157042503357, -0.18524998426437378, 0.08489817380905151, -0.21223315596580505, 0.018202021718025208, 0.0026243741158396006, 0.14341536164283752, 0.13050270080566406, -0.025665467604994774, 0.024305252358317375, 0.16326847672462463, -0.056566573679447174, -0.24995861947536469, -0.010095377452671528, -0.15545246005058289, 0.07005973905324936, -0.06352557986974716, -0.08562511205673218, -0.12881208956241608, -0.07500354945659637, 0.10059358924627304, 0.1217951774597168, -0.0949430838227272, 0.014348473399877548, 0.12095688283443451, 0.11694879084825516, 0.01940353959798813, 0.09572669118642807, 0.02097344771027565, 0.1017424613237381, -0.13815002143383026, -0.24308331310749054, -0.0028373892419040203, 0.049992505460977554, 0.05831598490476608, -0.07289067655801773, 0.12857288122177124, -0.14562225341796875, 0.06198152154684067, -0.0403590090572834, 0.05179411917924881, -0.07393048703670502, -0.11814438551664352, -0.13886012136936188, -0.10077422112226486, -0.1040147915482521, -0.08320345729589462, 0.23665739595890045, 0.20870448648929596, -0.013013167306780815, -0.263811856508255, 0.03428613767027855, 0.10235409438610077, -0.13596761226654053, 0.021184340119361877, 0.03677799925208092, 0.16296328604221344, 0.014276375062763691, -0.0924072265625, -0.007466143928468227, 0.010844442062079906, -0.004702738020569086, 0.03286547586321831, 0.09810452908277512, -0.05314395949244499, 0.09807553887367249, 0.049444254487752914, 0.0390947200357914, -0.1683339774608612, 0.008007672615349293, 0.1420268416404724, 0.075264111161232, -0.013157433830201626, 0.0414913035929203, -0.1384761482477188, 0.037623804062604904, -0.01741693913936615, -0.12583498656749725, 0.046507254242897034, 0.09130185097455978, -0.12568779289722443, -0.03966744989156723, -0.008952452801167965, -0.166874498128891, -0.06880836188793182, 0.02516785077750683, 0.06965339183807373, -0.005078468471765518, -0.0743938758969307, -0.07781937718391418, 0.16722366213798523, 0.11995973438024521, -0.10626059025526047, 0.19848795235157013, -0.02962387539446354, -0.10873052477836609, 0.2268034666776657, 0.183852881193161, -0.019034957513213158, 0.08948829770088196, -0.03623564913868904, 0.12261974811553955, 0.08013314008712769, -0.023025887086987495, -0.01627512276172638, 0.10208822786808014, -0.07746504247188568, -0.1471034586429596, -0.06917940825223923, 0.0651845708489418, 0.11648990958929062, 0.016868287697434425, 0.05060512199997902, -0.030183160677552223, 0.014429646544158459, 0.1292257457971573, 0.06638311594724655, -0.12757334113121033, -0.10694371908903122, -0.1481943279504776, -0.03146357834339142, 0.04815450310707092, -0.061279572546482086, 0.16697022318840027, -0.005059420596808195, -0.0667448490858078, 0.22019225358963013, 0.1014208272099495, 0.04449889063835144, 0.1496211439371109, -0.08251051604747772, 0.10490495711565018, 0.1014488935470581, -0.09167411178350449, -0.27106085419654846, 0.10369589179754257, -0.033991578966379166, -0.2779780328273773, 0.12071948498487473, -0.08230676501989365, 0.056743722409009933, -0.021592115983366966, -0.07789148390293121, 0.16334375739097595, 0.3541499078273773, 0.0650448203086853, -0.10412699729204178, 0.2533053159713745, -0.03957227244973183, 0.15989142656326294, 0.0029666335321962833, 0.040231507271528244, 0.026909595355391502, -0.12849445641040802, -0.12770986557006836, -0.19530920684337616, 0.1458335518836975, 0.13578636944293976, -0.03579402714967728, -0.01306863408535719, 0.037772826850414276, 0.03528701886534691, 0.027312934398651123, -0.024758845567703247, -0.03613903746008873, 0.1907941699028015, -0.07834446430206299, -0.1615622192621231, -0.11345689743757248, 0.01798180490732193, 0.04874914512038231, 0.1588044911623001, -0.08390869200229645, -0.11790768057107925, 0.11766313761472702, -0.09385465830564499, -0.08020588755607605, 0.05876990780234337, -0.019603252410888672, -0.08335193991661072, -0.028903378173708916, -0.06913389265537262, -0.12519146502017975, 0.06851013749837875, 0.004305620677769184, -0.0400996133685112, 0.0012812417699024081, -0.07265064865350723, -0.10200811177492142, -0.020677369087934494, -0.017906339839100838, -0.03519642353057861, 0.3080846667289734, -0.026566483080387115, -0.042344026267528534, 0.23468701541423798, 0.08221498131752014, -0.020350191742181778, 0.05482705309987068, -0.15266837179660797, 0.05214102566242218, -0.15323930978775024, -0.13541395962238312, -0.18866312503814697, -0.07015656679868698, 0.04841558635234833, -0.03072957880795002, 0.06832954287528992, -0.006124051753431559, -0.0591677650809288, -0.0577850267291069, -0.08715332299470901, -0.0845506563782692, 0.10931913554668427, -0.07424389570951462, -0.044824205338954926, 0.03888440132141113, -0.03391190245747566, -0.054030079394578934, -0.016569411382079124, -0.134546160697937, 0.002204437740147114, 0.17498035728931427, 0.10578809678554535, 0.05023527517914772, 0.014192897826433182, -0.1331709623336792, 0.03821500390768051, -0.013099915347993374, -0.0947570651769638, -0.14274919033050537, 0.12180101126432419, -0.11403436958789825, -0.13564881682395935, 0.24884171783924103, -0.015361079014837742, 0.04500764235854149, 0.08556743711233139, -0.14345520734786987, -0.1277136504650116, 0.19034962356090546, 0.09345841407775879, -0.11781465262174606, 0.17829075455665588, 0.019854074344038963, -0.028967663645744324, -0.06165887042880058, -0.13038486242294312, -0.12323916703462601, 0.031052440404891968, -0.018746139481663704, -0.2412932813167572, -0.08373389393091202, 0.08132395893335342, -0.08930990099906921, -0.060238827019929886, -0.04347818344831467, 0.0587264820933342, -0.0562581792473793, -0.07607004046440125, -0.008253902196884155, 0.14286819100379944, 0.017700612545013428, 0.0009340113610960543, -0.003119192086160183, 0.02266230620443821, 0.11098416894674301, 0.0699288472533226, 0.053331200033426285, -0.06781639158725739, -0.0926315039396286, -0.05599700286984444, 0.21380940079689026, -0.055895909667015076, -0.05083269253373146, -0.05243862047791481, 0.05598903074860573, -0.10003472119569778, -0.1618867963552475, 0.1716284453868866, 0.088191457092762, -0.1307971477508545, 0.04228731989860535, -0.1467861384153366, -0.20659378170967102, -0.15822164714336395, -0.073074109852314, -0.039992108941078186, -0.02639150805771351, 0.2008305788040161, -0.08755414932966232, -0.21141789853572845, 0.09787549823522568, -0.02957049012184143, 0.12623144686222076, 0.0027163338381797075, -0.15405547618865967, 0.12433426082134247, 0.024089816957712173, -0.15727490186691284, -0.11704520136117935, -0.021074779331684113, -0.0023938817903399467, -0.15146325528621674, 0.020241394639015198, -0.1208924725651741, 0.010462210513651371, -0.015146184712648392, 0.10263574123382568, -0.01192228589206934, -0.030168870463967323, -0.022047095000743866, -0.09511285275220871, 0.04324544593691826, -0.09396187216043472, -0.11397533863782883, -0.23102468252182007, 0.028224468231201172, -0.18118789792060852, 0.15069854259490967, 0.11735214293003082, 0.03179159387946129, 0.0641656443476677, 0.09859326481819153, -0.1312369406223297, -0.09690186381340027, -0.0879899263381958, -0.19133667647838593, 0.025657130405306816, -0.11205024272203445, -0.1729554533958435, 0.04079635068774223, -9.388159924128558e-06, 0.07043050229549408, -0.0006524426862597466, 0.2248496115207672, -0.05042094364762306, 0.0742759108543396, -0.015727447345852852, -0.11941785365343094, 0.07390372455120087, -0.19011783599853516, -0.03063940443098545, 0.020939402282238007, -0.040785498917102814, 0.03846248239278793, -0.02206212654709816, 0.11060313880443573, 0.09165725857019424, -0.10623236000537872, -0.03188309445977211, -0.09203366935253143, -0.07308682799339294, 0.0757957398891449, -0.07547885179519653, -0.15174509584903717, -0.11318191885948181, -0.04217405244708061, -0.02323414757847786, 0.0935799777507782, 0.16034173965454102, -0.09490496665239334, 0.038961879909038544, -0.09412099421024323, 0.03752034157514572, 0.14662086963653564, 0.07315728068351746, -0.07627033442258835, 0.046664047986269, -0.044426072388887405, -0.05152854695916176, -0.17138083279132843, 0.09447313100099564, 0.07222026586532593, 0.1263730376958847, 0.10050363093614578, -0.09321879595518112, 0.14203783869743347, -0.018455173820257187, 0.16541390120983124, 0.00939570926129818, 0.026077687740325928, -0.0590960755944252, 0.15048596262931824, -0.1737007349729538, 0.0021488433703780174, 0.02815534546971321, -0.034572944045066833, 0.008819794282317162, 0.002803208539262414, -0.08615540713071823, 0.045365411788225174, 0.13555555045604706, 0.07385598868131638, 0.08519505709409714, 0.08056213706731796, 0.025643546134233475, -0.15300628542900085, -0.0030538132414221764, -0.07325907051563263, 0.1481914073228836, 0.08970952779054642, 0.07773163914680481, 0.04790476709604263, -0.0475555844604969, -0.002513193292543292, 0.04032662883400917, -0.14460617303848267, 0.04400988295674324, -0.050031598657369614, -0.13345105946063995, 0.08393799513578415, 0.035178378224372864, -0.10303419828414917, -0.13971908390522003, -0.10438592731952667, 0.01136848796159029, -0.07999636232852936, -0.028959359973669052, -0.14515462517738342, 0.09524067491292953, 0.024757998064160347, 0.16596141457557678, 0.11685669422149658, -0.12500742077827454, 0.1777336746454239, -0.012248347513377666, 0.1807541698217392, -0.027591584250330925, -0.1018461063504219, 0.08370751142501831, -0.01952262595295906, 0.06780330091714859, 0.08926673978567123, -0.16232669353485107, -0.034020695835351944, 0.13435277342796326, 0.18559423089027405, 0.03407856822013855, -0.18185295164585114, -0.18085390329360962, -0.11998366564512253, -0.009207658469676971, 0.002234562300145626, 0.10737883299589157, 0.09779628366231918, 0.1348925530910492, 0.14140062034130096, -0.06984306126832962, -0.10776401311159134, 0.03202050179243088, 0.09970816224813461, 0.030349764972925186, 0.04036245495080948, 0.013873482123017311, -0.0036155313719063997, 0.06090569868683815, 0.033630963414907455, 0.013377755880355835, 0.07110713422298431, -0.10079251229763031, -0.08984939008951187, 0.10119685530662537, -0.14097125828266144, 0.10379030555486679, -0.09444355964660645, 0.0768531784415245, 0.08991142362356186, -0.03930562362074852, 0.017708024010062218, -0.13041070103645325, 0.06415946036577225, 0.060057394206523895, -0.06041323021054268, 0.10394149273633957, 0.01575791835784912, 0.018929023295640945, 0.04094685614109039, -0.037966642528772354, -0.00904606282711029, -0.041380371898412704, -0.06758441776037216, -0.04287825524806976, 0.013483182527124882, 0.10898032784461975, -0.1969708502292633, -0.10931292921304703, 0.05392620712518692, -0.020380761474370956, -0.08666670322418213, 0.06433303654193878, 0.06815627962350845, -0.11234437674283981, -0.08023479580879211, 0.0054007722064852715, -0.08016577363014221, -0.07291706651449203, 0.1397826075553894, 0.0027452828362584114, 0.08819615840911865, -0.1634531021118164, -0.10858772695064545, 0.04461601749062538, -0.11685516685247421, 0.15189576148986816, 0.09791364520788193, 0.13540229201316833, -0.14618954062461853, 0.1524217128753662, 0.06565090268850327, -0.0863465815782547, 0.05412931367754936, 0.019229479134082794, 0.07367902994155884, -0.11419127881526947, 0.09607783704996109, -0.06745845079421997, 0.11287131160497665, -0.013608249835669994, -0.12034782767295837, -0.12486255168914795, 0.10410750657320023, -0.06442052870988846, 0.1237717792391777, -0.06470395624637604, 0.05464179441332817, -0.004221749491989613, -0.12826290726661682, 0.0084157045930624, -0.016049722209572792, 0.08641991019248962, 0.055174730718135834, -0.1124100610613823, -0.010714864358305931, 0.026797641068696976, -0.16290131211280823, -0.09005936980247498, 0.06373929232358932, -0.06332824379205704, -0.08031599223613739, -0.08561848849058151, -0.05632961913943291, -0.1454026848077774, 0.06561702489852905, -0.15548068284988403, -0.0686422660946846, -0.03777876868844032, 0.07954507321119308, 0.011194407939910889, 0.17992058396339417, -0.16019579768180847, -0.1410294473171234, 0.043017659336328506, 0.007887683808803558, -0.01948181353509426, 0.03780943155288696, -0.16206654906272888, -0.16839592158794403, 0.015538416802883148, 0.1908625364303589, 0.13161765038967133, 0.07230062782764435, -0.04627295210957527, 0.24973547458648682, 0.05175327882170677, 0.012847954407334328, -0.11965345591306686, 0.009525342844426632, 0.03708583861589432, -0.09339772164821625, -0.0016648077871650457, -0.019467156380414963, 0.19643813371658325, 0.004651710391044617, 0.14827166497707367, 0.11372527480125427, -0.027091488242149353, -0.22562575340270996, -0.003783940337598324, 0.029438478872179985, -0.028055189177393913, 0.11236735433340073, 0.13555549085140228, 0.08165808767080307, 0.1277681291103363, -0.056712836027145386, 0.12940680980682373, 0.11608652025461197, 0.003321107942610979, 0.023771969601511955, -0.13983288407325745, 0.03935151547193527, 0.09252891689538956, -0.07951458543539047, -0.05721026286482811, -0.11858733743429184, -0.029516801238059998, 0.08510345220565796, 0.08263864368200302, -0.04894424229860306, -0.1519477665424347, 0.1003846600651741, 0.11978370696306229, 0.05492248386144638, 0.09845902770757675, 0.2539476454257965, -0.014840580523014069, -0.13650047779083252, 0.018906258046627045, -0.0032538140658289194, -0.03328103572130203, -0.06586916744709015, -0.025240633636713028, 0.08059120178222656, 0.05623738467693329, -0.10990239679813385, 0.016723953187465668, 0.25325286388397217, 0.14537541568279266, 0.010920447297394276, -0.0679260790348053, 0.06540434062480927, 0.23491497337818146, -0.25045931339263916, -0.02493954449892044, 0.03764401003718376, 0.06793595850467682, 0.06551828980445862, 0.06452280282974243, -0.026263346895575523, 6.826376193203032e-05, 0.055595412850379944, -0.11782871931791306, -0.07916295528411865, -0.04245765879750252, -0.015329834073781967, -0.13857603073120117, 0.013528951443731785, 0.06151583418250084, -0.11180040240287781, 0.06048358976840973, -0.1282268613576889, 0.002093992894515395, 0.059675998985767365, 0.07314259558916092, 0.1006898283958435, 0.04705394431948662, -0.050290368497371674, 0.06848634779453278, 0.04529188573360443, 0.022820450365543365, -0.06489518284797668, -0.027993984520435333, 0.11372452974319458, -0.12616388499736786, -0.15352091193199158, -0.11776891350746155, 0.03132651373744011, -0.0861486867070198, 0.007738280575722456, 0.13265740871429443, -0.1187535896897316, -0.11543533205986023, 0.0075454507023096085, -0.033012982457876205, -0.10354649275541306, 0.038215864449739456, -0.03091585636138916, -0.06773922592401505, 0.11299040913581848, 0.1405535191297531, -0.11995769292116165, -0.2882220149040222, 0.032752156257629395, 0.024561621248722076, -0.19699719548225403, -0.0897257849574089, 0.036816056817770004, -0.012984704226255417, 0.078542061150074, 0.008895790204405785, 0.11117122322320938, 0.04360228404402733, -0.09612502157688141, -0.11753945052623749, 0.0844571590423584, 0.0487486869096756, -0.07210372388362885, -0.10104647278785706, -0.06661950796842575, 0.1282474398612976, -0.06649535149335861, 0.11106766760349274, -0.0875987783074379, -0.009013382717967033, -0.14331334829330444, 0.00039774132892489433, 0.12116024643182755, -0.04577929526567459, -0.008386844769120216, -0.10481562465429306, 0.12388500571250916, -0.3142518997192383, 0.015083374455571175, -0.13268545269966125, -0.058028820902109146, -0.0036220166366547346, -0.10389773547649384, 0.0070590851828455925, 0.06978647410869598, 0.2065788358449936, -0.05359703302383423, 0.09932388365268707, 0.1168145164847374, -0.2057814598083496, 0.21004129946231842, 0.04139769822359085, -0.03858482092618942, 0.10351894050836563, -0.09673064202070236, 0.14038404822349548, 0.084953673183918, -0.0769573226571083, -0.1487271636724472, 0.08492625504732132, 0.16622157394886017, 0.02187027409672737, -0.05614544078707695, 0.06736504286527634, 0.058248843997716904, -0.03848571702837944, 0.09161534905433655, 0.6568775773048401, 0.1920056790113449, 0.5708312392234802, -0.9143698811531067, -0.4394073784351349, 0.12553805112838745, 0.2857033908367157, -0.0016710549825802445, 0.28196021914482117, 0.2592489421367645, -0.7783740162849426, 0.3059595227241516, -0.011480219662189484, -0.762596845626831, 0.038547974079847336, -0.27790725231170654, -0.07061389833688736, -0.2927874028682709, 0.26208797097206116, -0.11326450854539871, 0.013558886013925076, 0.19024543464183807, -0.030055630952119827, -0.1620519757270813, -0.20749439299106598, 0.09301482141017914, -0.13121022284030914, 0.020289083942770958, 0.09471199661493301, -0.1442311555147171, 0.0962587371468544, -0.022582555189728737, -0.11916380375623703, -0.19098350405693054, 0.08228839933872223, -0.17878291010856628, 0.0479704923927784, -0.08734418451786041, 0.11044108122587204, -0.13710270822048187, -0.11485474556684494, -0.014483291655778885, -0.17053139209747314, 0.09938395768404007, -0.12789443135261536, 0.12476875633001328, 0.14752933382987976, 0.145318403840065, 0.010156950913369656, 0.1330721527338028, -0.08055509626865387, -0.28215646743774414, -0.10111131519079208, -0.25874224305152893, -0.18856731057167053, 0.08638550341129303, 0.22778287529945374, -0.06821142137050629, -0.07339834421873093, -0.1108935996890068, 0.11082344502210617, 0.053379423916339874, -0.043406955897808075, 0.21474701166152954, -0.26118284463882446, 0.019454214721918106, -0.2282073050737381, 0.22377018630504608, 0.24772098660469055, 0.2424442321062088, 0.23253664374351501, 0.1824541836977005, -0.24663682281970978, -0.22885681688785553, 0.1353665441274643, -0.24899956583976746, 0.1283816546201706, 0.16779477894306183, 0.11499805003404617, -0.1514071375131607, 0.26737338304519653, -0.07233861088752747, -0.08244588226079941, 0.11099137365818024, -0.001848022686317563, -0.09672096371650696, 0.017362607643008232, -0.1646384596824646, 0.23743708431720734, 0.2509753704071045, 0.11595045775175095, 0.12793031334877014, -0.22549976408481598, -0.21748358011245728, -0.2261860966682434, -0.1789626181125641, -0.10816408693790436, 0.15173348784446716, 0.2135656476020813, 0.1706295758485794, -0.14897148311138153, 0.18378570675849915, -0.049118686467409134, -0.09136326611042023, 0.16869938373565674, 0.20055393874645233, -0.2452206015586853, 0.254631906747818, -0.010457530617713928, -0.003856484079733491, -0.29392147064208984, -0.03566447272896767, -0.18499337136745453, -0.12423631548881531, -0.04809454828500748, -0.1707887202501297, -0.08059480041265488, -0.1824398636817932, 0.15918387472629547, -0.036268603056669235, -0.1646634340286255, 0.08141402900218964, -0.01911233365535736, 0.04310951009392738, 0.09173192083835602, 0.03942039608955383, 0.07453397661447525, -0.18109215795993805, 0.06292496621608734, 0.16529874503612518, -0.13309448957443237, 0.22993454337120056, 0.1914929300546646, -0.15957577526569366, -0.03477059304714203, 0.33141791820526123, -0.05554601922631264, -0.0045922850258648396, 0.04307928308844566, 0.08640062063932419, 0.0174411591142416, -0.13915030658245087, 0.19130121171474457, -0.035140544176101685, -0.3823305070400238, 0.10456107556819916, -0.09429038316011429, -0.21902579069137573, 0.21646296977996826, -0.0327838696539402, -0.2224361002445221, -0.2684321105480194, -0.002622838132083416, 0.0005996293039061129, -0.042127061635255814, -0.16871407628059387, 0.20561812818050385, 0.24151474237442017, 0.07148031890392303, 0.07824626564979553, 0.02080722339451313, 0.2818935215473175, -0.08436113595962524, 0.04188247397542, -0.1487789750099182, 0.12492848187685013, -0.19505716860294342, 0.1742894947528839, -0.31544190645217896, -0.2283903956413269, 0.16426339745521545, -0.16516536474227905, 0.249994695186615, -0.10223408043384552, 0.35304006934165955, 0.13177482783794403, -0.13362528383731842, 0.15914858877658844, -0.21964223682880402, -0.19498871266841888, -0.14701496064662933, -0.09912805259227753, -0.04118984192609787, -0.23264503479003906, 0.2568952143192291, 0.02375262789428234, -0.16347366571426392, 0.0372566320002079, -0.13705800473690033, 0.10118410736322403, 0.08694378286600113, -0.010569537058472633, 0.05623547360301018, 0.13276532292366028, -0.129445418715477, -0.11149045079946518, -0.0745527595281601, -0.18699832260608673, 0.02768089435994625, 0.026012279093265533, -0.17283517122268677, 0.07764405012130737, 0.21141068637371063, 0.19722269475460052, -0.04804723337292671, 0.19570933282375336, -0.13669037818908691, -0.09478311985731125, 0.03769662231206894, 0.21544937789440155, 0.2140486240386963, 0.18046143651008606, -0.0842224508523941, 0.02952149510383606, -0.15181997418403625, 0.03083229996263981, 0.17576493322849274, 0.09639565646648407, -0.21040500700473785, -0.1417686641216278, -0.25543105602264404, 0.16087785363197327, 0.02786189503967762, -0.13582167029380798, -0.1425008773803711, 0.08083289861679077, 0.003385203657671809, 0.1593441218137741, 0.04638959467411041, 0.004093577153980732, -0.17284369468688965, -0.032349396497011185, 0.04163932800292969, 0.25995543599128723, 0.14068959653377533, -0.1000341922044754, -0.2230723351240158, -0.14028243720531464, -0.11477763205766678, 0.103522889316082, 0.2561018168926239, -0.04065141826868057, 0.08761639893054962, 0.09756305813789368, -0.21936583518981934, -0.2278667390346527, 0.06265413761138916, 0.11318646371364594, -0.12821677327156067, 0.04054267331957817, -0.25456681847572327, 0.017720511183142662, 0.11711594462394714, 0.011834576725959778, -0.011342271231114864, 0.09691586345434189, -0.012526537291705608, 0.2551116347312927, -0.33007392287254333, -0.014993013814091682, -0.19452999532222748, -0.20327095687389374, 0.2039172351360321, 0.06694004684686661, -0.29710108041763306, -0.05847189947962761, -0.08400849997997284, 0.036438506096601486, 0.21834959089756012, -0.09383857995271683, 0.23202069103717804, 0.09735461324453354, -0.1729341447353363, 0.030644716694951057, 0.11275894194841385, -0.06930798292160034, 0.07664807885885239, 0.026259761303663254, 0.010872844606637955, 0.045738160610198975, -0.21140606701374054, 0.14875122904777527, 0.08079369366168976, 0.015358131378889084, -0.0006837529363110662, -0.17073523998260498, -0.06258778274059296, -0.01686198078095913, -0.0014258145820349455, -0.1433124840259552, 0.017917687073349953, -0.2138155698776245, 0.10888732224702835, -0.15397468209266663, -0.11450548470020294, -0.019264107570052147, -0.16100868582725525, 0.026877563446760178, 0.09700959175825119, 0.05471497029066086, -0.010563502088189125, 0.027751648798584938, -0.10946640372276306, 0.09535239636898041, -0.03305373340845108, 0.0987250953912735, 0.028743138536810875, -0.00862743891775608, 0.07984955608844757, 0.22050905227661133, 0.05981307104229927, -0.10071676969528198, -0.03101748786866665, -0.049939174205064774, 0.07623996585607529, 0.24527700245380402, -0.11086174100637436, 0.0312776044011116, -0.02364291623234749, 0.1039702519774437, -0.15204499661922455, 0.034092795103788376, -0.16585445404052734, -0.11558222770690918, -0.025051439180970192, 0.13920781016349792, 0.06195416674017906, -0.13046453893184662, -0.007305039092898369, -0.09201496094465256, 0.04884038865566254, -0.21196810901165009, -0.03151343762874603, -0.08219800889492035, -0.06640473008155823, 0.04109559953212738, 0.04045063629746437, -0.04625672474503517, 0.10433473438024521, 0.2105085700750351, -0.07784301042556763, 0.019216306507587433, -0.11359991133213043, -0.14630377292633057, 0.04616440460085869, -0.1736234873533249, 0.18121813237667084, -0.01760064996778965, 0.20688459277153015, -0.09475893527269363, 0.0015852617798373103, 0.16453447937965393, -0.10079839080572128, -0.004011957440525293, -0.18702109158039093, 0.10783880203962326, 0.11417224258184433, -0.14931370317935944, -0.18931470811367035, -0.09553150087594986, -0.12956424057483673, 0.2066972553730011, 0.056318625807762146, -0.203126922249794, 0.05911630019545555, 0.03451910242438316, 0.04817718639969826, -0.07288257032632828, 0.07591608166694641, -0.11873145401477814, -0.14805227518081665, -0.06570081412792206, -0.02345525659620762, -0.03957448899745941, 0.010232171975076199, -0.013936052098870277, 0.03230053186416626, 0.023122144863009453, 0.17454281449317932, -0.17122140526771545, -0.06670834869146347, -0.18721266090869904, -0.23339523375034332, -0.07230383902788162, -0.10343626141548157, 0.015379649586975574, 0.09433572739362717, 0.016906794160604477, 0.2396862655878067, 0.21978037059307098, -0.07768405973911285, 0.005642491392791271, 0.04000750556588173, -0.03256087377667427, 0.07756424695253372, -0.05737271159887314, -0.17920741438865662, -0.09277136623859406, -0.04862996190786362, -0.015178583562374115, 0.13622039556503296, 0.1464487463235855, -0.04655526205897331, -0.11136855185031891, -0.10835517942905426, -0.06603419035673141, -0.05943647399544716, -0.1496713012456894, 0.10004472732543945, -0.14730395376682281, -0.08633920550346375, 0.1724465936422348, -0.15404453873634338, -0.03349924087524414, 0.07417014986276627, 0.1558322161436081, 0.08084728568792343, 0.048805803060531616, 0.2406383603811264, 0.1610690951347351, -0.14025376737117767, -0.05303983390331268, 0.0017153469379991293, 0.07654282450675964, 0.04440051317214966, 0.08393305540084839, -0.05276293680071831, 0.023272067308425903, 0.13169822096824646, -0.035021331161260605, -0.034174516797065735, 0.06715171039104462, -0.03513648360967636, 0.0030870861373841763, 0.10990378260612488, -0.04176678508520126, -0.017891963943839073, -0.1446942836046219, 0.08995895832777023, 0.17507652938365936, -0.0053862109780311584, 0.047841645777225494, -0.13574762642383575, 0.12001708149909973, 0.05786340311169624, 0.09597386419773102, 0.04359092190861702, -0.03630687668919563, -0.0068323505111038685, 0.09747818112373352, 0.0816289484500885, -0.12141724675893784, 0.09882790595293045, 0.11516709625720978, 0.09821517020463943, -0.12341279536485672, 0.038710493594408035, -0.07016605138778687, 0.1311771720647812, -0.18443650007247925, 0.05562075227499008, 0.01910000666975975, 0.044815585017204285, 0.08358780294656754, 0.02675488404929638, -0.1411132663488388, 0.00527341291308403, -0.07761289924383163, 0.030422309413552284, -0.01168646290898323, -0.019752848893404007, -0.06504988670349121, 0.002027784241363406, -0.12870527803897858, 0.05344647169113159, 0.047750554978847504, 0.026924777776002884, 0.09050709009170532, 0.14128878712654114, 0.058041203767061234, -0.05882255733013153, 0.023421714082360268, 0.010958369821310043, 0.11365583539009094, 0.02242594212293625, 0.06120389699935913, 0.08747873455286026, -0.03502267226576805, 0.1771831065416336, -0.2295495867729187, 0.1871660351753235, 0.05921430513262749, 0.139133021235466, -0.007076942827552557, 0.058315664529800415, 0.22554780542850494, -0.04178927093744278, -0.13464246690273285, 0.12407642602920532, -0.03607155382633209, -0.06580286473035812, 0.020521916449069977, 0.0367734357714653, -0.032648250460624695, -0.06139389052987099, 0.00861674826592207, 0.1830507218837738, -0.12364380806684494, 0.13273845613002777, 0.08906397223472595, -0.05406063422560692, 0.017438145354390144, -0.04339150711894035, 0.04578728601336479, -0.19602249562740326, -0.0931142047047615, -0.09077293425798416, 0.12003818899393082, 0.05542925372719765, 0.005405804608017206, 0.052883412688970566, -0.021921277046203613, 0.03601572662591934, -0.13068072497844696, -0.06435545533895493, -0.1733894795179367, 0.007817038334906101, 0.20505020022392273, -0.2469085156917572, 0.08887655287981033, -0.17218749225139618, -0.11153621226549149, 0.047511711716651917, 0.05209502950310707, 0.1573060303926468, 0.1254308670759201, -0.04504942148923874, 0.012545597739517689, -0.050204724073410034, -0.09333077073097229, -0.17343604564666748, -0.0016127515118569136, -4.124937333926937e-07, -0.19584541022777557, -0.025841061025857925, 0.07985822856426239, 0.15324562788009644, -0.05124039947986603, -0.10284559428691864, -0.09279108047485352, 0.1819753348827362, 0.0024446561001241207, 0.044814977794885635, -0.20568908751010895, -0.01222838182002306, 0.10280811786651611, 0.11357719451189041, -0.09606840461492538, 0.15529415011405945, -0.020322436466813087, 0.01994660682976246, -0.04590193182229996, 0.26041555404663086, 0.01902729831635952, 0.12654787302017212, -0.17304447293281555, -0.12806367874145508, -0.06074463948607445, -0.1714380383491516, -0.004744040779769421, -0.03323395550251007, 0.275003582239151, -0.08560081571340561, 0.137815922498703, 0.2577930688858032, -0.005463188514113426, -0.08967539668083191, 0.022769637405872345, 0.014660535380244255, 0.18737931549549103, -0.07706808298826218, -0.1412051022052765, 0.012379160150885582, -0.06634986400604248, 0.003862434532493353, -0.16726407408714294, -0.08745519816875458, 0.03676381707191467, 0.1570296585559845, 0.1589515209197998, -0.13355639576911926, 0.17148710787296295, 0.14844101667404175, 