{"version": "0.5.2", "metadata": {"date": {"year": 2024, "month": 4, "day": 19, "hour": 15, "minute": 50, "second": 17}, "loudness": -18.096343994140625, "gain": 0.7953188030044231}, "architecture": "WaveNet", "config": {"layers": [{"input_size": 1, "condition_size": 1, "head_size": 8, "channels": 16, "kernel_size": 3, "dilations": [1, 2, 4, 8, 16, 32, 64, 128, 256, 512], "activation": "Tanh", "gated": false, "head_bias": false}, {"input_size": 16, "condition_size": 1, "head_size": 1, "channels": 8, "kernel_size": 3, "dilations": [1, 2, 4, 8, 16, 32, 64, 128, 256, 512], "activation": "Tanh", "gated": false, "head_bias": true}], "head": null, "head_scale": 0.02}, "weights": [-0.06207200884819031, 0.41673243045806885, -0.8521472811698914, -0.7539662718772888, -0.3965539038181305, 0.2905045449733734, -0.061681900173425674, 0.8303197026252747, -0.13799697160720825, 0.29256248474121094, -0.36882373690605164, -0.1922021210193634, -1.0037349462509155, -0.6926411986351013, -0.4534760117530823, 0.016727596521377563, 0.08259818702936172, 0.09170729666948318, -0.11230317503213882, -0.10100370645523071, 0.03278509899973869, 0.11929010599851608, 0.007845004089176655, 0.12654586136341095, -0.02408766560256481, 0.05258667469024658, 0.1489291489124298, -0.1350347399711609, -0.05310957133769989, -0.017723774537444115, -0.05675886571407318, 0.08820082247257233, -0.11078747361898422, -0.06425057351589203, -0.07022468745708466, -0.12492392212152481, -0.0932762399315834, 0.08672939240932465, 0.0461268424987793, 0.0710521936416626, 0.04252920299768448, -0.05890265852212906, 0.019919855520129204, -0.171385258436203, -0.12166966497898102, -0.07236878573894501, 0.1277688592672348, 0.10200349241495132, -0.06612937897443771, 0.03135821968317032, 0.10985942929983139, 0.14177076518535614, 0.09467045962810516, 0.03782918304204941, 0.09572898596525192, -0.04762578755617142, 0.045154113322496414, -0.11303775757551193, -0.06273405253887177, -0.05636274442076683, 0.06411898136138916, 0.023494547232985497, -0.10131232440471649, 0.04588507488369942, 0.09866009652614594, 0.037135545164346695, 0.10413267463445663, 0.0007635870133526623, 0.024639271199703217, 0.03440355509519577, -0.08010661602020264, 0.01174197718501091, 0.16200676560401917, 0.15095658600330353, 0.19023992121219635, 0.23245181143283844, 0.059546180069446564, -0.06094275787472725, 0.11930858343839645, -0.1213669553399086, -0.19884569942951202, 0.022806527093052864, 0.13310694694519043, -0.08547143638134003, 0.1283457726240158, -0.05560439079999924, -0.08843238651752472, -0.1712495982646942, 0.08495598286390305, -0.02184958942234516, 0.1588601917028427, 0.04236063361167908, 0.03903324902057648, -0.05184805020689964, -0.11236009746789932, -0.029238402843475342, 0.17824490368366241, 0.061006300151348114, -0.04867786541581154, 0.021837398409843445, 0.1670217663049698, 0.1619250327348709, 0.042164091020822525, -0.005151685327291489, -0.07286391407251358, 0.10277947783470154, -0.07809300720691681, -0.046918101608753204, 0.09795159101486206, -0.01085248775780201, -0.12099097669124603, -0.01213635504245758, -0.10735225677490234, 0.09887818992137909, 0.05594179779291153, -0.07552092522382736, 0.017998317256569862, 0.06656163185834885, -0.021901864558458328, -0.01772114261984825, -0.0025563451927155256, -0.034589339047670364, -0.12242399901151657, 0.009241596795618534, -0.18034106492996216, -0.13670191168785095, -0.09479881823062897, -0.028017226606607437, 0.00039954992826096714, -0.06048138812184334, -0.05594988539814949, -0.0050089615397155285, -0.13944020867347717, 0.03569948300719261, 0.15528465807437897, 0.044228482991456985, -0.033321332186460495, -0.059167422354221344, -0.0252070352435112, 0.13321049511432648, 0.18715903162956238, 0.14934028685092926, 0.09587447345256805, -0.06088270992040634, -0.18759751319885254, -0.11082497984170914, 0.047500308603048325, -0.05843771994113922, -0.11486340314149857, -0.1626608520746231, -0.19430698454380035, -0.16461573541164398, -0.08100622892379761, 0.0202184971421957, 0.03629174456000328, -0.19018758833408356, 0.031585436314344406, -0.0761716365814209, 0.010757067240774632, -0.013020731508731842, -0.027999889105558395, -0.0006394642405211926, -0.06920311599969864, -0.13241122663021088, -0.05295629799365997, -0.054319530725479126, -0.05948939546942711, 0.08451047539710999, -0.07213088870048523, -0.0031401836313307285, 0.15738989412784576, -0.0010222134878858924, 0.13520650565624237, 0.08147039264440536, -0.07302790135145187, 0.08485481888055801, -0.0469067208468914, -0.12200096249580383, 0.11300909519195557, -0.0930233895778656, 0.06982209533452988, -0.03674731031060219, 0.07260860502719879, -0.017645055428147316, 0.07378296554088593, 0.08014605194330215, 0.023053936660289764, -0.03591013699769974, -0.14863801002502441, 0.02076645940542221, 0.12030196189880371, 0.12891916930675507, -0.043523408472537994, 0.011861284263432026, -0.07270258665084839, -0.0233147069811821, -0.07757893204689026, 0.07986387610435486, -0.027915656566619873, 0.0030828260350972414, 0.036325305700302124, 0.15090057253837585, -0.10387235879898071, -0.06952376663684845, -0.026249852031469345, 0.1032867357134819, -0.06945138424634933, 0.080887570977211, 0.0518324188888073, 0.027705319225788116, 0.015026625245809555, -0.003650915576145053, 0.03439265862107277, -0.02378198131918907, -0.02296946570277214, 0.005375211592763662, -0.11867943406105042, -0.0975739061832428, 0.10356849431991577, -0.12289074063301086, -0.031485266983509064, 0.13059106469154358, 0.04717551916837692, 0.024688946083188057, -0.11352808028459549, 0.07587707787752151, -0.10412876307964325, -0.03240059316158295, -0.033447250723838806, 0.0006707485299557447, 0.014699780382215977, 0.12491200119256973, 0.0023899476509541273, 0.12303069978952408, 0.0891461968421936, -0.07081928849220276, 0.07612613588571548, -0.0978691503405571, -0.08135388046503067, 0.031356893479824066, 0.04384726658463478, 0.08742701262235641, -0.05831841006875038, -0.004514981992542744, 0.05218407139182091, -0.15279129147529602, 0.0984199196100235, -0.14099738001823425, -0.010698234662413597, -0.02998097613453865, -0.09695576876401901, 0.007123637478798628, 0.11466334015130997, -0.03409901261329651, -0.08674421906471252, -0.059786345809698105, -0.16123592853546143, 0.032046448439359665, -0.11699322611093521, -0.049223702400922775, -0.027689319103956223, 0.14660559594631195, 0.032589901238679886, 0.056987397372722626, -0.011019703932106495, -0.092253178358078, -0.09404972195625305, -0.02043876238167286, 0.0758717954158783, -0.013834094628691673, -0.13127774000167847, -0.024789659306406975, -0.08390578627586365, 0.09299471974372864, -0.10554416477680206, -0.16554762423038483, 0.07685952633619308, -0.04978329315781593, 0.03731277585029602, 0.10451074689626694, -0.03333224728703499, -0.1456276774406433, -0.17549362778663635, 0.15726085007190704, 0.07571830600500107, 0.18159602582454681, -0.09032520651817322, -0.009774970822036266, -0.09524761885404587, -0.04951732978224754, -0.1402411162853241, -0.012544011697173119, 0.0016856263391673565, -0.05679994076490402, -0.09579125046730042, -0.1325988620519638, 0.04630754142999649, -0.17050409317016602, 0.016475854441523552, -0.10146704316139221, -0.1324395388364792, 0.06266484409570694, -0.033453892916440964, 0.08086700737476349, 0.0037017427384853363, -0.12182606011629105, 0.023511065170168877, 0.1081816554069519, 0.09420499205589294, 0.004933098331093788, -0.1633642315864563, -0.05759767070412636, 0.029076436534523964, -0.09756741672754288, 0.019660625606775284, 0.07526160776615143, -0.11972033232450485, -0.03325420618057251, 0.03931770473718643, 0.05482460930943489, 0.04564442113041878, 0.037399087101221085, -0.14326779544353485, -0.00791596993803978, 0.09461396932601929, 0.17492949962615967, 0.11996692419052124, 0.04018957540392876, 0.028107112273573875, -0.09941509366035461, -0.1345670521259308, -0.08102447539567947, 0.17725999653339386, 0.11061742901802063, -0.14308713376522064, 0.022973062470555305, 0.08986867964267731, 0.10106798261404037, 0.09297510981559753, 0.09272446483373642, -0.07807817310094833, -0.08592421561479568, 0.0975475013256073, 0.03617611154913902, -0.12181796133518219, 0.10909557342529297, 0.025651639327406883, 0.04430089145898819, -0.11054608225822449, 0.075095035135746, -0.02825351059436798, 0.12261737138032913, -0.053807299584150314, 0.017900362610816956, -0.02234642766416073, 0.11067652702331543, 0.008055208250880241, 0.134589284658432, -0.14725004136562347, -0.022417256608605385, -0.1604863703250885, -0.18912926316261292, -0.17113149166107178, 0.050996411591768265, 0.03255036473274231, 0.08117453753948212, 0.053445667028427124, -0.08279978483915329, -0.04393492266535759, 0.03895658627152443, -0.12440869957208633, 0.05987667292356491, -0.15859375894069672, -0.023764468729496002, -0.0842641294002533, -0.01901845820248127, 0.07658067345619202, 0.06707678735256195, 0.044011473655700684, 0.15691040456295013, 0.18244831264019012, 0.025009965524077415, 0.018398011103272438, 0.07469577342271805, -0.01415148563683033, 0.09802215546369553, 0.020234573632478714, 0.02750641480088234, -0.09716709703207016, 0.014051743783056736, -0.04640432819724083, -0.08082657307386398, -0.13629108667373657, -0.14372721314430237, -0.15655924379825592, 0.04267975315451622, 0.0404544472694397, 0.02434018813073635, -0.03614355996251106, 0.16518856585025787, 0.07547695189714432, -0.012588169425725937, -0.09758259356021881, 0.1761692762374878, 0.10651049017906189, -0.05901453271508217, 0.0976046547293663, 0.06427998840808868, -0.10181078314781189, 0.04043879732489586, -0.12732374668121338, -0.07164972275495529, 0.08287447690963745, -0.03866850957274437, -0.1507585495710373, -0.008680959232151508, 0.004826842341572046, 0.019743870943784714, -0.00965750403702259, 0.10465575754642487, -0.02626982517540455, -0.04849882423877716, 0.05269951373338699, 0.1182723119854927, 0.036794476211071014, -0.17155902087688446, -0.0695386752486229, -0.06836410611867905, -0.01796574890613556, 0.09944839030504227, -0.1412457525730133, 0.009988601319491863, 0.07483220845460892, -0.030045585706830025, -0.13998135924339294, -0.09892731159925461, -0.009140950627624989, -0.1554277390241623, 0.02249785326421261, -0.17138874530792236, -0.18382953107357025, -0.1891537308692932, -0.06864052265882492, 0.05277109891176224, -0.1849239021539688, 0.15432021021842957, -0.02232472039759159, 0.07888747751712799, -0.0469292551279068, -0.1842784583568573, 0.06367963552474976, 0.14555510878562927, 0.21254439651966095, 0.1431208848953247, -0.163002610206604, 0.05128878727555275, -0.06276828795671463, 0.0009477394632995129, -0.18458475172519684, -0.11167673766613007, -0.20933154225349426, -0.12531952559947968, -0.039363715797662735, -0.04664776101708412, 0.11385316401720047, 0.14653675258159637, -0.03839581459760666, -0.15543341636657715, -0.17250441014766693, 0.023033088073134422, 0.1323021501302719, 0.21262086927890778, 0.01808641105890274, -0.08216783404350281, -0.016569942235946655, -0.07490935176610947, -0.05530376732349396, 0.13658741116523743, -0.14869199693202972, 0.0011426935670897365, -0.17153142392635345, -0.1377502828836441, -0.1862316131591797, 0.0067916084080934525, -0.08232822269201279, 0.04204542562365532, 0.01895875856280327, 0.012338260188698769, -0.06427989900112152, -0.11488261073827744, -0.09881594032049179, -0.04968584328889847, 0.001315562753006816, -0.040609560906887054, 0.18024206161499023, 0.043536096811294556, -0.1750764101743698, -0.14274640381336212, 0.060902081429958344, 0.16356225311756134, -0.09001938253641129, 0.15103493630886078, 0.03696133941411972, 0.03796550631523132, 0.06976437568664551, -0.1127324029803276, -0.001512593007646501, 0.006917971186339855, -0.07905767858028412, -6.679564103251323e-05, -0.09465058147907257, 0.12455996125936508, 0.0073192305862903595, -0.001453138655051589, -0.00751998508349061, -0.0032960274256765842, -0.12764419615268707, 0.04787788912653923, 0.13088661432266235, 0.03790033981204033, 0.004875165410339832, -0.0855926126241684, -0.004525487311184406, -0.06849844008684158, -0.036909542977809906, -0.020521298050880432, 0.09580010920763016, -0.08770669251680374, -0.05399877950549126, -0.10484184324741364, 0.09725702553987503, 0.08919502049684525, -0.14407449960708618, -0.16436392068862915, -0.16177374124526978, -0.036029983311891556, -0.08422692865133286, -0.14687277376651764, -0.08812208473682404, -0.021051209419965744, -0.12847469747066498, 0.06232738494873047, 0.008530660532414913, -0.023070717230439186, 0.05962185189127922, 0.15179000794887543, -0.07518935948610306, -0.04940968006849289, -0.10397158563137054, 0.10022639483213425, -0.08210861682891846, -0.08905905485153198, 0.18183821439743042, -0.036522358655929565, 0.07691348344087601, 0.027108846232295036, 0.0237452182918787, 0.016353126615285873, 0.13057543337345123, -0.04687134176492691, -0.1885969638824463, -0.12352711707353592, -0.008821667172014713, 0.10631559789180756, -0.07001801580190659, 0.08127336949110031, -0.08142834901809692, -0.06549899280071259, 0.16336886584758759, 0.11678355932235718, 0.15659673511981964, 0.029887346550822258, -0.09170036762952805, -0.13386434316635132, 0.0429328978061676, 0.1674523800611496, -0.010321618057787418, -0.08013325929641724, 0.10713835805654526, 0.1787264198064804, 0.013869084417819977, -0.07008646428585052, -0.09119541198015213, 0.09078480303287506, 0.03812287747859955, -0.03354433923959732, 0.08326160907745361, 0.10330869257450104, 0.15350177884101868, 0.07089447230100632, -0.05593249946832657, -0.1525980532169342, -0.11696531623601913, 0.1697300225496292, 0.13188718259334564, 0.0314653255045414, -0.17623271048069, 0.05274621769785881, 0.16603843867778778, 0.1800777018070221, -0.04134320095181465, -0.024973075836896896, -0.04938913509249687, 0.21711158752441406, -0.033518899232149124, -0.016864856705069542, 0.155470609664917, -0.09569544345140457, -0.12040455639362335, -0.0925208181142807, 0.0016918167239055037, -0.07602374255657196, 0.1890801191329956, -0.0932004302740097, 0.0012304107658565044, 0.0449833907186985, 0.09852560609579086, 0.06692086160182953, 0.20065362751483917, -0.009270708076655865, -0.11599558591842651, 0.05651772767305374, 0.06251104921102524, -0.09183987975120544, 0.03888468071818352, -0.06936747580766678, 0.17578935623168945, 0.05581369996070862, -0.10203509032726288, 0.04091666638851166, 0.17126338183879852, 0.06674278527498245, 0.09534212946891785, 0.09376855194568634, 0.08237878978252411, 0.013961559161543846, 0.022572843357920647, -0.1571142077445984, -0.14942914247512817, -0.006412265822291374, -0.09075546264648438, 0.03287206217646599, 0.08387787640094757, -0.008233319036662579, -0.12614481151103973, 0.08628258109092712, -0.06900808960199356, 0.14884628355503082, -0.06372053921222687, -0.019450515508651733, 0.1088254302740097, -0.007944640703499317, 0.13518276810646057, -0.07001521438360214, -0.07059574127197266, -0.07949507236480713, -0.006009784527122974, 0.08295538276433945, -0.07008533924818039, 0.06661532819271088, 0.0025235998909920454, -0.04647058993577957, 0.07584817707538605, -0.16295164823532104, 0.025273727253079414, 0.161235973238945, 0.02745531126856804, 0.09852761030197144, -0.0732082724571228, 0.06638599932193756, -0.12631778419017792, 0.00797333661466837, 0.024857813492417336, 0.0610039085149765, 0.08559758961200714, 0.1601317822933197, -0.006353873759508133, 0.02460150606930256, 0.15006837248802185, -0.024221882224082947, 0.15653209388256073, -0.045174241065979004, -0.0019315840909257531, 0.021313508972525597, 0.11476852744817734, 0.08709930628538132, -0.045642126351594925, -0.1583002209663391, 0.09310844540596008, 0.061098355799913406, 0.06633937358856201, -0.08318081498146057, 0.09935509413480759, 0.14678381383419037, 0.011187485419213772, -0.13750390708446503, 0.09372571855783463, -0.10890721529722214, 0.03008124604821205, 0.013174561783671379, -0.06740686297416687, 0.04891322925686836, -0.13560709357261658, 0.03401307016611099, -0.08925841748714447, -0.00876650307327509, 0.03586047887802124, 0.1378469616174698, -0.061472631990909576, 0.09417325258255005, -0.01535266637802124, -0.06078142672777176, -0.1214679554104805, -0.12980671226978302, 0.13804179430007935, -0.036239102482795715, 0.008317716419696808, 0.04518495500087738, 0.09871019423007965, 0.12226121127605438, 0.11087121069431305, -0.10782502591609955, -0.024938715621829033, -0.09159357100725174, -0.08409813791513443, 0.03128253296017647, 0.12767033278942108, -0.11687763035297394, 0.08479005843400955, -0.08226615190505981, -0.027908870950341225, 0.11329079419374466, -0.0390947125852108, 0.01098363846540451, -0.10490905493497849, 0.12002105265855789, 0.010883421637117863, -0.06913770735263824, 0.08549961447715759, -0.15157152712345123, -0.16843123733997345, -0.04974719509482384, 0.1615302413702011, 0.011857357807457447, 0.12590858340263367, 0.1712140440940857, 0.1483953297138214, -0.017878232523798943, 0.030414510518312454, 0.006547406781464815, -0.058686207979917526, -0.046118203550577164, 0.05709676072001457, 0.06504610925912857, 0.044925156980752945, 0.07030698657035828, -0.018536629155278206, 0.06177038699388504, -0.1127612516283989, -0.1581430733203888, 0.06451557576656342, 0.134404718875885, -0.07685098797082901, 0.08466995507478714, 0.0005864461418241262, -0.15766121447086334, 0.014702538959681988, 0.1767127364873886, -0.053897175937891006, 0.003862174227833748, 0.09856389462947845, -0.07032155245542526, 0.12640716135501862, 0.1279880404472351, 0.14759880304336548, -0.04510926827788353, 0.1962404102087021, -0.027828969061374664, 0.19027498364448547, -0.08664342761039734, -0.07136701047420502, 0.053067706525325775, -0.023081539198756218, -0.03321763873100281, -0.06554591655731201, -0.07985369116067886, -0.04841441661119461, -0.1377001702785492, 0.019469840452075005, 0.024037828668951988, -0.012379085645079613, 0.030857408419251442, 0.12125664949417114, 0.05245288833975792, -0.045633602887392044, -0.06156879663467407, -0.10587182641029358, -0.08671444654464722, -0.025825586169958115, -0.028526263311505318, 0.4453778862953186, -0.5325453877449036, 0.8570805788040161, -0.7597771286964417, 0.009661934338510036, 0.9628441333770752, 1.016254186630249, -0.5158756375312805, 0.2281132936477661, 0.18891064822673798, -0.41695380210876465, -0.38594213128089905, 0.19005566835403442, -0.7471480369567871, 0.17356708645820618, 0.3740457594394684, -0.13164281845092773, 0.25460901856422424, -0.07256115227937698, 0.13588213920593262, 0.18972542881965637, -0.15702813863754272, 0.07944421470165253, -0.06047787517309189, -0.07032977789640427, -0.09303048998117447, 0.047473739832639694, -0.03889366611838341, 0.06402655690908432, 0.056298382580280304, 0.11758577078580856, -0.039380595088005066, 0.005491524003446102, -0.05480186641216278, -0.270521879196167, 0.11361237615346909, -0.007786774542182684, -0.1617424190044403, -0.1477193385362625, 0.11029823124408722, -0.06959778070449829, 0.11601869761943817, 0.04017361253499985, 0.1089952290058136, 0.1019040197134018, -0.027066703885793686, 0.07827409356832504, 0.19944757223129272, 0.010635314509272575, 0.09224998205900192, -0.03522191196680069, 0.19609692692756653, -0.1524231731891632, -0.20674286782741547, 0.05327572673559189, -0.17374642193317413, -0.031173430383205414, -0.16411961615085602, 0.21234188973903656, -0.1804458647966385, 0.16920006275177002, 0.2904967665672302, 0.04956650733947754, 0.003877442330121994, 0.2161073237657547, -0.11059972643852234, -0.0353260263800621, -0.12066783756017685, -0.040537457913160324, 0.0603608563542366, 0.022035647183656693, 0.005481391679495573, -0.24121709167957306, 0.011195831000804901, -0.0024576117284595966, -0.005154655314981937, 0.15552271902561188, 0.2407207489013672, -0.16619962453842163, -0.020906133577227592, -0.1389385461807251, -0.2294231802225113, -0.21186292171478271, 0.20184947550296783, 0.1356770247220993, 0.10174769908189774, 0.11834730207920074, -0.16972313821315765, 0.036746032536029816, 0.2252715826034546, -0.13082361221313477, 0.2478499412536621, 0.041530340909957886, 0.17566849291324615, -0.1285904049873352, 0.100770965218544, -0.19327247142791748, -0.0382767952978611, 0.11668003350496292, 0.06648404151201248, 0.2332657277584076, 0.2711474895477295, 0.2585280239582062, 0.10954520851373672, 0.19662217795848846, -0.009565536864101887, -0.22509761154651642, -0.08788362890481949, -0.0029476331546902657, -0.16046282649040222, 0.14963623881340027, 0.08297878503799438, 0.07096385210752487, 0.13050201535224915, 0.16348962485790253, 0.14262239634990692, -0.2920687794685364, -0.26238611340522766, 0.038670863956213, 0.03512868657708168, 0.05766325443983078, -0.32626405358314514, -0.15943072736263275, 0.2286047637462616, 0.21013464033603668, -0.15667742490768433, 0.0756441131234169, -0.12715892493724823, 0.21796518564224243, 0.06106343865394592, 0.2922641932964325, -0.24654820561408997, -0.21153385937213898, 0.19427627325057983, 0.2638574242591858, 0.10128767043352127, 0.17523764073848724, -0.1828901469707489, 0.16894763708114624, -0.22635960578918457, 0.07015807926654816, -0.17962172627449036, -0.06873428821563721, 0.031687866896390915, -0.12417387217283249, 0.002880566054955125, -0.2963428497314453, -0.21373797953128815, 0.04850418120622635, -0.16342496871948242, -0.21460306644439697, -0.05217868462204933, -0.2370091676712036, -0.2490851730108261, 0.182291641831398, 0.1471862643957138, 0.026496712118387222, -0.09689117223024368, 0.041199930012226105, 0.03739653155207634, -0.23637281358242035, 0.04711116850376129, 0.21352969110012054, -0.25142645835876465, -0.2461910843849182, 0.03271900489926338, 0.17841356992721558, -0.06034084036946297, 0.05925243720412254, 0.17775684595108032, 0.08591902256011963, 0.03280584514141083, 0.19678357243537903, 0.15889504551887512, -0.15395720303058624, -0.005100810434669256, 0.10005177557468414, 0.264928936958313, -0.3074725866317749, 0.16174423694610596, -0.11911306530237198, -0.3070793151855469, -0.005303517449647188, -0.08082570880651474, -0.001971365651115775, -0.2116461545228958, -0.14916227757930756, 0.006697121076285839, -0.09739046543836594, 0.1894332468509674, -0.015613032504916191, 0.2184799611568451, 0.03145407512784004, -0.08088453859090805, 0.1465344876050949, 0.003583667566999793, 0.024788647890090942, -0.09590579569339752, -0.012827472761273384, -0.053226251155138016, -0.014772013761103153, -0.1969936192035675, -0.010191056877374649, -0.20181715488433838, -0.05074853077530861, 0.14213807880878448, -0.19561220705509186, -0.1477080136537552, -0.07097865641117096, -0.02130385860800743, -0.014789067208766937, 0.07274024933576584, 0.07444601505994797, -0.22822582721710205, -0.07742908596992493, 0.16720876097679138, 0.18073397874832153, -0.0690024197101593, -0.10710857063531876, 0.09196386486291885, 0.15314045548439026, -0.11103781312704086, -0.1829378455877304, 0.1412324458360672, -0.022872567176818848, -0.21302679181098938, -0.17871655523777008, 0.11105290800333023, -0.11141496151685715, 0.14351195096969604, 0.16077716648578644, 0.0690380185842514, -0.04678911715745926, -0.10631576180458069, 0.013572928495705128, 0.0685686394572258, -0.18630443513393402, -0.03726154565811157, -0.2219337373971939, 0.1754056215286255, -0.1700984686613083, 0.26841020584106445, -0.12261335551738739, -0.13140664994716644, 0.0677267387509346, -0.04301918298006058, 0.11192245036363602, 0.1443888247013092, -0.2702406048774719, 0.11035549640655518, -0.005679252091795206, -0.05064473673701286, 0.1738172173500061, 0.22107259929180145, -0.22517092525959015, -0.001336119370535016, 0.18111063539981842, 0.09391587972640991, 0.20914871990680695, -0.080295629799366, -0.1376875638961792, 0.20912787318229675, 0.10474519431591034, 0.23115448653697968, -0.09998736530542374, -0.1562962681055069, -0.035060010850429535, -0.24233391880989075, 0.0874103456735611, 0.18269729614257812, 0.04455818235874176, -0.04349253326654434, 0.1392914056777954, -0.15313148498535156, 0.22326971590518951, -0.22299440205097198, -0.19178886711597443, -0.06072581186890602, 0.1656472384929657, 0.014759460464119911, 0.09519131481647491, -0.1773749142885208, 0.09128591418266296, -0.017724985256791115, 0.08892618119716644, 0.16562163829803467, 0.10433859378099442, -0.013049154542386532, 0.0111034344881773, -0.07556431740522385, -0.03208461031317711, 0.07829003781080246, -0.07708614319562912, 0.07356435805559158, -0.07203862816095352, -0.04971698299050331, 0.006302678491920233, -0.16772620379924774, -0.03761914744973183, -0.04497358575463295, -0.040890034288167953, -0.058902859687805176, 0.08516307175159454, 0.14627695083618164, -0.050884757190942764, 0.08951675891876221, -0.07763654738664627, -0.09132461994886398, 0.07991746068000793, 0.04861185699701309, -0.016811329871416092, -0.11177818477153778, -0.08007504791021347, 0.020862990990281105, -0.13956421613693237, -0.14210501313209534, 0.01752588152885437, -0.10828515887260437, -0.16316723823547363, -0.1022268757224083, -0.043941229581832886, -0.1734122484922409, -0.1346767097711563, -0.03017469309270382, -0.15863347053527832, -0.04141010716557503, -0.09526494890451431, -0.0888613685965538, 0.06805844604969025, -0.09407667070627213, -0.11477735638618469, 0.07408885657787323, 0.03586395084857941, 0.12603138387203217, -0.04207871854305267, -0.09023941308259964, -0.013996998779475689, -0.009514386765658855, 0.06637745350599289, -0.13351301848888397, -0.007130443584173918, 0.051678817719221115, -0.025380216538906097, -0.04557646065950394, 0.038802340626716614, -0.10718147456645966, 0.045369114726781845, -0.1257738620042801, 0.07356402277946472, -0.12573719024658203, 0.07327818870544434, -0.21830826997756958, -0.17383606731891632, 0.01251217070966959, 0.10244091600179672, -0.1363312155008316, -0.10370400547981262, 0.053150635212659836, -0.07132349908351898, 0.07168147712945938, -0.0753365159034729, -0.008602259680628777, -0.095951147377491, 0.10532081872224808, 0.047058165073394775, -0.10267147421836853, 0.10247882455587387, 0.04777903854846954, -0.07584880292415619, -0.10667862743139267, -0.06939475983381271, 0.08086620271205902, -0.05450254678726196, -0.07548587769269943, -0.06954461336135864, 0.028949866071343422, 0.05467089265584946, -0.00443816976621747, 0.012097475118935108, -0.06681767106056213, -0.06463363021612167, -0.1088881865143776, 0.0920957550406456, -0.10779011249542236, -0.09641941636800766, -0.1301921308040619, -0.043432705104351044, 0.1354135423898697, 0.14400848746299744, -0.10847969353199005, -0.03743695467710495, 0.0435016006231308, 0.02179773896932602, 0.10220752656459808, -0.021340759471058846, -0.11221635341644287, 0.10574683547019958, -0.03527286648750305, 0.08849287778139114, -0.003902159398421645, 0.10959028452634811, 0.17704321444034576, 0.1534733921289444, -0.11908404529094696, -0.08668937534093857, -0.022752957418560982, -0.04194234684109688, 0.1893250197172165, -0.04539594426751137, -0.14183764159679413, -0.11071553826332092, -0.05439113825559616, 0.08759528398513794, -0.09668613970279694, -0.16126742959022522, -0.19231517612934113, 0.01067031268030405, 0.059371218085289, -0.09570179134607315, 0.02744009532034397, 0.06964980065822601, -0.022601990029215813, -0.07441211491823196, -0.01585654355585575, -0.04342799261212349, 0.045664675533771515, -0.11926321685314178, 0.04087314009666443, 0.04656197503209114, -0.06786250323057175, 0.1468622386455536, 0.17142035067081451, -0.09450996667146683, -0.07591831684112549, 0.04080803319811821, -0.08096886426210403, 0.09030646085739136, 0.06739728152751923, 0.04692166671156883, -0.16499318182468414, -0.15421748161315918, 0.08870711177587509, 0.08456755429506302, -0.09965033829212189, -0.04725527763366699, -0.09604339301586151, -0.0659346953034401, -0.031442053616046906, 0.14502009749412537, -0.018487414345145226, 0.053334277123212814, 0.10884906351566315, 0.03324645385146141, -0.10874570906162262, 0.08607670664787292, 0.05046897754073143, 0.0684986338019371, -0.18129748106002808, 0.05471731722354889, 0.15201051533222198, -0.10061725229024887, 0.04726209491491318, 0.07664819061756134, -0.14313547313213348, 0.017376717180013657, 0.08216062188148499, 0.057823296636343, 0.1758831888437271, 0.07744461297988892, 0.0858258381485939, -0.05122900381684303, 0.08343205600976944, -0.1711205691099167, -0.11321452260017395, -0.07762423157691956, -0.08500892668962479, 0.09747625142335892, 0.11605841666460037, 0.1365017145872116, 0.1363118439912796, -0.11791873723268509, -0.03177335113286972, 0.00408217404037714, 0.06229497864842415, 0.0955890640616417, -0.03533804416656494, -0.0736316591501236, 0.08649039268493652, -0.06893835961818695, -0.1253920942544937, 0.07336888462305069, 0.07795168459415436, -0.04137647524476051, -0.02670789510011673, -0.1047763004899025, -0.08715213090181351, 0.09637578576803207, -0.028250837698578835, 0.1373455673456192, -0.09843653440475464, -0.005879153031855822, 0.040810566395521164, 0.11805737763643265, 0.1548221856355667, 0.06478486210107803, 0.024309510365128517, -0.10012823343276978, -0.07712928205728531, -0.10143241286277771, 0.03455641120672226, 0.1111011877655983, -0.07038919627666473, -0.04252588003873825, -0.12534873187541962, 0.02862359769642353, 0.07432088255882263, -0.1782783567905426, -0.1393498182296753, 0.07322436571121216, 0.008262023329734802, -0.03496536985039711, 0.001939103938639164, -0.042929746210575104, -0.12711778283119202, -0.159193217754364, 0.11477743834257126, 0.006606689654290676, -0.03375563770532608, -0.06090330705046654, -0.09908774495124817, -0.057873766869306564, -0.11582838743925095, 0.11846364289522171, 0.06983233243227005, -0.07761688530445099, -0.05323217809200287, 0.06101493537425995, -0.03720153495669365, 0.05247661471366882, 0.05259782820940018, -0.07813941687345505, 0.050070587545633316, 0.023887651041150093, 0.11494879424571991, -0.0665612742304802, -0.051424238830804825, 0.09568770974874496, -0.1368011087179184, -0.00404938543215394, 0.12041184306144714, -0.08513719588518143, 0.11571522057056427, 0.12840217351913452, 0.1363937109708786, -0.013096772134304047, 0.13395275175571442, -0.05927317589521408, -0.04514278471469879, 0.059874895960092545, 0.04164131358265877, 0.09300440549850464, 0.15602923929691315, -0.07467973232269287, 0.09619469940662384, 0.050732776522636414, 0.0776454284787178, 0.06962721794843674, -0.06206682696938515, -0.12309250980615616, 0.10512319207191467, -0.09593692421913147, 0.08061102777719498, -0.14605024456977844, -0.011577073484659195, 0.014091956429183483, 0.03758036717772484, 0.01087977271527052, 0.03810880705714226, -0.03302114084362984, 0.05577527731657028, 0.1596079170703888, -0.07934095710515976, -0.044839128851890564, -0.09931116551160812, 0.07174642384052277, 0.11145931482315063, -0.017634252086281776, -0.06594276428222656, -0.08821334689855576, 0.10179015249013901, -0.014353185892105103, 0.17645598948001862, 0.13356474041938782, 0.1913217306137085, 0.1266375482082367, -0.08813927322626114, 0.039018064737319946, -0.018866481259465218, 0.12317385524511337, 0.05069919675588608, -0.027022523805499077, -0.1472770869731903, -0.18660706281661987, 0.07990562170743942, 0.060786254703998566, 0.04145772382616997, 0.05565795302391052, -0.1146128699183464, -0.01809805817902088, -0.0717364177107811, 0.03988995775580406, -0.02725960873067379, 0.062102220952510834, 0.08168446272611618, 0.0711427703499794, -0.023222018033266068, 0.054072245955467224, -0.1774589568376541, -0.11558863520622253, -0.013192195445299149, -0.05040154233574867, -0.07785037159919739, -0.02123630978167057, -0.014003369025886059, -0.14642569422721863, 0.008341777138411999, 0.09712675958871841, 0.0644637793302536, -0.06452792137861252, -0.12559747695922852, -0.14622125029563904, -0.027075521647930145, 0.08257346600294113, -0.07834535092115402, -0.09789720177650452, -0.0913752093911171, -0.018766317516565323, -0.14435069262981415, -0.133516326546669, 0.19028548896312714, -0.019860487431287766, -0.002285141497850418, -0.0212174654006958, -0.11120960861444473, -0.006705446634441614, 0.0940331295132637, -0.009703069925308228, 0.020985083654522896, -0.03543706238269806, -0.17952480912208557, 0.08408261835575104, 0.13688935339450836, 0.11936647444963455, -0.028949765488505363, 0.027897115796804428, -0.18629102408885956, -0.061889346688985825, -0.057490743696689606, -0.07612848281860352, 0.03403792902827263, -0.10198228806257248, -0.05135743319988251, -0.06403543800115585, -0.14968308806419373, -0.037205785512924194, -0.13136020302772522, 0.05943781137466431, 0.051865775138139725, 0.12198606878519058, -0.030632728710770607, 0.02507001720368862, 0.03359602391719818, 0.15018321573734283, 0.14186187088489532, -0.05283631756901741, -0.13176798820495605, -0.1365593522787094, -0.0693354681134224, 0.1377631276845932, 0.08058531582355499, 0.2069740891456604, 0.11066644638776779, 0.01261851005256176, -0.06691225618124008, 0.13118478655815125, 0.10744424164295197, 0.05832180380821228, -0.12978579103946686, 0.03897662088274956, -0.11160162836313248, 0.09306441247463226, 0.06038859114050865, 0.08588983863592148, -0.17029179632663727, -0.1455431431531906, -0.027591362595558167, -0.005820900201797485, -0.07739163190126419, 0.20972007513046265, -0.01391113642603159, 0.10056689381599426, -0.14133083820343018, 0.08558665215969086, 0.004869108088314533, 0.049493126571178436, -0.018792850896716118, -0.04196672886610031, 0.09397820383310318, -0.0037756136152893305, 0.14704635739326477, 0.10389871895313263, -0.014302483759820461, -0.06189972907304764, -0.10058275610208511, -0.030689310282468796, -0.10809401422739029, 0.03459726646542549, -0.00815063901245594, -0.04233334958553314, -0.13326746225357056, 0.09063100814819336, 0.07937278598546982, -0.031458187848329544, -0.06271903961896896, 0.08967257291078568, 0.12727488577365875, -0.12474740296602249, -0.01044947188347578, 0.017486564815044403, -0.05322607606649399, 0.12731005251407623, -0.01348656415939331, 0.1079820767045021, -0.010900786146521568, -0.025061896070837975, -0.08008744567632675, -0.0647612139582634, 0.01393005158752203, 0.05437315255403519, -0.00865924172103405, 0.13840937614440918, -0.09966297447681427, 0.03648443520069122, 0.09690698981285095, -0.012950179167091846, 0.14194351434707642, 0.04050038382411003, -0.11914465576410294, -0.09491968899965286, 0.03503720089793205, -0.06380706280469894, 0.055861953645944595, 0.17994441092014313, 0.052169255912303925, -0.011742975562810898, 0.03935324028134346, -0.06889040023088455, -0.09515741467475891, -0.07355731725692749, -0.11445201933383942, 0.04060585796833038, 0.04219471290707588, -0.06238760054111481, -0.12860503792762756, 0.10145784914493561, -0.07426325231790543, -0.029927290976047516, -0.13732710480690002, -0.02510976977646351, 0.10428716242313385, -0.11904222518205643, -0.10196791589260101, 0.08031173795461655, -0.12282542884349823, 0.011795791797339916, -0.005924867000430822, 0.035233959555625916, -0.09276346117258072, -0.003131169592961669, 0.009914159774780273, -0.019681405276060104, 0.013113045133650303, -0.13417746126651764, -0.004453983157873154, 0.028665512800216675, 0.027766350656747818, -0.07906803488731384, 0.08790863305330276, 0.09832606464624405, -0.09139417856931686, 0.046623148024082184, 0.10275429487228394, 0.013348431326448917, 0.020373934879899025, 0.1091621071100235, -0.04672689363360405, -0.1550905704498291, -0.03602986037731171, 0.1460937261581421, -0.016327043995261192, -0.11484504491090775, 0.1097305566072464, 0.06388548761606216, -0.030999982729554176, 0.07737159729003906, 0.016586609184741974, 0.005638903938233852, 0.056430917233228683, -0.054378777742385864, 0.029870538040995598, 0.0739624872803688, 0.04515625163912773, -0.0776105597615242, -0.02906676009297371, -0.14646875858306885, 0.0704939216375351, 0.08976902812719345, -0.004091501701623201, -0.09778402745723724, -0.030428551137447357, -0.028865158557891846, -0.153481125831604, -0.0921771228313446, 0.14378073811531067, 0.11971896886825562, 0.0667591542005539, 0.08705956488847733, 0.043212320655584335, 0.06739861518144608, 0.08200854808092117, -0.046525001525878906, 0.010600585490465164, 0.13146758079528809, 0.032393258064985275, -0.0958247259259224, -0.11339002847671509, 0.08083713799715042, 0.14328745007514954, 0.13561458885669708, 0.04858562350273132, 0.10766804963350296, -0.12356074154376984, -0.0946430042386055, -0.1648717075586319, 0.09019399434328079, -0.0275165643543005, -0.0768960490822792, 0.03988916426897049, -0.06493989378213882, -0.07581640779972076, 0.07027319073677063, 0.043073076754808426, -0.08560017496347427, -0.07733988016843796, 0.086881622672081, 0.128988578915596, 0.03094506822526455, -0.05316350609064102, 0.07788248360157013, 0.03362026810646057, -0.11560535430908203, -0.09459470212459564, 0.030150622129440308, 0.08713839948177338, -0.047265540808439255, 0.07062017172574997, -0.09316742420196533, 0.12004590034484863, 0.08679473400115967, 0.007472660392522812, 0.09670061618089676, 0.08008141815662384, -0.07237548381090164, 0.014405044727027416, 0.050851672887802124, -0.02879422903060913, 0.13298988342285156, -0.060386430472135544, -0.13527853786945343, -0.10396794229745865, -0.16643263399600983, 0.1149621307849884, -0.0797850638628006, -0.11338020116090775, -0.029217509552836418, -0.13741788268089294, -0.11131071299314499, 0.06299397349357605, -0.07321486622095108, 0.10229494422674179, 0.12040644139051437, -0.025621909648180008, 0.03877699747681618, -0.10265561938285828, 0.14479298889636993, 0.17404112219810486, 0.039028462022542953, 0.14351621270179749, -0.13851398229599, -0.012272651307284832, 0.06525877118110657, -0.09327568858861923, 0.08661411702632904, -0.030784813687205315, -0.030214477330446243, -0.09868630766868591, 0.08232644945383072, -0.08342410624027252, -0.024339953437447548, 0.043785903602838516, 0.09133575111627579, 0.031444650143384933, -0.07583592087030411, -0.07486782968044281, 0.08405312150716782, 0.019013365730643272, 0.11962518095970154, 0.058116037398576736, 0.10044384747743607, -0.11492525041103363, 0.14294736087322235, -0.052549682557582855, -0.018633250147104263, 0.028609437867999077, -0.019991949200630188, 0.03943460434675217, 0.14440983533859253, -0.08166784793138504, 0.02338155172765255, -0.18108221888542175, -0.010853614658117294, 0.09225783497095108, 0.0804840698838234, 0.11956768482923508, 0.049591269344091415, -0.08346566557884216, 0.024295061826705933, -0.05405823141336441, 0.1557740420103073, 0.07192006707191467, -0.111285001039505, 0.11293613165616989, -0.021668771281838417, 0.003053124528378248, 0.017851272597908974, -0.004557451233267784, 0.038485899567604065, -0.034276243299245834, -0.13942140340805054, -0.06449674814939499, 0.0043359906412661076, 0.10349882394075394, 0.10609278082847595, -0.07949182391166687, -0.02851356752216816, -0.04716307297348976, -0.05512329563498497, -0.0014659587759524584, -0.043401412665843964, 0.06263860315084457, -0.15292462706565857, -0.0505794920027256, -0.14374616742134094, 0.00762182055041194, 0.16875353455543518, -0.006668597459793091, -0.0771578997373581, 0.08945567160844803, 0.029555782675743103, -0.03504426032304764, -0.04005485028028488, 0.007742561399936676, -0.0023821985814720392, 0.10739555209875107, 0.01639764942228794, 0.1553909182548523, -0.07487518340349197, -0.07689977437257767, -0.019204361364245415, 0.049670685082674026, 0.08316390961408615, 0.04033316299319267, -0.004412641283124685, -0.10693898051977158, 0.017657356336712837, -0.12510481476783752, -0.045796554535627365, -0.04906200245022774, -0.07188701629638672, 0.14226733148097992, -0.041857652366161346, 0.09062155336141586, 0.12875685095787048, 0.10043273866176605, 0.08772658556699753, -0.01284833624958992, 0.009604831226170063, 0.024682186543941498, 0.03262855485081673, -0.07285317033529282, -0.037052467465400696, -0.04443039372563362, -0.17665468156337738, -0.019258562475442886, -0.13293977081775665, 0.13933637738227844, -0.03568818047642708, -0.02376731112599373, -0.07965986430644989, 0.11002696305513382, -0.10009074956178665, 0.06762077659368515, 0.07106930762529373, 0.10252182930707932, 0.04104246944189072, 0.09540904313325882, 0.13783586025238037, 0.04759448021650314, 0.07203861325979233, -0.08819372206926346, -0.03701961785554886, 0.022534647956490517, 0.028924180194735527, -0.06919390708208084, -0.18256689608097076, -0.08850807696580887, 0.026601972058415413, 0.10122983902692795, -0.14967063069343567, 0.042436838150024414, -0.18133683502674103, -0.1929158866405487, -0.08163446187973022, 0.004058961756527424, 0.07066132128238678, -0.11899763345718384, 0.09842033684253693, 0.11593648046255112, 0.017897091805934906, 0.15147912502288818, -0.01777627132833004, -0.023808622732758522, 0.011728434823453426, 0.048398979008197784, -0.0868413895368576, -0.09230772405862808, 0.08609088510274887, 0.04482830688357353, 0.14746829867362976, -0.051091816276311874, 0.04928289353847504, -0.04765312001109123, 0.09002777189016342, -0.0007012036512605846, 0.10254080593585968, 0.0686766654253006, 0.14136990904808044, 0.07539554685354233, -0.010486292652785778, 0.08932412415742874, -0.10280802845954895, 0.12062948942184448, 0.13893087208271027, 0.13638581335544586, -0.060144905000925064, -0.07724343985319138, 0.04132365807890892, 0.06269653886556625, 0.07732921093702316, 0.044842224568128586, 0.06769901514053345, -0.03969656676054001, -0.29650503396987915, 0.35271021723747253, 0.34839722514152527, -0.5806998610496521, 0.15327444672584534, -0.8005532622337341, -0.2139536589384079, -0.3517386317253113, 0.7484157085418701, -0.9510992169380188, -0.5414336323738098, -0.9715821146965027, 0.23131336271762848, -0.8697112202644348, 0.29843127727508545, -0.769579291343689, -0.12136228382587433, -0.10315223783254623, 0.034846700727939606, 0.23305761814117432, 0.2199697345495224, -0.004487678874284029, -0.21766476333141327, -0.04967527464032173, -0.08110781759023666, -0.051546577364206314, 0.09405778348445892, 0.13178960978984833, 0.050530292093753815, 0.08607567101716995, -0.05798082798719406, -0.01998426765203476, 0.033804766833782196, -0.16338016092777252, -0.047309085726737976, -0.040994856506586075, -0.25230711698532104, 0.20025497674942017, -0.022884426638484, -0.20363159477710724, 0.12622539699077606, -0.12144364416599274, 0.11237950623035431, 0.2899024784564972, 0.011606448329985142, 0.10439472645521164, 0.10076954960823059, 0.2195768505334854, -0.05991789326071739, -0.19665738940238953, -0.039957109838724136, 0.1518048495054245, 0.02646949328482151, 0.20975974202156067, -0.03569446876645088, 0.07450833171606064, -0.08178608864545822, 0.0650784820318222, -0.23101340234279633, -0.13140347599983215, 0.018898872658610344, 0.19189870357513428, 0.15169483423233032, 0.05241196230053902, 0.07389964163303375, 0.08072736114263535, -0.21998359262943268, -0.19809532165527344, -0.198349267244339, 0.007075016386806965, -0.11532054841518402, -0.08915404975414276, -0.07861565053462982, 0.08247197419404984, 0.07949219644069672, 0.24541978538036346, 0.2676866054534912, -0.17536379396915436, 0.012215233407914639, 0.05498161166906357, 0.2611999213695526, -0.043780017644166946, -0.11474695801734924, -0.13488219678401947, 0.16750343143939972, -0.040865458548069, -0.09650474786758423, 0.20879381895065308, 0.23418790102005005, -0.015671731904149055, -0.16795168817043304, 0.22114941477775574, -0.12733329832553864, -0.07774505764245987, -0.15967990458011627, -0.14526362717151642, -0.17483770847320557, -0.11185189336538315, -0.22260171175003052, -0.0632597804069519, 0.10572125762701035, -0.2034570872783661, -0.04370245710015297, -0.08251284062862396, 0.19000883400440216, 0.20935462415218353, -0.053851787000894547, -0.1595831662416458, -0.2077511101961136, -0.14627769589424133, 0.061747241765260696, 0.04052836820483208, 0.09113489091396332, -0.11172190308570862, 0.09588440507650375, -0.2376241534948349, 0.056809622794389725, 0.27207693457603455, -0.30434221029281616, -0.17422986030578613, 0.12862899899482727, 0.024966655299067497, -0.12948809564113617, 0.1991518884897232, 0.06723465770483017, 0.06607935577630997, -0.10554291307926178, 0.2601986825466156, 0.1630585491657257, 0.07064205408096313, 0.055157046765089035, 0.13395090401172638, 0.1739208698272705, -0.11614952981472015, -0.04382310435175896, 0.11737431585788727, -0.08830195665359497, 0.23606358468532562, -0.18803519010543823, 0.08367278426885605, -0.21236157417297363, 0.07376053929328918, 0.16793061792850494, 0.0009257502388209105, -0.037902869284152985, 0.11705324053764343, -0.2190495878458023, -0.1793004423379898, -0.24053481221199036, -0.1122538149356842, -0.00763302156701684, -0.12419894337654114, -0.008560801856219769, 0.044555626809597015, 0.23978447914123535, -0.06203959137201309, -0.03474614769220352, 0.21050874888896942, -0.06357002258300781, 0.29193446040153503, -0.05620327591896057, -0.0056933071464300156, 0.0009530119714327157, 0.15081849694252014, 0.14079871773719788, -0.19243177771568298, 0.2018425613641739, -0.003874831134453416, -0.07392654567956924, -0.040706291794776917, 0.161541149020195, 0.20884418487548828, 0.07427887618541718, -0.05148126929998398, 0.11835001409053802, -0.15722247958183289, -0.14066942036151886, -0.11874016374349594, -0.20057649910449982, 0.08792503923177719, -0.0058848741464316845, -0.03429776430130005, -0.03148355707526207, -0.013085747137665749, 0.12491688877344131, 0.2705805003643036, -0.1625892072916031, 0.14469018578529358, 0.10349307954311371, 0.1596415936946869, -0.03148910403251648, 0.11336753517389297, 0.037655752152204514, 0.2532796859741211, -0.24915847182273865, -0.09410852193832397, -0.1823495775461197, -0.10460148006677628, 0.0448068268597126, 0.1518123298883438, -0.1435706466436386, 0.16475065052509308, 0.1998150646686554, -0.13924960792064667, 0.03351598232984543, -0.08620958775281906, 0.0705227181315422, -0.12270298600196838, -0.13507358729839325, -0.21689842641353607, -0.23982423543930054, 0.17584237456321716, -0.04854051023721695, 0.024287134408950806, -0.1326606422662735, 0.1451091766357422, -0.1783253252506256, -0.06532490998506546, -0.18350009620189667, -0.1599767655134201, 0.2583189308643341, -0.14693643152713776, -0.024026891216635704, -0.01498027890920639, 0.078236423432827, 0.04559009149670601, -0.21192710101604462, 0.20640961825847626, -0.26329362392425537, 0.047312211245298386, -0.035868965089321136, -0.07193970680236816, 0.12672649323940277, 0.224929079413414, 0.05226020887494087, -0.06108926981687546, 0.21388807892799377, 0.17376036942005157, 0.027468042448163033, -0.043666694313287735, 0.06119796633720398, 0.18901239335536957, 0.008419543504714966, -0.08173756301403046, -0.21229037642478943, -0.09666246920824051, 0.15525411069393158, 0.0316811241209507, -0.10105522722005844, 0.12942545115947723, -0.15108880400657654, 0.05728553235530853, -0.10027065128087997, 0.19262602925300598, 0.20291344821453094, 0.1777033507823944, 0.22050076723098755, -0.2102264165878296, -0.09578520804643631, 0.04193282127380371, -0.22312666475772858, 0.07718229293823242, -0.1473957598209381, 0.12676413357257843, 0.21482880413532257, -0.20187492668628693, 0.21251125633716583, 0.12915226817131042, -0.18996411561965942, 0.2606848180294037, -0.18971504271030426, -0.1714523881673813, -0.10378745198249817, -0.006506225559860468, 0.008876755833625793, -0.05875949189066887, -0.22304339706897736, -0.03795140981674194, 0.1529683917760849, 0.1829075813293457, 0.12557001411914825, 0.02357357367873192, 0.05976419150829315, -0.18824586272239685, 0.08799295127391815, -0.2586609721183777, -0.11903903633356094, -0.058235008269548416, 0.09213025867938995, -0.029056057333946228, -0.06026400998234749, -0.001795693300664425, -0.1441018283367157, -0.015225464478135109, 0.015150225721299648, -0.02493274211883545, 0.03161725401878357, 0.06956084817647934, -0.12546473741531372, -0.05583852529525757, 0.13608574867248535, 0.02522270381450653, -0.02973790653049946, 0.11016903817653656, 0.10574990510940552, -0.06163917854428291, -0.09387800842523575, -0.06013931706547737, 0.04958384856581688, -0.0005145430914126337, 0.10268919169902802, -0.14342933893203735, -0.09732606261968613, 0.08609842509031296, 0.036967407912015915, 0.0419413298368454, 0.06798021495342255, -0.03341071307659149, -0.10619155317544937, -0.005814357195049524, -0.015452869236469269, -0.06615704298019409, 0.012954593636095524, 0.0238224845379591, -0.023005127906799316, -0.10685698688030243, 0.006402067840099335, -0.12219538539648056, 0.031835876405239105, -0.06946437805891037, 0.08068615943193436, 0.03976631909608841, -0.04725459963083267, 0.10729701817035675, -0.1403714269399643, -0.027916524559259415, -0.055917538702487946, -0.08531194180250168, 0.04548759385943413, -0.05512400344014168, 0.11382085084915161, -0.11983533948659897, 0.12724986672401428, 0.0878002867102623, 0.09764228761196136, -0.02248307131230831, -0.07379457354545593, -0.0914173498749733, 0.11717406660318375, -0.07353045046329498, -0.018299665302038193, -0.049132220447063446, -0.0029846029356122017, -0.11425361782312393, 0.1171494796872139, -0.10917360335588455, 0.12419062107801437, -0.08110533654689789, -0.0859137549996376, -0.028824100270867348, 0.05526465177536011, -0.011443112045526505, -0.15252473950386047, 0.09683593362569809, 0.13448065519332886, 0.06766822189092636, 0.1779436469078064, 0.06407828629016876, -0.028863392770290375, -0.09419136494398117, -0.10774682462215424, -0.07732789218425751, -0.02862292155623436, 0.08975933492183685, -0.06240260973572731, 0.02615048736333847, 0.018970532342791557, -0.10660380870103836, 0.006785854697227478, 0.14299766719341278, 0.06604544073343277, 0.12478000670671463, 0.009031332097947598, 0.03479141369462013, 0.05431930348277092, -0.07420679926872253, -0.0904703363776207, 0.11780525743961334, 0.012244937010109425, -0.0961855873465538, 0.1346757709980011, 0.03800477460026741, 0.08834166824817657, -0.13930644094944, 0.02080051600933075, 0.08000132441520691, -0.027896493673324585, -0.09583476185798645, 0.09891246259212494, 0.08374375849962234, 0.05695260688662529, 0.04331345111131668, 0.030484525486826897, 0.11480154097080231, -0.007991891354322433, -0.06656913459300995, 0.06622273474931717, 0.061169397085905075, 0.057668086141347885, -0.0035282408352941275, -0.008758164942264557, -0.025069845840334892, 0.029933957383036613, -0.10059785097837448, -0.15330849587917328, 0.04179146885871887, -0.08512193709611893, -0.0194863248616457, 0.02839435264468193, 0.0006898122956044972, 0.0983816459774971, 0.027459250763058662, 0.04073818773031235, -0.044943828135728836, 0.000752486870624125, 0.04150702804327011, 0.10012790560722351, -0.13064293563365936, -0.048437733203172684, -0.1327505111694336, -0.08622922003269196, 0.0541730560362339, -0.07922886312007904, -0.0687846913933754, 0.11396332085132599, -0.04402133822441101, 0.1374811977148056, 0.03387787565588951, 0.10072418302297592, 0.16056455671787262, -0.1575293391942978, 0.1431061327457428, 0.07412010431289673, -0.10459619760513306, 0.017265524715185165, -0.056701209396123886, -0.07046561688184738, -0.08338258415460587, -0.11595384776592255, 0.133425772190094, 0.13383953273296356, -0.007488251198083162, -0.14435537159442902, -0.057106029242277145, -0.031165068969130516, 0.0965379923582077, 0.060396600514650345, 0.08800175040960312, 0.039325665682554245, -0.12387384474277496, -0.13010849058628082, -0.1464729905128479, 0.08055710047483444, 0.10783009231090546, -0.022234024479985237, 0.12107545137405396, -0.049361053854227066, -0.10859348624944687, 0.07151369750499725, -0.00013495310849975795, -0.011699664406478405, 0.20991452038288116, 0.05143497884273529, 0.11448075622320175, 0.09358669817447662, -0.010016008280217648, 0.06292007863521576, -0.10075432062149048, -0.005410540383309126, 0.049495697021484375, 0.09433534741401672, -0.10130826383829117, 0.059055253863334656, -0.03753915801644325, 0.08843572437763214, 0.07265745848417282, 0.030099958181381226, 0.06727353483438492, -0.01647997833788395, 0.0040492466650903225, 0.1251966506242752, -0.08072201162576675, -0.09235639125108719, 0.01959025301039219, -0.04767228662967682, -0.008795781061053276, 0.10154217481613159, -0.07731074094772339, -0.15567536652088165, -0.10467470437288284, 0.10949302464723587, -0.05054992809891701, -0.08531156182289124, 0.023380275815725327, 0.01817585527896881, -0.13141359388828278, 0.14045044779777527, 0.08923892676830292, 0.12984895706176758, 0.046554483473300934, -0.04875917732715607, -0.036756981164216995, 0.11118747293949127, 0.004400067031383514, 0.05849635228514671, -0.10824103653430939, -0.08061893284320831, 0.0507662333548069, 0.007844015024602413, -0.06159164011478424, -0.11692836880683899, 0.12584663927555084, -0.05020179972052574, -0.15361952781677246, 0.17498871684074402, 0.11402824521064758, -0.04136093333363533, -0.0717248022556305, 0.1924343854188919, 0.036465954035520554, -0.13466455042362213, 0.12982042133808136, -0.011856000870466232, -0.05871136486530304, 0.008055314421653748, -0.08195674419403076, -0.16605642437934875, 0.01465383917093277, -0.10140913724899292, 0.061122044920921326, -0.0234252717345953, -0.07626845687627792, 0.04449095204472542, -0.22148355841636658, -0.09801985323429108, 0.17446492612361908, -0.06862431019544601, 0.10986541211605072, -0.01969377137720585, -0.16584505140781403, -0.1577826887369156, 0.12067897617816925, 0.14890119433403015, 0.01254682894796133, -0.1937938779592514, -0.13662846386432648, -0.022003954276442528, 0.03458495810627937, 0.12738163769245148, 0.0739452913403511, -0.08256468921899796, 0.036120980978012085, 0.08818386495113373, 0.08241482824087143, 0.19083233177661896, -0.01390240527689457, -0.1009177640080452, 0.0638059675693512, 0.0854620561003685, -0.018032539635896683, 0.07140490412712097, -0.06453993916511536, -0.20628885924816132, 0.08459538221359253, -0.07719814032316208, -0.013563472777605057, -0.12654687464237213, -0.11777904629707336, 0.0164752509444952, 0.025004975497722626, -0.0818595439195633, -0.04363635182380676, 0.07480733841657639, -0.09680954366922379, -0.06913957744836807, -0.06328535825014114, 0.10849205404520035, 0.03186994418501854, 0.016918284818530083, -0.023866508156061172, 0.08038413524627686, -0.01281299814581871, 0.137992262840271, 0.020886080339550972, 0.03396330773830414, 0.04300228878855705, -0.0438508465886116, 0.14941099286079407, 0.10933653265237808, -0.11226929724216461, -0.17716412246227264, -0.06631390750408173, 0.10909602046012878, -0.04505443945527077, 0.15398843586444855, -0.072069451212883, -0.1814933866262436, 0.030156461521983147, -0.05689150467514992, -0.019230956211686134, -0.033144496381282806, -0.006838091649115086, -0.1597072333097458, -0.1574186235666275, 0.06837795674800873, -0.056121207773685455, -0.11083701997995377, 0.027324620634317398, -0.17875705659389496, 0.018216274678707123, 0.12327345460653305, 0.1582181453704834, -0.1173924133181572, -0.040708813816308975, 0.14877818524837494, 0.19741247594356537, -0.1499931961297989, 0.13284936547279358, 0.09339247643947601, 0.01145939715206623, 0.014658353291451931, 0.17449022829532623, -0.12181881815195084, -0.04570368304848671, 0.04180440679192543, 0.03939251974225044, -0.1411796659231186, 0.027483152225613594, -0.05704397335648537, -0.06694607436656952, 0.06185067445039749, 0.1407093107700348, -0.03833355754613876, 0.029156623408198357, 0.02603604830801487, -0.19124701619148254, -0.010828077793121338, 0.0041092680767178535, 0.07689443975687027, 0.12869423627853394, -0.15980245172977448, -0.19061756134033203, -0.02087984047830105, -0.14445392787456512, 0.21099844574928284, -0.03827996924519539, -0.06905529648065567, -0.016217540949583054, -0.005110750440508127, -0.13816076517105103, 0.11408228427171707, 0.1365554928779602, 0.09652040898799896, -0.009548825211822987, -0.004391087684780359, -0.02252073772251606, 0.10501332581043243, -0.04631286486983299, -0.21509389579296112, -0.19678562879562378, -0.17042237520217896, -0.0768752172589302, -0.07565043121576309, -0.10446779429912567, 0.029384927824139595, 0.10045387595891953, -0.060559410601854324, 0.014965783804655075, 0.0187107864767313, 0.07850201427936554, -0.09596911072731018, 0.021704277023673058, 0.14257681369781494, 0.10508299618959427, -0.16108335554599762, -0.038728490471839905, -0.013488464057445526, -0.0948360413312912, -0.135213240981102, -0.1342112272977829, 0.08609869331121445, -0.06161409988999367, -0.02731810137629509, 0.013977528549730778, -0.10897476226091385, -0.0007788612856529653, 0.12464755028486252, -0.05400180444121361, 0.06417985260486603, -0.02615957334637642, 0.06558241695165634, 0.0856359526515007, 0.06663230061531067, 0.02017960138618946, -0.11782405525445938, 0.02279573492705822, 0.05105603486299515, -0.08673296868801117, -0.11322019249200821, 0.14127877354621887, -0.01570497639477253, 0.05456358939409256, -0.0262982826679945, 0.09554850310087204, 0.1653617024421692, 0.10329623520374298, -0.03987839072942734, 0.08517861366271973, 0.05842084810137749, 0.010527415201067924, -0.09389789402484894, -0.04342598468065262, -0.10670167207717896, 0.08726814389228821, 0.11904576420783997, 0.08225007355213165, 0.007216467522084713, -0.0077111851423978806, 0.1364019364118576, -0.06773612648248672, -0.05382436886429787, -0.11832858622074127, -0.00551192881539464, 0.023589184507727623, 0.055595751851797104, -0.09355109930038452, -0.018179187551140785, -0.15142180025577545, -0.15107934176921844, -0.027456894516944885, -0.16805694997310638, 0.02618933841586113, -0.130615696310997, -0.11708348244428635, -0.04319775849580765, -0.1650180220603943, 0.11391432583332062, 0.12490597367286682, -0.05954422056674957, 0.019847461953759193, 0.056776341050863266, 0.010888904333114624, -0.01863657310605049, -0.10110040754079819, 0.14285022020339966, -0.08660263568162918, -0.035521723330020905, -0.006051169708371162, -0.045436736196279526, -0.06588774919509888, -0.15699531137943268, 0.0014379322528839111, -0.07054341584444046, 0.07531247287988663, -0.04240730032324791, 0.13890758156776428, 0.055130574852228165, -0.021024608984589577, -0.049747683107852936, -0.03011361137032509, -0.04548412188887596, -0.006663184612989426, 0.06378541886806488, 0.10332212597131729, 0.0245488453656435, 0.04904109984636307, 0.030123483389616013, 0.03905845433473587, 0.07788705825805664, 0.055079951882362366, 0.1622893065214157, -0.1066262274980545, 0.07234598696231842, 0.014891997911036015, 0.004579346626996994, 0.023779315873980522, 0.08756289631128311, 0.13581272959709167, -0.14416971802711487, 0.07649827748537064, 0.0930747389793396, 0.05393160134553909, -0.012587173841893673, 0.09892155230045319, -0.04494723677635193, -0.030032936483621597, -0.00966486893594265, 0.07496042549610138, 0.027436668053269386, -0.016143638640642166, -0.01305454969406128, 0.05904167890548706, -0.09749369323253632, 0.054738953709602356, 0.07015486061573029, -0.0008893006015568972, -0.060242731124162674, 0.10431823134422302, -0.12868785858154297, -0.11261583119630814, -0.044918134808540344, 0.14017261564731598, -0.19546857476234436, -0.007898028939962387, -0.16991060972213745, -0.01912797801196575, 0.003145500086247921, -0.08947838097810745, 0.12477798759937286, -0.04584203287959099, -0.11266912519931793, 0.05577143654227257, 0.03846597298979759, -0.013210124336183071, 0.19687382876873016, -0.13450902700424194, 0.02629023976624012, 0.09341344237327576, 0.06658961623907089, -0.003513691946864128, 0.034742340445518494, -0.07050950080156326, -0.10026197135448456, -0.07441182434558868, -0.03441179543733597, 0.09143991768360138, 0.12896718084812164, 0.14407338201999664, -0.025149894878268242, -0.12697386741638184, -0.16310147941112518, 0.03393475338816643, -0.08734885603189468, -0.1301710158586502, -0.0596991628408432, -0.14536349475383759, -0.11379662901163101, -0.12482519447803497, -0.01460608746856451, 0.11065089702606201, -0.04888038709759712, 0.09057974070310593, -0.011111137457191944, -0.025995150208473206, -0.003683059476315975, -0.15163268148899078, -0.14843852818012238, 0.1534036099910736, -0.0867689698934555, -0.14561738073825836, 0.22986945509910583, -0.01593000255525112, -0.11219526827335358, -0.16153687238693237, -0.06026676669716835, -0.06293469667434692, 0.16954699158668518, 0.1437186449766159, 0.048025693744421005, -0.11812800914049149, -0.0002826617273967713, -0.1216471716761589, 0.010528420098125935, 0.008945184759795666, 0.008285579271614552, -0.03119586408138275, 0.08081947267055511, 0.0916285589337349, 0.04895827919244766, -0.07613896578550339, -0.052815455943346024, 0.013526514172554016, -0.12139731645584106, 0.12345489859580994, -0.09879752993583679, 0.03198244422674179, -0.12587571144104004, -0.012746903114020824, 0.09266854077577591, -0.1022096574306488, 0.04232261702418327, -0.14797410368919373, -0.008218991570174694, -0.023883717134594917, 0.14347746968269348, 0.188306987285614, 0.030942430719733238, 0.009379295632243156, -0.06187867373228073, 0.06935476511716843, -0.03745315223932266, 0.07925016433000565, -0.0735553652048111, 0.15171267092227936, 0.15574334561824799, 0.0876401737332344, 0.05466775596141815, 0.09011226147413254, -0.18934015929698944, 0.1323762983083725, -0.021089259535074234, 0.08593389391899109, 0.024975141510367393, -8.86273555806838e-05, -0.04193680360913277, 0.12658321857452393, -0.05397540703415871, -0.04119280353188515, 0.08565230667591095, 0.009875372052192688, -0.17805810272693634, -0.10838521271944046, -0.04303568974137306, 0.12966449558734894, -0.0920029953122139, 0.08993835002183914, 0.11676192283630371, -0.0756075382232666, -0.056309062987565994, -0.05199446156620979, 0.012501110322773457, -0.03165531903505325, -0.02759607322514057, 0.024451764300465584, 0.02949550747871399, -0.0405440628528595, 0.017675593495368958, 0.03314957767724991, -0.035567644983530045, 0.018294580280780792, -0.06948529183864594, 0.12770290672779083, 0.01648765429854393, -0.011035549454391003, -0.1972501277923584, -0.07591104507446289, 0.02832670323550701, 0.007854694500565529, -0.06842125952243805, 0.07384427636861801, -0.039843373000621796, 0.08022806793451309, 0.13059774041175842, -0.13377505540847778, -0.05277830362319946, -0.045012716203927994, -0.1020657867193222, -0.052668116986751556, -0.013493449427187443, 0.04235437884926796, 0.057987529784440994, 0.12598706781864166, 0.1208156868815422, 0.008381031453609467, -0.006886306684464216, 0.06713229417800903, -0.032873574644327164, -0.033496636897325516, 0.08627001941204071, -0.12602080404758453, -0.12243378907442093, 0.030839931219816208, -0.033986885100603104, -0.06368361413478851, -0.13120584189891815, 0.13251620531082153, 0.011123983189463615, -0.12070523947477341, -0.07396760582923889, 0.024024518206715584, -0.098208948969841, 0.01649194210767746, -0.00398826040327549, 0.012052175588905811, 0.025634611025452614, -0.11417143791913986, 0.08517032116651535, 0.12375983595848083, 0.019432106986641884, 0.06287634372711182, -0.09448562562465668, 0.0005472693010233343, 0.07273029536008835, -0.05118555203080177, 0.10325619578361511, -0.12880943715572357, -0.07341345399618149, -0.09647872298955917, -0.06796013563871384, -0.11281472444534302, -0.14983683824539185, 0.06841152906417847, -0.05486015975475311, -0.12407369166612625, 0.0726839154958725, -0.010606850497424603, 0.06847134232521057, -0.12429088354110718, 0.008322958834469318, 0.08324684202671051, 0.12307816743850708, 0.040414631366729736, 0.06674410402774811, 0.17862486839294434, -0.050591953098773956, 0.10373324155807495, 0.14878450334072113, -0.09305711835622787, 0.06665946543216705, 0.11579183489084244, -0.015206744894385338, 0.09030447900295258, 0.01825612783432007, 0.0853547677397728, -0.024319523945450783, -0.12528349459171295, 0.08927489072084427, 0.023021766915917397, 0.11339480429887772, -0.006169576197862625, 0.037512924522161484, 0.04633534327149391, 0.03701547905802727, -0.01712845079600811, 0.053136374801397324, -0.10848794877529144, -0.00543562974780798, -0.07606932520866394, 0.04014484956860542, -0.0847693383693695, 0.1345294862985611, -0.1187279149889946, 0.0775315910577774, 0.11339971423149109, -0.12670180201530457, 0.13501697778701782, -0.09304600954055786, 0.002534264698624611, 0.09930399805307388, -0.009357966482639313, 0.13882873952388763, -0.04084417223930359, 0.03130465745925903, -0.09673123806715012, -0.05923261120915413, 0.14514777064323425, 0.11210957169532776, 0.009502725675702095, 0.025634313002228737, -0.12103532254695892, 0.09580938518047333, -0.0010305455652996898, -0.048673003911972046, -0.07905364781618118, 0.13276329636573792, 0.056313011795282364, 0.07291441410779953, 0.022637085989117622, -0.11888890713453293, 0.04797620698809624, 0.00809724535793066, 0.03140753507614136, -0.2966567277908325, -0.47795966267585754, 0.865977942943573, 0.35488730669021606, -0.492432564496994, 0.207387313246727, -0.23306962847709656, 0.03407101333141327, 0.521381139755249, -0.8770856857299805, 1.003127098083496, 0.5843326449394226, 0.0025657324586063623, -0.32765206694602966, 0.15143118798732758, -0.7364687323570251, 0.19384343922138214, -0.1690979152917862, 0.06402807682752609, -0.3090675473213196, 0.13144433498382568, 0.08204611390829086, 0.24349652230739594, -0.02419687807559967, 0.10186650604009628, 0.05981026962399483, 0.14488211274147034, 0.19094717502593994, -0.24120168387889862, 0.05614092946052551, -0.025464246049523354, -0.12567858397960663, 0.19880753755569458, -0.06888560950756073, 0.03251394256949425, 0.11976389586925507, 0.17399469017982483, 0.08012718707323074, -0.020883634686470032, -0.24583283066749573, -0.2566688358783722, 0.08469683676958084, -0.007991544902324677, -0.10301759093999863, 0.0792003870010376, 0.2127285748720169, 0.18266020715236664, -0.03830951452255249, 0.06771823763847351, -0.20095235109329224, 0.047405291348695755, -0.2584898769855499, 0.22622562944889069, -0.2006830871105194, -0.026989204809069633, -0.24453400075435638, -0.11538397520780563, 0.025581927970051765, -0.2035835087299347, 0.22803518176078796, 0.12475649267435074, -0.20080387592315674, 0.029110006988048553, 0.10308468341827393, 0.21089643239974976, 0.0034539930056780577, 0.14277604222297668, 0.05753336474299431, -0.12233980745077133, 0.2674354314804077, -0.27554699778556824, 0.27457019686698914, 0.2771705389022827, -0.06286768615245819, 0.1506011188030243, 0.15989084541797638, 0.09354349970817566, 0.13081055879592896, 0.02122711017727852, -0.11456020921468735, 0.09098297357559204, -0.1492062658071518, 0.2119339257478714, -0.18329238891601562, 0.11079135537147522, -0.15469743311405182, 0.1501181423664093, -0.04783208668231964, 0.13330037891864777, -0.07671000808477402, -0.17787733674049377, 0.15508753061294556, -0.17671985924243927, -0.18037885427474976, 0.16325949132442474, -0.10430676490068436, -0.0836910828948021, -0.10620466619729996, 0.026878325268626213, -0.12572047114372253, -0.06233333796262741, -0.1333363950252533, 0.20367282629013062, 0.03835025057196617, -0.13795103132724762, -0.1729382425546646, -0.06519882380962372, 0.14523029327392578, 0.0005318513140082359, 0.12687382102012634, 0.2471236288547516, 0.10452248156070709, 0.055259548127651215, 0.14111053943634033, -0.1309061348438263, 0.07929490506649017, 0.1993681788444519, -0.07625114917755127, 0.010312292724847794, -0.05159885808825493, -0.18180766701698303, 0.17581914365291595, 0.17197628319263458, -0.13831451535224915, 0.11628816276788712, 0.07393578439950943, 0.060380466282367706, 0.14769026637077332, 0.2520906627178192, 0.14882007241249084, -0.224904865026474, -0.1723567545413971, 0.16156788170337677, -0.23129810392856598, 0.10809064656496048, -0.14874492585659027, -0.0026280374731868505, 0.12507909536361694, 0.012234216555953026, 0.24617773294448853, -0.04856370761990547, 0.154187873005867, 0.1339014172554016, -0.06231772527098656, -0.18868228793144226, 0.2487242966890335, -0.10596288740634918, 0.21634094417095184, 0.1467539221048355, 0.04748136177659035, -0.22910764813423157, 0.061818886548280716, -0.1123206689953804, 0.09359849989414215, -0.09130806475877762, 0.1588643193244934, -0.215257465839386, -0.06777222454547882, -0.005372223444283009, 0.02611125446856022, 0.15854087471961975, -0.06312261521816254, -0.1624755561351776, 0.20233134925365448, 0.011757444590330124, 0.2487560510635376, -0.1778130978345871, -0.11124224215745926, -0.08700104057788849, -0.017349421977996826, 0.13821423053741455, -0.21786269545555115, -0.004093490540981293, -0.004178695380687714, 0.17348432540893555, -0.1213449016213417, 0.2444271445274353, -0.1200215220451355, -0.16427172720432281, -0.19127988815307617, 0.22338996827602386, -0.17726700007915497, 0.09284117817878723, -0.06392080336809158, 0.23003564774990082, 0.09050683677196503, -0.2679024338722229, 0.008209082297980785, 0.03336318954825401, -0.1968727558851242, 0.038642242550849915, 0.2698683440685272, 0.07544097304344177, 0.009210072457790375, -0.04358012601733208, 0.05961724370718002, -0.06347682327032089, 0.19845834374427795, 0.21285319328308105, 0.08853116631507874, -0.08749657869338989, -0.1937364935874939, -0.1681080013513565, 0.2388739287853241, -0.23305471241474152, -0.21732762455940247, 0.007540821563452482, 0.10176906734704971, -0.28020113706588745, -0.2028483897447586, -0.03152387589216232, -0.05073167011141777, 0.17292898893356323, 0.1068945825099945, -0.2327665388584137, -0.1943264603614807, 0.17566698789596558, 0.004278429318219423, -0.09844919294118881, 0.01583844982087612, -0.032305389642715454, 0.18006832897663116, 0.038955554366111755, -0.1316075176000595, -0.21094253659248352, 0.1660892218351364, -0.1621241420507431, 0.006812526378780603, -0.0003179532941430807, -0.05682690441608429, 0.11658955365419388, -0.1223037838935852, 0.08350193500518799, 0.018117696046829224, 0.13141480088233948, -0.29011526703834534, 0.028857307508587837, 0.12769988179206848, -0.2066143900156021, 0.043500062078237534, 0.08501522243022919, 0.12364901602268219, -0.0796060785651207, -0.12042156606912613, -0.07740916311740875, -0.22624848783016205, 0.17072483897209167, -0.3230160176753998, 0.12586690485477448, 0.18827196955680847, 0.0639089047908783, 0.3262134790420532, -0.14039060473442078, 0.059494856745004654, 0.12198673188686371, -0.15965116024017334, -0.061299387365579605, -0.07894036918878555, -0.07451298087835312, -0.25956103205680847, -0.11504830420017242, -0.11635078489780426, -0.022440392524003983, -0.25949281454086304, 0.02268361859023571, 0.17825673520565033, 0.1339973360300064, 0.25034916400909424, -0.19685249030590057, -0.05871564894914627, -0.08197121322154999, 0.07302067428827286, 0.0656292513012886, 0.06065846234560013, 0.09498848766088486, 0.1418289691209793, -0.12292467057704926, 0.15917062759399414, 0.1514921486377716, 0.02684631198644638, -0.2134372889995575, -0.15450821816921234, 0.06652669608592987, 0.08185762912034988, 0.21686142683029175, 0.12408921122550964, 0.08397209644317627, 0.001627661637030542, 0.09646531939506531, -0.1351531445980072, 0.046025797724723816, -0.052828624844551086, -0.06672902405261993, 0.09205644577741623, 0.12377619743347168, -0.07918401807546616, 0.04268327355384827, -0.11520427465438843, 0.07683993130922318, 0.09573982656002045, 0.07029668241739273, -0.16471582651138306, -0.10223555564880371, 0.13329359889030457, -0.014023443683981895, 0.08214277029037476, 0.13906241953372955, -0.04490414634346962, -0.06041589379310608, -0.11062412708997726, 0.0550897940993309, 0.09266815334558487, -0.027434170246124268, -0.17238277196884155, -0.0816161260008812, -0.040041424334049225, 0.0938890352845192, -0.04779355600476265, -0.05563078448176384, -0.16029107570648193, 0.16842737793922424, 0.04612560197710991, -0.1252346783876419, -0.09757526218891144, -0.11804371327161789, 0.023388221859931946, -0.04320567473769188, 0.010815859772264957, -0.025569941848516464, -0.09167421609163284, -0.07581493258476257, -0.18531903624534607, -0.008742446079850197, 0.06724649667739868, -0.09930664300918579, 0.015591371804475784, -0.10781583189964294, 0.14574375748634338, -0.03888573497533798, 0.14156223833560944, -0.06841148436069489, -0.13951969146728516, -0.027474651113152504, -0.08406126499176025, -0.004156654700636864, 0.015870125964283943, 0.1255268007516861, 0.11109095066785812, -0.06318579614162445, 0.03962232172489166, 0.14106455445289612, -0.022192498669028282, -0.15435504913330078, 0.023856239393353462, -0.1335057020187378, 0.10111544281244278, -0.079649418592453, -0.08542133122682571, -0.1131676435470581, -0.08539330214262009, 0.09372688084840775, 0.14776979386806488, -0.11905723810195923, 0.055087339133024216, 0.13570906221866608, 0.1574527472257614, -0.030703512951731682, 0.1633157730102539, -0.012607823126018047, 0.05237704515457153, -0.03432176262140274, -0.1443718820810318, -0.026700014248490334, 0.03447951748967171, 0.04194697365164757, -0.05867689475417137, 0.13291850686073303, -0.17857643961906433, -0.013333505019545555, 0.1580912172794342, -0.018943149596452713, -0.14469027519226074, 0.05577642843127251, -0.0457032136619091, -0.05750033259391785, -0.13480515778064728, 0.016546892002224922, 0.10894189774990082, 0.006946197245270014, -0.1016705185174942, -0.10486145317554474, -0.025802068412303925, 0.11798322200775146, -0.15723618865013123, 0.03733488917350769, -0.052003052085638046, 0.16551785171031952, -0.031197207048535347, -0.03329581767320633, -0.04399285092949867, -0.11449474096298218, -0.011370951309800148, 0.021145332604646683, 0.09020499885082245, -0.09561146795749664, 0.07704659551382065, -0.006946350913494825, 0.08408303558826447, -0.13285905122756958, 0.024694249033927917, 0.0844871997833252, 0.06419999897480011, -0.04500311240553856, 0.040150512009859085, -0.05246908962726593, 0.03240840137004852, -0.04022252559661865, -0.08819148689508438, -0.11780040711164474, -0.10907958447933197, -0.08700546622276306, 0.014546413905918598, -0.023180965334177017, -0.1447073370218277, -0.005893605761229992, -0.004487345926463604, 0.16615153849124908, -0.10284233838319778, -0.0036869256291538477, -0.006225103512406349, 0.02395317144691944, -0.0169164277613163, -0.06793702393770218, 0.17758874595165253, -0.06258752197027206, -0.028874056413769722, 0.09886419028043747, 0.08498259633779526, 0.07000061869621277, 0.07489189505577087, -0.11925312876701355, 0.13368557393550873, 0.10714831203222275, -0.020905010402202606, 0.02265199087560177, 0.11057145148515701, -0.09545233845710754, -0.11466893553733826, -0.1714521199464798, 0.04580378532409668, 0.10261432826519012, -0.007469736039638519, -0.005502359010279179, -0.005098212976008654, -0.0023433512542396784, 0.12452346831560135, 0.07507878541946411, -0.08208351582288742, -0.14047729969024658, -0.1250172108411789, -0.018789246678352356, 0.09267206490039825, -0.016439028084278107, 0.2079523205757141, -0.07742438465356827, 0.0008050045580603182, 0.11557547003030777, 0.07084616273641586, 0.020307010039687157, 0.16151335835456848, -0.09197400510311127, 0.10650181025266647, 0.13593512773513794, -0.12171489000320435, -0.1838649958372116, 0.12226550281047821, -0.12881554663181305, -0.16166675090789795, 0.03225046396255493, -0.11900737881660461, 0.08714179694652557, 0.05763139948248863, -0.049410659819841385, 0.0964280515909195, 0.10988286882638931, -0.01775670237839222, -0.12230544537305832, 0.20834706723690033, -0.10394884645938873, 0.19014868140220642, -0.01873329095542431, 0.054668884724378586, 0.03986545652151108, -0.08835843205451965, -0.11192043125629425, -0.2173951268196106, 0.08049463480710983, 0.1433912217617035, -0.06995980441570282, -0.04817930981516838, -0.005254201125353575, 0.028949685394763947, 0.04792861267924309, -0.026727549731731415, -0.05363159254193306, 0.18053561449050903, -0.11643464863300323, -0.10244815051555634, -0.09965665638446808, 0.03601384162902832, 0.04117414727807045, 0.14128947257995605, -0.13749480247497559, -0.06785593926906586, -0.06392086297273636, -0.05911171808838844, -0.0973985344171524, 0.04885711520910263, -0.052282173186540604, -0.10061758756637573, -0.047737378627061844, -0.1279270350933075, -0.11375537514686584, 0.01023599412292242, -0.09139310568571091, -0.0342479832470417, -0.08853285014629364, -0.03160703182220459, -0.06472273916006088, -0.036182716488838196, -0.03479422628879547, -0.03799155354499817, 0.09136318415403366, -0.12263870984315872, 0.0047923787496984005, 0.20437105000019073, 0.051981180906295776, 0.007339929696172476, 0.08390075713396072, -0.13318891823291779, 0.06708916276693344, -0.14413079619407654, -0.1399858146905899, -0.19444425404071808, -0.18096400797367096, 0.023809321224689484, -0.0494510754942894, 0.055099692195653915, -0.05094233900308609, -0.0589585155248642, -0.07925236970186234, -0.09564978629350662, -0.07319927960634232, 0.14037412405014038, -0.08762774616479874, -0.019127357751131058, 0.031737640500068665, -0.023616164922714233, -0.017035050317645073, -0.00856535229831934, -0.16719545423984528, 0.017853550612926483, -0.07564692199230194, 0.0691157728433609, 0.03373873233795166, 0.024545928463339806, -0.1460084319114685, 0.05398568883538246, 0.02485419623553753, -0.10481970012187958, -0.05870923772454262, 0.09509091824293137, -0.1862746626138687, -0.058962754905223846, 0.07537900656461716, -0.010054307989776134, 0.19031405448913574, 0.10552728921175003, -0.10458925366401672, -0.0536639429628849, -0.03276919946074486, -0.014070023782551289, 0.02882305160164833, 0.1728104203939438, 0.0019895622972398996, -0.1459902822971344, -0.10583898425102234, -0.1846064180135727, -0.06040085107088089, 0.050628501921892166, -0.015123234130442142, -0.126170352101326, -0.10412263125181198, 0.12123431265354156, -0.10368507355451584, -0.07594924420118332, -0.07075446099042892, 0.1807096153497696, 0.006865406408905983, -0.003908582031726837, -0.08807040005922318, 0.10102935135364532, -0.06397002935409546, -0.010545431636273861, -0.012072588317096233, 0.0252734012901783, 0.11081946641206741, 0.029686205089092255, -0.032743100076913834, -0.026478495448827744, -0.13903041183948517, -0.04695954546332359, 0.16318239271640778, -0.0699370801448822, -0.07512827962636948, -0.1401548832654953, 0.016698144376277924, -0.17333358526229858, -0.0014502571430057287, 0.21859373152256012, 0.051930807530879974, 0.06688877940177917, 0.011426623910665512, -0.12367020547389984, -0.16081590950489044, -0.1628730148077011, -0.11563512682914734, 0.06569083034992218, -0.01372741162776947, 0.08061503618955612, -0.15347492694854736, -0.13894642889499664, 0.053150586783885956, 0.014352010563015938, 0.20901186764240265, 0.04498813673853874, -0.14408478140830994, 0.14458321034908295, -0.005260291043668985, -0.1569850742816925, -0.16028130054473877, -0.08442901819944382, 0.015325183048844337, -0.16530296206474304, -0.0015224937815219164, -0.1315305382013321, 0.009420068934559822, -0.03279093652963638, 0.11377965658903122, 0.025317460298538208, -0.02222515642642975, -0.014706612564623356, -0.06718147546052933, 0.06587694585323334, -0.07326554507017136, -0.07381830364465714, -0.22487394511699677, -0.07859861850738525, -0.09715907275676727, 0.1543193757534027, 0.097080759704113, 0.016632791608572006, 0.0736585482954979, 0.128060981631279, -0.11478549242019653, -0.08489303290843964, -0.12425096333026886, -0.11996319144964218, -0.06101487576961517, -0.11667094379663467, -0.0810762345790863, 0.023330021649599075, -0.015039186924695969, 0.11565959453582764, 0.11257631331682205, 0.10772457718849182, -0.1045958399772644, 0.0892123207449913, 0.02041843719780445, -0.17715953290462494, 0.12477941811084747, -0.20115160942077637, -0.06744962185621262, -0.012031293474137783, -0.07284774631261826, 0.0031290294136852026, 0.029201306402683258, 0.09556448459625244, 0.16075094044208527, -0.03412399813532829, -0.03075440786778927, -0.09369770437479019, -0.050533752888441086, 0.045393478125333786, -0.08505213260650635, -0.11907440423965454, -0.0936061218380928, -0.08710987120866776, -0.03470887616276741, 0.04825223982334137, 0.139530211687088, -0.11914166808128357, 0.04555944353342056, -0.13920073211193085, 0.06786738336086273, 0.2118598222732544, 0.07611313462257385, -0.12122480571269989, 0.10820239037275314, -0.019874224439263344, -0.0542827732861042, -0.1534186154603958, 0.07512377947568893, 0.06340600550174713, 0.11350357532501221, 0.020476972684264183, 0.0015183729119598866, 0.1451498568058014, -0.05481395125389099, 0.15374237298965454, -0.02288181148469448, 0.019671661779284477, 0.015159573405981064, 0.10431169718503952, -0.16173085570335388, 0.02440227009356022, 0.13604694604873657, -0.04844376817345619, 0.06628401577472687, -0.015030210837721825, -0.0984661728143692, -0.006461306009441614, 0.11971335858106613, 0.05048069357872009, 0.1277858316898346, 0.04894939810037613, 0.0473533496260643, -0.09712408483028412, 0.007721931207925081, -0.06428995728492737, 0.15475748479366302, 0.061056509613990784, 0.052082035690546036, 0.07688455283641815, -0.002643503248691559, -0.010554059408605099, 0.023105384781956673, -0.16400082409381866, 0.04451964795589447, -0.048573087900877, -0.10243380814790726, 0.07198812067508698, 0.04767487943172455, -0.04064924269914627, -0.1325315535068512, -0.13851365447044373, 0.043307386338710785, -0.06725943088531494, -0.03686380386352539, -0.11859048157930374, 0.10578908026218414, 0.015332908369600773, 0.16413214802742004, 0.04315394163131714, -0.04836348816752434, 0.2122797667980194, -0.05454828217625618, 0.14297223091125488, 0.0011620315490290523, -0.13272430002689362, 0.007964248768985271, 0.044505201280117035, -0.004498853348195553, 0.05115737393498421, -0.16578873991966248, -0.0010128839639946818, 0.07089708745479584, 0.20268794894218445, 0.07512890547513962, -0.12635302543640137, -0.1638011336326599, -0.11759496480226517, -0.03875365108251572, 0.02283431589603424, 0.024166982620954514, 0.036405764520168304, 0.12327518314123154, 0.12555082142353058, -0.09860356897115707, -0.10053974390029907, 0.0051854075863957405, 0.052639104425907135, 0.04299789294600487, 0.1061580702662468, 0.042409542948007584, 0.003205863293260336, 0.06785774230957031, 0.04727241396903992, 0.05001670867204666, 0.1219717338681221, -0.11907779425382614, -0.08390983194112778, 0.05327712371945381, -0.08669431507587433, 0.08944373577833176, -0.0803447961807251, 0.08257357776165009, 0.09504172205924988, -0.0013044133083894849, 0.02801499143242836, -0.09998191148042679, 0.09010574221611023, -0.02975357137620449, -0.0593348927795887, 0.03134685754776001, 0.0022860474418848753, -0.025129009038209915, 0.003169434145092964, 0.027552077546715736, 0.0669991597533226, 0.039739083498716354, -0.0539158396422863, 0.01077511627227068, -0.05822139233350754, 0.16705456376075745, -0.1763124018907547, -0.08065858483314514, -0.021907910704612732, -0.07515376806259155, -0.11793915182352066, 0.10841528326272964, 0.06123209744691849, -0.10677345097064972, -0.045846372842788696, 0.01579495333135128, -0.05510563775897026, -0.08755256235599518, 0.12029062956571579, -0.015440212562680244, 0.14715361595153809, -0.13063392043113708, -0.1032639592885971, 0.023390578106045723, -0.12224075943231583, 0.1363576352596283, 0.11169498413801193, 0.1511457860469818, -0.15666042268276215, 0.1522071361541748, 0.1269514262676239, -0.04040384665131569, 0.025547388941049576, 0.049839504063129425, 0.08799168467521667, -0.12709705531597137, 0.12172680348157883, -0.04786117002367973, 0.09638099372386932, -0.046059269458055496, -0.18914751708507538, -0.05283762887120247, 0.1541982889175415, -0.08919928967952728, 0.09678896516561508, -0.01572895608842373, 0.04998009279370308, -0.04603663086891174, 0.01238961424678564, 0.019730592146515846, -0.1028570905327797, 0.12795409560203552, 0.05646427348256111, -0.119171641767025, -0.021350868046283722, 0.0790344700217247, -0.1309584081172943, -0.06127989664673805, 0.07782795280218124, -0.09489374607801437, -0.02464902214705944, -0.12331350892782211, -0.11254759877920151, -0.12947702407836914, 0.10050678253173828, -0.1393047571182251, -0.018419163301587105, -0.03365126997232437, 0.055686596781015396, -0.017012720927596092, 0.2113194763660431, -0.15576843917369843, -0.11557263135910034, 0.045020803809165955, 0.01426724437624216, -0.02553599141538143, 0.05759231001138687, -0.16881252825260162, -0.19648173451423645, -0.08516646176576614, 0.10068923234939575, 0.08209363371133804, 0.06245845556259155, -0.045423317700624466, 0.2232048511505127, 0.07504066824913025, 0.025881264358758926, -0.03132876381278038, 0.0767698734998703, -0.03453349694609642, -0.0059187151491642, 0.018583407625555992, -0.039038438349962234, -0.0220984797924757, -0.04418551176786423, 0.11973545700311661, 0.06779851019382477, 0.13254690170288086, -0.003658103523775935, -0.14446482062339783, 0.018725696951150894, 0.04880820959806442, 0.19824759662151337, 0.07452317327260971, 0.04715251922607422, 0.060176823288202286, -0.06633099913597107, 0.13576112687587738, -0.03325842693448067, 0.055770792067050934, 0.09641793370246887, -0.11422348022460938, 0.0570780411362648, 0.11534963548183441, -0.16823630034923553, -0.03957030177116394, -0.10001712292432785, 0.04220486804842949, 0.047268424183130264, 0.07636010646820068, -0.03830574452877045, -0.14146171510219574, 0.07237651199102402, 0.11037344485521317, -0.016312438994646072, 0.11188673973083496, 0.04978024587035179, -0.05783257260918617, -0.008563820272684097, 0.054186608642339706, -0.020512394607067108, -0.04538017883896828, 0.01050428207963705, -0.06188017874956131, 0.05905286595225334, -0.11574821174144745, -0.0924532413482666, 0.11304743587970734, -0.07455001771450043, 0.07770674675703049, 0.12753649055957794, -0.06751243025064468, 0.08144039660692215, 0.18124760687351227, -0.11134088039398193, -0.011449914425611496, -0.0019428720697760582, -0.08049709349870682, 0.04362864047288895, 0.02243058942258358, 0.012135108932852745, -0.003245980478823185, 0.09844564646482468, -0.12418361008167267, -0.07297764718532562, -0.09137332439422607, 0.0103454003110528, -0.13760234415531158, -0.034563977271318436, 0.07087595015764236, -0.11014559864997864, 0.07238530367612839, -0.1193685233592987, 0.026317188516259193, 0.02164371870458126, 0.036857642233371735, 0.09537604451179504, 0.07979707419872284, -0.04726424068212509, 0.0785461813211441, 0.05059810355305672, -0.0259466003626585, -0.0894593819975853, -0.023828553035855293, 0.08411949127912521, -0.12032642960548401, -0.11642374843358994, -0.1389448642730713, 0.020426377654075623, -0.07103313505649567, -0.014368505217134953, 0.11735071241855621, -0.10513359308242798, -0.17617765069007874, 0.04740062728524208, -0.11357956379652023, -0.12817895412445068, 0.09283418953418732, 0.04843131825327873, -0.031064962968230247, 0.17584651708602905, 0.16283896565437317, -0.16452622413635254, -0.0420290008187294, 0.0551176518201828, -0.09520577639341354, -0.17083320021629333, -0.05693338066339493, -0.01879236474633217, -0.024768322706222534, 0.07286758720874786, 0.011601760052144527, 0.1369599848985672, 0.03560420498251915, -0.022443503141403198, 0.0442889928817749, 0.08143629878759384, -0.0006622914806939662, -0.06636562943458557, -0.06922965496778488, -0.005863608792424202, 0.17658881843090057, -0.0693848580121994, 0.01776573434472084, -0.14071767032146454, 0.013283994980156422, -0.16063617169857025, -0.03972674161195755, 0.09414544701576233, -0.17690567672252655, -0.028787385672330856, -0.06147532910108566, 0.10549098253250122, -0.04411883279681206, -0.05096687376499176, -0.15163815021514893, -0.0806349441409111, 0.03794539347290993, -0.18893864750862122, -0.0464358814060688, 0.09905252605676651, 0.1431778073310852, 0.06085465848445892, 0.16768644750118256, 0.06355001032352448, 0.055573925375938416, 0.19004984200000763, 0.07478176802396774, -0.04528481140732765, 0.10649393498897552, -0.11792663484811783, 0.13533718883991241, 0.07412143051624298, -0.06925611197948456, -0.1546303778886795, 0.11364532262086868, 0.14769914746284485, 0.010393107309937477, -0.06037547066807747, 0.07403936982154846, 0.059132013469934464, -0.02483932487666607, 0.12041021883487701, 0.6438109278678894, 0.2714080512523651, 0.537298858165741, -0.8768641352653503, -0.42206451296806335, 0.15371477603912354, 0.351729154586792, -0.044237636029720306, 0.2893432378768921, 0.2611429989337921, -0.797823429107666, 0.29047614336013794, -0.037592630833387375, -0.7369970083236694, 0.04602290317416191, -0.28540876507759094, -0.06275582313537598, -0.27774080634117126, 0.25938573479652405, -0.2104351967573166, -0.030808478593826294, 0.15578728914260864, -0.028417125344276428, -0.17981818318367004, -0.19496354460716248, 0.08254516124725342, -0.16769257187843323, 0.06245027109980583, 0.09108169376850128, -0.10272160917520523, 0.10839878767728806, -0.026562916114926338, -0.09370505064725876, -0.21104858815670013, 0.03613479435443878, -0.18899084627628326, -0.014559371396899223, -0.10595180094242096, 0.11576274782419205, -0.1110215038061142, -0.09859384596347809, -0.01458616554737091, -0.17066311836242676, 0.11500087380409241, -0.16825814545154572, 0.11961250752210617, 0.1295977383852005, 0.18360421061515808, 0.04851173236966133, 0.07004684954881668, -0.1310112625360489, -0.3516386151313782, -0.13692925870418549, -0.2707761526107788, -0.2260606586933136, 0.08087966591119766, 0.2918899655342102, -0.033344242721796036, -0.07118254899978638, -0.09939825534820557, 0.00604258244857192, 0.06022600829601288, -0.08544541150331497, 0.2292691171169281, -0.26769116520881653, 0.005317092873156071, -0.13713236153125763, 0.2955664098262787, 0.3099544644355774, 0.3274802267551422, 0.2715091407299042, 0.12678131461143494, -0.24093329906463623, -0.21418562531471252, 0.10383585840463638, -0.2742965519428253, 0.18192487955093384, 0.1107276901602745, 0.09440084546804428, -0.2047465294599533, 0.2451016753911972, -0.056901928037405014, -0.10446185618638992, 0.06707784533500671, -0.034700702875852585, -0.13543838262557983, 0.005095412023365498, -0.19353927671909332, 0.2650373578071594, 0.2574518918991089, 0.10476532578468323, 0.17804275453090668, -0.22592435777187347, -0.14622433483600616, -0.2422848492860794, -0.16402554512023926, -0.1723344475030899, 0.18878474831581116, 0.10303666442632675, 0.11236054450273514, -0.16520434617996216, 0.12789542973041534, -0.10162501782178879, -0.06974338740110397, 0.12980970740318298, 0.16799429059028625, -0.19840580224990845, 0.23456540703773499, -0.05013127624988556, 0.11848479509353638, -0.2547115087509155, -0.002900179708376527, -0.15672875940799713, -0.11461344361305237, -0.16729426383972168, 0.03260894492268562, -0.07249883562326431, -0.1660241186618805, 0.1549708992242813, 0.09760953485965729, -0.2815122604370117, -0.005425996612757444, 0.07041283696889877, -0.04601543769240379, 0.04236450791358948, 0.03490470349788666, 0.14065949618816376, -0.1876479685306549, -0.049549903720617294, 0.15441712737083435, -0.1835789978504181, 0.09276474267244339, 0.16715814173221588, -0.27359381318092346, -0.16183339059352875, 0.257266640663147, 0.010083410888910294, 0.056019410490989685, 0.02770024724304676, 0.13846488296985626, -0.11110411584377289, 0.05054394528269768, 0.15175379812717438, -0.024925878271460533, -0.3064345121383667, 0.11977624148130417, -0.1115647405385971, 0.01259010098874569, 0.2063436061143875, 0.08480601757764816, -0.12846606969833374, -0.10257738828659058, -0.08986247330904007, -0.11488676071166992, -0.018992552533745766, -0.2313879281282425, 0.1855829954147339, 0.15473240613937378, 0.08748886734247208, 0.06986846774816513, -0.10805270075798035, 0.2640626132488251, -0.04677651822566986, 0.1750546395778656, -0.002780730603262782, 0.20801898837089539, -0.20682761073112488, 0.15567395091056824, -0.3328426778316498, -0.21663324534893036, 0.2182294726371765, -0.2571544349193573, 0.24928024411201477, -0.0830068290233612, 0.3373652398586273, 0.03608698770403862, -0.13639338314533234, 0.14967498183250427, -0.2483869194984436, -0.13528454303741455, -0.13687817752361298, 0.0025813523679971695, 0.010094625875353813, -0.1743922382593155, 0.23354919254779816, -0.02579752914607525, -0.1094013899564743, -0.006794710643589497, -0.16052062809467316, 0.08530286699533463, 0.09995385259389877, -0.017245473340153694, 0.020757898688316345, 0.14142902195453644, -0.17296472191810608, -0.059224311262369156, -0.04380141198635101, -0.12926846742630005, -0.026435591280460358, 0.02572566829621792, -0.1950656622648239, 0.043606847524642944, 0.270791232585907, 0.14055687189102173, -0.12943480908870697, 0.23894420266151428, -0.14005175232887268, -0.16310830414295197, 0.0370110385119915, 0.22654713690280914, 0.16063237190246582, 0.29201534390449524, -0.06452497094869614, 0.11569951474666595, -0.1597018539905548, 0.07486262172460556, 0.14481455087661743, 0.05002733692526817, -0.16301147639751434, -0.17125758528709412, -0.2433679848909378, 0.1678631454706192, 0.03185420110821724, -0.1590859442949295, -0.10478894412517548, 0.09046802669763565, 0.03401116654276848, 0.25810012221336365, 0.045317552983760834, 0.09356262534856796, -0.02057616040110588, 0.02551095187664032, 0.00022636138601228595, 0.1987539529800415, 0.1029544398188591, -0.15797744691371918, -0.21540603041648865, -0.2482278048992157, -0.09750895947217941, 0.06330608576536179, 0.2819676399230957, -0.058089639991521835, 0.06689397245645523, 0.09013713896274567, -0.2586416006088257, -0.23918262124061584, 0.015693258494138718, 0.1240951344370842, -0.08986357599496841, 0.04998786747455597, -0.25286564230918884, 0.04025969281792641, 0.06253176927566528, 0.015287150628864765, -0.04409339278936386, 0.07452244311571121, -0.03652535378932953, 0.15266813337802887, -0.1816454380750656, -0.15959762036800385, -0.22792087495326996, -0.24580739438533783, 0.1800646036863327, -0.06430922448635101, -0.16737951338291168, 0.08283598721027374, -0.19672927260398865, 0.04757696017622948, 0.13017377257347107, -0.07906641811132431, 0.09168203920125961, 0.05840307101607323, -0.20272690057754517, 0.049403559416532516, 0.13767071068286896, -0.03849935159087181, 0.03251985087990761, 0.0194475669413805, 0.00833166390657425, 0.05222301557660103, -0.22816027700901031, 0.17573820054531097, 0.1042441576719284, 0.02773549221456051, 0.03189026564359665, -0.19827371835708618, -0.07062903791666031, -0.0008602010784670711, -0.1111462339758873, -0.06132932007312775, 0.03887723386287689, -0.080225370824337, 0.1753467619419098, -0.14414051175117493, -0.06953542679548264, 0.1772220879793167, -0.09716694056987762, 0.13963663578033447, 0.021001040935516357, -0.016485555097460747, -0.11234991997480392, 0.10489486157894135, -0.07216797769069672, -0.009623291902244091, 0.03730010241270065, 0.14944025874137878, 0.10692548751831055, -0.02475680038332939, 0.05802629142999649, 0.17556829750537872, 0.1899966597557068, -0.08466000109910965, 0.12027455866336823, -0.12963546812534332, 0.022326428443193436, 0.2553781270980835, -0.14781039953231812, -0.04953797161579132, 0.10281221568584442, 0.09862399846315384, -0.1358404904603958, 0.11878880858421326, -0.053676169365644455, -0.12100525200366974, 0.08413973450660706, 0.035862747579813004, 0.0739683285355568, -0.005124324932694435, -0.11794073134660721, -0.12810491025447845, -0.08954170346260071, -0.09181298315525055, 0.04653593525290489, -0.1941368132829666, 0.07957606762647629, 0.04509767144918442, -0.028556955978274345, 0.013017833232879639, 0.15321123600006104, 0.06445051729679108, -0.013094793073832989, -0.015968162566423416, -0.135690376162529, -0.13199743628501892, -0.07412046939134598, -0.1063753291964531, 0.14737895131111145, -0.0005063624703325331, 0.1500498652458191, -0.04800395295023918, 0.0098523935303092, 0.055860403925180435, -0.06463685631752014, 0.006001661531627178, -0.21107186377048492, 0.059870731085538864, 0.07644518464803696, -0.16183219850063324, -0.09610234946012497, -0.14229176938533783, -0.07589471340179443, 0.13177704811096191, 0.037805408239364624, -0.023539450019598007, 0.10452833026647568, 0.05249764770269394, 0.0342407263815403, -0.14267683029174805, -0.020292729139328003, -0.2242763638496399, -0.22983002662658691, -0.17950712144374847, -0.07440812140703201, -0.16624362766742706, -0.04615884646773338, 0.01480180211365223, -0.024957114830613136, 0.025346742942929268, 0.14283405244350433, -0.06283657252788544, -0.10226621478796005, -0.09244183450937271, -0.11655969172716141, -0.08336493372917175, -0.1480700969696045, -0.01110679842531681, 0.07654298096895218, -0.0038166972808539867, 0.21650078892707825, 0.1505815088748932, -0.12159180641174316, 0.005658389534801245, -0.009625793434679508, -0.027874452993273735, 0.050355345010757446, -0.004754515364766121, -0.18836551904678345, -0.08141402900218964, -0.10056270658969879, -0.01929161325097084, 0.12450733035802841, 0.11298003792762756, -0.04897050932049751, -0.13141994178295135, -0.07873984426259995, -0.10587020218372345, -0.03964459151029587, -0.18483301997184753, 0.1177741214632988, -0.15306851267814636, -0.06604143977165222, 0.1812790185213089, -0.17550629377365112, 0.013817094266414642, 0.0834231972694397, 0.15523551404476166, 0.06266330182552338, 0.006182620767503977, 0.05153310298919678, -0.006250308360904455, -0.049336135387420654, -0.03876807913184166, 0.0267363078892231, 0.12858811020851135, 0.04500900208950043, 0.0900636687874794, -0.09193314611911774, 0.024498283863067627, 0.028270848095417023, -0.0462457612156868, -0.09463507682085037, -0.003652480896562338, -0.013424551114439964, -0.09725769609212875, 0.039434414356946945, 0.014035046100616455, 0.061662282794713974, -0.09729886054992676, 0.089039646089077, 0.13858236372470856, -0.019286520779132843, 0.04702436551451683, -0.07173421233892441, 0.1507853865623474, 0.07784639298915863, 0.03217969089746475, 0.026968475431203842, -0.020088667050004005, -0.07544612884521484, 0.0845346748828888, 0.07804249972105026, -0.08950063586235046, 0.12354918569326401, 0.12058040499687195, -0.03505362570285797, -0.14027464389801025, 0.014848679304122925, 0.039510663598775864, 0.16182366013526917, -0.20313400030136108, 0.032631244510412216, 0.024685975164175034, 0.005355695262551308, 0.14705541729927063, 0.01875087432563305, -0.09107609838247299, -0.05798255279660225, -0.006567466072738171, 0.00510020274668932, 0.0891730859875679, -0.0048562875017523766, -0.08226751536130905, 0.11804665625095367, -0.09400930255651474, 0.13370534777641296, -0.051505282521247864, 0.02512039802968502, 0.15395207703113556, 0.004266275558620691, 0.020572347566485405, -0.015536827966570854, 0.08108348399400711, 0.08180288225412369, 0.05927303060889244, 0.09776780754327774, -0.06266837567090988, 0.1656169891357422, 0.036409687250852585, 0.042693980038166046, -0.16299918293952942, 0.1998898983001709, 0.09050857275724411, 0.12238859385251999, 0.008044874295592308, 0.08134447038173676, 0.14104636013507843, -0.05538923293352127, -0.10155300796031952, 0.08407634496688843, -0.035367969423532486, -0.0829026997089386, 0.05658525228500366, 0.043728895485401154, 0.0056029073894023895, -0.013495538383722305, 0.025121502578258514, 0.1172170415520668, 0.002953563118353486, 0.11012210696935654, 0.1323441118001938, -0.07736621797084808, 0.05097723752260208, -0.16490203142166138, 0.05659022927284241, -0.15361443161964417, -0.1331181824207306, -0.175522118806839, 0.10190623998641968, 0.014833267778158188, -0.00321035529486835, 0.05149438604712486, -0.07262664288282394, 0.021433701738715172, -0.13247111439704895, -0.10333403199911118, 0.0022070875857025385, 0.007307056803256273, 0.11598356068134308, -0.1965249478816986, 0.06580649316310883, -0.14255863428115845, -0.04650067910552025, -0.11419830471277237, 0.11204902082681656, 0.13712415099143982, -0.03385660797357559, 0.012471587397158146, -0.008519942872226238, 0.012235580012202263, -0.06862559169530869, -0.14328211545944214, -0.05355481058359146, -0.008839093148708344, -0.1282888799905777, -0.04573299363255501, 0.011051580309867859, 0.1786070615053177, -0.043489567935466766, -0.09963208436965942, -0.09945770353078842, 0.09958972781896591, 0.015555919148027897, 0.011116082780063152, -0.16489864885807037, 0.03240059316158295, -0.0033183498308062553, 0.12562724947929382, -0.10381238907575607, 0.14089612662792206, -0.020400678738951683, 0.058956269174814224, -0.09159403294324875, 0.2357480674982071, -0.00545987905934453, 0.13561633229255676, -0.07581938058137894, -0.11791982501745224, -0.07313662022352219, -0.1305643767118454, 0.01874588616192341, -0.022342467680573463, 0.1312761753797531, -0.07647433876991272, 0.02287670038640499, 0.10603321343660355, 0.0065353866666555405, -0.052273571491241455, -0.0275648832321167, 0.020410669967532158, 0.09326418489217758, -0.17340603470802307, -0.02980152517557144, -0.010417384095489979, -0.23936037719249725, 0.08963505178689957, -0.18095245957374573, -0.04483404755592346, 0.004727670457214117, 