{"version": "0.5.2", "metadata": {"date": {"year": 2024, "month": 4, "day": 12, "hour": 11, "minute": 50, "second": 7}, "loudness": -15.485692977905273, "gain": 0.8429143754181597}, "architecture": "WaveNet", "config": {"layers": [{"input_size": 1, "condition_size": 1, "head_size": 8, "channels": 16, "kernel_size": 3, "dilations": [1, 2, 4, 8, 16, 32, 64, 128, 256, 512], "activation": "Tanh", "gated": false, "head_bias": false}, {"input_size": 16, "condition_size": 1, "head_size": 1, "channels": 8, "kernel_size": 3, "dilations": [1, 2, 4, 8, 16, 32, 64, 128, 256, 512], "activation": "Tanh", "gated": false, "head_bias": true}], "head": null, "head_scale": 0.02}, "weights": [-0.15406197309494019, 0.39462214708328247, -0.7762615084648132, -0.652803897857666, -0.2924833297729492, 0.335594117641449, -0.02310442179441452, 0.882106602191925, -0.1068488284945488, 0.18813154101371765, -0.3954991400241852, -0.06452002376317978, -0.8983309864997864, -0.6883143782615662, -0.4121532142162323, -0.0798891931772232, 0.0010783766629174352, 0.13587434589862823, -0.1052236333489418, -0.04229632765054703, -0.01242142915725708, 0.10790082067251205, -0.0510341040790081, 0.17216931283473969, -0.011529570445418358, -0.005465759430080652, 0.19484606385231018, -0.12278202176094055, -0.1081652119755745, 0.029704896733164787, -0.04210393875837326, 0.1558023989200592, -0.1500703990459442, -0.07086778432130814, -0.13916301727294922, -0.09177196025848389, -0.08706281334161758, 0.14313586056232452, -0.0023048582952469587, 0.057427432388067245, -0.012433575466275215, -0.012606245465576649, 0.031755704432725906, -0.11088066548109055, -0.16108012199401855, -0.07872392237186432, 0.0671352967619896, 0.14657428860664368, -0.057518091052770615, -0.03202994540333748, 0.14357030391693115, 0.14749674499034882, 0.03823377564549446, 0.08504274487495422, 0.10857642441987991, -0.1031276062130928, 0.09395463764667511, -0.09892843663692474, -0.1164475679397583, -0.006454914342612028, 0.078226238489151, -0.1133464127779007, -0.1320539265871048, 0.03319503366947174, -0.38186150789260864, -0.04397091642022133, 0.11349935084581375, 0.3201925456523895, 0.05229337513446808, -0.006718446500599384, -0.4000594913959503, -0.018353335559368134, 0.20195689797401428, -0.16072984039783478, 0.16442818939685822, 0.27547696232795715, -0.2447083294391632, -0.07900989055633545, 0.16928666830062866, 0.21994568407535553, -0.16695590317249298, -0.018141411244869232, -0.120628222823143, -0.07390767335891724, 0.19425180554389954, 0.26259562373161316, -0.06171602010726929, -0.21502777934074402, -0.198612242937088, -0.026225216686725616, 0.2187415361404419, 0.3376785218715668, 0.057390566915273666, -0.09923747181892395, -0.4367094337940216, -0.06099342182278633, 0.2157534509897232, -0.22023306787014008, -0.0729171559214592, 0.0568702332675457, -0.14646898210048676, 0.13358981907367706, 0.08289524167776108, -0.32222238183021545, -0.101519376039505, 0.1434887796640396, -0.3986099660396576, -0.08056964725255966, 0.13279905915260315, -0.3803026080131531, -0.08715451508760452, 0.09659416228532791, -0.14386491477489471, 0.15577402710914612, 0.22799822688102722, -0.04663575068116188, -0.03563336655497551, -0.10004144161939621, -0.05664707347750664, 0.030422275885939598, 0.16666126251220703, -0.07000256329774857, -0.07321576029062271, 0.17676618695259094, -0.20957010984420776, -0.0785725936293602, 0.07978026568889618, 0.001198503072373569, -0.05291246622800827, -0.23258493840694427, -0.11984974145889282, 0.023896474391222, 0.004723079036921263, 0.06780391931533813, 0.1015254333615303, -0.13182269036769867, -0.04181705415248871, 0.02488800324499607, 0.1905464231967926, 0.15510976314544678, 0.1238761842250824, -0.03132817894220352, 0.07021787762641907, 0.001090222503989935, -0.0037965443916618824, -0.1437896490097046, 0.09269024431705475, 0.09141306579113007, -0.14728432893753052, -0.11040272563695908, -0.02308073826134205, -0.19537873566150665, -0.026675082743167877, 0.19391605257987976, 0.007881608791649342, -0.13372302055358887, 0.20809760689735413, -0.11609671264886856, 0.021901428699493408, 0.025344880297780037, -0.13175950944423676, 0.03151798993349075, -0.15646611154079437, -0.06632275879383087, -0.08405571430921555, 0.019601482897996902, -0.12762613594532013, 0.11613587290048599, -0.14930488169193268, -0.06544160842895508, 0.19133377075195312, -0.07267217338085175, 0.06703225523233414, 0.10645170509815216, -0.1505674570798874, 0.1566721796989441, -0.08035525679588318, -0.044531527906656265, 0.06188691779971123, -0.06314937025308609, 0.004610264673829079, 0.03178109601140022, 0.04152313619852066, 0.06097817420959473, -0.0008213157998397946, 0.10197000950574875, -0.0671689510345459, 0.03755594417452812, -0.1674089878797531, 0.10570733994245529, 0.04797745868563652, 0.15600310266017914, -0.1262088567018509, -0.04889804869890213, -0.051464058458805084, -0.09286531805992126, -0.14472830295562744, 0.10919942706823349, -0.10536602139472961, -0.06513842940330505, 0.06586070358753204, 0.07289154082536697, -0.1773180216550827, -0.04401388019323349, -0.11003894358873367, 0.06411009281873703, 0.054487623274326324, 0.11790099740028381, 0.22777767479419708, 0.021277884021401405, -0.012998596765100956, -0.11854322254657745, 0.05117415636777878, -0.0048408969305455685, 0.09474530071020126, -0.010036185383796692, -0.13983814418315887, 0.016118479892611504, 0.08742392063140869, -0.14275386929512024, 0.07268641144037247, 0.10601672530174255, 0.019238486886024475, -0.10850191116333008, -0.10668260604143143, 0.0917138084769249, 0.03273918107151985, -0.014265978708863258, -0.010861986316740513, -0.11233031749725342, 0.033638712018728256, 0.14888231456279755, 0.10830152779817581, 0.10192228853702545, 0.06455343216657639, -0.17206554114818573, 0.10014064610004425, -0.0706428661942482, 0.035710614174604416, 0.017009250819683075, 0.02542191743850708, 0.19451725482940674, -0.06915156543254852, -0.012885084375739098, 0.16339972615242004, -0.1705256551504135, 0.07672145962715149, -0.028060398995876312, -0.028147932142019272, -0.05173887684941292, 0.013756241649389267, -0.011955462396144867, 0.09165069460868835, 0.15102490782737732, -0.08908921480178833, -0.16127826273441315, 0.13609427213668823, 0.07963117957115173, -0.12024358659982681, -0.2551925778388977, -0.045267581939697266, 0.13155800104141235, 0.23914740979671478, 0.06844743341207504, 0.004173328168690205, 0.10886012017726898, -0.07829902321100235, -0.0021543095353990793, 0.27054518461227417, -0.0004939500940963626, -0.1162700429558754, -0.25096797943115234, -0.10325954109430313, 0.07581357657909393, 0.06796051561832428, -0.1346946656703949, 0.1388259381055832, -0.2573031783103943, 0.02207300253212452, 0.08575721085071564, 0.18318180739879608, -0.10956905782222748, -0.11262582242488861, -0.038162779062986374, 0.059715788811445236, 0.15912875533103943, 0.12437134236097336, 0.015878912061452866, -0.06290522962808609, 0.1322716474533081, -0.11794929206371307, 0.021609894931316376, 0.20404565334320068, -0.040502555668354034, -0.07592196762561798, 0.07319942116737366, 0.06359367817640305, -0.15080022811889648, 0.22418367862701416, -0.08305250853300095, -0.11031336337327957, 0.32841935753822327, -0.09729111939668655, -0.11906247586011887, -0.08400560170412064, -0.05401567742228508, 0.08382809162139893, 0.15335197746753693, 0.007110037375241518, -0.10209254175424576, -0.21414713561534882, 0.025470325723290443, 0.1342289000749588, -0.14278684556484222, 0.10718429088592529, 0.1850554645061493, -0.1564951241016388, 0.05967796593904495, 0.15131442248821259, 0.10006866604089737, -0.0451686717569828, -0.06941086798906326, -0.14687930047512054, 0.11380566656589508, 0.232232466340065, 0.21903972327709198, 0.029791103675961494, -0.07222345471382141, 0.026106372475624084, 0.02951514534652233, 0.014676623977720737, -0.04934368282556534, 0.08098362386226654, -0.005069751758128405, -0.18406745791435242, 0.11510036885738373, 0.20308244228363037, 0.0644388496875763, 0.17654454708099365, 0.1960185468196869, -0.12367309629917145, 0.00020496503566391766, 0.20599868893623352, -0.009506049565970898, -0.03516693785786629, 0.217678040266037, -0.02539742738008499, 0.1263718456029892, -0.006503675598651171, 0.059137292206287384, 0.07815373688936234, 0.1298936903476715, 0.12958736717700958, -0.16045860946178436, 0.03275343030691147, -0.00625587860122323, 0.1253999024629593, 0.09953854233026505, -0.025097772479057312, -0.14741642773151398, -0.11995011568069458, -0.07198529690504074, -0.2892674505710602, 0.0840674340724945, 0.15370520949363708, -0.02550416626036167, 0.08991020917892456, -0.21009258925914764, 0.0877888947725296, -0.0013457860331982374, -0.0008383098756894469, -0.02535998448729515, -0.1283566951751709, -0.14393624663352966, 0.040150441229343414, -0.05550869554281235, 0.20117928087711334, -0.05080172047019005, 0.09288748353719711, 0.03679373860359192, 0.2867431938648224, -0.017715713009238243, 0.14118747413158417, -0.04758746549487114, 0.023353273048996925, 0.20622871816158295, -0.0714976042509079, 0.05555520951747894, 0.020300373435020447, -0.10415063053369522, -0.012575505301356316, 0.037558749318122864, -0.25638657808303833, -0.10991095006465912, -0.034338515251874924, -0.07828047126531601, 0.0819883719086647, 0.12531757354736328, -0.24633920192718506, 0.16970233619213104, 0.10364999622106552, 0.06430448591709137, -0.036965690553188324, 0.16211456060409546, 0.048530228435993195, -0.12307845056056976, 0.10849077254533768, 0.11922137439250946, -0.036604031920433044, 0.048091866075992584, -0.07385899871587753, -0.008384396322071552, 0.09217997640371323, 0.01718045212328434, -0.08406665176153183, -0.02671588584780693, -0.0559186115860939, -0.04832190275192261, -0.03660900890827179, 0.130069762468338, 0.01715289056301117, -0.060079291462898254, -0.005828543566167355, 0.04872799292206764, 0.06385399401187897, -0.09213066846132278, 0.03231420740485191, -0.0831628367304802, -0.07850741595029831, 0.02638157643377781, -0.12666665017604828, 0.07315665483474731, 0.14917027950286865, -0.02491503767669201, -0.0939633697271347, -0.04138610139489174, 0.000824762973934412, -0.09907454252243042, 0.08923996239900589, -0.15935513377189636, -0.12521867454051971, -0.12053178995847702, -0.05317411944270134, 0.1155424490571022, -0.11260730028152466, 0.19213032722473145, 0.02413632534444332, 0.05864010751247406, -0.10471521317958832, -0.10448796302080154, 0.06822054833173752, 0.2121589630842209, 0.18466942012310028, 0.13869045674800873, -0.23457244038581848, 0.08160346746444702, -0.05975113436579704, -0.06499594449996948, -0.15416426956653595, -0.10362754017114639, -0.279101699590683, -0.10291526466608047, -0.035691048949956894, 0.020631181076169014, 0.07871866226196289, 0.14467230439186096, -0.04107082635164261, -0.06904701888561249, -0.0921427309513092, 0.09613586217164993, 0.10319706797599792, 0.20924800634384155, -0.03404560685157776, -0.023074958473443985, 0.018354034051299095, -0.004973908420652151, -0.07983844727277756, 0.132271409034729, -0.21644331514835358, 0.035594623535871506, -0.16310375928878784, -0.18647490441799164, -0.15700538456439972, 0.026190411299467087, -0.15363067388534546, 0.06775292009115219, 0.021496538072824478, -0.0595899298787117, -0.038351356983184814, -0.11295683681964874, -0.17740677297115326, -0.024523144587874413, -0.00010314023529645056, -0.014515534043312073, 0.31079110503196716, -0.010371030308306217, -0.41494330763816833, -0.09654133021831512, 0.1697150468826294, 0.33732345700263977, -0.1356392353773117, 0.04001786932349205, -0.13953225314617157, 0.08511760085821152, 0.18436342477798462, -0.2821255326271057, 0.04717663675546646, 0.12235203385353088, -0.23179885745048523, 0.06312881410121918, 0.032677702605724335, 0.31094613671302795, -0.04221683368086815, -0.11652478575706482, -0.09899120032787323, 0.10090416669845581, 0.0274406336247921, 0.2185913622379303, 0.078287772834301, -0.0821874588727951, -0.12877823412418365, -0.0031623186077922583, 0.14210672676563263, 0.08148490637540817, -0.09742873907089233, -0.14462971687316895, -0.06998148560523987, -0.03151162341237068, 0.06819020956754684, -0.24939453601837158, 0.14650346338748932, 0.19659025967121124, -0.3120245337486267, -0.11493490636348724, -0.04604524374008179, -0.20658040046691895, -0.03517339006066322, -0.031310778111219406, -0.2594956159591675, 0.025927385315299034, -0.014899595640599728, -0.10672635585069656, 0.12491767108440399, 0.10177449136972427, 0.17968662083148956, 0.1583179533481598, -0.14894263446331024, -0.1226884126663208, -0.08487672358751297, 0.20948468148708344, 0.0012928674696013331, -0.10202928632497787, 0.07227860391139984, 0.040859393775463104, 0.06007823348045349, -0.084357351064682, 0.08934807032346725, -0.011031840927898884, 0.011764057911932468, -0.12485917657613754, -0.16832609474658966, -0.010931258089840412, 0.01281457208096981, 0.040181227028369904, -0.22099889814853668, 0.005359621252864599, -0.061348509043455124, 0.05080489441752434, 0.19070030748844147, 0.050081368535757065, -0.004869494587182999, -0.03253651037812233, -0.06328527629375458, -0.013845841400325298, 0.11294378340244293, 0.143690824508667, -0.12882398068904877, -0.006765255704522133, 0.09695767611265182, 0.08166444301605225, 0.08999033272266388, -0.08685347437858582, -0.202643021941185, 0.16583529114723206, 0.019847018644213676, -0.1463322788476944, 0.16191600263118744, 0.0883946418762207, 0.043273355811834335, 0.12915489077568054, -0.09641210734844208, -0.1758527308702469, -0.315734326839447, 0.1970120221376419, 0.09073903411626816, 0.17772017419338226, -0.207466259598732, 0.06372939050197601, 0.013247179798781872, 0.2081049680709839, -0.05723816156387329, -0.17518378794193268, -0.022882334887981415, 0.20237235724925995, -0.17375165224075317, 0.016334615647792816, 0.14864717423915863, 0.060375623404979706, -0.15058869123458862, -0.07594198733568192, -0.1934538185596466, -0.11162704229354858, 0.11799691617488861, 0.05453348532319069, -0.03239348158240318, 0.05522225797176361, -0.035279929637908936, 0.1132722795009613, 0.202625572681427, 0.12168196588754654, -0.1569805145263672, 0.05644957348704338, -0.07975498586893082, -0.054559312760829926, 0.030165566131472588, -0.21691946685314178, 0.18153485655784607, 0.02683371491730213, -0.2489047348499298, 0.07030832767486572, 0.15811751782894135, -0.07962021231651306, 0.12686455249786377, 0.08194635063409805, -0.06532953679561615, 0.04558562859892845, 0.008854787796735764, -0.27981069684028625, -0.021258937194943428, 0.04476958513259888, -0.31397005915641785, -0.045390255749225616, 0.026928735896945, 0.14533886313438416, -0.09956124424934387, 0.09178076684474945, -0.22855427861213684, 0.11822899430990219, -0.07736697047948837, -0.17377860844135284, 0.07866553962230682, -0.0193466916680336, -0.011643636971712112, -0.09525007009506226, -0.07658591121435165, 0.08368837833404541, 0.022450629621744156, 0.09472489356994629, -0.1649278998374939, 0.0700131207704544, 0.015207135118544102, 0.11080816388130188, 0.10511820763349533, -0.1519322544336319, -0.1176980584859848, 0.14461210370063782, 0.02586502395570278, 0.24344101548194885, -0.04993318393826485, 0.0719648227095604, -0.2868611216545105, -0.027075612917542458, 0.007440570741891861, -0.07765074074268341, 0.055917829275131226, 0.1450880914926529, -0.16161547601222992, -0.006751828361302614, 0.1366855949163437, -0.18136130273342133, 0.12470515072345734, -0.05846400186419487, -0.1649336814880371, -0.01638316735625267, 0.0949425920844078, -0.018767429515719414, 0.02312692441046238, -0.08810077607631683, -0.28159624338150024, 0.18629272282123566, 0.16343732178211212, 0.1834527999162674, -0.055454954504966736, 0.021060558035969734, -0.2584894001483917, 0.013121161609888077, 0.22072386741638184, -0.3676539957523346, 0.18704283237457275, 0.14276066422462463, -0.3139834702014923, 0.21339432895183563, 0.000575193262193352, 0.31951045989990234, -0.23654596507549286, -0.1344543844461441, -0.18597422540187836, 0.30699557065963745, 0.0808180645108223, 0.3580157160758972, -0.173519566655159, -0.19211308658123016, -0.3555948734283447, 0.049427662044763565, 0.29574525356292725, 0.2092820405960083, -0.14946959912776947, -0.08700073510408401, -0.16695088148117065, 0.27897974848747253, 0.2393282800912857, -0.3372609615325928, 0.12580262124538422, 0.0330779030919075, -0.3435668647289276, 0.18629562854766846, 0.25485965609550476, -0.3790857791900635, 0.24076806008815765, 0.04562000930309296, -0.29264509677886963, 0.26630696654319763, 0.08679097890853882, -0.3650742769241333, -0.02058464102447033, 0.21752844750881195, 0.32291772961616516, -0.16586044430732727, -0.0192552600055933, -0.3570692539215088, -0.061394449323415756, 0.09539355337619781, 0.36678943037986755, -0.09501703083515167, -0.022037561982870102, 0.3696964681148529, 0.037844087928533554, -0.17041784524917603, 0.21543797850608826, -0.11663655191659927, -0.2198335975408554, -0.2622860372066498, 0.16678300499916077, 0.21365661919116974, 0.19450144469738007, -0.08101960271596909, -0.20566169917583466, -0.13807910680770874, 0.0006792198400944471, -0.002647222951054573, 0.21887339651584625, -0.015784574672579765, -0.26912206411361694, -0.09311418980360031, 0.12224464118480682, 0.0032834152225404978, 0.21318159997463226, 0.06025884300470352, -0.2113341987133026, 0.1790752112865448, -0.0075355288572609425, -0.21381285786628723, 0.3242499530315399, 0.01822117157280445, -0.003839088836684823, 0.1548578143119812, 0.08568961173295975, -0.17980989813804626, 0.3923023045063019, -0.19432282447814941, -0.21876837313175201, 0.29138168692588806, -0.1280476450920105, -0.054021257907152176, -0.03224262595176697, -0.08371735364198685, -0.048129305243492126, -0.09027044475078583, 0.015702633187174797, 0.008738024160265923, -0.017006993293762207, 0.015069200657308102, 0.0891653522849083, 0.2547871768474579, -0.05439314618706703, -0.06004946306347847, 0.0016035879962146282, 0.023602155968546867, -0.00572521798312664, -0.03451472148299217, 0.4312009811401367, -0.5745502710342407, 0.6898261904716492, -0.6858811974525452, 0.031851641833782196, 0.9490686655044556, 0.9088062644004822, -0.5484902858734131, 0.16560415923595428, 0.18646782636642456, -0.5325978994369507, -0.2764182686805725, 0.2042006105184555, -0.7353889346122742, 0.045947879552841187, 0.5246801972389221, -0.11288578808307648, 0.41934168338775635, -0.007555356249213219, 0.1698489487171173, 0.10953068733215332, -0.26109474897384644, 0.1465355008840561, -0.047399576753377914, -0.018318725749850273, -0.011540472507476807, 0.2523397207260132, -0.0029643725138157606, 0.0866929367184639, 0.22459465265274048, 0.7820361852645874, -0.5841612815856934, -0.01600852981209755, -0.17865127325057983, -0.31288236379623413, 0.12105052173137665, 0.05686249956488609, -0.022255394607782364, -0.1498987227678299, 0.031543564051389694, -0.09416280686855316, 0.13724775612354279, -0.1052536591887474, 0.07905089110136032, 0.03423294052481651, -0.09882238507270813, -0.13094809651374817, 0.4561026692390442, 0.209940567612648, 0.1502833366394043, 0.09863893687725067, 0.1872362196445465, -0.2142908126115799, -0.13392308354377747, 0.1618286520242691, -0.23721250891685486, 0.028830910101532936, -0.06051486358046532, 0.35292521119117737, -0.20796778798103333, 0.18084807693958282, 0.32930788397789, 0.5198812484741211, -0.2266993522644043, 0.15714819729328156, -0.2056242972612381, -0.04578845202922821, -0.19863848388195038, 0.10225727409124374, 0.1536387950181961, 0.05784899368882179, -0.12882967293262482, -0.16191157698631287, 0.12619106471538544, -0.08169089257717133, -0.07725393027067184, 0.0826679989695549, 0.14137864112854004, -0.3017270267009735, -0.02751331962645054, -0.08473367244005203, -0.40466761589050293, -0.23103448748588562, 0.11953635513782501, 0.13256865739822388, 0.25656500458717346, 0.1404312551021576, -0.24952332675457, 0.07198955863714218, 0.37087714672088623, -0.23309995234012604, 0.21344326436519623, -0.0423911027610302, 0.027629517018795013, -0.24506811797618866, 0.2507632374763489, -0.18111421167850494, -0.1885715126991272, 0.04790002107620239, 0.05726242810487747, 0.23752936720848083, 0.3011966645717621, 0.19901470839977264, 0.03086388111114502, 0.1343909502029419, -0.08540941774845123, -0.329358845949173, -0.05711518973112106, -0.07515109330415726, -0.23328498005867004, -0.37441468238830566, 0.3635590672492981, 0.04667077958583832, 0.22374539077281952, 0.10691972821950912, 0.1696958839893341, -0.22845172882080078, -0.29769694805145264, 0.004720271099358797, 0.11850100755691528, -0.004055203404277563, -0.3849094808101654, -0.1441745012998581, 0.2317349761724472, 0.12525787949562073, -0.030258769169449806, 0.2511568069458008, -0.1269102245569229, 0.23358723521232605, 0.03488285839557648, 0.27416908740997314, -0.19442270696163177, -0.22594599425792694, 0.14410917460918427, 0.28957536816596985, 0.04921906068921089, 0.09277833998203278, -0.2410164624452591, 0.20383630692958832, -0.21294288337230682, 0.06510438770055771, -0.10738050937652588, -0.2212980091571808, 0.09014986455440521, -0.11996054649353027, 0.04819272831082344, -0.21173222362995148, -0.22455522418022156, 0.06672288477420807, -0.11149471253156662, -0.2242015302181244, 0.08143681287765503, -0.21885834634304047, -0.20321743190288544, 0.13746020197868347, 0.10569729655981064, 0.009085067547857761, -0.12178779393434525, 0.05123003199696541, 0.05726111680269241, -0.28337597846984863, 0.03642438352108002, 0.18409132957458496, -0.1840032935142517, 0.0359458401799202, -0.028526995331048965, 0.19281400740146637, -0.02996225655078888, 0.06384751945734024, 0.18164736032485962, 0.11174079030752182, 0.022522583603858948, 0.06298428028821945, 0.2122194617986679, -0.20610438287258148, -0.11794207990169525, 0.06922880560159683, 0.2768498361110687, -0.25106656551361084, 0.13928793370723724, -0.07752729952335358, -0.24035248160362244, -0.02198520116508007, -0.01945778913795948, 0.053729020059108734, -0.15408946573734283, -0.14724382758140564, 0.031058508902788162, -0.07197261601686478, 0.12336751073598862, 0.13305065035820007, 0.1301841288805008, -0.039549943059682846, -0.1373380720615387, 0.13620159029960632, -0.07049570977687836, 0.09969177842140198, -0.03684663400053978, -0.0030650030821561813, 0.09374037384986877, 0.017145581543445587, -0.14814335107803345, 0.018226739019155502, -0.22404879331588745, -0.13440361618995667, 0.11204296350479126, -0.35024821758270264, -0.15050363540649414, 0.022540174424648285, -0.011217576451599598, 0.11958908289670944, 0.03929619491100311, 0.07212675362825394, -0.07416701316833496, 0.020859964191913605, 0.02734113298356533, 0.2431921511888504, 0.062182921916246414, -0.06965111941099167, 0.03830051049590111, 0.18843914568424225, -0.15356554090976715, -0.07956773787736893, 0.10602550208568573, -0.002336780307814479, -0.24818739295005798, -0.1057649776339531, 0.03638483211398125, -0.08056288212537766, 0.23586051166057587, 0.1545259952545166, 0.10123569518327713, 0.026844056323170662, -0.049416813999414444, -0.04816164821386337, 0.0430358462035656, -0.1767435520887375, -0.1538214534521103, -0.30539923906326294, 0.20594684779644012, 0.021417789161205292, 0.1961347758769989, -0.03732389956712723, -0.17430905997753143, 0.016845038160681725, 0.06642990559339523, 0.13073448836803436, 0.12979884445667267, -0.22067110240459442, 0.158689945936203, -0.022708695381879807, -0.05138082802295685, 0.175601527094841, 0.027817580848932266, -0.18353231251239777, 0.019277647137641907, 0.01102423295378685, 0.14277486503124237, 0.19532911479473114, -0.08985226601362228, -0.06531716883182526, 0.03991641104221344, 0.07624784857034683, 0.38873380422592163, -0.08653553575277328, -0.1827327162027359, 0.030659157782793045, -0.2204873263835907, -0.018412552773952484, 0.2517905831336975, 0.03819398209452629, -0.18490280210971832, 0.21490976214408875, -0.14183740317821503, 0.19196997582912445, -0.1410166472196579, -0.15096992254257202, -0.058108869940042496, 0.18240393698215485, 0.01798771508038044, 0.024135680869221687, -0.09897436946630478, 0.06994295120239258, -0.008110188879072666, 0.029251568019390106, 0.12301933765411377, -0.026700764894485474, 0.043115224689245224, -0.043776463717222214, -0.04126783832907677, 0.04503966495394707, 0.20838581025600433, -0.0387444831430912, 0.07277677953243256, -0.10075158625841141, -0.0887770801782608, 0.08320054411888123, -0.08731499314308167, -0.006534731946885586, 0.05684743449091911, 0.09595892578363419, -0.04315416142344475, 0.0808817520737648, 0.019206324592232704, -0.05378323420882225, -0.0311848483979702, -0.0923602283000946, -0.22464491426944733, 0.04989160969853401, -0.13034214079380035, 0.010015396401286125, -0.20212887227535248, 0.024646349251270294, -0.04526354372501373, -0.13290178775787354, -0.1815953105688095, 0.12953948974609375, -0.050643403083086014, 0.007155110593885183, -0.15631435811519623, -0.005528419278562069, -0.31827443838119507, -0.22255590558052063, 0.04827186092734337, -0.07500318437814713, -0.08772404491901398, -0.02258465066552162, -0.0869518592953682, -0.009894107468426228, -0.12910304963588715, -0.040919966995716095, 0.21348276734352112, 0.24782387912273407, 0.007058382965624332, -0.017441196367144585, -0.023120906203985214, -0.026365218684077263, 0.4154035747051239, 0.012444705702364445, -0.17683559656143188, -0.21496178209781647, 0.09868841618299484, -0.15528856217861176, 0.36856478452682495, 0.11676707863807678, -0.20913930237293243, 0.1268058717250824, -0.06405743211507797, 0.08351171016693115, -0.31323936581611633, 0.06052354723215103, 0.07661096006631851, -0.4794871509075165, -0.12995879352092743, -0.13830125331878662, 0.0395318977534771, 0.04902772977948189, 0.326083779335022, -0.23986707627773285, -0.018823588266968727, -0.3622449040412903, 0.08969847857952118, 0.05774237960577011, 0.3432694971561432, -0.008636782877147198, -0.1733582466840744, -0.19732239842414856, 0.19777290523052216, 0.06322458386421204, -0.2619793713092804, -0.014421915635466576, 0.169093057513237, -0.25431811809539795, 0.09253297001123428, 0.07576777786016464, -0.10302115231752396, 0.03918483853340149, 0.05240821838378906, -0.13589270412921906, 0.0008855033665895462, -0.14415282011032104, 0.1338830441236496, 0.19998706877231598, -0.17031393945217133, -0.2787224352359772, -0.41026803851127625, -0.02348196692764759, 0.302667498588562, 0.33243322372436523, -0.03963534161448479, -0.06511739641427994, -0.252768337726593, -0.03896814212203026, 0.2274918407201767, -0.029464388266205788, -0.09104133397340775, 0.2293943613767624, 0.09520602971315384, 0.11743884533643723, -0.18920691311359406, 0.2778773009777069, 0.19786395132541656, 0.33281755447387695, -0.2141505628824234, -0.1213584840297699, -0.2728818356990814, 0.04129960760474205, 0.1632748544216156, 0.22135600447654724, -0.16962452232837677, -0.10400374978780746, -0.26445794105529785, 0.09975993633270264, -0.08768846839666367, 0.15903709828853607, -0.2460334748029709, 0.03702027350664139, 0.21022413671016693, -0.1051546111702919, 0.0787593200802803, 0.21136587858200073, -0.122501440346241, -0.11055900156497955, 0.09680178761482239, -0.037169769406318665, 0.004650515504181385, -0.10438085347414017, -0.027384011074900627, 0.0952112078666687, -0.26269418001174927, 0.042247701436281204, 0.17028461396694183, 0.019303008913993835, -0.2634419798851013, 0.2477361261844635, -0.13029493391513824, 0.1597006618976593, -0.029112689197063446, 0.15055504441261292, -0.33279702067375183, -0.03962158039212227, 0.09357224404811859, 0.033460501581430435, -0.13665889203548431, -0.11667365580797195, -0.011424927972257137, -0.15705600380897522, -0.18249161541461945, 0.3484668433666229, -0.029900582507252693, 0.1531158983707428, -0.01041453517973423, 0.03377019986510277, -0.21747469902038574, 0.2123434841632843, 0.06606347113847733, 0.16726571321487427, -0.2590060234069824, 0.005792119540274143, 0.07283666729927063, -0.06919395178556442, 0.04840938001871109, 0.20568500459194183, -0.27712997794151306, -0.02076667919754982, 0.1695277839899063, 0.09599002450704575, 0.16576045751571655, 0.11911983042955399, -0.018175851553678513, -0.09992974996566772, 0.08588244765996933, -0.17237141728401184, -0.1636056751012802, -0.03257044777274132, -0.08928485214710236, 0.18063907325267792, 0.041942715644836426, 0.06721583753824234, 0.1803233027458191, -0.13771399855613708, -0.10903080552816391, 0.17260253429412842, 0.08107935637235641, 0.1295471042394638, -0.09838660061359406, -0.06353652477264404, -0.024396603927016258, 0.07799167931079865, -0.09468545764684677, 0.012103158980607986, 0.051441825926303864, -0.06221378967165947, -0.03666441887617111, -0.19346998631954193, -0.21661953628063202, 0.16944646835327148, -0.18104949593544006, 0.2104790210723877, -0.19570493698120117, -0.004298856016248465, -0.08674567937850952, 0.21701820194721222, 0.10141012817621231, 0.22844691574573517, -0.012706439010798931, -0.06600115448236465, -0.1947486400604248, -0.07754749804735184, 0.029561934992671013, 0.29093578457832336, -0.14110128581523895, 0.02095818519592285, -0.039784014225006104, -0.03217434883117676, 0.0788821205496788, -0.12425728887319565, -0.251630574464798, 0.05434412881731987, 0.08594192564487457, -0.03536823391914368, -0.023744069039821625, 0.03632717207074165, -0.12055400013923645, -0.016943546012043953, 0.032808978110551834, -0.046182580292224884, -0.0023171447683125734, -0.04510423541069031, -0.07066458463668823, -0.06802024692296982, -0.1489909440279007, 0.08592012524604797, 0.042818181216716766, -0.08771216869354248, -0.0040838345885276794, 0.040948089212179184, -0.029247473925352097, 0.08963733911514282, 0.06732968240976334, -0.07663263380527496, 0.05549769848585129, 0.043947309255599976, 0.1532912254333496, -0.11573045700788498, 0.016386812552809715, -0.002618415281176567, -0.1649302989244461, -0.08563046902418137, 0.17897488176822662, -0.0901087149977684, 0.19797217845916748, 0.04150182753801346, 0.10210591554641724, -0.11434155702590942, 0.22192616760730743, -0.03654855117201805, 0.005192914977669716, -0.02508736029267311, 0.03526531904935837, -0.0071353246457874775, 0.19974738359451294, -0.14057520031929016, -0.029506869614124298, 0.03411430865526199, 0.10093358904123306, 0.020786067470908165, -0.12265817075967789, -0.15763482451438904, 0.06811180710792542, -0.051392439752817154, 0.08178810030221939, -0.19238294661045074, 0.0008174554095603526, 0.009612432681024075, 0.038525164127349854, 0.048430752009153366, 0.07121694833040237, 0.15243208408355713, 0.056267403066158295, 0.13787581026554108, -0.14844326674938202, 0.090430349111557, -0.026705186814069748, 0.33169934153556824, 0.1689775586128235, -0.0045877667143940926, -0.013476160354912281, 0.007838926278054714, 0.12321802973747253, -0.03985185921192169, 0.03625361621379852, 0.07159194350242615, -0.06325067579746246, 0.2239810675382614, -0.09531959146261215, 0.15434856712818146, -0.21042966842651367, 0.040153346955776215, -0.19236226379871368, 0.1447434276342392, -0.07693898677825928, -0.02422972582280636, -0.08821862936019897, -0.005693370010703802, -0.08804602175951004, 0.23580783605575562, -0.05576847493648529, 0.18804168701171875, -0.0658288300037384, 0.11016936600208282, 0.09075898677110672, 0.19169114530086517, 0.13604716956615448, 0.22640767693519592, 0.11139057576656342, 0.1432013064622879, -0.08973889797925949, -0.055373501032590866, 0.10999564081430435, 0.128198504447937, -0.22240085899829865, -0.10195543617010117, -0.046812258660793304, -0.16136391460895538, -0.00848942156881094, -0.06395154446363449, 0.1455092579126358, -0.02680375427007675, 0.0404822938144207, -0.15361490845680237, -0.03447562828660011, -0.003615290392190218, -0.04156183451414108, -0.07209881395101547, -0.042402174323797226, 0.056115735322237015, -0.11356828361749649, -0.002371904207393527, 0.08119435608386993, -0.043137189000844955, -0.010994726791977882, 0.03370460122823715, -0.11207831650972366, 0.039996564388275146, -0.015206565149128437, -0.030503498390316963, -0.07277652621269226, 0.06358790397644043, -0.15397745370864868, 0.17513293027877808, 0.09254157543182373, 0.14929057657718658, -0.07664954662322998, 0.1433296650648117, -0.18576043844223022, 0.00929240696132183, -0.14383268356323242, -0.041900914162397385, -0.052512846887111664, -0.06220843642950058, -0.05516035109758377, -0.026550475507974625, -0.13187241554260254, -0.04102766141295433, -0.08304280787706375, 0.04197884351015091, 0.09833786636590958, 0.05445210263133049, -0.10760319232940674, 0.022622816264629364, -0.06463777273893356, 0.42021697759628296, -0.037460651248693466, 0.014431843534111977, -0.2712356746196747, -0.11393056064844131, -0.14969609677791595, 0.3373819887638092, -0.04419764503836632, 0.2683620750904083, 0.10065178573131561, 0.013394545763731003, -0.08137431740760803, -0.05293283984065056, 0.09519299119710922, -0.03491029888391495, -0.37728777527809143, 0.18967697024345398, -0.16014498472213745, 0.14202089607715607, -0.056681856513023376, 0.03906986862421036, -0.2468269318342209, -0.08277798444032669, 0.02081534080207348, 0.03603231534361839, -0.11142994463443756, 0.1626230776309967, -0.06804080307483673, 0.10869763046503067, -0.13641640543937683, 0.14548759162425995, -0.09278568625450134, -0.020654110237956047, -0.08151031285524368, 0.07491311430931091, 0.10612852871417999, 0.05532097443938255, 0.15242508053779602, 0.09198842942714691, -0.021539421752095222, -0.02442735992372036, -0.10685443878173828, 0.08513042330741882, -0.0001195037693833001, 0.1392667144536972, 0.020320625975728035, -0.054578717797994614, -0.11367886513471603, 0.06679245829582214, 0.17228026688098907, -0.1727643609046936, -0.06770128756761551, 0.037271928042173386, 0.1726207286119461, -0.19014321267604828, 0.02715161070227623, -0.09895076602697372, -0.10940543562173843, 0.1150592640042305, -0.036200545728206635, 0.1023765280842781, -0.09662939608097076, 0.008962545543909073, 0.1041581779718399, -0.10364539176225662, 0.12330426275730133, -0.042395710945129395, 0.04412126913666725, 0.11092449724674225, 0.07823379337787628, 0.030363712459802628, 0.17234884202480316, -0.13139395415782928, 0.16742466390132904, 0.029575958847999573, -0.006548168137669563, -0.07131198793649673, 0.06261707097291946, -0.25185248255729675, 0.06577466428279877, 0.12277773022651672, -0.05319034680724144, -0.006418969947844744, -0.06219637766480446, -0.15335066616535187, -0.06461537629365921, -0.09814685583114624, -0.1363731026649475, 0.04123940318822861, 0.06322206556797028, -0.10265126824378967, -0.1281512975692749, -0.00547835836187005, -0.00938955508172512, 0.0660676509141922, -0.1423819214105606, -0.17667777836322784, -0.0031098981853574514, 0.02954873815178871, -0.07511582970619202, 0.09803840517997742, -0.2001868039369583, -0.038710176944732666, -0.05785668268799782, 0.06792527437210083, -0.13995833694934845, -0.09265293926000595, -0.05893998593091965, 0.05955354869365692, 0.10197998583316803, -0.09345975518226624, 0.0035038013011217117, 0.1157768964767456, 0.07616323977708817, -0.07555712759494781, -0.01447770930826664, -0.012407681904733181, -0.12186840176582336, 0.1115277111530304, 0.1347467005252838, 0.029468853026628494, -0.06924811750650406, 0.025219108909368515, -0.15925918519496918, -0.15836098790168762, 0.03250044584274292, 0.16395951807498932, -0.09223926067352295, -0.18369875848293304, 0.00938851572573185, -0.10408751666545868, 0.09109536558389664, 0.09985562413930893, -0.04209630936384201, -0.01402946189045906, 0.13100101053714752, -0.03563644737005234, 0.029804127290844917, 0.04829453304409981, 0.0580180399119854, 0.15755082666873932, -0.21525166928768158, -0.2838924825191498, 0.06563461571931839, 0.1763058453798294, -0.18840786814689636, 0.17163655161857605, -0.06004248559474945, 0.036985110491514206, -0.30591779947280884, 0.01994587853550911, -0.02524390071630478, 0.24188479781150818, 0.06912950426340103, 0.01421272661536932, -0.01764439232647419, 0.02736104466021061, 0.1618058830499649, -0.20219403505325317, -0.19878943264484406, 0.2811543643474579, 0.018554911017417908, 0.04961366951465607, -0.2057347446680069, 0.06043953821063042, -0.019566358998417854, 0.24915403127670288, 0.11443092674016953, 0.2544178068637848, -0.17526496946811676, -0.1621713787317276, -0.3001660406589508, 0.1031479761004448, -0.003444480476900935, 0.07670272886753082, -0.07943329215049744, -0.1602490246295929, -0.06337220966815948, 0.03807402774691582, -0.01178878266364336, 0.022017724812030792, -0.1480211764574051, 0.04256726801395416, 0.177171990275383, 0.05572652071714401, -0.0980401262640953, 0.1574884057044983, 0.05928570404648781, 0.025144875049591064, -0.24214811623096466, -0.061411939561367035, 0.16323313117027283, -0.03518380597233772, -0.005407495889812708, -0.1384868025779724, 0.08228345960378647, 0.138582244515419, 0.04053939878940582, 0.1314171850681305, 0.07613083720207214, -0.10496601462364197, -0.011704867705702782, 0.047122929245233536, -0.07113286852836609, 0.10827883332967758, 0.018372096121311188, -0.10915597528219223, -0.04176660254597664, -0.1194857731461525, 0.202682763338089, -0.0904301181435585, -0.056649718433618546, -0.021556779742240906, -0.05052785947918892, -0.13177138566970825, 0.13104261457920074, -0.13998065888881683, 0.12058501690626144, 0.09606342762708664, 0.017125997692346573, -0.02348516695201397, -0.11655107885599136, 0.05707879737019539, 0.20551174879074097, -0.0006232680170796812, 0.14802682399749756, -0.273921400308609, -0.1974487155675888, 0.03429490700364113, -0.07048282772302628, 0.03795752674341202, -0.04559612646698952, -0.0036077937111258507, -0.11073347926139832, 0.11002378910779953, -0.1584440916776657, -0.10061990469694138, 0.08294285833835602, -0.015486267395317554, -0.04458126053214073, 0.10551122575998306, -0.28919968008995056, 0.059088338166475296, -0.0506364181637764, 0.19398324191570282, 0.029261773452162743, 0.20669850707054138, -0.29919859766960144, 0.0941317155957222, -0.058102745562791824, 0.006896257866173983, 0.048739753663539886, -0.10283675789833069, 0.09064389020204544, 0.15996091067790985, -0.18912969529628754, 0.21462205052375793, -0.07839638739824295, -0.00944796297699213, -0.03942327946424484, -0.029644042253494263, 0.13054591417312622, 0.07908923178911209, -0.005022249650210142, -0.033398594707250595, -0.08579479902982712, 0.050181418657302856, 0.11533787846565247, -0.09595237672328949, 0.1179482713341713, -0.060588207095861435, -0.08745035529136658, -0.12073537707328796, 0.10914043337106705, 0.18181252479553223, -0.10237490385770798, -0.1536283791065216, -0.04462963342666626, -0.04090029001235962, 0.013277794234454632, 0.11576967686414719, -0.10680549591779709, -0.06589921563863754, -0.10481711477041245, -0.16822436451911926, 0.016050396487116814, -0.10693643987178802, 0.050885505974292755, -0.22873462736606598, 0.15931889414787292, -0.24140650033950806, 0.06476780772209167, 0.10724816471338272, 0.04760032147169113, -0.18172061443328857, 0.20910802483558655, -0.05914756655693054, -0.040473055094480515, -0.013933029025793076, 0.011452035047113895, 0.03768320754170418, 0.0166549701243639, 0.018933016806840897, 0.27468156814575195, -0.18260252475738525, -0.04103909805417061, -0.032492030411958694, 0.17807957530021667, 0.12524037063121796, 0.11841193586587906, -0.06108521670103073, -0.09420045465230942, -0.02287585660815239, -0.07788234949111938, -0.024014733731746674, -0.0023041097447276115, -0.10080282390117645, 0.1259065717458725, -0.12403320521116257, 0.14901573956012726, 0.1280631273984909, 0.030840596184134483, 0.031797144562006, -0.06377934664487839, -0.03977520018815994, 0.06387531012296677, 0.028811614960432053, -0.08414194732904434, -0.055739812552928925, -0.03326190263032913, -0.2884451150894165, -0.09102845937013626, -0.27772703766822815, 0.20453467965126038, 0.06899555772542953, 0.018899472430348396, -0.13084666430950165, 0.19038879871368408, -0.2565866708755493, 0.08648057281970978, 0.039535123854875565, 0.15019893646240234, -0.05953676626086235, 0.16505934298038483, -0.04978104680776596, 0.026814909651875496, 0.10891824960708618, -0.08566079288721085, 0.02170223370194435, -0.014191021211445332, 0.0731397345662117, 0.14988403022289276, -0.254653662443161, 0.11139055341482162, -0.08844024688005447, 0.16350913047790527, -0.22939623892307281, 0.20313848555088043, -0.24152952432632446, -0.035484399646520615, -0.24142135679721832, 0.029887482523918152, -0.01596630923449993, 0.012896671891212463, 0.09931939095258713, 0.18039587140083313, -0.18759356439113617, 0.2106928825378418, -0.15404044091701508, -0.06422790139913559, 0.025028008967638016, -0.003792941104620695, -0.15067343413829803, -0.029552539810538292, 0.023444293066859245, -0.01411358080804348, 0.12466578930616379, -0.06409624218940735, -0.010775032453238964, -0.09662684053182602, -0.06762301176786423, 0.0890483632683754, 0.1878272444009781, 0.10817199945449829, 0.10236933827400208, 0.10973994433879852, -0.09884876757860184, 0.06954094767570496, -0.11603374034166336, 0.10824801027774811, 0.13527308404445648, 0.1238589882850647, -0.06331807374954224, -0.03583049029111862, 0.10717679560184479, 0.07042433321475983, 0.07896129041910172, 0.024109210819005966, 0.0805230364203453, -0.02696915715932846, -0.41177287697792053, 0.2178104668855667, 0.35749000310897827, -0.5340480804443359, 0.1443692445755005, -0.740202784538269, -0.4371980130672455, -0.42585042119026184, 0.8091975450515747, -0.8731892704963684, -0.5105717778205872, -0.8817689418792725, 0.2988322675228119, -0.7749700546264648, 0.3105347454547882, -0.6177257299423218, -0.10730189085006714, -0.18812067806720734, 0.15249277651309967, 0.19026081264019012, 0.11707562953233719, -0.021033858880400658, -0.16258604824543, -0.09225627779960632, 0.0007834744174033403, -0.03141965717077255, 0.10963328182697296, 0.12079721689224243, 0.18444930016994476, 0.0873141661286354, -0.12181267887353897, -0.07545074075460434, 0.09312895685434341, -0.11880812048912048, -0.09009555727243423, 0.059359725564718246, -0.15388783812522888, 0.12555579841136932, 0.020955169573426247, -0.07645764201879501, 0.1288069635629654, -0.18200579285621643, 0.08922658860683441, 0.34013766050338745, -0.219195157289505, 0.003699765307828784, -0.04240737110376358, 0.13988076150417328, -0.11215473711490631, -0.18371360003948212, -0.055816829204559326, 0.05521426349878311, -0.15107056498527527, 0.20951925218105316, -0.09129630774259567, -0.06624884903430939, 0.017084985971450806, 0.17283381521701813, -0.23229341208934784, -0.3141353726387024, 0.2384348213672638, 0.1674201786518097, 0.07514336705207825, 0.05354642495512962, 0.09943925589323044, 0.024936608970165253, -0.1303243637084961, -0.15534941852092743, -0.141732320189476, 0.0032807046081870794, -0.10226821154356003, -0.0268765427172184, -0.17320668697357178, 0.03904665261507034, 0.11193300783634186, 0.3143633008003235, 0.3003911077976227, -0.15744656324386597, 0.1877019703388214, 0.005032949149608612, 0.33310380578041077, 0.06462667882442474, -0.21043045818805695, -0.2643287479877472, 0.07189957797527313, -0.06260818988084793, -0.051891375333070755, 0.26706361770629883, 0.13044008612632751, -0.03174808993935585, -0.044771093875169754, 0.27658459544181824, -0.05588029325008392, -0.1379389464855194, -0.20284493267536163, -0.1022644191980362, -0.14908209443092346, -0.044372789561748505, -0.3123965263366699, -0.08650273829698563, 0.060740549117326736, -0.15716227889060974, -0.02876949869096279, -0.06851094961166382, 0.18306633830070496, 0.23262418806552887, -0.007275606971234083, -0.1409887671470642, -0.1714676022529602, -0.11413946747779846, 0.0023016363848000765, 0.08039025962352753, 0.07481000572443008, -0.19073942303657532, 0.12788031995296478, -0.08814362436532974, 0.05677655711770058, 0.17441105842590332, -0.38054025173187256, -0.15109802782535553, 0.008627897128462791, 0.0008610116201452911, -0.127590149641037, 0.2070131152868271, -0.014293067157268524, 0.07313042879104614, -0.16651217639446259, 0.26304274797439575, 0.07429812103509903, 0.021451901644468307, 0.0640525296330452, 0.04913352429866791, 0.03221091255545616, -0.11570470780134201, -0.04931066930294037, 0.019068151712417603, 0.03718326985836029, 0.383221298456192, -0.24641351401805878, -0.01506501343101263, -0.07039565593004227, 0.1135898008942604, 0.12078897655010223, 0.1435081660747528, -0.0617983341217041, 0.10972946137189865, -0.1593710333108902, -0.05673065409064293, -0.12646248936653137, -0.09373442083597183, -0.019061842933297157, -0.12830959260463715, -0.05928026884794235, -0.03882718086242676, 0.224141463637352, -0.07633833587169647, -0.08430366218090057, 0.22620940208435059, -0.12451345473527908, 0.21350958943367004, 0.013206508941948414, -0.2324194610118866, 0.1764592081308365, 0.18832537531852722, 0.18615296483039856, -0.15598420798778534, 0.26675233244895935, -0.006363571155816317, 0.05565395951271057, -0.02985919639468193, 0.12669120728969574, 0.3108125925064087, 0.02721915952861309, -0.052864402532577515, 0.003537725191563368, -0.2195337563753128, -0.13148176670074463, -0.09078101813793182, -0.20165188610553741, 0.16821713745594025, 0.10180371254682541, -0.07224332541227341, -0.06977139413356781, 0.019839737564325333, 0.0234536100178957, 0.230463907122612, -0.19116821885108948, 0.13195471465587616, -0.05211310088634491, 0.07748263329267502, -0.03092428483068943, 0.018739815801382065, 0.06109299883246422, 0.25633490085601807, -0.33359819650650024, -0.051891062408685684, -0.23046521842479706, -0.019484346732497215, 0.019044630229473114, 0.14351482689380646, -0.2471378743648529, 0.1525028645992279, 0.23018239438533783, -0.15510043501853943, 0.11514373123645782, -0.010588872246444225, 0.09722793847322464, -0.1190720796585083, -0.1635570526123047, -0.21800048649311066, -0.2219620645046234, 0.24864883720874786, 0.025229860097169876, -0.02063571847975254, -0.22217977046966553, 0.09730036556720734, -0.16636152565479279, -0.08625942468643188, -0.2665347456932068, -0.1774127185344696, 0.1767425537109375, 0.002635025419294834, -0.05705050751566887, -0.030519384890794754, 0.09485107660293579, 0.0810578390955925, -0.22208751738071442, 0.27287450432777405, -0.15979622304439545, 0.036274492740631104, 0.006803407799452543, -0.00019429215171840042, 0.05399719998240471, 0.1661553978919983, 0.07182387262582779, 0.0362447127699852, 0.13647472858428955, 0.11196009069681168, 0.0749756246805191, -0.1113453209400177, 0.013660854659974575, 0.32691490650177, -0.24537895619869232, -0.08412379771471024, -0.26990169286727905, -0.03838106617331505, 0.09474559873342514, -0.031427379697561264, -0.15373589098453522, 0.13501600921154022, -0.13730186223983765, -0.03227528557181358, -0.0679345577955246, 0.15872597694396973, 0.15331074595451355, 0.18739627301692963, 0.2322336733341217, -0.3438655138015747, 0.02634969912469387, 0.011464093811810017, -0.21958117187023163, 0.025147756561636925, -0.047053176909685135, 0.1612059324979782, 0.3507823646068573, -0.1351458728313446, 0.1594843715429306, 0.15500612556934357, -0.31090834736824036, 0.2267259657382965, -0.25368478894233704, -0.17097021639347076, -0.07511501014232635, -0.016260012984275818, 0.011073541827499866, -0.029854856431484222, -0.12127677351236343, 0.00010614546772558242, 0.14530408382415771, 0.15886421501636505, 0.07748406380414963, 0.03703804314136505, 0.0201366376131773, -0.17275844514369965, 0.054860129952430725, -0.24129188060760498, -0.13815172016620636, -0.046220626682043076, 0.3061703145503998, 0.014838055707514286, -0.028000328689813614, 0.07569055259227753, -0.13455557823181152, -0.037802089005708694, -0.0973295271396637, -0.020258428528904915, 0.0002955626987386495, 0.029128586873412132, -0.10019305348396301, -0.06753643602132797, 0.13336831331253052, 0.053703758865594864, -0.029969392344355583, 0.05346076190471649, 0.11658966541290283, -0.02716834843158722, -0.08162590116262436, -0.07693950086832047, 0.05015384033322334, -0.0012792880879715085, 0.06385678052902222, -0.1430598795413971, -0.1685311645269394, 0.09884146600961685, 0.007365739438682795, 0.19520021975040436, 0.010555672459304333, -0.079086534678936, -0.1905442327260971, -0.021623574197292328, -0.08501853048801422, -0.33436259627342224, 0.18008510768413544, 0.06118101254105568, -0.11366071552038193, -0.1046481654047966, -0.029488613829016685, -0.1504744440317154, 0.09612344950437546, -0.0729968398809433, -0.14619190990924835, 0.1498996764421463, -0.12117872387170792, 0.3421109616756439, -0.2476976066827774, -0.0575435496866703, -0.23247845470905304, -0.13397972285747528, -0.040550678968429565, -0.09119021147489548, 0.12304030358791351, -0.14674893021583557, 0.13344953954219818, 0.006938392296433449, 0.03314948454499245, 0.029069535434246063, -0.09873978048563004, -0.07415986806154251, 0.15073077380657196, -0.05460955202579498, 0.0015354073839262128, 0.027480902150273323, 0.0786733627319336, -0.011563164182007313, 0.04543853551149368, -0.1553313136100769, 0.011396695859730244, -0.08703446388244629, -0.033092938363552094, 0.04024433344602585, 0.09017407149076462, -0.07425573468208313, -0.1835426241159439, 0.040443163365125656, 0.23071607947349548, 0.12347108125686646, 0.2234622687101364, 0.020744282752275467, -0.07921343296766281, 0.1108185276389122, -0.259456068277359, -0.014879135414958, -0.021694786846637726, 0.012887786142528057, -0.08561769127845764, 0.04208146780729294, -0.053393445909023285, -0.1739116609096527, 0.21176119148731232, 0.04387417063117027, 0.17190949618816376, -0.06232314556837082, 0.08078985661268234, -0.07233081758022308, -0.03594495728611946, 0.0017603597370907664, -0.24528321623802185, 0.07526034861803055, 0.06956810504198074, 0.052674975246191025, 0.3516142666339874, 0.1078324243426323, -0.05955835431814194, -0.08149314671754837, 0.012618931010365486, 0.14250004291534424, -0.010235763154923916, -0.1259061098098755, 0.09906215220689774, 0.06053869053721428, -0.0270953681319952, -0.029299741610884666, 0.053916629403829575, 0.1505824327468872, 0.0397215373814106, -0.08863380551338196, 0.051445286720991135, -0.01837182231247425, 0.12351349741220474, -0.006069201044738293, 0.039028350263834, -0.13509541749954224, 0.06831341981887817, -0.1002313420176506, -0.014780467376112938, 0.11975101381540298, 0.019764022901654243, 0.2552596628665924, -0.07302600890398026, 0.02873089164495468, 0.1751810908317566, 0.04112254083156586, 0.07596520334482193, -0.005205631256103516, -0.005184957757592201, 0.11112380027770996, 0.6034268140792847, -0.17171844840049744, -0.09835992753505707, -0.16251303255558014, 0.11804698407649994, 0.07437782734632492, -0.2559097707271576, -0.14777861535549164, 0.14522364735603333, -0.05963781476020813, 0.10037408024072647, -0.0724107027053833, 0.0008496653172187507, 0.05916981399059296, -0.050438396632671356, 0.16336600482463837, 0.023755239322781563, -0.1314886510372162, 0.06837159395217896, -0.00854398962110281, -0.03029594011604786, -0.07605886459350586, -0.051577359437942505, 0.17399978637695312, 0.0636473074555397, -0.05075341463088989, -0.24836233258247375, -0.08358776569366455, 0.043502192944288254, 0.20886008441448212, 0.11312687397003174, 0.04536118358373642, 0.014924276620149612, -0.13239529728889465, -0.07065874338150024, -0.12400759756565094, 0.12130805104970932, 0.048468418419361115, -0.03629377856850624, 0.2215488702058792, -0.15441039204597473, -0.06118171662092209, 0.036297958344221115, -0.12068797647953033, -0.039607029408216476, 0.25505733489990234, -0.020202064886689186, 0.05126764997839928, 0.13751673698425293, -0.09481926262378693, 0.21679872274398804, -0.14043988287448883, 0.07187606394290924, 0.06023509427905083, 0.20175279676914215, -0.03334340080618858, 0.007060894276946783, -0.07214684039354324, 0.09082792699337006, 0.04801080748438835, -0.06317010521888733, 0.10471184551715851, -0.061232805252075195, 0.010783100500702858, 0.15700550377368927, -0.07393793016672134, -0.08557429164648056, 0.08019718527793884, 0.011667261831462383, -0.1207195371389389, 0.09877339005470276, 0.03464430943131447, -0.18712341785430908, -0.10650327056646347, 0.07019461691379547, -0.02516314759850502, -0.11475465446710587, 0.03324545547366142, -0.06943639367818832, -0.1349775642156601, 0.0849490687251091, 0.15956637263298035, 0.11325915157794952, 0.038098860532045364, -0.19695517420768738, -0.04840083047747612, 0.008566910400986671, -0.1328541338443756, 0.13022667169570923, -0.1668257862329483, -0.20277251303195953, 0.11050479859113693, 0.06416372954845428, -0.16799873113632202, -0.07492680847644806, 0.11502255499362946, -0.20762848854064941, -0.08963876962661743, 0.1388726681470871, 0.00010460610064910725, 0.02173398807644844, -0.148727685213089, -0.01232402864843607, -0.011128830723464489, 0.002692451234906912, 0.13533234596252441, -0.040577299892902374, -0.13939768075942993, -0.04311112314462662, -0.1323232799768448, 0.00699261762201786, 0.03749896213412285, -0.13505753874778748, 0.049769047647714615, 0.04324736446142197, -0.023114679381251335, 0.07304853200912476, -0.1776021271944046, -0.06340520828962326, 0.07488566637039185, -0.11694789677858353, 0.07415110617876053, -0.027112066745758057, -0.22922910749912262, -0.1396958827972412, 0.15175071358680725, 0.1740218847990036, -0.0464143343269825, -0.1999988555908203, -0.1706310659646988, 0.03232131153345108, 0.02751905843615532, 0.2039639949798584, 0.06259501725435257, -0.02726043574512005, 0.1278233677148819, 0.00510746706277132, 0.13854986429214478, 0.18581505119800568, -0.1427372395992279, -0.11623785644769669, 0.12631788849830627, 0.01943693496286869, -0.06393653899431229, 0.16490469872951508, -0.10385653376579285, 0.0091975973919034, 0.014906072989106178, -0.002756734611466527, 0.04708060622215271, 0.012625152245163918, -0.05809490382671356, -0.0762275755405426, -0.03780655562877655, -0.043565571308135986, 0.05490237474441528, 0.1965167373418808, -0.07015236467123032, -0.17768220603466034, -0.10836950689554214, 0.08747537434101105, 0.044942714273929596, -0.02983691357076168, -0.06921690702438354, 0.06454435735940933, -0.025562884286046028, 0.07042698562145233, -0.018953939899802208, 0.06405407935380936, 0.07141303271055222, 0.004282163921743631, 0.3243391513824463, 0.14273476600646973, -0.16279049217700958, -0.1994682103395462, -0.03145467862486839, 0.14903321862220764, -0.04011794924736023, 0.15944314002990723, -0.06944959610700607, -0.2331921011209488, 0.03370721638202667, -0.05973855033516884, 0.0029795425944030285, 0.005762272980064154, -0.0037756392266601324, -0.13437172770500183, -0.0592108815908432, 0.10498706996440887, -0.17168839275836945, -0.08613179624080658, 0.07743003219366074, -0.13030098378658295, 0.02022169530391693, -0.037649501115083694, 0.16452108323574066, -0.06212806701660156, 0.018534721806645393, -0.1045689657330513, 0.14704209566116333, -0.1434136927127838, 0.09811326861381531, 0.10027267038822174, 0.021357985213398933, 0.023362142965197563, 0.030215950682759285, -0.08815524727106094, -0.015775371342897415, -0.032193928956985474, 0.04472770169377327, -0.11021921783685684, 0.033182770013809204, -0.03881809487938881, -0.010426424443721771, 0.06007805094122887, 0.07424939423799515, -0.05972087383270264, -0.020381035283207893, 0.016474025323987007, -0.19174616038799286, 0.0647704005241394, 0.013995914719998837, 0.1186625212430954, 0.057871099561452866, -0.14449355006217957, -0.27802807092666626, 0.12347060441970825, -0.0988653153181076, 0.27278512716293335, -0.09209967404603958, -0.016877321526408195, 0.21401166915893555, -0.2560540437698364, -0.10297596454620361, 0.13259287178516388, 0.007131275720894337, 0.09924773871898651, 0.013483919203281403, -0.1123523861169815, -0.04389204457402229, 0.3798367977142334, -0.18787705898284912, -0.05589480325579643, -0.3342059254646301, 0.025142915546894073, -0.0191501397639513, 0.03796011582016945, -0.3399377465248108, 0.08735210448503494, 0.14962531626224518, -0.023078275844454765, -0.03695772960782051, 0.10746528208255768, 0.21967607736587524, 0.04410473257303238, -0.009621006436645985, 0.19054988026618958, 0.09531188756227493, -0.15010569989681244, -0.007646124344319105, -0.027622034773230553, -0.02177894301712513, 0.1096791923046112, -0.04387666657567024, 0.13762842118740082, 0.027510903775691986, 0.020061103627085686, -0.009632183238863945, -0.14065442979335785, 0.044212449342012405, 0.11056332290172577, -0.017861148342490196, 0.031081577762961388, 0.016186274588108063, -0.20419766008853912, 0.07227776944637299, 0.03502703830599785, -0.0202789343893528, -0.22760766744613647, -0.07004111260175705, 0.24939563870429993, 0.020903296768665314, -0.11688172817230225, 0.23344182968139648, -0.03992197662591934, 0.06350285559892654, 0.09171546250581741, 0.0005395406624302268, -0.02739899419248104, 0.329492449760437, 0.04117044433951378, 0.308611661195755, -0.47267472743988037, -0.16296996176242828, 0.09073425829410553, -0.16694486141204834, -0.046209916472435, 0.016922011971473694, 0.04203588515520096, -0.03584406524896622, 0.059474099427461624, 0.22955666482448578, 0.0846003070473671, -0.14887720346450806, 0.017042597755789757, -0.17592491209506989, -0.014238066971302032, -0.01676410436630249, -0.010682893916964531, -0.04833439737558365, 0.08471217006444931, -0.012847780250012875, -0.14778977632522583, 0.06759344041347504, -0.19903695583343506, 0.07879246771335602, -0.17518454790115356, -0.03492508828639984, -0.08729749917984009, -0.07424987107515335, 0.06290528178215027, 0.1872549206018448, -0.29009875655174255, 0.03328108787536621, -0.025339143350720406, 0.0419841930270195, -0.17333871126174927, -0.3441767394542694, 0.37632355093955994, -0.20614400506019592, -0.051713116466999054, 0.14902007579803467, -0.09633901715278625, -0.09753680974245071, -0.03583711385726929, -0.06571806222200394, -0.3858136236667633, 0.32181867957115173, -0.24903754889965057, 0.21815435588359833, -0.49869662523269653, -0.21260103583335876, -0.0044878325425088406, 0.00917273759841919, 0.04183958098292351, 0.06502752751111984, 0.042267486453056335, 0.1268901228904724, 0.2009962946176529, 0.31024256348609924, 0.1642562299966812, 0.06351149082183838, 0.10774509608745575, 0.06998419016599655, 0.18263855576515198, -0.1042153388261795, 0.06001535803079605, 0.08972077816724777, 0.013480228371918201, 0.013770741410553455, 0.1438995599746704, 0.14139367640018463, -0.10117658227682114, -0.0037229713052511215, 0.054663076996803284, 0.030871177092194557, 0.046977829188108444, 0.11302707344293594, -0.02491925284266472, -0.10450151562690735, -0.1148233488202095, 0.010276803746819496, 0.19996964931488037, 0.07052915543317795, 0.07123786211013794, 0.17732803523540497, 0.08717664331197739, 0.15789207816123962, 0.1817965805530548, 0.005538078490644693, -0.03798068314790726, 0.22860382497310638, -0.09943439811468124, -0.08496641367673874, 0.0445856936275959, 0.29444119334220886, -0.11283376812934875, 0.19373591244220734, -0.26464545726776123, -0.03341205045580864, 0.22598187625408173, 0.008462331257760525, 0.06907240301370621, -0.08789289742708206, -0.06942450255155563, 0.1779642552137375, 0.09900954365730286, 0.02601424790918827, 0.08604494482278824, -0.1420927494764328, 0.0455804169178009, 0.13025431334972382, 0.01762680523097515, -0.05447612330317497, 0.02659100666642189, -0.10182028263807297, -0.17720060050487518, -0.07498591393232346, -0.03439480811357498, 0.11357786506414413, 0.1954747885465622, 0.20866502821445465, -0.062357425689697266, -0.22924309968948364, -0.2429843544960022, 0.05518077313899994, -0.0741662085056305, -0.11324144899845123, -0.08042390644550323, -0.15991955995559692, -0.19589336216449738, -0.09165272116661072, 0.00532488850876689, 0.042195163667201996, -0.020236965268850327, 0.007945814169943333, -0.08155517280101776, 0.04854441061615944, -0.009912120178341866, -0.2540030777454376, -0.09496824443340302, 0.23076438903808594, -0.1468409299850464, -0.10859806835651398, 0.04413631185889244, 0.010873180814087391, -0.11375260353088379, -0.1234782487154007, -0.1683141589164734, -0.10193804651498795, 0.20846816897392273, 0.19142259657382965, 0.01682019978761673, -0.2389383763074875, -0.17396235466003418, -0.1738528609275818, 0.08578502386808395, 0.03912680223584175, -0.00806549284607172, -0.07855308055877686, 0.13964305818080902, 0.17153726518154144, 0.08647280186414719, -0.11565620452165604, 0.04094119369983673, 0.12649835646152496, -0.13591384887695312, 0.1789456307888031, -0.13353441655635834, -0.044793643057346344, -0.11524265259504318, 0.10360892117023468, 0.10141763091087341, -0.14135533571243286, 0.004558308981359005, -0.07826361060142517, 0.00570685276761651, -0.011189148761332035, 0.17525120079517365, 0.17558372020721436, -0.014242876321077347, 0.019684499129652977, -0.09590958058834076, 0.13925524055957794, -0.07392434030771255, 0.05475328117609024, -0.08436454832553864, 0.18995293974876404, 0.11187014728784561, -0.0020999496337026358, -0.004911488853394985, 0.029011568054556847, -0.037392109632492065, 0.17413681745529175, 0.029622402042150497, 0.025921013206243515, 0.0756937563419342, 0.00554583640769124, 0.17921999096870422, 0.11383335292339325, -0.01523367315530777, -0.15170818567276, 0.2610970139503479, 0.12912794947624207, -0.016851110383868217, -0.05274183675646782, 0.016381291672587395, 0.15374629199504852, -0.010757271200418472, 0.1862340122461319, 0.11623790115118027, 0.11380743235349655, 0.18435673415660858, 0.0884438306093216, -0.007501440122723579, -0.05349007621407509, -0.11331599205732346, 0.03683024272322655, 0.07081993669271469, 0.07361188530921936, 0.04591488093137741, 0.007360901217907667, -0.09337226301431656, -0.0019008679082617164, -0.07791657745838165, 0.20830626785755157, 0.09873532503843307, 0.0031282363925129175, -0.25035032629966736, 0.11097568273544312, 0.13502700626850128, 0.178562194108963, -0.015112313441932201, 0.08555025607347488, -0.09260035306215286, 0.1389392763376236, 0.16289770603179932, -0.2260648012161255, 0.06951374560594559, 0.02310202457010746, 0.06094038113951683, 0.03982372581958771, 0.013369574211537838, 0.08634542673826218, 0.2610955536365509, 0.17358820140361786, -0.02187342196702957, -0.008221461437642574, -0.003103414084762335, 0.1268741935491562, 0.08483333885669708, 0.031437087804079056, 0.043588947504758835, -0.15247464179992676, -0.14945079386234283, 0.08003172278404236, -0.11525331437587738, -0.14456209540367126, -0.1609494537115097, 0.035575494170188904, -0.06240523234009743, -0.1473430097103119, -0.024150492623448372, 0.019329998642206192, -0.06863180547952652, 0.03805524855852127, -0.012345705181360245, -0.07272601872682571, 0.0033615611027926207, -0.11896434426307678, 0.10300227999687195, 0.15670953691005707, 0.009796256199479103, -0.010978631675243378, -0.09158608317375183, 0.009747372940182686, 0.12225960195064545, -0.1105291023850441, 0.12434711307287216, -0.13628488779067993, -0.055375490337610245, -0.03479629382491112, -0.033328182995319366, -0.1506243497133255, -0.12705999612808228, 0.16388928890228271, -0.049963146448135376, -0.07438940554857254, -0.0008843924151733518, 0.08977199345827103, 0.04277186468243599, -0.19670334458351135, 0.019276631996035576, 0.011495670303702354, 0.26218321919441223, 0.0520794577896595, 0.10748833417892456, 0.10715556889772415, -0.19226042926311493, 0.016870612278580666, 0.16552428901195526, -0.07758907973766327, 0.12457861006259918, 0.11043723672628403, -0.017620068043470383, 0.11852014809846878, 0.019475139677524567, 0.09399067610502243, 0.09526366740465164, -0.06978242844343185, 0.10426820814609528, 0.0646759420633316, 0.1024145856499672, -0.005980511195957661, 0.036691080778837204, 0.1132596954703331, 0.007009625900536776, -0.010050363838672638, 0.006309593096375465, -0.06913811713457108, -0.05218840762972832, -0.015167790465056896, -0.1104046180844307, -0.14126531779766083, 0.03109312802553177, -0.23618827760219574, 0.13738815486431122, 0.09947678446769714, -0.15343156456947327, 0.25902214646339417, -0.055905696004629135, -0.024966690689325333, 0.1686108112335205, -0.06876217573881149, -0.14191582798957825, -0.11064416170120239, -0.09515302628278732, -0.1685326248407364, -0.20686545968055725, 0.19360676407814026, 0.05622413754463196, 0.03601241484284401, 0.026791514828801155, -0.06039730831980705, 0.03678930178284645, 0.010510122403502464, -0.06659257411956787, -0.05098015069961548, 0.10696009546518326, 0.0542527511715889, 0.0571112222969532, -0.06487937271595001, -0.0915478989481926, -0.0003564713697414845, -0.04254655912518501, 0.014216693118214607, -0.19168050587177277, -0.4418487846851349, 0.7851415872573853, 0.34567463397979736, -0.47237566113471985, 0.1398572474718094, -0.21679064631462097, -0.0429082028567791, 0.5592005252838135, -0.7170073986053467, 0.9684628844261169, 0.5952637791633606, 0.04328223690390587, -0.23778435587882996, 0.1799396574497223, -0.7596305012702942, -0.030670061707496643, -0.02711399458348751, 0.31501299142837524, -0.04884009063243866, -0.10294898599386215, 0.24351443350315094, 0.20348584651947021, 0.24576234817504883, 0.04394349828362465, -0.2823566496372223, 0.3018169403076172, 0.116206094622612, -0.2178541123867035, 0.14593207836151123, -0.15526816248893738, -0.2512032687664032, 0.24339009821414948, 0.003383796662092209, 0.05614485219120979, 0.10215561091899872, 0.11667314916849136, 0.12081865221261978, 0.00408549141138792, -0.26048824191093445, -0.23555368185043335, -0.0073011997155845165, 0.007443894632160664, -0.09428513050079346, 0.16530051827430725, 0.5488210320472717, 0.13940738141536713, -0.09084426611661911, -0.08220712095499039, -0.23664112389087677, 0.08371398597955704, -0.34666508436203003, 0.23981912434101105, -0.20480212569236755, 0.09797879308462143, -0.027446061372756958, -0.5108019709587097, -0.3221401274204254, -0.42819225788116455, 0.2706269919872284, 0.10310883074998856, -0.36339423060417175, 0.11545335501432419, 0.15251868963241577, 0.1673928052186966, 0.02110644429922104, 0.09562745690345764, 0.04451169818639755, -0.1736961454153061, 0.24885530769824982, -0.21001604199409485, 0.27926692366600037, 0.17502406239509583, -0.11996886879205704, 0.06456821411848068, 0.20370681583881378, 0.13041888177394867, -0.014084103517234325, 0.03118935599923134, -0.12149946391582489, 0.017485279589891434, 0.0409562848508358, 0.1967269331216812, -0.15149687230587006, 0.2387702465057373, -0.05982647463679314, 0.04003633186221123, 0.08575434982776642, 0.1201934888958931, -0.14882278442382812, -0.1851212978363037, 0.012322178110480309, -0.2302965223789215, -0.1276559829711914, 0.12467698752880096, -0.08550674468278885, -0.2235378623008728, -0.0860128253698349, 0.0014758491888642311, -0.06404567509889603, -0.130010187625885, -0.16705703735351562, 0.22573307156562805, 0.1565486192703247, -0.2687116861343384, -0.29781728982925415, -0.04784073680639267, 0.1867186427116394, -0.02025592140853405, 0.1586247980594635, 0.2790392339229584, 0.10578585416078568, -0.08958912640810013, 0.04588392749428749, -0.07010947167873383, 0.10433917492628098, 0.015770575031638145, -0.02545599825680256, 0.0004354802949819714, 0.0931052416563034, -0.1507691591978073, 0.17284457385540009, 0.21017907559871674, -0.15293250977993011, 0.13422249257564545, 0.10599340498447418, -0.023812610656023026, 0.19221259653568268, 0.2601042687892914, 0.08408952504396439, -0.25570857524871826, -0.2030092179775238, 0.21390284597873688, -0.24665212631225586, 0.17154954373836517, -0.17394952476024628, -0.05443539470434189, 0.05293229594826698, -0.02305222861468792, 0.35225868225097656, -0.0809023305773735, 0.05288711190223694, 0.27627837657928467, -0.12156578153371811, -0.15375979244709015, 0.21251976490020752, -0.03775441274046898, 0.08819149434566498, 0.14329273998737335, 0.008676964789628983, -0.2043505311012268, 0.052088890224695206, -0.13860057294368744, -0.009602502919733524, -0.10514061152935028, 0.16627703607082367, -0.29978880286216736, -0.10164691507816315, 0.06255871057510376, -0.082410529255867, 0.24295203387737274, -0.17672933638095856, -0.18218405544757843, 0.13686233758926392, -0.005559397861361504, 0.18618889153003693, -0.11846328526735306, -0.22592949867248535, 0.10192059725522995, 0.14911608397960663, 0.09990546852350235, -0.06654400378465652, -0.03607655689120293, -0.05296264961361885, 0.24371027946472168, -0.10689148306846619, 0.33062633872032166, -0.30020779371261597, -0.1875210553407669, -0.28920528292655945, 0.26216164231300354, -0.2862526774406433, 0.22393468022346497, -0.14775821566581726, 0.21516647934913635, 0.2558490037918091, -0.28614330291748047, 0.14497633278369904, 0.052655309438705444, -0.14351367950439453, 0.08414863795042038, 0.2662550210952759, 0.10043663531541824, -0.03201406076550484, -0.15394741296768188, -0.0007798567530699074, 0.1331193745136261, 0.14842240512371063, 0.22785669565200806, 0.09903725981712341, -0.12114845216274261, 0.010229768231511116, -0.25447288155555725, 0.29741647839546204, -0.2355378419160843, -0.2690882980823517, 0.010380581021308899, 0.15103910863399506, -0.22475968301296234, -0.39216628670692444, -0.056152015924453735, -0.10368365794420242, -0.04197578504681587, -0.08278412371873856, -0.0560818612575531, -0.2527773380279541, 0.05915980041027069, 0.255502849817276, -0.12267784029245377, 0.22501100599765778, -0.03322941064834595, 0.0951826199889183, 0.09270478039979935, -0.040947359055280685, -0.23862525820732117, 0.2688133418560028, -0.17374856770038605, -0.02974633127450943, 0.026495343074202538, 0.010370565578341484, 0.08507511019706726, -0.08403179794549942, -0.06716026365756989, -0.019495585933327675, 0.053601521998643875, -0.38884246349334717, 0.05509043484926224, 0.15677975118160248, -0.2512371242046356, 0.032026298344135284, 0.17371070384979248, -0.043302904814481735, -0.03694258630275726, -0.07413735240697861, -0.10345800220966339, -0.33366328477859497, 0.2533269226551056, -0.3347901701927185, 0.13614621758460999, 0.24465563893318176, 0.16629865765571594, 0.3991747498512268, -0.1702587604522705, 0.27753785252571106, 0.12506960332393646, -0.1305079311132431, 0.015162231400609016, -0.1380464881658554, -0.08001156151294708, -0.2972012758255005, -0.031781282275915146, -0.14474590122699738, 0.028059596195816994, -0.2695188820362091, 0.04460890591144562, 0.3394700586795807, 0.11538410931825638, 0.328508198261261, -0.1938396394252777, -0.04724433645606041, -0.016873016953468323, 0.12198755890130997, 0.04420259967446327, -0.025206778198480606, 0.09024524688720703, 0.08810092508792877, -0.029201902449131012, 0.1347743272781372, 0.06989617645740509, 0.06226864084601402, -0.10932104289531708, -0.11990128457546234, 0.029088689014315605, 0.07096965610980988, 0.11199595034122467, 0.10678773373365402, 0.05171498656272888, 0.009685968048870564, -0.1112222671508789, -0.246432363986969, 0.024132609367370605, 0.09549720585346222, -0.03936409205198288, -0.0714762806892395, -0.0845969170331955, -0.27323293685913086, 0.11448536813259125, -0.041127827018499374, 0.12786847352981567, 0.13715586066246033, -0.06198936700820923, -0.12419964373111725, -0.20072706043720245, -0.1007368415594101, 0.030268821865320206, 0.09851611405611038, 0.17087462544441223, -0.15308494865894318, 0.023449169471859932, -0.19822251796722412, 0.14718222618103027, -0.015330172143876553, 0.03839534521102905, -0.3177372217178345, 0.060518767684698105, 0.10110469162464142, 0.24523702263832092, -0.1574314683675766, 0.0012467437190935016, -0.4776340425014496, 0.07628851383924484, -0.13412949442863464, -0.2037878930568695, 0.0027733987662941217, -0.1122443825006485, 0.010819629766047001, -0.18666578829288483, 0.1172359511256218, -0.1323111206293106, -0.08852588385343552, -0.24644248187541962, -0.1594778150320053, -0.05034337565302849, 0.04090306907892227, -0.22466029226779938, -0.28320443630218506, -0.2219153493642807, 0.18559052050113678, 0.14901971817016602, 0.31190967559814453, -0.03555867075920105, -0.12413191050291061, -0.033300064504146576, -0.2822312116622925, 0.27815529704093933, 0.03829222172498703, 0.08334531635046005, -0.11075779050588608, -0.061952076852321625, -0.0018403743160888553, 0.2575719356536865, -0.2893255352973938, -0.31036677956581116, 0.13802717626094818, -0.04865426942706108, 0.08743807673454285, -0.08468304574489594, -0.2012610286474228, -0.11105813086032867, 0.015146400779485703, 0.19323033094406128, 0.016969267278909683, -0.16638876497745514, 0.07778269052505493, 0.20905645191669464, 0.05282125994563103, 0.0791742205619812, -0.08125801384449005, 0.03836357966065407, -0.1270405501127243, -0.46605202555656433, -0.12489118427038193, -0.0015677466290071607, -0.06999346613883972, 0.01890743151307106, 0.048493873327970505, 0.13701118528842926, -0.2577973008155823, -0.13541114330291748, -0.023312263190746307, 0.1700093001127243, 0.007849636487662792, 0.020395703613758087, 0.09503540396690369, -0.09626250714063644, -0.17070606350898743, -0.19998253881931305, 0.10265566408634186, 0.07807157933712006, -0.02245843969285488, -0.22063061594963074, 0.1965344250202179, 0.13877223432064056, -0.06961336731910706, 0.02502520941197872, 0.05872493237257004, 0.10492805391550064, 0.04964948818087578, -0.15015900135040283, -0.04377170652151108, 0.05606603994965553, -0.13214148581027985, -0.026916969567537308, 0.09402607381343842, -0.03704369440674782, 0.05982913821935654, 0.02842252515256405, -0.027126014232635498, -0.13815228641033173, 0.10360299795866013, 0.21120896935462952, 0.10277295857667923, -0.028702203184366226, 0.1060316413640976, -0.17637385427951813, 0.17008738219738007, 0.09674450755119324, -0.09756074845790863, 0.1596848964691162, 0.07113748788833618, -0.16568586230278015, 0.08532531559467316, 0.014938177540898323, -0.1423768550157547, -0.06399261206388474, 0.09085142612457275, 0.07629255950450897, 0.05386077240109444, -0.15778149664402008, -0.22601665556430817, 0.0719166249036789, -0.10439334064722061, -0.165429949760437, 0.17620161175727844, 0.07181593030691147, 0.030670901760458946, 0.09023591130971909, 0.08380074054002762, 0.04349910467863083, 0.17875899374485016, -0.038210444152355194, 0.17115256190299988, -0.01383342407643795, -0.17754735052585602, -0.011222909204661846, 0.13185903429985046, -0.07267460227012634, -0.17511580884456635, 0.0770111158490181, 0.1647345870733261, 0.13490799069404602, -0.028924385085701942, -0.009621824137866497, -0.11282174289226532, 0.07023316621780396, 0.24219053983688354, 0.09266940504312515, -0.16457757353782654, -0.22418995201587677, -0.1338929980993271, -0.03814680501818657, 0.045142509043216705, -0.04181663319468498, 0.1454816460609436, -0.052215151488780975, -0.06442993879318237, 0.14907008409500122, 0.04695722460746765, 0.01646552048623562, 0.1422821432352066, -0.1002478078007698, 0.14411449432373047, 0.0634448453783989, -0.19382919371128082, -0.31981220841407776, 0.1663242131471634, 0.06349162757396698, -0.278214693069458, -0.03738468885421753, -0.034815575927495956, -0.08086411654949188, -0.007530034054070711, -0.022103115916252136, 0.1420447677373886, 0.12529253959655762, 0.07274036854505539, -0.0979752391576767, 0.47715842723846436, -0.09623203426599503, 0.17657533288002014, -0.10245901346206665, -0.03575526550412178, 0.07459719479084015, 0.0002629779337439686, -0.07557614892721176, -0.23310431838035583, 0.2758089005947113, 0.15614153444766998, -0.10575876384973526, -0.10863889008760452, -0.029280342161655426, -0.011985691264271736, 0.05535592883825302, -0.03548173978924751, -0.059970855712890625, 0.18214567005634308, -0.1369086354970932, -0.08951295912265778, -0.11908800154924393, 0.037984106689691544, 0.034574151039123535, 0.21490433812141418, -0.14065459370613098, 0.06254969537258148, 0.28006088733673096, -0.11458980292081833, -0.12200745940208435, 0.014953271485865116, -0.10720979422330856, -0.1107170581817627, -0.10100015252828598, -0.16394393146038055, -0.14285460114479065, 0.09409933537244797, -0.010708356276154518, -0.1494245082139969, -0.10982368886470795, -0.02785700187087059, -0.22670012712478638, -0.021340910345315933, 0.03222331032156944, 0.0311371348798275, 0.08302031457424164, -0.10340988636016846, 0.0730099007487297, 0.18140453100204468, 0.13015519082546234, -0.00718024093657732, -0.02777140773832798, -0.246773824095726, 0.11256256699562073, -0.1399657428264618, -0.056388579308986664, -0.2109462171792984, -0.0659576803445816, 0.21098263561725616, -0.019825607538223267, 0.07421177625656128, -0.06399964541196823, -0.12571506202220917, -0.11431639641523361, -0.038428034633398056, -0.05870820954442024, 0.090416319668293, -0.14677181839942932, -0.06514448672533035, 0.0027327723801136017, -0.07661345601081848, 0.023775091394782066, 0.030467748641967773, -0.16109739243984222, 0.0913131982088089, -0.09727141261100769, 0.11507710069417953, 0.02831500582396984, 0.01224307157099247, -0.15088462829589844, 0.0701766088604927, 0.0021858508698642254, -0.17379236221313477, -0.11384065449237823, 0.09483563154935837, -0.033632270991802216, -0.11307382583618164, 0.1293397843837738, 0.0419529490172863, 0.2851966321468353, -0.024889903143048286, -0.14933404326438904, -0.12358124554157257, -0.06465905159711838, -0.054132312536239624, 0.023275969550013542, 0.007061440031975508, 0.11172883957624435, -0.13353677093982697, 0.048151277005672455, 0.0076612867414951324, 0.012338938191533089, 0.020698893815279007, -0.12505967915058136, 0.20950809121131897, -0.18174850940704346, 0.0003561796620488167, -0.13647007942199707, -0.08075348287820816, -0.06668715178966522, 0.28231295943260193, -0.03870029002428055, -0.03250172361731529, -0.14845217764377594, 0.15746814012527466, 0.048206400126218796, -0.0933087021112442, 0.0157102569937706, 0.17713283002376556, 0.08844500780105591, 0.05621354281902313, -0.02654801867902279, 0.02296530269086361, -0.154774472117424, 0.09998556971549988, 0.16808101534843445, 0.04009643942117691, -0.033624496310949326, -0.2066354900598526, 0.0875152125954628, -0.09210114926099777, 0.13934627175331116, 0.09868543595075607, 0.03918519243597984, -0.01656176522374153, -0.02213434875011444, -0.25163760781288147, -0.12941023707389832, 0.028766946867108345, -0.012442008592188358, -0.014239213429391384, -0.01304960809648037, 0.1097344383597374, -0.027540037408471107, -0.07115063816308975, 0.048848215490579605, -0.022676171734929085, 0.04890627786517143, -0.114492267370224, -0.15677174925804138, 0.16150647401809692, 0.04930355027318001, -0.22855748236179352, 0.008639346808195114, 0.030764125287532806, 0.04527822509407997, -0.15204772353172302, 0.011211811564862728, -0.16821418702602386, 0.05744853988289833, 0.019510021433234215, 0.10509494692087173, -0.03989717736840248, -0.07911202311515808, -0.053014207631349564, -0.12575069069862366, -0.09048780053853989, -0.11526902765035629, -0.12890009582042694, -0.18692894279956818, -0.08950391411781311, -0.1835130751132965, 0.11117679625749588, 0.05507504567503929, -0.035781487822532654, 0.10421325266361237, 0.13148966431617737, -0.17284627258777618, -0.1283208578824997, -0.13793477416038513, 0.01737901009619236, 0.10370547324419022, -0.20089326798915863, -0.07742095738649368, 0.07885422557592392, 0.14863868057727814, 0.0840267762541771, -0.011956188827753067, 0.04526934027671814, -0.06522209197282791, 0.11555593460798264, -0.08778669685125351, -0.21212442219257355, 0.10298047214746475, -0.18495142459869385, -0.007507860194891691, 0.05990941449999809, -0.08853302150964737, 0.018215244635939598, -0.0096692880615592, 0.15280959010124207, 0.11241570860147476, -0.1462559849023819, -0.0639614686369896, -0.11170337349176407, -0.0398346409201622, 0.1368207484483719, -0.05602741613984108, -0.18521104753017426, -0.1324547976255417, -0.055558305233716965, 0.056319709867239, 0.0714191421866417, 0.18424402177333832, -0.0591961070895195, -0.09429622441530228, -0.1693100482225418, 0.0936771035194397, 0.15677699446678162, 0.11910774558782578, -0.023706773295998573, 0.0746992975473404, 0.012204662896692753, -0.0722583681344986, -0.19494839012622833, 0.07363396137952805, 0.11276477575302124, 0.15660375356674194, 0.016017703339457512, -0.14896531403064728, 0.14929358661174774, -0.04452148824930191, 0.1316487342119217, 0.009435777552425861, -0.06764350086450577, -0.18292753398418427, 0.023934580385684967, -0.12634044885635376, -0.01615016907453537, 0.2049204409122467, 0.1769559532403946, 0.16469185054302216, -0.006565882358700037, -0.07774969190359116, 0.08729981631040573, 0.046854566782712936, 0.06644371151924133, -0.03403683006763458, 0.09829438477754593, 0.08227187395095825, -0.23737986385822296, 0.029276397079229355, -0.07993149757385254, 0.1920299381017685, 0.1283285915851593, 0.12180457264184952, 0.038545966148376465, 0.03487864136695862, 0.05770723149180412, 0.11656717211008072, -0.15934854745864868, 0.12041006237268448, 0.059422481805086136, -0.19638748466968536, 0.054084137082099915, 0.11056318879127502, 0.0006756472866982222, 0.048084720969200134, 0.026571212336421013, 0.024111652746796608, -0.026983408257365227, 0.029637882485985756, -0.15103431046009064, 0.05532503128051758, 0.06589314341545105, 0.13066843152046204, 0.06628577411174774, -0.1480187475681305, 0.1662098467350006, -0.08539506047964096, 0.07254917919635773, -0.05258868634700775, -0.09997648745775223, 0.15379764139652252, 0.053193699568510056, 0.016188854351639748, 0.040566425770521164, -0.11095273494720459, -0.09607382863759995, 0.023387087509036064, 0.13743935525417328, 0.0043862503953278065, -0.24951238930225372, -0.15821684896945953, -0.11636169254779816, 0.007139561697840691, -0.09563764929771423, 0.18101812899112701, 0.18039746582508087, 0.1501641422510147, 0.1407785266637802, -0.12354542315006256, -0.17145833373069763, -0.03535369038581848, 0.11113736778497696, 0.05534381419420242, 0.03159704431891441, -0.055720072239637375, -0.020571008324623108, -0.005736436694860458, -0.04133271798491478, 0.11465448886156082, 0.07528617978096008, -0.141416996717453, -0.0820089802145958, -0.07587870210409164, -0.1927604228258133, 0.08646433800458908, -0.10469753295183182, 0.05148588865995407, 0.11056748777627945, -0.009335045702755451, -0.031150203198194504, -0.12651515007019043, 0.06503321975469589, 0.11206518113613129, -0.01994416117668152, -0.07226421684026718, 0.015534344129264355, -0.01315210945904255, 0.0329974889755249, -0.0424279160797596, 0.08094816654920578, 0.054916948080062866, -0.1000574603676796, -0.06109718978404999, -0.3094404935836792, 0.0873798280954361, -0.13112308084964752, -0.003939947113394737, 0.06882335245609283, -0.11195092648267746, -0.18654866516590118, 0.07785335928201675, -0.014119421131908894, -0.3154013752937317, -0.11842174082994461, 0.04647599160671234, -0.03580206632614136, -0.06685306131839752, 0.08346495032310486, -0.028856243938207626, 0.12427514791488647, -0.06832090020179749, -0.09294360876083374, 0.061687108129262924, -0.1335228979587555, 0.1741325557231903, 0.10538279265165329, 0.1600051075220108, -0.2915380299091339, 0.11767271906137466, 0.07927075028419495, -0.2112371176481247, 0.06931750476360321, 0.059516750276088715, 0.0917593389749527, -0.0926082506775856, 0.1802634596824646, -0.0034797373227775097, 0.14272849261760712, -0.07621189951896667, -0.2439504712820053, -0.10308472067117691, 0.1624920517206192, -0.07025821506977081, 0.07729307562112808, -0.1335761845111847, 0.05570315569639206, -0.07002656161785126, 0.061261799186468124, 0.031116889789700508, -0.0270005501806736, 0.08160533756017685, 0.3490552008152008, -0.04240676015615463, -0.041405413299798965, -0.021619850769639015, -0.1894228756427765, -0.05580596253275871, 0.12943649291992188, -0.0701204165816307, -0.03805321827530861, 0.040936458855867386, -0.0741979256272316, -0.1601732224225998, 0.06151501461863518, -0.1470215767621994, -0.04752372205257416, -0.011415551416575909, 0.056074753403663635, -0.023804616183042526, 0.19559529423713684, -0.15649235248565674, -0.09329730272293091, 0.061710238456726074, 0.011799345724284649, -0.012411014176905155, 0.10121166706085205, -0.11913157254457474, -0.03500550985336304, 0.20526887476444244, 0.21642079949378967, 0.0552331767976284, 0.012670607306063175, -0.07445435225963593, 0.2011830359697342, -0.008101197890937328, -0.029857659712433815, -0.10880955308675766, 0.13095805048942566, 0.003012994537129998, -0.07394098490476608, -0.004149327054619789, -0.11790727078914642, 0.08377144485712051, -0.07652159780263901, 0.24466077983379364, 0.08233492821455002, 0.06607810407876968, -0.06303876638412476, -0.11623530089855194, -0.22620829939842224, -0.08623722195625305, 0.16401711106300354, 0.14086449146270752, 0.06776905059814453, 0.11037571728229523, -0.11214134842157364, 0.16302907466888428, 0.025056807324290276, -0.17625680565834045, 0.11019378155469894, -0.11261589825153351, 0.054470665752887726, 0.05854218825697899, -0.12870663404464722, -0.07796171307563782, -0.08731135725975037, 0.050908155739307404, 0.04876013100147247, 0.05615648254752159, -0.04467445984482765, -0.1406504064798355, 0.07787582278251648, 0.11872633546590805, -0.11772845685482025, -0.08661384880542755, -0.02471650205552578, -0.24634161591529846, -0.24349260330200195, 0.04599529504776001, -0.02540736272931099, -0.0746162012219429, 0.0017889720620587468, 0.02070768177509308, 0.06082545965909958, 0.010497206822037697, -0.16227468848228455, 0.10080371052026749, 0.017910312861204147, 0.0014194115065038204, 0.09616941958665848, -0.19349835813045502, 0.1689908355474472, 0.29141780734062195, 0.04779144003987312, -0.03180244192481041, -0.008153682574629784, -0.12296663224697113, 0.016870861873030663, 0.10756315290927887, -0.025115011259913445, -0.07263502478599548, 0.022223174571990967, -0.051411595195531845, -0.08558031916618347, 0.038817521184682846, -0.10615216195583344, -0.11591159552335739, 0.10330235213041306, 0.0893968865275383, -0.06649921089410782, 0.061429042369127274, -0.19206120073795319, -0.01311161182820797, 0.036832936108112335, 0.018871428444981575, 0.0561106838285923, 0.0331391841173172, -0.04291756451129913, 0.0001077175693353638, -0.09978048503398895, 0.07747837901115417, -0.014808624051511288, -0.0084583954885602, 0.04354435205459595, -0.19360503554344177, -0.09449642896652222, -0.09900697320699692, -0.006425450090318918, -0.06331022083759308, 0.05046754330396652, 0.13846521079540253, -0.12596027553081512, -0.20809510350227356, 0.049002259969711304, -0.005750482436269522, -0.06970807909965515, 0.12217161059379578, 0.07274225354194641, 0.07140141725540161, 0.1315716803073883, 0.02964121662080288, -0.10839907824993134, 0.06345352530479431, 0.07114409655332565, -0.35761651396751404, -0.34122344851493835, -0.16358962655067444, 0.20290814340114594, 0.1043487936258316, 0.20502012968063354, 0.04383493587374687, 0.13249830901622772, -0.06953718513250351, 0.03490627929568291, 0.07284273952245712, 0.052245985716581345, -0.14608344435691833, -0.11798866838216782, -0.039500124752521515, 0.023053497076034546, 0.20262014865875244, -0.14611446857452393, -0.04510211572051048, -0.13593105971813202, 0.08855657279491425, -0.13171309232711792, 0.029382916167378426, 0.1257733553647995, -0.27988746762275696, -0.03552420064806938, -0.052174098789691925, 0.03762441501021385, 0.06756480038166046, 0.08785711228847504, -0.19680458307266235, -0.11814483255147934, -0.10242792218923569, -0.21615523099899292, -0.11420626938343048, 0.15769794583320618, 0.23040327429771423, 0.09581132233142853, -0.03962811827659607, -0.0234015341848135, -0.09937986731529236, -0.015047566033899784, 0.021631458774209023, -0.07983389496803284, 0.08332397043704987, -0.11686056107282639, 0.09252135455608368, 0.06672126799821854, -0.011082207784056664, -0.12552312016487122, 0.08400243520736694, 0.14459562301635742, 0.011351088993251324, -0.04878043383359909, 0.040759291499853134, 0.05595516413450241, -0.014455034397542477, 0.0018337236251682043, 0.7128058671951294, 0.28069597482681274, 0.445902556180954, -0.6926844120025635, -0.4244080185890198, 0.2235155552625656, 0.15977586805820465, 0.07363270223140717, 0.12915253639221191, 0.19284291565418243, -0.6722046136856079, 0.3162226378917694, -0.004342966713011265, -0.6979746222496033, 0.08216521143913269, -0.36527910828590393, -0.12443960458040237, -0.2617175877094269, 0.20647059381008148, -0.21405094861984253, 0.020287644118070602, 0.11204943060874939, 0.05507155880331993, -0.24393793940544128, -0.166224405169487, 0.15698204934597015, -0.2730337381362915, -0.10295157879590988, 0.09466107934713364, -0.11220840364694595, -0.019423993304371834, -0.06653393059968948, -0.2814294993877411, -0.17907220125198364, 0.15303240716457367, -0.272467702627182, -0.04091329872608185, -0.051332663744688034, 0.3039049506187439, -0.17129890620708466, -0.10919967293739319, -0.051903340965509415, -0.19761773943901062, 0.11449307948350906, -0.061120182275772095, 0.1271822303533554, 0.07883910834789276, 0.160952627658844, 0.04267752543091774, 0.13723406195640564, -0.1403166502714157, -0.1353110522031784, 0.040378767997026443, -0.1331140697002411, -0.3099972605705261, 0.15020214021205902, 0.10536690801382065, -0.1229495257139206, 0.030909590423107147, -0.128346249461174, 0.0926557332277298, 0.05471734330058098, 0.03970586508512497, 0.34026089310646057, -0.20533448457717896, 0.0011628118809312582, -0.19563567638397217, 0.34228700399398804, 0.25446516275405884, 0.32720786333084106, 0.1415031999349594, 0.17966437339782715, -0.2829703390598297, -0.22116759419441223, 0.1558600813150406, -0.19309860467910767, 0.1261945217847824, 0.15544472634792328, 0.18747231364250183, -0.2943664491176605, 0.16175413131713867, -0.04569214954972267, -0.11430895328521729, 0.29198157787323, 0.18489590287208557, -0.11768543720245361, -0.07155372202396393, -0.15806476771831512, 0.02526565082371235, 0.251237154006958, 0.16199766099452972, 0.015346106141805649, -0.10207140445709229, -0.18682034313678741, -0.20648294687271118, -0.24027563631534576, -0.1267676204442978, 0.24760890007019043, 0.09874430298805237, 0.16392678022384644, -0.13734064996242523, 0.2225157618522644, -0.005926295183598995, -0.07602494210004807, 0.09486450254917145, 0.1635548174381256, -0.18732979893684387, 0.20289447903633118, 0.014624625444412231, 0.07391979545354843, -0.2556360960006714, -0.07002119719982147, -0.23406454920768738, -0.20299668610095978, -0.20390620827674866, -0.051708485931158066, -0.10553326457738876, -0.21490725874900818, 0.1908351331949234, 0.008203462697565556, -0.269665002822876, 0.023766934871673584, 0.06767836213111877, -0.028800444677472115, 0.10582177340984344, 0.09284374117851257, 0.12815111875534058, -0.19178171455860138, 0.10239821672439575, 0.30027279257774353, -0.09836561977863312, 0.16437099874019623, 0.25237157940864563, 0.014447242952883244, -0.1927371770143509, 0.2903262972831726, -0.029787268489599228, -0.02022256888449192, 0.07676799595355988, 0.15097326040267944, -0.019921140745282173, 0.0119151771068573, 0.23019282519817352, -0.012590868398547173, -0.3414023816585541, 0.04829872027039528, -0.10512754321098328, -0.08076627552509308, 0.12339448183774948, 0.07671944051980972, -0.19723670184612274, -0.14034268260002136, -0.0026763579808175564, -0.10232457518577576, 0.013542784377932549, -0.09435436874628067, 0.14624084532260895, 0.3029458224773407, 0.1409797966480255, 0.06951713562011719, 0.028030334040522575, 0.31765443086624146, -0.022262686863541603, 0.23245178163051605, -0.008517306298017502, 0.2917579710483551, -0.3947145342826843, 0.2545648515224457, -0.34105393290519714, -0.2874448299407959, 0.2462410032749176, -0.11179308593273163, 0.15258997678756714, -0.11305177211761475, 0.46757087111473083, 0.009595534764230251, -0.08790531754493713, 0.2560459077358246, -0.15017803013324738, -0.2140808403491974, -0.234759122133255, 0.1089041531085968, 0.10551346093416214, -0.2005457580089569, 0.2257901132106781, -0.06916196644306183, -0.12089833617210388, 0.13579365611076355, -0.12565268576145172, 0.11022517830133438, 0.09048357605934143, -0.08079907298088074, 0.1434248387813568, 0.20831304788589478, -0.13222810626029968, -0.11993332952260971, -0.06850584596395493, -0.043661605566740036, -0.03904226794838905, 0.03877699375152588, -0.20222879946231842, 0.007268625311553478, 0.29809099435806274, 0.24238106608390808, -0.10251197963953018, 0.2369140237569809, -0.1082175001502037, -0.18347536027431488, 0.09262426197528839, 0.2224535346031189, 0.13730642199516296, 0.34269002079963684, -0.05535900592803955, 0.2446829080581665, -0.27362945675849915, 0.1161823719739914, 0.11171921342611313, 0.06476802378892899, -0.055380433797836304, -0.060492996126413345, -0.23047678172588348, 0.1905432939529419, 0.17878858745098114, -0.034137170761823654, -0.12144248187541962, 0.0400816909968853, 0.09738990664482117, 0.27784818410873413, 0.05350986123085022, 0.0799473226070404, -0.09100034832954407, 0.044106196612119675, 0.015271360985934734, 0.23643094301223755, 0.11459513753652573, -0.17258130013942719, -0.1019362211227417, -0.2561444640159607, -0.07677910476922989, 0.11260915547609329, 0.29276829957962036, -0.008510134182870388, 0.07895601540803909, 0.14660771191120148, -0.18716107308864594, -0.10354787111282349, -0.08553875982761383, 0.14419116079807281, -0.13952070474624634, 0.007478408981114626, -0.1316976249217987, 0.0470128133893013, 0.11335612088441849, 0.0602756142616272, 0.07137677073478699, 0.11158794909715652, -0.007088662590831518, 0.2711101770401001, -0.046944957226514816, 0.020488489419221878, -0.0835333913564682, -0.09788452088832855, 0.20643140375614166, -0.10932773351669312, -0.26651811599731445, 0.10130354017019272, -0.15226690471172333, -0.019536832347512245, 0.18629422783851624, -0.09634663909673691, 0.11706069856882095, -0.03301221877336502, -0.1682882308959961, -0.026699770241975784, 0.0900210589170456, -0.015251727774739265, 0.04887447878718376, 0.02916632778942585, -0.0015428299084305763, 0.04181922227144241, -0.10949459671974182, 0.13154833018779755, 0.06465592235326767, 0.004123684484511614, 0.07272393256425858, -0.12854968011379242, -0.06099061295390129, 0.07421799749135971, -0.0745149701833725, -0.0969255343079567, -0.09229706227779388, -0.0054055191576480865, 0.031525835394859314, -0.2594608664512634, -0.10635572671890259, 0.2384505420923233, -0.04666086286306381, 0.14007681608200073, 0.021032189950346947, 0.07722068578004837, 0.0049848114140331745, 0.1611843854188919, -0.25783538818359375, 0.039296384900808334, 0.04010767862200737, 0.08144774287939072, 0.20845229923725128, 0.05158601328730583, 0.16171498596668243, 0.13297246396541595, 0.24972836673259735, 0.06802341341972351, 0.1720595359802246, -0.13363514840602875, 0.08837246894836426, 0.12973935902118683, -0.07285842299461365, 0.10215407609939575, 0.16164612770080566, 0.015299764461815357, -0.2938823997974396, 0.016426967456936836, -0.037470970302820206, -0.004040547180920839, -0.005645217373967171, 0.08236376196146011, 0.16644364595413208, 0.09902599453926086, -0.05275753512978554, -0.2918626070022583, -0.1622837334871292, -0.05127536132931709, 0.13944734632968903, -0.27126389741897583, 0.02701398730278015, -0.11068454384803772, -0.04868066683411598, 0.01082613691687584, 0.12261169403791428, 0.051741499453783035, 0.1266719102859497, 0.02271607331931591, -0.13199105858802795, -0.13346073031425476, -0.0020404623355716467, -0.09289635717868805, 0.19689802825450897, -0.05647411197423935, 0.13419903814792633, -0.11625474691390991, 0.061448197811841965, 0.09030262380838394, -0.06716905534267426, 0.10253988951444626, -0.21333900094032288, 0.13216754794120789, 0.07283662259578705, -0.16344864666461945, -0.26142436265945435, -0.06750352680683136, -0.08327029645442963, 0.19081084430217743, -0.013076983392238617, -0.1097981259226799, -0.027941757813096046, -0.013700786046683788, -0.04357823729515076, -0.13591808080673218, 0.0925501212477684, -0.22530707716941833, -0.17354625463485718, -0.051604196429252625, -0.09740258753299713, -0.2065373659133911, -0.0458349846303463, 0.04530826583504677, 0.009515663608908653, -0.11265631765127182, 0.19568580389022827, -0.17228442430496216, -0.03333134576678276, -0.1844302862882614, -0.23656460642814636, -0.07536615431308746, -0.11635364592075348, -0.06613785028457642, 0.05050795525312424, 0.01581464521586895, 0.0809890627861023, 0.09253597259521484, 0.008996621705591679, 0.1635398268699646, -0.009358128532767296, -0.02727801911532879, -0.001346647273749113, 0.006791290827095509, -0.08883611112833023, -0.007521722465753555, -0.10866954922676086, -0.0004782759351655841, 0.10208766162395477, 0.03635198622941971, -0.021383652463555336, -0.15748457610607147, -0.08374819904565811, -0.19961416721343994, 0.09657155722379684, -0.14155736565589905, 0.20200230181217194, -0.1961459219455719, -0.06669136136770248, 0.08976122736930847, -0.09693894535303116, 0.059717241674661636, 0.15721485018730164, 0.2336905598640442, 0.027425700798630714, 0.021503258496522903, 0.12825095653533936, 0.05065038055181503, -0.0874137431383133, 0.019115030765533447, 0.04899623245000839, 0.22920477390289307, -0.00892715435475111, 0.07981086522340775, -0.23701660335063934, 0.1542392075061798, 0.1285027712583542, -0.1525006741285324, 0.06820816546678543, 0.0652003288269043, 0.03848294913768768, -0.15637488663196564, 0.07908271253108978, 0.07597091048955917, -0.02245907299220562, -0.25471511483192444, 0.219900444149971, 0.19959427416324615, 0.0538649782538414, -0.004130784887820482, -0.12083359807729721, 0.19833657145500183, 0.15858709812164307, 0.022972634062170982, 0.0914485901594162, 0.07104555517435074, 0.024838855490088463, 0.11470047384500504, 0.08995702862739563, -0.05557619407773018, 0.10671006143093109, 0.004474848974496126, -0.04839951545000076, -0.11468519270420074, -0.008610113523900509, -0.02975255623459816, 0.09545420110225677, -0.47428297996520996, -0.08396386355161667, 0.028936628252267838, 0.1354081928730011, 0.2864345908164978, 0.047490790486335754, -0.12491202354431152, 0.04801676422357559, -0.07284660637378693, 0.02097548171877861, 0.12109818309545517, 0.04063422977924347, -0.0291120782494545, 0.05190958082675934, -0.06932109594345093, 0.15490299463272095, -0.12691758573055267, 0.021070333197712898, 0.19353489577770233, 0.0013713942607864738, 0.10933327674865723, 0.09042047709226608, 0.08911333978176117, 0.04480776935815811, -0.03147855028510094, -0.006441852543503046, 0.003253486705943942, 0.18751294910907745, 0.01883080042898655, 0.1013726145029068, -0.17395465075969696, 0.2547587752342224, 0.08908148854970932, 0.154779314994812, 0.0013716449029743671, 0.06320410221815109, 0.22252734005451202, -0.04002771154046059, -0.11959178745746613, 0.1080378070473671, -0.0068870061077177525, -0.04288268834352493, 0.09330764412879944, -0.06826087832450867, -0.055045198649168015, -0.07290951162576675, 0.032568834722042084, 0.15349797904491425, -0.038772426545619965, -0.030536780133843422, 0.013836906291544437, -0.13435877859592438, -0.05136094242334366, 0.0063803414814174175, -0.018361913040280342, -0.1423458307981491, -0.06024126708507538, -0.20191235840320587, 0.06377778202295303, 0.02299785055220127, -0.02313147857785225, 0.1153753399848938, -0.04541110247373581, 0.1060805693268776, -0.22055251896381378, -0.1098872497677803, 0.12021070718765259, -0.12392915785312653, 0.14330556988716125, -0.24710464477539062, -0.05925010144710541, -0.15983405709266663, -0.0035931733436882496, -0.37907448410987854, 0.03898086026310921, 0.15964967012405396, 0.08732932806015015, -0.039093829691410065, 0.04405263811349869, -0.02909398451447487, -0.08397197723388672, -0.15671654045581818, -0.012537093833088875, -0.023701118305325508, -0.19636735320091248, -0.036918096244335175, 0.018961695954203606, 0.1994825005531311, -0.1359705924987793, -0.14592808485031128, -0.22301694750785828, 0.3316592574119568, -0.011148524470627308, 0.09562143683433533, -0.1679989993572235, 0.0369420163333416, -0.010052140802145004, 0.2521897554397583, -0.08426063507795334, 0.25298985838890076, 0.055942583829164505, 0.016763191670179367, 0.05143455043435097, 0.4151240289211273, 0.019169142469763756, 0.15611137449741364, 0.003961719572544098, -0.1541879028081894, -0.03535795584321022, -0.19838662445545197, 0.012217573821544647, -0.06266206502914429, 0.32323774695396423, -0.03723631426692009, 0.04181305691599846, 0.22375816106796265, 0.08782549947500229, -0.009295884519815445, -0.08546479791402817, 0.10464882105588913, 0.3163700997829437, -0.20745694637298584, -0.0839623287320137, -0.11258094012737274, -0.28096097707748413, -0.031633343547582626, -0.18672992289066315, 0.04473328962922096, -0.006994778756052256, 0.190396249294281, -0.023311099037528038, -0.006493879482150078, 0.23869355022907257, 0.16878452897071838, 0.2107274979352951, 0.030886739492416382, 0.18088895082473755, 0.030788157135248184, -0.32621580362319946, -0.15059995651245117, -0.037243641912937164, -0.13770607113838196, -0.01151188276708126, 